<?xml version="1.0"?>
<opencv_storage>
<my_svm type_id="opencv-ml-svm">
  <svm_type>C_SVC</svm_type>
  <kernel><type>RBF</type>
    <gamma>8.</gamma></kernel>
  <C>10.</C>
  <term_criteria><epsilon>1.1920928955078125e-07</epsilon>
    <iterations>2147483647</iterations></term_criteria>
  <var_all>1000</var_all>
  <var_count>1000</var_count>
  <class_count>2</class_count>
  <class_labels type_id="opencv-matrix">
    <rows>1</rows>
    <cols>2</cols>
    <dt>i</dt>
    <data>
      0 1</data></class_labels>
  <sv_total>146</sv_total>
  <support_vectors>
    <_>
      0. 0. 0. 0. 4.67289705e-03 0. 0. 0. 0. 0. 0. 0. 0. 4.67289705e-03
      0. 4.67289705e-03 9.34579410e-03 4.67289705e-03 9.34579410e-03 0.
      0. 0. 0. 0. 0. 0. 0. 4.67289705e-03 0. 0. 0. 0. 0. 0. 0.
      4.67289705e-03 0. 0. 0. 0. 0. 0. 0. 0. 0. 0. 4.67289705e-03
      4.67289705e-03 0. 0. 1.40186911e-02 0. 0. 0. 0. 0. 0. 0. 0. 0.
      4.67289705e-03 0. 0. 0. 0. 0. 0. 0. 0. 0. 0. 0. 0. 0. 0. 0. 0.
      1.40186911e-02 4.67289705e-03 9.34579410e-03 0. 0. 0. 0. 0.
      4.67289705e-03 0. 0. 0. 0. 0. 0. 4.67289705e-03 0. 0.
      9.34579410e-03 0. 0. 0. 4.67289705e-03 0. 0. 0. 0. 0. 0. 0. 0. 0.
      4.67289705e-03 0. 0. 0. 0. 0. 4.67289705e-03 0. 0. 0. 0. 0.
      4.67289705e-03 4.67289705e-03 0. 0. 0. 0. 0. 0. 0. 4.67289705e-03
      4.67289705e-03 0. 0. 4.67289705e-03 0. 0. 0. 0. 0. 0. 0. 0. 0. 0.
      0. 0. 0. 9.34579410e-03 0. 0. 4.67289705e-03 4.67289705e-03 0. 0.
      0. 4.67289705e-03 0. 0. 0. 0. 9.34579410e-03 0. 0. 0. 0. 0. 0.
      4.67289705e-03 0. 0. 0. 0. 0. 0. 0. 0. 0. 0. 9.34579410e-03
      4.67289705e-03 4.67289705e-03 0. 0. 0. 0. 4.67289705e-03 0. 0. 0.
      4.67289705e-03 0. 4.67289705e-03 0. 0. 4.67289705e-03 0. 0. 0. 0.
      0. 0. 0. 0. 0. 0. 9.34579410e-03 0. 4.67289705e-03 0. 0.
      4.67289705e-03 0. 0. 0. 0. 4.67289705e-03 0. 0. 4.67289705e-03 0.
      0. 0. 4.67289705e-03 0. 0. 4.67289705e-03 0. 0. 0. 0. 0. 0. 0. 0.
      0. 0. 4.67289705e-03 4.67289705e-03 0. 0. 9.34579410e-03 0. 0. 0.
      4.67289705e-03 0. 0. 0. 0. 0. 0. 0. 0. 0. 0. 0. 0. 0.
      4.67289705e-03 0. 0. 0. 0. 0. 1.40186911e-02 4.67289705e-03 0. 0.
      0. 4.67289705e-03 0. 0. 4.67289705e-03 4.67289705e-03 0. 0. 0.
      4.67289705e-03 0. 0. 0. 0. 4.67289705e-03 0. 0. 0. 0. 0. 0. 0. 0.
      4.67289705e-03 0. 0. 0. 0. 0. 0. 0. 0. 4.67289705e-03 0. 0. 0. 0.
      0. 0. 0. 0. 4.67289705e-03 0. 0. 0. 4.67289705e-03 0. 0. 0. 0.
      4.67289705e-03 0. 0. 0. 0. 0. 0. 0. 4.67289705e-03 4.67289705e-03
      4.67289705e-03 0. 0. 0. 0. 4.67289705e-03 0. 0. 0. 0. 0. 0. 0. 0.
      0. 0. 0. 0. 0. 0. 0. 0. 9.34579410e-03 0. 4.67289705e-03 0. 0. 0.
      0. 0. 4.67289705e-03 0. 0. 0. 0. 0. 0. 0. 0. 0. 0. 0. 0. 0. 0. 0.
      0. 0. 0. 0. 0. 0. 0. 0. 0. 0. 9.34579410e-03 0. 0. 0. 0. 0. 0. 0.
      0. 0. 4.67289705e-03 0. 0. 0. 0. 0. 0. 0. 0. 4.67289705e-03 0. 0.
      0. 0. 0. 4.67289705e-03 9.34579410e-03 0. 0. 0. 0. 0. 0. 0. 0. 0.
      4.67289705e-03 0. 4.67289705e-03 0. 0. 0. 0. 0. 0. 9.34579410e-03
      0. 0. 4.67289705e-03 0. 0. 9.34579410e-03 0. 4.67289705e-03
      4.67289705e-03 0. 9.34579410e-03 4.67289705e-03 0. 0. 0.
      9.34579410e-03 0. 0. 0. 4.67289705e-03 0. 0. 0. 0. 0. 0. 0. 0. 0.
      4.67289705e-03 4.67289705e-03 0. 0. 0. 4.67289705e-03
      4.67289705e-03 4.67289705e-03 0. 0. 0. 0. 0. 0. 0. 0. 0.
      4.67289705e-03 0. 0. 0. 0. 0. 4.67289705e-03 0. 4.67289705e-03 0.
      0. 0. 0. 0. 0. 0. 0. 0. 0. 0. 0. 0. 0. 0. 0. 0. 0. 0. 0. 0. 0. 0.
      4.67289705e-03 0. 0. 0. 0. 0. 0. 0. 0. 4.67289705e-03 0. 0. 0. 0.
      0. 0. 0. 0. 4.67289705e-03 4.67289705e-03 0. 0. 0. 0. 0. 0. 0. 0.
      0. 0. 0. 0. 4.67289705e-03 0. 0. 0. 4.67289705e-03 0.
      4.67289705e-03 0. 0. 4.67289705e-03 0. 0. 0. 0. 0. 0. 0. 0.
      9.34579410e-03 4.67289705e-03 0. 9.34579410e-03 0. 0.
      4.67289705e-03 0. 0. 4.67289705e-03 0. 4.67289705e-03 0. 0. 0. 0.
      4.67289705e-03 0. 0. 0. 0. 0. 0. 0. 0. 0. 0. 0. 0. 0.
      4.67289705e-03 0. 0. 0. 0. 9.34579410e-03 0. 0. 0. 0. 0.
      4.67289705e-03 0. 0. 0. 0. 0. 0. 0. 0. 0. 0. 0. 0. 0. 0.
      4.67289705e-03 0. 0. 0. 0. 0. 0. 0. 0. 0. 0. 0. 0. 4.67289705e-03
      0. 4.67289705e-03 0. 0. 0. 0. 0. 0. 0. 0. 4.67289705e-03 0. 0. 0.
      0. 0. 4.67289705e-03 0. 0. 4.67289705e-03 0. 0. 0. 0.
      4.67289705e-03 0. 0. 0. 0. 4.67289705e-03 4.67289705e-03 0.
      4.67289705e-03 0. 0. 0. 0. 0. 0. 0. 0. 0. 0. 0. 0. 0. 0.
      1.40186911e-02 0. 0. 0. 0. 0. 0. 0. 0. 0. 0. 0. 0. 0. 0. 0.
      4.67289705e-03 0. 0. 0. 0. 0. 0. 0. 0. 4.67289705e-03 0. 0. 0. 0.
      0. 9.34579410e-03 0. 0. 0. 0. 0. 0. 0. 0. 0. 0. 0. 0. 0. 0. 0.
      4.67289705e-03 0. 0. 0. 4.67289705e-03 0. 4.67289705e-03 0. 0. 0.
      0. 0. 0. 0. 0. 0. 0. 0. 0. 0. 0. 0. 4.67289705e-03 4.67289705e-03
      4.67289705e-03 0. 0. 0. 0. 0. 0. 0. 0. 0. 4.67289705e-03
      4.67289705e-03 0. 0. 4.67289705e-03 0. 0. 0. 0. 0. 0. 0. 0. 0. 0.
      4.67289705e-03 0. 0. 0. 0. 0. 0. 0. 4.67289705e-03 0. 0. 0. 0.
      4.67289705e-03 0. 0. 0. 0. 0. 4.67289705e-03 0. 0. 0. 0. 0.
      4.67289705e-03 0. 4.67289705e-03 4.67289705e-03 0. 0. 0. 0. 0. 0.
      0. 1.40186911e-02 9.34579410e-03 1.40186911e-02 0. 0. 0. 0. 0. 0.
      0. 0. 0. 0. 0. 0. 4.67289705e-03 9.34579410e-03 0. 4.67289705e-03
      0. 0. 4.67289705e-03 0. 0. 0. 0. 4.67289705e-03 0. 0. 0. 0. 0. 0.
      0. 4.67289705e-03 0. 0. 0. 0. 9.34579410e-03 4.67289705e-03 0. 0.
      4.67289705e-03 0. 9.34579410e-03 0. 9.34579410e-03 0. 0. 0. 0. 0.
      0. 4.67289705e-03 0. 0. 0. 0. 0. 0. 0. 0. 0. 0. 0. 0. 0. 0. 0. 0.
      0. 4.67289705e-03 0. 4.67289705e-03 4.67289705e-03 0. 0. 0.
      4.67289705e-03 0. 9.34579410e-03 0. 0. 0. 0. 9.34579410e-03 0. 0.
      0. 0. 0. 0. 0. 0. 0. 0. 0. 0. 4.67289705e-03 0. 0. 4.67289705e-03
      0. 4.67289705e-03 0. 0. 0. 0. 0. 0. 0. 0. 0. 4.67289705e-03 0.
      4.67289705e-03 0. 0. 0. 0. 0. 0. 4.67289705e-03 0. 0.
      4.67289705e-03 0. 0. 0. 0. 0. 0. 0. 0. 0. 0. 0. 0. 0. 0. 0. 0. 0.
      0. 0. 0. 0. 0. 0. 0. 0. 4.67289705e-03 0. 0. 0. 0. 0. 0. 0. 0. 0.
      0. 0. 0. 0. 0. 4.67289705e-03 0. 0. 0. 0. 0. 0. 0. 0. 0. 0. 0. 0.
      0. 0. 4.67289705e-03 0. 0. 4.67289705e-03 4.67289705e-03 0. 0. 0.
      0. 0.</_>
    <_>
      0. 0. 0. 0. 4.62962966e-03 0. 0. 0. 0. 0. 0. 0. 0. 4.62962966e-03
      0. 4.62962966e-03 9.25925933e-03 4.62962966e-03 9.25925933e-03 0.
      0. 0. 0. 0. 0. 0. 0. 0. 0. 0. 0. 0. 0. 0. 0. 0. 0. 0. 0. 0. 0. 0.
      0. 0. 0. 0. 9.25925933e-03 0. 0. 0. 1.85185187e-02 0. 0. 0. 0. 0.
      0. 0. 0. 4.62962966e-03 4.62962966e-03 0. 0. 0. 0. 0. 0. 0. 0. 0.
      0. 0. 0. 0. 0. 0. 0. 1.38888890e-02 4.62962966e-03 9.25925933e-03
      0. 0. 0. 0. 0. 4.62962966e-03 0. 0. 0. 0. 0. 0. 9.25925933e-03
      4.62962966e-03 0. 4.62962966e-03 0. 0. 0. 4.62962966e-03 0. 0. 0.
      0. 0. 0. 0. 0. 4.62962966e-03 0. 0. 0. 0. 0. 0. 4.62962966e-03 0.
      0. 0. 0. 0. 4.62962966e-03 4.62962966e-03 0. 4.62962966e-03 0.
      4.62962966e-03 0. 0. 0. 4.62962966e-03 4.62962966e-03 0. 0.
      4.62962966e-03 0. 0. 4.62962966e-03 0. 0. 0. 0. 0. 0. 0. 0. 0. 0.
      9.25925933e-03 0. 0. 4.62962966e-03 4.62962966e-03 0. 0. 0. 0. 0.
      0. 0. 0. 9.25925933e-03 0. 0. 0. 0. 0. 0. 4.62962966e-03 0. 0. 0.
      0. 0. 0. 0. 0. 0. 0. 0. 4.62962966e-03 4.62962966e-03 0. 0. 0. 0.
      4.62962966e-03 4.62962966e-03 0. 0. 4.62962966e-03 0. 0. 0. 0. 0.
      0. 0. 0. 0. 0. 0. 0. 0. 0. 0. 9.25925933e-03 0. 4.62962966e-03 0.
      0. 4.62962966e-03 0. 0. 0. 0. 0. 0. 0. 4.62962966e-03 0. 0. 0.
      4.62962966e-03 0. 0. 4.62962966e-03 0. 0. 0. 0. 0. 0. 0. 0.
      4.62962966e-03 0. 0. 4.62962966e-03 0. 0. 4.62962966e-03 0. 0. 0.
      4.62962966e-03 0. 0. 0. 0. 0. 0. 0. 0. 0. 0. 0. 0. 0.
      4.62962966e-03 0. 0. 0. 0. 4.62962966e-03 1.38888890e-02
      4.62962966e-03 0. 0. 0. 0. 0. 0. 4.62962966e-03 4.62962966e-03
      4.62962966e-03 0. 0. 4.62962966e-03 0. 0. 0. 0. 4.62962966e-03 0.
      0. 0. 4.62962966e-03 0. 0. 0. 0. 4.62962966e-03 0. 0. 0. 0. 0. 0.
      0. 0. 0. 0. 0. 0. 0. 0. 0. 0. 0. 4.62962966e-03 0. 0. 0.
      4.62962966e-03 0. 0. 0. 0. 4.62962966e-03 0. 0. 0. 0. 0. 0. 0. 0.
      4.62962966e-03 4.62962966e-03 0. 0. 0. 0. 4.62962966e-03 0. 0. 0.
      0. 0. 0. 0. 0. 0. 0. 0. 0. 0. 0. 0. 0. 9.25925933e-03 0.
      4.62962966e-03 0. 0. 0. 0. 0. 4.62962966e-03 0. 0. 0. 0. 0. 0. 0.
      0. 0. 0. 0. 0. 0. 0. 0. 0. 0. 0. 0. 0. 0. 4.62962966e-03 0. 0. 0.
      9.25925933e-03 0. 0. 0. 0. 0. 0. 0. 0. 0. 4.62962966e-03 0. 0. 0.
      0. 0. 0. 0. 4.62962966e-03 4.62962966e-03 0. 0. 0. 0. 0.
      4.62962966e-03 9.25925933e-03 0. 0. 0. 0. 0. 0. 0. 4.62962966e-03
      0. 4.62962966e-03 0. 4.62962966e-03 0. 0. 0. 0. 0. 0. 0. 0. 0.
      4.62962966e-03 0. 0. 9.25925933e-03 0. 4.62962966e-03
      4.62962966e-03 0. 9.25925933e-03 0. 0. 4.62962966e-03 0.
      9.25925933e-03 0. 0. 0. 0. 0. 0. 4.62962966e-03 0. 4.62962966e-03
      0. 0. 0. 0. 4.62962966e-03 4.62962966e-03 0. 0. 0. 4.62962966e-03
      0. 4.62962966e-03 0. 0. 0. 0. 0. 0. 0. 0. 0. 4.62962966e-03 0. 0.
      0. 0. 0. 4.62962966e-03 0. 0. 0. 0. 0. 0. 0. 0. 0. 0. 0. 0. 0. 0.
      4.62962966e-03 0. 0. 0. 0. 0. 0. 0. 0. 0. 0. 4.62962966e-03 0. 0.
      0. 0. 0. 0. 0. 0. 4.62962966e-03 0. 0. 0. 0. 0. 0. 0. 0. 0.
      4.62962966e-03 0. 0. 0. 0. 4.62962966e-03 0. 0. 0. 0. 0. 0. 0.
      4.62962966e-03 0. 0. 0. 4.62962966e-03 0. 1.38888890e-02 0. 0.
      4.62962966e-03 0. 0. 0. 0. 0. 0. 0. 0. 9.25925933e-03
      4.62962966e-03 0. 9.25925933e-03 0. 0. 9.25925933e-03 0. 0.
      4.62962966e-03 0. 4.62962966e-03 0. 0. 0. 0. 4.62962966e-03 0. 0.
      0. 4.62962966e-03 0. 0. 4.62962966e-03 0. 0. 0. 0. 0. 0.
      4.62962966e-03 0. 0. 0. 0. 4.62962966e-03 4.62962966e-03 0. 0. 0.
      0. 4.62962966e-03 0. 0. 0. 0. 0. 0. 0. 0. 0. 0. 0. 0. 0. 0. 0. 0.
      0. 0. 0. 0. 0. 0. 0. 0. 0. 0. 0. 4.62962966e-03 0. 4.62962966e-03
      0. 0. 0. 0. 0. 0. 0. 0. 4.62962966e-03 0. 0. 0. 4.62962966e-03 0.
      0. 0. 0. 4.62962966e-03 0. 0. 4.62962966e-03 0. 4.62962966e-03 0.
      0. 4.62962966e-03 0. 0. 4.62962966e-03 0. 4.62962966e-03 0. 0. 0.
      0. 0. 0. 0. 0. 0. 0. 0. 0. 0. 0. 1.38888890e-02 0. 0. 0. 0. 0. 0.
      0. 4.62962966e-03 0. 0. 0. 0. 0. 0. 0. 4.62962966e-03 0. 0. 0. 0.
      0. 0. 0. 0. 4.62962966e-03 0. 0. 0. 0. 0. 9.25925933e-03 0. 0. 0.
      0. 0. 0. 0. 0. 0. 0. 0. 0. 0. 0. 0. 9.25925933e-03 0. 0. 0.
      4.62962966e-03 0. 4.62962966e-03 4.62962966e-03 0. 0. 0. 0. 0. 0.
      0. 0. 0. 0. 0. 0. 0. 0. 4.62962966e-03 0. 4.62962966e-03 0. 0. 0.
      0. 0. 0. 0. 0. 0. 4.62962966e-03 4.62962966e-03 0. 0.
      4.62962966e-03 0. 0. 0. 0. 0. 0. 0. 0. 0. 0. 4.62962966e-03 0. 0.
      0. 0. 0. 0. 0. 4.62962966e-03 0. 0. 0. 0. 4.62962966e-03 0. 0. 0.
      0. 0. 4.62962966e-03 0. 0. 0. 0. 0. 9.25925933e-03 0.
      4.62962966e-03 4.62962966e-03 0. 0. 0. 0. 0. 0. 0. 4.62962966e-03
      9.25925933e-03 9.25925933e-03 0. 0. 0. 0. 0. 0. 0. 0. 0. 0. 0. 0.
      4.62962966e-03 4.62962966e-03 0. 4.62962966e-03 0. 0.
      4.62962966e-03 0. 0. 0. 0. 0. 0. 0. 4.62962966e-03 0. 0. 0. 0.
      4.62962966e-03 0. 0. 0. 0. 9.25925933e-03 4.62962966e-03 0. 0.
      4.62962966e-03 0. 9.25925933e-03 0. 9.25925933e-03 0. 0. 0. 0. 0.
      0. 4.62962966e-03 0. 0. 0. 0. 0. 0. 0. 0. 0. 0. 0. 0. 0. 0. 0. 0.
      0. 4.62962966e-03 0. 4.62962966e-03 4.62962966e-03 0. 0. 0.
      4.62962966e-03 0. 9.25925933e-03 0. 0. 0. 0. 9.25925933e-03 0. 0.
      0. 0. 0. 0. 0. 0. 0. 0. 0. 0. 4.62962966e-03 0. 0. 4.62962966e-03
      4.62962966e-03 0. 0. 0. 0. 0. 0. 0. 0. 0. 0. 4.62962966e-03 0. 0.
      0. 0. 0. 0. 0. 0. 4.62962966e-03 0. 0. 4.62962966e-03 0. 0. 0. 0.
      0. 0. 0. 0. 0. 0. 0. 0. 0. 0. 0. 0. 0. 0. 0. 0. 0. 0. 0. 0.
      4.62962966e-03 0. 0. 0. 0. 0. 0. 0. 0. 0. 0. 0. 0. 0. 0. 0. 0. 0.
      0. 0. 0. 0. 0. 0. 0. 0. 0. 0. 0. 4.62962966e-03 0. 9.25925933e-03
      0. 0. 4.62962966e-03 0. 0. 0. 0. 0. 0.</_>
    <_>
      0. 0. 0. 0. 4.46428591e-03 0. 0. 0. 0. 0. 0. 0. 0. 4.46428591e-03
      0. 4.46428591e-03 8.92857183e-03 0. 1.78571437e-02 0. 0.
      4.46428591e-03 0. 0. 0. 0. 0. 0. 0. 0. 0. 4.46428591e-03 0. 0. 0.
      0. 0. 0. 0. 0. 0. 0. 0. 0. 0. 4.46428591e-03 8.92857183e-03
      4.46428591e-03 0. 0. 1.33928582e-02 0. 0. 0. 0. 0. 0. 0. 0. 0. 0.
      0. 0. 0. 0. 0. 0. 0. 4.46428591e-03 0. 0. 0. 4.46428591e-03 0. 0.
      0. 0. 1.33928582e-02 4.46428591e-03 8.92857183e-03 0. 0. 0. 0. 0.
      4.46428591e-03 0. 0. 0. 0. 0. 0. 4.46428591e-03 0. 0.
      4.46428591e-03 4.46428591e-03 0. 0. 4.46428591e-03 0. 0. 0. 0. 0.
      0. 0. 0. 4.46428591e-03 4.46428591e-03 0. 0. 0. 0. 0.
      4.46428591e-03 0. 0. 0. 0. 0. 4.46428591e-03 4.46428591e-03 0.
      4.46428591e-03 0. 4.46428591e-03 0. 0. 0. 4.46428591e-03
      4.46428591e-03 0. 0. 4.46428591e-03 0. 0. 0. 0. 0. 0. 0.
      4.46428591e-03 0. 0. 0. 0. 0. 4.46428591e-03 0. 0. 0.
      4.46428591e-03 0. 0. 0. 0. 0. 0. 0. 0. 8.92857183e-03 0. 0. 0. 0.
      4.46428591e-03 0. 4.46428591e-03 0. 0. 0. 0. 0. 0. 0. 0. 0. 0.
      4.46428591e-03 4.46428591e-03 4.46428591e-03 0. 0. 0. 0.
      4.46428591e-03 4.46428591e-03 0. 0. 4.46428591e-03 0. 0. 0. 0.
      4.46428591e-03 0. 0. 0. 0. 0. 0. 0. 0. 0. 0. 8.92857183e-03 0.
      4.46428591e-03 0. 0. 4.46428591e-03 0. 0. 0. 0. 4.46428591e-03 0.
      0. 4.46428591e-03 0. 0. 0. 4.46428591e-03 0. 0. 4.46428591e-03 0.
      0. 0. 0. 0. 0. 0. 0. 0. 0. 4.46428591e-03 4.46428591e-03 0. 0.
      8.92857183e-03 0. 0. 0. 4.46428591e-03 0. 0. 0. 0. 0. 0. 0. 0. 0.
      0. 0. 0. 0. 4.46428591e-03 0. 0. 0. 0. 4.46428591e-03
      8.92857183e-03 4.46428591e-03 0. 0. 0. 4.46428591e-03 0. 0.
      4.46428591e-03 4.46428591e-03 0. 0. 0. 4.46428591e-03 0. 0. 0. 0.
      4.46428591e-03 0. 0. 0. 0. 0. 0. 0. 0. 4.46428591e-03 0. 0. 0. 0.
      0. 0. 0. 0. 4.46428591e-03 0. 0. 0. 0. 0. 0. 0. 0. 4.46428591e-03
      0. 0. 0. 4.46428591e-03 0. 0. 0. 0. 4.46428591e-03 0. 0. 0. 0. 0.
      0. 0. 4.46428591e-03 4.46428591e-03 4.46428591e-03 0. 0. 0. 0.
      4.46428591e-03 0. 0. 0. 0. 0. 0. 0. 0. 0. 0. 0. 0. 0. 0. 0. 0.
      4.46428591e-03 0. 4.46428591e-03 0. 0. 0. 0. 0. 4.46428591e-03 0.
      0. 0. 0. 0. 0. 0. 0. 0. 0. 0. 0. 0. 0. 0. 0. 0. 0. 0. 0. 0.
      4.46428591e-03 0. 0. 0. 8.92857183e-03 0. 0. 0. 0. 0. 0. 0. 0. 0.
      4.46428591e-03 0. 0. 0. 0. 0. 0. 0. 4.46428591e-03 4.46428591e-03
      0. 0. 0. 0. 0. 4.46428591e-03 8.92857183e-03 0. 0. 0. 0. 0. 0. 0.
      4.46428591e-03 0. 4.46428591e-03 0. 8.92857183e-03 0. 0. 0. 0. 0.
      0. 4.46428591e-03 0. 0. 4.46428591e-03 0. 0. 8.92857183e-03 0.
      4.46428591e-03 4.46428591e-03 0. 8.92857183e-03 4.46428591e-03 0.
      4.46428591e-03 0. 8.92857183e-03 0. 0. 0. 0. 0. 0. 0. 0. 0. 0. 0.
      0. 0. 4.46428591e-03 4.46428591e-03 0. 0. 0. 4.46428591e-03 0.
      8.92857183e-03 0. 0. 0. 0. 0. 0. 4.46428591e-03 0. 0.
      4.46428591e-03 0. 0. 0. 0. 0. 4.46428591e-03 0. 0. 0. 0. 0. 0. 0.
      0. 0. 0. 0. 0. 0. 0. 0. 0. 0. 0. 0. 0. 0. 0. 0. 0. 0.
      4.46428591e-03 0. 0. 0. 0. 0. 0. 0. 0. 4.46428591e-03 0. 0. 0. 0.
      0. 0. 0. 0. 0. 4.46428591e-03 0. 0. 0. 0. 0. 0. 0. 0. 0. 0. 0. 0.
      4.46428591e-03 0. 0. 0. 4.46428591e-03 0. 4.46428591e-03 0. 0.
      4.46428591e-03 0. 0. 0. 0. 0. 0. 0. 0. 8.92857183e-03
      4.46428591e-03 0. 8.92857183e-03 0. 0. 4.46428591e-03 0. 0.
      4.46428591e-03 0. 4.46428591e-03 0. 0. 0. 0. 4.46428591e-03 0. 0.
      0. 4.46428591e-03 0. 0. 4.46428591e-03 0. 0. 0. 0. 0. 0.
      4.46428591e-03 0. 0. 0. 0. 4.46428591e-03 0. 0. 0. 0. 0.
      4.46428591e-03 0. 0. 0. 0. 0. 0. 0. 0. 4.46428591e-03 0. 0. 0. 0.
      0. 4.46428591e-03 0. 0. 0. 4.46428591e-03 0. 4.46428591e-03 0. 0.
      0. 0. 0. 0. 4.46428591e-03 0. 4.46428591e-03 0. 0. 0. 0. 0. 0. 0.
      0. 4.46428591e-03 0. 0. 0. 0. 0. 4.46428591e-03 0. 0.
      8.92857183e-03 0. 0. 0. 0. 4.46428591e-03 0. 0. 4.46428591e-03 0.
      0. 4.46428591e-03 0. 4.46428591e-03 0. 0. 0. 0. 0. 0. 0. 0. 0. 0.
      0. 0. 0. 0. 1.33928582e-02 0. 0. 0. 0. 0. 0. 0. 0. 0. 0. 0. 0. 0.
      0. 0. 0. 0. 0. 0. 0. 0. 0. 0. 0. 4.46428591e-03 0. 0. 0. 0. 0.
      8.92857183e-03 0. 0. 0. 0. 0. 0. 0. 0. 4.46428591e-03 0. 0. 0. 0.
      0. 0. 8.92857183e-03 0. 0. 0. 4.46428591e-03 0. 4.46428591e-03
      4.46428591e-03 0. 0. 0. 0. 0. 0. 0. 0. 0. 0. 0. 0. 0. 0.
      4.46428591e-03 0. 4.46428591e-03 0. 0. 0. 0. 0. 0. 0. 0. 0.
      4.46428591e-03 0. 0. 0. 4.46428591e-03 0. 0. 0. 4.46428591e-03 0.
      0. 0. 0. 0. 0. 0. 0. 4.46428591e-03 0. 0. 0. 0. 0. 4.46428591e-03
      0. 4.46428591e-03 0. 0. 0. 0. 0. 0. 0. 0. 4.46428591e-03 0. 0. 0.
      0. 0. 4.46428591e-03 0. 4.46428591e-03 4.46428591e-03 0. 0. 0. 0.
      0. 0. 0. 8.92857183e-03 1.33928582e-02 1.33928582e-02 0. 0. 0. 0.
      0. 0. 0. 0. 0. 0. 0. 4.46428591e-03 4.46428591e-03 8.92857183e-03
      0. 0. 0. 0. 4.46428591e-03 0. 0. 0. 0. 0. 0. 0. 0. 0. 0. 0. 0.
      4.46428591e-03 0. 4.46428591e-03 0. 0. 8.92857183e-03
      4.46428591e-03 0. 0. 4.46428591e-03 0. 8.92857183e-03 0.
      8.92857183e-03 0. 0. 0. 0. 0. 0. 4.46428591e-03 0. 0. 0. 0. 0. 0.
      0. 0. 0. 0. 0. 0. 0. 0. 0. 0. 0. 4.46428591e-03 0. 4.46428591e-03
      4.46428591e-03 0. 0. 0. 0. 0. 8.92857183e-03 0. 0. 0. 0.
      8.92857183e-03 0. 0. 0. 0. 0. 0. 0. 0. 0. 0. 0. 0. 4.46428591e-03
      0. 0. 4.46428591e-03 0. 0. 0. 0. 0. 0. 0. 0. 0. 0. 0.
      4.46428591e-03 0. 4.46428591e-03 0. 0. 0. 0. 0. 4.46428591e-03
      4.46428591e-03 0. 0. 4.46428591e-03 0. 0. 0. 0. 0. 0. 0. 0. 0. 0.
      0. 0. 0. 0. 0. 0. 0. 0. 0. 0. 0. 0. 0. 0. 0. 4.46428591e-03 0. 0.
      0. 0. 0. 0. 0. 0. 0. 0. 0. 0. 0. 0. 0. 0. 0. 0. 0. 0. 0. 0. 0. 0.
      0. 0. 0. 4.46428591e-03 0. 4.46428591e-03 0. 0. 4.46428591e-03 0.
      0. 0. 0. 0. 0.</_>
    <_>
      0. 0. 0. 0. 0. 0. 0. 0. 0. 0. 1.07526882e-02 0. 0. 0.
      1.07526882e-02 0. 1.07526882e-02 0. 0. 0. 0. 0. 1.07526882e-02 0.
      0. 1.07526882e-02 0. 0. 0. 0. 0. 0. 0. 0. 0. 0. 0. 0. 0. 0. 0. 0.
      0. 1.07526882e-02 1.07526882e-02 0. 0. 1.07526882e-02 0. 0.
      3.22580636e-02 0. 0. 0. 0. 0. 0. 0. 0. 0. 0. 0. 0. 0. 0. 0.
      1.07526882e-02 0. 1.07526882e-02 0. 0. 0. 0. 0. 0. 0. 0.
      1.07526882e-02 1.07526882e-02 0. 0. 0. 0. 0. 0. 0. 1.07526882e-02
      1.07526882e-02 0. 0. 1.07526882e-02 0. 0. 0. 0. 0. 0. 0.
      1.07526882e-02 1.07526882e-02 0. 0. 0. 0. 0. 0. 0. 0. 0. 0. 0. 0.
      0. 0. 0. 0. 0. 0. 0. 1.07526882e-02 0. 1.07526882e-02 0. 0. 0. 0.
      0. 0. 0. 1.07526882e-02 0. 0. 0. 0. 0. 0. 0. 0. 0. 0. 0. 0. 0. 0.
      0. 0. 0. 0. 0. 0. 0. 1.07526882e-02 0. 0. 0. 0. 0. 0. 0. 0. 0. 0.
      0. 0. 2.15053763e-02 0. 0. 0. 0. 0. 0. 0. 0. 0. 0. 0. 0. 0.
      1.07526882e-02 0. 0. 0. 0. 0. 0. 0. 0. 0. 0. 0. 0. 0. 0. 0. 0. 0.
      0. 0. 0. 0. 0. 0. 0. 1.07526882e-02 0. 0. 0. 0. 0. 0. 0. 0. 0. 0.
      0. 0. 0. 0. 0. 2.15053763e-02 0. 0. 0. 0. 0. 0. 0. 0. 0. 0. 0. 0.
      0. 0. 1.07526882e-02 0. 1.07526882e-02 0. 1.07526882e-02 0.
      1.07526882e-02 0. 0. 0. 0. 0. 0. 0. 0. 0. 0. 0. 0. 1.07526882e-02
      0. 0. 0. 0. 1.07526882e-02 0. 0. 0. 0. 0. 0. 0. 2.15053763e-02 0.
      0. 0. 0. 0. 0. 0. 0. 0. 0. 0. 1.07526882e-02 0. 0. 0.
      1.07526882e-02 1.07526882e-02 0. 0. 0. 0. 0. 1.07526882e-02 0. 0.
      1.07526882e-02 0. 1.07526882e-02 0. 0. 0. 0. 0. 0. 0. 0. 0. 0. 0.
      0. 0. 0. 0. 0. 0. 0. 0. 0. 0. 0. 0. 0. 0. 0. 0. 0. 0. 0. 0. 0. 0.
      0. 0. 1.07526882e-02 0. 0. 1.07526882e-02 0. 1.07526882e-02 0. 0.
      0. 0. 0. 0. 0. 0. 0. 0. 0. 0. 0. 0. 0. 0. 0. 0. 0. 0. 0.
      1.07526882e-02 0. 0. 0. 0. 0. 0. 0. 0. 0. 0. 0. 0. 0. 0.
      1.07526882e-02 0. 0. 0. 0. 0. 0. 0. 0. 0. 0. 0. 0. 0. 0.
      1.07526882e-02 0. 0. 1.07526882e-02 0. 0. 0. 0. 1.07526882e-02 0.
      0. 0. 0. 0. 0. 0. 0. 0. 0. 0. 0. 0. 0. 0. 0. 0. 1.07526882e-02 0.
      0. 0. 0. 0. 0. 0. 0. 0. 0. 0. 0. 0. 0. 0. 0. 0. 0. 0. 0. 0. 0. 0.
      0. 0. 0. 0. 0. 0. 0. 0. 0. 0. 0. 0. 0. 0. 0. 0. 0. 0.
      1.07526882e-02 0. 0. 0. 0. 0. 0. 0. 0. 0. 0. 0. 0. 0. 0. 0. 0. 0.
      0. 0. 0. 0. 0. 0. 0. 0. 0. 1.07526882e-02 0. 0. 0. 0. 0. 0. 0. 0.
      0. 0. 1.07526882e-02 0. 0. 0. 0. 0. 0. 0. 0. 0. 0. 0. 0. 0. 0.
      1.07526882e-02 0. 0. 0. 0. 1.07526882e-02 0. 0. 0. 0. 0. 0. 0. 0.
      0. 0. 0. 0. 1.07526882e-02 0. 0. 0. 0. 0. 0. 0. 0. 0. 0. 0. 0. 0.
      0. 0. 0. 0. 0. 0. 0. 0. 0. 0. 0. 1.07526882e-02 0. 0. 0.
      2.15053763e-02 0. 0. 0. 0. 0. 0. 0. 0. 0. 0. 0. 0. 0. 0. 0. 0. 0.
      0. 0. 0. 0. 0. 0. 1.07526882e-02 0. 1.07526882e-02 0. 0. 0. 0. 0.
      0. 0. 1.07526882e-02 0. 0. 0. 0. 0. 0. 0. 0. 0. 0. 0. 0. 0. 0. 0.
      0. 0. 0. 0. 0. 0. 0. 2.15053763e-02 1.07526882e-02 0. 0. 0. 0. 0.
      0. 0. 0. 0. 0. 0. 0. 0. 0. 0. 0. 0. 0. 0. 0. 0. 0. 0. 0. 0. 0.
      1.07526882e-02 0. 0. 0. 0. 2.15053763e-02 0. 0. 0. 0.
      1.07526882e-02 0. 0. 0. 1.07526882e-02 0. 0. 0. 0. 0. 0. 0. 0. 0.
      0. 0. 0. 0. 0. 0. 0. 0. 0. 0. 1.07526882e-02 0. 0. 0. 0. 0. 0.
      1.07526882e-02 0. 0. 0. 0. 0. 0. 1.07526882e-02 0. 0. 0.
      1.07526882e-02 0. 0. 0. 0. 0. 0. 0. 0. 0. 0. 0. 0. 0. 0. 0. 0. 0.
      0. 0. 0. 0. 0. 0. 0. 0. 0. 0. 0. 0. 0. 0. 0. 1.07526882e-02 0. 0.
      0. 0. 0. 0. 0. 0. 1.07526882e-02 0. 0. 0. 0. 0. 0. 0. 0. 0. 0. 0.
      0. 0. 0. 0. 0. 0. 0. 0. 0. 0. 0. 0. 2.15053763e-02 0. 0. 0. 0. 0.
      0. 0. 0. 0. 0. 0. 0. 0. 0. 0. 0. 0. 0. 0. 0. 0. 0. 0. 0. 0. 0. 0.
      0. 0. 0. 0. 0. 0. 0. 0. 0. 0. 0. 0. 0. 0. 0. 0. 0. 0. 0. 0. 0. 0.
      0. 2.15053763e-02 0. 0. 0. 0. 0. 0. 0. 1.07526882e-02 0. 0. 0. 0.
      0. 0. 0. 0. 0. 0. 0. 0. 0. 0. 0. 0. 0. 0. 0. 0. 0. 0. 0. 0.
      1.07526882e-02 0. 0. 0. 0. 0. 1.07526882e-02 0. 0. 0. 0. 0. 0. 0.
      0. 0. 0. 0. 0. 0. 0. 0. 0. 0. 0. 0. 0. 0. 0. 0. 0. 0. 0. 0. 0.
      1.07526882e-02 0. 0. 0. 0. 0. 1.07526882e-02 0. 0. 0. 0. 0. 0. 0.
      0. 0. 0. 0. 0. 0. 0. 0. 0. 0. 0. 0. 1.07526882e-02 0. 0. 0. 0. 0.
      0. 1.07526882e-02 0. 0. 0. 0. 0. 0. 0. 0. 0. 0. 1.07526882e-02 0.
      0. 0. 0. 0. 0. 1.07526882e-02 0. 0. 0. 0. 0. 0. 0. 0. 0. 0. 0. 0.
      0. 0. 0. 0. 0. 0. 0. 0. 0. 0. 0. 0. 0. 0. 0. 0. 0. 0. 0. 0. 0. 0.
      0. 0. 0. 0. 0. 0. 0. 0. 0. 0. 0. 0. 1.07526882e-02 0. 0. 0. 0. 0.
      0. 0. 0. 0. 0. 0. 0. 0. 0. 0. 0. 0. 0. 0. 0. 0. 0. 0. 0.</_>
    <_>
      1.26582282e-02 0. 0. 6.32911408e-03 0. 6.32911408e-03 0. 0.
      6.32911408e-03 0. 0. 0. 0. 0. 0. 6.32911408e-03 0. 6.32911408e-03
      0. 0. 0. 0. 6.32911408e-03 0. 0. 6.32911408e-03 0. 0.
      6.32911408e-03 0. 0. 0. 0. 0. 6.32911408e-03 6.32911408e-03 0.
      6.32911408e-03 0. 0. 0. 0. 0. 6.32911408e-03 0. 0. 0. 0. 0. 0.
      6.32911408e-03 0. 0. 6.32911408e-03 0. 0. 0. 0. 0. 0.
      6.32911408e-03 0. 0. 0. 0. 0. 6.32911408e-03 0. 6.32911408e-03 0.
      0. 0. 0. 0. 0. 0. 0. 6.32911408e-03 0. 6.32911408e-03 0. 0. 0. 0.
      0. 0. 6.32911408e-03 0. 0. 0. 1.26582282e-02 0. 0. 0. 0. 0. 0. 0.
      6.32911408e-03 6.32911408e-03 0. 6.32911408e-03 0. 0. 0. 0. 0. 0.
      0. 0. 0. 0. 0. 0. 0. 0. 0. 0. 0. 0. 0. 0. 0. 0. 0. 0.
      6.32911408e-03 6.32911408e-03 0. 0. 0. 0. 0. 0. 0. 0. 0. 0. 0. 0.
      0. 0. 0. 0. 0. 6.32911408e-03 0. 6.32911408e-03 0. 0. 0.
      6.32911408e-03 0. 0. 0. 0. 0. 1.26582282e-02 0. 0. 0. 0. 0. 0.
      1.26582282e-02 0. 6.32911408e-03 0. 6.32911408e-03 0. 0.
      6.32911408e-03 6.32911408e-03 0. 0. 0. 0. 0. 0. 0. 0. 0. 0. 0. 0.
      0. 0. 0. 0. 0. 6.32911408e-03 0. 0. 6.32911408e-03 0. 0. 0. 0. 0.
      0. 0. 0. 0. 6.32911408e-03 0. 0. 1.26582282e-02 0. 0.
      6.32911408e-03 0. 0. 0. 0. 0. 0. 0. 6.32911408e-03 0. 0.
      6.32911408e-03 0. 0. 0. 0. 0. 0. 0. 0. 0. 0. 0. 0. 0.
      6.32911408e-03 0. 6.32911408e-03 0. 6.32911408e-03 0.
      6.32911408e-03 0. 0. 0. 0. 0. 6.32911408e-03 0. 6.32911408e-03 0.
      0. 0. 0. 6.32911408e-03 0. 0. 0. 0. 0. 0. 0. 0. 0. 0. 0. 0. 0. 0.
      0. 0. 0. 0. 0. 6.32911408e-03 0. 0. 0. 0. 6.32911408e-03 0. 0.
      6.32911408e-03 6.32911408e-03 6.32911408e-03 0. 0. 0. 0. 0.
      6.32911408e-03 6.32911408e-03 0. 6.32911408e-03 0. 6.32911408e-03
      0. 0. 0. 0. 0. 0. 0. 0. 0. 0. 0. 6.32911408e-03 0. 0. 0. 0. 0. 0.
      0. 0. 0. 0. 1.26582282e-02 0. 0. 0. 0. 0. 0. 6.32911408e-03 0. 0.
      0. 0. 0. 0. 0. 0. 0. 0. 0. 0. 0. 0. 0. 0. 0. 0. 0. 0. 0. 0. 0. 0.
      0. 0. 0. 0. 0. 0. 0. 0. 6.32911408e-03 0. 6.32911408e-03
      6.32911408e-03 0. 0. 0. 0. 0. 0. 0. 0. 0. 0. 0. 0. 0. 0. 0. 0. 0.
      0. 0. 0. 0. 0. 0. 0. 6.32911408e-03 0. 6.32911408e-03 0. 0. 0. 0.
      0. 0. 0. 0. 0. 0. 0. 0. 0. 0. 0. 0. 0. 0. 0. 0. 0. 0.
      6.32911408e-03 0. 0. 6.32911408e-03 0. 0. 0. 0. 0. 0. 0. 0. 0. 0.
      0. 6.32911408e-03 0. 0. 0. 0. 0. 0. 0. 0. 6.32911408e-03 0. 0. 0.
      0. 0. 0. 0. 0. 0. 0. 0. 0. 0. 0. 0. 0. 0. 0. 0. 0. 0.
      6.32911408e-03 6.32911408e-03 0. 0. 0. 6.32911408e-03 0. 0. 0. 0.
      0. 6.32911408e-03 0. 0. 0. 0. 0. 0. 0. 0. 0. 0. 0. 0.
      6.32911408e-03 0. 1.26582282e-02 0. 0. 0. 0. 0. 0. 0. 0. 0. 0. 0.
      0. 0. 6.32911408e-03 0. 0. 0. 0. 0. 0. 6.32911408e-03
      6.32911408e-03 0. 6.32911408e-03 0. 6.32911408e-03 0. 0.
      6.32911408e-03 0. 0. 0. 0. 0. 0. 0. 0. 0. 0. 0. 0. 0.
      6.32911408e-03 0. 0. 0. 0. 0. 0. 0. 0. 6.32911408e-03 0.
      6.32911408e-03 0. 0. 6.32911408e-03 0. 6.32911408e-03 0. 0. 0. 0.
      0. 0. 0. 0. 0. 0. 0. 1.26582282e-02 6.32911408e-03 0. 0. 0. 0. 0.
      0. 0. 0. 0. 0. 0. 0. 0. 0. 0. 0. 0. 0. 6.32911408e-03 0. 0. 0. 0.
      0. 0. 0. 0. 0. 0. 0. 0. 0. 0. 0. 1.89873427e-02 0. 0. 0. 0. 0. 0.
      0. 0. 0. 0. 0. 0. 1.26582282e-02 0. 0. 0. 0. 0. 0. 6.32911408e-03
      0. 0. 6.32911408e-03 0. 0. 0. 0. 0. 0. 0. 6.32911408e-03 0. 0. 0.
      0. 0. 0. 0. 0. 0. 0. 0. 0. 6.32911408e-03 0. 0. 0. 0. 0. 0.
      6.32911408e-03 0. 0. 0. 0. 0. 6.32911408e-03 0. 0. 1.26582282e-02
      0. 0. 0. 6.32911408e-03 0. 0. 0. 0. 0. 0. 0. 1.26582282e-02 0. 0.
      6.32911408e-03 0. 1.26582282e-02 0. 0. 0. 0. 0. 0. 0.
      6.32911408e-03 0. 0. 0. 0. 0. 0. 6.32911408e-03 0. 0. 0. 0. 0. 0.
      0. 0. 0. 0. 6.32911408e-03 6.32911408e-03 0. 0. 0. 6.32911408e-03
      0. 6.32911408e-03 0. 0. 0. 0. 0. 6.32911408e-03 0. 0. 0. 0. 0. 0.
      0. 0. 0. 0. 0. 0. 0. 0. 0. 0. 0. 6.32911408e-03 0. 0. 0. 0. 0. 0.
      6.32911408e-03 0. 0. 0. 0. 0. 6.32911408e-03 0. 0. 0. 0. 0. 0. 0.
      0. 0. 0. 0. 0. 0. 0. 0. 0. 0. 0. 0. 0. 0. 6.32911408e-03 0. 0. 0.
      0. 0. 0. 0. 0. 0. 0. 0. 0. 0. 0. 6.32911408e-03 0. 0.
      6.32911408e-03 0. 0. 0. 0. 0. 0. 6.32911408e-03 0. 0. 0. 0. 0. 0.
      0. 0. 6.32911408e-03 0. 0. 0. 6.32911408e-03 0. 0. 0. 0. 0. 0. 0.
      6.32911408e-03 0. 0. 0. 0. 1.26582282e-02 0. 0. 0. 0. 0. 0. 0. 0.
      6.32911408e-03 0. 0. 0. 0. 0. 0. 0. 0. 0. 0. 0. 6.32911408e-03 0.
      0. 0. 0. 0. 0. 6.32911408e-03 0. 0. 0. 0. 6.32911408e-03 0. 0. 0.
      6.32911408e-03 0. 0. 0. 0. 0. 0. 0. 0. 0. 0. 0. 0. 0. 0. 0. 0. 0.
      0. 0. 0. 0. 0. 0. 0. 6.32911408e-03 0. 0. 0. 0. 0. 0. 0.
      6.32911408e-03 0. 0. 0. 6.32911408e-03 0. 0. 0. 6.32911408e-03 0.
      0. 0. 0. 6.32911408e-03 0. 6.32911408e-03 0. 0. 0. 6.32911408e-03
      0. 0. 0. 0. 0. 0. 0. 0. 0. 0. 0. 0. 0. 0. 0. 0. 0. 6.32911408e-03
      0. 0. 0. 0. 0. 6.32911408e-03 0. 0. 0. 0. 0. 0. 0. 0. 0. 0. 0.
      6.32911408e-03 0. 0. 0. 6.32911408e-03 0. 0. 0. 0. 0. 0. 0.
      1.26582282e-02 0. 0. 0. 0. 0. 0. 0. 0. 0. 0. 0. 0. 0. 0. 0. 0. 0.
      0. 0. 0. 0. 0. 0. 0. 6.32911408e-03 0. 0. 0. 0. 0. 6.32911408e-03
      0. 0. 0. 0. 0. 0. 0. 0. 0. 0. 0. 0. 0. 0. 0. 6.32911408e-03 0. 0.
      0. 0. 0. 0.</_>
    <_>
      1.35135138e-02 0. 0. 6.75675692e-03 0. 1.35135138e-02 0. 0.
      6.75675692e-03 0. 0. 0. 0. 0. 0. 6.75675692e-03 0. 6.75675692e-03
      0. 0. 0. 0. 6.75675692e-03 0. 0. 6.75675692e-03 0. 0.
      6.75675692e-03 0. 0. 0. 0. 0. 6.75675692e-03 6.75675692e-03 0.
      6.75675692e-03 0. 0. 0. 0. 0. 6.75675692e-03 0. 0. 6.75675692e-03
      0. 0. 0. 1.35135138e-02 0. 0. 6.75675692e-03 0. 0. 0. 0. 0. 0. 0.
      0. 0. 0. 0. 0. 6.75675692e-03 0. 6.75675692e-03 0. 0. 0. 0. 0. 0.
      0. 0. 6.75675692e-03 6.75675692e-03 6.75675692e-03 0. 0. 0. 0. 0.
      0. 6.75675692e-03 0. 0. 0. 1.35135138e-02 0. 0. 0. 0. 0. 0. 0.
      6.75675692e-03 0. 0. 6.75675692e-03 0. 0. 0. 0. 0. 0. 0. 0. 0. 0.
      0. 0. 0. 0. 0. 0. 0. 0. 0. 0. 0. 0. 0. 0. 6.75675692e-03
      6.75675692e-03 0. 0. 0. 0. 0. 0. 0. 0. 0. 0. 0. 0. 6.75675692e-03
      0. 0. 0. 0. 6.75675692e-03 0. 0. 0. 0. 0. 6.75675692e-03 0. 0. 0.
      0. 0. 6.75675692e-03 0. 0. 0. 0. 0. 0. 1.35135138e-02 0.
      6.75675692e-03 0. 6.75675692e-03 0. 0. 6.75675692e-03
      6.75675692e-03 0. 0. 0. 0. 0. 6.75675692e-03 0. 0. 0. 0. 0. 0. 0.
      0. 0. 0. 0. 6.75675692e-03 0. 0. 6.75675692e-03 0. 0. 0. 0. 0. 0.
      0. 0. 0. 0. 0. 0. 6.75675692e-03 0. 0. 6.75675692e-03 0. 0. 0. 0.
      0. 0. 0. 6.75675692e-03 0. 0. 6.75675692e-03 0. 0. 0. 0. 0. 0. 0.
      0. 0. 0. 0. 0. 0. 6.75675692e-03 0. 6.75675692e-03 0.
      6.75675692e-03 0. 1.35135138e-02 0. 0. 0. 0. 0. 6.75675692e-03 0.
      0. 0. 0. 0. 0. 6.75675692e-03 0. 0. 0. 0. 0. 0. 0. 0. 0. 0. 0. 0.
      0. 0. 0. 0. 0. 0. 0. 6.75675692e-03 0. 0. 0. 0. 6.75675692e-03 0.
      0. 6.75675692e-03 6.75675692e-03 6.75675692e-03 0. 0. 0. 0. 0.
      6.75675692e-03 6.75675692e-03 0. 6.75675692e-03 0. 0. 0. 0. 0. 0.
      0. 0. 0. 0. 0. 0. 0. 6.75675692e-03 0. 0. 0. 0. 0. 0. 0. 0. 0. 0.
      6.75675692e-03 0. 0. 0. 0. 0. 0. 6.75675692e-03 0. 0. 0. 0. 0. 0.
      0. 0. 0. 0. 0. 0. 0. 0. 0. 0. 0. 0. 0. 0. 0. 0. 0. 0. 0. 0. 0. 0.
      0. 0. 0. 0. 6.75675692e-03 0. 6.75675692e-03 0. 0. 0. 0. 0. 0.
      6.75675692e-03 0. 0. 0. 0. 0. 0. 0. 0. 0. 0. 0. 0. 0. 0. 0. 0. 0.
      0. 6.75675692e-03 0. 6.75675692e-03 0. 0. 0. 0. 0. 0. 0. 0. 0. 0.
      0. 0. 0. 0. 0. 0. 0. 0. 0. 0. 0. 0. 0. 0. 0. 1.35135138e-02 0. 0.
      0. 0. 0. 0. 0. 0. 0. 0. 0. 6.75675692e-03 0. 0. 0. 0. 0. 0. 0. 0.
      6.75675692e-03 0. 0. 0. 0. 0. 0. 0. 0. 0. 0. 0. 0. 0. 0. 0. 0. 0.
      0. 0. 0. 0. 6.75675692e-03 6.75675692e-03 0. 0. 0. 0. 0. 0. 0. 0.
      0. 6.75675692e-03 0. 0. 0. 0. 0. 0. 0. 0. 0. 0. 6.75675692e-03 0.
      6.75675692e-03 0. 1.35135138e-02 0. 0. 0. 0. 0. 6.75675692e-03 0.
      0. 0. 0. 0. 0. 0. 6.75675692e-03 0. 0. 0. 0. 0. 0. 6.75675692e-03
      6.75675692e-03 0. 6.75675692e-03 0. 6.75675692e-03 0. 0.
      6.75675692e-03 0. 0. 0. 0. 6.75675692e-03 0. 0. 0. 0. 0. 0. 0. 0.
      6.75675692e-03 0. 0. 0. 0. 0. 0. 0. 0. 6.75675692e-03 0. 0. 0. 0.
      1.35135138e-02 0. 6.75675692e-03 0. 0. 0. 0. 0. 0. 0. 0. 0. 0. 0.
      6.75675692e-03 6.75675692e-03 0. 0. 0. 0. 0. 0. 0. 0. 0. 0. 0. 0.
      0. 0. 0. 0. 0. 0. 6.75675692e-03 0. 0. 0. 0. 0. 0. 0. 0. 0. 0. 0.
      0. 0. 0. 0. 1.35135138e-02 0. 0. 0. 0. 0. 0. 6.75675692e-03 0. 0.
      0. 0. 6.75675692e-03 6.75675692e-03 0. 0. 0. 0. 0. 0.
      6.75675692e-03 0. 0. 6.75675692e-03 0. 0. 0. 0. 0. 0. 0.
      1.35135138e-02 0. 0. 0. 0. 0. 0. 0. 0. 0. 0. 0. 0. 6.75675692e-03
      0. 0. 0. 0. 0. 0. 6.75675692e-03 0. 0. 0. 0. 0. 0. 0. 0.
      1.35135138e-02 0. 0. 0. 0. 6.75675692e-03 0. 0. 0. 0.
      6.75675692e-03 0. 1.35135138e-02 0. 0. 1.35135138e-02 0.
      6.75675692e-03 0. 0. 0. 0. 0. 0. 0. 0. 0. 0. 0. 0. 0. 0.
      6.75675692e-03 0. 0. 0. 0. 0. 0. 0. 0. 0. 0. 6.75675692e-03
      6.75675692e-03 0. 0. 0. 6.75675692e-03 0. 0. 0. 0. 0. 0. 0.
      6.75675692e-03 0. 0. 0. 0. 0. 0. 0. 0. 0. 0. 0. 0. 0. 0. 0. 0. 0.
      6.75675692e-03 0. 0. 0. 0. 0. 0. 0. 0. 0. 0. 0. 0. 6.75675692e-03
      0. 0. 0. 0. 0. 0. 0. 0. 0. 0. 0. 0. 0. 0. 0. 0. 0. 0. 0. 0. 0.
      6.75675692e-03 0. 0. 0. 0. 0. 0. 0. 0. 0. 0. 0. 0. 0. 0.
      6.75675692e-03 0. 0. 6.75675692e-03 0. 0. 0. 0. 0. 0.
      6.75675692e-03 0. 0. 0. 0. 0. 0. 0. 0. 0. 0. 0. 0. 6.75675692e-03
      0. 0. 0. 0. 0. 0. 0. 0. 0. 0. 0. 0. 6.75675692e-03 0. 0. 0. 0. 0.
      0. 0. 0. 0. 0. 0. 0. 6.75675692e-03 0. 0. 0. 0. 0. 0. 0. 0. 0. 0.
      0. 0. 0. 0. 6.75675692e-03 0. 0. 0. 0. 0. 0. 0. 6.75675692e-03 0.
      0. 0. 0. 0. 0. 0. 0. 0. 0. 0. 0. 0. 0. 0. 0. 0. 0. 0. 0. 0. 0. 0.
      0. 0. 0. 0. 0. 0. 0. 0. 0. 0. 6.75675692e-03 0. 0. 6.75675692e-03
      6.75675692e-03 0. 0. 0. 6.75675692e-03 0. 0. 0. 0. 6.75675692e-03
      0. 6.75675692e-03 0. 0. 0. 0. 0. 0. 0. 0. 0. 0. 0. 0. 0. 0.
      6.75675692e-03 0. 0. 0. 0. 0. 0. 6.75675692e-03 0. 0. 0. 0. 0.
      6.75675692e-03 0. 0. 0. 0. 0. 0. 0. 0. 0. 0. 0. 0. 0.
      6.75675692e-03 0. 0. 0. 0. 0. 0. 0. 0. 0. 6.75675692e-03 0. 0. 0.
      0. 0. 0. 0. 0. 0. 0. 0. 0. 0. 0. 0. 0. 0. 0. 0. 0. 0. 0. 0. 0. 0.
      0. 0. 0. 0. 0. 6.75675692e-03 0. 0. 0. 0. 0. 0. 0. 0. 0. 0. 0. 0.
      0. 0. 0. 6.75675692e-03 0. 6.75675692e-03 0. 0. 0. 0.</_>
    <_>
      0. 0. 0. 1.17647061e-02 0. 0. 0. 0. 0. 0. 0. 0. 0. 0.
      1.17647061e-02 0. 0. 0. 0. 0. 0. 1.17647061e-02 1.17647061e-02 0.
      0. 1.17647061e-02 0. 0. 0. 0. 0. 0. 0. 0. 1.17647061e-02 0. 0. 0.
      0. 0. 0. 0. 0. 0. 0. 0. 0. 1.17647061e-02 0. 0. 0. 0. 0.
      1.17647061e-02 0. 0. 0. 0. 0. 0. 0. 1.17647061e-02 0. 0. 0. 0. 0.
      0. 1.17647061e-02 0. 0. 0. 0. 0. 0. 0. 0. 0. 1.17647061e-02 0. 0.
      0. 0. 0. 0. 0. 1.17647061e-02 0. 0. 0. 1.17647061e-02 0. 0. 0. 0.
      0. 0. 0. 1.17647061e-02 0. 0. 0. 0. 0. 0. 0. 0. 0. 0. 0. 0. 0. 0.
      0. 0. 0. 0. 0. 0. 2.35294122e-02 0. 0. 0. 0. 0. 0. 0. 0. 0. 0. 0.
      0. 0. 0. 0. 0. 0. 0. 0. 0. 0. 0. 0. 0. 0. 0. 0. 0. 0. 0. 0.
      1.17647061e-02 0. 1.17647061e-02 0. 0. 0. 0. 0. 0. 0.
      1.17647061e-02 0. 0. 1.17647061e-02 0. 0. 0. 1.17647061e-02 0. 0.
      1.17647061e-02 1.17647061e-02 0. 0. 0. 0. 0. 1.17647061e-02 0. 0.
      0. 0. 0. 0. 0. 0. 0. 0. 0. 0. 0. 0. 0. 0. 0. 0. 0. 0. 0. 0. 0. 0.
      2.35294122e-02 0. 0. 1.17647061e-02 0. 0. 0. 0. 0. 0. 0. 0. 0. 0.
      0. 0. 1.17647061e-02 0. 0. 0. 0. 0. 0. 0. 0. 0. 0. 0. 0. 0. 0.
      1.17647061e-02 0. 0. 0. 1.17647061e-02 0. 2.35294122e-02 0. 0. 0.
      0. 0. 0. 0. 0. 0. 0. 0. 0. 1.17647061e-02 0. 0. 0. 0. 0. 0. 0. 0.
      0. 0. 0. 0. 3.52941193e-02 0. 0. 0. 0. 0. 0. 0. 0. 1.17647061e-02
      0. 0. 1.17647061e-02 0. 0. 1.17647061e-02 1.17647061e-02 0.
      1.17647061e-02 0. 0. 0. 0. 0. 1.17647061e-02 0. 0. 0.
      1.17647061e-02 0. 0. 0. 1.17647061e-02 0. 1.17647061e-02 0. 0. 0.
      0. 0. 0. 0. 0. 0. 0. 0. 0. 0. 0. 0. 0. 0. 0. 0. 0. 0. 0. 0. 0. 0.
      0. 0. 0. 0. 0. 0. 0. 0. 0. 1.17647061e-02 0. 0. 0. 0. 0. 0. 0. 0.
      0. 0. 0. 0. 0. 0. 0. 0. 0. 0. 0. 0. 0. 0. 0. 0. 0. 0. 0. 0. 0. 0.
      0. 0. 0. 0. 1.17647061e-02 0. 1.17647061e-02 0. 0. 0. 0. 0. 0. 0.
      0. 0. 0. 0. 0. 0. 0. 0. 0. 0. 1.17647061e-02 0. 0. 0. 0.
      1.17647061e-02 0. 0. 0. 0. 0. 0. 0. 0. 0. 0. 0. 1.17647061e-02 0.
      0. 0. 0. 0. 0. 1.17647061e-02 0. 0. 0. 0. 0. 0. 1.17647061e-02 0.
      0. 1.17647061e-02 0. 0. 0. 0. 0. 0. 0. 0. 0. 0. 0. 1.17647061e-02
      0. 0. 0. 0. 0. 0. 0. 0. 0. 0. 0. 0. 0. 0. 0. 0. 0. 0. 0. 0. 0. 0.
      0. 1.17647061e-02 0. 0. 0. 0. 0. 0. 0. 0. 0. 0. 0. 0. 0. 0. 0. 0.
      0. 0. 0. 0. 0. 0. 0. 0. 0. 0. 0. 0. 0. 0. 0. 0. 0. 0. 0. 0. 0. 0.
      0. 0. 0. 0. 0. 0. 0. 0. 0. 0. 0. 0. 0. 0. 0. 0. 0. 0. 0. 0. 0. 0.
      0. 0. 0. 0. 0. 0. 0. 0. 0. 0. 0. 0. 0. 0. 0. 1.17647061e-02 0. 0.
      0. 0. 0. 0. 0. 0. 0. 0. 0. 0. 0. 0. 1.17647061e-02 0. 0. 0.
      1.17647061e-02 0. 0. 0. 0. 0. 0. 0. 0. 0. 0. 0. 0. 0. 0. 0. 0. 0.
      0. 0. 0. 0. 0. 0. 0. 0. 0. 0. 0. 0. 0. 0. 0. 0. 0. 1.17647061e-02
      0. 0. 0. 0. 0. 0. 0. 0. 0. 0. 0. 0. 0. 0. 0. 0. 0. 0. 0. 0. 0.
      1.17647061e-02 1.17647061e-02 0. 0. 0. 0. 0. 0. 0. 0. 0. 0. 0. 0.
      0. 0. 1.17647061e-02 0. 0. 0. 0. 0. 0. 0. 0. 0. 0. 0. 0. 0. 0. 0.
      0. 1.17647061e-02 0. 0. 0. 0. 0. 0. 0. 0. 0. 0. 0. 0. 0. 0. 0.
      1.17647061e-02 0. 0. 0. 0. 0. 0. 0. 0. 0. 0. 0. 1.17647061e-02 0.
      0. 0. 0. 0. 0. 0. 0. 0. 0. 0. 0. 0. 1.17647061e-02 1.17647061e-02
      0. 0. 0. 0. 0. 0. 0. 0. 0. 0. 0. 0. 0. 0. 0. 0. 0. 0. 0. 0. 0. 0.
      0. 0. 0. 0. 0. 0. 0. 1.17647061e-02 0. 0. 0. 0. 0. 0. 0. 0. 0. 0.
      0. 0. 0. 0. 0. 0. 0. 0. 0. 0. 0. 0. 0. 0. 0. 0. 0. 0. 0. 0. 0. 0.
      0. 0. 0. 0. 0. 0. 0. 0. 0. 0. 0. 0. 0. 0. 0. 0. 0. 0. 0. 0. 0. 0.
      0. 0. 0. 0. 0. 0. 0. 0. 0. 0. 0. 1.17647061e-02 0. 0. 0. 0. 0. 0.
      0. 0. 0. 0. 0. 0. 0. 0. 0. 0. 0. 0. 0. 0. 0. 0. 0. 0.
      2.35294122e-02 0. 0. 0. 0. 0. 0. 0. 1.17647061e-02 0. 0. 0. 0. 0.
      0. 0. 0. 0. 0. 0. 0. 0. 0. 0. 0. 0. 0. 1.17647061e-02 0. 0. 0. 0.
      0. 0. 0. 0. 0. 0. 0. 1.17647061e-02 0. 0. 0. 0. 0. 0.
      2.35294122e-02 0. 0. 0. 0. 0. 0. 0. 0. 0. 0. 0. 0. 0. 0. 0. 0. 0.
      0. 0. 0. 0. 0. 0. 0. 0. 0. 0. 0. 0. 0. 0. 0. 0. 0. 0. 0. 0. 0. 0.
      0. 0. 0. 0. 0. 0. 0. 0. 0. 0. 0. 0. 0. 0. 0. 1.17647061e-02 0. 0.
      0. 0. 0. 0. 0. 0. 0. 0. 1.17647061e-02 0. 0. 0. 0. 0. 0.
      1.17647061e-02 0. 0. 0. 0. 0. 0. 0. 1.17647061e-02 0. 0. 0. 0. 0.
      0. 0. 0. 0. 0. 0. 0. 0. 0. 1.17647061e-02 0. 0. 0. 0. 0. 0. 0. 0.
      0. 0. 0. 0. 0. 0. 0. 0. 0. 0. 0. 0. 0. 0. 0. 1.17647061e-02 0. 0.
      0. 0. 0. 2.35294122e-02 0. 0. 0. 0. 0. 0. 0. 0. 0. 0. 0. 0. 0. 0.
      0. 0. 0. 0.</_>
    <_>
      1.11111114e-02 0. 0. 0. 0. 0. 0. 0. 0. 0. 1.11111114e-02 0. 0.
      1.11111114e-02 1.11111114e-02 0. 0. 0. 0. 1.11111114e-02 0. 0.
      1.11111114e-02 0. 0. 1.11111114e-02 0. 0. 0. 0. 0. 0. 0. 0.
      1.11111114e-02 1.11111114e-02 0. 0. 0. 0. 0. 0. 0. 0. 0. 0.
      2.22222228e-02 1.11111114e-02 0. 0. 0. 0. 0. 1.11111114e-02 0. 0.
      0. 0. 0. 0. 0. 0. 0. 0. 0. 0. 0. 0. 1.11111114e-02 0. 0. 0. 0. 0.
      0. 0. 0. 0. 1.11111114e-02 0. 0. 0. 0. 0. 0. 0. 1.11111114e-02
      1.11111114e-02 0. 0. 1.11111114e-02 0. 0. 0. 0. 0. 0. 0.
      1.11111114e-02 1.11111114e-02 0. 0. 0. 0. 0. 0. 0. 0. 0. 0. 0. 0.
      0. 0. 0. 0. 0. 0. 0. 1.11111114e-02 0. 0. 0. 0. 0. 0.
      1.11111114e-02 0. 0. 0. 0. 0. 0. 0. 0. 0. 0. 0. 0. 0. 0. 0. 0. 0.
      0. 0. 0. 0. 0. 0. 0. 1.11111114e-02 0. 0. 0. 0. 0. 0. 0. 0. 0. 0.
      0. 0. 0. 0. 1.11111114e-02 0. 1.11111114e-02 0. 0. 0.
      1.11111114e-02 0. 0. 0. 0. 0. 1.11111114e-02 0. 0. 0. 0. 0. 0. 0.
      0. 0. 0. 0. 0. 0. 0. 0. 0. 0. 0. 0. 0. 0. 0. 0. 0. 0. 0. 0.
      1.11111114e-02 0. 0. 0. 0. 0. 0. 0. 0. 0. 0. 0. 0. 1.11111114e-02
      0. 0. 0. 0. 0. 0. 0. 0. 0. 0. 0. 0. 0. 0. 1.11111114e-02 0.
      1.11111114e-02 0. 1.11111114e-02 0. 0. 0. 0. 0. 0. 0. 0. 0.
      1.11111114e-02 0. 0. 0. 0. 0. 0. 0. 0. 0. 1.11111114e-02 0. 0. 0.
      0. 0. 0. 0. 1.11111114e-02 0. 0. 0. 0. 0. 1.11111114e-02 0. 0. 0.
      0. 0. 1.11111114e-02 0. 0. 0. 1.11111114e-02 0. 0. 0. 0. 0. 0. 0.
      0. 0. 0. 0. 1.11111114e-02 0. 0. 1.11111114e-02 0. 0.
      1.11111114e-02 0. 0. 0. 0. 0. 0. 0. 0. 0. 0. 0. 0. 0. 0. 0. 0. 0.
      0. 0. 0. 0. 0. 0. 1.11111114e-02 0. 0. 1.11111114e-02 0. 0. 0. 0.
      0. 0. 0. 1.11111114e-02 0. 0. 0. 0. 0. 0. 0. 0. 0. 0. 0. 0. 0. 0.
      0. 0. 0. 0. 0. 0. 0. 0. 0. 0. 0. 0. 0. 0. 0. 0. 0. 0. 0. 0. 0. 0.
      1.11111114e-02 0. 0. 0. 0. 0. 0. 0. 0. 0. 0. 0. 0. 0. 0. 0. 0. 0.
      0. 0. 0. 0. 0. 0. 0. 0. 0. 0. 0. 1.11111114e-02 0. 0. 0. 0. 0. 0.
      0. 0. 0. 0. 0. 0. 0. 0. 0. 0. 0. 0. 0. 0. 0. 0. 0. 0. 0.
      1.11111114e-02 0. 0. 0. 0. 0. 0. 0. 0. 0. 0. 0. 0. 0. 0. 0. 0. 0.
      0. 0. 0. 0. 0. 0. 0. 0. 0. 0. 1.11111114e-02 1.11111114e-02 0. 0.
      0. 1.11111114e-02 0. 0. 0. 0. 0. 0. 0. 0. 0. 0. 0. 0. 0. 0. 0. 0.
      0. 0. 0. 0. 0. 0. 0. 0. 0. 0. 0. 0. 0. 0. 0. 0. 1.11111114e-02 0.
      0. 0. 0. 0. 0. 0. 0. 0. 0. 0. 0. 0. 0. 1.11111114e-02 0. 0.
      1.11111114e-02 0. 1.11111114e-02 0. 0. 0. 0. 0. 0. 0. 0. 0. 0. 0.
      1.11111114e-02 1.11111114e-02 0. 0. 0. 0. 0. 0. 0. 1.11111114e-02
      0. 1.11111114e-02 0. 0. 0. 0. 0. 0. 0. 0. 0. 0. 0. 0. 0. 0.
      2.22222228e-02 0. 0. 0. 1.11111114e-02 0. 0. 0. 0. 0. 0. 0. 0. 0.
      0. 0. 0. 0. 0. 0. 0. 0. 1.11111114e-02 0. 0. 0. 0. 0. 0. 0.
      2.22222228e-02 0. 0. 0. 0. 0. 0. 0. 1.11111114e-02 1.11111114e-02
      0. 0. 0. 0. 0. 0. 0. 0. 0. 0. 0. 0. 0. 0. 0. 0. 0. 0. 0. 0. 0.
      1.11111114e-02 1.11111114e-02 0. 0. 0. 0. 0. 0. 0. 0. 0. 0. 0.
      1.11111114e-02 0. 0. 0. 0. 0. 0. 0. 0. 0. 0. 0. 0. 0. 0. 0. 0. 0.
      0. 0. 0. 0. 0. 0. 0. 0. 1.11111114e-02 0. 0. 1.11111114e-02 0. 0.
      0. 0. 0. 0. 0. 0. 0. 0. 0. 0. 0. 0. 0. 0. 0. 0. 0. 0. 0. 0. 0. 0.
      0. 0. 0. 0. 0. 0. 0. 0. 0. 1.11111114e-02 0. 0. 0. 0. 0. 0. 0. 0.
      0. 0. 0. 0. 0. 0. 0. 0. 0. 0. 0. 0. 1.11111114e-02 0. 0. 0. 0. 0.
      0. 0. 0. 0. 0. 0. 0. 0. 0. 0. 0. 0. 0. 0. 0. 0. 0. 0. 0.
      1.11111114e-02 0. 0. 0. 0. 0. 0. 0. 0. 0. 0. 0. 0. 0. 0. 0. 0. 0.
      0. 0. 0. 0. 0. 0. 1.11111114e-02 0. 0. 0. 0. 0. 0. 0. 0. 0. 0. 0.
      0. 0. 0. 0. 0. 0. 0. 0. 0. 0. 0. 0. 0. 0. 1.11111114e-02 0. 0. 0.
      0. 0. 0. 0. 0. 0. 0. 0. 0. 0. 0. 1.11111114e-02 0. 0. 0. 0. 0. 0.
      0. 0. 0. 3.33333351e-02 0. 0. 0. 0. 0. 0. 0. 1.11111114e-02 0. 0.
      0. 0. 0. 0. 0. 0. 0. 0. 0. 0. 1.11111114e-02 0. 0. 0. 0. 0. 0. 0.
      0. 0. 0. 0. 1.11111114e-02 0. 0. 0. 0. 0. 1.11111114e-02 0. 0. 0.
      0. 0. 0. 0. 0. 0. 0. 0. 0. 0. 0. 0. 0. 0. 0. 0. 0. 0. 0. 0. 0. 0.
      0. 0. 0. 0. 0. 0. 0. 0. 0. 0. 0. 0. 0. 0. 0. 0. 0. 0. 0. 0. 0. 0.
      0. 0. 0. 0. 1.11111114e-02 0. 0. 0. 0. 0. 0. 0. 0. 0.
      1.11111114e-02 0. 0. 0. 0. 0. 0. 0. 0. 0. 0. 2.22222228e-02 0. 0.
      0. 0. 0. 0. 1.11111114e-02 0. 0. 0. 0. 0. 0. 0. 0. 0. 0. 0. 0. 0.
      0. 0. 0. 0. 0. 0. 0. 0. 0. 0. 0. 0. 0. 0. 0. 0. 0. 0. 0. 0. 0. 0.
      0. 0. 0. 0. 0. 0. 0. 0. 1.11111114e-02 0. 0. 0. 0. 0. 0. 0. 0. 0.
      0. 0. 0. 0. 0. 0. 0. 0. 0. 0. 0. 0. 0. 0. 0. 0. 0. 0.</_>
    <_>
      9.80392192e-03 0. 0. 9.80392192e-03 0. 0. 0. 0. 0. 0. 0. 0. 0.
      9.80392192e-03 9.80392192e-03 0. 0. 0. 0. 9.80392192e-03 0. 0.
      9.80392192e-03 0. 0. 9.80392192e-03 0. 0. 0. 0. 0. 0. 0. 0.
      9.80392192e-03 9.80392192e-03 0. 0. 0. 0. 0. 0. 0. 0. 0. 0.
      1.96078438e-02 0. 0. 0. 0. 0. 0. 9.80392192e-03 0. 0. 0. 0. 0. 0.
      0. 0. 0. 0. 0. 0. 0. 0. 9.80392192e-03 0. 0. 0. 0. 0. 0. 0. 0. 0.
      0. 0. 0. 0. 0. 0. 0. 0. 9.80392192e-03 9.80392192e-03 0. 0.
      9.80392192e-03 0. 0. 0. 0. 0. 0. 0. 9.80392192e-03 0. 0. 0. 0. 0.
      0. 0. 0. 0. 0. 0. 0. 0. 0. 0. 0. 0. 0. 0. 0. 9.80392192e-03 0. 0.
      0. 0. 0. 0. 9.80392192e-03 9.80392192e-03 0. 0. 0. 0. 0. 0. 0. 0.
      0. 0. 0. 0. 0. 0. 0. 0. 0. 9.80392192e-03 0. 0. 0. 0. 0.
      9.80392192e-03 0. 0. 0. 0. 0. 0. 0. 0. 0. 0. 0. 0. 0. 0. 0.
      9.80392192e-03 9.80392192e-03 0. 0. 9.80392192e-03 9.80392192e-03
      0. 0. 0. 0. 0. 9.80392192e-03 9.80392192e-03 0. 0. 0. 0. 0. 0. 0.
      0. 0. 0. 0. 0. 0. 0. 0. 0. 0. 0. 0. 0. 0. 0. 0. 0. 0. 0. 0. 0. 0.
      0. 0. 0. 0. 0. 9.80392192e-03 0. 0. 9.80392192e-03 0.
      9.80392192e-03 0. 0. 0. 0. 0. 0. 0. 0. 0. 0. 0. 0. 0. 0. 0. 0.
      9.80392192e-03 0. 9.80392192e-03 0. 0. 0. 0. 0. 0. 0. 0. 0.
      9.80392192e-03 0. 0. 0. 0. 0. 0. 0. 0. 0. 0. 0. 0. 0. 0. 0. 0. 0.
      0. 0. 0. 0. 0. 0. 2.94117667e-02 0. 0. 0. 0. 0. 9.80392192e-03 0.
      0. 0. 0. 0. 9.80392192e-03 0. 0. 0. 0. 0. 9.80392192e-03 0. 0. 0.
      9.80392192e-03 0. 0. 9.80392192e-03 0. 0. 0. 0. 0. 9.80392192e-03
      0. 0. 0. 0. 0. 0. 0. 0. 0. 0. 0. 0. 0. 0. 0. 0. 0. 0. 0. 0.
      9.80392192e-03 0. 0. 0. 0. 0. 0. 0. 0. 0. 0. 9.80392192e-03 0. 0.
      0. 0. 0. 0. 0. 0. 0. 0. 0. 9.80392192e-03 0. 9.80392192e-03 0. 0.
      0. 0. 0. 0. 0. 0. 0. 0. 9.80392192e-03 0. 0. 0. 0. 0. 0. 0. 0. 0.
      0. 0. 9.80392192e-03 0. 0. 0. 0. 0. 0. 0. 0. 0. 0. 0. 0. 0. 0. 0.
      0. 0. 0. 0. 0. 0. 0. 0. 0. 0. 0. 0. 0. 0. 0. 0. 0. 0. 0. 0. 0. 0.
      0. 0. 0. 0. 0. 0. 0. 0. 0. 0. 0. 0. 0. 0. 9.80392192e-03 0. 0. 0.
      0. 0. 0. 0. 0. 0. 0. 0. 0. 0. 0. 0. 0. 0. 0. 0. 0. 0. 0. 0.
      9.80392192e-03 0. 0. 0. 0. 0. 0. 9.80392192e-03 0. 0. 0. 0. 0. 0.
      0. 0. 0. 0. 0. 9.80392192e-03 0. 0. 0. 0. 0. 0. 0. 0. 0. 0. 0. 0.
      0. 0. 0. 0. 0. 0. 0. 0. 0. 0. 0. 0. 0. 9.80392192e-03 0. 0. 0. 0.
      0. 0. 0. 0. 0. 0. 0. 0. 0. 0. 0. 9.80392192e-03 0. 0. 0.
      9.80392192e-03 0. 0. 0. 0. 0. 0. 0. 0. 0. 0. 0. 0. 9.80392192e-03
      0. 0. 0. 0. 0. 0. 0. 0. 0. 0. 0. 0. 0. 0. 0. 0. 0. 0. 0. 0. 0. 0.
      0. 0. 9.80392192e-03 0. 0. 0. 0. 0. 0. 0. 0. 0. 0. 0. 0. 0. 0. 0.
      0. 0. 0. 0. 0. 0. 0. 0. 0. 0. 0. 0. 0. 0. 9.80392192e-03 0. 0. 0.
      9.80392192e-03 0. 0. 0. 0. 9.80392192e-03 0. 0. 0. 0. 0. 0. 0. 0.
      0. 0. 0. 0. 0. 0. 0. 0. 0. 0. 0. 0. 0. 1.96078438e-02
      9.80392192e-03 0. 0. 0. 0. 0. 0. 0. 0. 0. 0. 0. 9.80392192e-03 0.
      0. 0. 0. 0. 0. 0. 0. 0. 0. 0. 0. 0. 0. 0. 0. 0. 0. 0. 0.
      9.80392192e-03 0. 0. 0. 9.80392192e-03 9.80392192e-03 0. 0. 0.
      9.80392192e-03 0. 0. 0. 0. 0. 0. 0. 0. 0. 0. 0. 0. 0. 0. 0. 0. 0.
      9.80392192e-03 0. 0. 0. 0. 0. 0. 0. 0. 0. 0. 0. 0. 0. 0.
      9.80392192e-03 0. 0. 0. 0. 0. 0. 0. 0. 0. 0. 0. 0. 0. 0. 0. 0. 0.
      0. 0. 0. 9.80392192e-03 0. 0. 9.80392192e-03 0. 0. 0. 0. 0. 0. 0.
      0. 0. 0. 0. 0. 9.80392192e-03 0. 0. 0. 0. 0. 0. 0. 0. 0. 0. 0. 0.
      0. 0. 0. 0. 0. 9.80392192e-03 0. 0. 0. 0. 9.80392192e-03 0. 0. 0.
      0. 0. 0. 0. 0. 0. 9.80392192e-03 0. 0. 0. 0. 0. 0. 9.80392192e-03
      0. 0. 0. 0. 0. 0. 0. 0. 0. 0. 0. 0. 0. 0. 0. 0. 0. 0.
      9.80392192e-03 0. 0. 0. 0. 0. 0. 0. 0. 0. 0. 0. 9.80392192e-03 0.
      0. 9.80392192e-03 0. 0. 0. 0. 0. 0. 0. 9.80392192e-03 0.
      2.94117667e-02 0. 0. 0. 0. 0. 0. 0. 0. 0. 0. 0. 0. 0. 0. 0. 0. 0.
      0. 0. 0. 9.80392192e-03 0. 0. 0. 9.80392192e-03 0. 0. 0. 0. 0. 0.
      0. 0. 0. 0. 0. 9.80392192e-03 1.96078438e-02 1.96078438e-02
      9.80392192e-03 0. 0. 0. 0. 0. 0. 0. 0. 0. 0. 0. 0. 0. 0. 0. 0. 0.
      0. 0. 0. 0. 0. 0. 0. 0. 0. 0. 0. 0. 0. 0. 0. 0. 0. 0. 0. 0.
      9.80392192e-03 0. 0. 0. 0. 0. 0. 0. 0. 0. 0. 0. 0. 1.96078438e-02
      0. 0. 0. 0. 0. 0. 9.80392192e-03 0. 0. 9.80392192e-03 0. 0. 0. 0.
      0. 0. 0. 0. 0. 0. 9.80392192e-03 0. 0. 0. 0. 0. 0. 9.80392192e-03
      0. 0. 0. 0. 0. 0. 0. 0. 0. 0. 0. 0. 0. 0. 0. 0. 0. 0. 0. 0. 0. 0.
      0. 0. 0. 0. 0. 0. 0. 0. 0. 0. 0. 0. 0. 0. 0. 0. 0. 0. 0. 0.
      9.80392192e-03 9.80392192e-03 0. 0. 0. 0. 0. 0. 0. 0. 0. 0. 0. 0.
      0. 0. 0. 0. 0. 0. 0. 0. 0. 0. 0. 0. 0. 0. 0.</_>
    <_>
      1.14942528e-02 0. 0. 1.14942528e-02 0. 0. 0. 0. 0. 0.
      1.14942528e-02 0. 0. 0. 1.14942528e-02 0. 0. 0. 0. 1.14942528e-02
      0. 0. 0. 0. 0. 0. 0. 0. 0. 0. 0. 0. 0. 0. 1.14942528e-02 0. 0. 0.
      0. 0. 0. 0. 0. 0. 0. 0. 0. 0. 0. 0. 0. 0. 0. 0. 0. 0. 0. 0. 0. 0.
      0. 1.14942528e-02 0. 0. 0. 0. 0. 0. 1.14942528e-02 0. 0. 0. 0. 0.
      0. 0. 0. 0. 1.14942528e-02 0. 0. 0. 0. 0. 0. 0. 0. 0. 0. 0. 0. 0.
      0. 0. 0. 0. 0. 0. 1.14942528e-02 1.14942528e-02 0. 0. 0. 0. 0. 0.
      0. 0. 0. 0. 0. 0. 0. 0. 0. 0. 1.14942528e-02 0. 0. 2.29885057e-02
      0. 0. 0. 0. 0. 0. 1.14942528e-02 0. 0. 0. 0. 0. 0. 0. 0. 0. 0. 0.
      0. 0. 0. 0. 0. 0. 0. 1.14942528e-02 0. 0. 0. 0. 0. 1.14942528e-02
      0. 0. 0. 0. 0. 0. 0. 0. 0. 1.14942528e-02 0. 0. 0. 0.
      1.14942528e-02 0. 2.29885057e-02 0. 0. 0. 1.14942528e-02 0. 0. 0.
      0. 0. 0. 0. 0. 0. 0. 0. 0. 0. 0. 0. 0. 0. 0. 0. 0. 0. 0. 0. 0. 0.
      0. 0. 0. 0. 0. 0. 0. 0. 0. 0. 0. 0. 0. 0. 0. 0. 0. 0. 0. 0. 0. 0.
      0. 0. 0. 0. 0. 0. 0. 0. 0. 0. 0. 0. 0. 0. 0. 0. 1.14942528e-02 0.
      1.14942528e-02 0. 0. 0. 0. 0. 0. 0. 0. 0. 1.14942528e-02 0. 0. 0.
      0. 0. 0. 0. 0. 0. 0. 0. 0. 0. 0. 0. 1.14942528e-02 0.
      1.14942528e-02 0. 0. 0. 0. 0. 1.14942528e-02 0. 0. 0. 0. 0.
      1.14942528e-02 0. 0. 1.14942528e-02 0. 0. 1.14942528e-02 0. 0. 0.
      0. 0. 1.14942528e-02 0. 0. 0. 0. 0. 0. 1.14942528e-02 0. 0.
      1.14942528e-02 0. 0. 0. 0. 0. 0. 0. 0. 0. 0. 0. 0. 0. 0. 0. 0. 0.
      0. 0. 0. 0. 0. 0. 1.14942528e-02 0. 0. 0. 0. 0. 0. 0. 0. 0. 0.
      1.14942528e-02 0. 0. 0. 0. 0. 0. 0. 0. 0. 0. 0. 0. 0. 0. 0. 0. 0.
      0. 0. 0. 0. 0. 0. 0. 0. 0. 0. 0. 0. 0. 0. 0. 0. 0. 0. 0.
      1.14942528e-02 0. 0. 0. 0. 0. 0. 0. 0. 0. 0. 0. 0. 0. 0. 0. 0. 0.
      0. 0. 0. 0. 0. 0. 0. 0. 0. 0. 0. 0. 0. 0. 0. 0. 0. 1.14942528e-02
      0. 0. 0. 0. 0. 0. 0. 0. 0. 0. 0. 0. 0. 0. 0. 0. 0. 0. 0. 0. 0. 0.
      0. 0. 0. 1.14942528e-02 0. 0. 0. 0. 0. 0. 0. 0. 0. 0. 0. 0. 0. 0.
      0. 0. 0. 0. 0. 0. 0. 1.14942528e-02 0. 0. 0. 0. 1.14942528e-02 0.
      0. 0. 0. 0. 0. 1.14942528e-02 0. 0. 0. 0. 0. 0. 0. 0. 0. 0. 0. 0.
      0. 0. 0. 0. 0. 0. 0. 0. 0. 0. 0. 0. 0. 1.14942528e-02 0. 0. 0. 0.
      0. 0. 0. 0. 0. 0. 0. 0. 0. 0. 0. 0. 0. 2.29885057e-02 0.
      1.14942528e-02 0. 0. 0. 0. 0. 0. 0. 0. 0. 0. 0. 1.14942528e-02
      1.14942528e-02 0. 0. 0. 0. 0. 0. 0. 0. 0. 0. 0. 0. 0. 0. 0. 0. 0.
      0. 0. 0. 0. 0. 0. 0. 1.14942528e-02 0. 0. 0. 0. 0. 0. 0. 0. 0. 0.
      0. 0. 0. 0. 0. 0. 0. 0. 0. 0. 1.14942528e-02 1.14942528e-02 0. 0.
      0. 0. 0. 0. 0. 0. 0. 0. 0. 1.14942528e-02 0. 0. 0. 2.29885057e-02
      1.14942528e-02 0. 0. 0. 0. 0. 0. 0. 0. 0. 0. 0. 0. 0. 0. 0. 0. 0.
      0. 0. 0. 0. 1.14942528e-02 0. 0. 0. 0. 0. 0. 0. 0. 0. 0. 0. 0.
      2.29885057e-02 0. 0. 0. 0. 0. 0. 0. 0. 0. 0. 0. 0. 0. 0. 0. 0. 0.
      0. 0. 2.29885057e-02 0. 0. 0. 0. 1.14942528e-02 1.14942528e-02 0.
      0. 0. 0. 0. 0. 0. 0. 0. 0. 0. 0. 0. 0. 0. 0. 0. 0. 0. 0. 0.
      1.14942528e-02 0. 0. 0. 0. 0. 0. 0. 0. 0. 0. 0. 0. 0. 0.
      1.14942528e-02 0. 0. 0. 0. 0. 0. 0. 0. 0. 0. 0. 0. 0. 0. 0. 0. 0.
      0. 0. 0. 1.14942528e-02 0. 0. 1.14942528e-02 0. 0. 0. 0. 0. 0. 0.
      0. 0. 0. 0. 0. 2.29885057e-02 0. 0. 0. 0. 0. 0. 0. 0. 0. 0. 0. 0.
      0. 0. 0. 0. 0. 0. 0. 0. 0. 0. 1.14942528e-02 0. 0. 0. 0. 0. 0. 0.
      0. 0. 0. 0. 0. 0. 0. 0. 0. 0. 0. 0. 0. 0. 0. 0. 0. 0. 0. 0. 0. 0.
      0. 0. 0. 0. 0. 0. 0. 0. 0. 0. 0. 0. 0. 0. 0. 0. 0. 0.
      1.14942528e-02 0. 0. 1.14942528e-02 0. 0. 0. 0. 0. 0. 0. 0. 0.
      2.29885057e-02 0. 0. 0. 0. 0. 0. 0. 0. 0. 0. 0. 0. 0. 0. 0. 0. 0.
      0. 0. 0. 0. 0. 0. 0. 0. 0. 0. 0. 0. 0. 0. 0. 1.14942528e-02 0. 0.
      0. 0. 0. 1.14942528e-02 0. 0. 0. 0. 0. 0. 0. 0. 0. 0. 0. 0. 0. 0.
      0. 0. 0. 0. 0. 0. 0. 0. 0. 0. 0. 0. 0. 0. 0. 0. 1.14942528e-02 0.
      0. 0. 0. 0. 0. 0. 1.14942528e-02 0. 0. 0. 0. 0. 0. 0. 0. 0. 0. 0.
      0. 2.29885057e-02 0. 0. 0. 0. 0. 0. 0. 0. 0. 1.14942528e-02 0. 0.
      0. 0. 0. 0. 0. 0. 0. 0. 1.14942528e-02 0. 0. 0. 0. 0. 0.
      1.14942528e-02 0. 0. 0. 0. 0. 0. 0. 1.14942528e-02 1.14942528e-02
      0. 0. 0. 0. 0. 0. 0. 0. 0. 0. 0. 0. 0. 0. 0. 0. 0. 0. 0. 0. 0. 0.
      0. 0. 0. 0. 0. 0. 0. 0. 0. 0. 1.14942528e-02 1.14942528e-02 0. 0.
      0. 0. 0. 0. 0. 0. 0. 0. 0. 0. 0. 0. 0. 0. 0. 0. 0. 0. 0. 0. 0. 0.
      0. 0. 1.14942528e-02 0.</_>
    <_>
      5.34759369e-03 0. 0. 5.34759369e-03 0. 5.34759369e-03 0. 0.
      5.34759369e-03 0. 0. 0. 0. 0. 0. 5.34759369e-03 5.34759369e-03
      5.34759369e-03 0. 0. 0. 0. 5.34759369e-03 0. 0. 5.34759369e-03 0.
      0. 5.34759369e-03 0. 0. 0. 5.34759369e-03 0. 5.34759369e-03 0. 0.
      0. 0. 5.34759369e-03 1.06951874e-02 0. 0. 0. 0. 0. 1.06951874e-02
      0. 0. 0. 1.60427801e-02 0. 0. 1.06951874e-02 0. 0. 0. 0. 0.
      5.34759369e-03 0. 0. 0. 0. 0. 0. 5.34759369e-03 5.34759369e-03
      5.34759369e-03 0. 0. 0. 0. 0. 0. 0. 0. 1.06951874e-02
      5.34759369e-03 0. 0. 0. 0. 0. 0. 0. 5.34759369e-03 0.
      5.34759369e-03 0. 5.34759369e-03 0. 0. 5.34759369e-03 0. 0.
      5.34759369e-03 5.34759369e-03 5.34759369e-03 0. 0. 0. 0. 0.
      5.34759369e-03 0. 0. 0. 0. 0. 0. 0. 0. 0. 0. 0. 0. 0. 0. 0. 0. 0.
      0. 0. 0. 0. 5.34759369e-03 5.34759369e-03 0. 0. 0. 0. 0. 0. 0. 0.
      0. 0. 0. 0. 0. 0. 5.34759369e-03 0. 0. 5.34759369e-03 0. 0. 0. 0.
      0. 5.34759369e-03 0. 0. 0. 0. 0. 5.34759369e-03 5.34759369e-03 0.
      0. 0. 0. 0. 1.06951874e-02 0. 1.06951874e-02 0. 5.34759369e-03 0.
      0. 5.34759369e-03 5.34759369e-03 0. 0. 0. 0. 0. 0. 0. 0. 0. 0. 0.
      0. 0. 0. 0. 0. 5.34759369e-03 5.34759369e-03 0. 0. 5.34759369e-03
      0. 0. 0. 0. 0. 0. 0. 5.34759369e-03 0. 0. 0. 5.34759369e-03
      1.06951874e-02 0. 0. 5.34759369e-03 0. 0. 0. 0. 0. 0. 0. 0. 0. 0.
      5.34759369e-03 0. 0. 0. 0. 0. 0. 5.34759369e-03 0. 0. 0. 0. 0. 0.
      1.06951874e-02 5.34759369e-03 0. 0. 5.34759369e-03 0. 0. 0. 0. 0.
      0. 0. 0. 0. 5.34759369e-03 5.34759369e-03 0. 0. 0. 5.34759369e-03
      0. 0. 0. 0. 0. 0. 0. 0. 0. 5.34759369e-03 0. 0. 0. 0. 0. 0. 0. 0.
      5.34759369e-03 0. 0. 0. 0. 0. 5.34759369e-03 0. 0. 0. 0.
      1.06951874e-02 0. 0. 0. 0. 0. 5.34759369e-03 1.06951874e-02 0. 0.
      0. 0. 0. 0. 0. 0. 0. 0. 0. 0. 5.34759369e-03 0. 0. 5.34759369e-03
      0. 0. 0. 0. 0. 0. 0. 0. 0. 0. 5.34759369e-03 0. 0. 0. 0. 0. 0.
      5.34759369e-03 0. 0. 1.60427801e-02 5.34759369e-03 0.
      5.34759369e-03 0. 0. 0. 0. 0. 0. 0. 0. 0. 0. 0. 0. 0. 0. 0. 0. 0.
      0. 0. 0. 0. 0. 0. 0. 0. 0. 0. 0. 5.34759369e-03 5.34759369e-03 0.
      0. 0. 0. 0. 0. 0. 0. 0. 0. 0. 0. 0. 5.34759369e-03 0. 0. 0. 0. 0.
      5.34759369e-03 0. 5.34759369e-03 0. 0. 1.06951874e-02 0.
      1.06951874e-02 0. 0. 0. 5.34759369e-03 0. 0. 0. 0. 0. 0. 0. 0. 0.
      0. 0. 0. 0. 0. 0. 0. 0. 0. 0. 0. 0. 5.34759369e-03 0. 0. 0. 0. 0.
      0. 0. 0. 5.34759369e-03 0. 0. 1.06951874e-02 0. 0. 0. 0. 0. 0. 0.
      0. 1.06951874e-02 0. 0. 0. 0. 0. 0. 0. 0. 0. 0. 0. 5.34759369e-03
      0. 0. 0. 0. 0. 0. 0. 0. 0. 0. 0. 0. 0. 0. 5.34759369e-03 0. 0. 0.
      0. 5.34759369e-03 5.34759369e-03 0. 0. 0. 0. 0. 0. 0. 0. 0. 0. 0.
      0. 5.34759369e-03 0. 5.34759369e-03 0. 5.34759369e-03 0. 0. 0.
      5.34759369e-03 5.34759369e-03 0. 0. 0. 0. 0. 0. 0. 0. 0.
      5.34759369e-03 0. 0. 0. 0. 5.34759369e-03 0. 0. 0. 0. 0. 0. 0. 0.
      0. 0. 0. 0. 0. 0. 0. 0. 0. 0. 0. 0. 5.34759369e-03 0. 0.
      5.34759369e-03 0. 0. 5.34759369e-03 0. 0. 0. 0. 5.34759369e-03 0.
      0. 2.13903747e-02 0. 5.34759369e-03 0. 0. 0. 0. 0. 0. 0. 0. 0. 0.
      0. 5.34759369e-03 0. 0. 0. 0. 0. 0. 0. 0. 0. 0. 0. 0. 0. 0. 0. 0.
      0. 0. 0. 0. 0. 0. 0. 0. 0. 0. 0. 0. 0. 0. 0. 0. 0. 0. 0.
      1.60427801e-02 0. 0. 0. 0. 0. 0. 0. 0. 0. 0. 0. 0. 0. 0. 0. 0.
      5.34759369e-03 0. 0. 5.34759369e-03 0. 0. 5.34759369e-03 0. 0. 0.
      0. 0. 0. 0. 0. 0. 0. 0. 0. 0. 0. 0. 0. 5.34759369e-03 0. 0. 0. 0.
      0. 0. 0. 0. 0. 0. 5.34759369e-03 0. 0. 0. 0. 0. 0. 0. 0.
      1.06951874e-02 0. 0. 0. 1.06951874e-02 0. 0. 0. 0. 1.06951874e-02
      0. 0. 1.06951874e-02 0. 0. 5.34759369e-03 0. 5.34759369e-03 0. 0.
      0. 0. 5.34759369e-03 0. 0. 0. 0. 0. 0. 0. 0. 0. 0. 0.
      5.34759369e-03 0. 0. 0. 0. 5.34759369e-03 0. 0. 0. 5.34759369e-03
      0. 0. 0. 0. 5.34759369e-03 0. 0. 0. 0. 5.34759369e-03 0. 0. 0. 0.
      0. 0. 0. 0. 0. 5.34759369e-03 0. 0. 0. 0. 0. 0. 0. 0. 0. 0. 0. 0.
      5.34759369e-03 0. 0. 0. 0. 0. 0. 0. 0. 0. 0. 5.34759369e-03 0. 0.
      0. 0. 0. 0. 0. 0. 5.34759369e-03 0. 5.34759369e-03 0. 0. 0. 0. 0.
      0. 0. 0. 0. 5.34759369e-03 5.34759369e-03 0. 0. 0. 5.34759369e-03
      5.34759369e-03 0. 0. 5.34759369e-03 0. 0. 0. 0. 0. 0. 0. 0. 0. 0.
      0. 0. 0. 0. 0. 0. 1.06951874e-02 5.34759369e-03 0. 0. 0. 0. 0. 0.
      5.34759369e-03 0. 5.34759369e-03 0. 0. 5.34759369e-03 0. 0. 0. 0.
      0. 0. 0. 0. 0. 0. 0. 0. 0. 5.34759369e-03 0. 0. 0. 0. 0. 0. 0.
      5.34759369e-03 0. 0. 0. 0. 0. 0. 0. 5.34759369e-03 0. 0. 0.
      5.34759369e-03 0. 0. 0. 5.34759369e-03 0. 0. 0. 0. 0. 0. 0. 0. 0.
      0. 5.34759369e-03 0. 0. 0. 0. 0. 0. 0. 0. 0. 0. 5.34759369e-03 0.
      0. 1.06951874e-02 0. 0. 0. 0. 0. 0. 0. 0. 5.34759369e-03 0. 0. 0.
      0. 0. 0. 0. 0. 0. 0. 1.60427801e-02 0. 0. 0. 5.34759369e-03 0. 0.
      0. 5.34759369e-03 0. 0. 0. 0. 0. 0. 5.34759369e-03 0. 0. 0. 0. 0.
      0. 0. 0. 0. 0. 1.06951874e-02 0. 0. 0. 0. 5.34759369e-03 0. 0. 0.
      0. 0. 5.34759369e-03 0. 0. 0. 0. 0. 0. 0. 0. 0. 0. 0. 0. 0. 0. 0.
      0. 0. 0. 0. 0. 0. 0. 0. 0. 0. 0. 0. 0. 0. 0. 0. 0. 0. 0. 0. 0. 0.
      0. 0. 0. 0. 0. 0. 0. 0. 0. 0. 5.34759369e-03 0. 0. 0. 0.
      5.34759369e-03 5.34759369e-03 0. 0. 0. 0. 0. 0. 5.34759369e-03 0.
      0. 0. 0. 0. 0. 0. 0. 0. 0. 0. 0. 0. 0. 0. 5.34759369e-03 0. 0. 0.
      0. 0. 0.</_>
    <_>
      5.74712642e-03 5.74712642e-03 0. 5.74712642e-03 0. 0. 0.
      5.74712642e-03 5.74712642e-03 0. 0. 0. 0. 0. 5.74712642e-03
      5.74712642e-03 5.74712642e-03 5.74712642e-03 0. 0. 0. 0.
      5.74712642e-03 0. 0. 5.74712642e-03 0. 0. 0. 0. 0. 0.
      5.74712642e-03 0. 5.74712642e-03 0. 0. 0. 0. 5.74712642e-03
      5.74712642e-03 0. 0. 0. 0. 0. 5.74712642e-03 0. 0. 0.
      2.29885057e-02 0. 0. 1.14942528e-02 0. 0. 0. 0. 0. 1.14942528e-02
      0. 0. 0. 0. 0. 0. 0. 5.74712642e-03 5.74712642e-03 0. 0. 0. 0. 0.
      0. 0. 0. 1.14942528e-02 5.74712642e-03 0. 0. 0. 0. 0. 0. 0.
      5.74712642e-03 0. 5.74712642e-03 0. 5.74712642e-03 0. 0.
      5.74712642e-03 0. 0. 0. 5.74712642e-03 5.74712642e-03 0. 0. 0. 0.
      0. 0. 0. 0. 0. 0. 0. 0. 0. 0. 0. 0. 0. 0. 0. 0. 0. 0. 0. 0. 0. 0.
      0. 5.74712642e-03 5.74712642e-03 0. 0. 0. 0. 0. 0. 0. 0. 0. 0. 0.
      0. 0. 0. 0. 0. 0. 5.74712642e-03 0. 0. 0. 0. 0. 5.74712642e-03 0.
      0. 0. 0. 0. 0. 5.74712642e-03 0. 0. 0. 0. 0. 5.74712642e-03 0.
      5.74712642e-03 0. 5.74712642e-03 0. 0. 5.74712642e-03
      5.74712642e-03 0. 0. 0. 0. 0. 0. 0. 0. 0. 0. 0. 0. 0. 0. 0. 0.
      5.74712642e-03 5.74712642e-03 0. 0. 5.74712642e-03 0. 0. 0. 0. 0.
      0. 0. 5.74712642e-03 0. 0. 0. 0. 1.14942528e-02 0. 0.
      5.74712642e-03 0. 0. 0. 0. 0. 0. 0. 0. 0. 0. 1.14942528e-02 0. 0.
      0. 0. 5.74712642e-03 0. 5.74712642e-03 0. 0. 0. 0. 0. 0.
      5.74712642e-03 0. 0. 0. 1.14942528e-02 0. 0. 0. 0. 0. 0. 0. 0. 0.
      5.74712642e-03 0. 0. 0. 0. 5.74712642e-03 0. 0. 0. 0.
      5.74712642e-03 0. 0. 0. 0. 0. 0. 0. 0. 0. 0. 0. 0. 0. 0. 0. 0. 0.
      0. 0. 5.74712642e-03 0. 0. 0. 0. 5.74712642e-03 0. 0. 0. 0. 0.
      5.74712642e-03 1.14942528e-02 0. 0. 0. 0. 0. 0. 0. 0. 0. 0. 0. 0.
      5.74712642e-03 0. 0. 1.14942528e-02 0. 0. 0. 0. 0. 0. 0. 0. 0. 0.
      5.74712642e-03 0. 0. 0. 0. 0. 0. 5.74712642e-03 0. 0.
      1.14942528e-02 5.74712642e-03 0. 5.74712642e-03 0. 0. 0. 0. 0. 0.
      0. 0. 0. 0. 0. 0. 0. 0. 0. 0. 0. 0. 0. 0. 0. 0. 0. 0. 0. 0. 0. 0.
      5.74712642e-03 5.74712642e-03 0. 0. 0. 0. 0. 0. 0. 0. 0. 0. 0. 0.
      0. 0. 0. 0. 0. 0. 0. 5.74712642e-03 0. 5.74712642e-03 0. 0. 0. 0.
      1.14942528e-02 0. 0. 0. 5.74712642e-03 0. 0. 0. 0. 0. 0. 0. 0. 0.
      0. 0. 0. 0. 0. 0. 0. 0. 0. 0. 5.74712642e-03 0. 0. 0. 0. 0. 0. 0.
      0. 0. 0. 5.74712642e-03 0. 0. 5.74712642e-03 0. 0. 0. 0. 0. 0. 0.
      0. 5.74712642e-03 0. 5.74712642e-03 0. 5.74712642e-03 0. 0. 0.
      5.74712642e-03 0. 0. 0. 0. 0. 0. 0. 0. 0. 0. 0. 0. 0. 0.
      5.74712642e-03 0. 0. 0. 5.74712642e-03 0. 0. 0. 0. 5.74712642e-03
      5.74712642e-03 0. 0. 0. 0. 0. 0. 0. 0. 0. 0. 0. 0. 0. 0. 0. 0. 0.
      0. 0. 0. 5.74712642e-03 5.74712642e-03 0. 0. 0. 0. 0. 0.
      5.74712642e-03 0. 0. 5.74712642e-03 0. 0. 0. 0. 5.74712642e-03 0.
      0. 0. 5.74712642e-03 0. 0. 0. 0. 0. 0. 0. 0. 0. 0. 0. 0. 0. 0. 0.
      0. 1.14942528e-02 0. 0. 5.74712642e-03 0. 0. 5.74712642e-03 0. 0.
      0. 0. 5.74712642e-03 0. 0. 1.72413792e-02 0. 0. 0. 0. 0. 0. 0. 0.
      0. 0. 0. 0. 0. 5.74712642e-03 0. 0. 0. 0. 0. 0. 0. 0. 0. 0. 0. 0.
      0. 0. 0. 0. 0. 0. 0. 0. 0. 5.74712642e-03 0. 0. 0. 0. 0. 0. 0. 0.
      0. 0. 0. 0. 0. 5.74712642e-03 0. 0. 5.74712642e-03 0. 0.
      5.74712642e-03 0. 0. 0. 0. 0. 0. 0. 0. 0. 0. 5.74712642e-03 0. 0.
      5.74712642e-03 0. 0. 5.74712642e-03 0. 0. 0. 0. 0. 0. 0. 0. 0. 0.
      0. 0. 0. 0. 0. 0. 5.74712642e-03 0. 0. 0. 0. 0. 0. 0. 0. 0. 0.
      5.74712642e-03 0. 0. 0. 0. 0. 5.74712642e-03 0. 0. 5.74712642e-03
      0. 0. 0. 5.74712642e-03 0. 0. 0. 0. 1.14942528e-02 5.74712642e-03
      0. 5.74712642e-03 0. 0. 5.74712642e-03 0. 5.74712642e-03 0. 0. 0.
      0. 5.74712642e-03 0. 0. 0. 0. 0. 0. 0. 0. 0. 0. 0. 5.74712642e-03
      0. 0. 0. 0. 5.74712642e-03 0. 0. 0. 5.74712642e-03 0. 0. 0. 0.
      5.74712642e-03 0. 0. 0. 0. 0. 0. 0. 0. 0. 0. 0. 0. 0. 0.
      5.74712642e-03 0. 0. 0. 0. 0. 0. 0. 0. 0. 0. 5.74712642e-03 0. 0.
      0. 0. 0. 0. 0. 0. 0. 0. 0. 0. 5.74712642e-03 0. 0. 0. 0. 0. 0. 0.
      0. 5.74712642e-03 0. 0. 0. 0. 0. 0. 0. 0. 0. 0. 0. 5.74712642e-03
      5.74712642e-03 0. 0. 0. 5.74712642e-03 0. 0. 0. 0. 0. 0. 0. 0. 0.
      0. 0. 0. 0. 0. 0. 0. 0. 0. 0. 0. 5.74712642e-03 0. 0. 0. 0. 0. 0.
      0. 5.74712642e-03 0. 5.74712642e-03 0. 0. 5.74712642e-03 0. 0. 0.
      5.74712642e-03 0. 0. 0. 0. 0. 0. 0. 0. 0. 5.74712642e-03
      5.74712642e-03 0. 0. 0. 0. 0. 0. 5.74712642e-03 0. 0. 0. 0. 0. 0.
      5.74712642e-03 5.74712642e-03 0. 0. 0. 0. 0. 0. 0. 1.14942528e-02
      0. 0. 0. 0. 0. 0. 0. 0. 0. 0. 5.74712642e-03 5.74712642e-03 0. 0.
      0. 0. 0. 0. 0. 0. 0. 5.74712642e-03 0. 0. 5.74712642e-03 0.
      5.74712642e-03 5.74712642e-03 0. 0. 0. 0. 0. 5.74712642e-03 0. 0.
      0. 0. 0. 0. 0. 0. 0. 0. 1.72413792e-02 0. 0. 0. 5.74712642e-03 0.
      0. 0. 5.74712642e-03 0. 0. 0. 0. 0. 0. 5.74712642e-03 0. 0. 0. 0.
      0. 0. 0. 0. 0. 0. 5.74712642e-03 0. 0. 0. 0. 5.74712642e-03 0. 0.
      0. 0. 0. 5.74712642e-03 0. 0. 0. 0. 0. 0. 0. 0. 0. 0. 0. 0. 0. 0.
      0. 0. 0. 0. 0. 0. 0. 0. 0. 5.74712642e-03 0. 0. 0. 0. 0. 0. 0. 0.
      0. 0. 0. 0. 0. 0. 0. 0. 0. 0. 0. 0. 0. 0. 5.74712642e-03
      5.74712642e-03 0. 0. 0. 0. 0. 0. 0. 0. 0. 0. 0. 0. 5.74712642e-03
      5.74712642e-03 0. 0. 0. 0. 0. 0. 0. 0. 0. 0. 0. 0. 0. 0.
      5.74712642e-03 0. 5.74712642e-03 0. 0. 0. 0.</_>
    <_>
      6.94444450e-03 0. 0. 6.94444450e-03 0. 6.94444450e-03 0. 0. 0. 0.
      0. 0. 0. 0. 6.94444450e-03 0. 6.94444450e-03 0. 0. 0. 0. 0.
      6.94444450e-03 0. 0. 6.94444450e-03 0. 0. 2.08333340e-02 0. 0. 0.
      0. 0. 1.38888890e-02 0. 0. 6.94444450e-03 0. 0. 6.94444450e-03 0.
      0. 0. 0. 0. 6.94444450e-03 0. 0. 0. 0. 0. 0. 6.94444450e-03 0. 0.
      0. 0. 0. 6.94444450e-03 0. 0. 0. 0. 0. 0. 0. 0. 6.94444450e-03 0.
      0. 0. 0. 0. 0. 0. 0. 6.94444450e-03 1.38888890e-02 0. 0. 0. 0. 0.
      0. 0. 6.94444450e-03 0. 0. 0. 6.94444450e-03 0. 0. 6.94444450e-03
      0. 0. 0. 0. 6.94444450e-03 0. 0. 0. 0. 0. 1.38888890e-02 0. 0. 0.
      0. 0. 0. 0. 0. 0. 0. 0. 0. 6.94444450e-03 0. 0. 0. 0. 0. 0. 0. 0.
      6.94444450e-03 0. 0. 0. 0. 1.38888890e-02 0. 0. 0. 0. 0. 0. 0. 0.
      0. 0. 0. 0. 0. 6.94444450e-03 0. 6.94444450e-03 0. 0. 0.
      6.94444450e-03 0. 0. 0. 0. 0. 0. 0. 0. 0. 0. 0. 0. 6.94444450e-03
      0. 0. 0. 0. 0. 0. 0. 6.94444450e-03 0. 0. 0. 0. 0. 0. 0. 0. 0.
      6.94444450e-03 0. 0. 0. 0. 0. 0. 0. 0. 0. 0. 0. 0. 6.94444450e-03
      0. 0. 0. 0. 0. 0. 0. 0. 0. 0. 6.94444450e-03 6.94444450e-03 0. 0.
      0. 0. 0. 0. 0. 0. 0. 0. 0. 0. 1.38888890e-02 0. 0. 0. 0. 0. 0. 0.
      0. 0. 0. 0. 0. 0. 6.94444450e-03 6.94444450e-03 0. 0.
      6.94444450e-03 0. 0. 0. 0. 0. 0. 0. 0. 0. 0. 0. 0. 0. 0.
      1.38888890e-02 0. 0. 0. 0. 0. 0. 0. 0. 0. 0. 6.94444450e-03 0. 0.
      0. 0. 0. 0. 0. 0. 0. 0. 0. 0. 0. 6.94444450e-03 0. 0. 0.
      6.94444450e-03 6.94444450e-03 0. 0. 0. 0. 0. 6.94444450e-03 0. 0.
      6.94444450e-03 0. 0. 0. 0. 0. 0. 0. 0. 0. 0. 0. 0. 0.
      6.94444450e-03 0. 0. 6.94444450e-03 0. 0. 0. 0. 0. 0. 0. 0. 0. 0.
      0. 0. 6.94444450e-03 0. 0. 0. 0. 0. 1.38888890e-02 0. 0. 0. 0. 0.
      0. 0. 0. 0. 0. 0. 0. 0. 0. 0. 0. 0. 0. 0. 0. 6.94444450e-03 0. 0.
      0. 0. 0. 0. 0. 0. 0. 0. 6.94444450e-03 0. 0. 0. 0. 0. 0. 0. 0. 0.
      0. 0. 0. 0. 0. 0. 0. 0. 0. 0. 6.94444450e-03 0. 0. 0. 0. 0. 0. 0.
      0. 0. 0. 0. 0. 0. 0. 0. 0. 0. 0. 0. 0. 0. 0. 0. 0. 0. 0. 0. 0. 0.
      0. 6.94444450e-03 0. 6.94444450e-03 0. 0. 0. 0. 0. 0. 0. 0.
      6.94444450e-03 0. 0. 6.94444450e-03 0. 0. 0. 0. 0. 0. 0. 0.
      6.94444450e-03 0. 6.94444450e-03 0. 0. 0. 0. 0. 0. 0. 0. 0. 0. 0.
      0. 0. 0. 0. 0. 0. 0. 0. 6.94444450e-03 0. 0. 0. 0. 1.38888890e-02
      0. 6.94444450e-03 0. 0. 0. 6.94444450e-03 0. 0. 0. 0. 0. 0. 0. 0.
      0. 0. 0. 0. 1.38888890e-02 0. 0. 0. 0. 0. 0. 0. 0. 6.94444450e-03
      1.38888890e-02 0. 0. 0. 0. 6.94444450e-03 0. 0. 0. 0. 0. 0. 0. 0.
      0. 0. 0. 0. 0. 0. 0. 0. 0. 0. 0. 0. 0. 0. 0. 0. 0. 0. 0. 0. 0. 0.
      0. 0. 0. 0. 0. 0. 0. 0. 0. 0. 0. 6.94444450e-03 0. 1.38888890e-02
      0. 0. 0. 0. 0. 1.38888890e-02 0. 6.94444450e-03 0. 0. 0. 0. 0.
      1.38888890e-02 0. 0. 0. 0. 0. 0. 0. 0. 6.94444450e-03 0. 0. 0.
      6.94444450e-03 0. 6.94444450e-03 0. 0. 0. 0. 0. 0. 0. 0. 0. 0.
      6.94444450e-03 0. 0. 0. 0. 0. 0. 0. 0. 0. 1.38888890e-02 0. 0. 0.
      0. 0. 0. 0. 0. 0. 0. 0. 0. 0. 0. 0. 0. 2.08333340e-02 0. 0. 0. 0.
      0. 0. 0. 0. 0. 0. 0. 0. 0. 0. 0. 0. 0. 0. 0. 0. 0. 0. 0. 0.
      6.94444450e-03 0. 0. 0. 0. 0. 6.94444450e-03 0. 0. 6.94444450e-03
      0. 0. 6.94444450e-03 0. 0. 6.94444450e-03 0. 0. 1.38888890e-02 0.
      0. 0. 0. 0. 0. 0. 0. 0. 0. 0. 1.38888890e-02 0. 0. 6.94444450e-03
      0. 6.94444450e-03 0. 0. 0. 0. 6.94444450e-03 0. 0. 0. 0. 0. 0. 0.
      0. 0. 0. 0. 1.38888890e-02 0. 0. 0. 0. 0. 0. 0. 0. 0. 0. 0. 0. 0.
      0. 0. 0. 0. 0. 0. 0. 0. 0. 0. 0. 0. 0. 0. 0. 0. 0. 0. 0. 0. 0. 0.
      6.94444450e-03 0. 0. 0. 6.94444450e-03 0. 6.94444450e-03 0. 0.
      6.94444450e-03 0. 0. 0. 0. 0. 0. 0. 6.94444450e-03 6.94444450e-03
      0. 0. 0. 0. 0. 0. 0. 6.94444450e-03 0. 0. 0. 0. 0. 0. 0. 0. 0. 0.
      0. 0. 0. 0. 0. 0. 0. 0. 0. 0. 0. 0. 0. 0. 0. 0. 1.38888890e-02 0.
      0. 0. 0. 0. 0. 0. 0. 0. 0. 0. 0. 0. 0. 0. 0. 0. 0. 0. 0. 0. 0. 0.
      0. 0. 0. 0. 0. 0. 0. 0. 0. 0. 0. 0. 0. 0. 0. 6.94444450e-03 0. 0.
      0. 0. 0. 0. 1.38888890e-02 0. 0. 0. 6.94444450e-03 0. 0.
      6.94444450e-03 0. 0. 0. 0. 0. 0. 0. 0. 6.94444450e-03 0.
      6.94444450e-03 0. 0. 0. 0. 0. 0. 0. 0. 0. 0. 0. 0. 0. 0. 0. 0. 0.
      0. 0. 0. 0. 0. 0. 0. 0. 6.94444450e-03 0. 0. 0. 0. 0. 0. 0. 0. 0.
      0. 0. 0. 0. 0. 0. 6.94444450e-03 1.38888890e-02 0. 0. 0.
      6.94444450e-03 0. 0. 0. 6.94444450e-03 6.94444450e-03 0. 0. 0. 0.
      0. 1.38888890e-02 0. 0. 0. 0. 0. 0. 0. 0. 6.94444450e-03 0.
      1.38888890e-02 0. 0. 0. 0. 0. 0. 0. 0. 0. 0. 1.38888890e-02 0. 0.
      0. 0. 0. 0. 0. 0. 0. 0. 0. 6.94444450e-03 0. 0. 0. 0. 0. 0. 0. 0.
      0. 0. 0. 0. 0. 0. 0. 0. 0. 0. 0. 0. 0. 0. 0. 0. 0. 0. 0. 0. 0. 0.
      0. 0. 0. 0. 0. 0. 0. 6.94444450e-03 0. 0. 0. 0. 0. 0. 0. 0.
      6.94444450e-03 0. 0. 6.94444450e-03 0. 0. 0. 0. 0. 0. 0. 0. 0. 0.
      0. 0. 0. 0. 6.94444450e-03 0. 0. 0. 0. 0. 0.</_>
    <_>
      6.02409616e-03 0. 0. 6.02409616e-03 0. 6.02409616e-03 0. 0. 0. 0.
      0. 6.02409616e-03 0. 0. 0. 6.02409616e-03 6.02409616e-03 0.
      6.02409616e-03 0. 0. 1.20481923e-02 6.02409616e-03 0. 0.
      6.02409616e-03 0. 0. 6.02409616e-03 0. 0. 0. 0. 0. 6.02409616e-03
      0. 0. 0. 0. 0. 0. 0. 0. 0. 0. 0. 6.02409616e-03 0. 0. 0.
      6.02409616e-03 0. 0. 6.02409616e-03 0. 0. 0. 0. 0. 6.02409616e-03
      0. 0. 0. 0. 0. 0. 0. 0. 6.02409616e-03 0. 0. 0. 0. 0. 0. 0. 0.
      1.20481923e-02 6.02409616e-03 1.20481923e-02 0. 0. 0. 0. 0. 0.
      6.02409616e-03 6.02409616e-03 0. 0. 6.02409616e-03 0. 0. 0. 0. 0.
      0. 0. 0. 0. 0. 0. 0. 0. 6.02409616e-03 0. 0. 0. 0. 0. 0. 0. 0. 0.
      0. 6.02409616e-03 0. 0. 0. 0. 0. 6.02409616e-03 0. 0. 0. 0. 0. 0.
      0. 0. 0. 1.20481923e-02 0. 0. 0. 0. 0. 0. 0. 0. 0. 0.
      6.02409616e-03 0. 1.20481923e-02 6.02409616e-03 0. 6.02409616e-03
      0. 0. 0. 6.02409616e-03 0. 0. 0. 0. 0. 0. 6.02409616e-03 0. 0. 0.
      0. 0. 1.20481923e-02 0. 0. 0. 0. 0. 0. 0. 6.02409616e-03 0. 0. 0.
      0. 0. 0. 0. 0. 6.02409616e-03 0. 0. 1.20481923e-02 0. 0. 0. 0.
      6.02409616e-03 1.20481923e-02 0. 0. 6.02409616e-03 0.
      6.02409616e-03 0. 0. 0. 0. 0. 0. 0. 0. 0. 0. 6.02409616e-03 0. 0.
      6.02409616e-03 0. 0. 0. 0. 0. 0. 0. 0. 0. 0. 1.20481923e-02 0. 0.
      0. 0. 0. 0. 0. 0. 0. 0. 0. 0. 0. 6.02409616e-03 6.02409616e-03 0.
      0. 6.02409616e-03 0. 0. 0. 0. 0. 0. 0. 0. 0. 0. 0. 0. 0. 0.
      6.02409616e-03 0. 0. 0. 0. 6.02409616e-03 0. 6.02409616e-03 0. 0.
      0. 0. 0. 0. 0. 0. 0. 0. 0. 0. 0. 0. 0. 0. 0. 6.02409616e-03 0. 0.
      0. 6.02409616e-03 0. 6.02409616e-03 0. 0. 0. 0. 6.02409616e-03
      6.02409616e-03 0. 6.02409616e-03 0. 0. 6.02409616e-03 0. 0. 0.
      6.02409616e-03 0. 0. 0. 0. 0. 0. 0. 0. 0. 0. 0. 0. 0. 0. 0. 0. 0.
      0. 0. 0. 0. 0. 0. 0. 0. 0. 0. 0. 0. 0. 0. 0. 0. 0. 0. 0. 0. 0. 0.
      0. 0. 0. 0. 0. 0. 0. 0. 0. 0. 0. 0. 0. 0. 0. 0. 0. 0. 0. 0.
      6.02409616e-03 6.02409616e-03 0. 0. 0. 0. 0. 0. 0. 0. 0. 0. 0. 0.
      0. 0. 0. 0. 0. 0. 0. 0. 0. 0. 0. 0. 0. 0. 6.02409616e-03 0. 0. 0.
      6.02409616e-03 0. 0. 0. 0. 0. 0. 0. 0. 0. 0. 0. 0. 0. 0. 0. 0.
      6.02409616e-03 0. 0. 6.02409616e-03 0. 0. 0. 0. 0. 0. 0.
      6.02409616e-03 6.02409616e-03 0. 0. 0. 0. 6.02409616e-03 0. 0.
      6.02409616e-03 0. 0. 0. 0. 0. 0. 0. 6.02409616e-03 0. 0. 0. 0. 0.
      0. 0. 0. 0. 0. 0. 0. 0. 0. 0. 0. 0. 0. 0. 0. 0. 6.02409616e-03 0.
      0. 0. 0. 6.02409616e-03 0. 0. 1.20481923e-02 6.02409616e-03 0. 0.
      0. 0. 0. 0. 0. 0. 0. 0. 0. 0. 1.20481923e-02 0. 0. 0. 0. 0. 0.
      6.02409616e-03 0. 6.02409616e-03 0. 0. 0. 0. 0. 0. 0. 0. 0.
      6.02409616e-03 0. 0. 0. 0. 0. 0. 6.02409616e-03 0. 6.02409616e-03
      0. 0. 0. 6.02409616e-03 0. 0. 0. 0. 0. 0. 0. 0. 0. 0. 0. 0. 0. 0.
      0. 0. 0. 0. 0. 0. 0. 0. 0. 0. 0. 0. 0. 0. 0. 0. 0. 6.02409616e-03
      0. 6.02409616e-03 0. 0. 0. 0. 0. 0. 6.02409616e-03 0. 0. 0. 0. 0.
      0. 0. 0. 6.02409616e-03 0. 0. 0. 6.02409616e-03 0. 0. 0. 0.
      6.02409616e-03 0. 0. 0. 0. 6.02409616e-03 0. 0. 0. 0. 0. 0. 0. 0.
      0. 0. 0. 0. 0. 0. 0. 0. 0. 0. 0. 0. 0. 0. 0. 0. 6.02409616e-03 0.
      0. 0. 0. 6.02409616e-03 0. 0. 0. 0. 0. 6.02409616e-03 0. 0. 0. 0.
      0. 0. 0. 6.02409616e-03 0. 0. 0. 0. 0. 0. 0. 0. 0. 0. 0. 0. 0. 0.
      0. 0. 0. 6.02409616e-03 0. 6.02409616e-03 0. 6.02409616e-03 0. 0.
      0. 0. 0. 6.02409616e-03 6.02409616e-03 6.02409616e-03
      6.02409616e-03 0. 0. 0. 0. 6.02409616e-03 0. 0. 0. 0.
      6.02409616e-03 0. 0. 6.02409616e-03 0. 6.02409616e-03 0. 0. 0. 0.
      6.02409616e-03 0. 0. 0. 0. 0. 0. 0. 0. 0. 0. 0. 1.20481923e-02 0.
      0. 0. 0. 6.02409616e-03 0. 0. 0. 6.02409616e-03 0. 0.
      6.02409616e-03 0. 0. 0. 0. 0. 0. 0. 0. 0. 0. 0. 0. 0. 0.
      6.02409616e-03 0. 0. 0. 0. 0. 0. 0. 1.20481923e-02 0. 0. 0. 0.
      6.02409616e-03 0. 0. 0. 0. 6.02409616e-03 0. 0. 0. 0. 0.
      6.02409616e-03 0. 0. 6.02409616e-03 0. 0. 0. 6.02409616e-03 0. 0.
      0. 1.20481923e-02 6.02409616e-03 6.02409616e-03 0. 0.
      6.02409616e-03 0. 6.02409616e-03 0. 0. 0. 0. 6.02409616e-03 0. 0.
      6.02409616e-03 0. 0. 0. 0. 0. 0. 0. 0. 0. 0. 0. 6.02409616e-03 0.
      0. 0. 0. 0. 0. 0. 0. 0. 0. 0. 0. 0. 0. 0. 0. 0. 0. 6.02409616e-03
      6.02409616e-03 0. 0. 0. 6.02409616e-03 0. 0. 0. 0. 0. 0. 0. 0. 0.
      0. 0. 0. 0. 0. 0. 0. 0. 0. 0. 0. 0. 1.20481923e-02 0. 0. 0. 0. 0.
      6.02409616e-03 6.02409616e-03 6.02409616e-03 0. 0. 0. 0. 0. 0. 0.
      1.20481923e-02 0. 0. 0. 0. 0. 0. 0. 0. 6.02409616e-03 0. 0. 0. 0.
      0. 0. 0. 0. 0. 0. 0. 0. 0. 0. 0. 0. 0. 0. 6.02409616e-03 0. 0. 0.
      0. 0. 0. 0. 0. 0. 0. 0. 0. 0. 0. 0. 0. 0. 0. 0. 0. 6.02409616e-03
      0. 0. 6.02409616e-03 6.02409616e-03 0. 0. 0. 0. 0. 0.
      6.02409616e-03 6.02409616e-03 0. 0. 0. 0. 0. 0. 0. 0. 0.
      1.20481923e-02 0. 0. 0. 0. 0. 0. 0. 0. 0. 0. 1.20481923e-02 0. 0.
      0. 0. 0. 0. 0. 0. 0. 0. 0. 0. 0. 6.02409616e-03 0. 0. 0.
      6.02409616e-03 0. 0. 0. 0. 0. 6.02409616e-03 0. 0. 0. 0. 0. 0. 0.
      0. 0. 0. 0. 0. 0. 0. 0. 0. 0. 6.02409616e-03 0. 0. 0. 0. 0.
      6.02409616e-03 0. 0. 0. 0. 6.02409616e-03 0. 0. 0. 0. 0. 0. 0.
      6.02409616e-03 6.02409616e-03 0. 0. 0. 0. 0. 0. 0. 0. 0. 0. 0. 0.
      0. 0. 0. 0. 6.02409616e-03 0. 0. 0. 0.</_>
    <_>
      0. 0. 0. 4.87804879e-03 0. 0. 0. 0. 0. 0. 0. 4.87804879e-03 0. 0.
      0. 0. 4.87804879e-03 0. 0. 0. 0. 4.87804879e-03 4.87804879e-03 0.
      0. 4.87804879e-03 0. 0. 4.87804879e-03 0. 0. 0. 4.87804879e-03 0.
      4.87804879e-03 0. 0. 0. 0. 0. 9.75609757e-03 0. 0. 0. 0. 0.
      4.87804879e-03 0. 0. 0. 9.75609757e-03 0. 0. 9.75609757e-03 0. 0.
      0. 0. 0. 0. 0. 0. 0. 0. 0. 0. 0. 0. 4.87804879e-03 0. 0. 0. 0. 0.
      0. 0. 0. 9.75609757e-03 9.75609757e-03 0. 0. 0. 0. 0. 0. 0.
      4.87804879e-03 0. 4.87804879e-03 4.87804879e-03 4.87804879e-03 0.
      0. 4.87804879e-03 0. 0. 0. 0. 4.87804879e-03 4.87804879e-03 0. 0.
      0. 0. 0. 0. 0. 0. 0. 0. 0. 0. 0. 0. 0. 0. 0. 0. 0. 0. 0. 0. 0. 0.
      0. 0. 4.87804879e-03 0. 0. 0. 0. 2.43902430e-02 0. 0. 0. 0. 0. 0.
      0. 0. 0. 0. 4.87804879e-03 0. 4.87804879e-03 4.87804879e-03 0. 0.
      0. 4.87804879e-03 0. 0. 0. 0. 0. 0. 0. 4.87804879e-03
      4.87804879e-03 0. 0. 0. 4.87804879e-03 0. 4.87804879e-03 0.
      4.87804879e-03 0. 0. 0. 0. 0. 4.87804879e-03 0. 0. 0.
      4.87804879e-03 0. 0. 4.87804879e-03 4.87804879e-03 0.
      4.87804879e-03 0. 1.46341464e-02 0. 0. 0. 0. 4.87804879e-03
      4.87804879e-03 0. 0. 4.87804879e-03 0. 4.87804879e-03 0. 0.
      4.87804879e-03 0. 0. 0. 0. 0. 0. 0. 4.87804879e-03 0. 0.
      4.87804879e-03 0. 0. 0. 0. 0. 0. 0. 0. 0. 9.75609757e-03
      9.75609757e-03 0. 0. 0. 0. 0. 0. 0. 0. 0. 0. 0. 0. 0.
      4.87804879e-03 0. 0. 0. 4.87804879e-03 0. 0. 0. 0. 0. 0. 0.
      4.87804879e-03 0. 0. 0. 0. 0. 0. 4.87804879e-03 0. 0. 0. 0. 0. 0.
      0. 0. 0. 0. 0. 0. 4.87804879e-03 0. 0. 0. 0. 0. 0. 0. 0.
      4.87804879e-03 0. 0. 4.87804879e-03 0. 0. 4.87804879e-03 0.
      4.87804879e-03 4.87804879e-03 0. 0. 0. 0. 4.87804879e-03
      4.87804879e-03 0. 4.87804879e-03 0. 0. 0. 4.87804879e-03 0. 0. 0.
      0. 0. 0. 0. 0. 0. 0. 0. 0. 0. 0. 0. 0. 0. 0. 4.87804879e-03 0.
      4.87804879e-03 0. 0. 0. 0. 0. 0. 4.87804879e-03 0. 0. 0.
      9.75609757e-03 0. 0. 0. 0. 4.87804879e-03 0. 0. 0. 0.
      4.87804879e-03 0. 0. 0. 0. 0. 0. 0. 0. 0. 0. 0. 0. 0. 0. 0. 0. 0.
      0. 0. 0. 0. 0. 0. 0. 0. 0. 0. 0. 0. 0. 0. 0. 0. 0. 0. 0. 0. 0. 0.
      9.75609757e-03 0. 0. 0. 0. 0. 0. 4.87804879e-03 0. 4.87804879e-03
      0. 0. 0. 9.75609757e-03 0. 0. 0. 4.87804879e-03 0. 0. 0. 0. 0. 0.
      0. 4.87804879e-03 0. 0. 0. 0. 0. 0. 0. 4.87804879e-03 0.
      4.87804879e-03 0. 0. 0. 0. 0. 0. 0. 0. 0. 0. 0. 4.87804879e-03 0.
      0. 0. 0. 0. 0. 0. 4.87804879e-03 0. 0. 9.75609757e-03 0. 0. 0.
      4.87804879e-03 0. 0. 0. 0. 0. 0. 0. 0. 0. 0. 0. 0. 4.87804879e-03
      0. 0. 4.87804879e-03 4.87804879e-03 9.75609757e-03 0. 0.
      4.87804879e-03 0. 4.87804879e-03 0. 0. 4.87804879e-03
      9.75609757e-03 0. 0. 0. 0. 0. 0. 0. 0. 0. 0. 0. 0. 4.87804879e-03
      0. 0. 0. 0. 0. 0. 4.87804879e-03 0. 4.87804879e-03 0. 0. 0. 0. 0.
      0. 4.87804879e-03 9.75609757e-03 0. 4.87804879e-03 0. 0. 0.
      4.87804879e-03 4.87804879e-03 0. 0. 0. 0. 0. 0. 0. 4.87804879e-03
      0. 0. 0. 0. 0. 0. 0. 0. 0. 0. 0. 0. 4.87804879e-03 0. 0. 0. 0. 0.
      0. 0. 0. 0. 0. 0. 0. 0. 0. 0. 4.87804879e-03 0. 0. 0. 0. 0. 0. 0.
      0. 0. 0. 0. 9.75609757e-03 4.87804879e-03 0. 0. 0. 0. 0. 0. 0. 0.
      0. 0. 0. 0. 0. 0. 0. 0. 4.87804879e-03 0. 4.87804879e-03 0.
      4.87804879e-03 4.87804879e-03 0. 0. 0. 0. 0. 0. 0. 0. 0. 0. 0. 0.
      9.75609757e-03 0. 0. 0. 0. 0. 4.87804879e-03 0. 0. 0. 0. 0. 0. 0.
      0. 0. 0. 0. 0. 0. 0. 0. 0. 0. 0. 0. 0. 0. 0. 0. 0. 4.87804879e-03
      0. 0. 0. 0. 0. 0. 0. 0. 0. 0. 0. 0. 0. 4.87804879e-03 0. 0. 0. 0.
      0. 4.87804879e-03 0. 0. 0. 0. 0. 0. 0. 4.87804879e-03
      9.75609757e-03 0. 0. 0. 4.87804879e-03 0. 0. 0. 0. 4.87804879e-03
      0. 0. 9.75609757e-03 0. 0. 4.87804879e-03 0. 4.87804879e-03 0. 0.
      0. 0. 4.87804879e-03 0. 0. 0. 0. 0. 0. 0. 0. 0. 0. 0.
      4.87804879e-03 0. 0. 0. 0. 0. 0. 0. 4.87804879e-03 4.87804879e-03
      4.87804879e-03 0. 0. 0. 0. 0. 0. 0. 0. 0. 0. 0. 0. 0. 0. 0. 0. 0.
      0. 4.87804879e-03 0. 0. 0. 0. 0. 4.87804879e-03 0. 0. 0. 0.
      4.87804879e-03 0. 0. 0. 0. 0. 0. 0. 0. 0. 0. 0. 0. 0.
      4.87804879e-03 0. 0. 0. 4.87804879e-03 0. 0. 4.87804879e-03
      4.87804879e-03 0. 4.87804879e-03 0. 0. 0. 0. 1.46341464e-02 0. 0.
      0. 0. 0. 4.87804879e-03 0. 0. 0. 0. 0. 0. 0. 0. 0. 0. 0. 0. 0.
      4.87804879e-03 0. 0. 0. 0. 0. 0. 0. 0. 0. 0. 4.87804879e-03 0. 0.
      0. 0. 0. 0. 0. 4.87804879e-03 4.87804879e-03 0. 0. 0.
      4.87804879e-03 0. 0. 0. 0. 0. 0. 0. 0. 0. 0. 0. 0. 4.87804879e-03
      0. 0. 0. 0. 0. 0. 0. 0. 4.87804879e-03 0. 0. 0. 0. 0. 0.
      4.87804879e-03 0. 0. 0. 0. 0. 0. 0. 0. 9.75609757e-03 0. 0. 0.
      4.87804879e-03 4.87804879e-03 4.87804879e-03 0. 0. 0. 0.
      4.87804879e-03 0. 0. 0. 0. 0. 0. 0. 4.87804879e-03 0. 0.
      4.87804879e-03 0. 0. 0. 0. 0. 4.87804879e-03 0. 0. 0. 0. 0. 0. 0.
      0. 0. 0. 0. 0. 0. 0. 0. 0. 1.46341464e-02 0. 0. 0. 0. 0. 0. 0.
      4.87804879e-03 4.87804879e-03 0. 0. 0. 0. 0. 9.75609757e-03
      4.87804879e-03 0. 0. 0. 0. 0. 0. 0. 0. 0. 1.46341464e-02 0. 0. 0.
      0. 0. 0. 0. 0. 0. 0. 4.87804879e-03 0. 0. 0. 0. 0. 4.87804879e-03
      0. 0. 0. 0. 4.87804879e-03 0. 0. 0. 0. 0. 0. 4.87804879e-03 0. 0.
      9.75609757e-03 0. 0. 4.87804879e-03 0. 0. 0. 0. 4.87804879e-03 0.
      0. 0. 0. 0. 9.75609757e-03 0. 0. 0. 0. 0. 0. 4.87804879e-03
      4.87804879e-03 0. 0. 0. 4.87804879e-03 4.87804879e-03 0. 0. 0. 0.
      0. 0. 0. 0. 0. 0. 0. 0. 4.87804879e-03 4.87804879e-03 0. 0.
      4.87804879e-03 0. 0. 0. 0. 0. 0. 0. 0. 0. 0. 0. 4.87804879e-03 0.
      0. 0. 0. 0. 0.</_>
    <_>
      1.95121951e-02 0. 0. 4.87804879e-03 0. 0. 0. 0. 0. 0. 0. 0. 0.
      4.87804879e-03 0. 9.75609757e-03 4.87804879e-03 4.87804879e-03 0.
      0. 0. 0. 4.87804879e-03 0. 0. 4.87804879e-03 0. 0. 4.87804879e-03
      0. 0. 0. 0. 0. 0. 0. 0. 4.87804879e-03 0. 0. 4.87804879e-03 0. 0.
      4.87804879e-03 0. 0. 4.87804879e-03 0. 0. 0. 9.75609757e-03 0. 0.
      4.87804879e-03 0. 0. 0. 0. 0. 0. 0. 0. 0. 0. 0. 0. 4.87804879e-03
      0. 9.75609757e-03 0. 0. 0. 0. 0. 0. 4.87804879e-03 0.
      4.87804879e-03 4.87804879e-03 0. 0. 0. 0. 0. 0. 0. 4.87804879e-03
      0. 0. 0. 4.87804879e-03 0. 0. 4.87804879e-03 0. 0. 0. 0.
      4.87804879e-03 4.87804879e-03 0. 4.87804879e-03 0. 0. 0. 0. 0. 0.
      0. 0. 0. 4.87804879e-03 0. 0. 0. 0. 0. 0. 0. 0. 0. 4.87804879e-03
      0. 0. 0. 0. 4.87804879e-03 4.87804879e-03 0. 0. 0. 4.87804879e-03
      0. 0. 4.87804879e-03 0. 0. 0. 0. 0. 0. 0. 0. 0. 0. 4.87804879e-03
      0. 0. 0. 0. 0. 0. 0. 0. 0. 0. 0. 4.87804879e-03 0. 4.87804879e-03
      0. 9.75609757e-03 0. 0. 9.75609757e-03 0. 4.87804879e-03 0. 0. 0.
      0. 0. 4.87804879e-03 0. 0. 0. 4.87804879e-03 0. 0. 0. 0. 0. 0. 0.
      1.46341464e-02 0. 0. 0. 0. 0. 4.87804879e-03 0. 0. 4.87804879e-03
      0. 4.87804879e-03 0. 0. 4.87804879e-03 0. 0. 0. 0. 4.87804879e-03
      0. 0. 4.87804879e-03 4.87804879e-03 0. 4.87804879e-03 0.
      4.87804879e-03 0. 0. 0. 0. 0. 4.87804879e-03 0. 0. 4.87804879e-03
      0. 0. 0. 0. 0. 0. 0. 0. 0. 0. 0. 0. 0. 4.87804879e-03
      4.87804879e-03 4.87804879e-03 0. 4.87804879e-03 0. 4.87804879e-03
      0. 0. 0. 0. 0. 4.87804879e-03 0. 0. 0. 0. 0. 0. 4.87804879e-03 0.
      0. 0. 0. 0. 0. 0. 0. 0. 0. 0. 0. 4.87804879e-03 0. 0. 0. 0. 0. 0.
      4.87804879e-03 0. 0. 0. 0. 4.87804879e-03 0. 0. 0. 4.87804879e-03
      4.87804879e-03 0. 0. 0. 0. 0. 4.87804879e-03 0. 0. 4.87804879e-03
      0. 0. 4.87804879e-03 0. 0. 0. 0. 0. 0. 0. 0. 0. 0. 0. 0. 0. 0. 0.
      0. 0. 0. 0. 0. 0. 4.87804879e-03 0. 0. 0. 0. 0. 0. 4.87804879e-03
      0. 0. 0. 4.87804879e-03 0. 0. 0. 0. 4.87804879e-03 0. 0. 0. 0. 0.
      0. 0. 0. 0. 0. 0. 0. 0. 0. 0. 0. 0. 0. 0. 0. 0. 0. 0. 0. 0.
      4.87804879e-03 0. 0. 0. 0. 0. 0. 0. 0. 0. 0. 0. 0. 0.
      4.87804879e-03 0. 0. 0. 0. 4.87804879e-03 0. 0. 0. 0. 0. 0.
      4.87804879e-03 0. 4.87804879e-03 0. 0. 0. 0. 0. 0. 0.
      4.87804879e-03 4.87804879e-03 0. 0. 0. 0. 0. 0. 4.87804879e-03 0.
      0. 0. 0. 9.75609757e-03 0. 4.87804879e-03 4.87804879e-03 0.
      9.75609757e-03 0. 0. 0. 0. 0. 0. 0. 4.87804879e-03 0.
      4.87804879e-03 0. 4.87804879e-03 0. 0. 0. 0. 0. 0. 0. 0.
      4.87804879e-03 0. 9.75609757e-03 0. 4.87804879e-03 0. 0. 0. 0. 0.
      0. 0. 0. 0. 0. 0. 0. 0. 0. 0. 0. 0. 4.87804879e-03 4.87804879e-03
      4.87804879e-03 0. 0. 0. 0. 4.87804879e-03 0. 0. 0. 1.46341464e-02
      0. 0. 0. 0. 0. 0. 0. 0. 0. 0. 0. 0. 4.87804879e-03 0.
      4.87804879e-03 0. 0. 0. 0. 4.87804879e-03 0. 4.87804879e-03 0. 0.
      0. 0. 4.87804879e-03 0. 9.75609757e-03 0. 0. 0. 0. 0. 0.
      4.87804879e-03 4.87804879e-03 0. 4.87804879e-03 0. 4.87804879e-03
      0. 0. 0. 0. 0. 0. 0. 0. 0. 0. 0. 0. 0. 0. 0. 0. 0. 0. 0. 0. 0. 0.
      0. 0. 0. 4.87804879e-03 4.87804879e-03 0. 0. 0. 4.87804879e-03 0.
      9.75609757e-03 0. 0. 0. 0. 0. 0. 0. 0. 0. 0. 0. 9.75609757e-03
      4.87804879e-03 0. 0. 0. 0. 0. 0. 0. 0. 0. 0. 0. 0. 0. 0. 0. 0. 0.
      9.75609757e-03 4.87804879e-03 0. 4.87804879e-03 4.87804879e-03 0.
      0. 0. 0. 0. 0. 0. 0. 0. 0. 0. 0. 1.95121951e-02 0. 0. 0. 0. 0. 0.
      4.87804879e-03 0. 0. 0. 0. 0. 9.75609757e-03 0. 0. 0.
      4.87804879e-03 0. 0. 4.87804879e-03 4.87804879e-03 0. 0. 0. 0. 0.
      0. 0. 0. 0. 0. 0. 0. 0. 0. 0. 0. 0. 0. 0. 0. 0. 0. 0. 0.
      4.87804879e-03 0. 0. 0. 0. 4.87804879e-03 0. 0. 0. 0. 0. 0. 0. 0.
      9.75609757e-03 4.87804879e-03 0. 0. 4.87804879e-03 0. 0.
      4.87804879e-03 0. 4.87804879e-03 0. 0. 4.87804879e-03 0. 0.
      4.87804879e-03 0. 4.87804879e-03 0. 0. 0. 0. 0. 0. 0. 0. 0. 0. 0.
      0. 0. 0. 0. 0. 0. 0. 0. 0. 0. 0. 0. 0. 4.87804879e-03
      4.87804879e-03 4.87804879e-03 0. 0. 0. 0. 0. 0. 0. 0. 0. 0. 0.
      4.87804879e-03 0. 4.87804879e-03 0. 0. 0. 0. 0. 0. 0. 0. 0. 0. 0.
      0. 0. 0. 0. 4.87804879e-03 0. 0. 0. 0. 0. 4.87804879e-03 0. 0. 0.
      0. 0. 0. 0. 4.87804879e-03 0. 0. 0. 0. 0. 0. 0. 4.87804879e-03 0.
      0. 0. 0. 0. 0. 0. 0. 0. 0. 0. 4.87804879e-03 4.87804879e-03 0. 0.
      0. 0. 0. 0. 4.87804879e-03 0. 0. 0. 0. 0. 0. 0. 4.87804879e-03 0.
      0. 4.87804879e-03 0. 0. 0. 0. 0. 0. 4.87804879e-03 0. 0. 0. 0. 0.
      0. 0. 4.87804879e-03 0. 0. 0. 0. 9.75609757e-03 4.87804879e-03 0.
      0. 0. 0. 0. 0. 0. 0. 0. 0. 0. 0. 0. 0. 0. 0. 0. 0. 0. 0.
      4.87804879e-03 0. 0. 0. 0. 0. 0. 0. 0. 0. 0. 0. 4.87804879e-03 0.
      0. 0. 4.87804879e-03 0. 0. 4.87804879e-03 0. 0. 0. 0. 0. 0. 0.
      4.87804879e-03 0. 0. 0. 4.87804879e-03 0. 0. 0. 0. 0. 0. 0. 0. 0.
      0. 0. 4.87804879e-03 0. 0. 0. 0. 0. 0. 0. 0. 0. 4.87804879e-03 0.
      0. 0. 0. 0. 4.87804879e-03 0. 4.87804879e-03 0. 0. 4.87804879e-03
      9.75609757e-03 0. 0. 0. 0. 4.87804879e-03 0. 0. 0. 0. 0.
      1.46341464e-02 4.87804879e-03 0. 0. 0. 0. 0. 0. 0. 0. 0. 0. 0. 0.
      0. 0. 0. 0. 0. 0. 0. 0. 4.87804879e-03 0. 0. 0. 0. 0.
      4.87804879e-03 0. 0. 0. 0. 0. 0. 0. 0. 0. 0. 0. 4.87804879e-03 0.
      4.87804879e-03 0. 0. 0. 0. 0. 0. 0. 0. 4.87804879e-03
      9.75609757e-03 0. 4.87804879e-03 0. 0. 0. 4.87804879e-03 0. 0. 0.
      0. 0. 0. 0. 0. 0. 0. 0. 0. 0. 0. 0. 0. 0. 0. 0. 0. 0. 0. 0. 0.
      4.87804879e-03 0. 0. 0. 4.87804879e-03 0. 0. 0. 0. 0. 0. 0. 0. 0.
      0. 0. 4.87804879e-03 4.87804879e-03 4.87804879e-03 0. 0. 0. 0.</_>
    <_>
      3.04568522e-02 0. 0. 5.07614203e-03 0. 1.01522841e-02 0. 0.
      1.01522841e-02 0. 0. 0. 0. 0. 5.07614203e-03 5.07614203e-03 0.
      5.07614203e-03 0. 0. 0. 0. 5.07614203e-03 0. 0. 5.07614203e-03 0.
      0. 5.07614203e-03 0. 0. 0. 0. 0. 5.07614203e-03 5.07614203e-03 0.
      5.07614203e-03 0. 0. 0. 0. 0. 0. 0. 0. 1.01522841e-02 0. 0. 0.
      1.01522841e-02 0. 0. 1.01522841e-02 0. 0. 0. 5.07614203e-03 0.
      5.07614203e-03 0. 0. 0. 0. 0. 0. 5.07614203e-03 0. 5.07614203e-03
      0. 0. 0. 0. 0. 0. 0. 0. 5.07614203e-03 5.07614203e-03
      5.07614203e-03 0. 0. 0. 0. 0. 0. 5.07614203e-03 0. 0. 0.
      1.01522841e-02 0. 0. 0. 0. 0. 0. 0. 5.07614203e-03 0. 0.
      5.07614203e-03 0. 0. 0. 0. 0. 0. 0. 0. 0. 5.07614203e-03 0. 0. 0.
      5.07614203e-03 0. 0. 0. 0. 0. 0. 0. 0. 0. 0. 5.07614203e-03
      5.07614203e-03 0. 0. 0. 0. 0. 0. 5.07614203e-03 0. 0. 0. 0. 0.
      5.07614203e-03 0. 0. 0. 0. 5.07614203e-03 0. 0. 0. 0. 0.
      5.07614203e-03 0. 0. 0. 0. 0. 5.07614203e-03 5.07614203e-03
      5.07614203e-03 0. 0. 0. 0. 1.52284261e-02 0. 0. 0. 5.07614203e-03
      0. 0. 0. 5.07614203e-03 0. 5.07614203e-03 0. 0. 5.07614203e-03 0.
      0. 0. 0. 0. 0. 5.07614203e-03 0. 0. 0. 0. 0. 5.07614203e-03 0. 0.
      5.07614203e-03 0. 0. 0. 0. 5.07614203e-03 0. 0. 5.07614203e-03 0.
      5.07614203e-03 0. 0. 1.01522841e-02 0. 0. 5.07614203e-03 0. 0. 0.
      0. 0. 0. 0. 5.07614203e-03 0. 0. 5.07614203e-03 0. 0. 0. 0. 0. 0.
      0. 0. 0. 0. 0. 0. 0. 5.07614203e-03 5.07614203e-03 5.07614203e-03
      0. 5.07614203e-03 0. 0. 0. 0. 0. 0. 0. 0. 0. 0. 0. 0. 0. 0.
      5.07614203e-03 0. 0. 0. 0. 0. 0. 0. 0. 0. 0. 0. 0. 0. 0. 0. 0. 0.
      0. 0. 5.07614203e-03 0. 5.07614203e-03 0. 0. 5.07614203e-03 0. 0.
      5.07614203e-03 5.07614203e-03 5.07614203e-03 0. 0. 0. 0. 0.
      5.07614203e-03 1.01522841e-02 0. 0. 0. 0. 0. 0. 0. 0. 0. 0. 0. 0.
      5.07614203e-03 0. 0. 0. 0. 0. 5.07614203e-03 0. 0. 0. 0. 0. 0. 0.
      5.07614203e-03 0. 0. 0. 0. 0. 0. 5.07614203e-03 0. 0. 0.
      5.07614203e-03 0. 5.07614203e-03 0. 0. 5.07614203e-03 0. 0. 0. 0.
      0. 5.07614203e-03 0. 0. 0. 0. 0. 0. 0. 0. 0. 0. 0. 0. 0. 0. 0. 0.
      0. 5.07614203e-03 0. 5.07614203e-03 5.07614203e-03 0. 0. 0. 0. 0.
      0. 0. 1.01522841e-02 0. 0. 0. 0. 0. 0. 0. 0. 0. 0. 0. 0. 0. 0. 0.
      0. 0. 0. 5.07614203e-03 0. 0. 0. 0. 0. 0. 0. 5.07614203e-03 0. 0.
      0. 0. 0. 0. 0. 5.07614203e-03 0. 0. 0. 0. 0. 0. 0. 0. 0.
      5.07614203e-03 0. 0. 0. 0. 0. 0. 0. 0. 0. 0. 0. 5.07614203e-03 0.
      0. 0. 0. 0. 0. 0. 0. 0. 0. 5.07614203e-03 0. 5.07614203e-03 0. 0.
      0. 0. 0. 0. 0. 0. 0. 0. 0. 0. 0. 0. 0. 0. 0. 5.07614203e-03
      5.07614203e-03 0. 0. 5.07614203e-03 0. 0. 0. 0. 0. 5.07614203e-03
      1.01522841e-02 0. 0. 0. 0. 0. 0. 0. 0. 0. 0. 0. 0. 5.07614203e-03
      0. 1.01522841e-02 0. 0. 0. 0. 0. 0. 0. 0. 0. 0. 0. 0. 0.
      5.07614203e-03 0. 5.07614203e-03 0. 0. 0. 0. 5.07614203e-03 0. 0.
      5.07614203e-03 0. 5.07614203e-03 0. 0. 0. 0. 0. 0. 0. 0. 0. 0. 0.
      0. 0. 0. 0. 5.07614203e-03 5.07614203e-03 0. 0. 5.07614203e-03 0.
      0. 0. 0. 0. 5.07614203e-03 0. 0. 0. 0. 1.01522841e-02 0.
      5.07614203e-03 0. 5.07614203e-03 0. 0. 0. 0. 0. 0. 5.07614203e-03
      0. 0. 1.01522841e-02 1.01522841e-02 5.07614203e-03 0. 0. 0. 0. 0.
      0. 0. 0. 0. 0. 0. 0. 0. 0. 0. 0. 0. 0. 0. 5.07614203e-03 0. 0. 0.
      0. 0. 0. 0. 0. 0. 0. 0. 0. 0. 0. 0. 0. 0. 0. 0. 5.07614203e-03 0.
      0. 0. 0. 0. 0. 5.07614203e-03 0. 0. 0. 0. 0. 0. 5.07614203e-03 0.
      0. 5.07614203e-03 0. 0. 0. 0. 0. 0. 0. 5.07614203e-03 0. 0. 0. 0.
      0. 0. 0. 0. 0. 0. 0. 0. 1.52284261e-02 0. 5.07614203e-03 0. 0. 0.
      0. 5.07614203e-03 5.07614203e-03 0. 0. 0. 0. 0. 0. 0.
      1.01522841e-02 0. 5.07614203e-03 0. 5.07614203e-03 0. 0.
      5.07614203e-03 0. 0. 0. 0. 1.01522841e-02 0. 0. 0. 0.
      5.07614203e-03 0. 0. 0. 0. 0. 0. 0. 5.07614203e-03 0. 0. 0. 0. 0.
      0. 5.07614203e-03 0. 0. 0. 0. 0. 0. 0. 0. 0. 0. 5.07614203e-03
      5.07614203e-03 0. 0. 0. 5.07614203e-03 0. 5.07614203e-03 0. 0. 0.
      0. 0. 5.07614203e-03 0. 0. 0. 0. 0. 0. 0. 0. 0. 0. 0. 0. 0. 0. 0.
      0. 0. 5.07614203e-03 0. 0. 0. 0. 0. 5.07614203e-03 0. 0. 0. 0. 0.
      0. 1.01522841e-02 0. 0. 0. 0. 0. 0. 0. 0. 5.07614203e-03 0. 0. 0.
      0. 0. 0. 5.07614203e-03 0. 0. 0. 0. 0. 5.07614203e-03 0. 0. 0. 0.
      0. 0. 5.07614203e-03 0. 0. 0. 0. 0. 0. 0. 0. 0. 0. 0. 0. 0. 0. 0.
      0. 0. 5.07614203e-03 0. 0. 0. 0. 0. 0. 0. 5.07614203e-03
      5.07614203e-03 0. 0. 0. 5.07614203e-03 5.07614203e-03 0. 0.
      5.07614203e-03 0. 0. 0. 0. 0. 0. 0. 0. 0. 5.07614203e-03 0. 0. 0.
      0. 0. 0. 0. 5.07614203e-03 0. 0. 0. 0. 0. 5.07614203e-03 0.
      5.07614203e-03 0. 0. 0. 5.07614203e-03 0. 0. 0. 5.07614203e-03 0.
      0. 5.07614203e-03 0. 0. 0. 0. 0. 0. 0. 1.01522841e-02
      5.07614203e-03 1.01522841e-02 0. 5.07614203e-03 0. 0. 0. 0. 0. 0.
      0. 0. 0. 0. 0. 0. 0. 0. 0. 0. 0. 0. 0. 0. 0. 5.07614203e-03 0. 0.
      0. 0. 0. 0. 0. 5.07614203e-03 0. 0. 0. 5.07614203e-03 0. 0. 0.
      5.07614203e-03 0. 0. 0. 0. 0. 0. 5.07614203e-03 0. 0. 0. 0. 0. 0.
      0. 0. 0. 0. 5.07614203e-03 0. 0. 0. 0. 5.07614203e-03 0. 0. 0. 0.
      0. 5.07614203e-03 0. 0. 0. 0. 0. 0. 0. 0. 0. 0. 0. 0. 0. 0. 0. 0.
      0. 0. 0. 5.07614203e-03 0. 0. 0. 0. 0. 0. 0. 0. 0. 1.01522841e-02
      5.07614203e-03 0. 0. 0. 0. 0. 0. 0. 0. 0. 0. 0. 0. 0. 0. 0. 0. 0.
      0. 0. 0. 0. 0. 0. 5.07614203e-03 0. 0. 0. 0. 0. 0. 0. 0. 0. 0. 0.
      0. 0. 0. 0. 0. 0. 0. 0. 0. 0. 5.07614203e-03 0. 0. 0. 0. 0. 0.</_>
    <_>
      1.03092780e-02 0. 0. 0. 0. 0. 0. 0. 0. 0. 0. 0. 0. 1.03092780e-02
      1.03092780e-02 0. 0. 0. 0. 1.03092780e-02 0. 0. 1.03092780e-02 0.
      0. 1.03092780e-02 0. 0. 0. 0. 0. 0. 0. 0. 0. 0. 0. 0. 0. 0. 0. 0.
      0. 0. 1.03092780e-02 0. 0. 0. 0. 0. 0. 0. 0. 0. 0. 0.
      1.03092780e-02 0. 0. 0. 0. 1.03092780e-02 0. 0. 0. 0. 0. 0. 0. 0.
      0. 0. 0. 0. 0. 0. 0. 0. 0. 0. 0. 0. 0. 0. 0. 0. 1.03092780e-02
      1.03092780e-02 0. 0. 1.03092780e-02 0. 0. 0. 0. 0. 0. 0. 0. 0. 0.
      0. 0. 0. 0. 0. 0. 0. 0. 0. 0. 0. 0. 0. 0. 0. 0. 0. 0.
      1.03092780e-02 0. 0. 0. 0. 0. 0. 1.03092780e-02 0. 0.
      1.03092780e-02 0. 1.03092780e-02 0. 0. 0. 0. 0. 0. 0. 0. 0. 0. 0.
      0. 0. 0. 0. 0. 0. 0. 0. 1.03092780e-02 0. 0. 0. 0. 0. 0. 0. 0. 0.
      0. 0. 0. 1.03092780e-02 0. 0. 1.03092780e-02 1.03092780e-02 0. 0.
      0. 0. 0. 0. 0. 0. 0. 1.03092780e-02 0. 0. 1.03092780e-02 0. 0. 0.
      0. 0. 0. 0. 0. 0. 0. 0. 0. 0. 1.03092780e-02 0. 0. 0. 0. 0. 0. 0.
      0. 0. 0. 1.03092780e-02 0. 0. 0. 0. 2.06185561e-02 0. 0. 0. 0. 0.
      1.03092780e-02 0. 1.03092780e-02 0. 0. 0. 0. 0. 0. 0. 0. 0. 0. 0.
      0. 0. 0. 2.06185561e-02 0. 1.03092780e-02 0. 1.03092780e-02 0. 0.
      0. 0. 0. 0. 0. 0. 0. 0. 0. 0. 0. 0. 1.03092780e-02 0. 0. 0. 0. 0.
      0. 0. 0. 0. 1.03092780e-02 0. 0. 0. 0. 0. 0. 0. 0. 0. 0. 0. 0. 0.
      0. 1.03092780e-02 0. 0. 0. 0. 0. 0. 1.03092780e-02 0. 0. 0. 0. 0.
      0. 0. 0. 0. 0. 1.03092780e-02 0. 1.03092780e-02 0. 1.03092780e-02
      0. 0. 0. 0. 0. 0. 0. 0. 1.03092780e-02 0. 0. 0. 0. 0. 0. 0. 0. 0.
      0. 0. 0. 0. 0. 1.03092780e-02 0. 0. 0. 0. 0. 0. 0. 1.03092780e-02
      0. 0. 2.06185561e-02 0. 0. 0. 0. 0. 0. 0. 0. 0. 0. 0. 0. 0.
      1.03092780e-02 0. 0. 0. 0. 0. 0. 0. 0. 0. 0. 1.03092780e-02 0. 0.
      0. 0. 0. 0. 0. 0. 0. 0. 0. 0. 0. 0. 0. 0. 0. 0. 0. 0. 0. 0. 0. 0.
      0. 0. 0. 1.03092780e-02 0. 0. 1.03092780e-02 0. 0. 0. 0. 0. 0. 0.
      0. 0. 0. 0. 0. 1.03092780e-02 0. 0. 1.03092780e-02 0. 0. 0. 0. 0.
      0. 0. 0. 0. 0. 1.03092780e-02 0. 0. 0. 0. 0. 0. 0. 0. 0. 0. 0. 0.
      0. 0. 0. 0. 0. 0. 0. 0. 0. 0. 1.03092780e-02 0. 0. 0. 0. 0. 0. 0.
      0. 0. 0. 0. 0. 0. 0. 0. 0. 0. 0. 2.06185561e-02 0. 0. 0. 0. 0. 0.
      0. 0. 0. 0. 0. 0. 0. 0. 0. 0. 0. 0. 0. 0. 0. 0. 0. 0. 0. 0. 0. 0.
      0. 0. 0. 0. 0. 0. 0. 0. 0. 0. 1.03092780e-02 0. 0. 0. 0. 0. 0. 0.
      0. 0. 0. 0. 0. 0. 0. 0. 0. 0. 0. 0. 0. 0. 0. 0. 0. 0. 0. 0. 0. 0.
      0. 0. 0. 0. 0. 1.03092780e-02 0. 0. 0. 0. 0. 0. 0. 0. 0. 0. 0. 0.
      0. 0. 0. 0. 1.03092780e-02 0. 1.03092780e-02 0. 1.03092780e-02 0.
      0. 0. 0. 0. 0. 0. 1.03092780e-02 0. 0. 0. 0. 0. 0. 0. 0. 0. 0. 0.
      0. 0. 0. 0. 0. 0. 1.03092780e-02 0. 0. 0. 0. 0. 0. 0. 0.
      1.03092780e-02 0. 0. 0. 0. 0. 0. 0. 0. 0. 0. 0. 0. 0. 0. 0. 0. 0.
      0. 0. 0. 0. 0. 1.03092780e-02 0. 0. 0. 0. 0. 0. 0. 0. 0. 0. 0. 0.
      0. 0. 0. 0. 0. 0. 0. 1.03092780e-02 0. 0. 0. 1.03092780e-02 0. 0.
      0. 0. 0. 0. 0. 1.03092780e-02 0. 0. 0. 0. 0. 1.03092780e-02 0. 0.
      1.03092780e-02 0. 0. 0. 0. 2.06185561e-02 0. 0. 0. 0. 0. 0. 0. 0.
      0. 0. 0. 0. 0. 1.03092780e-02 0. 0. 0. 0. 0. 0. 0. 0. 0. 0. 0. 0.
      0. 1.03092780e-02 1.03092780e-02 0. 0. 0. 0. 0. 0. 0. 0.
      1.03092780e-02 0. 0. 0. 0. 0. 0. 0. 0. 0. 1.03092780e-02 0. 0. 0.
      0. 0. 0. 0. 0. 0. 0. 0. 0. 0. 0. 0. 0. 0. 1.03092780e-02 0. 0. 0.
      0. 0. 0. 0. 0. 1.03092780e-02 0. 0. 0. 0. 0. 0. 0. 0. 0. 0. 0. 0.
      0. 0. 0. 0. 0. 0. 0. 0. 0. 0. 0. 0. 0. 0. 0. 0. 0. 0. 0. 0. 0. 0.
      0. 0. 0. 0. 0. 0. 0. 1.03092780e-02 0. 0. 0. 0. 0. 0.
      1.03092780e-02 1.03092780e-02 0. 0. 0. 0. 0. 0. 0. 0. 0. 0. 0. 0.
      0. 0. 0. 0. 0. 0. 0. 0. 0. 0. 1.03092780e-02 0. 2.06185561e-02 0.
      0. 0. 0. 0. 0. 0. 0. 0. 0. 0. 0. 0. 0. 0. 0. 0. 0. 0. 0. 0. 0. 0.
      0. 0. 0. 0. 0. 0. 0. 0. 0. 0. 0. 0. 0. 0. 0. 1.03092780e-02
      1.03092780e-02 0. 0. 0. 0. 1.03092780e-02 0. 1.03092780e-02 0. 0.
      1.03092780e-02 0. 0. 0. 0. 0. 0. 0. 0. 0. 0. 0. 0. 0. 0. 0. 0. 0.
      0. 0. 0. 0. 0. 0. 0. 0. 0. 0. 0. 1.03092780e-02 0. 0. 0. 0. 0. 0.
      1.03092780e-02 0. 0. 0. 0. 2.06185561e-02 0. 0. 0. 0. 0. 0. 0. 0.
      0. 0. 0. 0. 0. 0. 0. 0. 0. 0. 0. 0. 0. 0. 0. 0. 0. 0. 0. 0. 0. 0.
      0. 0. 0. 0. 0. 0. 0. 0. 0. 0. 0. 0. 0. 0. 0. 0. 0. 0. 0. 0. 0. 0.
      0. 0. 0. 0. 0. 0. 2.06185561e-02 0. 0. 0. 0. 0. 0. 0. 0. 0. 0. 0.
      1.03092780e-02 0. 0. 0. 0. 0. 0. 0. 0. 0. 0. 0. 0. 0. 0. 0. 0. 0.
      0. 0. 0. 0. 0. 0. 0. 0. 0. 0. 2.06185561e-02</_>
    <_>
      1.88679248e-02 0. 0. 1.88679248e-02 0. 0. 0. 0. 0. 0. 0. 0. 0.
      6.28930796e-03 6.28930796e-03 0. 0. 0. 0. 6.28930796e-03 0. 0.
      6.28930796e-03 0. 0. 6.28930796e-03 0. 0. 0. 0. 0. 0. 0. 0.
      6.28930796e-03 0. 0. 0. 0. 0. 0. 0. 0. 0. 0. 0. 1.25786159e-02 0.
      0. 0. 1.25786159e-02 0. 0. 6.28930796e-03 0. 0. 0. 6.28930796e-03
      0. 0. 0. 6.28930796e-03 0. 0. 0. 0. 0. 0. 6.28930796e-03 0. 0. 0.
      0. 0. 0. 0. 0. 0. 6.28930796e-03 0. 0. 0. 0. 0. 0. 0.
      6.28930796e-03 6.28930796e-03 0. 0. 6.28930796e-03 0. 0.
      6.28930796e-03 0. 0. 0. 0. 0. 0. 0. 0. 0. 0. 0. 0. 0. 0. 0. 0. 0.
      0. 0. 0. 0. 6.28930796e-03 0. 6.28930796e-03 0. 1.25786159e-02 0.
      0. 0. 0. 0. 0. 6.28930796e-03 0. 0. 6.28930796e-03 0.
      1.25786159e-02 0. 0. 0. 0. 0. 0. 0. 0. 0. 0. 0. 0. 0. 0. 0. 0. 0.
      0. 0. 6.28930796e-03 0. 0. 0. 0. 0. 0. 0. 0. 0. 0. 0. 0.
      6.28930796e-03 0. 0. 0. 6.28930796e-03 0. 0. 6.28930796e-03 0. 0.
      0. 0. 0. 0. 6.28930796e-03 6.28930796e-03 0. 0. 0. 0.
      6.28930796e-03 0. 0. 0. 0. 0. 0. 0. 0. 0. 0. 6.28930796e-03 0. 0.
      0. 0. 0. 0. 0. 0. 0. 0. 6.28930796e-03 6.28930796e-03 0. 0. 0.
      1.25786159e-02 0. 0. 0. 0. 0. 0. 0. 0. 0. 0. 0. 0. 0. 0. 0. 0. 0.
      0. 0. 0. 0. 0. 6.28930796e-03 0. 0. 0. 6.28930796e-03 0. 0. 0. 0.
      0. 0. 0. 6.28930796e-03 0. 0. 0. 0. 0. 0. 0. 0. 0. 0. 0. 0. 0. 0.
      0. 0. 0. 6.28930796e-03 0. 0. 0. 0. 0. 0. 0. 0. 1.25786159e-02 0.
      0. 0. 0. 6.28930796e-03 0. 0. 0. 0. 6.28930796e-03 0. 0. 0. 0. 0.
      0. 6.28930796e-03 0. 0. 0. 0. 0. 0. 0. 6.28930796e-03 0. 0. 0. 0.
      6.28930796e-03 0. 0. 0. 0. 0. 0. 0. 0. 0. 0. 0. 6.28930796e-03 0.
      0. 0. 0. 0. 0. 0. 0. 6.28930796e-03 0. 0. 0. 0. 0. 0.
      6.28930796e-03 6.28930796e-03 6.28930796e-03 6.28930796e-03
      6.28930796e-03 0. 0. 0. 0. 0. 0. 0. 0. 0. 0. 0. 0. 0.
      6.28930796e-03 0. 0. 0. 0. 0. 0. 6.28930796e-03 6.28930796e-03 0.
      0. 6.28930796e-03 0. 0. 0. 0. 0. 0. 0. 0. 0. 0. 0. 0. 0. 0. 0. 0.
      0. 0. 0. 0. 0. 0. 0. 0. 0. 0. 6.28930796e-03 0. 0. 0.
      6.28930796e-03 0. 0. 0. 6.28930796e-03 0. 0. 0. 0. 0. 0. 0. 0. 0.
      0. 0. 6.28930796e-03 0. 0. 0. 0. 0. 0. 0. 0. 0. 0. 0. 0. 0. 0. 0.
      0. 0. 0. 0. 0. 0. 0. 0. 0. 0. 0. 0. 0. 1.25786159e-02 0. 0. 0. 0.
      0. 0. 0. 0. 0. 0. 0. 0. 0. 0. 0. 0. 0. 0. 0. 0. 0. 6.28930796e-03
      0. 1.88679248e-02 0. 0. 0. 0. 0. 0. 0. 0. 6.28930796e-03 0. 0. 0.
      0. 0. 0. 0. 0. 1.25786159e-02 0. 0. 0. 0. 0. 0. 0. 0. 0. 0. 0. 0.
      0. 0. 1.25786159e-02 0. 0. 0. 0. 0. 0. 0. 0. 0. 0. 6.28930796e-03
      0. 0. 0. 0. 0. 0. 0. 0. 6.28930796e-03 0. 0. 0. 0. 0. 0. 0.
      6.28930796e-03 0. 0. 0. 0. 6.28930796e-03 0. 0. 0. 0. 0. 0. 0.
      6.28930796e-03 0. 0. 0. 0. 6.28930796e-03 0. 0. 0. 0. 0.
      6.28930796e-03 0. 0. 0. 0. 0. 6.28930796e-03 0. 0. 6.28930796e-03
      6.28930796e-03 0. 0. 0. 0. 0. 0. 0. 6.28930796e-03 0. 0. 0. 0. 0.
      0. 0. 0. 0. 0. 0. 0. 0. 0. 0. 0. 0. 1.25786159e-02 0. 0. 0. 0. 0.
      0. 0. 1.88679248e-02 6.28930796e-03 0. 0. 0. 0. 0. 0. 0. 0. 0. 0.
      0. 0. 0. 0. 0. 0. 0. 0. 0. 0. 0. 6.28930796e-03 6.28930796e-03 0.
      0. 0. 0. 0. 0. 0. 0. 0. 0. 0. 6.28930796e-03 0. 0. 0. 0. 0. 0. 0.
      1.25786159e-02 0. 0. 0. 0. 0. 0. 6.28930796e-03 0. 0. 0. 0.
      1.25786159e-02 0. 0. 0. 0. 0. 6.28930796e-03 0. 0. 6.28930796e-03
      0. 0. 0. 0. 0. 0. 0. 0. 0. 0. 0. 0. 0. 0. 0. 0. 0. 0.
      6.28930796e-03 0. 0. 0. 0. 0. 0. 0. 0. 0. 0. 0. 0. 0. 0.
      6.28930796e-03 0. 0. 0. 0. 0. 0. 0. 0. 6.28930796e-03 0. 0. 0. 0.
      0. 0. 0. 0. 0. 0. 0. 0. 0. 0. 6.28930796e-03 0. 0. 0. 0. 0.
      1.25786159e-02 0. 0. 0. 0. 0. 0. 0. 0. 0. 0. 0. 0. 0. 0. 0.
      6.28930796e-03 0. 0. 0. 0. 0. 0. 0. 0. 0. 6.28930796e-03 0. 0. 0.
      6.28930796e-03 0. 0. 0. 0. 0. 0. 0. 0. 0. 6.28930796e-03 0. 0. 0.
      0. 0. 0. 6.28930796e-03 0. 0. 0. 0. 0. 0. 0. 0. 0. 0.
      6.28930796e-03 0. 0. 0. 0. 0. 0. 0. 6.28930796e-03 0. 0. 0. 0.
      6.28930796e-03 0. 0. 0. 0. 0. 0. 0. 1.25786159e-02 0. 0. 0. 0. 0.
      0. 0. 0. 0. 6.28930796e-03 0. 1.25786159e-02 1.25786159e-02 0. 0.
      0. 0. 0. 0. 0. 0. 0. 0. 0. 0. 0. 0. 0. 6.28930796e-03 0. 0. 0. 0.
      6.28930796e-03 0. 0. 0. 0. 0. 0. 0. 0. 0. 0. 0. 0. 0. 0.
      6.28930796e-03 1.25786159e-02 6.28930796e-03 6.28930796e-03 0. 0.
      0. 6.28930796e-03 0. 0. 0. 0. 0. 6.28930796e-03 0. 0. 0. 0. 0. 0.
      0. 0. 0. 0. 0. 0. 0. 0. 0. 0. 0. 0. 0. 6.28930796e-03 0. 0. 0.
      6.28930796e-03 0. 0. 0. 0. 6.28930796e-03 0. 0. 0. 6.28930796e-03
      0. 1.25786159e-02 0. 0. 0. 0. 0. 6.28930796e-03 0. 0.
      6.28930796e-03 0. 0. 0. 0. 0. 0. 0. 0. 0. 0. 0. 0. 0. 0. 0. 0. 0.
      0. 6.28930796e-03 0. 0. 0. 0. 0. 1.25786159e-02 0. 0. 0. 0. 0. 0.
      0. 1.88679248e-02 0. 0. 0. 0. 0. 0. 0. 0. 0. 0. 0. 0. 0. 0.
      1.25786159e-02 0. 0. 0. 6.28930796e-03 0. 0. 0. 0. 0. 0. 0. 0. 0.
      0. 0. 0. 0. 0. 0. 0. 0. 0. 0. 0. 0. 0. 0. 0. 0. 0. 0. 0. 0. 0. 0.
      0. 0. 0. 0. 0. 0. 0. 0. 0. 0. 0. 6.28930796e-03 1.25786159e-02</_>
    <_>
      2.16450207e-02 0. 0. 4.32900432e-03 0. 4.32900432e-03 0. 0. 0. 0.
      0. 0. 4.32900432e-03 0. 4.32900432e-03 4.32900432e-03 0.
      4.32900432e-03 0. 0. 0. 0. 4.32900432e-03 0. 0. 4.32900432e-03 0.
      0. 4.32900432e-03 0. 0. 0. 0. 0. 4.32900432e-03 4.32900432e-03 0.
      4.32900432e-03 0. 0. 8.65800865e-03 0. 0. 0. 0. 0. 4.32900432e-03
      0. 0. 0. 8.65800865e-03 4.32900432e-03 0. 4.32900432e-03 0. 0. 0.
      4.32900432e-03 0. 0. 0. 0. 0. 4.32900432e-03 0. 0. 4.32900432e-03
      0. 4.32900432e-03 0. 0. 0. 0. 0. 0. 0. 0. 4.32900432e-03
      4.32900432e-03 4.32900432e-03 0. 0. 0. 0. 0. 0. 4.32900432e-03 0.
      0. 0. 4.32900432e-03 0. 0. 4.32900432e-03 0. 4.32900432e-03 0. 0.
      8.65800865e-03 0. 0. 0. 0. 0. 0. 0. 0. 0. 0. 0. 0. 0. 0. 0. 0. 0.
      0. 0. 0. 0. 0. 4.32900432e-03 0. 0. 0. 0. 4.32900432e-03
      4.32900432e-03 0. 0. 0. 4.32900432e-03 0. 0. 4.32900432e-03 0. 0.
      0. 0. 0. 4.32900432e-03 0. 0. 0. 0. 4.32900432e-03 0. 0. 0.
      4.32900432e-03 0. 4.32900432e-03 0. 0. 0. 0. 0. 8.65800865e-03
      4.32900432e-03 4.32900432e-03 0. 0. 0. 4.32900432e-03
      1.29870130e-02 0. 4.32900432e-03 0. 4.32900432e-03 0.
      4.32900432e-03 4.32900432e-03 4.32900432e-03 0. 4.32900432e-03 0.
      0. 8.65800865e-03 4.32900432e-03 4.32900432e-03 0. 0. 0. 0. 0. 0.
      0. 0. 0. 0. 8.65800865e-03 0. 0. 4.32900432e-03 0. 4.32900432e-03
      0. 0. 0. 0. 0. 0. 0. 4.32900432e-03 0. 4.32900432e-03
      4.32900432e-03 0. 0. 4.32900432e-03 0. 0. 0. 0. 0. 0.
      4.32900432e-03 4.32900432e-03 0. 4.32900432e-03 8.65800865e-03 0.
      0. 0. 4.32900432e-03 0. 0. 4.32900432e-03 0. 0. 0. 0. 0.
      4.32900432e-03 4.32900432e-03 4.32900432e-03 0. 0. 4.32900432e-03
      0. 4.32900432e-03 0. 0. 0. 0. 0. 0. 0. 4.32900432e-03
      4.32900432e-03 0. 0. 0. 4.32900432e-03 0. 0. 0. 0. 0. 0. 0. 0. 0.
      0. 0. 0. 0. 0. 0. 0. 0. 0. 0. 4.32900432e-03 0. 4.32900432e-03 0.
      0. 4.32900432e-03 0. 0. 4.32900432e-03 4.32900432e-03
      4.32900432e-03 0. 0. 0. 0. 0. 4.32900432e-03 0. 0. 0. 0. 0. 0. 0.
      0. 0. 0. 4.32900432e-03 0. 0. 0. 0. 0. 8.65800865e-03 0. 0.
      4.32900432e-03 0. 0. 0. 0. 0. 0. 0. 4.32900432e-03 0. 0. 0. 0. 0.
      0. 4.32900432e-03 0. 0. 0. 4.32900432e-03 0. 4.32900432e-03 0. 0.
      8.65800865e-03 0. 0. 0. 0. 0. 0. 0. 0. 0. 0. 0. 0. 0. 0. 0. 0. 0.
      0. 0. 0. 0. 0. 0. 4.32900432e-03 0. 4.32900432e-03 4.32900432e-03
      0. 0. 0. 0. 0. 0. 0. 4.32900432e-03 0. 0. 0. 0. 4.32900432e-03
      4.32900432e-03 0. 0. 0. 0. 0. 0. 0. 0. 0. 0. 0. 0. 4.32900432e-03
      0. 0. 0. 0. 0. 0. 0. 0. 0. 0. 0. 0. 0. 4.32900432e-03 0.
      4.32900432e-03 0. 0. 0. 0. 0. 0. 4.32900432e-03 4.32900432e-03 0.
      8.65800865e-03 0. 0. 0. 0. 0. 0. 0. 0. 4.32900432e-03 0. 0. 0. 0.
      0. 0. 4.32900432e-03 0. 0. 0. 4.32900432e-03 0. 0. 0. 0.
      4.32900432e-03 0. 0. 0. 0. 0. 0. 0. 0. 0. 0. 0. 0. 0. 0. 0. 0. 0.
      4.32900432e-03 4.32900432e-03 0. 0. 4.32900432e-03 0. 0. 0. 0. 0.
      4.32900432e-03 8.65800865e-03 0. 0. 0. 0. 0. 0. 0. 0. 0. 0. 0. 0.
      0. 0. 4.32900432e-03 0. 0. 0. 0. 0. 0. 0. 0. 0. 0. 4.32900432e-03
      0. 0. 4.32900432e-03 0. 8.65800865e-03 0. 0. 0. 0. 4.32900432e-03
      4.32900432e-03 0. 4.32900432e-03 0. 0. 0. 0. 0. 0. 0. 0. 0. 0. 0.
      0. 0. 0. 0. 0. 0. 4.32900432e-03 0. 0. 4.32900432e-03
      4.32900432e-03 0. 0. 0. 0. 0. 4.32900432e-03 0. 4.32900432e-03 0.
      0. 8.65800865e-03 0. 4.32900432e-03 0. 0. 0. 0. 0. 0.
