<?xml version="1.0"?>
<opencv_storage>
<my_svm type_id="opencv-ml-svm">
  <svm_type>C_SVC</svm_type>
  <kernel><type>RBF</type>
    <gamma>8.</gamma></kernel>
  <C>10.</C>
  <term_criteria><epsilon>1.1920928955078125e-07</epsilon>
    <iterations>2147483647</iterations></term_criteria>
  <var_all>1000</var_all>
  <var_count>1000</var_count>
  <class_count>2</class_count>
  <class_labels type_id="opencv-matrix">
    <rows>1</rows>
    <cols>2</cols>
    <dt>i</dt>
    <data>
      0 1</data></class_labels>
  <sv_total>151</sv_total>
  <support_vectors>
    <_>
      6.25000000e-02 0. 0. 0. 0. 2.08333340e-02 0. 0. 0. 0. 0. 0. 0. 0.
      0. 0. 0. 0. 0. 0. 0. 0. 0. 0. 0. 0. 0. 0. 0. 0. 0. 0. 0. 0. 0. 0.
      0. 0. 0. 2.08333340e-02 0. 0. 0. 0. 0. 0. 0. 0. 0. 0. 0. 0. 0. 0.
      0. 0. 0. 0. 0. 2.08333340e-02 0. 0. 0. 0. 0. 0. 0. 0. 0. 0. 0. 0.
      0. 0. 0. 0. 0. 0. 2.08333340e-02 0. 0. 0. 0. 0. 0. 0. 0. 0. 0. 0.
      0. 0. 0. 0. 0. 0. 0. 0. 0. 0. 0. 0. 0. 0. 0. 0. 0. 0. 0. 0. 0. 0.
      0. 0. 0. 0. 0. 0. 0. 0. 0. 0. 0. 0. 0. 0. 0. 0. 0. 0. 0. 0. 0. 0.
      0. 0. 0. 0. 0. 0. 0. 0. 0. 0. 0. 0. 0. 0. 0. 0. 0. 0. 0. 0. 0. 0.
      0. 0. 0. 0. 0. 0. 2.08333340e-02 0. 0. 0. 0. 0. 0. 0. 0. 0. 0. 0.
      0. 0. 0. 2.08333340e-02 0. 2.08333340e-02 0. 0. 0. 0. 0. 0. 0. 0.
      0. 0. 0. 0. 0. 0. 0. 0. 0. 0. 0. 0. 0. 0. 0. 0. 0. 0. 0. 0. 0. 0.
      0. 0. 0. 0. 0. 0. 0. 0. 0. 4.16666679e-02 0. 0. 0. 0.
      6.25000000e-02 0. 0. 0. 0. 0. 0. 0. 0. 0. 0. 0. 0. 0. 0. 0. 0. 0.
      0. 0. 0. 0. 0. 0. 0. 0. 0. 0. 0. 0. 0. 0. 0. 0. 0. 0. 0. 0. 0. 0.
      0. 2.08333340e-02 0. 0. 0. 0. 0. 0. 0. 0. 0. 0. 0. 0. 0. 0. 0. 0.
      0. 0. 0. 0. 0. 0. 0. 0. 0. 0. 0. 0. 0. 0. 0. 0. 0. 0. 0. 0. 0. 0.
      0. 0. 0. 0. 0. 0. 2.08333340e-02 0. 0. 0. 0. 2.08333340e-02 0. 0.
      0. 2.08333340e-02 0. 0. 0. 0. 0. 0. 0. 0. 0. 0. 0. 0. 0. 0. 0. 0.
      0. 0. 0. 0. 0. 0. 0. 0. 0. 2.08333340e-02 0. 0. 0. 0. 0. 0. 0. 0.
      0. 0. 0. 0. 0. 0. 0. 0. 0. 0. 0. 0. 0. 0. 0. 0. 0. 0. 0. 0. 0. 0.
      0. 0. 0. 0. 0. 2.08333340e-02 0. 0. 0. 0. 0. 0. 0. 0. 0.
      2.08333340e-02 0. 0. 0. 0. 0. 0. 0. 0. 0. 2.08333340e-02 0. 0. 0.
      0. 0. 0. 0. 0. 0. 0. 0. 0. 0. 0. 0. 0. 0. 0. 0. 0. 0. 0.
      2.08333340e-02 0. 0. 0. 0. 0. 0. 0. 0. 2.08333340e-02 0. 0. 0. 0.
      0. 0. 0. 0. 0. 0. 0. 0. 0. 0. 0. 0. 0. 0. 0. 0. 0. 0. 0. 0. 0. 0.
      2.08333340e-02 0. 0. 0. 0. 0. 0. 0. 0. 0. 0. 0. 0. 0. 0. 0. 0. 0.
      0. 0. 0. 0. 0. 0. 2.08333340e-02 0. 0. 0. 0. 0. 0. 0. 0. 0. 0. 0.
      0. 0. 0. 0. 0. 0. 0. 0. 2.08333340e-02 0. 0. 2.08333340e-02 0. 0.
      0. 0. 0. 0. 0. 0. 0. 0. 0. 0. 0. 0. 0. 4.16666679e-02 0. 0. 0. 0.
      0. 0. 0. 0. 0. 0. 0. 0. 0. 0. 0. 0. 0. 0. 0. 0. 0. 0. 0. 0. 0. 0.
      2.08333340e-02 0. 0. 0. 0. 0. 0. 0. 0. 0. 0. 0. 0. 0. 0. 0. 0. 0.
      0. 0. 0. 0. 0. 0. 0. 0. 0. 0. 0. 0. 0. 0. 0. 0. 0. 0. 0. 0. 0. 0.
      0. 0. 0. 0. 0. 0. 0. 0. 2.08333340e-02 0. 0. 0. 0. 0. 0. 0. 0. 0.
      0. 0. 2.08333340e-02 0. 0. 0. 0. 0. 0. 0. 0. 0. 0. 0. 0. 0. 0. 0.
      0. 0. 0. 0. 0. 0. 0. 0. 0. 0. 0. 0. 0. 0. 0. 0. 0. 0. 0. 0. 0. 0.
      0. 0. 0. 0. 0. 0. 0. 0. 0. 0. 0. 0. 0. 0. 0. 0. 0. 0. 0. 0. 0. 0.
      2.08333340e-02 0. 0. 0. 0. 0. 0. 0. 0. 0. 0. 0. 0. 0. 0. 0. 0. 0.
      0. 0. 0. 0. 0. 0. 0. 0. 0. 0. 0. 0. 0. 0. 0. 0. 0. 2.08333340e-02
      0. 0. 0. 0. 0. 0. 0. 0. 0. 0. 0. 2.08333340e-02 0. 0. 0. 0. 0. 0.
      0. 0. 0. 0. 0. 0. 0. 2.08333340e-02 0. 0. 0. 0. 0. 0. 0. 0. 0. 0.
      0. 0. 0. 0. 0. 0. 0. 0. 0. 0. 0. 0. 2.08333340e-02 0. 0. 0. 0. 0.
      0. 0. 0. 0. 0. 0. 0. 0. 2.08333340e-02 0. 0. 2.08333340e-02 0. 0.
      0. 0. 0. 0. 0. 0. 0. 0. 0. 0. 0. 0. 2.08333340e-02 0. 0. 0. 0. 0.
      0. 0. 0. 0. 0. 0. 0. 0. 0. 0. 0. 2.08333340e-02 0. 0. 0. 0.
      2.08333340e-02 2.08333340e-02 0. 0. 0. 0. 0. 0. 0. 0. 0. 0. 0. 0.
      0. 0. 0. 0. 0. 0. 0. 0. 0. 0. 0. 0. 0. 0. 0. 0. 0. 0. 0. 0. 0. 0.
      0. 0. 0. 0. 0. 0. 0. 0. 0. 0. 0. 0. 0. 0. 0. 0. 0. 0. 0. 0. 0. 0.
      0. 0. 0. 0. 0. 0. 0. 0. 0. 0. 0. 0. 0. 0. 0. 0. 0. 0. 0. 0. 0. 0.
      0. 0. 0. 0. 0. 0. 0. 0. 0. 0. 0. 0. 0. 0. 0. 0. 0. 0. 0. 0. 0. 0.
      0. 0. 0. 0. 0. 0. 0. 0. 0. 0. 0. 0. 0. 0. 0. 0. 0. 0. 0. 0. 0. 0.
      0. 0. 0. 2.08333340e-02 0. 0. 0. 0. 0. 0. 0. 0. 0. 0. 0. 0. 0. 0.
      0. 0. 0. 0. 0. 0. 0. 2.08333340e-02 2.08333340e-02 0. 0. 0. 0. 0.
      0. 0. 0. 0. 0. 0. 0. 0. 0. 0. 0. 0. 0. 0. 0. 0. 0. 0. 0. 0. 0. 0.
      0. 0. 0. 0. 0. 0. 0. 0. 0. 0. 0. 0. 0. 0.</_>
    <_>
      3.50877196e-02 0. 0. 0. 0. 3.50877196e-02 0. 0. 0. 0. 0. 0. 0. 0.
      0. 0. 0. 0. 0. 0. 0. 0. 0. 0. 0. 0. 0. 0. 1.75438598e-02 0. 0. 0.
      0. 0. 0. 0. 0. 0. 0. 0. 0. 0. 0. 0. 0. 0. 0. 0. 0. 0. 0. 0. 0. 0.
      0. 0. 0. 0. 0. 0. 0. 0. 0. 0. 1.75438598e-02 0. 0. 0. 0. 0. 0. 0.
      0. 0. 0. 1.75438598e-02 0. 0. 0. 1.75438598e-02 0. 0. 0. 0. 0. 0.
      0. 0. 0. 0. 0. 0. 0. 0. 0. 0. 0. 0. 0. 0. 0. 0. 0. 0. 0. 0. 0. 0.
      0. 0. 0. 0. 0. 0. 0. 0. 0. 0. 0. 0. 0. 0. 0. 0. 0. 0. 0. 0. 0. 0.
      0. 0. 0. 0. 0. 0. 0. 0. 0. 0. 0. 0. 1.75438598e-02 0. 0. 0. 0.
      1.75438598e-02 0. 0. 0. 0. 0. 0. 0. 0. 0. 0. 0. 0. 1.75438598e-02
      0. 1.75438598e-02 0. 0. 0. 0. 0. 0. 0. 0. 0. 0. 0. 0. 0. 0. 0. 0.
      0. 0. 0. 0. 0. 0. 0. 0. 0. 0. 0. 0. 0. 0. 0. 0. 0. 0. 0. 0. 0. 0.
      0. 0. 0. 0. 0. 0. 0. 0. 0. 0. 0. 0. 0. 1.75438598e-02 0. 0. 0. 0.
      0. 0. 0. 0. 0. 0. 0. 0. 0. 0. 0. 0. 0. 0. 0. 0. 0. 0. 0. 0. 0. 0.
      0. 0. 1.75438598e-02 0. 0. 0. 0. 0. 0. 0. 0. 0. 0. 0. 0. 0. 0. 0.
      0. 0. 0. 0. 0. 0. 0. 0. 0. 0. 0. 0. 0. 5.26315793e-02 0.
      1.75438598e-02 0. 0. 0. 0. 0. 0. 0. 0. 0. 0. 0. 0. 0. 0. 0. 0. 0.
      0. 0. 0. 0. 0. 0. 0. 0. 0. 0. 0. 0. 0. 0. 0. 0. 0. 0. 0. 0. 0. 0.
      0. 0. 0. 0. 0. 0. 0. 0. 0. 0. 0. 0. 0. 0. 0. 0. 0. 0. 0. 0. 0. 0.
      0. 1.75438598e-02 0. 0. 0. 1.75438598e-02 0. 0. 0. 0. 0. 0. 0.
      5.26315793e-02 0. 0. 0. 0. 0. 0. 0. 0. 0. 0. 0. 0. 1.75438598e-02
      0. 1.75438598e-02 0. 0. 0. 0. 0. 0. 0. 0. 0. 0. 0. 0. 0. 0. 0.
      1.75438598e-02 1.75438598e-02 0. 0. 0. 0. 0. 0. 0. 0. 0. 0. 0. 0.
      0. 0. 0. 0. 0. 0. 0. 0. 0. 0. 0. 0. 0. 0. 0. 0. 0. 0. 0. 0. 0. 0.
      0. 0. 0. 0. 0. 0. 0. 0. 3.50877196e-02 0. 0. 0. 0. 0. 0. 0. 0.
      1.75438598e-02 0. 0. 0. 0. 0. 1.75438598e-02 0. 0. 0. 0. 0. 0. 0.
      0. 0. 0. 0. 0. 0. 0. 0. 0. 0. 0. 0. 0. 0. 0. 0. 0. 0. 0. 0.
      1.75438598e-02 0. 0. 0. 0. 0. 0. 0. 0. 0. 0. 0. 0. 0. 0. 0. 0. 0.
      0. 0. 0. 0. 0. 1.75438598e-02 0. 0. 0. 0. 0. 0. 0. 0. 0. 0. 0. 0.
      0. 0. 0. 0. 1.75438598e-02 0. 0. 0. 1.75438598e-02 0. 0. 0. 0. 0.
      0. 0. 0. 0. 0. 0. 0. 0. 0. 0. 0. 0. 0. 0. 0. 0. 1.75438598e-02 0.
      0. 0. 0. 0. 0. 0. 0. 0. 0. 0. 0. 0. 0. 0. 0. 3.50877196e-02 0. 0.
      0. 0. 0. 0. 0. 0. 0. 0. 0. 0. 0. 0. 0. 0. 0. 0. 0. 1.75438598e-02
      0. 0. 0. 0. 0. 0. 0. 0. 0. 0. 0. 0. 0. 0. 0. 1.75438598e-02 0. 0.
      0. 0. 0. 0. 1.75438598e-02 0. 0. 0. 0. 0. 0. 0. 0. 0. 0. 0. 0. 0.
      0. 0. 0. 0. 0. 0. 0. 0. 0. 0. 0. 0. 0. 0. 0. 0. 0. 0. 0. 0. 0. 0.
      0. 0. 0. 0. 0. 0. 0. 0. 0. 0. 0. 0. 0. 0. 0. 0. 0. 0. 0. 0.
      1.75438598e-02 0. 0. 0. 0. 0. 0. 0. 0. 0. 0. 0. 0. 0. 0. 0. 0. 0.
      0. 0. 0. 0. 0. 0. 0. 0. 0. 0. 0. 0. 0. 0. 0. 0. 0. 0.
      1.75438598e-02 0. 0. 0. 0. 0. 0. 0. 0. 0. 0. 0. 0. 0. 0. 0. 0.
      1.75438598e-02 0. 0. 0. 0. 0. 0. 0. 0. 0. 0. 0. 0. 0.
      1.75438598e-02 0. 0. 0. 0. 0. 0. 0. 0. 0. 3.50877196e-02 0. 0. 0.
      0. 1.75438598e-02 0. 0. 0. 0. 0. 0. 0. 0. 0. 0. 0. 0. 0. 0. 0. 0.
      0. 0. 0. 0. 0. 0. 1.75438598e-02 0. 0. 0. 0. 0. 0. 0. 0. 0. 0. 0.
      0. 0. 1.75438598e-02 0. 0. 0. 0. 0. 0. 0. 0. 0. 0. 0. 0. 0. 0. 0.
      0. 0. 0. 0. 0. 0. 0. 0. 0. 0. 0. 0. 0. 0. 0. 0. 0. 0. 0. 0. 0. 0.
      0. 0. 0. 0. 0. 0. 0. 0. 0. 0. 0. 0. 0. 3.50877196e-02 0. 0.
      1.75438598e-02 0. 0. 0. 0. 0. 0. 0. 0. 0. 0. 0. 0. 0. 0. 0. 0.
      1.75438598e-02 0. 0. 0. 0. 0. 0. 0. 0. 0. 0. 0. 0. 0. 0. 0. 0. 0.
      0. 0. 0. 0. 0. 0. 0. 0. 0. 0. 0. 0. 0. 0. 0. 0. 0. 0. 0. 0. 0. 0.
      0. 0. 0. 0. 0. 0. 0. 0. 0. 0. 0. 0. 0. 0. 0. 0. 0. 0. 0. 0. 0. 0.
      0. 0. 0. 0. 1.75438598e-02 0. 0. 0. 0. 0. 0. 0. 0. 0. 0. 0. 0. 0.
      0. 0. 0. 0. 0. 0. 0. 0. 0. 0. 0. 0. 0. 0. 0. 0. 0. 0. 0. 0. 0. 0.
      0. 0. 0. 0. 0. 0. 0. 0. 0. 0. 0. 0. 0. 0. 0. 0. 0. 0. 0. 0. 0. 0.
      0. 0. 0. 0. 0. 0. 0. 0. 0. 1.75438598e-02 0. 0. 0. 0. 0. 0. 0. 0.
      0. 1.75438598e-02 0. 0. 0. 0. 0. 0. 0. 0. 0. 0. 0. 0. 0. 0. 0. 0.
      0.</_>
    <_>
      0. 0. 0. 0. 0. 0. 0. 0. 0. 0. 0. 0. 0. 0. 0. 0. 0. 0. 0. 0. 0. 0.
      0. 0. 0. 0. 0. 0. 0. 0. 0. 0. 0. 0. 0. 0. 0. 0. 0. 0. 0.
      4.16666679e-02 0. 0. 0. 0. 4.16666679e-02 0. 0. 0. 0. 0. 0. 0. 0.
      2.08333340e-02 0. 0. 0. 0. 0. 0. 0. 0. 0. 0. 0. 0. 0.
      2.08333340e-02 0. 2.08333340e-02 0. 0. 0. 2.08333340e-02 0. 0. 0.
      0. 0. 0. 0. 0. 0. 0. 0. 0. 2.08333340e-02 0. 0. 0. 0. 0. 0. 0. 0.
      0. 0. 0. 0. 0. 0. 0. 0. 0. 0. 0. 0. 0. 0. 0. 0. 0. 0. 0. 0. 0. 0.
      0. 0. 0. 0. 0. 0. 0. 0. 0. 0. 0. 0. 0. 0. 0. 0. 0. 0. 0. 0. 0. 0.
      0. 0. 0. 0. 0. 0. 0. 0. 0. 0. 0. 0. 0. 2.08333340e-02 0. 0. 0. 0.
      0. 0. 2.08333340e-02 2.08333340e-02 0. 0. 0. 0. 0. 0. 0. 0. 0. 0.
      0. 0. 0. 0. 0. 0. 2.08333340e-02 0. 0. 0. 0. 0. 0. 0. 0. 0. 0. 0.
      0. 0. 0. 0. 0. 0. 0. 0. 0. 0. 0. 0. 0. 0. 0. 0. 0. 0. 0.
      4.16666679e-02 0. 0. 0. 2.08333340e-02 0. 0. 0. 0. 0. 0. 0. 0. 0.
      0. 0. 0. 0. 0. 0. 0. 0. 2.08333340e-02 0. 0. 0. 0. 0. 0. 0. 0. 0.
      2.08333340e-02 0. 2.08333340e-02 0. 0. 0. 0. 0. 0. 0. 0. 0. 0. 0.
      0. 0. 0. 0. 0. 0. 0. 0. 0. 0. 0. 0. 0. 0. 0. 2.08333340e-02 0. 0.
      2.08333340e-02 0. 0. 2.08333340e-02 0. 0. 0. 0. 0. 0. 0. 0. 0. 0.
      0. 0. 0. 0. 0. 0. 0. 0. 0. 0. 0. 0. 0. 0. 0. 0. 0. 0. 0. 0. 0. 0.
      0. 0. 0. 0. 0. 0. 0. 0. 0. 0. 0. 0. 0. 2.08333340e-02 0. 0. 0. 0.
      0. 0. 0. 0. 0. 0. 0. 0. 0. 0. 0. 0. 0. 2.08333340e-02 0. 0. 0. 0.
      0. 0. 0. 0. 0. 0. 0. 0. 0. 0. 0. 0. 0. 0. 0. 0. 0. 0. 0. 0. 0. 0.
      0. 0. 0. 0. 0. 0. 0. 0. 0. 0. 0. 0. 2.08333340e-02 0. 0. 0. 0. 0.
      0. 0. 0. 0. 0. 0. 0. 0. 0. 0. 0. 0. 0. 0. 0. 0. 0. 0. 0. 0. 0. 0.
      0. 0. 0. 0. 0. 0. 0. 0. 0. 0. 0. 0. 0. 0. 0. 0. 0. 0. 0.
      2.08333340e-02 0. 0. 0. 0. 0. 0. 0. 0. 0. 0. 0. 0. 0. 0. 0. 0. 0.
      0. 0. 0. 0. 0. 0. 0. 0. 0. 0. 0. 0. 0. 4.16666679e-02 0. 0. 0. 0.
      0. 0. 0. 0. 0. 0. 0. 0. 0. 0. 0. 0. 4.16666679e-02 0. 0. 0. 0. 0.
      0. 0. 0. 0. 0. 0. 0. 0. 0. 0. 0. 0. 0. 0. 0. 0. 0. 0. 0. 0. 0. 0.
      0. 0. 0. 0. 0. 0. 0. 0. 0. 0. 0. 0. 0. 0. 0. 0. 0. 0. 0. 0. 0. 0.
      0. 0. 0. 0. 0. 0. 0. 0. 0. 0. 0. 0. 0. 0. 0. 0. 2.08333340e-02 0.
      0. 0. 0. 0. 0. 0. 0. 0. 0. 0. 2.08333340e-02 0. 0. 0. 0. 0. 0. 0.
      0. 0. 0. 0. 0. 0. 0. 0. 0. 0. 0. 0. 0. 0. 0. 0. 0. 0. 0. 0. 0. 0.
      0. 0. 0. 0. 0. 0. 0. 0. 0. 0. 0. 0. 0. 0. 0. 0. 0. 0. 0. 0.
      2.08333340e-02 0. 0. 0. 0. 0. 0. 0. 0. 0. 0. 0. 0. 0. 0. 0. 0. 0.
      0. 0. 0. 0. 0. 0. 2.08333340e-02 0. 0. 0. 0. 0. 0. 0. 0. 0. 0. 0.
      2.08333340e-02 0. 0. 0. 0. 0. 0. 0. 0. 0. 0. 0. 0. 0. 0. 0. 0. 0.
      0. 0. 0. 0. 0. 0. 0. 0. 0. 2.08333340e-02 0. 0. 0. 0. 0. 0. 0. 0.
      0. 0. 0. 0. 0. 0. 0. 0. 0. 0. 0. 2.08333340e-02 0. 0. 0. 0. 0. 0.
      0. 0. 0. 0. 0. 0. 0. 0. 0. 0. 0. 0. 0. 0. 0. 0. 0. 0. 0. 0. 0. 0.
      0. 0. 0. 0. 0. 0. 0. 0. 0. 0. 0. 0. 0. 0. 0. 0. 0. 0. 0. 0. 0. 0.
      0. 0. 0. 0. 0. 0. 0. 0. 0. 0. 0. 0. 0. 0. 0. 0. 0. 0. 0. 0. 0. 0.
      0. 0. 0. 0. 0. 0. 0. 2.08333340e-02 0. 0. 0. 0. 0. 0. 0. 0. 0. 0.
      0. 0. 0. 0. 0. 0. 0. 0. 0. 0. 0. 0. 0. 0. 0. 0. 0. 0.
      2.08333340e-02 0. 0. 0. 0. 0. 0. 0. 0. 0. 0. 0. 0. 0.
      2.08333340e-02 0. 0. 0. 0. 0. 0. 0. 0. 0. 0. 0. 0. 0. 0. 0.
      2.08333340e-02 0. 0. 0. 0. 0. 0. 0. 0. 0. 0. 0. 0. 2.08333340e-02
      0. 0. 0. 0. 0. 0. 0. 0. 0. 0. 0. 0. 0. 0. 0. 0. 0. 0. 0. 0. 0. 0.
      0. 0. 0. 0. 0. 0. 0. 0. 0. 0. 0. 0. 0. 0. 0. 0. 0. 0. 0.
      4.16666679e-02 0. 0. 0. 0. 0. 0. 0. 0. 0. 0. 0. 0. 0. 0. 0. 0. 0.
      0. 0. 0. 0. 0. 0. 0. 0. 0. 0. 0. 4.16666679e-02 0. 0. 0. 0. 0.
      2.08333340e-02 0. 0. 0. 0. 0. 0. 0. 0. 0. 0. 0. 0. 0. 0.
      2.08333340e-02 0. 0. 0. 0. 0. 0. 0. 0. 0. 0. 0. 0. 0. 0. 0. 0. 0.
      0. 0. 0. 0. 0. 0. 0. 0. 0. 0. 0. 0. 0. 0. 0. 0. 0. 0. 0. 0. 0. 0.
      0. 0. 0. 0. 0. 0. 0. 0. 0. 0. 0. 0. 0. 0. 0. 0. 0. 0. 0. 0. 0. 0.
      0. 0. 0. 0. 0. 0. 0. 0.</_>
    <_>
      2.40963846e-02 0. 0. 0. 0. 0. 0. 0. 0. 0. 0. 0. 0. 0. 0. 0. 0. 0.
      0. 0. 1.20481923e-02 0. 0. 0. 0. 0. 0. 0. 1.20481923e-02 0.
      1.20481923e-02 0. 0. 0. 0. 0. 0. 0. 0. 0. 0. 0. 0. 0. 0. 0.
      1.20481923e-02 0. 0. 0. 0. 0. 0. 0. 1.20481923e-02 0. 0. 0. 0.
      1.20481923e-02 1.20481923e-02 0. 0. 0. 0. 0. 0. 0. 0. 0. 0.
      2.40963846e-02 0. 0. 0. 1.20481923e-02 0. 0. 0. 1.20481923e-02 0.
      0. 0. 0. 0. 0. 0. 0. 0. 0. 0. 0. 0. 0. 0. 0. 0. 0. 0. 0. 0. 0. 0.
      0. 0. 1.20481923e-02 0. 0. 0. 0. 0. 0. 0. 0. 0. 0. 0. 0. 0. 0. 0.
      0. 0. 0. 0. 0. 0. 0. 0. 0. 0. 1.20481923e-02 0. 0. 0. 0. 0. 0. 0.
      0. 0. 2.40963846e-02 0. 0. 0. 0. 0. 0. 0. 0. 1.20481923e-02 0. 0.
      0. 0. 0. 0. 0. 0. 0. 0. 0. 1.20481923e-02 0. 0. 0. 0. 0. 0. 0. 0.
      0. 0. 0. 0. 0. 0. 0. 0. 0. 0. 0. 0. 0. 0. 0. 0. 0. 0. 0. 0. 0. 0.
      0. 0. 0. 0. 0. 0. 0. 0. 0. 0. 0. 0. 0. 0. 0. 0. 0. 0. 0. 0. 0.
      1.20481923e-02 0. 0. 0. 0. 0. 0. 0. 0. 0. 0. 0. 0. 0. 0. 0. 0. 0.
      1.20481923e-02 0. 0. 0. 0. 0. 0. 0. 0. 0. 0. 0. 0. 0. 0. 0. 0. 0.
      0. 0. 0. 0. 0. 0. 0. 0. 0. 0. 0. 0. 0. 0. 0. 0. 1.20481923e-02 0.
      0. 0. 0. 1.20481923e-02 0. 0. 0. 0. 0. 0. 0. 0. 0. 0. 0. 0. 0. 0.
      0. 0. 0. 0. 1.20481923e-02 0. 0. 0. 0. 0. 0. 0. 0. 0. 0. 0. 0. 0.
      0. 0. 0. 0. 0. 0. 0. 0. 0. 0. 0. 0. 0. 0. 0. 0. 0. 0. 0. 0. 0. 0.
      0. 0. 0. 0. 0. 0. 0. 0. 0. 0. 0. 0. 0. 0. 0. 1.20481923e-02 0. 0.
      0. 0. 0. 0. 0. 0. 0. 0. 0. 0. 0. 0. 0. 0. 0. 0. 0. 0. 0. 0. 0. 0.
      0. 0. 0. 0. 0. 1.20481923e-02 0. 0. 0. 0. 0. 0. 0. 0.
      1.20481923e-02 0. 0. 0. 0. 0. 0. 0. 0. 0. 0. 0. 0. 0. 0.
      1.20481923e-02 0. 0. 0. 0. 0. 0. 0. 0. 0. 0. 0. 0. 0. 0. 0. 0. 0.
      0. 0. 0. 0. 0. 0. 0. 0. 0. 0. 0. 0. 0. 0. 0. 0. 0. 0. 0. 0. 0. 0.
      0. 0. 0. 0. 0. 0. 0. 1.20481923e-02 0. 0. 0. 0. 0. 0. 0. 0. 0. 0.
      1.20481923e-02 0. 0. 0. 1.20481923e-02 1.20481923e-02 0. 0. 0.
      1.20481923e-02 0. 0. 0. 1.20481923e-02 0. 0. 0. 0. 0. 0. 0. 0. 0.
      0. 0. 0. 0. 0. 0. 0. 0. 0. 0. 0. 0. 0. 0. 0. 0. 0. 0. 0. 0. 0.
      1.20481923e-02 0. 0. 0. 0. 0. 0. 0. 0. 0. 0. 0. 0. 0. 0. 0. 0. 0.
      0. 0. 0. 0. 0. 0. 0. 1.20481923e-02 0. 1.20481923e-02 0. 0.
      1.20481923e-02 0. 0. 0. 0. 0. 0. 0. 0. 0. 0. 0. 1.20481923e-02 0.
      0. 0. 0. 0. 0. 0. 0. 0. 0. 0. 0. 0. 0. 0. 0. 0. 0. 0. 0.
      1.20481923e-02 0. 0. 0. 0. 0. 0. 0. 0. 0. 0. 1.20481923e-02 0. 0.
      0. 0. 0. 0. 0. 0. 0. 0. 0. 0. 0. 0. 0. 0. 0. 0. 0. 0. 0.
      1.20481923e-02 0. 0. 0. 0. 0. 0. 0. 0. 0. 1.20481923e-02
      3.61445770e-02 0. 0. 0. 0. 2.40963846e-02 0. 0. 0. 0. 0.
      1.20481923e-02 0. 0. 0. 0. 0. 0. 0. 0. 0. 0. 0. 0. 0. 0. 0. 0. 0.
      0. 0. 0. 0. 0. 0. 1.20481923e-02 0. 0. 0. 0. 0. 0. 0. 0. 0.
      1.20481923e-02 0. 0. 0. 0. 0. 0. 1.20481923e-02 0. 0. 0. 0. 0. 0.
      1.20481923e-02 0. 0. 0. 0. 0. 0. 0. 0. 0. 0. 1.20481923e-02
      1.20481923e-02 0. 0. 0. 0. 0. 0. 0. 0. 0. 0. 0. 0. 0. 0. 0. 0. 0.
      0. 0. 1.20481923e-02 0. 0. 0. 0. 0. 0. 0. 0. 0. 0. 0. 0. 0. 0. 0.
      0. 0. 0. 0. 0. 1.20481923e-02 0. 0. 0. 0. 0. 0. 0. 0. 0. 0. 0.
      1.20481923e-02 0. 0. 0. 0. 0. 0. 0. 0. 1.20481923e-02 0. 0.
      1.20481923e-02 0. 0. 0. 0. 0. 0. 0. 0. 0. 0. 0. 0. 0. 0. 0. 0. 0.
      1.20481923e-02 0. 0. 0. 0. 0. 0. 0. 0. 0. 1.20481923e-02 0. 0. 0.
      0. 0. 0. 0. 0. 0. 0. 0. 0. 0. 0. 0. 0. 0. 0. 0. 0. 0. 0. 0. 0. 0.
      0. 0. 0. 0. 0. 0. 0. 0. 0. 0. 1.20481923e-02 0. 0. 0. 0.
      1.20481923e-02 0. 0. 0. 0. 0. 1.20481923e-02 0. 0. 0. 0. 0. 0. 0.
      0. 0. 0. 0. 0. 0. 3.61445770e-02 0. 0. 0. 0. 0. 0. 0. 0.
      1.20481923e-02 0. 0. 0. 0. 2.40963846e-02 0. 0. 0. 0. 0. 0. 0. 0.
      0. 0. 0. 0. 0. 0. 0. 0. 0. 0. 0. 0. 0. 0. 1.20481923e-02
      1.20481923e-02 0. 0. 0. 0. 0. 0. 0. 0. 0. 0. 0. 0. 0. 0. 0. 0. 0.
      0. 1.20481923e-02 0. 0. 1.20481923e-02 0. 0. 0. 0. 0. 0. 0. 0. 0.
      0. 0. 0. 0. 0. 0. 0. 0. 0. 0. 0. 1.20481923e-02 0. 0. 0. 0. 0. 0.
      0. 0. 0. 0. 0. 0. 0. 0. 0. 0. 0. 0. 0. 0. 0. 0. 0. 0. 0. 0. 0. 0.
      0. 0. 1.20481923e-02 0. 0. 0. 0. 0. 0. 0. 0. 0. 0. 0. 0. 0.
      1.20481923e-02 0. 0. 3.61445770e-02 1.20481923e-02 0. 0. 0. 0. 0.
      0. 0. 0. 0. 0. 0. 0. 0. 0. 0. 0. 0. 0. 0. 0. 0. 1.20481923e-02 0.
      0. 0. 0. 0. 0. 0. 0. 0. 0. 0. 0. 0. 0. 0. 0. 0. 0.</_>
    <_>
      1.14942528e-02 0. 0. 0. 0. 0. 0. 1.14942528e-02 0. 0.
      1.14942528e-02 0. 0. 0. 0. 0. 0. 0. 0. 0. 0. 0. 0. 0. 0. 0. 0. 0.
      0. 0. 0. 0. 0. 0. 0. 0. 0. 0. 0. 0. 0. 1.14942528e-02 0. 0. 0. 0.
      1.14942528e-02 0. 0. 0. 0. 0. 0. 0. 1.14942528e-02 0. 0. 0. 0. 0.
      1.14942528e-02 0. 0. 0. 0. 0. 0. 2.29885057e-02 0. 0. 0.
      2.29885057e-02 0. 0. 0. 1.14942528e-02 0. 0. 0. 0. 0. 0. 0.
      1.14942528e-02 0. 0. 0. 0. 0. 0. 0. 0. 0. 0. 0. 0. 0. 0. 0. 0. 0.
      0. 0. 0. 0. 1.14942528e-02 0. 0. 0. 0. 0. 0. 0. 0. 0. 0. 0. 0. 0.
      0. 0. 0. 0. 0. 0. 0. 0. 0. 0. 0. 0. 0. 0. 0. 0. 0. 0. 0. 0. 0. 0.
      0. 0. 0. 0. 0. 0. 0. 0. 0. 0. 0. 0. 1.14942528e-02 0. 0. 0. 0. 0.
      0. 0. 1.14942528e-02 1.14942528e-02 0. 0. 0. 0. 0. 0. 0. 0. 0. 0.
      0. 0. 0. 1.14942528e-02 0. 0. 0. 4.59770113e-02 0. 0. 0. 0. 0. 0.
      0. 0. 0. 0. 0. 0. 0. 0. 0. 0. 0. 0. 0. 0. 0. 0. 0. 0. 0. 0. 0. 0.
      0. 0. 2.29885057e-02 0. 0. 1.14942528e-02 0. 0. 0. 0. 0. 0. 0. 0.
      0. 0. 0. 0. 0. 0. 0. 0. 0. 1.14942528e-02 0. 0. 0. 0. 0. 0. 0. 0.
      1.14942528e-02 0. 0. 0. 0. 0. 0. 0. 0. 0. 0. 0. 0. 0. 0. 0. 0. 0.
      0. 0. 0. 0. 0. 0. 0. 0. 0. 0. 0. 0. 1.14942528e-02 0. 0. 0. 0. 0.
      1.14942528e-02 0. 0. 0. 0. 0. 0. 0. 0. 0. 0. 0. 0. 0.
      1.14942528e-02 0. 0. 0. 0. 0. 0. 0. 0. 0. 0. 0. 0. 0. 0. 0. 0. 0.
      0. 0. 0. 0. 1.14942528e-02 0. 0. 0. 0. 0. 0. 0. 0. 0.
      2.29885057e-02 0. 0. 0. 0. 0. 0. 0. 0. 0. 0. 0. 0. 0. 0. 0. 0. 0.
      0. 0. 0. 0. 0. 0. 0. 0. 0. 0. 0. 0. 0. 0. 0. 0. 1.14942528e-02 0.
      0. 0. 0. 0. 0. 0. 0. 0. 0. 0. 0. 0. 0. 0. 0. 0. 0. 0. 0. 0. 0.
      1.14942528e-02 0. 0. 0. 0. 0. 0. 0. 0. 0. 0. 0. 0. 0. 0.
      1.14942528e-02 0. 0. 0. 0. 0. 1.14942528e-02 0. 0. 0. 0. 0. 0.
      1.14942528e-02 0. 0. 0. 0. 0. 0. 0. 0. 0. 0. 0. 0. 0. 0. 0. 0. 0.
      0. 0. 0. 0. 1.14942528e-02 0. 0. 0. 0. 0. 0. 0. 0. 0. 0. 0. 0. 0.
      0. 0. 0. 0. 0. 0. 0. 0. 0. 1.14942528e-02 0. 0. 0. 1.14942528e-02
      2.29885057e-02 0. 0. 0. 0. 0. 0. 0. 1.14942528e-02 0. 0. 0. 0. 0.
      0. 0. 0. 0. 0. 0. 0. 0. 0. 0. 0. 0. 0. 0. 0. 0. 0. 0. 0. 0. 0. 0.
      0. 0. 0. 0. 0. 0. 0. 0. 0. 0. 0. 0. 0. 0. 0. 0. 0. 0.
      1.14942528e-02 0. 0. 0. 0. 0. 0. 0. 0. 0. 0. 0. 0. 0. 0. 0. 0. 0.
      0. 0. 0. 0. 0. 0. 0. 0. 0. 1.14942528e-02 0. 0. 0. 0. 0.
      2.29885057e-02 0. 0. 0. 0. 0. 0. 0. 0. 0. 0. 0. 0. 0. 0.
      1.14942528e-02 0. 0. 0. 0. 0. 0. 0. 0. 0. 0. 0. 0. 0. 0. 0. 0. 0.
      0. 0. 0. 0. 0. 0. 0. 0. 0. 0. 0. 0. 0. 0. 0. 0. 0. 0. 0. 0. 0. 0.
      0. 0. 0. 2.29885057e-02 0. 0. 0. 0. 0. 1.14942528e-02 0. 0. 0. 0.
      0. 0. 0. 0. 0. 0. 0. 0. 0. 0. 0. 0. 0. 0. 0. 0. 0. 0. 0. 0. 0. 0.
      0. 0. 0. 0. 0. 0. 0. 0. 0. 0. 0. 0. 0. 1.14942528e-02 0. 0. 0. 0.
      0. 0. 1.14942528e-02 0. 0. 0. 0. 0. 0. 1.14942528e-02 0. 0. 0. 0.
      0. 0. 0. 0. 0. 0. 1.14942528e-02 2.29885057e-02 0. 0. 0. 0. 0. 0.
      0. 0. 0. 0. 0. 0. 0. 0. 0. 0. 0. 0. 0. 0. 0. 0. 0. 0. 0. 0. 0. 0.
      0. 0. 0. 0. 0. 0. 0. 0. 0. 0. 0. 0. 0. 0. 0. 0. 0. 0. 0. 0. 0. 0.
      0. 0. 1.14942528e-02 0. 0. 0. 0. 0. 1.14942528e-02 0. 0.
      3.44827585e-02 0. 0. 0. 0. 0. 0. 0. 0. 0. 0. 0. 1.14942528e-02 0.
      0. 0. 0. 0. 0. 0. 0. 0. 0. 0. 1.14942528e-02 0. 0. 0. 0. 0. 0.
      1.14942528e-02 0. 0. 0. 0. 0. 0. 0. 0. 0. 0. 0. 0. 0. 0. 0. 0. 0.
      1.14942528e-02 0. 0. 0. 0. 0. 0. 0. 0. 0. 0. 0. 0. 0. 0. 0. 0. 0.
      0. 0. 0. 0. 0. 2.29885057e-02 0. 0. 0. 0. 1.14942528e-02
      1.14942528e-02 0. 0. 0. 0. 0. 0. 0. 1.14942528e-02 0. 0. 0. 0. 0.
      0. 0. 0. 0. 0. 0. 0. 0. 0. 0. 0. 0. 0. 0. 0. 0. 0. 0. 0.
      1.14942528e-02 0. 0. 0. 0. 0. 0. 0. 0. 0. 0. 0. 0. 0. 0. 0. 0. 0.
      0. 1.14942528e-02 0. 0. 0. 1.14942528e-02 0. 0. 0. 0. 0. 0. 0. 0.
      0. 0. 1.14942528e-02 1.14942528e-02 0. 0. 0. 0. 0. 0. 0. 0. 0. 0.
      0. 0. 0. 0. 0. 0. 1.14942528e-02 0. 0. 0. 0. 0. 0. 0. 0. 0.
      1.14942528e-02 0. 0. 0. 0. 0. 0. 0. 0. 0. 0. 0. 0. 0. 0. 0. 0. 0.
      0. 0. 0. 0. 1.14942528e-02 0. 0. 0. 0. 0. 0. 0. 0. 2.29885057e-02
      0. 0. 0. 0. 0. 0. 0. 0. 0. 0. 0. 0. 0. 1.14942528e-02 0. 0.
      2.29885057e-02 0. 0. 0. 0. 0. 0. 0. 1.14942528e-02 0. 0. 0. 0. 0.
      0. 0. 0. 0. 0. 0. 0. 0. 0. 0. 0. 0. 0. 0. 0. 0. 1.14942528e-02 0.
      0. 0. 0. 0. 0. 0. 0. 0. 0. 0.</_>
    <_>
      1.21951215e-02 0. 0. 0. 0. 0. 0. 0. 0. 0. 1.21951215e-02 0. 0. 0.
      0. 0. 0. 0. 0. 0. 0. 0. 0. 0. 0. 0. 0. 0. 1.21951215e-02 0. 0. 0.
      0. 0. 0. 0. 0. 0. 0. 0. 0. 1.21951215e-02 0. 0. 1.21951215e-02 0.
      0. 0. 0. 0. 0. 0. 0. 0. 1.21951215e-02 0. 0. 0. 0. 1.21951215e-02
      0. 0. 0. 0. 0. 0. 0. 0. 0. 0. 0. 2.43902430e-02 0. 0. 0.
      1.21951215e-02 0. 0. 0. 0. 0. 0. 0. 1.21951215e-02 0. 0. 0. 0. 0.
      0. 0. 0. 1.21951215e-02 0. 0. 0. 0. 0. 0. 0. 0. 0. 0. 0. 0.
      3.65853645e-02 0. 0. 0. 0. 0. 0. 0. 0. 0. 0. 0. 0. 0. 0. 0. 0. 0.
      0. 0. 0. 0. 0. 0. 0. 0. 0. 0. 0. 0. 0. 0. 0. 0. 0. 0. 0. 0. 0. 0.
      0. 0. 0. 0. 0. 1.21951215e-02 0. 0. 0. 0. 0. 0. 0. 0. 0. 0. 0.
      1.21951215e-02 0. 0. 0. 0. 0. 0. 0. 0. 1.21951215e-02 0. 0. 0. 0.
      0. 0. 0. 0. 4.87804860e-02 0. 0. 0. 0. 0. 0. 0. 0. 0. 0. 0. 0. 0.
      0. 0. 0. 0. 0. 0. 0. 1.21951215e-02 0. 0. 0. 0. 0. 0. 0. 0. 0.
      1.21951215e-02 0. 0. 1.21951215e-02 0. 0. 0. 0. 0. 0. 0. 0. 0. 0.
      0. 0. 0. 0. 0. 0. 0. 1.21951215e-02 0. 0. 0. 0. 0. 0. 0. 0.
      1.21951215e-02 0. 0. 0. 0. 0. 0. 0. 0. 0. 0. 0. 0. 0. 0. 0. 0. 0.
      0. 0. 0. 0. 0. 0. 0. 0. 0. 0. 0. 0. 1.21951215e-02 0. 0. 0. 0. 0.
      0. 0. 0. 0. 0. 0. 1.21951215e-02 0. 0. 0. 0. 0. 0. 0.
      1.21951215e-02 0. 0. 0. 1.21951215e-02 0. 0. 0. 0. 0. 0. 0. 0. 0.
      0. 0. 0. 0. 0. 0. 0. 0. 0. 0. 0. 0. 0. 0. 0. 0. 0. 1.21951215e-02
      2.43902430e-02 0. 0. 0. 0. 0. 0. 0. 0. 0. 0. 0. 0. 0. 0. 0. 0. 0.
      0. 0. 0. 0. 0. 0. 0. 0. 0. 0. 0. 0. 0. 0. 0. 0. 1.21951215e-02 0.
      0. 0. 0. 0. 0. 0. 0. 0. 0. 0. 0. 0. 0. 0. 0. 0. 0. 0. 0. 0. 0.
      1.21951215e-02 0. 0. 0. 0. 0. 0. 0. 0. 0. 0. 0. 0. 0. 0.
      1.21951215e-02 1.21951215e-02 0. 0. 0. 0. 0. 0. 0. 0. 0. 0. 0. 0.
      0. 0. 0. 0. 0. 0. 0. 0. 0. 0. 0. 0. 0. 0. 0. 0. 0. 0. 0. 0. 0. 0.
      0. 0. 0. 0. 0. 0. 0. 0. 0. 0. 0. 1.21951215e-02 0. 0. 0. 0. 0. 0.
      0. 0. 0. 0. 1.21951215e-02 0. 0. 0. 0. 2.43902430e-02 0. 0. 0. 0.
      0. 0. 0. 1.21951215e-02 0. 0. 0. 0. 0. 0. 0. 0. 0. 0. 0. 0. 0. 0.
      0. 0. 0. 0. 0. 0. 0. 0. 0. 0. 0. 0. 0. 0. 0. 0. 0. 0. 0. 0. 0. 0.
      0. 0. 0. 0. 0. 0. 0. 0. 0. 1.21951215e-02 0. 0. 0. 0. 0. 0. 0. 0.
      0. 0. 0. 0. 0. 0. 0. 0. 0. 0. 0. 0. 0. 0. 0. 1.21951215e-02 0. 0.
      1.21951215e-02 0. 0. 0. 0. 0. 2.43902430e-02 0. 0. 0. 0. 0. 0. 0.
      0. 0. 0. 0. 0. 0. 0. 0. 0. 0. 0. 0. 0. 0. 0. 0. 0. 0.
      1.21951215e-02 0. 0. 0. 0. 0. 0. 0. 0. 0. 0. 0. 0. 0. 0. 0. 0. 0.
      0. 0. 0. 0. 0. 0. 0. 0. 0. 0. 0. 0. 0. 0. 2.43902430e-02
      1.21951215e-02 0. 0. 0. 0. 1.21951215e-02 0. 0. 0. 0. 0. 0. 0. 0.
      0. 0. 0. 0. 0. 0. 0. 0. 0. 0. 0. 0. 0. 0. 0. 0. 0. 0. 0. 0. 0. 0.
      0. 0. 0. 0. 0. 0. 0. 0. 0. 0. 0. 0. 0. 0. 0. 0. 0. 0. 0. 0. 0. 0.
      0. 1.21951215e-02 0. 0. 0. 0. 0. 0. 0. 0. 0. 0. 1.21951215e-02
      2.43902430e-02 0. 0. 0. 0. 0. 0. 1.21951215e-02 0. 0. 0. 0. 0. 0.
      0. 0. 0. 0. 0. 0. 0. 0. 0. 0. 0. 0. 0. 1.21951215e-02 0. 0. 0. 0.
      0. 0. 0. 0. 0. 0. 0. 0. 0. 0. 0. 0. 0. 0. 0. 0. 0. 0. 0. 0. 0. 0.
      0. 0. 0. 0. 0. 0. 0. 0. 3.65853645e-02 0. 0. 0. 0. 0. 0. 0. 0. 0.
      0. 0. 1.21951215e-02 0. 0. 0. 0. 0. 0. 0. 0. 0. 0. 0.
      1.21951215e-02 0. 0. 0. 0. 0. 0. 1.21951215e-02 0. 0. 0. 0. 0. 0.
      0. 0. 0. 0. 0. 0. 0. 0. 0. 0. 0. 0. 0. 0. 0. 0. 0. 0. 0. 0. 0. 0.
      0. 0. 0. 0. 0. 0. 0. 0. 0. 0. 0. 0. 2.43902430e-02 0. 0. 0. 0.
      1.21951215e-02 0. 0. 0. 0. 0. 0. 0. 0. 0. 0. 0. 0. 0. 0. 0. 0. 0.
      0. 0. 0. 0. 0. 0. 0. 0. 0. 0. 0. 0. 0. 0. 0. 0. 1.21951215e-02 0.
      0. 0. 0. 0. 0. 0. 0. 0. 0. 0. 0. 0. 0. 0. 0. 0. 0. 1.21951215e-02
      0. 0. 0. 0. 0. 0. 0. 0. 0. 0. 0. 0. 0. 0. 0. 2.43902430e-02 0. 0.
      0. 0. 0. 0. 0. 0. 0. 0. 0. 1.21951215e-02 0. 0. 0. 0. 0. 0. 0. 0.
      0. 0. 0. 0. 0. 0. 1.21951215e-02 0. 0. 0. 0. 0. 0. 0. 0. 0. 0. 0.
      0. 0. 0. 0. 0. 0. 0. 0. 0. 0. 0. 0. 0. 0. 0. 0. 0. 0. 0.
      2.43902430e-02 0. 0. 0. 0. 0. 0. 0. 0. 0. 0. 0. 0. 0.
      1.21951215e-02 0. 0. 2.43902430e-02 0. 0. 0. 0. 0. 0. 0.
      1.21951215e-02 0. 0. 0. 0. 0. 0. 0. 0. 0. 0. 0. 0. 0. 0. 0. 0. 0.
      0. 1.21951215e-02 0. 0. 1.21951215e-02 0. 0. 0. 0. 0. 0. 0. 0. 0.
      0. 0.</_>
    <_>
      2.66666673e-02 0. 0. 0. 0. 0. 0. 0. 0. 0. 0. 0. 0. 0.
      1.33333337e-02 0. 0. 0. 0. 0. 0. 0. 0. 0. 0. 0. 0. 0. 0. 0. 0. 0.
      0. 0. 0. 0. 0. 0. 0. 0. 1.33333337e-02 1.33333337e-02 0. 0. 0. 0.
      0. 0. 0. 0. 0. 0. 1.33333337e-02 0. 0. 0. 0. 0. 0. 0. 0. 0. 0. 0.
      0. 0. 0. 0. 0. 1.33333337e-02 0. 2.66666673e-02 0. 0. 0.
      1.33333337e-02 0. 0. 0. 0. 0. 0. 0. 0. 0. 0. 0. 0. 1.33333337e-02
      0. 0. 0. 0. 0. 0. 0. 0. 0. 0. 0. 0. 0. 0. 0. 0. 0. 0. 0. 0. 0. 0.
      0. 0. 0. 0. 0. 0. 0. 0. 0. 0. 0. 0. 0. 0. 0. 0. 0. 0. 0. 0. 0. 0.
      0. 0. 0. 0. 0. 0. 0. 0. 1.33333337e-02 0. 0. 0. 0. 0. 0.
      1.33333337e-02 0. 0. 0. 0. 0. 0. 0. 0. 0. 0. 0. 0. 1.33333337e-02
      0. 0. 0. 0. 0. 0. 0. 0. 0. 0. 0. 0. 0. 0. 0. 0. 0. 0.
      1.33333337e-02 0. 0. 0. 0. 0. 0. 0. 0. 0. 0. 0. 0. 0. 0. 0. 0. 0.
      0. 0. 0. 0. 0. 0. 0. 0. 0. 0. 0. 0. 2.66666673e-02 0. 0. 0.
      1.33333337e-02 0. 1.33333337e-02 0. 0. 0. 0. 0. 0. 0. 0. 0. 0. 0.
      0. 0. 0. 0. 1.33333337e-02 0. 0. 0. 0. 0. 0. 0. 0. 0.
      1.33333337e-02 0. 2.66666673e-02 0. 0. 0. 0. 0. 0. 0. 0. 0. 0. 0.
      0. 0. 0. 0. 0. 0. 0. 0. 0. 0. 0. 0. 0. 0. 0. 1.33333337e-02 0. 0.
      2.66666673e-02 0. 0. 0. 0. 0. 0. 0. 0. 0. 0. 0. 0. 0. 0. 0. 0. 0.
      0. 0. 0. 0. 0. 0. 0. 0. 0. 0. 0. 0. 0. 0. 0. 0. 0. 0. 0. 0. 0. 0.
      0. 0. 0. 0. 0. 0. 0. 0. 0. 1.33333337e-02 0. 0. 0. 0. 0. 0. 0. 0.
      0. 0. 0. 0. 0. 0. 0. 0. 0. 1.33333337e-02 0. 0. 0. 0. 0.
      1.33333337e-02 0. 1.33333337e-02 0. 0. 0. 0. 0. 0. 0. 0.
      1.33333337e-02 0. 0. 0. 0. 0. 0. 0. 0. 0. 0. 0. 0. 0. 0. 0. 0. 0.
      0. 0. 0. 0. 1.33333337e-02 0. 0. 0. 0. 0. 0. 0. 0. 0. 0. 0. 0. 0.
      0. 0. 0. 0. 0. 0. 0. 0. 0. 0. 0. 0. 0. 0. 0. 0. 0. 0. 0. 0. 0. 0.
      0. 0. 0. 0. 0. 0. 0. 0. 0. 0. 0. 1.33333337e-02 0. 0.
      1.33333337e-02 0. 0. 0. 0. 0. 0. 0. 0. 0. 0. 0. 0. 0. 0. 0. 0. 0.
      0. 0. 0. 0. 0. 1.33333337e-02 0. 0. 0. 0. 9.33333337e-02 0. 0. 0.
      0. 0. 0. 0. 1.33333337e-02 0. 0. 0. 0. 0. 0. 0. 0. 0. 0. 0. 0. 0.
      0. 0. 0. 0. 0. 0. 0. 0. 0. 0. 0. 0. 0. 0. 0. 0. 0. 0. 0. 0. 0. 0.
      0. 0. 0. 0. 0. 0. 0. 0. 0. 0. 0. 0. 0. 0. 0. 0. 0. 0. 0. 0. 0. 0.
      0. 0. 0. 0. 0. 0. 0. 0. 1.33333337e-02 0. 0. 0. 0. 0. 0.
      1.33333337e-02 0. 0. 0. 0. 0. 0. 0. 0. 0. 0. 0. 0. 0.
      2.66666673e-02 0. 0. 0. 0. 0. 0. 0. 0. 0. 0. 0. 0. 0. 0. 0. 0. 0.
      0. 0. 0. 0. 0. 0. 0. 0. 0. 0. 0. 0. 0. 0. 0. 0. 0. 0.
      1.33333337e-02 0. 0. 0. 0. 0. 0. 0. 1.33333337e-02 0. 0. 0. 0. 0.
      1.33333337e-02 0. 0. 0. 0. 0. 0. 0. 0. 0. 0. 0. 0. 0. 0. 0. 0. 0.
      0. 0. 0. 0. 0. 0. 1.33333337e-02 0. 0. 0. 0. 0. 0. 1.33333337e-02
      0. 0. 0. 0. 1.33333337e-02 0. 0. 0. 0. 0. 0. 0. 0. 0. 0. 0. 0. 0.
      0. 0. 0. 0. 0. 0. 1.33333337e-02 0. 0. 0. 0. 0. 0. 1.33333337e-02
      0. 0. 0. 0. 0. 0. 0. 0. 0. 0. 0. 0. 0. 0. 0. 0. 0. 0. 0.
      1.33333337e-02 0. 0. 0. 0. 0. 0. 0. 0. 0. 0. 0. 0. 0. 0. 0. 0. 0.
      0. 0. 0. 0. 0. 0. 0. 0. 0. 0. 0. 0. 0. 0. 0. 0. 0. 0. 0. 0. 0. 0.
      0. 0. 0. 0. 0. 1.33333337e-02 0. 1.33333337e-02 0. 0. 0. 0.
      1.33333337e-02 0. 0. 0. 0. 0. 0. 0. 0. 0. 0. 0. 0. 0. 0. 0. 0. 0.
      0. 0. 0. 0. 0. 0. 0. 0. 0. 0. 0. 0. 0. 0. 0. 0. 0. 0. 0. 0. 0. 0.
      0. 0. 0. 0. 0. 0. 0. 0. 0. 0. 0. 0. 0. 0. 0. 0. 0. 1.33333337e-02
      0. 0. 0. 0. 0. 0. 0. 0. 0. 0. 0. 0. 0. 0. 0. 0. 0. 0. 0. 0. 0. 0.
      0. 0. 0. 0. 0. 0. 0. 1.33333337e-02 0. 0. 0. 0. 0. 0. 0. 0. 0. 0.
      0. 0. 0. 0. 1.33333337e-02 0. 0. 1.33333337e-02 0. 0. 0. 0. 0. 0.
      0. 0. 0. 0. 0. 0. 0. 0. 0. 0. 0. 0. 0. 0. 0. 1.33333337e-02 0. 0.
      1.33333337e-02 1.33333337e-02 0. 0. 0. 0. 0. 0. 0. 0. 0. 0.
      1.33333337e-02 0. 0. 0. 0. 0. 0. 0. 0. 0. 0. 0. 0. 0. 0. 0. 0. 0.
      0. 0. 1.33333337e-02 0. 0. 0. 0. 0. 0. 0. 0. 1.33333337e-02 0. 0.
      0. 0. 0. 0. 0. 0. 0. 0. 0. 0. 0. 1.33333337e-02 0. 0. 0. 0. 0. 0.
      2.66666673e-02 0. 0. 0. 0. 0. 0. 0. 0. 0. 0. 0. 0. 0. 0. 0. 0. 0.
      0. 0. 0. 0. 0. 2.66666673e-02 0. 0. 0. 0. 0. 0. 0. 0. 0. 0. 0. 0.
      0. 0. 0. 0. 0. 0. 0. 0. 0. 0. 0. 0. 0. 0. 0. 0. 0. 0. 0. 0. 0.
      1.33333337e-02 0. 0. 0. 0. 0. 0. 0. 0. 0. 0. 0. 0.</_>
    <_>
      1.38888890e-02 0. 0. 0. 1.38888890e-02 0. 0. 0. 0. 0. 0. 0. 0. 0.
      0. 0. 0. 0. 0. 0. 0. 0. 0. 0. 0. 0. 0. 0. 0. 0. 0. 0. 0. 0. 0. 0.
      0. 0. 0. 0. 1.38888890e-02 0. 0. 0. 0. 1.38888890e-02 0. 0. 0. 0.
      0. 0. 0. 0. 0. 0. 0. 0. 0. 0. 0. 0. 0. 0. 0. 0. 0. 0. 0.
      1.38888890e-02 0. 1.38888890e-02 0. 0. 0. 1.38888890e-02 0. 0. 0.
      0. 0. 0. 0. 0. 0. 0. 0. 0. 1.38888890e-02 0. 0. 0. 0. 0. 0. 0. 0.
      0. 0. 0. 0. 0. 1.38888890e-02 0. 0. 0. 0. 0. 0. 0. 0. 0. 0. 0. 0.
      0. 0. 0. 0. 0. 0. 0. 0. 0. 0. 0. 0. 0. 0. 0. 0. 0. 0. 0. 0. 0. 0.
      0. 0. 0. 0. 1.38888890e-02 0. 0. 0. 0. 0. 0. 0. 0. 0. 0. 0. 0. 0.
      0. 0. 0. 0. 0. 0. 0. 1.38888890e-02 0. 0. 0. 0. 0. 0. 0. 0. 0. 0.
      0. 0. 0. 0. 0. 0. 0. 1.38888890e-02 0. 0. 0. 0. 0. 0. 0. 0. 0. 0.
      0. 0. 0. 0. 0. 0. 0. 0. 0. 0. 0. 0. 0. 0. 0. 0. 0. 0. 0.
      2.77777780e-02 0. 0. 0. 1.38888890e-02 0. 0. 0. 0. 0. 0. 0. 0. 0.
      0. 0. 0. 0. 0. 0. 0. 0. 1.38888890e-02 0. 0. 0. 0. 0. 0. 0. 0. 0.
      1.38888890e-02 0. 2.77777780e-02 0. 0. 0. 0. 0. 0. 0. 0. 0. 0. 0.
      0. 0. 0. 0. 0. 0. 0. 0. 0. 0. 0. 0. 0. 0. 0. 1.38888890e-02 0. 0.
      2.77777780e-02 0. 0. 1.38888890e-02 0. 0. 0. 0. 0. 0. 0. 0. 0. 0.
      0. 0. 0. 0. 0. 0. 0. 0. 0. 0. 0. 0. 0. 0. 0. 0. 0. 0. 0. 0. 0. 0.
      0. 0. 0. 0. 0. 0. 0. 0. 0. 0. 0. 0. 0. 1.38888890e-02 0. 0. 0. 0.
      0. 0. 0. 0. 0. 0. 0. 0. 0. 1.38888890e-02 0. 0. 0. 1.38888890e-02
      0. 0. 0. 0. 0. 1.38888890e-02 0. 0. 0. 0. 0. 0. 0. 0. 0. 0.
      1.38888890e-02 0. 0. 0. 0. 0. 0. 0. 0. 1.38888890e-02 0. 0. 0. 0.
      0. 0. 0. 0. 0. 0. 0. 0. 1.38888890e-02 0. 0. 0. 0. 0. 0. 0.
      1.38888890e-02 0. 0. 0. 0. 0. 0. 0. 0. 0. 0. 0. 0. 0. 0. 0. 0. 0.
      0. 0. 0. 0. 0. 0. 0. 0. 0. 0. 0. 0. 0. 0. 0. 0. 0. 0. 0. 0. 0.
      1.38888890e-02 0. 0. 0. 0. 0. 0. 0. 0. 0. 0. 0. 0. 0.
      2.77777780e-02 0. 0. 0. 0. 0. 0. 0. 0. 0. 0. 0. 1.38888890e-02 0.
      0. 0. 0. 8.33333358e-02 0. 0. 0. 0. 0. 0. 0. 1.38888890e-02 0. 0.
      0. 0. 0. 0. 0. 0. 1.38888890e-02 0. 0. 0. 0. 0. 1.38888890e-02 0.
      0. 0. 0. 0. 0. 0. 0. 0. 0. 0. 0. 0. 0. 0. 1.38888890e-02 0. 0. 0.
      0. 0. 0. 0. 0. 0. 0. 0. 0. 0. 0. 0. 0. 0. 0. 0. 0. 0. 0. 0. 0. 0.
      0. 0. 0. 0. 0. 0. 0. 0. 0. 1.38888890e-02 0. 0. 0. 0. 0. 0. 0. 0.
      0. 0. 0. 0. 0. 0. 0. 0. 0. 0. 0. 0. 1.38888890e-02 0. 0. 0. 0. 0.
      0. 0. 0. 0. 0. 0. 0. 0. 0. 0. 0. 0. 0. 0. 0. 0. 0. 0. 0. 0. 0. 0.
      0. 0. 0. 0. 0. 0. 0. 0. 0. 0. 0. 0. 0. 0. 0. 0. 1.38888890e-02 0.
      0. 0. 0. 0. 1.38888890e-02 0. 0. 0. 0. 0. 0. 0. 0. 0. 0. 0. 0. 0.
      0. 0. 0. 0. 0. 0. 0. 0. 0. 0. 1.38888890e-02 0. 0. 0. 0. 0. 0.
      1.38888890e-02 0. 0. 0. 0. 1.38888890e-02 0. 0. 0. 0. 0. 0. 0. 0.
      0. 0. 0. 0. 0. 0. 0. 0. 0. 0. 0. 2.77777780e-02 0. 0. 0. 0. 0. 0.
      1.38888890e-02 0. 0. 0. 0. 0. 0. 0. 0. 0. 0. 0. 0. 0. 0. 0. 0. 0.
      0. 0. 0. 0. 0. 0. 0. 0. 0. 0. 1.38888890e-02 0. 0. 0. 0. 0. 0. 0.
      0. 0. 0. 0. 0. 0. 0. 0. 0. 0. 0. 0. 0. 0. 0. 0. 0. 0. 0. 0. 0. 0.
      0. 0. 0. 0. 0. 0. 0. 0. 0. 0. 0. 0. 0. 0. 0. 0. 0. 0. 0. 0. 0. 0.
      0. 0. 0. 0. 0. 0. 0. 0. 0. 0. 0. 0. 0. 0. 0. 0. 0. 0. 0. 0. 0. 0.
      0. 0. 0. 1.38888890e-02 0. 0. 0. 0. 0. 0. 0. 0. 0. 0. 0. 0. 0. 0.
      0. 1.38888890e-02 0. 0. 0. 0. 0. 0. 1.38888890e-02 1.38888890e-02
      0. 0. 0. 0. 0. 0. 0. 0. 0. 0. 0. 0. 0. 0. 0. 0. 0. 0. 0. 0. 0. 0.
      0. 0. 0. 0. 0. 0. 0. 1.38888890e-02 0. 0. 0. 0. 0. 0. 0. 0. 0. 0.
      1.38888890e-02 0. 0. 0. 0. 0. 0. 0. 0. 0. 0. 0. 0. 0. 0. 0. 0. 0.
      0. 0. 0. 0. 0. 0. 0. 0. 0. 0. 0. 1.38888890e-02 0. 0. 0.
      1.38888890e-02 0. 0. 0. 0. 0. 0. 0. 0. 0. 0. 1.38888890e-02 0. 0.
      0. 0. 0. 0. 0. 0. 0. 0. 0. 0. 0. 0. 0. 0. 0. 0. 0. 0. 0. 0. 0. 0.
      0. 0. 0. 0. 1.38888890e-02 0. 0. 0. 0. 0. 0. 0. 0. 0. 0. 0. 0. 0.
      1.38888890e-02 0. 0. 0. 0. 0. 0. 4.16666679e-02 0. 0. 0. 0. 0. 0.
      0. 0. 0. 0. 0. 0. 0. 0. 0. 0. 0. 0. 0. 0. 0. 0. 1.38888890e-02 0.
      0. 0. 0. 0. 0. 0. 0. 0. 0. 0. 0. 0. 0. 0. 0. 0. 0. 0. 0. 0. 0. 0.
      0. 0. 0. 0. 0. 0. 0. 0. 0. 0. 1.38888890e-02 0. 0. 0. 0. 0. 0. 0.
      0. 0. 0. 0. 0.</_>
    <_>
      0. 0. 0. 0. 0. 0. 0. 0. 0. 0. 0. 0. 0. 0. 0. 0. 0. 0. 0. 0. 0. 0.
      0. 0. 0. 0. 0. 0. 0. 0. 0. 0. 0. 0. 0. 0. 0. 0. 0. 0. 0. 0. 0. 0.
      0. 0. 0. 0. 0. 0. 0. 0. 0. 0. 0. 0. 0. 0. 0. 0. 0. 0. 0. 0.
      6.25000000e-02 0. 0. 0. 0. 0. 0. 6.25000000e-02 0. 0. 0.
      6.25000000e-02 0. 0. 0. 0. 0. 0. 0. 0. 0. 0. 0. 0. 0. 0. 0. 0. 0.
      0. 0. 0. 0. 0. 0. 0. 0. 0. 0. 0. 0. 0. 0. 0. 0. 0. 0. 0. 0. 0. 0.
      0. 0. 0. 0. 0. 0. 0. 0. 0. 0. 0. 0. 0. 0. 0. 0. 0. 0. 0. 0. 0. 0.
      0. 0. 0. 0. 0. 0. 0. 0. 0. 0. 0. 0. 0. 0. 0. 0. 0. 0. 0. 0. 0. 0.
      0. 0. 1.25000000e-01 6.25000000e-02 0. 0. 0. 0. 0. 0. 0. 0. 0. 0.
      0. 0. 0. 0. 0. 0. 0. 0. 0. 0. 0. 0. 0. 0. 0. 0. 0. 0. 0. 0. 0. 0.
      0. 0. 0. 0. 0. 0. 0. 0. 0. 0. 0. 0. 0. 0. 0. 0. 0. 0. 0.
      6.25000000e-02 0. 0. 0. 0. 0. 0. 0. 0. 0. 0. 0. 0. 0. 0. 0. 0. 0.
      0. 0. 0. 0. 0. 0. 0. 0. 0. 0. 0. 0. 0. 0. 0. 0. 0. 0. 0. 0. 0. 0.
      0. 0. 0. 0. 0. 0. 0. 0. 0. 0. 0. 0. 0. 0. 0. 0. 0. 6.25000000e-02
      0. 0. 0. 0. 0. 1.25000000e-01 0. 0. 0. 0. 0. 0. 0. 0. 0. 0. 0. 0.
      0. 0. 0. 0. 0. 0. 0. 0. 0. 0. 0. 0. 0. 0. 0. 0. 0. 0. 0. 0. 0. 0.
      0. 0. 0. 0. 0. 0. 0. 0. 0. 0. 0. 0. 0. 0. 0. 0. 0. 0. 0. 0. 0. 0.
      0. 0. 0. 0. 0. 0. 0. 6.25000000e-02 0. 0. 0. 0. 0. 0. 0.
      6.25000000e-02 0. 0. 0. 0. 0. 0. 0. 0. 0. 0. 0. 0. 0. 0. 0. 0. 0.
      0. 0. 0. 0. 0. 0. 0. 0. 0. 0. 0. 0. 0. 6.25000000e-02 0. 0. 0. 0.
      0. 0. 0. 0. 0. 0. 0. 0. 0. 0. 0. 0. 0. 0. 0. 0. 0. 0. 0. 0. 0. 0.
      0. 0. 0. 0. 0. 0. 0. 0. 0. 0. 0. 0. 0. 0. 0. 0. 0. 0. 0. 0. 0. 0.
      0. 0. 0. 0. 0. 0. 0. 0. 0. 0. 0. 0. 0. 0. 0. 0. 0. 0. 0. 0. 0. 0.
      0. 0. 0. 0. 0. 0. 0. 0. 0. 0. 0. 0. 0. 0. 0. 0. 0. 0. 0. 0. 0. 0.
      0. 0. 0. 0. 0. 0. 0. 0. 0. 0. 0. 0. 0. 0. 0. 0. 0. 0. 0. 0. 0. 0.
      0. 0. 0. 0. 0. 0. 0. 0. 0. 0. 0. 0. 0. 0. 0. 0. 0. 0. 0. 0. 0. 0.
      0. 0. 0. 0. 0. 0. 0. 0. 0. 0. 0. 0. 0. 0. 0. 0. 0. 0. 0. 0. 0. 0.
      0. 0. 0. 0. 0. 0. 0. 0. 0. 0. 0. 0. 0. 0. 0. 0. 0. 0. 0. 0. 0. 0.
      0. 0. 0. 0. 0. 0. 0. 0. 0. 0. 0. 0. 0. 0. 0. 0. 0. 0. 0. 0. 0. 0.
      0. 0. 0. 0. 0. 0. 0. 0. 0. 0. 6.25000000e-02 0. 0. 0. 0. 0. 0. 0.
      0. 0. 6.25000000e-02 0. 0. 0. 0. 0. 0. 0. 0. 0. 0. 0. 0. 0. 0. 0.
      0. 0. 0. 0. 0. 0. 0. 0. 0. 0. 0. 0. 0. 0. 0. 0. 0. 0. 0. 0. 0. 0.
      0. 0. 0. 0. 0. 0. 0. 0. 0. 0. 0. 0. 0. 0. 0. 0. 0. 0. 0. 0. 0. 0.
      0. 0. 0. 0. 0. 0. 0. 0. 0. 0. 0. 0. 0. 0. 0. 0. 0. 0. 0. 0. 0. 0.
      0. 0. 0. 0. 0. 0. 0. 0. 0. 0. 0. 0. 0. 0. 0. 0. 0. 0. 0. 0. 0. 0.
      0. 0. 0. 0. 0. 0. 0. 0. 0. 0. 0. 0. 0. 0. 0. 0. 0. 0. 0. 0. 0. 0.
      0. 0. 6.25000000e-02 0. 0. 0. 0. 0. 0. 0. 0. 0. 0. 0. 0. 0. 0. 0.
      0. 0. 0. 0. 0. 0. 0. 0. 0. 0. 0. 0. 0. 0. 0. 0. 0. 0. 0. 0. 0. 0.
      0. 0. 0. 0. 0. 0. 0. 0. 0. 0. 0. 0. 0. 0. 0. 0. 0. 0. 0. 0. 0. 0.
      0. 0. 0. 0. 0. 0. 0. 0. 0. 0. 0. 0. 0. 0. 0. 0. 0. 0. 0. 0. 0. 0.
      0. 0. 0. 0. 0. 0. 0. 0. 0. 0. 0. 0. 0. 0. 0. 0. 0. 0. 0. 0. 0. 0.
      0. 0. 0. 0. 0. 0. 0. 0. 0. 0. 0. 0. 0. 0. 0. 0. 0. 0. 0. 0. 0. 0.
      0. 0. 0. 0. 0. 0. 0. 0. 0. 0. 0. 0. 0. 0. 0. 0. 0. 0. 0. 0. 0. 0.
      0. 0. 0. 0. 0. 0. 0. 0. 0. 0. 0. 0. 0. 0. 0. 0. 0. 0. 0. 0. 0. 0.
      0. 0. 0. 0. 0. 0. 0. 0. 0. 0. 0. 0. 0. 0. 0. 0. 0. 0. 0. 0. 0. 0.
      0. 0. 0. 0. 0. 0. 0. 0. 0. 0. 0. 0. 0. 0. 0. 0. 0. 0. 0. 0. 0. 0.
      0. 0. 0. 0. 0. 0. 0. 0. 0. 0. 0. 0. 0. 0. 0. 0. 0. 0. 0. 0. 0. 0.
      0. 0. 0. 0. 0. 0. 0. 0. 0. 0. 0. 0. 0. 0. 0. 0. 0. 0. 0. 0. 0. 0.
      0. 0. 0. 0. 0. 0. 0. 0. 0. 0. 0.</_>
    <_>
      0. 0. 0. 0. 0. 0. 0. 0. 0. 0. 0. 0. 0. 0. 0. 0. 0. 0. 0. 0. 0. 0.
      0. 0. 0. 0. 0. 0. 0. 0. 0. 0. 0. 0. 0. 0. 0. 0. 0. 0. 0. 0. 0. 0.
      0. 0. 0. 0. 0. 0. 0. 0. 0. 0. 0. 0. 0. 0. 0. 0. 0. 0. 0. 0.
      1.42857149e-01 0. 0. 0. 0. 0. 0. 7.14285746e-02 0. 0. 0.
      7.14285746e-02 0. 0. 0. 0. 0. 0. 0. 0. 0. 0. 0. 0. 0. 0. 0. 0. 0.
      0. 0. 0. 0. 0. 0. 0. 0. 0. 0. 0. 0. 0. 0. 0. 0. 0. 0. 0. 0. 0. 0.
      0. 0. 0. 0. 0. 0. 0. 0. 0. 0. 0. 0. 0. 0. 0. 0. 0. 0. 0. 0. 0. 0.
      0. 0. 0. 0. 0. 0. 0. 0. 0. 0. 0. 0. 0. 0. 0. 0. 0. 0. 0. 0. 0. 0.
      0. 0. 0. 7.14285746e-02 0. 0. 0. 0. 0. 0. 0. 0. 0. 0. 0. 0. 0. 0.
      0. 0. 0. 0. 0. 0. 0. 0. 0. 0. 0. 0. 0. 0. 0. 0. 0. 0. 0. 0. 0. 0.
      0. 0. 0. 0. 0. 0. 0. 0. 0. 0. 0. 0. 0. 0. 0. 7.14285746e-02 0. 0.
      0. 0. 0. 0. 0. 0. 0. 0. 0. 0. 0. 0. 0. 0. 0. 0. 0. 0. 0. 0. 0. 0.
      0. 0. 0. 7.14285746e-02 0. 0. 0. 0. 0. 0. 0. 0. 0. 0. 0. 0. 0. 0.
      0. 0. 0. 0. 0. 0. 0. 0. 0. 0. 0. 0. 0. 0. 7.14285746e-02 0. 0. 0.
      0. 0. 0. 0. 0. 0. 0. 0. 0. 0. 0. 0. 0. 0. 0. 0. 0. 0. 0. 0. 0. 0.
      0. 0. 0. 0. 0. 0. 0. 0. 0. 0. 0. 0. 0. 0. 0. 0. 0. 0. 0. 0. 0. 0.
      0. 0. 0. 0. 0. 0. 0. 0. 0. 0. 0. 0. 0. 0. 0. 0. 0. 0. 0. 0. 0. 0.
      7.14285746e-02 0. 0. 0. 0. 0. 0. 0. 0. 0. 0. 0. 0. 0. 0. 0. 0. 0.
      0. 0. 0. 0. 0. 0. 0. 0. 0. 0. 0. 0. 0. 0. 0. 0. 0. 0. 0. 0. 0.
      7.14285746e-02 0. 0. 0. 0. 0. 0. 0. 0. 0. 0. 0. 0. 0. 0. 0. 0. 0.
      0. 0. 0. 0. 0. 0. 0. 0. 0. 0. 0. 0. 0. 0. 0. 0. 0. 0. 0. 0. 0. 0.
      0. 0. 0. 0. 0. 0. 0. 0. 0. 0. 0. 0. 0. 0. 0. 0. 0. 0. 0. 0. 0. 0.
      0. 0. 0. 0. 0. 0. 0. 0. 0. 0. 0. 0. 0. 0. 0. 0. 0. 0. 0. 0. 0. 0.
      0. 0. 0. 0. 0. 0. 0. 0. 0. 0. 0. 0. 0. 0. 0. 0. 0. 0. 0. 0. 0. 0.
      0. 0. 0. 0. 0. 0. 0. 0. 0. 0. 0. 0. 0. 0. 0. 0. 0. 0. 0. 0. 0. 0.
      0. 0. 0. 0. 0. 0. 0. 0. 0. 0. 0. 0. 0. 0. 0. 0. 0. 0. 0. 0. 0. 0.
      0. 0. 0. 0. 0. 0. 0. 0. 0. 0. 0. 0. 0. 0. 0. 0. 0. 0. 0. 0. 0. 0.
      0. 0. 0. 0. 0. 0. 0. 0. 0. 0. 0. 0. 0. 0. 0. 0. 0. 0. 0. 0. 0. 0.
      0. 0. 0. 0. 0. 0. 0. 0. 0. 0. 0. 0. 0. 0. 0. 0. 0. 0. 0.
      7.14285746e-02 0. 0. 0. 0. 0. 0. 0. 0. 0. 7.14285746e-02 0. 0. 0.
      0. 0. 0. 0. 0. 0. 0. 0. 0. 0. 0. 0. 0. 0. 0. 0. 0. 0. 0. 0. 0. 0.
      0. 0. 0. 0. 0. 0. 0. 0. 0. 0. 0. 0. 0. 0. 0. 0. 0. 0. 0. 0. 0. 0.
      0. 0. 0. 0. 0. 0. 0. 0. 0. 0. 0. 0. 0. 0. 0. 0. 0. 0. 0. 0. 0. 0.
      0. 0. 0. 0. 0. 0. 0. 0. 0. 0. 0. 0. 0. 0. 0. 0. 0. 0. 0. 0. 0. 0.
      0. 0. 0. 0. 0. 0. 0. 0. 0. 0. 0. 0. 0. 0. 0. 0. 0. 0. 0. 0. 0. 0.
      0. 0. 0. 0. 0. 0. 0. 0. 0. 0. 0. 0. 0. 0. 0. 0. 0. 0. 0. 0. 0. 0.
      0. 0. 7.14285746e-02 0. 0. 0. 0. 0. 0. 0. 0. 0. 0. 0. 0. 0. 0. 0.
      0. 0. 0. 0. 0. 0. 0. 0. 0. 0. 0. 0. 0. 0. 0. 0. 0. 0. 0. 0. 0. 0.
      0. 0. 0. 0. 0. 0. 0. 0. 0. 0. 0. 0. 0. 0. 0. 0. 0. 0. 0. 0. 0. 0.
      0. 0. 0. 0. 0. 0. 0. 0. 0. 0. 0. 0. 0. 0. 0. 0. 0. 0. 0. 0. 0. 0.
      0. 0. 0. 0. 0. 0. 0. 0. 0. 0. 0. 0. 0. 0. 0. 0. 0. 0. 0. 0. 0. 0.
      0. 0. 0. 0. 0. 0. 0. 0. 0. 0. 0. 0. 0. 0. 0. 0. 0. 0. 0. 0. 0. 0.
      0. 0. 0. 0. 0. 0. 0. 0. 0. 0. 0. 0. 0. 0. 0. 0. 0. 0. 0. 0. 0. 0.
      0. 0. 0. 0. 0. 0. 0. 0. 0. 0. 0. 0. 0. 0. 0. 0. 0. 0. 0. 0. 0. 0.
      0. 0. 0. 0. 0. 0. 0. 0. 0. 0. 0. 0. 0. 0. 0. 0. 0. 0. 0. 0. 0. 0.
      0. 0. 0. 0. 0. 0. 0. 0. 0. 0. 0. 0. 0. 0. 0. 0. 0. 0. 0. 0. 0. 0.
      0. 0. 0. 0. 7.14285746e-02 0. 0. 0. 0. 0. 0. 0. 0. 0. 0. 0. 0. 0.
      0. 0. 0. 0. 0. 0. 0. 0. 0. 0. 0. 0. 0. 0. 0. 0. 0. 0. 0. 0. 0. 0.
      0. 0. 0. 0. 0.</_>
    <_>
      3.33333351e-02 0. 0. 0. 0. 0. 0. 0. 0. 0. 0. 0. 0. 0. 0. 0. 0. 0.
      0. 0. 0. 0. 0. 0. 0. 0. 0. 0. 0. 0. 0. 0. 0. 0. 0. 0. 0. 0. 0. 0.
      0. 0. 0. 0. 0. 3.33333351e-02 0. 0. 0. 0. 0. 0. 0. 0. 0. 0. 0. 0.
      0. 0. 0. 0. 0. 0. 0. 0. 0. 0. 0. 0. 0. 3.33333351e-02 0. 0. 0.
      1.66666675e-02 0. 0. 0. 0. 0. 0. 0. 0. 0. 0. 0. 0. 0. 0. 0. 0. 0.
      0. 0. 0. 0. 0. 0. 0. 0. 0. 0. 0. 0. 8.33333358e-02 0. 0. 0. 0. 0.
      0. 0. 0. 1.66666675e-02 0. 0. 0. 0. 0. 0. 0. 0. 0. 0. 0. 0. 0. 0.
      0. 0. 0. 0. 0. 0. 0. 0. 0. 0. 0. 0. 0. 0. 1.66666675e-02 0. 0. 0.
      0. 0. 0. 0. 0. 0. 0. 0. 0. 0. 0. 0. 0. 0. 0. 1.66666675e-02 0. 0.
      0. 0. 0. 0. 0. 0. 0. 0. 0. 0. 0. 0. 0. 0. 0. 0. 0. 0. 0. 0. 0. 0.
      0. 0. 0. 0. 0. 0. 0. 0. 0. 0. 0. 0. 0. 0. 1.66666675e-02 0. 0. 0.
      0. 0. 0. 0. 0. 1.66666675e-02 1.66666675e-02 0. 0. 1.66666675e-02
      0. 0. 0. 0. 0. 0. 0. 0. 0. 0. 0. 0. 0. 0. 0. 0. 0. 1.66666675e-02
      0. 0. 0. 0. 0. 0. 0. 0. 0. 0. 0. 0. 0. 0. 0. 0. 0. 0. 0. 0. 0. 0.
      0. 0. 0. 0. 0. 0. 0. 0. 0. 0. 0. 0. 0. 0. 0. 0. 1.66666675e-02
      1.66666675e-02 0. 0. 0. 0. 1.66666675e-02 0. 0. 0. 0. 0. 0. 0. 0.
      0. 0. 0. 0. 0. 0. 0. 0. 0. 0. 0. 0. 0. 0. 0. 0. 0. 0. 0. 0. 0. 0.
      0. 0. 0. 0. 0. 0. 0. 0. 0. 0. 0. 0. 0. 0. 0. 1.66666675e-02 0. 0.
      0. 0. 0. 0. 0. 0. 0. 0. 0. 0. 0. 0. 0. 0. 0. 1.66666675e-02 0. 0.
      0. 0. 0. 0. 0. 1.66666675e-02 0. 0. 0. 0. 0. 0. 0. 0. 0. 0. 0. 0.
      0. 0. 0. 0. 0. 0. 0. 0. 0. 0. 0. 0. 0. 0. 0. 0. 0. 0.
      1.66666675e-02 1.66666675e-02 0. 0. 0. 0. 0. 0. 1.66666675e-02 0.
      0. 0. 0. 0. 0. 0. 0. 0. 0. 0. 0. 0. 0. 0. 0. 0. 0. 0. 0. 0. 0. 0.
      0. 0. 0. 0. 0. 0. 0. 0. 0. 0. 0. 0. 0. 0. 0. 1.66666675e-02 0. 0.
      0. 0. 0. 0. 0. 0. 0. 0. 0. 0. 0. 0. 0. 0. 0. 0. 0. 0. 0. 0. 0. 0.
      0. 0. 0. 0. 0. 1.66666675e-02 3.33333351e-02 0. 0. 0. 0. 0. 0. 0.
      0. 0. 0. 0. 0. 0. 0. 0. 0. 0. 0. 0. 0. 0. 0. 1.66666675e-02 0. 0.
      0. 0. 0. 0. 0. 0. 0. 0. 0. 0. 0. 0. 0. 0. 0. 0. 0. 0. 0. 0. 0. 0.
      0. 0. 0. 0. 0. 3.33333351e-02 0. 0. 0. 0. 0. 0. 0. 0. 0. 0. 0. 0.
      0. 0. 0. 0. 0. 0. 0. 0. 0. 0. 0. 0. 0. 0. 0. 1.66666675e-02 0. 0.
      0. 0. 0. 0. 0. 0. 0. 0. 0. 0. 0. 1.66666675e-02 0. 0. 0. 0. 0. 0.
      1.66666675e-02 0. 0. 0. 0. 0. 0. 0. 0. 0. 0. 0. 1.66666675e-02 0.
      0. 0. 0. 0. 0. 0. 0. 0. 0. 0. 0. 0. 0. 0. 0. 1.66666675e-02 0. 0.
      0. 0. 0. 0. 0. 0. 0. 0. 0. 0. 0. 1.66666675e-02 0. 0. 0. 0. 0. 0.
      0. 0. 0. 0. 0. 0. 0. 0. 0. 0. 0. 0. 0. 0. 0. 0. 0. 0. 0. 0. 0. 0.
      0. 0. 0. 0. 0. 0. 0. 3.33333351e-02 0. 0. 0. 0. 0. 0. 0. 0. 0. 0.
      0. 0. 0. 0. 0. 1.66666675e-02 0. 0. 0. 0. 0. 0. 0. 0. 0. 0. 0. 0.
      0. 0. 0. 0. 0. 0. 0. 0. 0. 0. 0. 0. 0. 0. 0. 0. 0. 0. 0. 0. 0. 0.
      0. 0. 0. 0. 0. 0. 0. 0. 1.66666675e-02 0. 1.66666675e-02 0.
      3.33333351e-02 0. 0. 0. 0. 0. 0. 0. 0. 0. 0. 0. 0. 0. 0. 0. 0. 0.
      0. 0. 0. 0. 0. 0. 0. 0. 0. 0. 0. 0. 0. 1.66666675e-02 0. 0. 0.
      1.66666675e-02 0. 0. 0. 0. 0. 0. 0. 0. 0. 0. 0. 0. 0. 0. 0. 0. 0.
      0. 0. 0. 0. 0. 0. 0. 0. 0. 0. 0. 0. 0. 0. 0. 0. 0. 0. 0. 0. 0. 0.
      0. 0. 0. 0. 0. 0. 0. 0. 0. 0. 0. 0. 0. 0. 0. 0. 0. 0. 0. 0. 0. 0.
      0. 0. 0. 0. 0. 0. 0. 0. 0. 0. 1.66666675e-02 0. 0. 0. 0. 0. 0. 0.
      0. 0. 0. 0. 0. 0. 0. 0. 0. 0. 0. 0. 0. 0. 0. 0. 0. 0. 0. 0. 0.
      1.66666675e-02 0. 0. 0. 0. 0. 0. 1.66666675e-02 0. 0. 0. 0. 0. 0.
      0. 0. 0. 0. 0. 0. 0. 0. 0. 0. 0. 0. 0. 0. 0. 0. 0. 0. 0. 0. 0. 0.
      0. 0. 0. 0. 0. 0. 0. 0. 0. 5.00000045e-02 0. 0. 0. 0. 0. 0. 0. 0.
      0. 0. 0. 0. 0. 0. 0. 0. 0. 0. 0. 0. 0. 0. 0. 0. 0. 0. 0. 0. 0. 0.
      0. 0. 0. 0. 0. 0. 0. 0. 0. 0. 0. 0. 0. 0. 0. 0. 0. 0. 0. 0. 0. 0.
      0. 0. 0. 0. 3.33333351e-02 0. 0. 0. 0. 0. 0. 0. 0. 0. 0. 0. 0. 0.
      0. 0. 0. 0. 0. 0. 0. 0. 0. 0. 0. 0. 0. 0. 0. 0. 0. 0. 0. 0. 0. 0.
      0. 0. 0. 0. 0. 0. 1.66666675e-02 0. 0. 0. 0. 0. 0. 0. 0. 0. 0. 0.
      0. 0. 0. 0. 0. 0.</_>
    <_>
      0. 0. 0. 0. 9.43396240e-03 0. 0. 0. 0. 0. 0. 0. 0. 0. 0. 0. 0. 0.
      0. 0. 0. 0. 0. 0. 0. 0. 0. 0. 0. 0. 0. 0. 0. 0. 0. 0. 0. 0.
      9.43396240e-03 0. 9.43396240e-03 0. 0. 0. 0. 0. 0. 0. 0. 0. 0. 0.
      0. 0. 0. 9.43396240e-03 0. 0. 0. 0. 0. 0. 0. 0. 0. 0. 0. 0.
      9.43396240e-03 0. 0. 1.88679248e-02 0. 0. 0. 9.43396240e-03 0. 0.
      0. 0. 0. 0. 0. 0. 0. 9.43396240e-03 0. 0. 9.43396240e-03
      9.43396240e-03 0. 0. 0. 0. 0. 0. 0. 0. 0. 0. 0. 0. 9.43396240e-03
      0. 0. 0. 0. 0. 0. 0. 0. 0. 0. 0. 0. 0. 0. 0. 0. 0. 0. 0. 0. 0. 0.
      0. 0. 0. 0. 0. 0. 0. 0. 9.43396240e-03 0. 0. 0. 0. 0. 0. 0. 0. 0.
      0. 0. 0. 0. 0. 0. 0. 0. 0. 0. 9.43396240e-03 0. 0. 0. 0. 0. 0. 0.
      0. 9.43396240e-03 0. 0. 9.43396240e-03 0. 0. 0. 0. 0. 0. 0. 0. 0.
      0. 0. 0. 0. 0. 1.88679248e-02 0. 0. 0. 0. 9.43396240e-03 0. 0. 0.
      0. 0. 0. 0. 0. 0. 0. 0. 0. 0. 0. 0. 0. 0. 0. 0. 0. 0. 0. 0. 0.
      1.88679248e-02 0. 0. 0. 0. 0. 0. 0. 0. 0. 0. 0. 0. 0. 0. 0. 0. 0.
      0. 0. 9.43396240e-03 0. 9.43396240e-03 0. 0. 0. 0. 0. 0. 0. 0. 0.
      0. 0. 1.88679248e-02 0. 1.88679248e-02 0. 0. 0. 0. 0.
      9.43396240e-03 0. 0. 0. 0. 0. 0. 0. 0. 0. 0. 0. 9.43396240e-03 0.
      0. 0. 0. 0. 0. 9.43396240e-03 0. 0. 1.88679248e-02 0. 0. 0. 0. 0.
      0. 0. 0. 0. 0. 0. 0. 0. 0. 0. 0. 0. 0. 0. 0. 0. 0. 0. 0. 0. 0. 0.
      0. 0. 0. 0. 0. 0. 0. 0. 0. 0. 0. 0. 0. 0. 0. 0. 0. 0. 0. 0. 0.
      9.43396240e-03 0. 9.43396240e-03 0. 0. 0. 0. 0. 0. 0. 0. 0. 0. 0.
      9.43396240e-03 0. 0. 0. 9.43396240e-03 0. 0. 0. 0. 0.
      9.43396240e-03 0. 0. 0. 0. 0. 0. 0. 0. 0. 0. 9.43396240e-03 0. 0.
      0. 0. 0. 0. 0. 0. 0. 0. 0. 0. 0. 0. 0. 0. 0. 0. 0. 0. 0.
      9.43396240e-03 0. 0. 0. 0. 0. 0. 0. 0. 0. 0. 0. 0. 0. 0. 0. 0. 0.
      0. 0. 0. 0. 0. 0. 0. 0. 0. 0. 0. 0. 0. 0. 0. 9.43396240e-03 0. 0.
      0. 0. 0. 0. 0. 9.43396240e-03 0. 0. 0. 0. 9.43396240e-03
      9.43396240e-03 0. 0. 0. 0. 0. 0. 0. 0. 0. 0. 0. 0. 0.
      1.88679248e-02 0. 0. 0. 0. 0. 0. 0. 0. 0. 0. 0. 9.43396240e-03 0.
      0. 0. 0. 3.77358496e-02 0. 0. 9.43396240e-03 0. 0. 0. 0.
      9.43396240e-03 0. 0. 0. 0. 0. 0. 0. 0. 0. 0. 0. 0. 9.43396240e-03
      0. 0. 0. 0. 0. 0. 0. 0. 0. 0. 0. 0. 0. 0. 0. 0. 0. 1.88679248e-02
      0. 0. 0. 0. 0. 0. 0. 0. 0. 0. 9.43396240e-03 0. 0. 0. 0. 0. 0. 0.
      0. 0. 0. 0. 0. 0. 0. 0. 0. 0. 0. 0. 0. 0. 0. 0. 0. 9.43396240e-03
      0. 0. 0. 0. 0. 0. 0. 0. 9.43396240e-03 0. 9.43396240e-03 0. 0. 0.
      0. 0. 0. 0. 0. 0. 0. 0. 0. 0. 0. 0. 0. 0. 0. 0. 9.43396240e-03 0.
      0. 0. 0. 0. 0. 0. 0. 0. 0. 0. 0. 0. 0. 0. 0. 0. 0. 0. 0. 0. 0. 0.
      0. 0. 0. 9.43396240e-03 0. 0. 0. 0. 0. 9.43396240e-03 0. 0. 0. 0.
      0. 9.43396240e-03 0. 0. 0. 0. 0. 0. 0. 0. 0. 0. 0. 0. 0. 0. 0. 0.
      0. 0. 0. 0. 0. 0. 0. 0. 0. 0. 0. 0. 0. 0. 9.43396240e-03 0. 0. 0.
      0. 9.43396240e-03 0. 0. 0. 0. 0. 0. 0. 0. 0. 0. 0. 0.
      9.43396240e-03 0. 0. 1.88679248e-02 0. 0. 0. 9.43396240e-03 0. 0.
      0. 0. 0. 0. 0. 0. 0. 0. 9.43396240e-03 0. 0. 0. 0. 0. 0. 0. 0. 0.
      0. 0. 0. 0. 0. 0. 9.43396240e-03 0. 0. 0. 0. 1.88679248e-02 0. 0.
      9.43396240e-03 0. 0. 0. 0. 0. 0. 9.43396240e-03 0. 0. 0. 0. 0. 0.
      0. 0. 0. 0. 0. 1.88679248e-02 1.88679248e-02 0. 0. 0. 0. 0. 0. 0.
      0. 0. 0. 0. 0. 0. 0. 0. 0. 0. 0. 0. 0. 0. 0. 0. 0. 0. 0. 0. 0. 0.
      0. 0. 0. 0. 0. 0. 0. 0. 0. 0. 0. 0. 0. 0. 0. 0. 0. 9.43396240e-03
      0. 0. 0. 0. 0. 0. 0. 0. 0. 0. 0. 0. 0. 0. 0. 0. 0. 0. 0. 0. 0. 0.
      0. 0. 0. 9.43396240e-03 0. 0. 0. 0. 0. 0. 9.43396240e-03
      9.43396240e-03 0. 0. 0. 0. 0. 0. 0. 0. 0. 9.43396240e-03 0. 0. 0.
      0. 0. 0. 0. 0. 0. 0. 0. 0. 0. 0. 0. 0. 0. 0. 0. 9.43396240e-03 0.
      0. 0. 0. 0. 0. 0. 0. 0. 0. 9.43396240e-03 0. 0. 0. 9.43396240e-03
      0. 0. 1.88679248e-02 0. 0. 0. 0. 0. 0. 0. 0. 0. 0. 0. 0. 0. 0. 0.
      0. 0. 0. 0. 0. 0. 9.43396240e-03 0. 0. 9.43396240e-03
      9.43396240e-03 0. 0. 0. 0. 0. 0. 0. 0. 0. 0. 9.43396240e-03 0. 0.
      0. 0. 0. 0. 0. 0. 0. 0. 0. 0. 0. 0. 0. 0. 0. 0. 0. 0. 0. 0. 0. 0.
      0. 0. 0. 0. 9.43396240e-03 0. 1.88679248e-02 0. 0. 0. 0. 0. 0. 0.
      0. 0. 0. 0. 9.43396240e-03 0. 0. 0. 0. 0. 0. 2.83018872e-02 0. 0.
      0. 9.43396240e-03 0. 0. 0. 0. 0. 0. 0. 0. 0. 0. 0. 0. 0. 0. 0. 0.
      0. 0. 1.88679248e-02 9.43396240e-03 0. 0. 0. 0. 9.43396240e-03 0.
      0. 0. 0. 0. 0. 0. 0. 0. 0. 0. 0. 0. 0. 0. 0. 0. 0. 0. 0. 0. 0. 0.
      0. 0. 0. 0. 0. 0. 0. 0. 0. 0. 0. 0. 9.43396240e-03 0. 0. 0. 0.</_>
    <_>
      0. 9.09090880e-03 0. 0. 0. 0. 0. 0. 0. 0. 0. 0. 0. 0. 0. 0. 0. 0.
      0. 0. 0. 0. 0. 0. 0. 0. 0. 0. 0. 0. 0. 0. 0. 0. 0. 0. 0. 0. 0. 0.
      9.09090880e-03 0. 0. 0. 0. 0. 0. 0. 0. 0. 0. 0. 0. 0. 0.
      9.09090880e-03 0. 0. 0. 0. 9.09090880e-03 0. 0. 0. 0. 0. 0. 0.
      9.09090880e-03 0. 0. 1.81818176e-02 0. 0. 0. 9.09090880e-03 0. 0.
      0. 0. 0. 0. 0. 0. 0. 0. 0. 0. 0. 0. 0. 0. 0. 0. 0. 0. 0. 0. 0. 0.
      0. 0. 9.09090880e-03 0. 0. 0. 0. 0. 0. 0. 0. 0. 0. 0. 0. 0. 0. 0.
      0. 0. 0. 0. 0. 0. 0. 0. 0. 0. 0. 0. 0. 0. 0. 0. 0. 0. 0. 0. 0. 0.
      0. 9.09090880e-03 0. 0. 0. 0. 0. 0. 0. 0. 0. 0. 0. 0. 0. 0. 0. 0.
      0. 0. 0. 0. 9.09090880e-03 0. 0. 9.09090880e-03 0. 0. 0. 0. 0. 0.
      0. 0. 0. 9.09090880e-03 0. 0. 0. 0. 1.81818176e-02 0. 0. 0. 0.
      9.09090880e-03 0. 0. 0. 0. 0. 0. 0. 0. 0. 0. 0. 0. 0. 0. 0. 0. 0.
      0. 0. 0. 0. 0. 9.09090880e-03 0. 1.81818176e-02 0. 0. 0.
      9.09090880e-03 0. 0. 0. 0. 0. 0. 0. 0. 0. 0. 0. 0. 0. 0. 0. 0. 0.
      9.09090880e-03 0. 0. 0. 0. 0. 0. 0. 0. 0. 9.09090880e-03
      9.09090880e-03 1.81818176e-02 0. 1.81818176e-02 0. 0. 0. 0.
      9.09090880e-03 1.81818176e-02 0. 0. 0. 0. 0. 0. 0. 0. 0. 0. 0. 0.
      0. 0. 0. 0. 0. 0. 9.09090880e-03 0. 0. 9.09090880e-03 0. 0. 0. 0.
      0. 0. 0. 0. 9.09090880e-03 0. 0. 0. 0. 0. 0. 0. 0. 0. 0. 0. 0. 0.
      0. 0. 0. 0. 0. 0. 0. 0. 0. 0. 0. 0. 0. 0. 0. 0. 0. 0. 0. 0. 0. 0.
      0. 0. 0. 0. 9.09090880e-03 0. 9.09090880e-03 0. 0. 0. 0. 0. 0. 0.
      0. 0. 0. 0. 9.09090880e-03 0. 0. 0. 9.09090880e-03 0. 0. 0. 0. 0.
      9.09090880e-03 0. 0. 0. 0. 0. 0. 0. 0. 0. 0. 0. 0. 0. 0. 0. 0. 0.
      0. 0. 0. 0. 0. 0. 0. 0. 0. 0. 0. 0. 0. 0. 0. 9.09090880e-03 0. 0.
      0. 0. 0. 0. 0. 9.09090880e-03 0. 0. 0. 0. 0. 0. 0. 0. 0. 0. 0. 0.
      0. 0. 0. 0. 0. 0. 0. 9.09090880e-03 0. 0. 0. 0. 0. 0. 0. 0. 0. 0.
      0. 0. 1.81818176e-02 0. 0. 0. 0. 9.09090880e-03 1.81818176e-02 0.
      0. 1.81818176e-02 9.09090880e-03 0. 0. 0. 0. 0. 0. 0. 0. 0.
      1.81818176e-02 9.09090880e-03 0. 0. 0. 0. 0. 0. 0. 0. 0. 0.
      1.81818176e-02 0. 0. 0. 0. 3.63636352e-02 0. 0. 0. 0. 0. 0. 0.
      9.09090880e-03 0. 0. 0. 0. 0. 0. 0. 0. 9.09090880e-03 0. 0. 0.
      9.09090880e-03 0. 0. 0. 0. 0. 0. 0. 0. 0. 0. 0. 0. 0. 0. 0. 0. 0.
      1.81818176e-02 0. 0. 0. 0. 0. 0. 0. 0. 0. 0. 9.09090880e-03 0. 0.
      0. 0. 0. 0. 0. 0. 0. 0. 0. 0. 0. 0. 0. 0. 0. 0. 0. 0. 0. 0. 0. 0.
      9.09090880e-03 0. 0. 0. 0. 0. 0. 0. 0. 9.09090880e-03 0.
      9.09090880e-03 0. 0. 0. 0. 0. 0. 0. 0. 0. 0. 0. 0. 0. 0. 0. 0. 0.
      0. 0. 0. 0. 0. 0. 0. 0. 0. 0. 0. 0. 0. 0. 0. 0. 0. 0. 0. 0. 0. 0.
      0. 0. 0. 0. 0. 0. 0. 9.09090880e-03 0. 0. 0. 0. 0. 9.09090880e-03
      0. 0. 0. 0. 0. 9.09090880e-03 0. 0. 0. 0. 0. 0. 0. 0. 0. 0. 0. 0.
      0. 0. 0. 0. 0. 0. 0. 0. 0. 0. 0. 0. 0. 0. 0. 0. 0. 0.
      9.09090880e-03 0. 0. 0. 0. 9.09090880e-03 0. 0. 0. 0. 0. 0. 0. 0.
      0. 0. 0. 0. 9.09090880e-03 0. 0. 9.09090880e-03 0. 0. 0.
      9.09090880e-03 0. 0. 0. 0. 0. 0. 9.09090880e-03 0. 0. 0.
      9.09090880e-03 0. 0. 0. 0. 9.09090880e-03 0. 0. 0. 0. 0. 0. 0. 0.
      0. 0. 9.09090880e-03 0. 0. 0. 0. 9.09090880e-03 0. 0. 0. 0. 0. 0.
      0. 0. 0. 0. 0. 0. 0. 0. 0. 0. 0. 0. 0. 0. 0. 0. 9.09090880e-03 0.
      0. 0. 9.09090880e-03 0. 0. 0. 0. 0. 0. 0. 0. 0. 0. 0. 0. 0. 0. 0.
      0. 0. 9.09090880e-03 0. 0. 0. 0. 0. 0. 0. 0. 0. 0. 0. 0. 0. 0. 0.
      0. 0. 0. 0. 0. 0. 0. 0. 0. 9.09090880e-03 0. 0. 0. 0.
      9.09090880e-03 0. 0. 0. 0. 0. 0. 0. 0. 0. 0. 0. 0. 0. 0. 0. 0. 0.
      0. 0. 0. 0. 0. 0. 0. 0. 0. 0. 9.09090880e-03 0. 0. 0. 0. 0. 0. 0.
      0. 0. 0. 9.09090880e-03 0. 0. 0. 9.09090880e-03 0. 0. 0. 0. 0. 0.
      0. 0. 0. 0. 0. 0. 0. 0. 9.09090880e-03 9.09090880e-03 0. 0. 0. 0.
      0. 0. 0. 0. 0. 0. 2.72727273e-02 0. 0. 0. 9.09090880e-03 0. 0. 0.
      0. 0. 0. 0. 9.09090880e-03 0. 0. 9.09090880e-03 0. 0. 0. 0. 0. 0.
      0. 0. 0. 0. 0. 0. 0. 9.09090880e-03 0. 0. 9.09090880e-03
      9.09090880e-03 0. 0. 0. 0. 0. 0. 0. 0. 0. 0. 9.09090880e-03 0. 0.
      0. 0. 0. 0. 0. 0. 0. 0. 0. 0. 0. 0. 0. 0. 0. 0. 0. 0. 0. 0. 0. 0.
      0. 0. 0. 0. 9.09090880e-03 0. 2.72727273e-02 0. 0. 0. 0. 0. 0. 0.
      0. 0. 0. 0. 9.09090880e-03 0. 0. 0. 0. 0. 0. 1.81818176e-02 0. 0.
      0. 9.09090880e-03 0. 0. 0. 0. 0. 0. 0. 0. 0. 0. 0. 0. 0. 0. 0. 0.
      0. 0. 1.81818176e-02 0. 0. 0. 0. 0. 0. 0. 0. 0. 0. 0. 0. 0. 0. 0.
      0. 0. 0. 0. 0. 0. 0. 0. 0. 0. 0. 0. 0. 0. 0. 0. 0. 0. 0. 0. 0. 0.
      0. 0. 0. 0. 0. 0. 0. 0. 0.</_>
    <_>
      0. 8.69565178e-03 0. 0. 0. 0. 0. 0. 0. 0. 0. 0. 0. 0. 0. 0. 0. 0.
      0. 0. 0. 0. 0. 0. 0. 0. 0. 0. 0. 0. 0. 0. 0. 0. 0. 0. 0. 0. 0. 0.
      0. 0. 0. 8.69565178e-03 0. 0. 0. 0. 0. 0. 0. 0. 0. 0. 0. 0. 0. 0.
      0. 0. 8.69565178e-03 0. 0. 0. 0. 0. 0. 0. 8.69565178e-03 0. 0.
      8.69565178e-03 0. 0. 0. 0. 0. 0. 0. 0. 0. 0. 0. 0. 0.
      8.69565178e-03 0. 0. 0. 0. 0. 0. 0. 0. 0. 0. 0. 0. 0. 0. 0. 0.
      8.69565178e-03 0. 0. 0. 0. 0. 0. 0. 0. 0. 0. 0. 0. 0. 0. 0. 0. 0.
      0. 0. 0. 0. 0. 0. 0. 0. 0. 0. 0. 0. 0. 0. 0. 0. 0. 0. 0. 0. 0. 0.
      0. 0. 0. 0. 0. 0. 0. 0. 0. 0. 0. 0. 0. 0. 0. 0. 0. 0. 0.
      8.69565178e-03 1.73913036e-02 0. 0. 8.69565178e-03 0. 0. 0. 0. 0.
      0. 0. 0. 0. 8.69565178e-03 0. 0. 0. 0. 8.69565178e-03 0. 0. 0. 0.
      8.69565178e-03 0. 0. 0. 0. 0. 0. 0. 0. 0. 0. 0. 0. 0. 0. 0. 0. 0.
      0. 0. 0. 0. 0. 0. 0. 1.73913036e-02 0. 0. 0. 8.69565178e-03 0. 0.
      0. 0. 0. 0. 0. 0. 0. 0. 0. 0. 0. 0. 0. 0. 0. 8.69565178e-03 0. 0.
      0. 0. 0. 0. 0. 0. 0. 8.69565178e-03 0. 8.69565178e-03 0.
      1.73913036e-02 0. 0. 0. 0. 0. 1.73913036e-02 0. 0. 0. 0. 0. 0. 0.
      0. 0. 0. 0. 8.69565178e-03 0. 0. 0. 0. 0. 0. 8.69565178e-03 0. 0.
      1.73913036e-02 0. 0. 0. 0. 0. 0. 0. 0. 0. 0. 0. 0. 0. 0. 0. 0. 0.
      0. 0. 0. 0. 0. 0. 0. 0. 0. 0. 0. 0. 0. 0. 0. 0. 0. 0. 0. 0. 0. 0.
      0. 0. 0. 0. 0. 0. 0. 0. 8.69565178e-03 8.69565178e-03 0.
      8.69565178e-03 0. 0. 0. 0. 0. 0. 0. 0. 0. 0. 0. 8.69565178e-03 0.
      0. 0. 8.69565178e-03 0. 0. 0. 0. 0. 8.69565178e-03 0. 0. 0. 0. 0.
      0. 0. 0. 0. 0. 1.73913036e-02 8.69565178e-03 0. 0. 8.69565178e-03
      0. 0. 0. 0. 8.69565178e-03 0. 0. 0. 0. 0. 0. 0. 0. 0. 0. 0. 0.
      8.69565178e-03 0. 0. 0. 0. 0. 0. 0. 0. 0. 0. 0. 0. 0. 0. 0. 0. 0.
      0. 0. 0. 0. 0. 0. 0. 0. 0. 0. 8.69565178e-03 0. 0. 0. 0. 0. 0. 0.
      0. 0. 0. 0. 0. 8.69565178e-03 0. 0. 0. 0. 8.69565178e-03
      8.69565178e-03 0. 0. 8.69565178e-03 0. 0. 0. 0. 0. 0. 0. 0. 0. 0.
      1.73913036e-02 8.69565178e-03 0. 0. 8.69565178e-03 0. 0. 0. 0. 0.
      0. 0. 1.73913036e-02 0. 0. 0. 0. 4.34782580e-02 0. 0.
      8.69565178e-03 0. 0. 0. 0. 8.69565178e-03 0. 0. 0. 0. 0. 0. 0. 0.
      8.69565178e-03 0. 0. 0. 0. 0. 0. 0. 0. 0. 0. 0. 0. 0. 0. 0. 0. 0.
      0. 0. 0. 0. 8.69565178e-03 0. 0. 0. 0. 0. 0. 0. 0. 0. 0.
      8.69565178e-03 0. 0. 0. 0. 0. 0. 0. 0. 0. 0. 0. 0. 0. 0. 0. 0. 0.
      0. 0. 0. 0. 0. 0. 0. 0. 0. 0. 0. 0. 0. 0. 0. 0. 8.69565178e-03 0.
      1.73913036e-02 0. 0. 0. 0. 0. 0. 0. 0. 0. 0. 8.69565178e-03 0. 0.
      0. 0. 0. 0. 0. 0. 0. 0. 0. 0. 0. 0. 0. 0. 0. 0. 0. 0. 0. 0. 0. 0.
      0. 0. 0. 0. 0. 0. 0. 0. 0. 0. 0. 8.69565178e-03 0. 0. 0. 0. 0. 0.
      0. 0. 0. 0. 0. 8.69565178e-03 0. 0. 0. 0. 0. 0. 0. 0. 0. 0. 0. 0.
      0. 0. 0. 0. 0. 0. 0. 0. 0. 0. 0. 0. 0. 0. 0. 0. 0. 0.
      8.69565178e-03 0. 0. 0. 0. 8.69565178e-03 0. 0. 0. 0. 0. 0. 0. 0.
      0. 0. 0. 0. 8.69565178e-03 0. 0. 1.73913036e-02 0. 0. 0.
      8.69565178e-03 0. 0. 0. 0. 0. 0. 8.69565178e-03 0. 0. 0.
      8.69565178e-03 0. 0. 0. 0. 0. 0. 0. 0. 0. 0. 0. 0. 0. 0. 0.
      8.69565178e-03 0. 0. 0. 0. 8.69565178e-03 0. 0. 0. 0. 0. 0. 0. 0.
      0. 8.69565178e-03 0. 0. 0. 8.69565178e-03 0. 0. 0. 0. 0. 0. 0.
      8.69565178e-03 1.73913036e-02 0. 0. 0. 0. 0. 0. 0. 0. 0. 0. 0. 0.
      0. 8.69565178e-03 0. 0. 0. 0. 0. 0. 0. 8.69565178e-03 0. 0. 0. 0.
      0. 0. 0. 0. 0. 0. 0. 0. 0. 0. 0. 8.69565178e-03 0. 0. 0. 0. 0. 0.
      0. 0. 8.69565178e-03 0. 0. 0. 0. 0. 0. 0. 0. 0. 0. 0. 0. 0. 0. 0.
      0. 0. 0. 0. 0. 0. 0. 0. 0. 0. 8.69565178e-03 0. 0. 0. 0. 0. 0.
      8.69565178e-03 8.69565178e-03 0. 0. 0. 0. 0. 0. 0. 0. 0.
      8.69565178e-03 0. 0. 0. 0. 0. 0. 0. 0. 0. 0. 0. 0. 0. 0. 0. 0. 0.
      0. 0. 8.69565178e-03 0. 0. 0. 0. 0. 0. 0. 0. 0. 0. 2.60869563e-02
      0. 0. 0. 8.69565178e-03 0. 0. 1.73913036e-02 0. 0. 0. 0.
      8.69565178e-03 0. 0. 0. 0. 0. 0. 0. 0. 0. 0. 0. 0. 0. 0. 0. 0.
      8.69565178e-03 0. 0. 8.69565178e-03 2.60869563e-02 0. 0. 0.
      8.69565178e-03 0. 0. 0. 0. 0. 0. 8.69565178e-03 0. 0. 0. 0. 0. 0.
      0. 0. 0. 0. 0. 0. 0. 0. 0. 0. 0. 0. 0. 0. 0. 0. 0. 0. 0. 0. 0. 0.
      8.69565178e-03 0. 8.69565178e-03 0. 0. 0. 0. 0. 0. 0. 0. 0. 0. 0.
      8.69565178e-03 0. 0. 0. 0. 0. 0. 8.69565178e-03 0. 0. 0.
      8.69565178e-03 0. 0. 0. 0. 0. 0. 0. 0. 0. 0. 0. 0. 0. 0. 0. 0. 0.
      0. 1.73913036e-02 0. 0. 0. 0. 8.69565178e-03 8.69565178e-03 0. 0.
      0. 0. 0. 0. 0. 0. 0. 0. 0. 0. 0. 0. 0. 0. 0. 0. 0. 0. 0. 0. 0. 0.
      0. 0. 0. 0. 0. 0. 0. 0. 8.69565178e-03 0. 0. 0. 0. 0. 0. 0.</_>
    <_>
      3.27868834e-02 0. 0. 0. 0. 0. 0. 0. 0. 0. 0. 0. 0. 0.
      1.63934417e-02 0. 0. 0. 1.63934417e-02 0. 0. 0. 0. 0. 0. 0. 0. 0.
      1.63934417e-02 0. 0. 0. 0. 0. 0. 0. 0. 0. 0. 0. 0. 0. 0. 0. 0. 0.
      6.55737668e-02 0. 0. 0. 0. 0. 0. 0. 0. 0. 0. 0. 0. 1.63934417e-02
      0. 0. 0. 0. 0. 0. 0. 0. 0. 0. 0. 3.27868834e-02 0. 0. 0.
      1.63934417e-02 0. 0. 0. 0. 0. 0. 0. 0. 0. 0. 0. 0. 3.27868834e-02
      0. 0. 0. 0. 0. 0. 0. 0. 0. 0. 0. 0. 0. 0. 0. 0. 0. 0. 0. 0. 0. 0.
      0. 0. 0. 0. 0. 0. 0. 0. 0. 0. 0. 0. 0. 0. 0. 0. 0. 0. 0. 0. 0. 0.
      0. 0. 0. 0. 0. 0. 0. 0. 0. 0. 0. 0. 0. 0. 0. 0. 0. 0. 0. 0. 0. 0.
      0. 0. 0. 0. 0. 0. 1.63934417e-02 1.63934417e-02 0. 0. 0. 0. 0. 0.
      0. 0. 0. 0. 0. 0. 0. 0. 0. 0. 0. 1.63934417e-02 0. 0. 0. 0. 0. 0.
      0. 0. 0. 0. 0. 0. 0. 0. 0. 0. 0. 0. 0. 0. 0. 0. 0. 0. 0. 0. 0. 0.
      0. 3.27868834e-02 0. 0. 0. 1.63934417e-02 0. 0. 0. 0. 0. 0. 0. 0.
      0. 0. 0. 0. 0. 0. 0. 0. 0. 1.63934417e-02 0. 0. 0. 0. 0. 0. 0. 0.
      0. 1.63934417e-02 0. 1.63934417e-02 0. 0. 0. 0. 0. 0. 0. 0. 0. 0.
      0. 0. 0. 0. 0. 0. 0. 0. 0. 0. 0. 0. 0. 0. 0. 0. 1.63934417e-02 0.
      0. 1.63934417e-02 0. 0. 1.63934417e-02 0. 0. 0. 0. 0. 0. 0. 0. 0.
      0. 0. 0. 0. 0. 0. 0. 0. 0. 0. 0. 0. 0. 0. 0. 0. 0. 0. 0. 0. 0. 0.
      0. 0. 0. 0. 0. 0. 0. 0. 0. 0. 0. 0. 0. 1.63934417e-02
      1.63934417e-02 0. 0. 0. 0. 0. 0. 0. 0. 0. 0. 0. 0. 0.
      1.63934417e-02 0. 0. 0. 1.63934417e-02 0. 0. 0. 0. 0. 0. 0.
      3.27868834e-02 0. 0. 0. 0. 0. 0. 0. 0. 0. 0. 0. 0. 0. 0. 0. 0. 0.
      0. 0. 0. 0. 0. 0. 0. 0. 0. 0. 0. 0. 0. 1.63934417e-02 0. 0. 0. 0.
      0. 0. 0. 3.27868834e-02 0. 0. 0. 0. 0. 0. 0. 0. 0. 0. 0. 0. 0. 0.
      0. 0. 0. 0. 0. 0. 0. 0. 0. 0. 0. 0. 0. 0. 0. 0. 0. 0. 0. 0. 0. 0.
      0. 0. 1.63934417e-02 0. 0. 0. 0. 0. 0. 0. 0. 0. 0. 0. 0. 0. 0.
      1.63934417e-02 0. 0. 0. 0. 0. 0. 0. 0. 0. 0. 1.63934417e-02 0. 0.
      0. 0. 3.27868834e-02 0. 0. 0. 0. 0. 0. 0. 0. 0. 0. 0. 0. 0. 0. 0.
      0. 1.63934417e-02 0. 0. 0. 0. 0. 0. 0. 0. 0. 0. 0. 0. 0. 0. 0. 0.
      0. 0. 0. 0. 0. 0. 0. 0. 0. 0. 0. 0. 0. 0. 0. 0. 0. 0. 0. 0. 0. 0.
      0. 0. 0. 0. 0. 0. 0. 0. 0. 0. 0. 0. 0. 0. 0. 0. 0. 0. 0. 0. 0. 0.
      0. 0. 0. 1.63934417e-02 0. 0. 0. 0. 1.63934417e-02 0. 0. 0. 0. 0.
      0. 0. 0. 1.63934417e-02 0. 0. 0. 0. 0. 0. 0. 0. 0. 0. 0. 0. 0. 0.
      0. 0. 0. 0. 0. 0. 0. 0. 0. 0. 0. 0. 0. 0. 0. 0. 0. 0. 0. 0. 0. 0.
      0. 0. 0. 0. 0. 0. 0. 0. 0. 0. 0. 0. 0. 0. 0. 0. 0. 0. 0. 0. 0. 0.
      0. 0. 0. 0. 0. 0. 0. 0. 0. 0. 0. 0. 0. 0. 0. 0. 0. 0. 0. 0. 0. 0.
      0. 0. 0. 0. 0. 1.63934417e-02 0. 0. 0. 0. 0. 0. 0. 0. 0. 0. 0. 0.
      0. 0. 0. 0. 0. 0. 0. 0. 0. 0. 0. 0. 0. 0. 0. 1.63934417e-02 0. 0.
      0. 0. 0. 0. 0. 0. 0. 0. 0. 0. 0. 0. 0. 0. 0. 0. 0. 0. 0. 0. 0. 0.
      0. 0. 0. 0. 0. 0. 0. 0. 0. 0. 0. 0. 0. 0. 0. 0. 0. 0. 0. 0. 0. 0.
      0. 0. 0. 0. 0. 0. 0. 0. 0. 0. 0. 0. 0. 0. 0. 0. 0. 0. 0. 0. 0. 0.
      0. 0. 0. 0. 0. 0. 0. 0. 0. 0. 0. 0. 0. 0. 0. 0. 0. 0. 0. 0. 0. 0.
      0. 0. 0. 0. 0. 0. 0. 0. 0. 0. 0. 0. 0. 1.63934417e-02 0. 0. 0. 0.
      0. 0. 0. 0. 0. 0. 0. 0. 0. 0. 1.63934417e-02 0. 0. 0. 0. 0. 0. 0.
      0. 0. 0. 0. 0. 0. 0. 0. 0. 0. 0. 1.63934417e-02 0. 0. 0.
      1.63934417e-02 0. 0. 0. 0. 0. 0. 0. 0. 0. 0. 1.63934417e-02 0. 0.
      0. 0. 1.63934417e-02 0. 0. 0. 0. 0. 0. 0. 0. 0. 0. 0. 0.
      1.63934417e-02 0. 0. 0. 0. 0. 0. 0. 0. 0. 0. 0. 0. 0. 0. 0.
      1.63934417e-02 0. 0. 0. 0. 0. 0. 0. 0. 0. 0. 0. 0. 0. 0. 0. 0. 0.
      0. 0. 0. 0. 0. 0. 0. 0. 0. 0. 0. 0. 0. 0. 0. 0. 0. 0. 0. 0. 0. 0.
      0. 0. 0. 0. 0. 0. 0. 0. 0. 0. 0. 0. 0. 0. 0. 0. 0. 0. 0. 0. 0. 0.
      0. 0. 0. 0. 0. 0. 0. 0. 0. 0. 0. 0. 0. 0. 1.63934417e-02 0. 0. 0.
      0. 0. 0. 0. 0. 0. 0. 0. 0. 0. 0. 0. 0. 0. 0. 0. 0. 0. 0.
      1.63934417e-02 0. 0. 0. 0. 0. 1.63934417e-02 0. 0. 0. 0. 0. 0.
      1.63934417e-02 0. 0. 0. 0. 0. 0. 0. 0. 0. 0. 0. 0. 0. 0. 0. 0. 0.
      0. 0. 0. 0. 0. 0. 0. 0. 0. 0. 0. 1.63934417e-02 1.63934417e-02 0.
      0. 0.</_>
    <_>
      0. 0. 0. 0. 0. 0. 0. 0. 0. 0. 0. 0. 0. 0. 0. 0. 0. 0. 0. 0. 0. 0.
      0. 0. 0. 0. 0. 0. 0. 0. 0. 0. 0. 0. 0. 0. 0. 0. 0. 0. 0. 0. 0. 0.
      0. 0. 5.55555560e-02 0. 0. 0. 0. 0. 0. 0. 0. 0. 0. 0. 0. 0. 0. 0.
      0. 0. 1.66666672e-01 0. 0. 0. 0. 0. 0. 5.55555560e-02 0. 0. 0.
      5.55555560e-02 0. 0. 0. 0. 0. 0. 0. 0. 0. 0. 0. 0. 0. 0. 0. 0. 0.
      0. 0. 0. 0. 0. 0. 0. 0. 0. 0. 0. 0. 0. 0. 0. 0. 0. 0. 0. 0. 0. 0.
      0. 0. 0. 0. 0. 0. 0. 0. 0. 0. 0. 0. 0. 0. 0. 0. 0. 0. 0. 0. 0. 0.
      0. 0. 0. 0. 0. 0. 0. 0. 0. 0. 0. 0. 0. 0. 0. 0. 0. 0. 0. 0. 0. 0.
      0. 0. 0. 5.55555560e-02 0. 0. 0. 0. 0. 0. 0. 0. 0. 0. 0. 0. 0. 0.
      0. 0. 0. 0. 0. 0. 0. 0. 0. 0. 0. 0. 0. 0. 0. 0. 0. 0. 0. 0. 0. 0.
      0. 0. 0. 0. 0. 0. 0. 0. 0. 0. 0. 0. 0. 0. 0. 5.55555560e-02 0. 0.
      0. 0. 0. 0. 0. 0. 0. 0. 0. 0. 0. 0. 0. 0. 0. 0. 0. 0. 0. 0. 0. 0.
      0. 0. 0. 0. 0. 0. 0. 0. 0. 0. 0. 0. 0. 0. 0. 0. 0. 0. 0. 0. 0. 0.
      0. 0. 0. 0. 0. 0. 0. 0. 0. 0. 5.55555560e-02 0. 0. 0. 0. 0.
      1.11111112e-01 0. 0. 0. 0. 0. 0. 0. 0. 0. 0. 0. 0. 0. 0. 0. 0. 0.
      0. 0. 0. 0. 0. 0. 0. 0. 0. 0. 0. 0. 0. 0. 0. 0. 0. 0. 0. 0. 0. 0.
      0. 0. 0. 0. 0. 0. 0. 0. 0. 0. 0. 0. 0. 0. 0. 0. 0. 0. 0. 0. 0. 0.
      0. 0. 5.55555560e-02 0. 0. 0. 0. 0. 0. 0. 0. 0. 0. 0. 0. 0. 0. 0.
      0. 0. 0. 0. 0. 0. 0. 0. 0. 0. 0. 0. 0. 0. 0. 0. 0. 0. 0. 0. 0. 0.
      0. 5.55555560e-02 0. 0. 0. 0. 0. 0. 0. 0. 0. 0. 0. 0. 0. 0. 0. 0.
      0. 0. 0. 0. 0. 0. 0. 0. 0. 0. 0. 0. 0. 0. 0. 0. 0. 0. 0. 0. 0. 0.
      0. 0. 0. 0. 0. 0. 0. 0. 0. 0. 0. 0. 0. 0. 0. 0. 0. 0. 0. 0. 0. 0.
      0. 0. 0. 0. 0. 0. 0. 0. 0. 0. 0. 0. 0. 0. 0. 0. 0. 0. 0. 0. 0. 0.
      0. 0. 0. 0. 0. 0. 0. 0. 0. 0. 0. 0. 0. 0. 0. 0. 0. 0. 0. 0. 0. 0.
      0. 0. 0. 0. 0. 0. 0. 0. 0. 0. 0. 0. 0. 0. 0. 0. 0. 0. 0. 0. 0. 0.
      0. 0. 0. 0. 0. 0. 0. 0. 0. 0. 0. 0. 0. 0. 0. 0. 0. 0. 0. 0. 0. 0.
      0. 0. 0. 0. 0. 0. 0. 0. 0. 0. 5.55555560e-02 0. 0. 0. 0. 0. 0. 0.
      0. 0. 0. 0. 0. 0. 0. 0. 0. 0. 0. 0. 0. 0. 0. 0. 0. 0. 0. 0. 0. 0.
      0. 0. 0. 5.55555560e-02 0. 0. 0. 0. 0. 0. 0. 0. 0. 0. 0. 0. 0. 0.
      0. 0. 0. 0. 0. 0. 0. 0. 0. 0. 0. 0. 0. 0. 0. 0. 5.55555560e-02 0.
      0. 0. 0. 0. 0. 0. 0. 0. 0. 0. 0. 0. 0. 0. 0. 0. 0. 0. 0. 0. 0. 0.
      0. 0. 0. 0. 0. 0. 0. 0. 0. 0. 0. 0. 0. 0. 0. 0. 0. 0. 0. 0. 0. 0.
      0. 0. 0. 0. 0. 0. 0. 0. 0. 0. 0. 0. 0. 0. 0. 0. 0. 0.
      5.55555560e-02 0. 0. 0. 0. 0. 0. 0. 0. 0. 0. 0. 0. 0. 0. 0. 0. 0.
      0. 0. 0. 0. 0. 0. 0. 0. 0. 0. 0. 0. 0. 0. 0. 0. 0. 0. 0. 0. 0. 0.
      0. 0. 0. 0. 0. 0. 0. 0. 0. 0. 0. 0. 0. 0. 0. 0. 0. 0. 0. 0. 0. 0.
      0. 0. 0. 0. 0. 0. 0. 0. 0. 0. 0. 0. 0. 0. 0. 0. 0. 0. 0. 0. 0. 0.
      0. 0. 0. 0. 0. 0. 0. 0. 0. 0. 0. 0. 0. 0. 0. 0. 0. 0. 0. 0. 0. 0.
      0. 0. 0. 0. 0. 0. 0. 0. 0. 0. 0. 0. 0. 0. 0. 0. 0. 0. 0. 0. 0. 0.
      0. 0. 0. 0. 0. 0. 0. 0. 0. 0. 0. 0. 0. 0. 0. 0. 0. 0. 0. 0. 0. 0.
      0. 0. 0. 0. 0. 0. 0. 0. 0. 0. 0. 0. 0. 0. 0. 0. 0. 0. 0. 0. 0. 0.
      0. 0. 0. 0. 0. 0. 0. 0. 0. 0. 0. 0. 0. 0. 0. 0. 0. 0. 0. 0. 0. 0.
      0. 0. 0. 0. 0. 0. 0. 0. 0. 0. 0. 0. 0. 0. 0. 0. 0. 0. 0. 0. 0. 0.
      0. 0. 0. 0. 0. 0. 0. 0. 0. 0. 0. 0. 0. 0. 0. 0. 0. 0. 0. 0. 0. 0.
      0. 0. 0. 0. 0. 0. 0. 0. 0. 0. 0. 0. 0. 0. 0. 0. 0. 0. 0. 0. 0. 0.
      0. 0. 0. 0. 0. 0. 0. 0. 0. 0. 0. 0. 0. 0. 0. 0. 0. 0. 0. 0. 0. 0.
      0. 0. 0. 0. 0. 0. 0. 0. 0. 0. 5.55555560e-02 0. 0. 0. 0. 0. 0. 0.
      0. 0. 0. 0. 0. 0. 0. 0. 0. 0. 0. 0. 0. 0. 0. 0. 0. 0. 0. 0. 0. 0.
      0. 0. 0. 0. 0. 0. 0. 0. 0. 0. 0.</_>
    <_>
      0. 0. 0. 0. 0. 0. 0. 0. 0. 0. 0. 0. 0. 0. 0. 0. 0. 0. 0. 0. 0. 0.
      0. 0. 0. 0. 0. 0. 0. 0. 0. 0. 0. 0. 0. 0. 0. 0. 0. 0. 0. 0. 0. 0.
      0. 0. 0. 0. 0. 0. 0. 0. 0. 0. 0. 0. 0. 0. 0. 0. 0. 0. 0. 0.
      1.53846160e-01 0. 0. 0. 0. 0. 0. 7.69230798e-02 0. 0. 0.
      7.69230798e-02 0. 0. 0. 0. 0. 0. 0. 0. 0. 0. 0. 0. 0. 0. 0. 0. 0.
      0. 0. 0. 0. 0. 0. 0. 0. 0. 0. 0. 0. 0. 0. 0. 0. 0. 0. 0. 0. 0. 0.
      0. 0. 0. 0. 0. 0. 0. 0. 0. 0. 0. 0. 0. 0. 0. 0. 0. 0. 0. 0. 0. 0.
      0. 0. 0. 0. 0. 0. 0. 0. 0. 0. 0. 0. 0. 0. 0. 0. 0. 0. 0. 0. 0. 0.
      0. 0. 0. 7.69230798e-02 0. 0. 0. 0. 0. 0. 0. 0. 0. 0. 0. 0. 0. 0.
      0. 0. 0. 0. 0. 0. 0. 0. 0. 0. 0. 0. 0. 0. 0. 0. 0. 0. 0. 0. 0. 0.
      0. 0. 0. 0. 0. 0. 0. 0. 0. 0. 0. 0. 0. 0. 0. 7.69230798e-02 0. 0.
      0. 0. 0. 0. 0. 0. 0. 0. 0. 0. 0. 0. 0. 0. 0. 0. 0. 0. 0. 0. 0. 0.
      0. 0. 0. 0. 0. 0. 0. 0. 0. 0. 0. 0. 0. 0. 0. 0. 0. 0. 0. 0. 0. 0.
      0. 0. 0. 0. 0. 0. 0. 0. 0. 0. 7.69230798e-02 0. 0. 0. 0. 0. 0. 0.
      0. 0. 0. 0. 0. 0. 0. 0. 0. 0. 0. 0. 0. 0. 0. 0. 0. 0. 0. 0. 0. 0.
      0. 0. 0. 0. 0. 0. 0. 0. 0. 0. 0. 0. 0. 0. 0. 0. 0. 0. 0. 0. 0. 0.
      0. 0. 0. 0. 0. 0. 0. 0. 0. 0. 0. 0. 0. 0. 0. 0. 0. 0.
      7.69230798e-02 0. 0. 0. 0. 0. 0. 0. 0. 0. 0. 0. 0. 0. 0. 0. 0. 0.
      0. 0. 0. 0. 0. 0. 0. 0. 0. 0. 0. 0. 0. 0. 0. 0. 0. 0. 0. 0. 0.
      7.69230798e-02 0. 0. 0. 0. 0. 0. 0. 0. 0. 0. 0. 0. 0. 0. 0. 0. 0.
      0. 0. 0. 0. 0. 0. 0. 0. 0. 0. 0. 0. 0. 0. 0. 0. 0. 0. 0. 0. 0. 0.
      0. 0. 0. 0. 0. 0. 0. 0. 0. 0. 0. 0. 0. 0. 0. 0. 0. 0. 0. 0. 0. 0.
      0. 0. 0. 0. 0. 0. 0. 0. 0. 0. 0. 0. 0. 0. 0. 0. 0. 0. 0. 0. 0. 0.
      0. 0. 0. 0. 0. 0. 0. 0. 0. 0. 0. 0. 0. 0. 0. 0. 0. 0. 0. 0. 0. 0.
      0. 0. 0. 0. 0. 0. 0. 0. 0. 0. 0. 0. 0. 0. 0. 0. 0. 0. 0. 0. 0. 0.
      0. 0. 0. 0. 0. 0. 0. 0. 0. 0. 0. 0. 0. 0. 0. 0. 0. 0. 0. 0. 0. 0.
      0. 0. 0. 0. 0. 0. 0. 0. 0. 0. 0. 0. 0. 0. 0. 0. 0. 0. 0. 0. 0. 0.
      0. 0. 0. 0. 0. 0. 0. 0. 0. 0. 0. 0. 0. 0. 0. 0. 0. 0. 0. 0.
      7.69230798e-02 0. 0. 0. 0. 0. 0. 0. 0. 0. 0. 0. 0. 0. 0. 0. 0. 0.
      0. 0. 0. 7.69230798e-02 0. 0. 0. 0. 0. 0. 0. 0. 0. 0. 0. 0. 0. 0.
      0. 0. 0. 0. 0. 0. 0. 0. 0. 0. 0. 0. 0. 0. 0. 0. 0. 0. 0. 0. 0. 0.
      0. 0. 0. 0. 0. 0. 0. 0. 0. 0. 0. 0. 0. 0. 0. 0. 0. 0. 0. 0. 0. 0.
      0. 0. 0. 0. 0. 0. 0. 0. 0. 0. 0. 0. 0. 0. 0. 0. 0. 0. 0. 0. 0. 0.
      0. 0. 0. 0. 0. 0. 0. 0. 0. 0. 0. 0. 0. 0. 0. 0. 0. 0. 0. 0. 0. 0.
      0. 0. 0. 0. 0. 0. 0. 0. 0. 0. 0. 0. 0. 0. 0. 0. 0. 0. 0. 0. 0. 0.
      0. 0. 0. 0. 0. 0. 0. 0. 0. 0. 0. 0. 0. 0. 0. 0. 0. 0. 0. 0. 0. 0.
      0. 7.69230798e-02 0. 0. 0. 0. 0. 0. 0. 0. 0. 0. 0. 0. 0. 0. 0. 0.
      0. 0. 0. 0. 0. 0. 0. 0. 0. 0. 0. 0. 0. 0. 0. 0. 0. 0. 0. 0. 0. 0.
      0. 0. 0. 0. 0. 0. 0. 0. 0. 0. 0. 0. 0. 0. 0. 0. 0. 0. 0. 0. 0. 0.
      0. 0. 0. 0. 0. 0. 0. 7.69230798e-02 0. 0. 0. 0. 0. 0. 0. 0. 0. 0.
      0. 0. 0. 0. 0. 0. 0. 0. 0. 0. 0. 0. 0. 0. 0. 0. 0. 0. 0. 0. 0. 0.
      0. 0. 0. 0. 0. 0. 0. 0. 0. 0. 0. 0. 0. 0. 0. 0. 0. 0. 0. 0. 0. 0.
      0. 0. 0. 0. 0. 0. 0. 0. 0. 0. 0. 0. 0. 0. 0. 0. 0. 0. 0. 0. 0. 0.
      0. 0. 0. 0. 0. 0. 0. 0. 0. 0. 0. 0. 0. 0. 0. 0. 0. 0. 0. 0. 0. 0.
      0. 0. 0. 0. 0. 0. 0. 0. 0. 0. 0. 0. 0. 0. 0. 0. 0. 0. 0. 0. 0. 0.
      0. 0. 0. 0. 0. 0. 0. 0. 0. 0. 0. 0. 0. 0. 0. 0. 0. 0. 0. 0. 0. 0.
      0. 0. 0. 0. 0. 0. 0. 0. 0. 0. 0. 0. 0. 0. 0. 0. 0. 0. 0. 0. 0. 0.
      0. 0. 0. 0. 0. 0. 0. 0. 0. 0. 0. 0. 0. 0. 0. 0. 0. 0. 0. 0. 0. 0.
      0. 0. 0. 0.</_>
    <_>
      0. 0. 0. 0. 0. 0. 0. 0. 0. 0. 0. 0. 0. 0. 0. 0. 0. 0. 0. 0. 0. 0.
      0. 0. 0. 0. 0. 0. 0. 0. 0. 0. 0. 0. 0. 0. 0. 0. 0. 0. 0. 0. 0. 0.
      0. 0. 0. 0. 0. 0. 0. 0. 0. 0. 0. 0. 0. 0. 0. 0. 0. 0. 0. 0.
      6.66666701e-02 0. 0. 0. 0. 0. 0. 6.66666701e-02 0. 0. 0.
      6.66666701e-02 0. 0. 0. 0. 0. 0. 0. 0. 0. 0. 0. 0. 0. 0. 0. 0. 0.
      0. 0. 0. 0. 0. 0. 0. 0. 0. 0. 0. 0. 0. 0. 0. 0. 0. 0. 0. 0. 0. 0.
      0. 0. 0. 0. 0. 0. 0. 0. 0. 0. 0. 0. 0. 0. 0. 0. 0. 0. 0. 0. 0. 0.
      0. 0. 0. 0. 0. 0. 0. 0. 0. 0. 0. 0. 0. 0. 0. 0. 0. 0. 0. 0. 0. 0.
      0. 0. 0. 6.66666701e-02 0. 0. 0. 0. 0. 0. 0. 0. 0. 0. 0. 0. 0. 0.
      0. 0. 0. 0. 0. 0. 0. 0. 0. 0. 0. 0. 0. 0. 0. 0. 0. 0. 0. 0. 0. 0.
      0. 0. 0. 0. 0. 0. 0. 0. 0. 0. 0. 6.66666701e-02 0. 0. 0.
      6.66666701e-02 0. 0. 0. 0. 0. 0. 0. 0. 0. 0. 0. 0. 0. 0. 0. 0. 0.
      0. 0. 0. 0. 0. 0. 0. 0. 0. 0. 0. 0. 0. 0. 0. 0. 0. 0. 0. 0. 0. 0.
      0. 0. 0. 0. 0. 0. 0. 0. 0. 0. 0. 0. 0. 0. 0. 0. 0. 6.66666701e-02
      0. 0. 0. 0. 0. 6.66666701e-02 0. 0. 0. 0. 0. 0. 0. 0. 0. 0. 0. 0.
      0. 0. 0. 0. 0. 0. 0. 0. 0. 0. 0. 0. 0. 0. 0. 0. 0. 0. 0. 0. 0. 0.
      0. 0. 0. 0. 0. 0. 0. 0. 0. 0. 0. 0. 0. 0. 0. 0. 0. 0. 0. 0. 0. 0.
      0. 0. 0. 0. 0. 0. 0. 6.66666701e-02 0. 0. 0. 0. 0. 0. 0.
      6.66666701e-02 0. 0. 0. 0. 0. 0. 0. 0. 0. 0. 0. 0. 0. 0. 0. 0. 0.
      0. 0. 0. 0. 0. 0. 0. 0. 0. 0. 0. 0. 0. 6.66666701e-02 0. 0. 0. 0.
      0. 6.66666701e-02 0. 0. 0. 0. 0. 0. 0. 0. 0. 0. 0. 0. 0. 0. 0. 0.
      0. 0. 0. 0. 0. 0. 0. 0. 0. 0. 0. 0. 0. 0. 0. 0. 0. 0. 0. 0. 0. 0.
      0. 0. 0. 0. 0. 0. 0. 0. 0. 0. 0. 0. 0. 0. 0. 0. 0. 0. 0. 0. 0. 0.
      0. 0. 0. 0. 0. 0. 0. 0. 0. 0. 0. 0. 0. 0. 0. 0. 0. 0. 0. 0. 0. 0.
      0. 0. 0. 0. 0. 0. 0. 0. 0. 0. 0. 0. 0. 0. 0. 0. 0. 0. 0. 0. 0. 0.
      0. 0. 0. 0. 0. 0. 0. 0. 0. 0. 0. 0. 0. 0. 0. 0. 0. 0. 0. 0. 0. 0.
      0. 0. 0. 0. 0. 0. 0. 0. 0. 0. 0. 0. 0. 0. 0. 0. 0. 0. 0. 0. 0. 0.
      0. 0. 0. 0. 0. 0. 0. 0. 0. 0. 0. 0. 0. 0. 0. 0. 0. 0. 0. 0. 0. 0.
      0. 0. 0. 0. 0. 0. 0. 0. 0. 0. 0. 0. 0. 0. 0. 0. 0. 0. 0. 0. 0. 0.
      0. 0. 0. 0. 0. 0. 0. 0. 0. 0. 0. 0. 0. 0. 0. 0. 0. 0. 0. 0. 0. 0.
      0. 0. 0. 0. 0. 0. 0. 0. 0. 0. 0. 0. 0. 0. 0. 0. 0. 0. 0. 0. 0. 0.
      0. 0. 0. 0. 0. 0. 0. 0. 0. 0. 0. 0. 0. 0. 0. 0. 0. 0. 0. 0. 0. 0.
      0. 0. 0. 0. 0. 0. 0. 0. 0. 0. 0. 0. 0. 0. 0. 0. 0. 0. 0. 0. 0. 0.
      0. 0. 0. 0. 0. 0. 0. 0. 0. 0. 0. 0. 0. 0. 0. 0. 0. 0. 0. 0. 0. 0.
      0. 0. 0. 0. 0. 0. 0. 0. 0. 0. 0. 0. 0. 0. 0. 0. 0. 0. 0. 0. 0. 0.
      0. 0. 0. 0. 0. 0. 0. 0. 0. 0. 0. 0. 0. 0. 0. 0. 0. 0. 0. 0. 0. 0.
      0. 0. 0. 0. 0. 0. 0. 0. 6.66666701e-02 0. 0. 0. 0. 0. 0. 0. 0. 0.
      0. 0. 0. 0. 0. 0. 0. 0. 0. 0. 0. 0. 0. 0. 0. 0. 0. 0. 0. 0. 0. 0.
      0. 0. 0. 0. 0. 0. 0. 0. 0. 0. 0. 0. 0. 6.66666701e-02 0. 0. 0. 0.
      0. 0. 0. 0. 0. 0. 0. 0. 0. 0. 0. 0. 0. 0. 0. 0. 0. 0. 0. 0. 0. 0.
      0. 0. 0. 0. 0. 0. 0. 0. 0. 0. 0. 0. 0. 0. 0. 0. 0. 0. 0. 0. 0. 0.
      0. 0. 0. 0. 0. 0. 0. 0. 0. 0. 0. 0. 0. 0. 0. 0. 0. 0. 0. 0. 0. 0.
      0. 0. 0. 0. 0. 0. 0. 0. 0. 0. 0. 0. 0. 0. 0. 0. 0. 0. 0. 0. 0. 0.
      0. 0. 0. 0. 0. 0. 0. 0. 0. 0. 0. 0. 0. 0. 0. 0. 0. 0. 0. 0. 0. 0.
      0. 0. 0. 0. 0. 0. 0. 0. 0. 0. 0. 0. 0. 0. 0. 0. 0. 0. 0. 0. 0. 0.
      0. 0. 0. 0. 0. 0. 0. 0. 0. 0. 0. 0. 0. 0. 0. 0. 0. 0. 0. 0. 0. 0.
      0. 0. 0. 0. 0. 0. 0. 0. 0. 0. 0. 0. 0. 0. 6.66666701e-02 0. 0. 0.
      0. 0. 0. 0. 0. 0. 0. 0. 0. 0. 0. 0. 0. 0. 0. 0. 0. 0. 0. 0. 0. 0.
      0. 0. 0. 0. 0. 0. 0. 0. 0. 0. 0. 0. 0. 0. 0.</_>
    <_>
      1.25000002e-02 0. 0. 0. 0. 0. 0. 0. 0. 0. 0. 0. 0. 0. 0. 0. 0. 0.
      0. 0. 1.25000002e-02 0. 0. 0. 0. 0. 0. 0. 0. 0. 0. 0. 0. 0. 0. 0.
      0. 0. 0. 0. 0. 0. 0. 0. 0. 0. 0. 0. 0. 0. 0. 0. 0. 0. 0. 0. 0. 0.
      0. 0. 0. 0. 0. 1.25000002e-02 0. 0. 0. 0. 0. 0. 0. 1.25000002e-02
      0. 0. 0. 1.25000002e-02 0. 0. 0. 0. 0. 0. 0. 0. 0. 0. 0. 0. 0. 0.
      0. 0. 0. 0. 0. 0. 0. 0. 0. 0. 0. 0. 0. 0. 0. 1.25000002e-02 0. 0.
      0. 0. 0. 0. 0. 0. 0. 0. 0. 0. 0. 0. 0. 0. 0. 1.25000002e-02 0. 0.
      0. 0. 0. 0. 0. 0. 0. 0. 0. 0. 0. 0. 0. 0. 0. 1.25000002e-02 0.
      1.25000002e-02 0. 0. 0. 0. 0. 0. 0. 0. 0. 0. 0. 0. 0. 0. 0. 0. 0.
      0. 1.25000002e-02 0. 0. 0. 0. 0. 0. 0. 0. 0. 0. 0. 0. 0. 0. 0. 0.
      0. 1.25000002e-02 0. 0. 0. 0. 0. 0. 0. 0. 0. 0. 0. 0.
      1.25000002e-02 0. 0. 0. 0. 0. 0. 0. 0. 1.25000002e-02 0. 0. 0. 0.
      0. 0. 0. 0. 0. 0. 0. 1.25000002e-02 0. 0. 0. 0. 0. 0. 0. 0. 0. 0.
      0. 0. 0. 0. 0. 0. 0. 2.50000004e-02 0. 0. 0. 0. 0. 0. 0. 0. 0. 0.
      0. 0. 0. 0. 0. 0. 0. 0. 0. 0. 0. 0. 0. 0. 0. 0. 0. 0. 0. 0. 0. 0.
      0. 0. 0. 0. 0. 0. 1.25000002e-02 0. 0. 0. 1.25000002e-02 0. 0. 0.
      0. 0. 0. 0. 0. 0. 0. 0. 0. 0. 0. 1.25000002e-02 0. 0. 0. 0. 0. 0.
      0. 0. 0. 0. 0. 0. 0. 0. 0. 0. 0. 0. 0. 0. 0. 0. 0. 0. 0. 0. 0. 0.
      0. 0. 0. 0. 1.25000002e-02 0. 1.25000002e-02 0. 0. 0. 0. 0. 0. 0.
      0. 0. 0. 0. 0. 0. 0. 0. 0. 0. 0. 0. 0. 0. 1.25000002e-02 0. 0. 0.
      0. 0. 0. 0. 0. 0. 0. 0. 0. 0. 0. 0. 0. 0. 0. 0. 0. 0. 0. 0. 0. 0.
      0. 0. 0. 0. 0. 0. 0. 1.25000002e-02 0. 0. 0. 0. 0. 0. 0. 0. 0. 0.
      0. 0. 0. 0. 1.25000002e-02 0. 0. 0. 0. 0. 0. 0. 0. 0. 0. 0. 0. 0.
      0. 0. 0. 0. 0. 0. 0. 0. 0. 0. 0. 0. 0. 0. 0. 0. 0. 1.25000002e-02
      0. 0. 0. 0. 0. 0. 0. 0. 0. 0. 0. 0. 0. 0. 0. 1.25000002e-02 0. 0.
      0. 0. 0. 0. 0. 0. 0. 0. 1.25000002e-02 0. 0. 0. 1.25000002e-02
      1.25000002e-02 0. 0. 0. 1.25000002e-02 0. 0. 0. 1.25000002e-02 0.
      0. 0. 0. 0. 0. 0. 0. 0. 0. 0. 0. 0. 0. 1.25000002e-02 0. 0. 0. 0.
      0. 0. 0. 0. 0. 0. 0. 0. 0. 0. 0. 1.25000002e-02 0. 0. 0. 0. 0. 0.
      0. 0. 0. 0. 0. 0. 0. 0. 0. 0. 0. 0. 0. 0. 0. 0. 0. 0.
      1.25000002e-02 0. 0. 0. 0. 0. 0. 0. 0. 0. 0. 0. 0. 0. 0. 0. 0.
      1.25000002e-02 0. 0. 0. 0. 0. 0. 0. 0. 0. 0. 0. 0. 0. 0. 0. 0. 0.
      0. 0. 0. 1.25000002e-02 0. 0. 0. 0. 0. 0. 0. 0. 0. 0.
      1.25000002e-02 0. 0. 0. 0. 0. 0. 0. 0. 1.25000002e-02 0. 0. 0. 0.
      0. 0. 0. 0. 0. 0. 0. 0. 0. 0. 0. 0. 0. 0. 0. 0. 0. 0.
      2.50000004e-02 0. 0. 0. 0. 0. 1.25000002e-02 0. 0. 0. 0. 0.
      1.25000002e-02 0. 0. 0. 0. 0. 0. 0. 0. 0. 0. 0. 0. 0. 0. 0. 0. 0.
      0. 0. 0. 0. 0. 0. 1.25000002e-02 0. 1.25000002e-02 0. 0. 0. 0. 0.
      0. 0. 2.50000004e-02 0. 0. 0. 0. 0. 0. 1.25000002e-02 0. 0. 0. 0.
      0. 0. 0. 0. 0. 0. 1.25000002e-02 0. 0. 0. 1.25000002e-02 0. 0.
      1.25000002e-02 1.25000002e-02 0. 0. 0. 0. 0. 0. 0. 0. 0. 0. 0. 0.
      0. 0. 0. 0. 0. 0. 0. 0. 0. 0. 0. 0. 0. 0. 0. 0. 0. 0. 0. 0. 0. 0.
      0. 0. 0. 0. 0. 0. 1.25000002e-02 0. 0. 0. 0. 0. 0. 0. 0. 0. 0. 0.
      0. 0. 0. 0. 0. 0. 0. 0. 0. 3.75000015e-02 0. 0. 0. 1.25000002e-02
      0. 0. 0. 0. 0. 0. 0. 0. 0. 0. 0. 0. 0. 0. 1.25000002e-02 0. 0. 0.
      0. 0. 0. 0. 1.25000002e-02 0. 0. 0. 1.25000002e-02 0. 0. 0. 0. 0.
      0. 0. 0. 0. 0. 0. 0. 0. 0. 0. 0. 0. 0. 0. 0. 0. 0. 0. 0. 0. 0. 0.
      0. 0. 0. 0. 0. 0. 0. 0. 0. 0. 0. 0. 0. 3.75000015e-02 0. 0. 0. 0.
      0. 1.25000002e-02 0. 0. 0. 0. 0. 0. 0. 0. 0. 0. 0. 0. 0.
      2.50000004e-02 0. 0. 0. 0. 0. 0. 0. 0. 1.25000002e-02 0. 0. 0. 0.
      1.25000002e-02 0. 1.25000002e-02 0. 0. 0. 0. 0. 0. 0. 0. 0. 0. 0.
      0. 0. 0. 0. 0. 0. 0. 0. 0. 0. 1.25000002e-02 0. 0. 0. 0. 0. 0. 0.
      0. 0. 0. 0. 0. 0. 0. 0. 0. 0. 0. 1.25000002e-02 0. 0. 0. 0. 0. 0.
      0. 0. 0. 1.25000002e-02 0. 0. 0. 0. 0. 0. 0. 0. 0. 0. 0. 0. 0.
      1.25000002e-02 0. 0. 0. 0. 1.25000002e-02 0. 0. 0. 0. 0. 0. 0. 0.
      0. 0. 0. 0. 0. 0. 0. 0. 0. 0. 0. 0. 0. 0. 0. 0. 0. 1.25000002e-02
      0. 0. 0. 0. 0. 0. 0. 0. 0. 0. 0. 1.25000002e-02 0. 1.25000002e-02
      0. 1.25000002e-02 2.50000004e-02 0. 0. 0. 0. 0. 0. 0. 0. 0. 0. 0.
      0. 0. 0. 0. 0. 0. 0. 0. 0. 0. 0. 0. 0. 0. 0. 1.25000002e-02 0. 0.
      0. 0. 0. 0. 0. 0. 0. 0. 0. 0. 0. 0.</_>
    <_>
      3.07692308e-02 0. 0. 0. 0. 0. 0. 0. 0. 0. 0. 0. 0. 0. 0. 0. 0. 0.
      0. 0. 0. 0. 0. 0. 0. 0. 0. 0. 0. 0. 0. 0. 0. 0. 0. 0. 0. 0. 0. 0.
      0. 0. 0. 0. 0. 1.53846154e-02 1.53846154e-02 0. 0. 0. 0. 0. 0. 0.
      0. 0. 0. 0. 0. 0. 0. 0. 0. 1.53846154e-02 1.53846154e-02 0. 0. 0.
      0. 0. 0. 1.53846154e-02 0. 1.53846154e-02 0. 1.53846154e-02 0. 0.
      0. 3.07692308e-02 0. 0. 0. 0. 0. 1.53846154e-02 0. 0. 0. 0. 0. 0.
      1.53846154e-02 0. 0. 0. 0. 0. 0. 0. 0. 0. 0. 0. 0. 1.53846154e-02
      0. 0. 0. 0. 0. 0. 0. 0. 0. 0. 0. 0. 0. 0. 0. 0. 0. 0. 0. 0. 0. 0.
      0. 0. 0. 0. 0. 0. 0. 0. 0. 0. 0. 0. 0. 0. 0. 1.53846154e-02 0. 0.
      0. 0. 0. 0. 0. 0. 0. 0. 0. 0. 0. 0. 0. 0. 0. 0. 1.53846154e-02 0.
      0. 0. 0. 0. 0. 0. 0. 0. 0. 0. 0. 0. 0. 0. 0. 0. 0. 0. 0. 0. 0. 0.
      0. 0. 0. 0. 0. 0. 0. 0. 0. 0. 0. 0. 0. 0. 0. 0. 0. 0. 0. 0. 0. 0.
      0. 0. 0. 0. 0. 0. 1.53846154e-02 0. 0. 0. 0. 0. 0. 0. 0. 0. 0. 0.
      0. 0. 0. 0. 0. 0. 3.07692308e-02 0. 1.53846154e-02 0. 0. 0. 0. 0.
      0. 0. 0. 0. 0. 0. 0. 0. 0. 0. 0. 0. 0. 0. 0. 0. 0. 0. 0. 0. 0. 0.
      0. 0. 0. 0. 0. 0. 0. 0. 0. 1.53846154e-02 0. 0. 0. 0. 0. 0. 0. 0.
      0. 0. 0. 0. 0. 0. 0. 0. 0. 0. 0. 0. 0. 0. 0. 0. 0. 0. 0. 0. 0. 0.
      0. 0. 0. 0. 0. 0. 0. 0. 0. 0. 0. 0. 0. 0. 0. 0. 0. 0. 0. 0. 0.
      1.53846154e-02 0. 0. 1.53846154e-02 0. 0. 0. 0. 0. 0. 0. 0. 0. 0.
      0. 0. 0. 0. 1.53846154e-02 0. 0. 0. 0. 0. 0. 0. 3.07692308e-02 0.
      0. 0. 0. 0. 0. 0. 0. 0. 0. 0. 0. 0. 0. 0. 0. 0. 0. 0. 0. 0. 0. 0.
      0. 0. 0. 0. 0. 0. 0. 1.53846154e-02 0. 0. 0. 0. 0. 0. 0. 0. 0. 0.
      0. 0. 0. 0. 0. 0. 0. 0. 0. 0. 0. 0. 0. 0. 0. 0. 0. 0. 0. 0. 0. 0.
      0. 0. 0. 0. 0. 0. 0. 0. 0. 0. 0. 0. 0. 0. 1.53846154e-02 0. 0. 0.
      0. 0. 0. 0. 0. 0. 0. 0. 0. 0. 0. 1.53846154e-02 0. 0. 0. 0. 0. 0.
      0. 0. 0. 0. 0. 0. 0. 0. 0. 0. 0. 0. 0. 0. 0. 0. 0. 1.53846154e-02
      0. 0. 0. 0. 0. 0. 0. 0. 0. 0. 0. 0. 0. 0. 0. 0. 0. 0. 0. 0. 0. 0.
      0. 0. 0. 0. 0. 0. 0. 0. 0. 0. 0. 0. 0. 0. 0. 0. 0. 0. 0. 0. 0. 0.
      0. 0. 0. 0. 0. 0. 0. 0. 0. 0. 0. 0. 0. 0. 0. 0. 0. 0. 0. 0. 0. 0.
      0. 0. 0. 0. 0. 0. 1.53846154e-02 0. 0. 0. 0. 0. 0. 0. 0. 0. 0. 0.
      0. 0. 0. 0. 0. 0. 0. 0. 0. 0. 0. 0. 0. 0. 0. 0. 0. 0. 0. 0.
      1.53846154e-02 0. 0. 0. 0. 0. 0. 0. 0. 0. 0. 0. 0. 0. 0. 0. 0. 0.
      3.07692308e-02 0. 0. 0. 0. 0. 0. 0. 0. 0. 0. 0. 0. 0.
      1.53846154e-02 3.07692308e-02 0. 0. 0. 0. 1.53846154e-02 0. 0. 0.
      0. 0. 0. 0. 0. 0. 0. 0. 0. 0. 0. 0. 0. 0. 0. 0. 0. 0. 0. 0. 0. 0.
      0. 0. 0. 0. 3.07692308e-02 0. 0. 0. 0. 0. 0. 0. 0. 0. 0. 0. 0. 0.
      0. 0. 0. 3.07692308e-02 0. 1.53846154e-02 0. 0. 0. 0. 0. 0. 0. 0.
      0. 0. 0. 0. 0. 0. 0. 0. 1.53846154e-02 0. 0. 0. 0. 0. 0. 0. 0. 0.
      0. 0. 0. 0. 0. 0. 0. 0. 0. 0. 0. 0. 0. 0. 0. 1.53846154e-02 0. 0.
      0. 0. 0. 0. 0. 0. 0. 0. 0. 0. 0. 0. 0. 1.53846154e-02 0. 0. 0. 0.
      0. 0. 0. 0. 0. 0. 0. 0. 0. 0. 0. 0. 3.07692308e-02 0. 0. 0. 0. 0.
      0. 0. 0. 0. 0. 0. 0. 0. 0. 0. 0. 0. 0. 0. 0. 0. 0. 0. 0. 0. 0. 0.
      0. 0. 0. 0. 0. 0. 0. 1.53846154e-02 0. 0. 1.53846154e-02 0. 0. 0.
      0. 0. 0. 0. 0. 0. 0. 0. 0. 0. 0. 0. 0. 0. 0. 0. 1.53846154e-02 0.
      0. 0. 0. 0. 0. 0. 0. 0. 0. 0. 0. 0. 0. 0. 0. 0. 0. 0. 0. 0. 0. 0.
      1.53846154e-02 0. 0. 0. 0. 0. 0. 1.53846154e-02 0. 0. 0. 0. 0. 0.
      0. 0. 0. 0. 0. 0. 0. 0. 0. 0. 0. 0. 0. 0. 1.53846154e-02 0.
      1.53846154e-02 0. 0. 0. 0. 0. 0. 0. 0. 0. 0. 0. 0. 0. 0. 0. 0. 0.
      0. 0. 0. 0. 0. 0. 0. 0. 1.53846154e-02 0. 0. 1.53846154e-02 0. 0.
      0. 0. 0. 0. 0. 0. 0. 0. 0. 1.53846154e-02 0. 0. 0. 0. 0. 0. 0. 0.
      0. 0. 0. 0. 0. 0. 0. 0. 0. 0. 0. 0. 0. 0. 0. 0. 0. 0. 0. 0. 0. 0.
      0. 1.53846154e-02 0. 0. 0. 0. 1.53846154e-02 0. 0. 0. 0. 0. 0. 0.
      0. 0. 0. 0. 0. 0. 1.53846154e-02 0. 0. 0. 1.53846154e-02 0. 0. 0.
      0. 0. 0. 0. 0. 1.53846154e-02 0. 0. 0. 0. 0. 0. 0. 3.07692308e-02
      0. 0. 0. 0. 0. 0. 0. 0. 0. 0. 0. 0. 0. 0. 0. 0. 0. 0. 0. 0. 0. 0.
      0. 0. 0. 0. 0. 0. 0. 0. 0. 0. 0. 0. 0. 0. 0. 0. 0. 0. 0.</_>
    <_>
      4.61538471e-02 0. 0. 0. 0. 0. 0. 0. 0. 0. 0. 0. 0. 0. 0. 0. 0. 0.
      0. 0. 0. 0. 0. 0. 0. 0. 0. 0. 1.53846154e-02 0. 0. 0. 0. 0. 0. 0.
      0. 0. 0. 0. 0. 0. 0. 0. 0. 0. 0. 0. 0. 0. 0. 0. 0. 0. 0. 0. 0. 0.
      0. 1.53846154e-02 1.53846154e-02 0. 0. 1.53846154e-02
      1.53846154e-02 0. 0. 0. 0. 0. 0. 3.07692308e-02 0. 1.53846154e-02
      0. 1.53846154e-02 0. 0. 0. 3.07692308e-02 0. 0. 0. 1.53846154e-02
      0. 0. 0. 0. 0. 0. 0. 0. 0. 0. 0. 0. 0. 0. 0. 0. 0. 0. 0. 0. 0.
      1.53846154e-02 0. 0. 0. 0. 0. 0. 0. 0. 0. 0. 0. 0. 1.53846154e-02
      0. 0. 0. 0. 0. 0. 0. 0. 0. 0. 1.53846154e-02 0. 0. 0. 0. 0. 0. 0.
      0. 0. 0. 0. 0. 0. 0. 0. 0. 0. 0. 0. 0. 0. 0. 0. 0. 0. 0. 0. 0. 0.
      0. 0. 1.53846154e-02 1.53846154e-02 0. 0. 0. 0. 0. 0. 0. 0. 0. 0.
      0. 0. 0. 0. 0. 0. 0. 0. 0. 0. 0. 0. 0. 0. 0. 0. 0. 0. 0. 0. 0. 0.
      0. 0. 0. 0. 0. 0. 0. 0. 0. 0. 0. 0. 0. 0. 0. 0. 0. 0. 0.
      1.53846154e-02 0. 0. 0. 0. 0. 0. 0. 0. 0. 0. 0. 0. 0. 0. 0. 0. 0.
      0. 0. 1.53846154e-02 0. 0. 0. 0. 0. 0. 0. 0. 0. 0. 0. 0. 0.
      1.53846154e-02 0. 0. 0. 0. 0. 0. 0. 0. 0. 0. 0. 0. 0. 0. 0. 0. 0.
      0. 0. 0. 0. 0. 1.53846154e-02 0. 0. 0. 0. 0. 1.53846154e-02 0. 0.
      0. 0. 0. 0. 0. 0. 0. 0. 0. 0. 0. 0. 0. 0. 0. 0. 0. 0. 0. 0. 0. 0.
      1.53846154e-02 0. 0. 0. 0. 0. 0. 0. 0. 0. 0. 0. 0. 0. 0. 0. 0. 0.
      0. 0. 0. 0. 0. 0. 1.53846154e-02 0. 0. 0. 0. 0. 0. 0. 0. 0. 0. 0.
      0. 0. 0. 0. 0. 0. 0. 0. 0. 0. 0. 1.53846154e-02 0. 0. 0. 0. 0. 0.
      0. 0. 0. 0. 0. 0. 0. 0. 0. 0. 0. 0. 0. 0. 0. 0. 0. 0. 0. 0. 0. 0.
      0. 0. 1.53846154e-02 0. 0. 0. 0. 0. 0. 0. 0. 0. 0. 0. 0. 0. 0. 0.
      0. 0. 0. 0. 0. 0. 0. 0. 0. 0. 0. 0. 0. 0. 0. 0. 0. 0. 0. 0. 0. 0.
      0. 0. 0. 0. 0. 0. 0. 0. 0. 1.53846154e-02 0. 0. 0. 0. 0. 0. 0. 0.
      0. 0. 0. 0. 0. 0. 0. 0. 0. 0. 0. 0. 0. 0. 0. 0. 0. 0. 0. 0. 0.
      1.53846154e-02 0. 0. 0. 0. 0. 0. 0. 0. 1.53846154e-02 0. 0. 0. 0.
      0. 0. 0. 0. 0. 0. 0. 0. 0. 0. 0. 0. 0. 0. 0. 0. 0. 0. 0. 0. 0. 0.
      0. 0. 0. 0. 0. 0. 0. 0. 0. 0. 0. 0. 0. 0. 0. 0. 0. 0.
      1.53846154e-02 0. 0. 0. 0. 0. 0. 0. 0. 0. 0. 0. 0. 0. 0. 0. 0. 0.
      0. 0. 0. 0. 0. 0. 0. 0. 0. 0. 1.53846154e-02 0. 0. 0. 0. 0. 0. 0.
      0. 0. 0. 0. 0. 0. 0. 0. 0. 0. 0. 0. 0. 0. 0. 0. 0. 0. 0. 0. 0. 0.
      0. 0. 1.53846154e-02 0. 0. 0. 0. 0. 0. 0. 0. 0. 0. 0. 0. 0. 0. 0.
      0. 0. 4.61538471e-02 0. 0. 0. 0. 0. 0. 0. 0. 0. 0. 0. 0. 0. 0.
      1.53846154e-02 0. 0. 0. 0. 1.53846154e-02 0. 0. 0. 0. 0. 0. 0. 0.
      0. 0. 0. 0. 0. 0. 0. 0. 0. 0. 0. 0. 0. 0. 0. 0. 0. 0. 0. 0. 0.
      3.07692308e-02 0. 0. 0. 0. 0. 0. 0. 0. 0. 0. 0. 0. 0. 0. 0. 0.
      1.53846154e-02 0. 1.53846154e-02 0. 0. 0. 0. 0. 0. 0. 0. 0. 0. 0.
      0. 0. 0. 0. 0. 1.53846154e-02 0. 0. 0. 0. 0. 0. 0. 0. 0. 0. 0. 0.
      0. 0. 0. 0. 0. 0. 0. 0. 0. 0. 0. 0. 1.53846154e-02 0. 0. 0. 0. 0.
      0. 0. 0. 0. 0. 0. 0. 0. 0. 0. 1.53846154e-02 0. 0. 0. 0. 0. 0. 0.
      0. 0. 0. 0. 0. 0. 0. 1.53846154e-02 0. 1.53846154e-02 0. 0. 0. 0.
      0. 0. 0. 0. 0. 0. 0. 0. 0. 0. 0. 0. 0. 0. 0. 0. 0. 0. 0. 0. 0. 0.
      0. 0. 0. 0. 0. 0. 0. 0. 0. 0. 0. 0. 0. 0. 0. 0. 0. 0. 0. 0. 0. 0.
      0. 0. 0. 0. 0. 0. 0. 0. 0. 1.53846154e-02 0. 0. 0. 0. 0. 0. 0. 0.
      0. 0. 0. 0. 0. 0. 0. 0. 0. 0. 0. 0. 0. 0. 0. 1.53846154e-02 0. 0.
      0. 0. 0. 0. 0. 1.53846154e-02 0. 0. 0. 0. 0. 0. 0. 0. 0. 0. 0. 0.
      0. 0. 0. 0. 0. 0. 0. 1.53846154e-02 0. 0. 0. 0. 0. 0. 0. 0. 0. 0.
      0. 0. 0. 0. 0. 0. 0. 0. 0. 1.53846154e-02 0. 0. 0. 0. 0. 0. 0.
      1.53846154e-02 0. 0. 0. 0. 0. 0. 0. 0. 0. 0. 0. 0. 0. 0.
      1.53846154e-02 0. 0. 0. 0. 0. 0. 0. 0. 0. 0. 0. 0. 0. 0. 0. 0. 0.
      0. 0. 0. 0. 0. 1.53846154e-02 0. 0. 0. 0. 0. 0. 0. 0.
      1.53846154e-02 0. 0. 0. 0. 0. 0. 0. 0. 0. 0. 0. 0. 0. 0. 0. 0. 0.
      0. 1.53846154e-02 0. 0. 0. 1.53846154e-02 0. 0. 0. 0. 0. 0. 0. 0.
      1.53846154e-02 0. 0. 0. 0. 0. 0. 0. 4.61538471e-02 1.53846154e-02
      0. 0. 0. 0. 0. 0. 0. 0. 0. 0. 0. 0. 0. 0. 0. 0. 0. 0. 0. 0. 0. 0.
      0. 0. 0. 0. 0. 0. 0. 0. 0. 0. 0. 0. 0. 0. 0. 0. 0. 0.</_>
    <_>
      4.59770113e-02 0. 0. 0. 0. 0. 0. 0. 0. 0. 0. 0. 0. 0. 0. 0. 0. 0.
      1.14942528e-02 0. 0. 0. 0. 0. 0. 0. 0. 0. 2.29885057e-02 0. 0. 0.
      1.14942528e-02 0. 0. 0. 0. 0. 0. 1.14942528e-02 0. 0. 0. 0. 0.
      1.14942528e-02 0. 0. 0. 0. 0. 0. 0. 0. 0. 0. 0. 0. 0. 0.
      1.14942528e-02 0. 0. 1.14942528e-02 0. 0. 0. 1.14942528e-02 0. 0.
      0. 1.14942528e-02 0. 0. 0. 1.14942528e-02 0. 0. 0. 1.14942528e-02
      0. 0. 0. 0. 0. 0. 0. 0. 0. 0. 0. 0. 0. 0. 0. 0. 0. 0. 0. 0. 0. 0.
      0. 0. 0. 4.59770113e-02 0. 0. 0. 0. 0. 0. 0. 0. 0. 0. 0. 0. 0. 0.
      0. 0. 0. 0. 0. 0. 0. 0. 0. 0. 0. 0. 0. 0. 0. 0. 0. 0. 0. 0. 0. 0.
      0. 0. 2.29885057e-02 0. 0. 0. 0. 0. 0. 0. 0. 0. 0. 0. 0. 0. 0. 0.
      0. 0. 1.14942528e-02 0. 0. 0. 1.14942528e-02 0. 0. 0. 0. 0. 0. 0.
      0. 0. 0. 0. 0. 0. 0. 0. 0. 0. 0. 0. 0. 0. 0. 0. 0. 0. 0. 0. 0. 0.
      0. 0. 0. 0. 0. 0. 1.14942528e-02 0. 0. 0. 0. 0. 0. 0. 0. 0. 0. 0.
      1.14942528e-02 0. 0. 0. 0. 0. 0. 0. 0. 0. 0. 0. 0. 0. 0. 0. 0. 0.
      1.14942528e-02 0. 1.14942528e-02 0. 0. 0. 0. 0. 0. 0. 0. 0. 0. 0.
      0. 0. 0. 0. 0. 0. 0. 0. 0. 0. 0. 0. 0. 0. 0. 0. 0. 0. 0. 0. 0. 0.
      0. 0. 0. 1.14942528e-02 0. 0. 0. 0. 0. 0. 0. 0. 0. 0. 0. 0. 0. 0.
      0. 0. 0. 0. 0. 0. 0. 0. 0. 0. 0. 0. 0. 0. 0. 0. 0. 0. 0. 0. 0. 0.
      0. 0. 0. 0. 0. 0. 0. 0. 0. 0. 0. 0. 0. 0. 0. 1.14942528e-02 0. 0.
      0. 0. 0. 0. 0. 0. 1.14942528e-02 0. 0. 0. 0. 0. 0. 0. 0.
      1.14942528e-02 0. 0. 0. 0. 0. 0. 0. 1.14942528e-02 0. 0. 0. 0. 0.
      0. 0. 0. 0. 0. 0. 0. 0. 0. 0. 0. 0. 0. 0. 0. 0. 0. 0. 0. 0. 0. 0.
      0. 0. 0. 2.29885057e-02 0. 0. 0. 0. 0. 0. 0. 1.14942528e-02 0. 0.
      0. 0. 0. 0. 0. 0. 0. 0. 0. 0. 0. 0. 0. 0. 0. 0. 0. 0. 0. 0. 0. 0.
      0. 0. 0. 0. 0. 0. 0. 0. 0. 0. 0. 0. 0. 0. 1.14942528e-02 0. 0. 0.
      0. 0. 0. 0. 0. 0. 0. 0. 0. 0. 0. 1.14942528e-02 0. 0. 0. 0. 0. 0.
      1.14942528e-02 0. 0. 0. 0. 0. 0. 0. 1.14942528e-02 0. 0. 0. 0. 0.
      0. 0. 0. 1.14942528e-02 0. 0. 0. 0. 0. 0. 0. 0. 0. 0. 0. 0.
      1.14942528e-02 0. 0. 0. 0. 0. 0. 0. 0. 0. 0. 0. 0. 0. 0. 0. 0. 0.
      0. 0. 0. 0. 0. 0. 0. 0. 0. 0. 0. 0. 0. 0. 0. 0. 0. 0. 0. 0. 0. 0.
      0. 0. 0. 0. 0. 0. 0. 0. 0. 0. 0. 0. 1.14942528e-02 0. 0. 0. 0. 0.
      0. 0. 2.29885057e-02 0. 0. 0. 0. 0. 0. 0. 0. 0. 0. 0. 0. 0. 0. 0.
      0. 0. 0. 0. 0. 1.14942528e-02 0. 0. 0. 0. 0. 0. 0. 0. 0. 0. 0. 0.
      0. 0. 0. 0. 0. 0. 0. 0. 0. 0. 0. 0. 0. 0. 0. 0. 1.14942528e-02 0.
      0. 0. 0. 0. 0. 0. 0. 0. 0. 0. 0. 0. 1.14942528e-02 1.14942528e-02
      0. 1.14942528e-02 0. 0. 0. 0. 0. 0. 0. 0. 0. 0. 0. 0. 0. 0. 0. 0.
      0. 0. 0. 0. 0. 0. 0. 0. 0. 0. 0. 0. 0. 0. 0. 0. 1.14942528e-02 0.
      0. 0. 0. 0. 0. 0. 0. 0. 0. 0. 0. 0. 0. 0. 0. 2.29885057e-02 0.
      1.14942528e-02 0. 0. 0. 0. 0. 0. 0. 0. 0. 0. 0. 0. 0. 0. 0. 0.
      2.29885057e-02 1.14942528e-02 0. 0. 0. 0. 0. 0. 0. 0. 0. 0. 0. 0.
      0. 0. 0. 0. 0. 0. 0. 0. 0. 0. 0. 0. 0. 0. 0. 0. 0. 0. 0. 0. 0. 0.
      0. 0. 0. 0. 0. 1.14942528e-02 0. 0. 0. 0. 0. 0. 0. 0. 0. 0. 0. 0.
      0. 0. 0. 0. 2.29885057e-02 0. 0. 0. 2.29885057e-02 1.14942528e-02
      0. 1.14942528e-02 0. 0. 0. 0. 0. 0. 0. 0. 0. 0. 0. 0. 0. 0. 0. 0.
      0. 0. 0. 0. 0. 0. 0. 0. 0. 0. 1.14942528e-02 1.14942528e-02 0. 0.
      0. 0. 0. 1.14942528e-02 0. 0. 0. 0. 0. 0. 0. 0. 0. 0. 0. 0. 0. 0.
      0. 0. 0. 0. 0. 0. 1.14942528e-02 0. 0. 0. 0. 0. 0. 0. 0.
      1.14942528e-02 0. 0. 0. 0. 1.14942528e-02 0. 0. 0. 0. 0.
      1.14942528e-02 0. 0. 0. 0. 0. 0. 1.14942528e-02 0. 0. 0. 0. 0. 0.
      0. 0. 0. 0. 0. 0. 0. 0. 0. 0. 0. 0. 0. 0. 2.29885057e-02 0.
      1.14942528e-02 0. 0. 0. 0. 0. 0. 0. 0. 1.14942528e-02 0. 0. 0. 0.
      0. 0. 0. 0. 0. 0. 0. 0. 0. 0. 0. 0. 0. 0. 0. 0. 0. 0. 0. 0. 0. 0.
      0. 0. 0. 0. 0. 1.14942528e-02 0. 0. 1.14942528e-02 0. 0. 0. 0. 0.
      0. 0. 0. 0. 0. 0. 0. 0. 0. 0. 0. 0. 0. 0. 0. 0. 0. 0. 0. 0. 0. 0.
      0. 1.14942528e-02 0. 0. 0. 0. 0. 0. 0. 0. 0. 0. 0. 0. 0. 0. 0. 0.
      0. 0. 1.14942528e-02 0. 0. 1.14942528e-02 1.14942528e-02 0. 0. 0.
      0. 0. 0. 0. 0. 1.14942528e-02 0. 0. 0. 0. 0. 0. 0. 3.44827585e-02
      0. 0. 0. 0. 0. 0. 0. 0. 0. 0. 0. 0. 0. 0. 0. 0. 0. 0. 0. 0.
      1.14942528e-02 0. 0. 0. 0. 0. 0. 0. 0. 0. 0. 0. 0. 0. 0. 0. 0. 0.
      0. 0. 0.</_>
    <_>
      2.35294122e-02 0. 0. 0. 0. 0. 0. 0. 0. 0. 0. 0. 0. 0. 0. 0. 0. 0.
      1.17647061e-02 0. 0. 0. 0. 0. 0. 0. 0. 0. 1.17647061e-02 0. 0. 0.
      1.17647061e-02 0. 0. 0. 0. 0. 0. 0. 0. 0. 0. 0. 0. 1.17647061e-02
      0. 0. 0. 0. 0. 0. 0. 0. 0. 0. 0. 0. 0. 0. 1.17647061e-02 0. 0.
      1.17647061e-02 0. 0. 0. 1.17647061e-02 0. 0. 0. 2.35294122e-02 0.
      1.17647061e-02 1.17647061e-02 2.35294122e-02 0. 0. 0.
      1.17647061e-02 0. 0. 0. 0. 0. 0. 0. 0. 0. 0. 0. 0. 0. 0. 0. 0. 0.
      0. 0. 0. 0. 0. 0. 0. 0. 3.52941193e-02 0. 0. 0. 0. 0. 0. 0. 0. 0.
      0. 0. 0. 0. 0. 0. 0. 0. 0. 0. 0. 0. 0. 0. 0. 0. 0. 0. 0. 0. 0. 0.
      0. 0. 0. 0. 0. 0. 0. 0. 0. 0. 0. 0. 0. 0. 0. 0. 0. 0. 0. 0. 0. 0.
      0. 1.17647061e-02 0. 1.17647061e-02 0. 0. 0. 0. 0. 0. 0. 0. 0. 0.
      0. 0. 0. 0. 0. 0. 0. 1.17647061e-02 0. 0. 0. 1.17647061e-02 0. 0.
      0. 0. 0. 0. 0. 0. 0. 0. 0. 0. 0. 0. 0. 0. 0. 1.17647061e-02 0. 0.
      0. 0. 0. 0. 0. 0. 0. 0. 0. 1.17647061e-02 0. 0. 0. 0. 0. 0.
      1.17647061e-02 0. 0. 0. 0. 0. 0. 0. 0. 0. 0. 1.17647061e-02 0. 0.
      1.17647061e-02 0. 0. 0. 0. 0. 0. 0. 0. 0. 0. 0. 0. 1.17647061e-02
      0. 0. 0. 0. 0. 0. 0. 0. 0. 0. 0. 0. 0. 0. 0. 0. 0. 0. 0. 0. 0. 0.
      2.35294122e-02 0. 0. 0. 0. 0. 1.17647061e-02 0. 0. 0. 0. 0. 0. 0.
      0. 0. 0. 0. 0. 0. 0. 0. 0. 0. 0. 0. 0. 0. 0. 0. 0. 0. 0. 0. 0. 0.
      0. 0. 0. 0. 0. 0. 0. 0. 0. 0. 0. 0. 0. 0. 0. 0. 1.17647061e-02 0.
      0. 0. 0. 0. 0. 0. 0. 0. 0. 0. 0. 0. 0. 0. 0. 0. 0. 0. 0. 0. 0. 0.
      0. 0. 1.17647061e-02 0. 0. 0. 0. 0. 0. 0. 0. 0. 0. 0. 0. 0. 0. 0.
      0. 0. 0. 0. 0. 0. 0. 0. 0. 0. 0. 0. 0. 0. 0. 1.17647061e-02 0. 0.
      0. 0. 0. 0. 0. 0. 0. 0. 0. 0. 0. 0. 0. 0. 0. 0. 0. 0. 0. 0. 0. 0.
      0. 0. 0. 0. 0. 0. 1.17647061e-02 0. 0. 0. 0. 0. 0. 0. 0. 0. 0. 0.
      0. 0. 0. 0. 0. 0. 0. 0. 0. 0. 0. 0. 0. 0. 0. 0. 0. 0. 0.
      1.17647061e-02 0. 0. 0. 0. 0. 0. 0. 0. 0. 0. 0. 0. 0. 0. 0. 0. 0.
      0. 0. 0. 0. 0. 0. 1.17647061e-02 0. 0. 0. 0. 0. 0. 0. 0. 0. 0. 0.
      0. 0. 0. 0. 0. 0. 0. 0. 0. 0. 0. 0. 1.17647061e-02 0. 0. 0. 0. 0.
      0. 0. 0. 0. 0. 0. 1.17647061e-02 0. 0. 0. 0. 0. 0. 0. 0.
      1.17647061e-02 0. 0. 0. 0. 0. 0. 0. 0. 0. 0. 0. 1.17647061e-02 0.
      0. 0. 1.17647061e-02 0. 0. 0. 0. 0. 0. 0. 0. 0. 0. 0.
      2.35294122e-02 0. 0. 0. 0. 0. 0. 0. 0. 0. 0. 0. 0. 0. 0. 0. 0. 0.
      0. 0. 0. 0. 0. 0. 0. 0. 0. 0. 0. 0. 0. 0. 0. 0. 0. 0. 0. 0. 0. 0.
      0. 0. 0. 0. 0. 0. 0. 0. 0. 0. 1.17647061e-02 0. 0. 3.52941193e-02
      0. 0. 0. 0. 0. 0. 0. 0. 0. 0. 2.35294122e-02 1.17647061e-02 0. 0.
      0. 0. 0. 0. 0. 0. 0. 0. 0. 0. 0. 0. 0. 0. 0. 0. 0. 0. 0. 0. 0. 0.
      0. 0. 0. 0. 0. 0. 0. 0. 0. 0. 1.17647061e-02 0. 0. 0. 0. 0. 0. 0.
      0. 0. 0. 0. 1.17647061e-02 0. 0. 0. 0. 2.35294122e-02 0. 0. 0. 0.
      0. 0. 0. 0. 0. 0. 0. 0. 0. 0. 0. 0. 0. 0. 0. 0. 0. 0. 0. 0. 0. 0.
      0. 0. 0. 0. 0. 0. 0. 0. 0. 0. 0. 0. 0. 0. 0. 0. 0. 2.35294122e-02
      0. 1.17647061e-02 0. 0. 0. 0. 0. 0. 0. 0. 0. 0. 0. 0. 0. 0. 0. 0.
      0. 0. 0. 0. 0. 0. 0. 0. 0. 0. 0. 0. 0. 0. 3.52941193e-02 0. 0.
      1.17647061e-02 2.35294122e-02 0. 0. 0. 0. 0. 0. 0. 0. 0. 0. 0. 0.
      0. 0. 0. 0. 0. 0. 1.17647061e-02 0. 0. 0. 0. 0. 0. 0. 0. 0. 0. 0.
      1.17647061e-02 0. 0. 0. 0. 0. 0. 0. 0. 0. 0. 0. 0. 0. 0. 0. 0. 0.
      1.17647061e-02 0. 0. 0. 0. 0. 0. 0. 0. 0. 0. 0. 0. 0. 0. 0. 0.
      1.17647061e-02 0. 0. 0. 0. 0. 2.35294122e-02 0. 0. 0. 0. 0. 0. 0.
      0. 0. 0. 0. 0. 0. 1.17647061e-02 0. 0. 0. 0. 0. 0. 0. 0. 0. 0. 0.
      0. 0. 0. 0. 0. 0. 0. 0. 0. 0. 0. 0. 0. 2.35294122e-02 0. 0. 0. 0.
      0. 1.17647061e-02 0. 0. 0. 0. 0. 0. 0. 0. 1.17647061e-02 0. 0. 0.
      0. 0. 0. 0. 0. 0. 0. 0. 0. 0. 0. 0. 0. 0. 0. 0. 1.17647061e-02 0.
      0. 1.17647061e-02 0. 0. 0. 0. 0. 0. 0. 0. 0. 0. 0. 0. 0. 0. 0. 0.
      0. 0. 0. 0. 0. 0. 0. 0. 0. 0. 0. 0. 0. 0. 0. 1.17647061e-02 0. 0.
      0. 0. 0. 0. 0. 0. 0. 0. 0. 0. 0. 0. 0. 0. 0. 0. 1.17647061e-02 0.
      0. 0. 1.17647061e-02 0. 0. 0. 0. 0. 0. 0. 0. 0. 0. 0. 0. 0. 0. 0.
      0. 3.52941193e-02 0. 0. 0. 0. 0. 0. 0. 0. 0. 0. 0. 0. 0. 0. 0. 0.
      0. 0. 0. 0. 0. 0. 1.17647061e-02 0. 0. 0. 0. 0. 0. 0. 0. 0. 0. 0.
      0. 0. 0. 0. 0. 0. 0.</_>
    <_>
      2.27272734e-02 0. 0. 0. 0. 0. 1.13636367e-02 0. 0. 0. 0.
      1.13636367e-02 0. 0. 1.13636367e-02 0. 0. 0. 1.13636367e-02 0. 0.
      0. 0. 0. 0. 0. 0. 0. 0. 0. 0. 0. 0. 0. 0. 0. 0. 0. 1.13636367e-02
      0. 0. 1.13636367e-02 0. 0. 0. 0. 0. 1.13636367e-02 0. 0. 0. 0. 0.
      0. 0. 0. 0. 0. 0. 0. 0. 0. 0. 0. 1.13636367e-02 0. 0.
      1.13636367e-02 0. 0. 0. 0. 0. 0. 0. 0. 0. 0. 0. 0. 0. 0. 0. 0. 0.
      0. 0. 0. 0. 1.13636367e-02 0. 0. 0. 0. 0. 0. 0. 0. 0. 0. 0. 0. 0.
      0. 1.13636367e-02 0. 0. 0. 0. 0. 0. 0. 0. 0. 0. 0. 0. 0. 0. 0. 0.
      0. 0. 0. 0. 0. 0. 0. 1.13636367e-02 0. 0. 0. 0. 0. 0. 0. 0. 0. 0.
      0. 0. 0. 0. 1.13636367e-02 0. 0. 0. 0. 0. 0. 0. 0. 0. 0. 0. 0. 0.
      0. 0. 0. 0. 0. 0. 0. 0. 0. 0. 0. 0. 0. 0. 0. 0. 0. 0. 0.
      1.13636367e-02 0. 0. 1.13636367e-02 0. 0. 0. 0. 0. 0. 0. 0. 0. 0.
      0. 0. 0. 0. 0. 0. 0. 0. 0. 0. 0. 0. 0. 1.13636367e-02 0. 0. 0. 0.
      0. 0. 0. 0. 0. 0. 0. 0. 0. 0. 0. 1.13636367e-02 0. 0.
      1.13636367e-02 0. 1.13636367e-02 0. 0. 0. 0. 0. 0. 0. 0.
      1.13636367e-02 0. 0. 0. 0. 0. 0. 0. 0. 0. 0. 0. 0. 2.27272734e-02
      0. 0. 0. 1.13636367e-02 0. 0. 0. 0. 0. 0. 0. 0. 0. 0. 0. 0. 0. 0.
      0. 0. 0. 0. 0. 0. 0. 1.13636367e-02 0. 0. 0. 0. 1.13636367e-02 0.
      0. 0. 0. 0. 0. 0. 0. 0. 0. 0. 0. 0. 0. 0. 0. 0. 1.13636367e-02 0.
      0. 0. 0. 0. 0. 0. 1.13636367e-02 0. 0. 0. 0. 0. 0. 0. 0.
      1.13636367e-02 0. 0. 0. 0. 0. 0. 0. 0. 0. 1.13636367e-02 0. 0. 0.
      0. 1.13636367e-02 0. 0. 0. 0. 0. 0. 0. 0. 0. 0. 0. 1.13636367e-02
      0. 1.13636367e-02 0. 0. 0. 0. 0. 0. 0. 1.13636367e-02 0. 0. 0. 0.
      0. 0. 0. 0. 0. 0. 0. 0. 0. 0. 0. 0. 0. 0. 0. 0. 0. 0. 0. 0. 0. 0.
      0. 0. 0. 0. 0. 0. 0. 0. 0. 0. 0. 0. 0. 0. 0. 0. 0. 0. 0. 0. 0. 0.
      0. 0. 0. 0. 0. 0. 0. 0. 1.13636367e-02 0. 1.13636367e-02 0. 0. 0.
      0. 1.13636367e-02 0. 0. 0. 0. 0. 0. 0. 1.13636367e-02
      1.13636367e-02 0. 0. 0. 0. 0. 0. 0. 0. 0. 0. 2.27272734e-02 0. 0.
      0. 0. 0. 0. 0. 0. 0. 0. 0. 0. 0. 0. 0. 0. 0. 0. 0. 0. 0. 0. 0. 0.
      0. 0. 0. 0. 0. 0. 0. 0. 0. 0. 0. 0. 0. 0. 0. 0. 0. 0. 0. 0. 0. 0.
      0. 0. 0. 0. 0. 0. 0. 0. 0. 0. 0. 0. 1.13636367e-02 1.13636367e-02
      0. 1.13636367e-02 0. 0. 0. 0. 0. 0. 0. 0. 0. 1.13636367e-02 0. 0.
      0. 0. 0. 1.13636367e-02 0. 0. 0. 0. 0. 0. 0. 0. 0. 0. 0.
      1.13636367e-02 0. 0. 0. 0. 0. 0. 0. 0. 0. 0. 1.13636367e-02 0. 0.
      0. 0. 2.27272734e-02 0. 1.13636367e-02 0. 0. 0. 0. 0. 0. 0. 0. 0.
      0. 0. 0. 0. 0. 0. 0. 0. 1.13636367e-02 0. 0. 0. 0. 0. 0. 0. 0. 0.
      1.13636367e-02 0. 0. 0. 0. 0. 0. 0. 0. 0. 1.13636367e-02 0. 0. 0.
      0. 1.13636367e-02 0. 0. 0. 0. 0. 0. 0. 0. 1.13636367e-02 0. 0. 0.
      0. 0. 0. 0. 0. 0. 0. 0. 0. 0. 0. 0. 0. 0. 0. 0. 0. 1.13636367e-02
      0. 0. 0. 0. 0. 0. 0. 0. 0. 0. 0. 0. 0. 1.13636367e-02 0. 0. 0. 0.
      0. 0. 0. 0. 0. 0. 0. 0. 0. 0. 0. 0. 0. 0. 0. 0. 1.13636367e-02 0.
      0. 0. 0. 0. 0. 0. 1.13636367e-02 0. 0. 0. 0. 0. 0. 1.13636367e-02
      3.40909101e-02 0. 0. 0. 0. 0. 0. 0. 0. 0. 0. 0. 0. 0. 0. 0. 0. 0.
      0. 0. 0. 1.13636367e-02 0. 0. 0. 0. 0. 1.13636367e-02 0. 0. 0. 0.
      0. 0. 0. 0. 0. 2.27272734e-02 0. 0. 0. 0. 0. 0. 0. 0. 0. 0. 0. 0.
      0. 0. 0. 1.13636367e-02 0. 0. 0. 0. 0. 0. 0. 1.13636367e-02 0. 0.
      0. 0. 0. 0. 0. 0. 0. 0. 0. 0. 0. 0. 0. 0. 0. 0. 0. 0. 0. 0. 0. 0.
      0. 0. 0. 0. 0. 0. 0. 0. 0. 0. 0. 2.27272734e-02 0. 0. 0. 0. 0. 0.
      0. 0. 0. 1.13636367e-02 0. 0. 0. 0. 0. 0. 0. 0. 0. 0. 0. 0. 0. 0.
      0. 0. 1.13636367e-02 0. 0. 0. 0. 0. 0. 0. 0. 0. 0. 0. 0. 0. 0. 0.
      0. 0. 0. 0. 0. 0. 0. 0. 0. 0. 0. 0. 0. 0. 0. 0. 1.13636367e-02 0.
      0. 0. 0. 0. 0. 0. 0. 0. 0. 0. 0. 0. 0. 0. 0. 0. 0. 0. 0.
      1.13636367e-02 0. 0. 1.13636367e-02 0. 0. 0. 0. 0. 0. 0. 0. 0.
      1.13636367e-02 0. 0. 0. 0. 0. 0. 0. 0. 0. 0. 0. 0. 0. 0. 0. 0. 0.
      1.13636367e-02 0. 0. 0. 0. 0. 0. 0. 0. 0. 0. 0. 0. 0.
      1.13636367e-02 0. 0. 0. 0. 0. 0. 0. 0. 0. 2.27272734e-02 0. 0. 0.
      0. 0. 0. 0. 0. 0. 0. 0. 1.13636367e-02 0. 0. 0. 1.13636367e-02 0.
      0. 0. 0. 0. 0. 1.13636367e-02 0. 0. 0. 0. 0. 0. 0. 0. 0. 0. 0. 0.
      0. 0. 0. 0. 0. 0. 0. 0. 0. 0. 0. 0. 0. 0. 0. 0. 0. 0. 0. 0. 0. 0.
      0. 0. 0. 0. 0. 0. 0. 0. 0. 0. 0. 0. 0. 0. 0. 0. 0. 1.13636367e-02
      0. 0. 0. 0. 0. 0. 1.13636367e-02 0. 0. 0. 0. 0. 0. 0. 0. 0. 0. 0.
      0. 0. 0. 0. 0. 0. 0. 0. 0.</_>
    <_>
      2.53164563e-02 0. 0. 0. 0. 0. 1.26582282e-02 0. 0. 0. 0.
      1.26582282e-02 0. 0. 1.26582282e-02 0. 0. 0. 1.26582282e-02 0. 0.
      0. 0. 0. 0. 0. 0. 0. 0. 0. 0. 0. 0. 0. 0. 0. 0. 0. 0. 0. 0.
      1.26582282e-02 0. 0. 0. 0. 0. 1.26582282e-02 0. 0. 0. 0. 0. 0. 0.
      0. 0. 0. 0. 0. 0. 0. 0. 0. 1.26582282e-02 0. 0. 1.26582282e-02 0.
      0. 0. 0. 0. 0. 0. 0. 0. 0. 0. 0. 0. 0. 0. 0. 0. 0. 0. 0. 0. 0. 0.
      0. 0. 0. 0. 0. 0. 0. 0. 0. 0. 0. 0. 0. 1.26582282e-02 0. 0. 0. 0.
      0. 0. 0. 0. 0. 0. 0. 0. 0. 0. 0. 0. 0. 0. 1.26582282e-02 0. 0. 0.
      0. 2.53164563e-02 0. 0. 0. 0. 0. 0. 0. 0. 0. 0. 0. 0. 0. 0. 0. 0.
      0. 0. 0. 0. 0. 0. 0. 0. 0. 0. 0. 0. 0. 0. 0. 0. 0. 0. 0. 0. 0. 0.
      0. 0. 0. 0. 0. 0. 0. 0. 0. 1.26582282e-02 0. 0. 2.53164563e-02 0.
      1.26582282e-02 0. 0. 0. 0. 0. 0. 0. 0. 0. 0. 0. 0. 0. 0. 0. 0. 0.
      0. 0. 0. 0. 0. 0. 0. 0. 0. 0. 0. 0. 0. 0. 0. 0. 0. 0. 0. 0.
      1.26582282e-02 0. 0. 1.26582282e-02 0. 1.26582282e-02 0. 0. 0. 0.
      0. 0. 0. 0. 0. 0. 0. 0. 0. 0. 0. 0. 0. 0. 0. 0. 0. 2.53164563e-02
      0. 0. 0. 0. 0. 0. 0. 0. 0. 0. 0. 0. 1.26582282e-02 0. 0. 0. 0. 0.
      0. 0. 0. 0. 0. 0. 0. 1.26582282e-02 0. 0. 0. 0. 1.26582282e-02 0.
      0. 0. 0. 0. 0. 0. 0. 0. 0. 0. 0. 0. 0. 0. 0. 0. 0. 0. 0. 0. 0. 0.
      0. 0. 0. 0. 0. 0. 0. 0. 0. 0. 0. 1.26582282e-02 0. 0. 0. 0. 0. 0.
      0. 0. 0. 1.26582282e-02 0. 0. 0. 0. 0. 0. 0. 0. 0. 0. 0. 0. 0. 0.
      0. 0. 1.26582282e-02 0. 1.26582282e-02 0. 0. 0. 1.26582282e-02 0.
      0. 0. 1.26582282e-02 0. 0. 1.26582282e-02 0. 0. 0. 0. 0. 0. 0. 0.
      0. 0. 0. 0. 0. 0. 0. 0. 0. 0. 0. 1.26582282e-02 0. 0. 0. 0. 0. 0.
      0. 0. 0. 0. 0. 0. 0. 0. 0. 0. 0. 0. 0. 0. 0. 0. 0. 0. 0. 0. 0. 0.
      0. 0. 0. 0. 0. 1.26582282e-02 0. 1.26582282e-02 0. 0. 0. 0. 0. 0.
      0. 0. 0. 0. 0. 0. 0. 1.26582282e-02 0. 0. 0. 0. 0. 0. 0. 0. 0. 0.
      2.53164563e-02 0. 0. 0. 0. 0. 0. 0. 0. 0. 0. 0. 0. 0. 0. 0. 0. 0.
      0. 0. 0. 0. 0. 0. 0. 0. 0. 0. 0. 0. 0. 0. 0. 0. 1.26582282e-02 0.
      0. 0. 0. 0. 0. 0. 0. 0. 0. 0. 0. 0. 0. 0. 0. 0. 0. 0. 0. 0. 0. 0.
      0. 1.26582282e-02 0. 0. 1.26582282e-02 0. 0. 0. 0. 0. 0. 0. 0. 0.
      1.26582282e-02 0. 0. 0. 0. 0. 1.26582282e-02 0. 0. 0. 0. 0. 0. 0.
      0. 0. 0. 0. 1.26582282e-02 0. 0. 0. 0. 0. 0. 0. 0. 0. 0. 0. 0. 0.
      0. 0. 2.53164563e-02 0. 1.26582282e-02 0. 0. 0. 0. 0. 0. 0. 0. 0.
      0. 0. 0. 0. 0. 0. 0. 0. 1.26582282e-02 0. 1.26582282e-02 0. 0. 0.
      0. 0. 0. 0. 0. 0. 0. 0. 0. 0. 0. 0. 0. 0. 1.26582282e-02 0. 0. 0.
      0. 1.26582282e-02 0. 0. 0. 0. 0. 0. 0. 0. 1.26582282e-02 0. 0. 0.
      0. 0. 0. 0. 0. 0. 1.26582282e-02 0. 0. 0. 0. 0. 0. 0. 0. 0. 0.
      1.26582282e-02 0. 0. 0. 0. 0. 0. 0. 0. 0. 0. 0. 0. 0. 0. 0. 0. 0.
      0. 0. 0. 0. 0. 0. 0. 0. 0. 0. 0. 0. 1.26582282e-02 0. 0. 0. 0.
      1.26582282e-02 0. 0. 0. 0. 0. 0. 0. 0. 0. 0. 0. 0. 0. 0.
      1.26582282e-02 3.79746854e-02 0. 0. 0. 0. 0. 0. 0. 0. 0. 0. 0. 0.
      0. 0. 0. 0. 0. 0. 0. 0. 0. 0. 0. 0. 0. 0. 1.26582282e-02 0. 0. 0.
      0. 0. 0. 0. 0. 0. 2.53164563e-02 0. 0. 0. 0. 0. 0. 0. 0. 0. 0. 0.
      0. 0. 0. 0. 0. 0. 0. 0. 0. 0. 0. 1.26582282e-02 2.53164563e-02 0.
      0. 0. 0. 0. 0. 0. 0. 0. 0. 0. 0. 0. 0. 0. 0. 0. 0. 0. 0. 0. 0. 0.
      0. 0. 0. 0. 0. 0. 0. 0. 0. 0. 0. 0. 2.53164563e-02 0. 0. 0. 0. 0.
      0. 0. 0. 0. 0. 0. 0. 0. 0. 0. 0. 0. 0. 0. 0. 0. 0. 0. 0. 0. 0. 0.
      0. 0. 0. 0. 0. 0. 0. 0. 0. 0. 0. 0. 0. 0. 0. 0. 0. 0. 0. 0. 0. 0.
