<?xml version="1.0"?>
<opencv_storage>
<my_svm type_id="opencv-ml-svm">
  <svm_type>C_SVC</svm_type>
  <kernel><type>RBF</type>
    <gamma>8.</gamma></kernel>
  <C>10.</C>
  <term_criteria><epsilon>1.1920928955078125e-07</epsilon>
    <iterations>2147483647</iterations></term_criteria>
  <var_all>1000</var_all>
  <var_count>1000</var_count>
  <class_count>2</class_count>
  <class_labels type_id="opencv-matrix">
    <rows>1</rows>
    <cols>2</cols>
    <dt>i</dt>
    <data>
      0 1</data></class_labels>
  <sv_total>142</sv_total>
  <support_vectors>
    <_>
      6.25000000e-02 0. 0. 0. 0. 2.08333340e-02 0. 0. 0. 0. 0. 0. 0. 0.
      0. 0. 0. 0. 0. 0. 0. 0. 0. 0. 0. 0. 0. 0. 0. 0. 0. 0. 0. 0. 0. 0.
      0. 0. 0. 2.08333340e-02 0. 0. 0. 0. 0. 0. 0. 0. 0. 0. 0. 0. 0. 0.
      0. 0. 0. 0. 0. 2.08333340e-02 0. 0. 0. 0. 0. 0. 0. 0. 0. 0. 0. 0.
      0. 0. 0. 0. 0. 0. 2.08333340e-02 0. 0. 0. 0. 0. 0. 0. 0. 0. 0. 0.
      0. 0. 0. 0. 0. 0. 0. 0. 0. 0. 0. 0. 0. 0. 0. 0. 0. 0. 0. 0. 0. 0.
      0. 0. 0. 0. 0. 0. 0. 0. 0. 0. 0. 0. 0. 0. 0. 0. 0. 0. 0. 0. 0. 0.
      0. 0. 0. 0. 0. 0. 0. 0. 0. 0. 0. 0. 0. 0. 0. 0. 0. 0. 0. 0. 0. 0.
      0. 0. 0. 0. 0. 0. 2.08333340e-02 0. 0. 0. 0. 0. 0. 0. 0. 0. 0. 0.
      0. 0. 0. 2.08333340e-02 0. 2.08333340e-02 0. 0. 0. 0. 0. 0. 0. 0.
      0. 0. 0. 0. 0. 0. 0. 0. 0. 0. 0. 0. 0. 0. 0. 0. 0. 0. 0. 0. 0. 0.
      0. 0. 0. 0. 0. 0. 0. 0. 0. 4.16666679e-02 0. 0. 0. 0.
      6.25000000e-02 0. 0. 0. 0. 0. 0. 0. 0. 0. 0. 0. 0. 0. 0. 0. 0. 0.
      0. 0. 0. 0. 0. 0. 0. 0. 0. 0. 0. 0. 0. 0. 0. 0. 0. 0. 0. 0. 0. 0.
      0. 2.08333340e-02 0. 0. 0. 0. 0. 0. 0. 0. 0. 0. 0. 0. 0. 0. 0. 0.
      0. 0. 0. 0. 0. 0. 0. 0. 0. 0. 0. 0. 0. 0. 0. 0. 0. 0. 0. 0. 0. 0.
      0. 0. 0. 0. 0. 0. 2.08333340e-02 0. 0. 0. 0. 2.08333340e-02 0. 0.
      0. 2.08333340e-02 0. 0. 0. 0. 0. 0. 0. 0. 0. 0. 0. 0. 0. 0. 0. 0.
      0. 0. 0. 0. 0. 0. 0. 0. 0. 2.08333340e-02 0. 0. 0. 0. 0. 0. 0. 0.
      0. 0. 0. 0. 0. 0. 0. 0. 0. 0. 0. 0. 0. 0. 0. 0. 0. 0. 0. 0. 0. 0.
      0. 0. 0. 0. 0. 2.08333340e-02 0. 0. 0. 0. 0. 0. 0. 0. 0.
      2.08333340e-02 0. 0. 0. 0. 0. 0. 0. 0. 0. 2.08333340e-02 0. 0. 0.
      0. 0. 0. 0. 0. 0. 0. 0. 0. 0. 0. 0. 0. 0. 0. 0. 0. 0. 0.
      2.08333340e-02 0. 0. 0. 0. 0. 0. 0. 0. 2.08333340e-02 0. 0. 0. 0.
      0. 0. 0. 0. 0. 0. 0. 0. 0. 0. 0. 0. 0. 0. 0. 0. 0. 0. 0. 0. 0. 0.
      2.08333340e-02 0. 0. 0. 0. 0. 0. 0. 0. 0. 0. 0. 0. 0. 0. 0. 0. 0.
      0. 0. 0. 0. 0. 0. 2.08333340e-02 0. 0. 0. 0. 0. 0. 0. 0. 0. 0. 0.
      0. 0. 0. 0. 0. 0. 0. 0. 2.08333340e-02 0. 0. 2.08333340e-02 0. 0.
      0. 0. 0. 0. 0. 0. 0. 0. 0. 0. 0. 0. 0. 4.16666679e-02 0. 0. 0. 0.
      0. 0. 0. 0. 0. 0. 0. 0. 0. 0. 0. 0. 0. 0. 0. 0. 0. 0. 0. 0. 0. 0.
      2.08333340e-02 0. 0. 0. 0. 0. 0. 0. 0. 0. 0. 0. 0. 0. 0. 0. 0. 0.
      0. 0. 0. 0. 0. 0. 0. 0. 0. 0. 0. 0. 0. 0. 0. 0. 0. 0. 0. 0. 0. 0.
      0. 0. 0. 0. 0. 0. 0. 0. 2.08333340e-02 0. 0. 0. 0. 0. 0. 0. 0. 0.
      0. 0. 2.08333340e-02 0. 0. 0. 0. 0. 0. 0. 0. 0. 0. 0. 0. 0. 0. 0.
      0. 0. 0. 0. 0. 0. 0. 0. 0. 0. 0. 0. 0. 0. 0. 0. 0. 0. 0. 0. 0. 0.
      0. 0. 0. 0. 0. 0. 0. 0. 0. 0. 0. 0. 0. 0. 0. 0. 0. 0. 0. 0. 0. 0.
      2.08333340e-02 0. 0. 0. 0. 0. 0. 0. 0. 0. 0. 0. 0. 0. 0. 0. 0. 0.
      0. 0. 0. 0. 0. 0. 0. 0. 0. 0. 0. 0. 0. 0. 0. 0. 0. 2.08333340e-02
      0. 0. 0. 0. 0. 0. 0. 0. 0. 0. 0. 2.08333340e-02 0. 0. 0. 0. 0. 0.
      0. 0. 0. 0. 0. 0. 0. 2.08333340e-02 0. 0. 0. 0. 0. 0. 0. 0. 0. 0.
      0. 0. 0. 0. 0. 0. 0. 0. 0. 0. 0. 0. 2.08333340e-02 0. 0. 0. 0. 0.
      0. 0. 0. 0. 0. 0. 0. 0. 2.08333340e-02 0. 0. 2.08333340e-02 0. 0.
      0. 0. 0. 0. 0. 0. 0. 0. 0. 0. 0. 0. 2.08333340e-02 0. 0. 0. 0. 0.
      0. 0. 0. 0. 0. 0. 0. 0. 0. 0. 0. 2.08333340e-02 0. 0. 0. 0.
      2.08333340e-02 2.08333340e-02 0. 0. 0. 0. 0. 0. 0. 0. 0. 0. 0. 0.
      0. 0. 0. 0. 0. 0. 0. 0. 0. 0. 0. 0. 0. 0. 0. 0. 0. 0. 0. 0. 0. 0.
      0. 0. 0. 0. 0. 0. 0. 0. 0. 0. 0. 0. 0. 0. 0. 0. 0. 0. 0. 0. 0. 0.
      0. 0. 0. 0. 0. 0. 0. 0. 0. 0. 0. 0. 0. 0. 0. 0. 0. 0. 0. 0. 0. 0.
      0. 0. 0. 0. 0. 0. 0. 0. 0. 0. 0. 0. 0. 0. 0. 0. 0. 0. 0. 0. 0. 0.
      0. 0. 0. 0. 0. 0. 0. 0. 0. 0. 0. 0. 0. 0. 0. 0. 0. 0. 0. 0. 0. 0.
      0. 0. 0. 2.08333340e-02 0. 0. 0. 0. 0. 0. 0. 0. 0. 0. 0. 0. 0. 0.
      0. 0. 0. 0. 0. 0. 0. 2.08333340e-02 2.08333340e-02 0. 0. 0. 0. 0.
      0. 0. 0. 0. 0. 0. 0. 0. 0. 0. 0. 0. 0. 0. 0. 0. 0. 0. 0. 0. 0. 0.
      0. 0. 0. 0. 0. 0. 0. 0. 0. 0. 0. 0. 0. 0.</_>
    <_>
      1.21951215e-02 0. 0. 0. 0. 0. 0. 0. 0. 0. 1.21951215e-02 0. 0. 0.
      0. 0. 0. 0. 0. 0. 0. 0. 0. 0. 0. 0. 0. 0. 1.21951215e-02 0.
      1.21951215e-02 0. 0. 0. 0. 0. 0. 0. 0. 0. 0. 0. 0. 0. 0. 0. 0. 0.
      0. 0. 0. 0. 0. 0. 0. 0. 0. 0. 0. 1.21951215e-02 1.21951215e-02 0.
      0. 0. 0. 0. 0. 0. 0. 0. 0. 2.43902430e-02 0. 0. 0. 1.21951215e-02
      0. 0. 0. 1.21951215e-02 0. 0. 0. 0. 0. 0. 0. 0. 0. 0. 0. 0. 0. 0.
      0. 0. 0. 0. 0. 0. 0. 0. 0. 0. 0. 1.21951215e-02 0. 0. 0. 0. 0. 0.
      0. 0. 0. 0. 0. 0. 0. 0. 0. 0. 0. 0. 0. 0. 0. 0. 0. 0. 0. 0. 0. 0.
      0. 0. 0. 0. 0. 0. 0. 0. 0. 0. 0. 0. 0. 0. 0. 0. 0. 0. 0. 0. 0. 0.
      0. 0. 0. 0. 0. 0. 1.21951215e-02 0. 0. 0. 0. 0. 0. 0. 0.
      1.21951215e-02 0. 0. 0. 0. 0. 0. 0. 0. 3.65853645e-02 0. 0. 0.
      1.21951215e-02 0. 0. 0. 0. 0. 0. 0. 0. 0. 0. 0. 0. 0. 0. 0. 0. 0.
      0. 0. 0. 0. 0. 0. 0. 0. 0. 2.43902430e-02 0. 0. 1.21951215e-02 0.
      0. 0. 0. 0. 0. 0. 0. 0. 0. 0. 0. 0. 0. 0. 0. 0. 0. 0. 0. 0. 0. 0.
      0. 0. 0. 0. 0. 0. 0. 0. 0. 0. 0. 1.21951215e-02 0. 0. 0. 0. 0. 0.
      0. 0. 0. 0. 0. 0. 0. 0. 0. 0. 0. 0. 0. 0. 0. 1.21951215e-02 0. 0.
      0. 0. 0. 0. 0. 0. 0. 0. 0. 0. 0. 0. 0. 0. 0. 0. 1.21951215e-02
      1.21951215e-02 0. 0. 0. 1.21951215e-02 0. 0. 0. 0. 0. 0. 0. 0. 0.
      0. 0. 0. 0. 0. 0. 0. 0. 0. 0. 0. 0. 0. 0. 0. 0. 0. 0. 0. 0. 0. 0.
      0. 0. 0. 0. 0. 0. 0. 0. 0. 0. 0. 0. 0. 0. 1.21951215e-02 0. 0. 0.
      0. 0. 0. 0. 0. 0. 0. 0. 0. 0. 0. 0. 0. 0. 0. 0. 0. 0. 0. 0. 0. 0.
      0. 0. 0. 0. 0. 0. 0. 0. 0. 0. 0. 0. 0. 1.21951215e-02 0. 0. 0. 0.
      0. 0. 0. 0. 1.21951215e-02 0. 0. 0. 0. 0. 1.21951215e-02 0. 0. 0.
      0. 0. 0. 0. 0. 0. 0. 0. 0. 0. 0. 0. 0. 0. 0. 0. 0. 0. 0. 0. 0. 0.
      0. 0. 0. 0. 0. 0. 0. 0. 0. 0. 0. 0. 0. 0. 0. 0. 0. 0. 0. 0. 0.
      1.21951215e-02 0. 0. 0. 0. 0. 0. 0. 0. 0. 0. 2.43902430e-02 0. 0.
      0. 0. 1.21951215e-02 0. 0. 1.21951215e-02 1.21951215e-02 0. 0. 0.
      1.21951215e-02 0. 0. 0. 0. 0. 0. 0. 0. 0. 0. 0. 0. 0. 0. 0. 0. 0.
      0. 0. 0. 0. 0. 0. 1.21951215e-02 0. 0. 0. 0. 0. 0. 0. 0. 0. 0. 0.
      0. 0. 0. 0. 0. 0. 0. 0. 0. 0. 1.21951215e-02 0. 0. 0. 0. 0.
      1.21951215e-02 0. 0. 0. 0. 0. 1.21951215e-02 0. 0. 0. 0. 0. 0. 0.
      0. 0. 0. 2.43902430e-02 0. 0. 0. 1.21951215e-02 0. 0. 0. 0. 0.
      2.43902430e-02 0. 0. 0. 0. 0. 0. 0. 0. 0. 0. 0. 0. 0. 0.
      1.21951215e-02 0. 0. 0. 0. 0. 0. 0. 0. 0. 0. 1.21951215e-02 0. 0.
      0. 0. 0. 0. 0. 0. 0. 0. 0. 0. 0. 0. 0. 0. 0. 0. 0. 0. 0. 0. 0. 0.
      0. 0. 0. 0. 0. 0. 0. 0. 0. 0. 0. 0. 0. 0. 0. 0. 0. 0. 0.
      1.21951215e-02 0. 0. 0. 1.21951215e-02 0. 0. 0. 0. 0. 0. 0. 0. 0.
      0. 0. 0. 0. 2.43902430e-02 0. 0. 0. 0. 0. 0. 0. 0. 0. 0. 0. 0. 0.
      0. 0. 1.21951215e-02 0. 0. 0. 0. 0. 0. 1.21951215e-02 0. 0. 0. 0.
      0. 0. 1.21951215e-02 0. 0. 0. 0. 0. 0. 0. 0. 0. 0. 1.21951215e-02
      2.43902430e-02 0. 0. 0. 0. 0. 0. 0. 0. 0. 0. 0. 0. 0. 0. 0. 0. 0.
      0. 0. 0. 0. 0. 0. 0. 0. 0. 0. 0. 0. 0. 0. 1.21951215e-02 0. 0. 0.
      0. 0. 0. 0. 0. 0. 0. 0. 0. 0. 0. 0. 0. 0. 0. 0. 0. 0. 0. 0. 0. 0.
      0. 2.43902430e-02 0. 0. 2.43902430e-02 0. 0. 0. 0. 0. 0. 0. 0. 0.
      0. 0. 1.21951215e-02 0. 0. 0. 0. 0. 0. 0. 0. 0. 0. 0. 0. 0. 0. 0.
      0. 0. 0. 1.21951215e-02 0. 0. 0. 0. 0. 0. 0. 0. 0. 0. 0. 0. 0. 0.
      0. 0. 0. 0. 0. 0. 0. 0. 0. 0. 0. 0. 0. 0. 0. 0. 0. 0. 0. 0. 0.
      1.21951215e-02 0. 0. 0. 0. 3.65853645e-02 0. 0. 0. 0. 0. 0. 0. 0.
      0. 0. 0. 0. 0. 0. 0. 0. 0. 0. 0. 0. 0. 0. 0. 0. 0. 0. 0. 0.
      1.21951215e-02 0. 0. 0. 0. 1.21951215e-02 0. 0. 0. 0. 0. 0. 0. 0.
      0. 0. 0. 0. 0. 0. 0. 0. 0. 0. 0. 0. 0. 0. 1.21951215e-02
      1.21951215e-02 0. 0. 0. 0. 0. 0. 0. 0. 0. 0. 0. 0. 0. 0. 0. 0. 0.
      0. 0. 0. 0. 0. 0. 0. 0. 0. 0. 0. 0. 0. 0. 0. 0. 0. 0. 0. 0. 0. 0.
      0. 0. 0. 1.21951215e-02 0. 0. 0. 0. 0. 0. 0. 0. 0. 0. 0. 0. 0. 0.
      0. 1.21951215e-02 0. 0. 0. 0. 0. 1.21951215e-02 0. 0. 0. 0. 0. 0.
      0. 0. 2.43902430e-02 0. 0. 0. 0. 0. 0. 0. 0. 0. 0. 0. 0. 0.
      1.21951215e-02 0. 0. 3.65853645e-02 0. 0. 0. 0. 0. 0. 0.
      1.21951215e-02 0. 0. 0. 0. 0. 0. 0. 0. 0. 0. 0. 0. 0. 0. 0. 0. 0.
      0. 0. 0. 0. 0. 0. 0. 0. 0. 0. 0. 0. 0. 0. 0. 0.</_>
    <_>
      1.21951215e-02 0. 0. 0. 0. 0. 0. 0. 0. 0. 1.21951215e-02 0. 0. 0.
      0. 0. 0. 0. 0. 0. 0. 0. 0. 0. 0. 0. 0. 0. 0. 0. 0. 0. 0. 0. 0. 0.
      0. 0. 0. 0. 0. 1.21951215e-02 0. 0. 0. 0. 0. 0. 0. 0. 0. 0. 0. 0.
      0. 0. 0. 0. 0. 2.43902430e-02 1.21951215e-02 0. 0. 0. 0. 0. 0. 0.
      0. 0. 0. 2.43902430e-02 0. 0. 0. 1.21951215e-02 0. 0. 0. 0. 0. 0.
      0. 0. 0. 0. 0. 0. 0. 0. 0. 0. 0. 0. 0. 0. 0. 0. 0. 0. 0. 0. 0. 0.
      0. 1.21951215e-02 0. 0. 0. 0. 0. 0. 0. 0. 0. 0. 0. 0. 0. 0. 0. 0.
      0. 0. 0. 0. 0. 0. 0. 0. 0. 0. 0. 0. 0. 0. 0. 0. 0. 0. 0.
      1.21951215e-02 0. 0. 0. 0. 0. 0. 0. 0. 1.21951215e-02 0. 0.
      2.43902430e-02 0. 0. 0. 0. 0. 0. 0. 0. 1.21951215e-02 0. 0. 0. 0.
      0. 0. 0. 0. 1.21951215e-02 0. 0. 0. 0. 0. 0. 0. 0. 1.21951215e-02
      0. 0. 0. 0. 0. 0. 1.21951215e-02 0. 0. 0. 0. 0. 0. 0. 0. 0. 0. 0.
      0. 0. 0. 0. 0. 0. 0. 0. 0. 0. 0. 0. 2.43902430e-02 0. 0.
      1.21951215e-02 0. 0. 0. 0. 0. 0. 0. 0. 0. 0. 0. 0. 0. 0. 0. 0. 0.
      0. 0. 0. 0. 0. 0. 0. 0. 0. 1.21951215e-02 0. 0. 0. 0. 0. 0. 0. 0.
      0. 0. 0. 0. 0. 0. 0. 0. 0. 0. 0. 0. 0. 0. 0. 0. 0. 0. 0. 0. 0.
      1.21951215e-02 0. 0. 0. 0. 0. 0. 0. 0. 0. 0. 0. 0. 0. 0. 0. 0. 0.
      0. 1.21951215e-02 1.21951215e-02 0. 0. 0. 0. 0. 0. 0. 0. 0. 0. 0.
      0. 0. 0. 0. 0. 0. 0. 0. 0. 0. 0. 0. 0. 0. 0. 0. 0. 0. 0. 0.
      1.21951215e-02 0. 0. 0. 0. 0. 0. 0. 0. 0. 0. 0. 0. 0. 0. 0. 0. 0.
      0. 0. 0. 0. 0. 0. 0. 0. 0. 0. 0. 0. 0. 0. 0. 0. 0. 0. 0. 0. 0. 0.
      0. 0. 0. 0. 0. 0. 0. 0. 0. 0. 0. 0. 0. 0. 0. 0. 0. 1.21951215e-02
      0. 0. 0. 0. 0. 0. 0. 0. 0. 0. 0. 0. 0. 0. 2.43902430e-02
      1.21951215e-02 0. 0. 0. 0. 0. 0. 0. 0. 0. 0. 0. 0. 0. 0. 0. 0. 0.
      0. 0. 0. 0. 0. 0. 0. 0. 0. 0. 0. 0. 0. 0. 0. 0. 0. 0. 0. 0. 0. 0.
      0. 0. 0. 0. 0. 0. 1.21951215e-02 0. 0. 0. 0. 0. 0. 0. 0. 0. 0.
      1.21951215e-02 0. 0. 0. 0. 1.21951215e-02 0. 0. 0. 1.21951215e-02
      0. 0. 0. 1.21951215e-02 0. 0. 0. 0. 0. 0. 1.21951215e-02 0. 0. 0.
      0. 0. 0. 0. 0. 0. 0. 0. 0. 0. 0. 0. 0. 0. 0. 0. 0. 0. 0. 0. 0. 0.
      0. 0. 0. 1.21951215e-02 0. 0. 0. 0. 0. 0. 0. 0. 0. 0. 0. 0. 0. 0.
      0. 0. 0. 0. 0. 0. 0. 0. 0. 0. 0. 0. 0. 0. 0. 0. 0. 0. 0. 0. 0. 0.
      1.21951215e-02 0. 0. 0. 0. 0. 3.65853645e-02 0. 0. 0. 0. 0. 0. 0.
      0. 0. 0. 0. 0. 0. 0. 1.21951215e-02 0. 0. 0. 0. 0. 0. 0. 0. 0. 0.
      0. 0. 0. 0. 0. 0. 0. 0. 0. 0. 0. 0. 0. 0. 0. 0. 0. 0. 0. 0. 0. 0.
      0. 0. 0. 0. 0. 1.21951215e-02 0. 0. 0. 0. 2.43902430e-02 0. 0. 0.
      0. 0. 0. 0. 0. 0. 0. 0. 0. 0. 0. 0. 0. 0. 0. 0. 0. 0. 0. 0. 0. 0.
      0. 0. 0. 0. 1.21951215e-02 0. 0. 0. 0. 0. 0. 0. 0. 0. 0. 0. 0. 0.
      0. 0. 1.21951215e-02 0. 0. 0. 1.21951215e-02 0. 0. 0. 0. 0. 0. 0.
      0. 0. 1.21951215e-02 0. 0. 0. 1.21951215e-02 0. 0. 0. 0. 0. 0. 0.
      2.43902430e-02 0. 0. 0. 0. 0. 0. 1.21951215e-02 0. 0. 0. 0. 0. 0.
      0. 0. 0. 0. 0. 0. 1.21951215e-02 0. 0. 0. 0. 0. 0. 0. 0. 0. 0. 0.
      1.21951215e-02 0. 0. 0. 0. 0. 0. 1.21951215e-02 0. 0. 0. 0. 0. 0.
      0. 0. 0. 0. 0. 0. 0. 0. 0. 0. 0. 0. 0. 1.21951215e-02 0. 0.
      2.43902430e-02 0. 0. 0. 0. 0. 0. 0. 0. 0. 0. 0. 1.21951215e-02 0.
      0. 0. 0. 0. 0. 0. 0. 0. 0. 0. 1.21951215e-02 1.21951215e-02 0. 0.
      0. 0. 0. 3.65853645e-02 0. 0. 0. 0. 0. 0. 0. 0. 0. 0. 0. 0. 0. 0.
      0. 0. 0. 1.21951215e-02 0. 0. 0. 0. 0. 0. 0. 0. 0. 0. 0. 0. 0. 0.
      0. 0. 0. 1.21951215e-02 0. 0. 0. 0. 4.87804860e-02 0. 0. 0. 0. 0.
      0. 0. 0. 0. 0. 0. 0. 0. 0. 0. 0. 0. 0. 0. 0. 0. 0. 0. 0. 0. 0. 0.
      0. 1.21951215e-02 0. 0. 0. 0. 1.21951215e-02 0. 0. 0. 0.
      1.21951215e-02 0. 0. 0. 0. 0. 0. 0. 0. 0. 0. 0. 0. 0. 0. 0. 0. 0.
      0. 1.21951215e-02 0. 0. 0. 0. 0. 0. 0. 0. 0. 0. 0. 0. 0. 0. 0. 0.
      0. 0. 0. 0. 0. 0. 0. 0. 0. 0. 0. 0. 0. 0. 0. 0. 0. 0. 0. 0. 0. 0.
      0. 0. 0. 0. 1.21951215e-02 0. 0. 1.21951215e-02 0. 0. 0. 0. 0. 0.
      0. 0. 0. 0. 0. 0. 0. 0. 0. 0. 0. 0. 0. 0. 0. 0. 0. 0. 0. 0. 0.
      2.43902430e-02 0. 0. 0. 0. 0. 0. 0. 0. 0. 0. 0. 0. 0. 0. 0. 0.
      1.21951215e-02 0. 0. 0. 0. 0. 0. 0. 1.21951215e-02 0. 0. 0. 0. 0.
      0. 0. 0. 0. 0. 0. 0. 0. 0. 0. 0. 0. 0. 0. 0. 0. 1.21951215e-02 0.
      0. 0. 0. 0. 0. 0. 0. 0. 0. 0.</_>
    <_>
      0. 0. 0. 0. 9.61538497e-03 0. 0. 0. 0. 0. 0. 0. 0. 0. 0. 0. 0. 0.
      0. 0. 0. 9.61538497e-03 0. 0. 0. 0. 0. 0. 0. 0. 0. 0. 0. 0. 0. 0.
      0. 0. 0. 0. 9.61538497e-03 0. 0. 9.61538497e-03 0. 0. 0. 0. 0. 0.
      0. 0. 0. 0. 0. 0. 0. 0. 0. 0. 0. 0. 0. 0. 0. 0. 0. 0.
      9.61538497e-03 9.61538497e-03 0. 1.92307699e-02 0. 0. 0.
      9.61538497e-03 0. 0. 0. 0. 0. 0. 0. 0. 0. 9.61538497e-03 0. 0. 0.
      9.61538497e-03 0. 0. 0. 0. 0. 0. 0. 0. 0. 0. 0. 0. 9.61538497e-03
      0. 0. 0. 0. 0. 0. 0. 0. 0. 0. 0. 0. 0. 0. 0. 0. 0. 0. 0. 0. 0. 0.
      0. 9.61538497e-03 0. 0. 0. 0. 0. 0. 9.61538497e-03 0. 0. 0. 0. 0.
      0. 0. 0. 0. 0. 0. 0. 0. 0. 0. 0. 0. 0. 0. 0. 0. 0. 0. 0. 0. 0. 0.
      9.61538497e-03 9.61538497e-03 0. 0. 9.61538497e-03 0. 0. 0. 0. 0.
      0. 0. 0. 0. 0. 0. 0. 0. 0. 9.61538497e-03 0. 0. 0. 0.
      9.61538497e-03 0. 0. 0. 0. 0. 0. 0. 0. 0. 0. 0. 0. 0. 0. 0.
      9.61538497e-03 0. 0. 0. 0. 0. 0. 9.61538497e-03 0. 1.92307699e-02
      0. 0. 0. 9.61538497e-03 0. 0. 9.61538497e-03 0. 0. 0. 0. 0. 0. 0.
      0. 0. 0. 0. 0. 0. 0. 9.61538497e-03 0. 0. 0. 0. 0. 0. 0. 0. 0. 0.
      0. 1.92307699e-02 0. 1.92307699e-02 0. 0. 0. 0. 0. 1.92307699e-02
      0. 0. 0. 0. 0. 0. 0. 0. 0. 0. 0. 0. 0. 0. 0. 0. 0. 0.
      9.61538497e-03 0. 0. 9.61538497e-03 0. 0. 0. 0. 0. 0. 0. 0.
      9.61538497e-03 0. 0. 0. 0. 0. 0. 0. 0. 0. 0. 0. 0. 0. 0. 0. 0. 0.
      0. 0. 0. 0. 0. 0. 0. 0. 0. 0. 0. 0. 0. 0. 0. 0. 0. 0. 0. 0. 0. 0.
      9.61538497e-03 0. 9.61538497e-03 0. 0. 0. 0. 0. 0. 0. 0. 0. 0. 0.
      9.61538497e-03 0. 0. 0. 9.61538497e-03 0. 0. 0. 0. 0.
      9.61538497e-03 0. 0. 0. 0. 0. 0. 0. 0. 0. 0. 0. 0. 0. 0. 0. 0. 0.
      0. 0. 0. 0. 0. 0. 0. 0. 0. 0. 0. 0. 0. 0. 0. 9.61538497e-03 0. 0.
      0. 0. 0. 0. 0. 0. 0. 0. 0. 0. 0. 0. 0. 0. 0. 0. 0. 0. 0. 0. 0. 0.
      0. 0. 0. 0. 0. 0. 0. 0. 0. 0. 0. 0. 0. 0. 0. 0. 9.61538497e-03 0.
      0. 0. 0. 9.61538497e-03 1.92307699e-02 0. 0. 0. 0. 0. 0. 0. 0. 0.
      0. 0. 0. 0. 1.92307699e-02 0. 0. 0. 0. 0. 0. 0. 0. 0. 0. 0.
      9.61538497e-03 0. 0. 0. 9.61538497e-03 3.84615399e-02 0. 0.
      1.92307699e-02 0. 0. 0. 0. 9.61538497e-03 0. 0. 0. 0. 0. 0. 0. 0.
      0. 0. 0. 0. 9.61538497e-03 0. 0. 0. 0. 0. 0. 0. 0. 0. 0. 0. 0. 0.
      0. 0. 0. 0. 9.61538497e-03 0. 0. 0. 0. 0. 0. 0. 0. 0. 0.
      9.61538497e-03 0. 0. 0. 0. 0. 0. 0. 0. 0. 0. 0. 0. 0. 0. 0. 0. 0.
      0. 0. 0. 0. 0. 0. 0. 9.61538497e-03 0. 0. 0. 0. 0. 0. 0. 0.
      9.61538497e-03 0. 9.61538497e-03 0. 0. 0. 0. 0. 0. 0. 0. 0. 0. 0.
      0. 0. 0. 0. 0. 0. 0. 0. 9.61538497e-03 0. 0. 0. 0. 0. 0. 0. 0. 0.
      0. 0. 0. 0. 0. 0. 0. 0. 0. 0. 0. 0. 0. 0. 0. 0. 0. 9.61538497e-03
      0. 0. 0. 0. 0. 9.61538497e-03 0. 0. 0. 0. 0. 9.61538497e-03 0. 0.
      0. 0. 0. 0. 0. 0. 0. 0. 0. 0. 0. 0. 0. 0. 0. 0. 0. 0. 0. 0. 0. 0.
      0. 0. 0. 0. 0. 0. 9.61538497e-03 0. 0. 0. 0. 9.61538497e-03 0. 0.
      0. 0. 0. 0. 0. 0. 0. 0. 0. 0. 9.61538497e-03 0. 0. 1.92307699e-02
      0. 0. 0. 9.61538497e-03 0. 0. 0. 0. 0. 0. 0. 0. 0. 0.
      9.61538497e-03 0. 0. 0. 0. 0. 0. 0. 0. 0. 0. 0. 0. 0. 0. 0.
      9.61538497e-03 0. 0. 0. 0. 1.92307699e-02 0. 0. 9.61538497e-03 0.
      0. 0. 0. 0. 0. 0. 0. 0. 0. 0. 0. 0. 0. 0. 0. 0. 0. 0.
      1.92307699e-02 0. 0. 0. 0. 0. 0. 0. 0. 0. 0. 0. 0. 0. 0. 0. 0. 0.
      0. 0. 0. 0. 9.61538497e-03 0. 0. 0. 0. 0. 0. 0. 0. 0. 0. 0. 0. 0.
      0. 0. 9.61538497e-03 0. 0. 0. 0. 0. 0. 0. 0. 9.61538497e-03 0. 0.
      0. 0. 9.61538497e-03 0. 0. 0. 0. 0. 0. 0. 0. 0. 0. 0. 0. 0. 0. 0.
      0. 0. 0. 0. 0. 0. 0. 0. 0. 0. 0. 0. 9.61538497e-03 0. 0. 0. 0. 0.
      0. 0. 0. 0. 0. 9.61538497e-03 0. 0. 0. 0. 0. 0. 0. 0. 0. 0. 0. 0.
      0. 0. 0. 0. 0. 0. 9.61538497e-03 9.61538497e-03 0. 0. 0. 0. 0. 0.
      0. 0. 0. 0. 9.61538497e-03 0. 0. 0. 0. 0. 0. 1.92307699e-02 0. 0.
      9.61538497e-03 0. 9.61538497e-03 0. 0. 0. 0. 0. 0. 0. 0. 0. 0. 0.
      0. 0. 0. 0. 0. 9.61538497e-03 0. 0. 9.61538497e-03 9.61538497e-03
      0. 0. 0. 0. 0. 0. 0. 0. 0. 0. 9.61538497e-03 0. 9.61538497e-03 0.
      0. 0. 0. 0. 0. 0. 0. 0. 0. 0. 0. 0. 0. 0. 0. 0. 0. 0. 0. 0. 0. 0.
      0. 0. 0. 9.61538497e-03 0. 9.61538497e-03 0. 0. 0. 0. 0. 0. 0. 0.
      0. 0. 0. 9.61538497e-03 0. 0. 0. 0. 0. 0. 9.61538497e-03 0. 0. 0.
      9.61538497e-03 0. 0. 0. 0. 0. 0. 0. 0. 0. 0. 0. 0. 0. 0. 0. 0. 0.
      0. 9.61538497e-03 9.61538497e-03 0. 0. 0. 0. 0. 0. 0. 0. 0. 0. 0.
      0. 0. 0. 0. 0. 0. 0. 0. 0. 0. 0. 0. 0. 0. 0. 0. 0. 0. 0. 0. 0. 0.
      0. 0. 0. 0. 0. 0. 0. 0. 0. 0. 0. 0.</_>
    <_>
      0. 8.47457629e-03 0. 0. 8.47457629e-03 0. 0. 0. 0. 0. 0. 0. 0. 0.
      0. 0. 0. 0. 0. 0. 0. 0. 0. 0. 0. 0. 0. 0. 0. 0. 0. 0. 0. 0. 0. 0.
      0. 0. 0. 0. 0. 0. 0. 8.47457629e-03 0. 0. 0. 0. 0. 0. 0. 0. 0. 0.
      0. 0. 0. 0. 0. 0. 0. 0. 0. 0. 0. 0. 0. 0. 8.47457629e-03 0. 0.
      1.69491526e-02 0. 0. 0. 0. 0. 0. 0. 0. 0. 0. 0. 0. 0. 0. 0. 0.
      8.47457629e-03 8.47457629e-03 0. 0. 0. 0. 0. 0. 0. 0. 0. 0. 0. 0.
      0. 0. 0. 0. 0. 0. 0. 0. 0. 0. 0. 0. 0. 0. 0. 0. 0. 0. 0. 0. 0. 0.
      0. 0. 8.47457629e-03 0. 0. 0. 0. 0. 0. 0. 8.47457629e-03 0. 0. 0.
      0. 0. 0. 0. 0. 0. 0. 0. 0. 0. 0. 0. 0. 0. 0. 0. 8.47457629e-03 0.
      0. 0. 0. 0. 0. 0. 8.47457629e-03 0. 0. 8.47457629e-03 0. 0. 0. 0.
      0. 0. 0. 0. 0. 8.47457629e-03 0. 0. 0. 0. 8.47457629e-03 0. 0. 0.
      0. 8.47457629e-03 0. 0. 0. 0. 0. 0. 0. 0. 0. 0. 0. 0. 0. 0. 0. 0.
      0. 0. 0. 0. 0. 0. 0. 0. 1.69491526e-02 0. 0. 0. 8.47457629e-03 0.
      0. 8.47457629e-03 0. 0. 0. 0. 0. 0. 0. 0. 0. 0. 0. 0.
      8.47457629e-03 0. 8.47457629e-03 0. 0. 0. 0. 0. 0. 0. 0. 0.
      8.47457629e-03 0. 8.47457629e-03 0. 1.69491526e-02 0. 0. 0. 0. 0.
      1.69491526e-02 0. 0. 0. 0. 0. 0. 0. 0. 0. 0. 0. 0. 0. 0. 0. 0. 0.
      0. 8.47457629e-03 0. 0. 8.47457629e-03 0. 0. 8.47457629e-03 0. 0.
      0. 0. 0. 8.47457629e-03 0. 0. 0. 0. 0. 0. 0. 0. 0. 0. 0. 0. 0. 0.
      0. 0. 0. 0. 0. 0. 0. 0. 0. 0. 0. 0. 0. 0. 0. 0. 0. 0. 0. 0. 0. 0.
      8.47457629e-03 0. 0. 8.47457629e-03 0. 8.47457629e-03 0. 0. 0. 0.
      0. 0. 0. 0. 0. 0. 0. 0. 0. 0. 0. 0. 8.47457629e-03 0. 0. 0. 0.
      8.47457629e-03 0. 0. 0. 0. 0. 0. 0. 0. 0. 0. 8.47457629e-03
      8.47457629e-03 0. 0. 0. 0. 0. 0. 0. 0. 0. 0. 0. 0. 0. 0. 0. 0. 0.
      0. 0. 0. 8.47457629e-03 0. 0. 0. 0. 0. 0. 0. 8.47457629e-03 0. 0.
      0. 0. 0. 0. 0. 0. 0. 0. 0. 0. 0. 0. 0. 0. 0. 0. 0. 0. 0. 0. 0. 0.
      1.69491526e-02 0. 0. 0. 0. 0. 0. 0. 1.69491526e-02 0. 0. 0. 0.
      8.47457629e-03 1.69491526e-02 0. 0. 8.47457629e-03 0. 0. 0. 0. 0.
      0. 0. 0. 0. 0. 1.69491526e-02 0. 0. 0. 0. 0. 0. 0. 0. 0. 0. 0.
      8.47457629e-03 0. 0. 0. 8.47457629e-03 3.38983051e-02 0. 0.
      1.69491526e-02 0. 0. 0. 0. 8.47457629e-03 0. 0. 0. 0. 0. 0. 0. 0.
      0. 0. 0. 0. 8.47457629e-03 0. 0. 0. 0. 0. 0. 0. 0. 0. 0. 0. 0. 0.
      0. 0. 8.47457629e-03 0. 2.54237279e-02 0. 0. 0. 0. 0. 0. 0. 0. 0.
      0. 8.47457629e-03 0. 0. 0. 0. 0. 0. 0. 0. 0. 0. 0. 0. 0. 0. 0. 0.
      0. 0. 0. 0. 0. 0. 0. 0. 0. 0. 0. 0. 0. 0. 0. 0. 0. 8.47457629e-03
      0. 8.47457629e-03 0. 0. 0. 0. 0. 0. 0. 0. 0. 0. 0. 0. 0. 0. 0. 0.
      0. 0. 0. 0. 0. 0. 0. 0. 8.47457629e-03 0. 0. 0. 0. 0. 0. 0. 0. 0.
      0. 0. 0. 0. 0. 0. 0. 0. 0. 0. 0. 0. 8.47457629e-03 0. 0. 0. 0. 0.
      8.47457629e-03 0. 0. 0. 0. 0. 1.69491526e-02 0. 0. 0. 0. 0. 0. 0.
      0. 0. 0. 0. 0. 0. 0. 0. 0. 0. 0. 0. 0. 0. 0. 0. 0. 0. 0. 0. 0. 0.
      0. 8.47457629e-03 0. 0. 0. 0. 1.69491526e-02 0. 0. 0. 0. 0. 0. 0.
      0. 0. 0. 0. 0. 8.47457629e-03 0. 0. 8.47457629e-03 0. 0. 0.
      8.47457629e-03 0. 0. 0. 0. 0. 0. 8.47457629e-03 0. 0. 0.
      8.47457629e-03 0. 0. 0. 0. 8.47457629e-03 0. 0. 0. 0. 0. 0.
      8.47457629e-03 0. 0. 0. 0. 0. 0. 0. 0. 1.69491526e-02 0. 0.
      8.47457629e-03 8.47457629e-03 0. 0. 0. 0. 0. 8.47457629e-03 0. 0.
      0. 0. 0. 0. 0. 0. 0. 0. 0. 0. 1.69491526e-02 0. 0. 0. 0. 0. 0. 0.
      0. 0. 0. 0. 0. 0. 0. 0. 0. 8.47457629e-03 0. 0. 0. 0.
      8.47457629e-03 0. 0. 0. 0. 0. 0. 0. 0. 0. 0. 0. 0. 0. 0. 0. 0. 0.
      0. 0. 0. 0. 0. 0. 0. 1.69491526e-02 0. 0. 0. 0. 0. 0. 0. 0. 0. 0.
      0. 0. 0. 0. 0. 0. 0. 0. 0. 0. 0. 0. 0. 0. 0. 0. 0. 0. 0. 0. 0. 0.
      8.47457629e-03 8.47457629e-03 0. 0. 0. 0. 0. 0. 0. 0. 0.
      8.47457629e-03 0. 0. 0. 8.47457629e-03 0. 0. 0. 0. 0. 0. 0. 0. 0.
      0. 0. 0. 0. 0. 0. 8.47457629e-03 0. 0. 0. 0. 0. 0. 0. 0. 0. 0.
      8.47457629e-03 0. 0. 0. 0. 0. 0. 8.47457629e-03 0. 0. 0. 0.
      8.47457629e-03 0. 0. 0. 0. 0. 0. 0. 0. 0. 0. 0. 0. 0. 0. 0. 0.
      8.47457629e-03 0. 0. 8.47457629e-03 1.69491526e-02 0. 0. 0. 0. 0.
      0. 0. 0. 0. 0. 8.47457629e-03 0. 8.47457629e-03 0. 0. 0. 0. 0. 0.
      0. 0. 0. 0. 0. 0. 0. 0. 0. 0. 0. 0. 0. 0. 0. 0. 0. 0. 0. 0.
      8.47457629e-03 0. 1.69491526e-02 0. 0. 0. 0. 0. 0. 0. 0. 0. 0. 0.
      8.47457629e-03 0. 0. 0. 0. 0. 0. 8.47457629e-03 0. 0. 0.
      8.47457629e-03 0. 0. 0. 0. 0. 0. 0. 0. 0. 0. 0. 0. 0. 0. 0. 0. 0.
      0. 1.69491526e-02 0. 0. 0. 0. 0. 8.47457629e-03 0. 0. 0. 0. 0. 0.
      0. 0. 0. 0. 0. 0. 0. 0. 0. 0. 0. 0. 0. 0. 0. 8.47457629e-03 0. 0.
      0. 0. 0. 0. 0. 0. 0. 0. 0. 0. 0. 0. 0. 0. 0. 0.</_>
    <_>
      0. 1.80180185e-02 0. 0. 9.00900923e-03 0. 0. 0. 0. 0. 0. 0. 0. 0.
      0. 0. 0. 0. 9.00900923e-03 0. 0. 9.00900923e-03 0. 0. 0. 0. 0. 0.
      0. 0. 0. 0. 0. 0. 0. 0. 0. 0. 0. 0. 9.00900923e-03 0. 0.
      9.00900923e-03 0. 0. 0. 0. 0. 0. 0. 0. 0. 0. 0. 0. 0. 0. 0. 0. 0.
      0. 0. 0. 0. 0. 0. 0. 9.00900923e-03 0. 0. 1.80180185e-02 0. 0. 0.
      0. 0. 0. 0. 0. 0. 0. 0. 0. 0. 0. 0. 0. 9.00900923e-03 0. 0. 0. 0.
      0. 0. 0. 0. 0. 0. 0. 0. 0. 0. 0. 0. 0. 0. 0. 0. 0. 0. 0. 0. 0. 0.
      0. 0. 0. 0. 0. 0. 0. 0. 0. 0. 0. 9.00900923e-03 0. 0. 0. 0. 0. 0.
      9.00900923e-03 0. 0. 0. 0. 0. 0. 0. 0. 0. 0. 0. 0. 0. 0. 0. 0. 0.
      0. 0. 0. 0. 0. 0. 0. 0. 0. 0. 1.80180185e-02 9.00900923e-03 0. 0.
      0. 0. 0. 0. 0. 0. 0. 0. 0. 0. 0. 0. 0. 0. 0. 9.00900923e-03 0. 0.
      0. 0. 9.00900923e-03 0. 0. 0. 0. 0. 0. 0. 0. 0. 0. 0. 0. 0. 0. 0.
      0. 0. 0. 0. 0. 0. 0. 0. 0. 1.80180185e-02 0. 0. 0. 9.00900923e-03
      0. 0. 9.00900923e-03 0. 0. 9.00900923e-03 0. 0. 0. 0. 0. 0. 0. 0.
      0. 9.00900923e-03 0. 9.00900923e-03 0. 0. 0. 0. 0. 0. 0. 0. 0.
      9.00900923e-03 0. 9.00900923e-03 0. 1.80180185e-02 0. 0. 0. 0. 0.
      1.80180185e-02 0. 0. 0. 0. 9.00900923e-03 0. 0. 0. 0. 0. 0. 0. 0.
      0. 0. 0. 0. 0. 9.00900923e-03 0. 0. 9.00900923e-03 0. 0. 0. 0. 0.
      0. 0. 0. 9.00900923e-03 0. 0. 0. 0. 0. 0. 0. 0. 0. 0. 0. 0. 0. 0.
      0. 0. 0. 0. 0. 0. 0. 0. 0. 0. 0. 0. 0. 0. 0. 0. 0. 0. 0. 0. 0. 0.
      0. 0. 0. 9.00900923e-03 0. 0. 0. 0. 0. 0. 0. 0. 0. 0. 0. 0. 0.
      9.00900923e-03 0. 0. 0. 9.00900923e-03 0. 0. 0. 0. 0.
      9.00900923e-03 0. 0. 0. 0. 0. 0. 0. 0. 0. 0. 9.00900923e-03
      9.00900923e-03 0. 0. 0. 0. 0. 0. 0. 0. 0. 0. 0. 0. 0. 0. 0. 0. 0.
      0. 0. 0. 9.00900923e-03 0. 0. 0. 0. 0. 0. 0. 9.00900923e-03 0. 0.
      0. 0. 0. 0. 0. 0. 0. 0. 0. 0. 0. 0. 0. 0. 0. 0. 0. 0. 0. 0. 0. 0.
      9.00900923e-03 0. 0. 0. 0. 0. 0. 0. 1.80180185e-02 0. 0. 0. 0.
      9.00900923e-03 1.80180185e-02 0. 0. 0. 0. 0. 0. 0. 0. 0. 0. 0. 0.
      0. 1.80180185e-02 0. 0. 0. 0. 0. 0. 0. 0. 0. 0. 0. 9.00900923e-03
      0. 0. 0. 0. 5.40540554e-02 0. 0. 1.80180185e-02 0. 0. 0. 0.
      9.00900923e-03 0. 0. 0. 0. 0. 0. 0. 0. 9.00900923e-03 0. 0. 0.
      9.00900923e-03 0. 0. 0. 0. 0. 0. 0. 0. 0. 0. 0. 0. 0. 0. 0. 0. 0.
      1.80180185e-02 0. 0. 0. 0. 0. 0. 0. 0. 0. 0. 9.00900923e-03 0. 0.
      0. 0. 0. 0. 0. 0. 0. 0. 0. 0. 0. 0. 0. 0. 0. 0. 0. 0. 0. 0. 0. 0.
      0. 0. 0. 0. 0. 0. 9.00900923e-03 0. 0. 9.00900923e-03 0.
      9.00900923e-03 0. 0. 0. 0. 0. 0. 0. 0. 0. 0. 0. 0. 0. 0. 0. 0. 0.
      0. 0. 9.00900923e-03 0. 0. 0. 0. 0. 0. 0. 9.00900923e-03 0. 0. 0.
      0. 0. 0. 0. 0. 0. 0. 0. 0. 0. 0. 0. 0. 0. 0. 0. 0. 0. 0. 0. 0.
      9.00900923e-03 0. 0. 0. 0. 0. 9.00900923e-03 0. 0. 0. 0. 0. 0. 0.
      0. 0. 0. 0. 0. 0. 0. 0. 0. 0. 0. 0. 0. 0. 0. 0. 0. 0. 0. 0. 0. 0.
      0. 9.00900923e-03 0. 0. 0. 0. 9.00900923e-03 0. 0. 0. 0. 0. 0. 0.
      0. 0. 0. 0. 0. 9.00900923e-03 0. 0. 0. 0. 0. 0. 9.00900923e-03 0.
      0. 0. 0. 0. 0. 0. 0. 0. 0. 9.00900923e-03 0. 0. 0. 0.
      1.80180185e-02 0. 0. 0. 0. 0. 0. 9.00900923e-03 0. 0. 0. 0. 0. 0.
      0. 0. 1.80180185e-02 0. 0. 9.00900923e-03 0. 0. 0. 0. 0. 0. 0. 0.
      0. 0. 0. 0. 0. 0. 0. 0. 0. 0. 9.00900923e-03 1.80180185e-02 0. 0.
      0. 0. 0. 0. 0. 0. 0. 0. 0. 0. 0. 0. 0. 0. 0. 0. 0. 0. 0.
      9.00900923e-03 0. 0. 0. 0. 0. 0. 0. 0. 0. 0. 0. 0. 0. 0. 0. 0. 0.
      0. 0. 0. 0. 0. 0. 0. 9.00900923e-03 0. 0. 0. 0. 0. 0. 0. 0. 0. 0.
      0. 0. 0. 0. 0. 0. 0. 0. 0. 0. 0. 0. 0. 0. 0. 9.00900923e-03 0. 0.
      0. 0. 0. 0. 9.00900923e-03 0. 0. 0. 0. 0. 0. 0. 0. 0. 0. 0. 0. 0.
      0. 9.00900923e-03 0. 0. 0. 0. 0. 0. 0. 0. 0. 0. 0. 0. 0. 0. 0.
      9.00900923e-03 0. 0. 0. 0. 0. 0. 0. 0. 0. 0. 9.00900923e-03 0. 0.
      0. 9.00900923e-03 0. 0. 9.00900923e-03 0. 0. 0. 0. 0. 0. 0.
      9.00900923e-03 0. 0. 0. 0. 0. 0. 0. 0. 0. 0. 0. 0. 0.
      9.00900923e-03 0. 0. 9.00900923e-03 9.00900923e-03 0. 0. 0. 0. 0.
      0. 0. 0. 0. 0. 9.00900923e-03 0. 9.00900923e-03 0. 0. 0. 0. 0. 0.
      0. 0. 0. 0. 0. 0. 0. 0. 0. 0. 0. 0. 0. 0. 0. 0. 0. 0. 0. 0.
      9.00900923e-03 0. 9.00900923e-03 0. 0. 0. 0. 0. 0. 0. 0. 0. 0. 0.
      9.00900923e-03 0. 0. 0. 0. 0. 0. 9.00900923e-03 0. 0. 0.
      9.00900923e-03 0. 0. 0. 0. 0. 0. 0. 0. 0. 0. 0. 0. 0. 0. 0. 0. 0.
      0. 1.80180185e-02 0. 0. 0. 0. 0. 9.00900923e-03 0. 0. 0. 0. 0. 0.
      0. 0. 0. 0. 0. 0. 0. 0. 0. 0. 0. 0. 0. 0. 0. 0. 0. 0. 0. 0. 0. 0.
      0. 0. 0. 0. 9.00900923e-03 0. 0. 0. 0. 0. 0. 0.</_>
    <_>
      0. 0. 0. 0. 0. 0. 0. 0. 0. 0. 0. 0. 0. 0. 1.69491526e-02 0. 0. 0.
      0. 0. 0. 0. 0. 0. 0. 0. 0. 0. 0. 0. 0. 0. 0. 0. 0. 0. 0. 0. 0. 0.
      0. 0. 0. 0. 0. 0. 0. 0. 0. 0. 0. 0. 0. 0. 0. 0. 0. 0. 0. 0. 0. 0.
      0. 0. 0. 0. 0. 0. 0. 1.69491526e-02 0. 1.69491526e-02 0. 0. 0. 0.
      0. 0. 0. 0. 0. 0. 0. 0. 0. 0. 0. 0. 1.69491526e-02 0. 0. 0. 0. 0.
      0. 0. 0. 0. 0. 0. 0. 0. 0. 0. 0. 0. 0. 0. 0. 0. 0. 0. 0. 0. 0. 0.
      0. 0. 0. 0. 0. 0. 0. 0. 0. 0. 0. 0. 0. 0. 0. 0. 0. 0. 0. 0. 0. 0.
      0. 0. 0. 0. 0. 0. 0. 0. 0. 0. 1.69491526e-02 0. 0. 0. 0. 0.
      1.69491526e-02 1.69491526e-02 0. 0. 0. 0. 0. 1.69491526e-02
      3.38983051e-02 0. 0. 0. 0. 1.69491526e-02 0. 0. 0. 0. 0. 0. 0. 0.
      0. 0. 0. 0. 1.69491526e-02 0. 0. 0. 0. 0. 0. 0. 0. 0. 0. 0. 0. 0.
      0. 0. 0. 0. 0. 0. 0. 0. 0. 0. 0. 0. 0. 0. 0. 0. 3.38983051e-02 0.
      0. 0. 1.69491526e-02 0. 0. 0. 0. 0. 0. 0. 0. 0. 0. 0. 0. 0. 0. 0.
      0. 0. 0. 0. 0. 0. 0. 0. 0. 0. 0. 0. 1.69491526e-02 0.
      1.69491526e-02 0. 0. 0. 0. 0. 0. 0. 0. 0. 0. 0. 0. 0. 0. 0. 0. 0.
      0. 0. 0. 0. 0. 0. 0. 0. 0. 1.69491526e-02 0. 0. 1.69491526e-02 0.
      0. 1.69491526e-02 0. 0. 0. 0. 0. 0. 0. 0. 0. 0. 0. 0. 0. 0. 0. 0.
      0. 0. 0. 0. 0. 0. 0. 0. 0. 0. 0. 0. 0. 0. 0. 0. 0. 0. 0. 0. 0. 0.
      0. 0. 0. 0. 0. 0. 0. 1.69491526e-02 0. 0. 0. 0. 0. 0. 0. 0. 0. 0.
      0. 0. 0. 0. 0. 0. 0. 1.69491526e-02 0. 0. 0. 0. 0. 1.69491526e-02
      0. 0. 0. 0. 0. 0. 0. 0. 0. 0. 3.38983051e-02 1.69491526e-02 0. 0.
      0. 0. 0. 0. 0. 0. 0. 0. 0. 0. 0. 0. 0. 0. 0. 0. 0. 0.
      1.69491526e-02 1.69491526e-02 0. 0. 0. 0. 0. 0. 3.38983051e-02 0.
      0. 0. 0. 0. 0. 0. 0. 0. 0. 0. 0. 0. 0. 0. 0. 0. 0. 0. 0. 0. 0. 0.
      0. 1.69491526e-02 0. 0. 0. 0. 0. 0. 0. 0. 0. 0. 0. 0. 0.
      1.69491526e-02 0. 0. 1.69491526e-02 0. 0. 0. 0. 0. 0. 0. 0. 0. 0.
      1.69491526e-02 0. 0. 0. 0. 0. 0. 0. 0. 0. 0. 0. 0. 0. 0. 0. 0. 0.
      0. 0. 1.69491526e-02 0. 0. 0. 0. 3.38983051e-02 0. 0. 0. 0. 0. 0.
      0. 0. 0. 0. 0. 0. 0. 0. 0. 0. 0. 0. 0. 0. 0. 0. 0. 0. 0. 0. 0. 0.
      0. 0. 0. 0. 0. 0. 0. 0. 0. 0. 0. 0. 0. 0. 0. 0. 0. 0. 0. 0. 0. 0.
      0. 0. 0. 0. 0. 0. 0. 0. 0. 0. 0. 0. 0. 0. 0. 0. 0. 0. 0. 0. 0. 0.
      0. 0. 0. 0. 0. 1.69491526e-02 0. 0. 0. 0. 0. 0. 0. 0. 0. 0. 0. 0.
      0. 0. 0. 0. 0. 0. 0. 0. 0. 0. 0. 0. 0. 0. 0. 0. 0. 0. 0. 0. 0. 0.
      0. 0. 0. 0. 0. 0. 0. 0. 0. 0. 0. 0. 0. 0. 0. 0. 0. 0.
      1.69491526e-02 0. 0. 0. 0. 0. 1.69491526e-02 0. 0. 0. 0. 0. 0. 0.
      0. 0. 0. 0. 0. 0. 0. 0. 0. 0. 0. 0. 0. 0. 0. 0. 1.69491526e-02 0.
      0. 0. 0. 0. 0. 1.69491526e-02 0. 0. 0. 0. 1.69491526e-02 0. 0. 0.
      0. 0. 0. 0. 0. 0. 0. 0. 0. 0. 0. 0. 0. 0. 0. 0. 0. 0. 0. 0. 0. 0.
      0. 0. 0. 0. 0. 0. 0. 0. 0. 0. 0. 0. 0. 0. 0. 0. 1.69491526e-02 0.
      0. 0. 0. 0. 0. 0. 0. 0. 0. 0. 0. 0. 0. 0. 0. 0. 0. 0. 0. 0. 0. 0.
      0. 0. 0. 0. 0. 0. 0. 0. 0. 0. 0. 0. 0. 0. 0. 0. 0. 0. 0. 0. 0. 0.
      0. 0. 0. 0. 1.69491526e-02 0. 0. 0. 0. 0. 0. 3.38983051e-02 0. 0.
      0. 0. 0. 0. 0. 0. 0. 0. 0. 0. 0. 0. 0. 0. 0. 0. 0. 0. 0. 0. 0. 0.
      0. 0. 0. 0. 0. 0. 0. 0. 0. 0. 0. 0. 0. 0. 0. 0. 0. 0. 0. 0. 0. 0.
      0. 1.69491526e-02 0. 0. 0. 0. 0. 0. 0. 1.69491526e-02 0. 0. 0. 0.
      0. 0. 0. 0. 0. 0. 0. 0. 0. 0. 1.69491526e-02 0. 0. 0. 0. 0. 0. 0.
      0. 0. 0. 0. 0. 0. 0. 0. 1.69491526e-02 0. 0. 0. 0. 0. 0. 0. 0. 0.
      0. 0. 0. 0. 0. 1.69491526e-02 0. 0. 0. 0. 0. 0. 0. 0. 0. 0. 0. 0.
      0. 0. 0. 0. 0. 0. 0. 0. 0. 0. 0. 0. 0. 0. 0. 1.69491526e-02
      1.69491526e-02 0. 0. 0. 0. 0. 0. 0. 0. 0. 0. 1.69491526e-02 0.
      1.69491526e-02 0. 0. 0. 0. 0. 0. 0. 0. 0. 0. 0. 0. 0. 0. 0. 0. 0.
      1.69491526e-02 0. 0. 0. 0. 0. 0. 0. 0. 0. 0. 0. 0. 0. 0. 0. 0. 0.
      0. 0. 0. 0. 0. 0. 0. 0. 0. 0. 0. 0. 1.69491526e-02 0. 0. 0. 0. 0.
      0. 0. 0. 0. 0. 0. 0. 0. 0. 0. 0. 0. 0. 0. 0. 0. 0. 1.69491526e-02
      0. 0. 0. 0. 0. 0. 0. 0. 0. 0. 0. 0. 0. 0. 0. 0. 0. 0. 0. 0. 0. 0.
      0. 0. 0. 0. 0. 0. 0. 0. 0. 0. 0. 0. 0. 0. 0. 0. 0. 0. 0. 0. 0. 0.
      0. 0.</_>
    <_>
      1.26582282e-02 0. 0. 0. 0. 0. 0. 1.26582282e-02 0. 0.
      1.26582282e-02 0. 0. 0. 0. 0. 0. 0. 0. 0. 0. 0. 0. 0. 0. 0. 0. 0.
      0. 0. 0. 0. 0. 0. 0. 0. 0. 0. 0. 0. 0. 0. 0. 0. 0. 0. 0. 0. 0. 0.
      0. 0. 0. 0. 0. 0. 0. 0. 0. 0. 1.26582282e-02 0. 0. 0. 0. 0. 0. 0.
      0. 0. 0. 1.26582282e-02 0. 0. 0. 1.26582282e-02 0. 0. 0.
      1.26582282e-02 0. 0. 0. 0. 0. 0. 0. 0. 0. 0. 0. 0. 0. 0. 0. 0. 0.
      0. 0. 0. 0. 0. 0. 0. 0. 1.26582282e-02 0. 0. 0. 0. 0. 0. 0. 0. 0.
      0. 0. 0. 0. 0. 0. 0. 0. 0. 0. 0. 0. 0. 0. 0. 0. 0. 0. 0. 0. 0. 0.
      0. 0. 0. 0. 0. 0. 0. 0. 0. 0. 0. 0. 0. 0. 1.26582282e-02 0. 0. 0.
      0. 0. 0. 0. 0. 0. 1.26582282e-02 1.26582282e-02 0. 0. 0. 0. 0. 0.
      0. 0. 0. 0. 0. 0. 0. 0. 0. 0. 0. 2.53164563e-02 0. 0. 0. 0. 0. 0.
      0. 0. 0. 0. 0. 0. 1.26582282e-02 0. 0. 0. 0. 0. 0. 0. 0. 0. 0. 0.
      0. 0. 0. 0. 0. 0. 0. 0. 0. 1.26582282e-02 0. 0. 0. 0. 0. 0. 0. 0.
      0. 0. 0. 0. 0. 0. 0. 0. 0. 1.26582282e-02 0. 0. 0. 0. 0. 0. 0. 0.
      0. 0. 0. 0. 0. 0. 0. 0. 0. 0. 0. 0. 0. 0. 0. 0. 0. 0. 0. 0. 0. 0.
      0. 0. 0. 0. 0. 0. 0. 0. 1.26582282e-02 0. 0. 0. 0. 0.
      1.26582282e-02 0. 0. 0. 0. 1.26582282e-02 0. 0. 0. 0. 0. 0. 0.
      1.26582282e-02 0. 0. 0. 0. 2.53164563e-02 0. 0. 0. 0. 0. 0. 0. 0.
      0. 0. 0. 0. 0. 0. 0. 0. 0. 0. 0. 0. 0. 0. 0. 0. 0. 0. 0.
      1.26582282e-02 0. 1.26582282e-02 0. 0. 0. 0. 0. 0. 0. 0. 0. 0. 0.
      0. 0. 0. 0. 0. 0. 0. 0. 0. 0. 0. 0. 0. 0. 0. 0. 0. 0. 0. 0. 0. 0.
      0. 0. 0. 0. 0. 0. 0. 0. 0. 0. 0. 0. 0. 0. 0. 0. 0. 0. 0. 0. 0.
      1.26582282e-02 0. 0. 0. 0. 0. 0. 0. 0. 0. 0. 0. 0. 0. 0.
      1.26582282e-02 0. 0. 0. 0. 0. 0. 0. 0. 0. 0. 0. 0. 0. 0. 0. 0. 0.
      0. 0. 0. 0. 0. 0. 0. 0. 0. 0. 0. 0. 0. 0. 0. 0. 0. 0. 0. 0. 0. 0.
      0. 0. 0. 0. 0. 0. 0. 0. 0. 0. 0. 0. 0. 0. 0. 0. 0. 0.
      1.26582282e-02 0. 0. 0. 0. 1.26582282e-02 0. 0. 0. 0. 0. 0. 0.
      1.26582282e-02 0. 0. 0. 0. 0. 0. 0. 0. 0. 0. 0. 0. 0. 0.
      1.26582282e-02 0. 0. 0. 0. 0. 0. 0. 0. 0. 0. 0. 0. 0. 0. 0.
      1.26582282e-02 0. 0. 0. 0. 0. 0. 0. 1.26582282e-02 0.
      1.26582282e-02 0. 0. 0. 0. 0. 0. 0. 0. 0. 0. 0. 0. 0. 0. 0. 0. 0.
      0. 0. 0. 0. 0. 0. 0. 0. 0. 0. 0. 0. 0. 0. 2.53164563e-02 0. 0. 0.
      0. 0. 0. 0. 0. 0. 0. 0. 0. 0. 0. 0. 0. 0. 0. 0. 0. 1.26582282e-02
      0. 0. 0. 0. 0. 0. 0. 0. 0. 0. 1.26582282e-02 0. 0. 0. 0. 0. 0. 0.
      0. 0. 0. 0. 0. 0. 0. 0. 0. 0. 0. 0. 0. 0. 0. 0. 0. 0. 0. 0. 0. 0.
      0. 0. 2.53164563e-02 0. 0. 0. 0. 0. 0. 0. 0. 0. 0. 0.
      1.26582282e-02 0. 0. 0. 0. 0. 0. 0. 0. 0. 0. 0. 0. 0. 0. 0. 0. 0.
      2.53164563e-02 0. 0. 0. 0. 0. 2.53164563e-02 0. 0. 0. 0. 0. 0. 0.
      0. 0. 2.53164563e-02 0. 0. 0. 0. 0. 0. 1.26582282e-02 0. 0. 0. 0.
      0. 0. 1.26582282e-02 0. 0. 0. 0. 0. 0. 0. 0. 0. 0. 1.26582282e-02
      1.26582282e-02 0. 0. 0. 0. 0. 0. 0. 0. 0. 0. 0. 0. 0. 0. 0. 0. 0.
      0. 0. 0. 0. 0. 0. 0. 0. 0. 1.26582282e-02 0. 0. 0. 0. 0. 0. 0. 0.
      0. 0. 0. 0. 0. 0. 0. 0. 0. 0. 0. 0. 0. 0. 0. 0. 0. 0. 0. 0. 0. 0.
      0. 0. 0. 0. 2.53164563e-02 0. 0. 0. 0. 0. 0. 0. 0. 0. 0. 0. 0. 0.
      0. 0. 0. 0. 0. 0. 0. 1.26582282e-02 0. 0. 0. 0. 0. 0. 0. 0. 0.
      1.26582282e-02 0. 0. 1.26582282e-02 0. 0. 0. 0. 0. 0. 0. 0. 0. 0.
      0. 0. 0. 0. 1.26582282e-02 0. 0. 0. 0. 0. 0. 0. 0. 0. 0. 0. 0. 0.
      0. 0. 0. 0. 1.26582282e-02 0. 0. 0. 0. 3.79746854e-02 0. 0. 0. 0.
      0. 1.26582282e-02 0. 0. 0. 0. 0. 0. 0. 0. 0. 0. 0. 0. 0.
      1.26582282e-02 0. 0. 0. 0. 0. 0. 0. 0. 1.26582282e-02 0. 0. 0. 0.
      0. 0. 1.26582282e-02 0. 0. 0. 0. 0. 0. 0. 0. 1.26582282e-02 0. 0.
      0. 0. 0. 0. 0. 0. 0. 0. 0. 0. 1.26582282e-02 0. 0. 0. 0. 0. 0. 0.
      0. 0. 0. 0. 0. 0. 0. 0. 0. 0. 0. 1.26582282e-02 0. 0.
      2.53164563e-02 0. 0. 0. 0. 0. 0. 0. 0. 0. 0. 0. 0. 0. 0. 0. 0. 0.
      0. 0. 0. 1.26582282e-02 0. 0. 0. 0. 1.26582282e-02 0. 0. 0. 0. 0.
      0. 0. 0. 0. 0. 0. 0. 0. 0. 0. 0. 0. 0. 0. 0. 0. 0. 0. 0. 0.
      2.53164563e-02 0. 0. 0. 0. 0. 0. 0. 0. 0. 0. 0. 0. 0.
      1.26582282e-02 0. 1.26582282e-02 3.79746854e-02 0. 0. 0. 0. 0. 0.
      0. 0. 0. 0. 0. 0. 0. 0. 0. 0. 0. 0. 0. 0. 0. 0. 0. 0. 0. 0. 0. 0.
      0. 0. 0. 0. 0. 0. 0. 0. 0. 0. 0. 0. 0.</_>
    <_>
      1.31578948e-02 0. 0. 0. 0. 0. 0. 0. 0. 0. 1.31578948e-02 0. 0. 0.
      0. 0. 0. 0. 0. 0. 0. 0. 0. 0. 0. 0. 0. 0. 0. 0. 0. 0. 0. 0. 0. 0.
      0. 0. 0. 0. 0. 0. 0. 0. 0. 0. 0. 0. 0. 1.31578948e-02 0. 0. 0. 0.
      0. 0. 0. 0. 0. 0. 1.31578948e-02 0. 0. 1.31578948e-02 0. 0. 0. 0.
      0. 0. 0. 2.63157897e-02 0. 0. 0. 1.31578948e-02 0. 0. 0.
      1.31578948e-02 0. 0. 0. 0. 0. 0. 0. 0. 0. 0. 0. 0. 1.31578948e-02
      0. 0. 0. 0. 0. 0. 0. 0. 0. 0. 0. 0. 0. 0. 0. 0. 0. 0. 0. 0. 0. 0.
      0. 0. 0. 0. 0. 0. 0. 0. 0. 0. 0. 0. 0. 0. 0. 0. 0. 0. 0. 0. 0. 0.
      0. 0. 0. 0. 0. 0. 0. 0. 0. 0. 0. 0. 0. 0. 0. 0. 0. 0. 0. 0. 0. 0.
      0. 0. 1.31578948e-02 1.31578948e-02 0. 0. 0. 0. 0. 0. 0. 0. 0. 0.
      0. 0. 0. 0. 0. 0. 0. 1.31578948e-02 0. 0. 0. 0. 0. 0. 0. 0. 0. 0.
      0. 1.31578948e-02 0. 0. 0. 0. 0. 0. 0. 0. 0. 0. 0. 0. 0. 0. 0. 0.
      0. 2.63157897e-02 0. 0. 0. 1.31578948e-02 0. 0. 0. 0. 0. 0. 0. 0.
      0. 0. 0. 0. 0. 0. 0. 0. 0. 0. 0. 0. 0. 0. 0. 0. 0. 0. 0. 0. 0. 0.
      0. 0. 0. 0. 0. 0. 0. 0. 0. 0. 0. 0. 0. 0. 0. 0. 0. 0. 0. 0. 0. 0.
      0. 0. 0. 0. 1.31578948e-02 0. 0. 0. 1.31578948e-02 0. 0. 0. 0. 0.
      0. 0. 0. 0. 0. 0. 0. 0. 0. 0. 0. 0. 0. 0. 2.63157897e-02 0. 0. 0.
      0. 0. 0. 1.31578948e-02 0. 0. 0. 0. 0. 0. 0. 0. 0. 0. 0. 0. 0. 0.
      0. 0. 0. 0. 0. 0. 1.31578948e-02 0. 1.31578948e-02 0. 0. 0. 0. 0.
      0. 0. 0. 0. 0. 0. 0. 0. 0. 0. 1.31578948e-02 0. 0. 0. 0. 0. 0. 0.
      0. 0. 0. 0. 0. 0. 0. 0. 0. 0. 0. 0. 0. 0. 0. 0. 0. 0. 0. 0. 0. 0.
      0. 0. 0. 0. 0. 0. 0. 0. 0. 1.31578948e-02 0. 0. 0. 0. 0. 0. 0. 0.
      0. 0. 0. 0. 0. 0. 1.31578948e-02 1.31578948e-02 0. 0. 0. 0. 0. 0.
      0. 0. 0. 0. 0. 0. 0. 0. 0. 0. 0. 0. 0. 0. 0. 0. 0. 0. 0. 0. 0. 0.
      0. 0. 0. 0. 0. 0. 0. 0. 0. 0. 0. 0. 0. 0. 0. 0. 0. 1.31578948e-02
      0. 0. 0. 0. 0. 0. 0. 0. 0. 0. 1.31578948e-02 0. 0. 0. 0.
      1.31578948e-02 0. 0. 0. 0. 0. 0. 0. 1.31578948e-02 0. 0. 0. 0. 0.
      0. 0. 0. 0. 0. 0. 0. 0. 0. 0. 0. 0. 0. 0. 0. 0. 0. 0. 0. 0. 0. 0.
      0. 0. 0. 1.31578948e-02 0. 0. 0. 0. 0. 0. 0. 0. 0. 1.31578948e-02
      0. 0. 0. 0. 0. 0. 0. 0. 0. 0. 0. 0. 0. 0. 0. 0. 0. 0. 0. 0. 0. 0.
      0. 0. 0. 0. 0. 1.31578948e-02 0. 0. 0. 1.31578948e-02 0. 0. 0. 0.
      0. 0. 0. 0. 0. 0. 0. 0. 0. 0. 0. 0. 0. 0. 0. 0. 0. 0. 0. 0. 0. 0.
      0. 0. 0. 0. 0. 1.31578948e-02 0. 0. 0. 0. 0. 0. 0. 0. 0. 0. 0. 0.
      0. 0. 0. 0. 0. 0. 0. 0. 0. 0. 0. 0. 0. 0. 0. 0. 0. 0. 0.
      1.31578948e-02 0. 0. 0. 0. 0. 0. 0. 0. 0. 0. 0. 1.31578948e-02 0.
      0. 0. 0. 0. 0. 0. 0. 0. 0. 0. 0. 0. 0. 1.31578948e-02 0. 0.
      1.31578948e-02 0. 0. 0. 0. 0. 2.63157897e-02 0. 0. 0. 0. 0. 0. 0.
      0. 0. 0. 0. 0. 0. 0. 0. 0. 0. 0. 0. 0. 0. 0. 0. 1.31578948e-02 0.
      0. 0. 0. 0. 0. 0. 0. 0. 0. 0. 2.63157897e-02 0. 0. 0. 0. 0. 0. 0.
      0. 0. 0. 0. 0. 0. 0. 0. 0. 0. 0. 0. 0. 0. 0. 0. 0. 0. 0.
      1.31578948e-02 0. 0. 0. 0. 0. 0. 0. 0. 0. 0. 0. 0. 0.
      1.31578948e-02 0. 0. 0. 0. 0. 0. 0. 0. 0. 0. 0. 0. 0. 0. 0. 0. 0.
      0. 0. 0. 2.63157897e-02 0. 0. 0. 0. 0. 0. 0. 0. 0. 0. 0. 0. 0. 0.
      0. 0. 0. 0. 0. 0. 0. 0. 0. 1.31578948e-02 0. 0. 1.31578948e-02 0.
      0. 0. 1.31578948e-02 0. 0. 1.31578948e-02 0. 0. 0. 0.
      1.31578948e-02 0. 0. 0. 0. 0. 0. 0. 0. 0. 0. 0. 0. 0. 0. 0. 0. 0.
      0. 0. 0. 0. 0. 0. 0. 0. 0. 0. 0. 0. 0. 0. 0. 5.26315793e-02 0. 0.
      0. 0. 0. 1.31578948e-02 0. 0. 0. 0. 0. 0. 0. 0. 0. 0. 0. 0. 0.
      1.31578948e-02 0. 0. 0. 0. 0. 0. 0. 0. 1.31578948e-02 0. 0. 0. 0.
      1.31578948e-02 0. 1.31578948e-02 0. 0. 0. 0. 0. 0. 0. 0. 0. 0. 0.
      0. 0. 0. 0. 0. 0. 0. 0. 0. 0. 1.31578948e-02 0. 0. 0. 0. 0. 0. 0.
      0. 0. 0. 0. 0. 0. 0. 0. 0. 0. 0. 1.31578948e-02 0. 0.
      1.31578948e-02 0. 0. 0. 0. 0. 0. 0. 0. 0. 0. 0. 0. 0. 0. 0. 0. 0.
      0. 0. 0. 1.31578948e-02 0. 0. 0. 0. 1.31578948e-02 0. 0. 0. 0. 0.
      0. 0. 0. 0. 0. 0. 0. 0. 0. 0. 0. 0. 0. 0. 1.31578948e-02 0. 0. 0.
      0. 0. 1.31578948e-02 0. 0. 0. 0. 0. 0. 0. 0. 0. 0. 0. 0. 0.
      1.31578948e-02 0. 0. 2.63157897e-02 0. 0. 0. 0. 0. 0. 0.
      2.63157897e-02 0. 0. 0. 0. 0. 0. 0. 0. 0. 0. 0. 0. 0. 0. 0. 0. 0.
      0. 0. 0. 0. 0. 0. 0. 0. 0. 0. 0. 0. 0. 0. 0. 0.</_>
    <_>
      2.24719103e-02 0. 0. 0. 0. 0. 1.12359552e-02 0. 0. 0. 0.
      1.12359552e-02 0. 0. 1.12359552e-02 0. 0. 0. 0. 0. 0. 0. 0. 0. 0.
      0. 0. 0. 0. 0. 0. 0. 0. 0. 0. 0. 0. 0. 1.12359552e-02 0. 0.
      1.12359552e-02 0. 0. 0. 0. 0. 1.12359552e-02 0. 0. 0. 0. 0. 0. 0.
      0. 0. 0. 0. 0. 0. 0. 0. 0. 1.12359552e-02 0. 0. 1.12359552e-02 0.
      0. 0. 0. 0. 0. 0. 0. 0. 0. 0. 0. 0. 0. 0. 0. 0. 0. 0. 0.
      1.12359552e-02 0. 0. 0. 1.12359552e-02 0. 0. 0. 0. 0. 0. 0. 0. 0.
      0. 0. 1.12359552e-02 0. 0. 0. 0. 0. 0. 0. 0. 0. 0. 1.12359552e-02
      0. 0. 0. 0. 0. 0. 0. 0. 0. 0. 0. 0. 1.12359552e-02 0. 0. 0. 0. 0.
      0. 0. 0. 0. 0. 0. 0. 0. 0. 0. 0. 0. 0. 0. 0. 0. 0. 0. 0. 0. 0. 0.
      0. 0. 0. 0. 0. 0. 0. 0. 0. 0. 0. 0. 0. 0. 0. 0. 0. 0. 0. 0.
      1.12359552e-02 0. 0. 2.24719103e-02 0. 1.12359552e-02 0. 0. 0. 0.
      0. 0. 0. 0. 0. 0. 0. 0. 0. 0. 0. 0. 0. 0. 1.12359552e-02 0. 0.
      1.12359552e-02 0. 0. 0. 0. 0. 0. 0. 0. 0. 0. 0. 0. 0. 0. 0.
      1.12359552e-02 0. 0. 0. 0. 1.12359552e-02 0. 0. 0. 0. 0. 0. 0. 0.
      0. 0. 0. 0. 0. 0. 0. 0. 0. 0. 0. 0. 0. 2.24719103e-02 0. 0. 0.
      1.12359552e-02 0. 0. 0. 0. 0. 0. 0. 0. 1.12359552e-02 0. 0. 0. 0.
      0. 0. 0. 0. 0. 0. 0. 0. 1.12359552e-02 0. 0. 0. 0. 0. 0. 0. 0. 0.
      0. 0. 0. 0. 1.12359552e-02 0. 0. 0. 0. 0. 0. 0. 0. 0. 0. 0. 0. 0.
      0. 0. 0. 0. 0. 0. 0. 0. 0. 0. 0. 0. 2.24719103e-02 0. 0. 0. 0. 0.
      0. 0. 0. 0. 1.12359552e-02 0. 0. 0. 0. 0. 0. 0. 0. 0. 0. 0. 0. 0.
      0. 0. 0. 1.12359552e-02 0. 1.12359552e-02 0. 0. 0. 0. 0. 0. 0. 0.
      0. 0. 0. 0. 0. 0. 0. 0. 0. 0. 0. 0. 0. 0. 0. 0. 0. 0. 0. 0. 0. 0.
      0. 0. 0. 0. 0. 0. 0. 0. 0. 0. 0. 0. 0. 0. 1.12359552e-02 0. 0. 0.
      0. 0. 0. 0. 0. 0. 0. 0. 0. 0. 0. 0. 0. 0. 0. 0. 1.12359552e-02 0.
      2.24719103e-02 0. 0. 0. 0. 1.12359552e-02 0. 0. 0. 0. 0. 0. 0. 0.
      1.12359552e-02 0. 0. 0. 0. 0. 0. 0. 0. 0. 0. 2.24719103e-02 0. 0.
      0. 0. 0. 0. 0. 0. 0. 0. 0. 0. 0. 0. 0. 0. 0. 0. 0. 0. 0. 0. 0. 0.
      0. 0. 0. 0. 0. 0. 0. 0. 0. 0. 0. 0. 0. 0. 0. 0. 0. 0. 0. 0.
      1.12359552e-02 0. 0. 0. 0. 1.12359552e-02 0. 0. 0. 0. 0. 0.
      1.12359552e-02 0. 1.12359552e-02 0. 0. 1.12359552e-02 0. 0. 0. 0.
      0. 0. 0. 0. 0. 1.12359552e-02 0. 0. 0. 0. 0. 0. 0. 0. 0. 0. 0. 0.
      0. 0. 0. 1.12359552e-02 0. 1.12359552e-02 0. 0. 0. 0. 0. 0. 0. 0.
      0. 0. 0. 0. 0. 0. 0. 2.24719103e-02 0. 1.12359552e-02 0. 0. 0. 0.
      0. 0. 0. 0. 0. 0. 0. 0. 0. 0. 0. 0. 0. 1.12359552e-02 0. 0. 0. 0.
      0. 0. 0. 0. 0. 0. 1.12359552e-02 0. 0. 0. 0. 0. 0. 0.
      1.12359552e-02 1.12359552e-02 0. 0. 0. 0. 0. 0. 0. 0. 0. 0. 0. 0.
      0. 0. 0. 0. 0. 0. 0. 0. 0. 0. 0. 1.12359552e-02 0. 0.
      1.12359552e-02 0. 0. 0. 0. 0. 0. 0. 1.12359552e-02 0. 0. 0. 0. 0.
      0. 0. 0. 0. 0. 0. 0. 0. 0. 0. 0. 0. 0. 0. 0. 0. 0. 0. 0. 0.
      1.12359552e-02 0. 0. 0. 0. 0. 0. 0. 0. 1.12359552e-02 0. 0. 0. 0.
      1.12359552e-02 0. 0. 0. 0. 1.12359552e-02 0. 0. 0. 0.
      1.12359552e-02 3.37078646e-02 0. 0. 0. 0. 0. 0. 0. 0. 0. 0. 0. 0.
      0. 0. 0. 0. 0. 0. 0. 0. 0. 0. 0. 0. 0. 0. 1.12359552e-02 0. 0. 0.
      0. 0. 0. 0. 0. 0. 2.24719103e-02 0. 0. 0. 0. 0. 0. 0. 0. 0. 0. 0.
      0. 1.12359552e-02 0. 0. 0. 0. 0. 0. 0. 0. 0. 0. 1.12359552e-02 0.
      0. 0. 0. 0. 0. 0. 0. 0. 0. 0. 0. 0. 0. 0. 0. 0. 0. 0. 0. 0. 0. 0.
      0. 0. 0. 0. 0. 0. 0. 1.12359552e-02 0. 0. 0. 0. 1.12359552e-02 0.
      0. 0. 0. 0. 0. 0. 0. 0. 0. 0. 0. 0. 0. 0. 0. 0. 0. 0. 0. 0. 0. 0.
      0. 0. 0. 0. 0. 0. 0. 0. 0. 0. 0. 0. 0. 0. 0. 0. 0. 0. 0. 0. 0. 0.
      0. 0. 0. 0. 0. 0. 0. 0. 0. 0. 0. 0. 1.12359552e-02 1.12359552e-02
      0. 0. 0. 0. 0. 0. 0. 0. 0. 0. 0. 0. 0. 0. 0. 0. 0. 0. 0. 0. 0. 0.
      0. 0. 0. 0. 1.12359552e-02 0. 0. 0. 0. 0. 0. 1.12359552e-02 0. 0.
      0. 0. 0. 0. 0. 1.12359552e-02 0. 0. 0. 0. 0. 0. 0. 0. 0. 0. 0. 0.
      0. 0. 0. 0. 0. 0. 0. 1.12359552e-02 0. 0. 0. 1.12359552e-02 0. 0.
      0. 0. 0. 0. 0. 0. 0. 1.12359552e-02 0. 0. 0. 0. 0. 0. 0. 0. 0. 0.
      0. 1.12359552e-02 0. 0. 0. 0. 0. 0. 0. 0. 0. 0. 2.24719103e-02 0.
      0. 0. 0. 0. 0. 0. 0. 0. 0. 0. 0. 0. 0. 0. 0. 0. 0. 0. 0. 0. 0. 0.
      0. 0. 0. 0. 0. 0. 0. 0. 0. 0. 1.12359552e-02 0. 0. 0. 0. 0. 0. 0.
      0. 0. 0. 0. 0. 0. 0. 0. 0. 0. 1.12359552e-02 0. 0. 0. 0. 0. 0.
      1.12359552e-02 0. 0. 0. 0. 0. 0. 0. 0. 0. 0. 0. 0. 0. 0. 0. 0. 0.
      0. 0. 0.</_>
    <_>
      2.15053763e-02 0. 0. 0. 0. 0. 1.07526882e-02 0. 0. 0. 0.
      1.07526882e-02 0. 1.07526882e-02 1.07526882e-02 0. 0. 0.
      1.07526882e-02 0. 0. 0. 0. 0. 0. 0. 0. 0. 0. 0. 0. 0. 0. 0. 0. 0.
      0. 0. 0. 0. 0. 1.07526882e-02 0. 0. 0. 0. 0. 0. 0. 0. 0. 0. 0. 0.
      0. 0. 0. 0. 0. 1.07526882e-02 0. 0. 0. 0. 1.07526882e-02 0. 0.
      1.07526882e-02 0. 0. 0. 0. 0. 0. 0. 0. 0. 0. 0. 0. 0. 0. 0. 0. 0.
      0. 0. 0. 0. 0. 1.07526882e-02 0. 0. 0. 0. 0. 0. 0. 0. 0. 0. 0. 0.
      0. 0. 0. 0. 0. 0. 0. 0. 0. 0. 0. 0. 0. 0. 0. 0. 0. 0. 0. 0.
      1.07526882e-02 0. 0. 0. 0. 1.07526882e-02 0. 0. 0. 0. 0. 0. 0. 0.
      0. 0. 0. 0. 0. 0. 0. 0. 0. 0. 0. 0. 0. 0. 0. 0. 0. 1.07526882e-02
      0. 0. 0. 0. 0. 0. 0. 0. 0. 0. 0. 0. 0. 0. 0. 0. 0. 0. 0. 0. 0.
      1.07526882e-02 0. 0. 1.07526882e-02 0. 1.07526882e-02 0. 0. 0. 0.
      0. 0. 0. 0. 0. 0. 0. 0. 0. 0. 0. 0. 0. 0. 0. 0. 0. 1.07526882e-02
      0. 0. 0. 0. 0. 0. 0. 0. 0. 0. 0. 0. 0. 0. 0. 1.07526882e-02 0. 0.
      1.07526882e-02 0. 1.07526882e-02 0. 0. 0. 0. 0. 1.07526882e-02 0.
      0. 0. 0. 0. 0. 0. 0. 0. 0. 0. 0. 0. 0. 0. 2.15053763e-02 0. 0.
      1.07526882e-02 0. 0. 0. 0. 0. 0. 0. 0. 0. 1.07526882e-02 0. 0. 0.
      0. 0. 0. 0. 0. 0. 0. 0. 0. 1.07526882e-02 0. 0. 0. 0.
      1.07526882e-02 0. 0. 0. 0. 0. 0. 0. 0. 0. 0. 0. 0. 1.07526882e-02
      0. 0. 0. 0. 0. 0. 0. 0. 0. 0. 0. 0. 0. 0. 0. 0. 0. 0. 0. 0. 0.
      1.07526882e-02 0. 0. 0. 0. 0. 0. 0. 0. 0. 1.07526882e-02 0. 0. 0.
      0. 0. 0. 0. 0. 0. 0. 0. 0. 0. 0. 0. 0. 1.07526882e-02 0.
      1.07526882e-02 0. 0. 0. 0. 0. 0. 0. 1.07526882e-02 0. 0. 0. 0. 0.
      0. 0. 0. 0. 0. 0. 0. 0. 0. 0. 0. 0. 0. 0. 0. 0. 0. 0. 0. 0. 0.
      1.07526882e-02 0. 0. 0. 0. 0. 0. 0. 0. 0. 0. 0. 0. 0. 0. 0. 0. 0.
      0. 0. 0. 0. 0. 0. 0. 0. 0. 0. 0. 0. 1.07526882e-02 1.07526882e-02
      1.07526882e-02 0. 0. 0. 0. 0. 0. 0. 0. 0. 0. 0. 0. 0.
      1.07526882e-02 0. 0. 0. 0. 0. 0. 0. 0. 0. 0. 2.15053763e-02 0. 0.
      0. 0. 0. 0. 0. 0. 0. 0. 0. 0. 0. 0. 0. 0. 0. 0. 0. 0. 0. 0. 0. 0.
      0. 0. 0. 0. 0. 0. 0. 0. 0. 0. 0. 0. 0. 0. 1.07526882e-02 0. 0. 0.
      0. 0. 0. 0. 0. 0. 0. 1.07526882e-02 0. 0. 0. 0. 0. 0.
      1.07526882e-02 0. 1.07526882e-02 0. 0. 1.07526882e-02 0. 0. 0. 0.
      0. 0. 0. 0. 0. 1.07526882e-02 0. 0. 0. 0. 0. 0. 0. 0. 0. 0. 0. 0.
      0. 0. 0. 0. 0. 1.07526882e-02 0. 0. 0. 0. 0. 0. 0. 0. 0. 0. 0. 0.
      0. 0. 0. 2.15053763e-02 0. 1.07526882e-02 1.07526882e-02 0. 0. 0.
      0. 0. 0. 0. 0. 0. 0. 0. 0. 0. 0. 0. 0. 1.07526882e-02 0.
      1.07526882e-02 0. 0. 0. 0. 0. 0. 0. 0. 0. 1.07526882e-02 0. 0. 0.
      0. 0. 0. 0. 2.15053763e-02 0. 0. 0. 0. 1.07526882e-02 0. 0. 0. 0.
      0. 0. 0. 0. 0. 0. 0. 0. 0. 0. 0. 0. 0. 0. 1.07526882e-02 0. 0. 0.
      0. 0. 0. 0. 0. 0. 0. 0. 0. 0. 0. 0. 0. 0. 0. 0. 0. 0. 0. 0. 0.
      1.07526882e-02 0. 0. 0. 0. 0. 0. 0. 0. 0. 0. 0. 0. 0. 0. 0. 0. 0.
      0. 0. 0. 1.07526882e-02 0. 0. 0. 0. 1.07526882e-02 0. 0.
      1.07526882e-02 0. 0. 0. 0. 0. 0. 1.07526882e-02 3.22580636e-02 0.
      0. 0. 0. 0. 0. 0. 0. 0. 0. 0. 0. 0. 0. 0. 0. 0. 0. 0. 0. 0. 0. 0.
      0. 0. 0. 1.07526882e-02 0. 0. 0. 0. 0. 0. 0. 0. 0. 2.15053763e-02
      0. 0. 0. 0. 0. 0. 0. 0. 0. 0. 0. 0. 0. 0. 0. 0. 0. 0. 0. 0. 0. 0.
      1.07526882e-02 1.07526882e-02 0. 0. 0. 0. 0. 0. 0. 0. 0. 0. 0. 0.
      0. 0. 0. 0. 0. 0. 0. 0. 0. 0. 0. 0. 0. 0. 0. 0. 0. 0. 0. 0. 0. 0.
      0. 2.15053763e-02 0. 0. 0. 0. 0. 0. 0. 0. 0. 0. 0. 0. 0. 0. 0. 0.
      0. 0. 0. 0. 0. 0. 0. 0. 0. 0. 0. 0. 0. 0. 0. 0. 0. 0. 0. 0. 0. 0.
      0. 0. 0. 0. 0. 0. 0. 0. 0. 0. 0. 0. 0. 0. 0. 0. 0. 0. 0. 0.
      1.07526882e-02 0. 0. 0. 0. 0. 0. 0. 0. 0. 0. 0. 0. 0. 0. 0. 0. 0.
      0. 0. 0. 1.07526882e-02 0. 0. 0. 0. 0. 1.07526882e-02 0. 0. 0. 0.
      0. 0. 1.07526882e-02 0. 0. 0. 0. 0. 0. 0. 0. 0. 0. 0. 0. 0. 0. 0.
      0. 0. 1.07526882e-02 0. 0. 0. 0. 0. 0. 0. 0. 0. 2.15053763e-02 0.
      0. 0. 1.07526882e-02 0. 0. 0. 0. 0. 0. 0. 0. 0. 3.22580636e-02 0.
      0. 0. 0. 0. 0. 0. 0. 0. 0. 0. 1.07526882e-02 0. 0. 0. 0. 0. 0. 0.
      0. 0. 0. 2.15053763e-02 0. 0. 0. 0. 0. 0. 0. 0. 0. 0. 0. 0. 0. 0.
      0. 1.07526882e-02 0. 0. 0. 0. 0. 0. 0. 0. 0. 0. 0. 0. 0. 0.
      1.07526882e-02 0. 0. 0. 0. 0. 0. 0. 0. 0. 0. 0. 0. 0. 0. 0. 0. 0.
      0. 0. 0. 1.07526882e-02 0. 0. 0. 0. 0. 0. 1.07526882e-02 0. 0. 0.
      0. 0. 0. 0. 0. 0. 0. 0. 0. 0. 0. 0. 0. 0. 0. 0. 0.</_>
    <_>
      2.50000004e-02 0. 0. 0. 0. 0. 1.25000002e-02 0. 0. 0. 0.
      1.25000002e-02 0. 0. 1.25000002e-02 0. 0. 0. 1.25000002e-02 0. 0.
      0. 0. 0. 0. 0. 0. 0. 0. 0. 0. 0. 0. 0. 0. 0. 0. 0. 0. 0. 0.
      1.25000002e-02 0. 0. 0. 0. 0. 2.50000004e-02 0. 0. 0. 0. 0. 0. 0.
      0. 0. 0. 0. 0. 0. 0. 0. 0. 1.25000002e-02 0. 0. 1.25000002e-02 0.
      0. 0. 0. 0. 0. 0. 0. 0. 0. 0. 0. 0. 0. 0. 0. 0. 0. 0. 0.
      1.25000002e-02 0. 1.25000002e-02 0. 1.25000002e-02 0. 0. 0. 0. 0.
      0. 0. 0. 0. 0. 0. 1.25000002e-02 0. 0. 0. 0. 0. 0. 0. 0. 0. 0. 0.
      0. 0. 0. 0. 0. 0. 0. 0. 0. 0. 0. 0. 1.25000002e-02 0. 0. 0. 0. 0.
      0. 0. 0. 0. 0. 0. 0. 0. 0. 0. 0. 0. 0. 0. 0. 0. 0. 0. 0. 0. 0. 0.
      0. 0. 0. 0. 0. 0. 0. 0. 0. 0. 0. 0. 0. 0. 0. 0. 0. 0. 0. 0.
      1.25000002e-02 0. 0. 2.50000004e-02 0. 1.25000002e-02 0. 0. 0. 0.
      0. 0. 0. 0. 0. 0. 0. 0. 0. 0. 0. 0. 0. 0. 0. 0. 0. 0. 0. 0. 0. 0.
      0. 0. 0. 0. 0. 0. 0. 0. 0. 0. 0. 1.25000002e-02 0. 0.
      1.25000002e-02 0. 1.25000002e-02 0. 0. 0. 0. 0. 0. 0. 0. 0. 0. 0.
      0. 0. 0. 0. 0. 0. 0. 0. 0. 0. 2.50000004e-02 0. 0. 0.
      1.25000002e-02 0. 0. 0. 0. 0. 0. 0. 0. 0. 0. 0. 0. 0. 0. 0. 0. 0.
      0. 0. 0. 0. 1.25000002e-02 0. 0. 0. 0. 2.50000004e-02 0. 0. 0. 0.
      0. 0. 0. 0. 0. 0. 0. 0. 0. 0. 0. 0. 0. 0. 0. 0. 0. 0. 0. 0. 0.
      1.25000002e-02 0. 0. 0. 0. 0. 0. 0. 0. 2.50000004e-02 0. 0. 0. 0.
      0. 0. 0. 0. 0. 1.25000002e-02 0. 0. 0. 0. 0. 0. 0. 0. 0. 0. 0. 0.
      0. 0. 0. 0. 1.25000002e-02 0. 1.25000002e-02 0. 0. 0. 0. 0. 0. 0.
      0. 0. 0. 0. 0. 0. 0. 0. 0. 0. 0. 0. 0. 0. 0. 0. 0. 0. 0. 0. 0. 0.
      0. 0. 0. 0. 0. 0. 0. 0. 0. 0. 0. 0. 0. 0. 0. 0. 0. 0. 0. 0. 0. 0.
      0. 0. 0. 0. 0. 0. 0. 0. 0. 0. 0. 0. 0. 1.25000002e-02 0.
      2.50000004e-02 0. 0. 0. 0. 0. 0. 0. 0. 0. 0. 0. 0. 1.25000002e-02
      1.25000002e-02 0. 0. 0. 0. 0. 0. 0. 0. 0. 0. 2.50000004e-02 0. 0.
      0. 0. 0. 0. 0. 0. 0. 0. 0. 0. 0. 0. 0. 0. 0. 0. 0. 0. 0. 0. 0. 0.
      0. 0. 0. 0. 0. 0. 0. 0. 0. 1.25000002e-02 0. 0. 0. 0. 0. 0. 0. 0.
      0. 0. 0. 0. 0. 0. 0. 0. 0. 0. 0. 0. 0. 0. 0. 0. 1.25000002e-02
      1.25000002e-02 0. 1.25000002e-02 0. 0. 0. 0. 0. 0. 0. 0. 0.
      1.25000002e-02 0. 0. 0. 0. 0. 1.25000002e-02 0. 0. 0. 0. 0. 0. 0.
      0. 0. 0. 0. 1.25000002e-02 0. 0. 0. 0. 0. 0. 0. 0. 0. 0. 0. 0. 0.
      0. 0. 2.50000004e-02 0. 1.25000002e-02 0. 0. 0. 0. 0. 0. 0. 0. 0.
      0. 0. 0. 0. 0. 0. 0. 0. 1.25000002e-02 0. 0. 0. 0. 0. 0. 0. 0. 0.
      0. 0. 0. 0. 0. 0. 0. 0. 0. 0. 1.25000002e-02 0. 0. 0. 0. 0. 0. 0.
      0. 0. 0. 0. 0. 0. 0. 0. 0. 0. 0. 0. 0. 0. 0. 0. 0. 0. 0. 0. 0. 0.
      0. 0. 0. 0. 0. 1.25000002e-02 0. 0. 0. 0. 0. 0. 0. 0. 0. 0. 0. 0.
      0. 1.25000002e-02 0. 0. 0. 0. 0. 0. 0. 0. 0. 0. 0. 0. 0. 0. 0. 0.
      0. 0. 0. 0. 1.25000002e-02 0. 0. 0. 0. 0. 0. 0. 0. 0. 0. 0. 0. 0.
      0. 1.25000002e-02 3.75000015e-02 0. 0. 0. 0. 0. 0. 0. 0. 0. 0. 0.
      0. 0. 0. 0. 0. 0. 0. 0. 0. 0. 0. 0. 0. 0. 0. 1.25000002e-02 0. 0.
      0. 0. 0. 0. 0. 0. 0. 2.50000004e-02 0. 0. 0. 0. 0. 0. 0. 0. 0. 0.
      0. 0. 0. 0. 0. 0. 0. 0. 0. 0. 0. 0. 0. 1.25000002e-02 0. 0. 0. 0.
      0. 0. 0. 0. 0. 0. 0. 0. 0. 0. 0. 0. 0. 0. 0. 0. 0. 0. 0. 0. 0. 0.
      0. 0. 0. 0. 0. 0. 0. 0. 0. 2.50000004e-02 0. 1.25000002e-02 0. 0.
      0. 0. 0. 0. 0. 0. 0. 1.25000002e-02 0. 0. 0. 0. 0. 0. 0. 0. 0. 0.
      0. 0. 0. 0. 0. 0. 0. 0. 0. 0. 0. 1.25000002e-02 0. 0. 0. 0. 0. 0.
      0. 0. 0. 0. 0. 0. 0. 0. 0. 0. 0. 0. 0. 0. 0. 0. 0. 0. 0. 0. 0. 0.
      0. 0. 0. 0. 0. 0. 0. 0. 0. 0. 0. 0. 0. 0. 1.25000002e-02 0. 0. 0.
      0. 0. 0. 0. 0. 0. 0. 0. 0. 0. 0. 0. 1.25000002e-02 0. 0. 0. 0. 0.
      0. 0. 0. 0. 0. 0. 0. 0. 0. 0. 0. 0. 1.25000002e-02 0. 0. 0. 0. 0.
      0. 0. 0. 0. 1.25000002e-02 0. 0. 0. 1.25000002e-02 0. 0. 0. 0. 0.
      0. 0. 0. 0. 1.25000002e-02 0. 0. 0. 0. 0. 0. 0. 0. 0. 0. 0.
      1.25000002e-02 0. 0. 0. 0. 0. 0. 0. 0. 0. 0. 0. 0. 0. 0. 0. 0. 0.
      0. 0. 0. 0. 0. 0. 0. 0. 0. 0. 0. 0. 0. 0. 0. 0. 0. 0. 0. 0. 0. 0.
      0. 0. 0. 0. 0. 0. 0. 0. 0. 0. 0. 0. 0. 0. 0. 0. 0. 0. 0. 0. 0. 0.
      0. 1.25000002e-02 0. 0. 1.25000002e-02 0. 0. 0. 1.25000002e-02 0.
      0. 0. 0. 0. 0. 0. 0. 0. 0. 0. 0. 0. 0. 0. 0. 0. 0. 0. 0.</_>
    <_>
      0. 0. 0. 0. 7.40740728e-03 0. 0. 0. 0. 0. 0. 0. 0. 0.
      1.48148146e-02 0. 0. 0. 0. 0. 7.40740728e-03 0. 0. 0. 0. 0. 0. 0.
      0. 0. 0. 0. 1.48148146e-02 0. 0. 0. 0. 0. 0. 7.40740728e-03 0. 0.
      7.40740728e-03 0. 7.40740728e-03 7.40740728e-03 7.40740728e-03 0.
      0. 0. 0. 0. 0. 0. 0. 0. 0. 0. 0. 7.40740728e-03 0. 0. 0. 0. 0. 0.
      0. 7.40740728e-03 0. 7.40740728e-03 0. 0. 0. 7.40740728e-03 0.
      7.40740728e-03 0. 0. 0. 1.48148146e-02 0. 0. 0. 0. 0. 0. 0.
      7.40740728e-03 0. 0. 0. 7.40740728e-03 0. 0. 0. 0. 0. 0. 0. 0. 0.
      7.40740728e-03 0. 0. 0. 7.40740728e-03 0. 0. 0. 0. 0. 0. 0. 0.
      7.40740728e-03 0. 0. 0. 0. 7.40740728e-03 0. 0. 0. 0. 0. 0. 0. 0.
      1.48148146e-02 0. 0. 0. 0. 0. 0. 0. 0. 0. 0. 0. 0. 0. 0. 0.
      7.40740728e-03 0. 0. 0. 7.40740728e-03 0. 0. 0. 0. 7.40740728e-03
      0. 0. 0. 0. 0. 0. 0. 0. 0. 0. 0. 0. 0. 0. 0. 0. 0. 0. 0. 0. 0. 0.
      0. 0. 7.40740728e-03 0. 1.48148146e-02 0. 0. 0. 0. 0. 0. 0. 0. 0.
      0. 7.40740728e-03 0. 7.40740728e-03 7.40740728e-03 0. 0. 0. 0. 0.
      7.40740728e-03 0. 0. 0. 0. 0. 0. 0. 0. 0. 0. 0. 0. 0. 0. 0. 0. 0.
      0. 7.40740728e-03 0. 0. 0. 0. 0. 0. 0. 0. 0. 0. 0. 0. 0. 0. 0. 0.
      0. 0. 0. 0. 0. 0. 0. 0. 0. 0. 0. 0. 0. 0. 0. 0. 0. 0. 0. 0.
      7.40740728e-03 0. 0. 0. 0. 0. 0. 0. 0. 0. 0. 0. 0. 0. 0. 0. 0. 0.
      0. 0. 0. 0. 0. 0. 0. 0. 7.40740728e-03 0. 0. 0. 0. 0. 0.
      7.40740728e-03 7.40740728e-03 0. 0. 0. 1.48148146e-02 0. 0.
      7.40740728e-03 0. 0. 0. 0. 0. 0. 0. 0. 0. 0. 0. 0. 0. 0. 0. 0. 0.
      0. 0. 0. 0. 0. 7.40740728e-03 0. 0. 0. 0. 0. 0. 0. 0. 0. 0. 0. 0.
      0. 0. 0. 0. 0. 7.40740728e-03 0. 0. 0. 0. 0. 0. 0. 0. 0. 0. 0. 0.
      0. 0. 0. 0. 0. 0. 0. 0. 0. 0. 0. 0. 0. 0. 0. 0. 0. 0. 0. 0. 0. 0.
      0. 0. 0. 0. 0. 0. 0. 7.40740728e-03 7.40740728e-03 0. 0. 0. 0. 0.
      7.40740728e-03 0. 0. 0. 0. 0. 7.40740728e-03 0. 0. 0. 0. 0. 0. 0.
      0. 0. 0. 7.40740728e-03 0. 0. 0. 7.40740728e-03 0. 0. 0. 0. 0. 0.
      0. 0. 0. 0. 0. 0. 0. 0. 0. 0. 0. 0. 0. 0. 0. 0. 0. 0. 0. 0. 0.
      7.40740728e-03 0. 0. 0. 0. 0. 0. 0. 0. 0. 0. 0. 0. 0. 0. 0. 0. 0.
      0. 0. 0. 0. 7.40740728e-03 0. 0. 2.22222209e-02 0. 7.40740728e-03
      0. 0. 0. 0. 0. 0. 0. 0. 0. 0. 0. 0. 0. 0. 0. 0. 0. 0. 0. 0. 0. 0.
      0. 0. 0. 0. 0. 0. 0. 0. 0. 0. 0. 0. 0. 7.40740728e-03 0. 0. 0. 0.
      0. 0. 0. 0. 0. 0. 0. 0. 0. 0. 0. 0. 0. 0. 0. 0. 0. 7.40740728e-03
      0. 0. 0. 0. 0. 0. 0. 0. 0. 0. 0. 0. 0. 0. 0. 0. 0. 0. 0. 0. 0.
      7.40740728e-03 0. 0. 0. 0. 0. 0. 0. 0. 0. 0. 0. 0. 0. 0. 0.
      7.40740728e-03 0. 0. 0. 0. 0. 0. 0. 0. 0. 0. 0. 2.96296291e-02
      7.40740728e-03 7.40740728e-03 0. 0. 0. 0. 0. 0. 0. 0. 0. 0. 0. 0.
      0. 0. 0. 7.40740728e-03 0. 0. 0. 0. 7.40740728e-03 0. 0. 0. 0. 0.
      0. 0. 0. 7.40740728e-03 0. 0. 7.40740728e-03 0. 0. 7.40740728e-03
      0. 0. 0. 0. 0. 0. 0. 0. 0. 0. 0. 0. 0. 0. 0. 0. 0. 0. 0. 0. 0. 0.
      0. 0. 0. 0. 7.40740728e-03 2.96296291e-02 0. 0. 0. 0.
      7.40740728e-03 0. 0. 0. 0. 0. 0. 0. 0. 0. 7.40740728e-03 0. 0. 0.
      0. 0. 7.40740728e-03 0. 0. 0. 0. 7.40740728e-03 0. 0.
      1.48148146e-02 0. 0. 0. 0. 0. 1.48148146e-02 0. 7.40740728e-03
      7.40740728e-03 0. 0. 0. 0. 0. 0. 0. 7.40740728e-03 0. 0. 0. 0. 0.
      0. 0. 0. 0. 0. 0. 7.40740728e-03 0. 0. 0. 0. 0. 0. 0. 0. 0. 0.
      7.40740728e-03 0. 0. 0. 0. 0. 0. 0. 0. 0. 7.40740728e-03 0. 0. 0.
      0. 0. 0. 0. 0. 7.40740728e-03 1.48148146e-02 0. 0. 0. 0. 0. 0. 0.
      0. 0. 0. 7.40740728e-03 0. 0. 7.40740728e-03 0. 0. 0. 0. 0. 0. 0.
      0. 0. 0. 0. 0. 0. 0. 0. 0. 0. 7.40740728e-03 0. 0. 0. 0. 0. 0.
      1.48148146e-02 0. 0. 0. 0. 0. 0. 0. 0. 0. 0. 0. 0. 0. 0. 0. 0. 0.
      0. 0. 0. 0. 0. 0. 0. 0. 0. 0. 0. 0. 0. 0. 0. 0. 0. 0. 0. 0. 0. 0.
      0. 0. 0. 1.48148146e-02 0. 7.40740728e-03 0. 0. 0. 0. 0. 0. 0. 0.
      0. 0. 0. 7.40740728e-03 0. 0. 0. 0. 0. 0. 0. 0. 0. 0. 0. 0. 0. 0.
      0. 7.40740728e-03 0. 0. 0. 0. 0. 0. 0. 0. 0. 0. 0. 0. 0. 0. 0.
      2.22222209e-02 0. 0. 1.48148146e-02 0. 7.40740728e-03 0. 0. 0. 0.
      0. 0. 0. 0. 0. 0. 0. 0. 0. 0. 0. 0. 0. 0. 0. 7.40740728e-03
      7.40740728e-03 0. 0. 7.40740728e-03 0. 0. 0. 0. 0. 7.40740728e-03
      0. 0. 0. 0. 0. 0. 0. 0. 0. 0. 0. 0. 0. 0. 0. 0. 7.40740728e-03 0.
      0. 1.48148146e-02 7.40740728e-03 0. 0. 0. 0. 1.48148146e-02 0. 0.
      0. 0. 0. 0. 0. 7.40740728e-03 0. 0. 0. 0. 0. 0. 1.48148146e-02 0.
      0. 0. 7.40740728e-03 0. 0. 7.40740728e-03 0. 0. 0. 0. 0. 0. 0. 0.
      7.40740728e-03 0. 0. 0. 0. 0. 0. 0. 0. 0. 0. 0. 1.48148146e-02 0.
      0. 0. 0. 0. 0. 0. 0. 0. 0. 0. 0. 0. 0. 0. 0. 0. 0. 0. 0. 0. 0.
      7.40740728e-03 0. 0. 0. 7.40740728e-03 1.48148146e-02 0. 0. 0. 0.
      0. 7.40740728e-03 0. 0. 0. 0. 0. 0. 7.40740728e-03</_>
    <_>
      2.52100863e-02 0. 0. 0. 0. 0. 0. 0. 0. 0. 8.40336177e-03 0. 0. 0.
      0. 0. 8.40336177e-03 0. 0. 0. 0. 8.40336177e-03 0. 0. 0. 0. 0. 0.
      8.40336177e-03 0. 0. 0. 1.68067235e-02 0. 0. 0. 0. 0. 0. 0. 0.
      8.40336177e-03 0. 0. 0. 8.40336177e-03 0. 0. 0. 0. 0. 0. 0. 0. 0.
      0. 0. 8.40336177e-03 0. 8.40336177e-03 0. 0. 0. 1.68067235e-02 0.
      0. 0. 0. 0. 0. 0. 0. 0. 8.40336177e-03 0. 8.40336177e-03 0. 0. 0.
      8.40336177e-03 0. 8.40336177e-03 0. 0. 0. 8.40336177e-03 0. 0. 0.
      0. 0. 0. 0. 0. 0. 0. 0. 0. 0. 0. 0. 8.40336177e-03 0. 0. 0. 0. 0.
      0. 0. 0. 0. 0. 0. 0. 0. 0. 0. 0. 0. 0. 0. 0. 0. 0. 0. 0. 0.
      8.40336177e-03 0. 0. 0. 8.40336177e-03 0. 0. 0. 0. 0. 0. 0. 0. 0.
      0. 0. 0. 0. 0. 0. 0. 0. 0. 0. 0. 0. 0. 0. 0. 0. 0. 0. 0. 0. 0. 0.
      0. 0. 0. 0. 0. 0. 0. 0. 0. 0. 0. 0. 0. 0. 0. 0. 0. 0. 0. 0. 0. 0.
      0. 0. 8.40336177e-03 0. 0. 0. 0. 0. 0. 8.40336177e-03 0. 0. 0. 0.
      0. 0. 8.40336177e-03 0. 0. 0. 0. 0. 0. 0. 0. 0. 0. 0. 0. 0. 0. 0.
      0. 8.40336177e-03 0. 0. 0. 0. 0. 8.40336177e-03 0. 0. 0. 0. 0. 0.
      1.68067235e-02 0. 0. 0. 0. 0. 0. 0. 0. 0. 0. 0. 0. 0. 0. 0. 0. 0.
      0. 0. 0. 0. 0. 0. 0. 0. 8.40336177e-03 0. 8.40336177e-03 0. 0. 0.
      0. 0. 0. 0. 0. 0. 0. 0. 0. 8.40336177e-03 0. 0. 0. 0. 0. 0. 0. 0.
      8.40336177e-03 0. 0. 0. 0. 0. 0. 0. 0. 0. 0. 0. 0. 0.
      8.40336177e-03 0. 0. 0. 0. 0. 0. 0. 0. 0. 0. 0. 0. 0. 0. 0. 0.
      8.40336177e-03 0. 0. 0. 0. 0. 0. 0. 8.40336177e-03 0. 0. 0. 0. 0.
      0. 0. 0. 0. 0. 0. 0. 0. 0. 0. 0. 0. 0. 0. 0. 0. 8.40336177e-03 0.
      0. 0. 8.40336177e-03 0. 0. 8.40336177e-03 0. 8.40336177e-03 0. 0.
      0. 0. 0. 0. 0. 0. 0. 0. 0. 0. 0. 0. 0. 0. 0. 0. 8.40336177e-03 0.
      0. 0. 0. 0. 0. 0. 0. 8.40336177e-03 8.40336177e-03 0. 0. 0. 0. 0.
      0. 0. 0. 0. 0. 0. 0. 8.40336177e-03 0. 0. 0. 0. 0. 0. 0. 0. 0. 0.
      8.40336177e-03 0. 0. 0. 8.40336177e-03 0. 0. 0. 0. 8.40336177e-03
      0. 0. 0. 0. 0. 0. 0. 0. 8.40336177e-03 0. 8.40336177e-03 0. 0. 0.
      0. 0. 8.40336177e-03 0. 0. 8.40336177e-03 0. 0. 0. 0. 0. 0. 0.
      8.40336177e-03 0. 0. 0. 0. 0. 8.40336177e-03 0. 0. 0. 0. 0. 0. 0.
      0. 0. 0. 0. 0. 8.40336177e-03 0. 0. 0. 0. 8.40336177e-03 0. 0. 0.
      0. 0. 0. 8.40336177e-03 0. 0. 0. 0. 0. 0. 0. 0. 0. 0. 0. 0. 0. 0.
      0. 0. 0. 8.40336177e-03 0. 0. 0. 0. 0. 0. 0. 0. 0. 0. 0.
      8.40336177e-03 0. 0. 0. 0. 0. 0. 0. 0. 0. 0. 0. 0. 0. 0. 0. 0. 0.
      0. 0. 0. 0. 0. 0. 0. 0. 0. 0. 0. 1.68067235e-02 0. 0. 0. 0. 0. 0.
      0. 8.40336177e-03 0. 0. 0. 0. 8.40336177e-03 0. 0. 0. 0. 0. 0. 0.
      0. 8.40336177e-03 0. 0. 0. 0. 0. 1.68067235e-02 0. 0.
      8.40336177e-03 0. 0. 0. 0. 0. 0. 0. 0. 0. 8.40336177e-03 0. 0. 0.
      0. 0. 0. 0. 0. 0. 0. 0. 0. 0. 0. 0. 0. 8.40336177e-03 0. 0. 0.
      8.40336177e-03 0. 0. 0. 0. 0. 0. 0. 0. 0. 0. 8.40336177e-03 0.
      8.40336177e-03 0. 0. 0. 0. 0. 0. 0. 0. 0. 0. 0. 0. 0. 0. 0. 0. 0.
      0. 0. 0. 0. 0. 0. 0. 0. 0. 0. 0. 0. 0. 0. 0. 0. 0. 0. 0. 0. 0. 0.
      0. 0. 0. 0. 0. 0. 0. 0. 0. 0. 0. 0. 0. 0. 0. 1.68067235e-02 0.
      1.68067235e-02 0. 0. 0. 0. 0. 0. 0. 0. 1.68067235e-02
      8.40336177e-03 0. 0. 0. 0. 0. 0. 0. 0. 0. 0. 0. 0. 0. 0. 0. 0.
      8.40336177e-03 0. 0. 0. 0. 8.40336177e-03 0. 0. 0. 0. 0. 0. 0. 0.
      0. 0. 0. 8.40336177e-03 1.68067235e-02 0. 0. 0. 0. 8.40336177e-03
      0. 0. 0. 0. 0. 0. 0. 0. 0. 0. 0. 0. 0. 0. 0. 0. 0. 0.
      8.40336177e-03 0. 0. 0. 0. 0. 0. 0. 1.68067235e-02 8.40336177e-03
      0. 0. 0. 0. 0. 0. 0. 0. 0. 0. 0. 0. 0. 0. 8.40336177e-03 0. 0. 0.
      0. 0. 0. 0. 0. 0. 0. 0. 0. 8.40336177e-03 0. 0. 0. 0. 0. 0. 0. 0.
      0. 0. 0. 0. 0. 0. 0. 0. 0. 8.40336177e-03 0. 8.40336177e-03 0. 0.
      0. 0. 0. 0. 0. 0. 0. 0. 0. 0. 0. 0. 0. 0. 0. 0. 0. 8.40336177e-03
      1.68067235e-02 8.40336177e-03 0. 0. 0. 0. 0. 0. 0. 0. 0. 0.
      8.40336177e-03 0. 0. 0. 0. 0. 0. 0. 0. 8.40336177e-03 0. 0. 0. 0.
      0. 0. 8.40336177e-03 0. 0. 0. 0. 0. 0. 0. 0. 0. 0. 0. 0. 0. 0. 0.
      0. 0. 0. 0. 0. 0. 0. 8.40336177e-03 0. 0. 0. 0. 0. 0. 0. 0. 0. 0.
      0. 0. 0. 0. 0. 0. 0. 8.40336177e-03 0. 0. 0. 0. 0. 0.
      8.40336177e-03 0. 0. 0. 0. 0. 0. 0. 0. 8.40336177e-03 0. 0. 0. 0.
      8.40336177e-03 0. 0. 8.40336177e-03 0. 0. 0. 0. 0. 0. 0.
      8.40336177e-03 0. 0. 0. 0. 0. 0. 0. 0. 8.40336177e-03 0. 0. 0. 0.
      0. 0. 8.40336177e-03 0. 0. 1.68067235e-02 0. 0. 0. 0. 0. 0.
      8.40336177e-03 0. 0. 8.40336177e-03 0. 0. 0. 0. 0. 0. 0.
      8.40336177e-03 0. 0. 0. 0. 8.40336177e-03 0. 0. 0. 0.
      8.40336177e-03 0. 0. 0. 0. 0. 0. 0. 0. 0. 0. 0. 0. 0. 0. 0. 0.
      8.40336177e-03 0. 0. 0. 0. 0. 0. 0. 0. 0. 8.40336177e-03
      8.40336177e-03 0. 0. 0. 0. 0. 0. 0. 0. 0. 0. 0. 0. 0.</_>
    <_>
      1.62162166e-02 0. 0. 0. 0. 0. 0. 0. 0. 0. 0. 0. 0. 5.40540554e-03
      0. 0. 0. 5.40540554e-03 0. 0. 0. 0. 0. 5.40540554e-03 0. 0. 0. 0.
      0. 0. 0. 0. 1.08108111e-02 0. 0. 0. 0. 0. 0. 0. 0. 0. 0. 0. 0. 0.
      1.08108111e-02 0. 0. 0. 0. 0. 0. 0. 0. 0. 0. 5.40540554e-03 0.
      1.08108111e-02 0. 0. 0. 5.40540554e-03 0. 0. 0. 1.08108111e-02 0.
      0. 0. 5.40540554e-03 0. 5.40540554e-03 5.40540554e-03 0. 0. 0. 0.
      0. 0. 5.40540554e-03 0. 0. 0. 0. 0. 5.40540554e-03 0. 0. 0. 0. 0.
      0. 0. 0. 0. 0. 0. 0. 0. 5.40540554e-03 0. 0. 0. 1.08108111e-02 0.
      0. 0. 0. 0. 0. 0. 0. 0. 0. 0. 0. 5.40540554e-03 0. 0. 0. 0. 0. 0.
      0. 0. 5.40540554e-03 0. 0. 0. 0. 0. 1.08108111e-02 0. 0. 0.
      5.40540554e-03 0. 0. 5.40540554e-03 0. 5.40540554e-03 0.
      1.08108111e-02 0. 0. 5.40540554e-03 5.40540554e-03 0. 0. 0. 0.
      5.40540554e-03 0. 0. 0. 0. 0. 0. 0. 0. 0. 0. 0. 0. 5.40540554e-03
      0. 0. 0. 0. 0. 1.08108111e-02 0. 0. 0. 0. 0. 0. 0. 1.62162166e-02
      5.40540554e-03 5.40540554e-03 0. 0. 0. 0. 5.40540554e-03 0. 0. 0.
      0. 0. 5.40540554e-03 5.40540554e-03 0. 0. 0. 0. 0. 0. 0. 0. 0. 0.
      0. 0. 0. 0. 0. 0. 0. 0. 0. 0. 0. 0. 0. 0. 0. 5.40540554e-03 0. 0.
      0. 0. 0. 0. 0. 1.08108111e-02 0. 0. 5.40540554e-03 0. 0. 0. 0. 0.
      0. 5.40540554e-03 5.40540554e-03 0. 0. 0. 0. 0. 0. 0.
      5.40540554e-03 0. 0. 0. 0. 0. 0. 0. 0. 5.40540554e-03 0. 0. 0. 0.
      5.40540554e-03 0. 0. 0. 0. 0. 0. 0. 0. 0. 0. 5.40540554e-03 0. 0.
      0. 0. 0. 0. 0. 0. 0. 0. 0. 0. 0. 0. 0. 0. 0. 0. 0. 0. 0. 0. 0. 0.
      0. 5.40540554e-03 0. 0. 0. 0. 0. 0. 0. 0. 0. 0. 0. 0. 0. 0. 0. 0.
      5.40540554e-03 5.40540554e-03 0. 0. 0. 5.40540554e-03 0. 0. 0. 0.
      0. 0. 1.08108111e-02 0. 0. 0. 0. 0. 0. 0. 0. 0. 0. 0. 0. 0. 0. 0.
      0. 0. 5.40540554e-03 0. 0. 0. 0. 0. 0. 0. 0. 0. 0. 0. 0. 0. 0.
      5.40540554e-03 0. 0. 0. 5.40540554e-03 5.40540554e-03 0. 0. 0. 0.
      0. 0. 0. 0. 0. 0. 0. 0. 0. 0. 0. 5.40540554e-03 0. 0. 0. 0. 0.
      5.40540554e-03 0. 0. 0. 0. 0. 0. 1.08108111e-02 0. 0. 0. 0. 0. 0.
      5.40540554e-03 0. 0. 0. 0. 0. 0. 0. 0. 5.40540554e-03 0. 0.
      5.40540554e-03 0. 0. 0. 0. 0. 0. 0. 0. 0. 0. 5.40540554e-03
      5.40540554e-03 0. 0. 0. 0. 0. 0. 0. 5.40540554e-03 0. 0. 0. 0. 0.
      0. 0. 5.40540554e-03 0. 0. 5.40540554e-03 0. 0. 0. 0. 0. 0. 0. 0.
      5.40540554e-03 0. 0. 0. 0. 5.40540554e-03 0. 0. 1.08108111e-02 0.
      0. 5.40540554e-03 0. 0. 0. 0. 0. 0. 0. 5.40540554e-03
      5.40540554e-03 0. 0. 0. 0. 0. 0. 0. 5.40540554e-03 0. 0. 0. 0. 0.
      0. 0. 0. 0. 0. 0. 1.08108111e-02 0. 0. 0. 0. 0. 5.40540554e-03 0.
      5.40540554e-03 0. 0. 1.08108111e-02 0. 0. 0. 0. 0. 0.
      5.40540554e-03 0. 0. 0. 0. 0. 0. 5.40540554e-03 0. 0. 0. 0.
      1.08108111e-02 0. 0. 0. 0. 0. 0. 5.40540554e-03 5.40540554e-03 0.
      0. 0. 0. 0. 0. 0. 0. 0. 5.40540554e-03 0. 0. 0. 0. 0. 0. 0. 0. 0.
      0. 0. 5.40540554e-03 0. 0. 0. 0. 0. 0. 0. 0. 5.40540554e-03 0. 0.
      0. 0. 0. 0. 0. 0. 1.08108111e-02 0. 0. 0. 0. 0. 0. 0. 0. 0. 0. 0.
      0. 0. 0. 0. 0. 0. 5.40540554e-03 0. 0. 0. 0. 0. 0. 0. 0. 0. 0. 0.
      0. 0. 0. 5.40540554e-03 0. 5.40540554e-03 0. 0. 5.40540554e-03 0.
      0. 0. 0. 0. 0. 0. 0. 0. 0. 0. 0. 0. 0. 0. 0. 0. 1.08108111e-02 0.
      0. 0. 0. 0. 5.40540554e-03 5.40540554e-03 0. 0. 1.08108111e-02 0.
      0. 0. 0. 0. 0. 0. 0. 0. 5.40540554e-03 1.08108111e-02 0. 0. 0. 0.
      0. 0. 0. 0. 0. 0. 0. 0. 0. 0. 1.62162166e-02 0. 0. 5.40540554e-03
      0. 0. 0. 0. 0. 5.40540554e-03 0. 0. 5.40540554e-03 0. 0. 0. 0. 0.
      0. 0. 1.08108111e-02 0. 0. 0. 5.40540554e-03 0. 0. 0. 0. 0. 0.
      5.40540554e-03 0. 0. 5.40540554e-03 0. 0. 0. 0. 0. 0. 0. 0. 0. 0.
      0. 0. 0. 0. 0. 0. 0. 0. 5.40540554e-03 0. 0. 0. 0. 0.
      5.40540554e-03 0. 0. 0. 1.08108111e-02 0. 0. 0. 0. 0. 0.
      1.08108111e-02 0. 0. 0. 5.40540554e-03 0. 0. 0. 0. 0. 0. 0. 0. 0.
      0. 5.40540554e-03 0. 0. 0. 0. 0. 0. 0. 5.40540554e-03 0.
      5.40540554e-03 0. 0. 0. 0. 0. 0. 5.40540554e-03 0. 0. 0.
      5.40540554e-03 0. 0. 0. 0. 5.40540554e-03 0. 0. 0. 0.
      5.40540554e-03 0. 0. 0. 0. 1.08108111e-02 0. 0. 5.40540554e-03 0.
      0. 0. 0. 0. 0. 0. 0. 0. 0. 0. 0. 0. 5.40540554e-03 5.40540554e-03
      0. 0. 0. 0. 0. 5.40540554e-03 0. 5.40540554e-03 0. 0. 0.
      5.40540554e-03 5.40540554e-03 0. 0. 0. 0. 0. 0. 1.08108111e-02 0.
      0. 0. 0. 5.40540554e-03 0. 0. 0. 0. 0. 0. 0. 0. 0. 0.
      5.40540554e-03 5.40540554e-03 0. 0. 0. 0. 5.40540554e-03 0. 0. 0.
      0. 0. 0. 0. 0. 0. 0. 5.40540554e-03 0. 5.40540554e-03 0.
      5.40540554e-03 0. 0. 0. 0. 0. 0. 0. 0. 0. 0. 0. 0. 0. 0. 0. 0. 0.
      0. 0. 0. 0. 0. 0. 5.40540554e-03 0. 0. 0. 0. 0. 5.40540554e-03 0.
      0. 0. 1.08108111e-02 0. 0. 0. 0. 0. 0. 0. 0. 0. 0. 0.
      5.40540554e-03 0. 0. 0. 1.08108111e-02 0. 5.40540554e-03 0. 0. 0.
      5.40540554e-03 0. 0. 0. 0. 0. 0. 0. 0. 0. 0. 5.40540554e-03 0. 0.
      0. 5.40540554e-03 0. 0. 5.40540554e-03 5.40540554e-03 0. 0.
      5.40540554e-03 0. 0. 5.40540554e-03 0. 0. 0. 0. 0. 1.08108111e-02
      0. 0. 0. 5.40540554e-03 5.40540554e-03 0. 0. 0. 0. 0. 0. 0. 0. 0.
      0. 5.40540554e-03 0. 0. 0. 0. 0. 0. 0. 5.40540554e-03
      1.08108111e-02 0. 0. 0. 0. 0. 0. 0. 0. 0. 0. 0. 0. 0. 0.
      5.40540554e-03 0. 0. 0. 0. 0. 0. 5.40540554e-03 0. 0. 0. 0. 0. 0.</_>
    <_>
      0. 0. 0. 0. 0. 0. 0. 0. 0. 0. 0. 0. 0. 0. 0. 0. 0. 0. 0. 0. 0.
      1.20481923e-02 0. 0. 0. 0. 0. 0. 0. 0. 0. 0. 1.20481923e-02
      1.20481923e-02 1.20481923e-02 0. 0. 0. 0. 0. 0. 1.20481923e-02 0.
      0. 0. 0. 1.20481923e-02 0. 0. 0. 0. 0. 0. 0. 0. 0. 0. 0. 0. 0. 0.
      0. 0. 0. 0. 0. 0. 2.40963846e-02 0. 1.20481923e-02 0. 0. 0. 0. 0.
      0. 0. 0. 0. 1.20481923e-02 0. 0. 0. 0. 0. 0. 0. 0. 0. 0. 0. 0. 0.
      0. 0. 0. 0. 0. 0. 0. 0. 0. 0. 0. 0. 1.20481923e-02 0. 0. 0. 0. 0.
      0. 0. 0. 1.20481923e-02 0. 0. 0. 0. 0. 0. 0. 0. 0. 0. 0. 0. 0. 0.
      0. 0. 0. 0. 0. 0. 0. 0. 0. 0. 0. 0. 0. 0. 0. 0. 0. 0. 0. 0. 0. 0.
      0. 0. 0. 0. 0. 0. 0. 0. 0. 0. 1.20481923e-02 0. 0. 0. 0. 0. 0. 0.
      0. 0. 0. 1.20481923e-02 0. 0. 1.20481923e-02 0. 0. 0. 0. 0. 0. 0.
      0. 0. 0. 0. 0. 0. 0. 0. 1.20481923e-02 0. 0. 0. 0. 0. 0. 0. 0. 0.
      1.20481923e-02 0. 0. 0. 0. 0. 0. 0. 0. 0. 0. 0. 0. 0. 0. 0. 0. 0.
      1.20481923e-02 0. 1.20481923e-02 0. 0. 0. 0. 0. 0. 0. 0. 0.
      1.20481923e-02 0. 0. 0. 0. 0. 0. 0. 0. 0. 0. 0. 0. 0. 0. 0. 0. 0.
      0. 0. 0. 0. 0. 0. 0. 0. 0. 0. 0. 0. 0. 0. 0. 0. 0. 0. 0. 0. 0. 0.
      0. 2.40963846e-02 0. 0. 0. 0. 0. 0. 0. 0. 0. 0. 0. 0. 0. 0. 0. 0.
      0. 0. 0. 0. 0. 0. 0. 0. 0. 0. 0. 0. 0. 0. 0. 0. 0. 0. 0. 0. 0. 0.
      0. 1.20481923e-02 0. 0. 0. 0. 0. 0. 0. 1.20481923e-02 0. 0. 0. 0.
      0. 0. 0. 0. 0. 0. 0. 0. 0. 0. 0. 0. 0. 1.20481923e-02 0. 0. 0. 0.
      0. 0. 0. 0. 1.20481923e-02 0. 0. 0. 0. 0. 0. 0. 0. 0. 0. 0. 0. 0.
      0. 0. 0. 0. 0. 0. 0. 0. 0. 0. 1.20481923e-02 0. 0. 0. 0. 0. 0. 0.
      0. 1.20481923e-02 0. 0. 0. 0. 0. 0. 0. 0. 0. 0. 0. 0.
      1.20481923e-02 0. 0. 0. 0. 0. 0. 0. 0. 0. 0. 0. 0. 0. 0. 0. 0. 0.
      0. 0. 0. 0. 0. 0. 0. 0. 0. 0. 0. 0. 0. 0. 0. 0. 1.20481923e-02 0.
      0. 0. 0. 0. 0. 0. 0. 0. 0. 0. 0. 0. 0. 0. 0. 0. 0. 0. 0. 0. 0. 0.
      0. 0. 0. 1.20481923e-02 0. 0. 0. 0. 0. 0. 1.20481923e-02 0. 0. 0.
      0. 0. 0. 0. 0. 0. 0. 0. 0. 0. 1.20481923e-02 0. 0. 0. 0. 0.
      2.40963846e-02 0. 0. 0. 0. 0. 0. 0. 0. 0. 0. 0. 0. 0. 0. 0.
      1.20481923e-02 0. 0. 0. 0. 1.20481923e-02 0. 0. 0. 0. 0. 0. 0. 0.
      0. 0. 0. 0. 0. 0. 0. 0. 0. 0. 0. 0. 0. 0. 0. 0. 0. 0. 0. 0. 0. 0.
      0. 0. 0. 0. 0. 0. 0. 0. 1.20481923e-02 0. 0. 0. 0. 0. 0. 0. 0. 0.
      0. 0. 2.40963846e-02 0. 0. 0. 0. 0. 0. 0. 0. 0. 0. 0. 0. 0. 0. 0.
      0. 0. 0. 1.20481923e-02 0. 0. 0. 0. 0. 0. 0. 0. 0. 0. 0. 0. 0. 0.
      0. 0. 0. 0. 0. 0. 0. 0. 0. 0. 0. 0. 0. 0. 0. 0. 0. 0. 0. 0.
      1.20481923e-02 0. 1.20481923e-02 0. 0. 0. 0. 0. 0. 0.
      1.20481923e-02 0. 1.20481923e-02 0. 0. 0. 0. 0. 0. 0. 0. 0. 0. 0.
      0. 0. 0. 0. 0. 1.20481923e-02 1.20481923e-02 0. 0. 0. 0. 0. 0. 0.
      0. 0. 0. 1.20481923e-02 0. 0. 0. 0. 0. 0. 0. 0. 0. 0. 0. 0.
      1.20481923e-02 0. 0. 0. 0. 2.40963846e-02 0. 0. 0. 0. 0. 0.
      1.20481923e-02 0. 0. 0. 0. 0. 0. 0. 0. 0. 0. 0. 0. 0. 0. 0. 0. 0.
      0. 0. 0. 0. 0. 0. 0. 0. 0. 0. 0. 0. 0. 0. 0. 0. 2.40963846e-02 0.
      0. 0. 0. 0. 0. 0. 0. 0. 0. 0. 0. 0. 0. 0. 0. 0. 0. 0. 0. 0. 0. 0.
      0. 0. 0. 0. 0. 0. 0. 0. 0. 0. 0. 0. 0. 0. 0. 0. 0. 0. 0. 0. 0. 0.
      0. 2.40963846e-02 0. 1.20481923e-02 0. 0. 0. 0. 0. 0. 0. 0. 0. 0.
      0. 0. 0. 0. 1.20481923e-02 0. 0. 0. 0. 0. 0. 0. 0. 1.20481923e-02
      0. 0. 0. 0. 0. 0. 0. 0. 0. 0. 0. 0. 0. 0. 0. 0. 0. 0. 0. 0. 0. 0.
      0. 0. 0. 0. 0. 0. 0. 0. 0. 0. 0. 0. 0. 0. 0. 0. 1.20481923e-02 0.
      0. 1.20481923e-02 0. 0. 0. 0. 0. 0. 0. 0. 1.20481923e-02 0. 0. 0.
      0. 0. 0. 0. 0. 0. 0. 1.20481923e-02 0. 0. 1.20481923e-02
      2.40963846e-02 0. 1.20481923e-02 0. 0. 0. 0. 0. 0. 1.20481923e-02
      0. 0. 0. 0. 0. 0. 0. 0. 0. 0. 0. 0. 0. 0. 0. 0. 0. 0. 0. 0. 0. 0.
      0. 0. 0. 0. 0. 0. 0. 0. 0. 0. 0. 0. 0. 0. 0. 0. 0. 1.20481923e-02
      0. 0. 0. 0. 0. 0. 0. 0. 0. 1.20481923e-02 0. 1.20481923e-02 0. 0.
      1.20481923e-02 0. 0. 0. 0. 0. 1.20481923e-02 0. 0. 0.
      1.20481923e-02 0. 0. 0. 0. 0. 0. 0. 0. 0. 0. 0. 0. 0.
      1.20481923e-02 0. 0. 2.40963846e-02 0. 0. 0. 1.20481923e-02 0. 0.
      0. 0. 0. 0. 0. 0. 0. 0. 0. 0. 0. 0. 0. 0. 0. 0. 0. 0. 0. 0. 0. 0.
      0. 0. 0. 0. 0. 0. 0. 0. 0. 0. 0. 0. 0. 1.20481923e-02 0. 0. 0. 0.
      0. 1.20481923e-02 1.20481923e-02 0. 0. 0. 0. 0. 1.20481923e-02 0.
      0. 0. 0. 0. 1.20481923e-02 0.</_>
    <_>
      1.65745858e-02 0. 0. 0. 0. 0. 0. 0. 0. 5.52486209e-03 0. 0. 0. 0.
      0. 0. 0. 0. 0. 0. 1.10497242e-02 0. 0. 5.52486209e-03 0. 0. 0. 0.
      0. 0. 0. 0. 1.10497242e-02 0. 0. 0. 0. 0. 0. 0. 5.52486209e-03
      5.52486209e-03 5.52486209e-03 0. 5.52486209e-03 0. 5.52486209e-03
      0. 0. 0. 0. 5.52486209e-03 5.52486209e-03 0. 0. 0. 0. 0. 0.
      1.10497242e-02 0. 0. 0. 0. 0. 0. 0. 0. 0. 0. 0. 0. 0.
      5.52486209e-03 0. 5.52486209e-03 0. 0. 0. 0. 0. 5.52486209e-03 0.
      0. 0. 0. 0. 0. 0. 0. 5.52486209e-03 0. 0. 0. 0. 0. 0. 0. 0. 0. 0.
      1.10497242e-02 0. 0. 0. 5.52486209e-03 0. 0. 0. 0. 0. 0. 0. 0.
      5.52486209e-03 5.52486209e-03 0. 0. 0. 0. 0. 0. 0. 0. 0. 0. 0.
      5.52486209e-03 5.52486209e-03 0. 0. 0. 0. 0. 0. 0. 0.
      5.52486209e-03 0. 0. 5.52486209e-03 0. 0. 0. 1.65745858e-02 0. 0.
      0. 0. 0. 0. 0. 0. 5.52486209e-03 0. 0. 0. 0. 0. 0. 0. 0. 0. 0. 0.
      0. 5.52486209e-03 0. 0. 0. 0. 0. 0. 0. 0. 0. 0. 5.52486209e-03 0.
      0. 5.52486209e-03 0. 0. 0. 0. 0. 0. 0. 0. 0. 0. 5.52486209e-03 0.
      0. 0. 0. 0. 0. 0. 5.52486209e-03 0. 5.52486209e-03 0. 0. 0. 0. 0.
      0. 0. 0. 0. 0. 0. 0. 0. 0. 5.52486209e-03 0. 0. 0. 0.
      5.52486209e-03 0. 0. 0. 0. 0. 0. 0. 0. 0. 1.10497242e-02 0. 0. 0.
      0. 0. 5.52486209e-03 5.52486209e-03 0. 0. 0. 0. 5.52486209e-03 0.
      0. 0. 0. 0. 0. 0. 0. 0. 0. 0. 5.52486209e-03 5.52486209e-03 0. 0.
      0. 0. 1.65745858e-02 0. 0. 0. 0. 0. 0. 0. 0. 0. 0. 1.10497242e-02
      0. 0. 0. 0. 0. 5.52486209e-03 0. 0. 0. 5.52486209e-03 0. 0. 0. 0.
      0. 0. 0. 0. 0. 0. 5.52486209e-03 5.52486209e-03 5.52486209e-03 0.
      0. 0. 0. 0. 0. 0. 0. 0. 0. 0. 0. 0. 0. 0. 0. 5.52486209e-03 0. 0.
      5.52486209e-03 5.52486209e-03 0. 0. 0. 0. 0. 0. 0. 0. 0. 0.
      5.52486209e-03 0. 0. 0. 0. 0. 0. 0. 0. 0. 0. 0. 0. 0. 0. 0. 0. 0.
      0. 5.52486209e-03 0. 0. 5.52486209e-03 0. 0. 0. 0. 0. 0. 0. 0. 0.
      0. 0. 0. 0. 0. 0. 0. 0. 0. 0. 0. 0. 0. 0. 0. 0. 0. 0. 0.
      5.52486209e-03 5.52486209e-03 0. 0. 0. 0. 0. 0. 0. 0. 0. 0.
      5.52486209e-03 0. 0. 0. 0. 0. 0. 0. 0. 0. 0. 0. 0. 0.
      5.52486209e-03 0. 0. 0. 5.52486209e-03 0. 5.52486209e-03 0. 0.
      5.52486209e-03 0. 0. 0. 0. 0. 5.52486209e-03 0. 0. 0. 0.
      1.10497242e-02 0. 0. 0. 0. 0. 0. 5.52486209e-03 0. 5.52486209e-03
      0. 0. 5.52486209e-03 0. 0. 0. 0. 0. 0. 0. 0. 0. 0. 0. 0. 0. 0. 0.
      0. 0. 0. 0. 0. 0. 5.52486209e-03 0. 0. 0. 5.52486209e-03 0. 0. 0.
      0. 0. 0. 0. 0. 5.52486209e-03 0. 0. 0. 5.52486209e-03 0. 0. 0. 0.
      0. 0. 0. 0. 0. 0. 0. 0. 0. 0. 5.52486209e-03 0. 0. 5.52486209e-03
      0. 0. 0. 0. 5.52486209e-03 5.52486209e-03 0. 1.10497242e-02 0. 0.
      0. 0. 0. 0. 0. 0. 0. 5.52486209e-03 0. 0. 0. 0. 0. 0.
      5.52486209e-03 0. 5.52486209e-03 0. 5.52486209e-03 1.10497242e-02
      0. 0. 0. 1.10497242e-02 0. 0. 0. 0. 0. 0. 0. 5.52486209e-03 0. 0.
      0. 0. 0. 0. 0. 0. 0. 0. 0. 0. 0. 0. 0. 0. 0. 5.52486209e-03 0. 0.
      0. 0. 0. 5.52486209e-03 5.52486209e-03 0. 0. 0. 0. 0. 0. 0. 0. 0.
      0. 1.65745858e-02 5.52486209e-03 0. 0. 0. 0. 0. 0. 0. 0. 0. 0. 0.
      0. 0. 5.52486209e-03 0. 0. 0. 0. 0. 0. 0. 0. 0. 0. 0. 0. 0. 0. 0.
      0. 0. 0. 0. 5.52486209e-03 0. 0. 0. 0. 0. 0. 0. 0. 0. 0. 0. 0. 0.
      0. 0. 0. 0. 0. 0. 0. 0. 0. 0. 0. 0. 0. 0. 0. 5.52486209e-03 0.
      5.52486209e-03 0. 0. 0. 0. 0. 0. 0. 5.52486209e-03 0. 0.
      5.52486209e-03 5.52486209e-03 0. 0. 0. 0. 0. 0. 0. 0. 0. 0. 0.
      2.20994484e-02 0. 1.10497242e-02 0. 0. 5.52486209e-03 0. 0. 0. 0.
      0. 1.10497242e-02 1.65745858e-02 0. 5.52486209e-03 0. 0. 0. 0. 0.
      0. 0. 0. 0. 5.52486209e-03 0. 0. 0. 0. 0. 0. 0. 0. 0. 0. 0. 0. 0.
      0. 0. 5.52486209e-03 0. 0. 0. 5.52486209e-03 0. 5.52486209e-03
      5.52486209e-03 0. 0. 0. 0. 5.52486209e-03 0. 0. 5.52486209e-03 0.
      5.52486209e-03 0. 0. 0. 0. 0. 0. 5.52486209e-03 0. 5.52486209e-03
      0. 0. 0. 0. 0. 2.20994484e-02 0. 0. 0. 5.52486209e-03 0. 0.
      5.52486209e-03 0. 0. 0. 0. 0. 5.52486209e-03 0. 0. 0. 0. 0. 0. 0.
      5.52486209e-03 0. 0. 0. 1.10497242e-02 0. 0. 0. 0. 0. 0. 0. 0. 0.
      0. 5.52486209e-03 0. 0. 0. 0. 5.52486209e-03 0. 0. 0. 0. 0. 0. 0.
      0. 0. 5.52486209e-03 0. 0. 0. 0. 0. 0. 0. 0. 0. 0. 0. 0. 0. 0. 0.
      0. 0. 0. 0. 0. 0. 0. 0. 1.10497242e-02 0. 1.10497242e-02 0. 0. 0.
      0. 0. 0. 0. 0. 0. 0. 0. 1.10497242e-02 0. 0. 0. 0. 0. 0. 0. 0.
      5.52486209e-03 0. 0. 0. 0. 5.52486209e-03 0. 0. 0. 0. 0. 0. 0.
      5.52486209e-03 0. 0. 0. 0. 0. 0. 0. 0. 0. 5.52486209e-03
      5.52486209e-03 0. 0. 0. 0. 0. 0. 5.52486209e-03 0. 0. 0. 0. 0. 0.
      0. 0. 0. 0. 0. 5.52486209e-03 0. 0. 0. 0. 0. 0. 0. 0. 0. 0. 0. 0.
      0. 0. 5.52486209e-03 0. 0. 0. 0. 0. 5.52486209e-03 0. 0. 0. 0. 0.
      0. 0. 0. 0. 0. 0. 5.52486209e-03 0. 1.65745858e-02 5.52486209e-03
      5.52486209e-03 0. 0. 0. 0. 0. 0. 0. 0. 0. 0. 0. 0. 0. 0. 0. 0. 0.
      0. 0. 0. 0. 0. 5.52486209e-03 0. 0. 1.10497242e-02 0. 0. 0. 0. 0.
      0. 0. 0. 0. 0. 0. 0. 0. 1.10497242e-02 0. 0. 0. 0. 0. 0.
      1.10497242e-02 0. 5.52486209e-03 0. 5.52486209e-03 0. 0. 0. 0. 0.
      0. 0. 0. 0. 0. 0. 0. 0. 0. 0. 0. 5.52486209e-03 0. 0. 0. 0. 0.
      5.52486209e-03 5.52486209e-03 0. 0. 0. 0. 0. 0. 0. 0. 0. 0. 0. 0.
      0.</_>
    <_>
      1.51515156e-02 0. 0. 0. 0. 0. 0. 0. 0. 0. 7.57575780e-03 0. 0. 0.
      0. 0. 0. 0. 0. 0. 0. 0. 0. 0. 0. 0. 0. 0. 0. 0. 0. 0.
      7.57575780e-03 0. 0. 0. 0. 0. 0. 0. 0. 7.57575780e-03
      7.57575780e-03 0. 0. 0. 2.27272734e-02 0. 0. 7.57575780e-03 0. 0.
      0. 0. 0. 0. 0. 7.57575780e-03 0. 1.51515156e-02 0. 0. 0. 0. 0. 0.
      0. 0. 0. 0. 0. 0. 0. 7.57575780e-03 7.57575780e-03 7.57575780e-03
      0. 0. 0. 7.57575780e-03 0. 0. 0. 0. 0. 0. 0. 0. 0. 0. 0. 0. 0. 0.
      0. 0. 0. 0. 0. 0. 0. 0. 0. 7.57575780e-03 0. 0. 0. 0. 0. 0. 0.
      7.57575780e-03 0. 0. 7.57575780e-03 0. 0. 0. 0. 0. 0. 0. 0. 0. 0.
      0. 0. 7.57575780e-03 1.51515156e-02 0. 0. 0. 0. 0. 0. 0. 0. 0. 0.
      0. 7.57575780e-03 7.57575780e-03 0. 0. 0. 0. 0. 0. 7.57575780e-03
      0. 0. 0. 0. 0. 0. 0. 0. 0. 0. 0. 0. 0. 0. 0. 0. 0. 0. 0. 0. 0. 0.
      0. 0. 0. 0. 7.57575780e-03 0. 0. 0. 0. 7.57575780e-03 0. 0. 0. 0.
      0. 0. 0. 0. 7.57575780e-03 0. 0. 0. 0. 1.51515156e-02 0. 0. 0. 0.
      0. 0. 7.57575780e-03 0. 0. 0. 0. 0. 0. 0. 0. 0. 0. 0. 0. 0. 0. 0.
      0. 0. 7.57575780e-03 0. 0. 0. 0. 0. 0. 0. 0. 0. 0. 0.
      1.51515156e-02 0. 0. 0. 0. 0. 0. 0. 0. 0. 0. 0. 0. 0. 0. 0.
      7.57575780e-03 0. 0. 0. 0. 0. 0. 0. 0. 0. 0. 0. 0. 7.57575780e-03
      0. 0. 0. 0. 0. 0. 0. 0. 0. 0. 0. 3.03030312e-02 0. 0. 0. 0. 0. 0.
      7.57575780e-03 0. 0. 0. 0. 0. 0. 0. 0. 0. 0. 0. 0. 0. 0.
      7.57575780e-03 1.51515156e-02 0. 0. 0. 0. 0. 0. 0. 0. 0. 0. 0. 0.
      0. 0. 0. 0. 0. 0. 0. 7.57575780e-03 0. 0. 0. 0. 7.57575780e-03 0.
      0. 0. 0. 0. 0. 0. 0. 0. 0. 0. 0. 0. 0. 0. 0. 0. 0. 0. 0. 0. 0. 0.
      0. 0. 0. 0. 0. 0. 0. 7.57575780e-03 0. 0. 0. 0. 0. 0. 0. 0. 0. 0.
      0. 0. 0. 0. 0. 0. 0. 0. 0. 0. 0. 0. 0. 0. 0. 0. 0. 0.
      7.57575780e-03 0. 0. 0. 0. 0. 7.57575780e-03 0. 0. 0. 0. 0. 0. 0.
      0. 0. 0. 0. 0. 0. 0. 0. 0. 0. 0. 0. 0. 0. 0. 0. 0. 0. 0. 0. 0. 0.
      0. 0. 0. 0. 0. 0. 0. 0. 7.57575780e-03 7.57575780e-03 0.
      7.57575780e-03 0. 0. 0. 0. 0. 7.57575780e-03 0. 0. 7.57575780e-03
      0. 0. 0. 0. 0. 7.57575780e-03 0. 7.57575780e-03 0. 0. 0. 0. 0. 0.
      0. 0. 0. 0. 0. 0. 0. 7.57575780e-03 0. 0. 1.51515156e-02 0. 0. 0.
      1.51515156e-02 0. 0. 0. 0. 0. 0. 0. 0. 0. 0. 0. 0. 0. 0. 0. 0. 0.
      0. 0. 0. 0. 0. 0. 0. 0. 0. 0. 0. 0. 0. 0. 0. 7.57575780e-03 0. 0.
      0. 0. 0. 0. 0. 0. 0. 0. 0. 0. 0. 0. 0. 0. 0. 0. 0. 0. 0. 0. 0. 0.
      0. 0. 7.57575780e-03 0. 0. 0. 0. 0. 1.51515156e-02 0.
      7.57575780e-03 0. 0. 0. 0. 0. 0. 0. 7.57575780e-03 0. 0. 0. 0. 0.
      0. 0. 0. 0. 0. 0. 7.57575780e-03 0. 0. 7.57575780e-03 0. 0.
      7.57575780e-03 0. 0. 7.57575780e-03 0. 0. 0. 0. 0. 0. 0.
      7.57575780e-03 2.27272734e-02 7.57575780e-03 7.57575780e-03 0. 0.
      0. 0. 0. 0. 0. 0. 0. 0. 0. 0. 0. 0. 0. 7.57575780e-03 0. 0. 0. 0.
      7.57575780e-03 0. 0. 0. 0. 0. 0. 0. 0. 0. 0. 0. 0. 0. 0.
      7.57575780e-03 0. 0. 0. 0. 0. 0. 7.57575780e-03 0. 0. 0. 0. 0. 0.
      0. 0. 0. 0. 7.57575780e-03 0. 0. 0. 0. 0. 0. 0. 0. 0.
      7.57575780e-03 0. 0. 0. 0. 0. 0. 0. 0. 0. 0. 0. 7.57575780e-03 0.
      0. 0. 0. 0. 0. 0. 0. 7.57575780e-03 0. 0. 1.51515156e-02 0.
      7.57575780e-03 0. 0. 7.57575780e-03 0. 0. 0. 0. 0. 7.57575780e-03
      7.57575780e-03 0. 7.57575780e-03 0. 0. 7.57575780e-03 0. 0. 0. 0.
      0. 0. 0. 0. 0. 0. 0. 0. 0. 0. 0. 0. 7.57575780e-03 0. 0. 0. 0. 0.
      7.57575780e-03 0. 0. 0. 0. 0. 0. 0. 0. 0. 0. 0. 0. 0. 0. 0. 0. 0.
      0. 0. 0. 0. 0. 0. 0. 0. 0. 0. 0. 0. 0. 0. 0. 0. 0. 0. 0. 0. 0.
      7.57575780e-03 0. 0. 0. 0. 0. 0. 0. 0. 0. 0. 0. 0. 0. 0. 0. 0. 0.
      7.57575780e-03 0. 0. 0. 7.57575780e-03 0. 0. 7.57575780e-03 0. 0.
      7.57575780e-03 0. 0. 0. 0. 0. 0. 0. 0. 0. 0. 0. 0. 0. 0. 0. 0. 0.
      7.57575780e-03 7.57575780e-03 7.57575780e-03 0. 0. 0. 0.
      7.57575780e-03 0. 0. 0. 0. 0. 0. 0. 0. 0. 0. 0. 0. 0. 0. 0. 0.
      7.57575780e-03 0. 0. 0. 0. 0. 0. 0. 0. 0. 0. 0. 1.51515156e-02 0.
      0. 0. 0. 0. 0. 0. 0. 0. 0. 0. 0. 0. 0. 0. 7.57575780e-03
      1.51515156e-02 0. 0. 0. 0. 0. 0. 0. 0. 0. 0. 0. 0. 0. 0. 0.
      7.57575780e-03 0. 7.57575780e-03 0. 0. 0. 7.57575780e-03 0. 0. 0.
      0. 0. 0. 0. 0. 0. 0. 0. 0. 0. 0. 0. 0. 0. 0. 0. 0. 0. 0. 0.
      7.57575780e-03 0. 0. 0. 0. 0. 0. 0. 0. 0. 7.57575780e-03 0. 0. 0.
      0. 0. 0. 0. 0. 0. 7.57575780e-03 0. 0. 0. 7.57575780e-03
      7.57575780e-03 7.57575780e-03 0. 0. 0. 7.57575780e-03 0. 0. 0. 0.
      7.57575780e-03 0. 0. 0. 0. 0. 0. 0. 0. 0. 0. 0. 0. 0.
      7.57575780e-03 0. 0. 7.57575780e-03 0. 0. 7.57575780e-03 0. 0. 0.
      0. 0. 0. 0. 0. 0. 0. 0. 0. 0. 0. 0. 0. 0. 7.57575780e-03 0. 0. 0.
      7.57575780e-03 0. 0. 0. 0. 0. 0. 0. 0. 0. 0. 0. 0. 7.57575780e-03
      0. 0. 0. 0. 0. 7.57575780e-03 0. 0. 0. 0. 7.57575780e-03 0. 0. 0.
      0. 0. 7.57575780e-03 0. 0. 0. 0. 0. 0. 7.57575780e-03</_>
    <_>
      0. 0. 0. 0. 0. 0. 1.09890113e-02 0. 0. 0. 1.09890113e-02
      1.09890113e-02 0. 1.09890113e-02 0. 0. 0. 0. 0. 0. 0. 0. 0. 0.
      1.09890113e-02 0. 0. 0. 0. 0. 0. 0. 4.39560451e-02 0. 0. 0. 0. 0.
      0. 0. 0. 1.09890113e-02 0. 0. 0. 0. 0. 0. 0. 0. 0. 0. 0. 0. 0. 0.
      0. 0. 0. 0. 0. 0. 0. 3.29670347e-02 0. 0. 0. 0. 0. 0. 0.
      1.09890113e-02 0. 0. 0. 1.09890113e-02 0. 0. 0. 0. 0. 0. 0. 0. 0.
      0. 0. 0. 0. 0. 0. 0. 0. 0. 0. 0. 0. 0. 0. 0. 0. 1.09890113e-02 0.
      0. 0. 0. 0. 0. 0. 0. 0. 0. 0. 0. 0. 0. 0. 0. 0. 0. 0. 0. 0. 0. 0.
      0. 0. 1.09890113e-02 0. 0. 0. 0. 0. 0. 0. 0. 0. 0. 0. 0. 0. 0. 0.
      0. 0. 0. 0. 0. 0. 0. 0. 0. 0. 0. 0. 0. 0. 0. 0. 0. 0.
      1.09890113e-02 0. 0. 0. 0. 1.09890113e-02 0. 0. 0. 0. 0. 0. 0. 0.
      0. 0. 0. 0. 0. 0. 0. 0. 0. 0. 0. 0. 0. 0. 0. 0. 0. 0. 0.
      1.09890113e-02 0. 0. 0. 0. 0. 0. 0. 0. 0. 0. 0. 0. 0. 0. 0. 0.
      1.09890113e-02 0. 0. 0. 0. 0. 0. 1.09890113e-02 0. 1.09890113e-02
      0. 0. 0. 2.19780225e-02 0. 0. 0. 0. 0. 0. 1.09890113e-02 0. 0. 0.
      1.09890113e-02 0. 0. 0. 0. 0. 0. 0. 0. 0. 0. 0. 0. 0. 0. 0. 0. 0.
      0. 0. 0. 0. 0. 0. 0. 0. 0. 0. 0. 0. 0. 0. 0. 0. 0. 0. 0.
      1.09890113e-02 0. 0. 0. 0. 0. 0. 0. 0. 0. 0. 0. 0. 0. 0. 0. 0. 0.
      0. 0. 0. 0. 0. 2.19780225e-02 0. 0. 0. 0. 0. 0. 0. 0. 0. 0. 0. 0.
      0. 1.09890113e-02 0. 0. 0. 0. 0. 0. 0. 0. 0. 0. 1.09890113e-02 0.
      0. 0. 0. 0. 0. 0. 0. 0. 0. 0. 0. 0. 0. 0. 0. 0. 0. 0. 0. 0.
      1.09890113e-02 0. 0. 0. 0. 0. 0. 1.09890113e-02 0. 0. 0. 0. 0. 0.
      0. 0. 0. 0. 0. 0. 0. 0. 0. 0. 0. 0. 0. 0. 1.09890113e-02 0. 0. 0.
      0. 0. 0. 0. 0. 0. 1.09890113e-02 0. 0. 0. 0. 0. 0. 0. 0. 0. 0. 0.
      0. 0. 0. 0. 0. 0. 0. 0. 0. 0. 0. 0. 0. 0. 0. 0. 0. 0. 0. 0. 0.
      2.19780225e-02 0. 0. 0. 0. 0. 0. 0. 0. 1.09890113e-02 0.
      1.09890113e-02 0. 0. 0. 0. 0. 0. 0. 0. 1.09890113e-02 0. 0. 0. 0.
      0. 0. 0. 1.09890113e-02 0. 0. 0. 0. 0. 0. 0. 0. 0. 0. 0. 0. 0. 0.
      0. 0. 0. 0. 1.09890113e-02 0. 0. 0. 0. 0. 0. 0. 0. 0. 0. 0. 0. 0.
      0. 0. 0. 0. 1.09890113e-02 0. 0. 0. 0. 0. 0. 0. 0. 0. 0. 0. 0. 0.
      0. 0. 0. 1.09890113e-02 0. 0. 0. 0. 0. 0. 0. 0. 0. 0. 0. 0. 0. 0.
      0. 0. 0. 0. 0. 0. 0. 0. 0. 0. 0. 0. 0. 0. 0. 0. 0. 0. 0. 0. 0.
      1.09890113e-02 0. 0. 0. 0. 0. 0. 0. 0. 0. 0. 0. 0. 1.09890113e-02
      0. 0. 0. 0. 0. 0. 0. 0. 1.09890113e-02 0. 0. 0. 0. 0.
      1.09890113e-02 0. 0. 1.09890113e-02 0. 0. 0. 0. 0. 0. 0. 0. 0.
      1.09890113e-02 0. 0. 0. 0. 0. 0. 0. 0. 0. 0. 0. 0. 0. 0. 0. 0.
      1.09890113e-02 0. 0. 0. 0. 1.09890113e-02 0. 0. 0. 0. 0. 0. 0. 0.
      0. 0. 0. 1.09890113e-02 0. 0. 0. 0. 0. 0. 0. 0. 0. 0. 0. 0. 0. 0.
      0. 0. 0. 0. 0. 0. 0. 1.09890113e-02 0. 0. 0. 0. 0. 0. 0. 0. 0. 0.
      0. 0. 0. 0. 0. 0. 0. 0. 0. 0. 0. 0. 0. 0. 0. 0. 0. 0. 0.
      1.09890113e-02 0. 0. 2.19780225e-02 0. 1.09890113e-02 0. 0. 0. 0.
      0. 0. 0. 0. 1.09890113e-02 1.09890113e-02 0. 1.09890113e-02 0. 0.
      0. 0. 0. 0. 0. 0. 0. 0. 0. 0. 0. 0. 1.09890113e-02 0. 0. 0. 0.
      1.09890113e-02 0. 0. 0. 0. 0. 0. 0. 0. 0. 0. 0. 0. 1.09890113e-02
      0. 0. 0. 0. 1.09890113e-02 0. 0. 0. 0. 0. 0. 0. 0. 0. 0. 0. 0. 0.
      0. 0. 0. 0. 0. 0. 0. 0. 0. 0. 0. 0. 0. 1.09890113e-02 0. 0. 0. 0.
      0. 0. 0. 0. 0. 0. 0. 0. 0. 0. 0. 0. 0. 0. 0. 0. 0. 0. 0. 0.
      1.09890113e-02 0. 0. 0. 0. 0. 0. 0. 0. 0. 0. 0. 0. 0. 0. 0. 0.
      1.09890113e-02 1.09890113e-02 0. 0. 1.09890113e-02 0. 0.
      1.09890113e-02 0. 0. 0. 0. 0. 0. 0. 0. 0. 0. 0. 0. 0. 0. 0. 0. 0.
      0. 0. 0. 0. 0. 0. 0. 0. 0. 0. 0. 0. 0. 0. 0. 3.29670347e-02 0. 0.
      0. 0. 0. 0. 0. 0. 0. 0. 0. 0. 0. 0. 0. 0. 0. 0. 0. 0. 0. 0. 0. 0.
      0. 0. 0. 0. 0. 0. 0. 0. 1.09890113e-02 0. 0. 0. 0. 0.
      1.09890113e-02 0. 0. 0. 0. 0. 0. 0. 0. 0. 0. 0. 0. 0. 0. 0. 0. 0.
      0. 0. 0. 0. 0. 0. 0. 0. 0. 0. 0. 0. 0. 0. 0. 0. 0. 0. 0. 0. 0.
      1.09890113e-02 0. 0. 0. 0. 2.19780225e-02 0. 0. 0. 0. 0. 0. 0. 0.
      0. 0. 1.09890113e-02 0. 0. 0. 1.09890113e-02 0. 0. 0. 0. 0. 0. 0.
      0. 0. 1.09890113e-02 0. 0. 0. 0. 1.09890113e-02 0. 0. 0. 0. 0. 0.
      0. 0. 0. 0. 0. 0. 0. 0. 0. 0. 0. 1.09890113e-02 0. 0. 0. 0.
      2.19780225e-02 0. 0. 0. 0. 0. 0. 0. 0. 0. 0. 0. 1.09890113e-02 0.
      0. 0. 0. 0. 0. 0. 0. 0. 0. 0. 0. 0. 0. 1.09890113e-02
      1.09890113e-02 0. 0. 0. 0. 0. 0. 0. 0. 0. 0. 0. 0. 1.09890113e-02</_>
    <_>
      0. 0. 0. 0. 0. 0. 0. 0. 0. 0. 0. 2.70270277e-02 0. 0. 0. 0. 0. 0.
      2.70270277e-02 0. 0. 0. 0. 0. 0. 0. 0. 0. 0. 0. 0. 0.
      1.08108111e-01 0. 0. 0. 0. 0. 0. 2.70270277e-02 0. 0. 0. 0. 0. 0.
      0. 0. 0. 0. 2.70270277e-02 0. 0. 0. 0. 0. 0. 0. 0. 0. 0. 0. 0. 0.
      0. 0. 0. 0. 0. 0. 0. 0. 0. 0. 0. 0. 0. 0. 0. 0. 0. 0. 0. 0. 0. 0.
      0. 0. 0. 0. 0. 0. 2.70270277e-02 0. 0. 0. 0. 0. 0. 0. 0. 0. 0. 0.
      0. 0. 0. 0. 0. 0. 0. 0. 0. 0. 0. 0. 0. 0. 0. 0. 0. 0. 0. 0. 0. 0.
      0. 0. 0. 0. 0. 0. 0. 0. 0. 0. 0. 0. 0. 0. 0. 0. 0. 0. 0. 0. 0. 0.
      0. 0. 0. 0. 0. 0. 0. 0. 0. 0. 0. 0. 0. 0. 0. 0. 0. 0. 0. 0. 0. 0.
      0. 0. 0. 0. 0. 0. 0. 0. 0. 0. 0. 0. 0. 0. 0. 0. 0. 0. 0. 0. 0. 0.
      0. 0. 0. 0. 0. 0. 0. 0. 0. 0. 0. 0. 0. 0. 0. 0. 0. 0. 0. 0. 0. 0.
      0. 0. 0. 0. 0. 0. 0. 0. 0. 0. 0. 0. 0. 0. 0. 0. 0. 0. 0. 0. 0. 0.
      0. 0. 0. 0. 0. 0. 0. 0. 0. 0. 0. 0. 0. 0. 0. 0. 0. 0. 0. 0. 0. 0.
      0. 0. 0. 0. 0. 0. 0. 0. 0. 0. 0. 0. 0. 0. 2.70270277e-02 0. 0. 0.
      0. 0. 0. 0. 0. 0. 0. 0. 0. 0. 0. 0. 0. 0. 0. 0. 0. 0. 0. 0. 0. 0.
      0. 0. 0. 0. 0. 0. 0. 0. 0. 0. 0. 0. 0. 0. 0. 0. 0. 0. 0. 0. 0. 0.
      0. 0. 0. 0. 0. 0. 0. 0. 0. 0. 0. 0. 2.70270277e-02 0. 0. 0. 0. 0.
      0. 0. 0. 0. 0. 2.70270277e-02 0. 0. 0. 0. 0. 0. 0. 0. 0. 0. 0. 0.
      0. 0. 0. 0. 0. 0. 0. 0. 0. 0. 0. 0. 0. 0. 0. 0. 0. 0. 0. 0. 0. 0.
      0. 0. 5.40540554e-02 0. 0. 0. 0. 0. 0. 0. 0. 0. 0. 0. 0. 0. 0. 0.
      0. 0. 0. 0. 0. 0. 0. 0. 0. 0. 0. 0. 0. 0. 0. 0. 0. 0. 0. 0. 0. 0.
      0. 0. 0. 0. 0. 0. 0. 0. 0. 2.70270277e-02 0. 0. 0. 0. 0. 0. 0. 0.
      0. 0. 0. 0. 0. 0. 0. 0. 0. 0. 0. 0. 0. 0. 0. 0. 0. 0. 0. 0. 0. 0.
      0. 0. 0. 0. 0. 0. 0. 0. 0. 0. 0. 0. 0. 0. 0. 0. 0. 0. 0. 0. 0. 0.
      0. 2.70270277e-02 0. 0. 0. 0. 0. 0. 0. 0. 0. 0. 0. 0. 0. 0. 0. 0.
      0. 0. 0. 0. 0. 0. 0. 0. 2.70270277e-02 0. 0. 0. 0. 0. 0. 0. 0. 0.
      0. 0. 0. 0. 0. 0. 0. 0. 0. 0. 0. 0. 0. 0. 0. 0. 0. 0. 0. 0. 0. 0.
      0. 0. 0. 0. 0. 0. 0. 0. 0. 0. 0. 0. 0. 0. 0. 0. 0. 0. 0. 0. 0. 0.
      0. 0. 0. 0. 2.70270277e-02 0. 0. 0. 0. 0. 2.70270277e-02
      5.40540554e-02 2.70270277e-02 0. 0. 0. 0. 0. 0. 0. 0. 0. 0. 0. 0.
      0. 0. 0. 0. 0. 0. 0. 0. 0. 0. 0. 0. 0. 0. 0. 0. 0. 0. 0. 0. 0. 0.
      0. 0. 0. 2.70270277e-02 0. 0. 0. 0. 0. 0. 0. 0. 0. 0. 0. 0. 0. 0.
      0. 0. 0. 0. 0. 0. 0. 0. 0. 0. 0. 0. 0. 0. 0. 0. 0. 0. 0. 0. 0. 0.
      0. 0. 0. 0. 0. 0. 0. 0. 0. 0. 0. 2.70270277e-02 0. 0. 0. 0.
      2.70270277e-02 0. 0. 0. 0. 0. 0. 0. 0. 2.70270277e-02 0. 0. 0. 0.
      0. 0. 0. 0. 0. 0. 0. 0. 0. 0. 0. 0. 0. 0. 0. 0. 0. 0. 0. 0.
      2.70270277e-02 0. 0. 0. 0. 0. 0. 0. 0. 0. 0. 2.70270277e-02 0. 0.
      0. 0. 0. 0. 0. 0. 0. 0. 0. 0. 0. 0. 0. 0. 0. 0. 0. 0. 0. 0. 0. 0.
      0. 0. 0. 0. 0. 0. 0. 0. 0. 0. 0. 0. 0. 0. 0. 0. 0. 0. 0. 0. 0. 0.
      0. 2.70270277e-02 0. 0. 0. 0. 0. 0. 0. 0. 0. 0. 0. 0. 0. 0.
      2.70270277e-02 0. 0. 0. 0. 0. 0. 0. 0. 0. 0. 0. 0. 0. 0. 0. 0. 0.
      0. 0. 0. 0. 0. 0. 0. 0. 2.70270277e-02 0. 0. 0. 0. 0. 0. 0. 0. 0.
      0. 8.10810849e-02 0. 0. 0. 0. 0. 0. 0. 0. 0. 0. 0. 0. 0. 0. 0. 0.
      0. 0. 0. 0. 0. 0. 0. 0. 0. 0. 0. 0. 0. 0. 0. 0. 0. 0. 0. 0. 0. 0.
      0. 0. 0. 0. 0. 0. 0. 0. 0. 0. 0. 0. 0. 0. 0. 0. 0. 0. 0. 0. 0. 0.
      0. 0. 0. 0. 0. 0. 0. 0. 0. 0. 0. 2.70270277e-02 0. 0. 0. 0. 0. 0.
      0. 0. 0. 0. 0. 0. 0. 0. 0. 0. 0. 0. 0. 0. 0. 0. 0. 0. 0. 0. 0. 0.
      0. 0. 0. 0. 0. 0. 0. 0. 0. 0. 0. 0. 0. 0. 0. 0. 0. 0. 0. 0. 0. 0.
      0. 0. 0. 0. 0. 0. 0. 0. 0. 0. 0. 0. 0. 0. 0. 0. 0. 0. 0. 0. 0. 0.
      0. 0. 0. 0. 0. 0. 0. 0. 0. 0. 0. 0. 0. 0. 0. 0. 0. 0. 0. 0. 0. 0.
      0. 0. 0. 0. 0. 0. 2.70270277e-02 0. 0. 0. 0. 0. 0. 0. 0. 0. 0. 0.
      0. 0. 0. 0. 0. 0. 2.70270277e-02</_>
    <_>
      1.85185187e-02 0. 0. 0. 0. 9.25925933e-03 9.25925933e-03 0. 0. 0.
      0. 0. 0. 0. 0. 0. 0. 0. 0. 0. 0. 0. 0. 0. 0. 0. 0. 0. 0. 0. 0. 0.
      9.25925933e-03 0. 0. 0. 0. 0. 0. 0. 0. 0. 0. 0. 0. 0.
      9.25925933e-03 0. 0. 0. 0. 0. 0. 0. 0. 0. 0. 9.25925933e-03 0.
      9.25925933e-03 0. 0. 0. 1.85185187e-02 0. 0. 0. 0. 0. 0. 0.
      9.25925933e-03 0. 0. 0. 9.25925933e-03 0. 0. 0. 0. 0.
      9.25925933e-03 0. 0. 0. 0. 0. 0. 0. 0. 0. 0. 0. 0. 0. 0. 0. 0. 0.
      0. 0. 0. 0. 0. 0. 0. 0. 0. 0. 0. 0. 0. 0. 0. 9.25925933e-03 0. 0.
      0. 0. 0. 0. 0. 0. 0. 0. 0. 0. 9.25925933e-03 0. 0. 0. 0. 0. 0. 0.
      0. 0. 9.25925933e-03 0. 0. 0. 0. 0. 0. 0. 0. 0. 0. 0. 0. 0. 0. 0.
      0. 0. 0. 0. 0. 0. 0. 0. 0. 0. 0. 0. 0. 9.25925933e-03 0. 0. 0. 0.
      0. 0. 0. 0. 0. 0. 0. 0. 0. 0. 0. 0. 0. 0. 0. 0. 0. 0. 0. 0. 0. 0.
      0. 9.25925933e-03 0. 0. 0. 0. 0. 0. 0. 0. 0. 0. 0. 0. 0. 0. 0. 0.
      9.25925933e-03 0. 0. 0. 0. 0. 0. 9.25925933e-03 0. 9.25925933e-03
      0. 0. 0. 9.25925933e-03 0. 0. 0. 0. 0. 0. 0. 0. 0. 9.25925933e-03
      9.25925933e-03 0. 1.85185187e-02 0. 0. 0. 0. 0. 0. 0. 0. 0. 0. 0.
      0. 0. 0. 0. 0. 0. 9.25925933e-03 0. 9.25925933e-03 0. 0.
      9.25925933e-03 0. 0. 0. 0. 0. 9.25925933e-03 0. 0. 0. 0. 0.
      1.85185187e-02 0. 0. 0. 0. 0. 0. 0. 0. 0. 0. 0. 0. 0. 0. 0. 0. 0.
      0. 0. 0. 0. 0. 0. 0. 0. 0. 0. 0. 0. 0. 0. 0. 0. 0. 0. 0. 0. 0. 0.
      0. 0. 0. 0. 0. 0. 0. 0. 0. 0. 0. 0. 0. 0. 0. 0. 0. 0. 0.
      9.25925933e-03 0. 0. 0. 0. 0. 0. 0. 0. 0. 0. 9.25925933e-03
      9.25925933e-03 0. 0. 0. 0. 9.25925933e-03 0. 0. 0. 0. 0. 0. 0. 0.
      0. 0. 0. 9.25925933e-03 0. 0. 0. 0. 0. 0. 0. 0. 0. 0. 0. 0. 0. 0.
      0. 0. 0. 0. 0. 9.25925933e-03 0. 0. 0. 0. 0. 0. 0. 0. 0. 0. 0. 0.
      9.25925933e-03 9.25925933e-03 0. 0. 0. 0. 0. 0. 0. 0. 0.
      9.25925933e-03 0. 0. 0. 0. 0. 0. 0. 0. 1.85185187e-02 0. 0. 0. 0.
      0. 0. 0. 0. 9.25925933e-03 0. 0. 0. 0. 0. 0. 0. 9.25925933e-03 0.
      0. 2.77777780e-02 0. 9.25925933e-03 0. 0. 0. 0. 0. 9.25925933e-03
      0. 0. 0. 0. 0. 0. 0. 0. 0. 0. 0. 0. 0. 0. 0. 0. 0. 0. 0.
      9.25925933e-03 0. 0. 0. 0. 0. 0. 0. 0. 0. 0. 0. 0. 0. 0. 0. 0. 0.
      0. 0. 0. 0. 0. 0. 0. 0. 0. 0. 0. 0. 0. 0. 0. 0. 0. 0.
      9.25925933e-03 0. 0. 0. 0. 9.25925933e-03 0. 0. 0. 0. 0. 0. 0. 0.
      0. 0. 0. 0. 0. 0. 0. 0. 0. 0. 0. 0. 0. 0. 0. 0. 0. 0. 0. 0.
      9.25925933e-03 0. 0. 0. 9.25925933e-03 0. 0. 0. 0. 0.
      9.25925933e-03 0. 0. 0. 0. 0. 0. 0. 0. 0. 0. 0. 9.25925933e-03 0.
      0. 0. 0. 0. 0. 0. 0. 9.25925933e-03 0. 0. 0. 0. 0. 0. 0. 0.
      9.25925933e-03 0. 0. 0. 0. 0. 0. 0. 0. 0. 0. 0. 0. 0. 0. 0. 0. 0.
      1.85185187e-02 0. 0. 0. 9.25925933e-03 0. 0. 0. 0. 0. 0. 0. 0. 0.
      0. 0. 0. 0. 0. 0. 0. 0. 0. 0. 0. 0. 0. 0. 0. 0. 0. 0. 0. 0. 0. 0.
      0. 0. 0. 9.25925933e-03 0. 0. 0. 0. 0. 0. 0. 0. 9.25925933e-03 0.
      0. 0. 0. 0. 0. 0. 0. 0. 0. 0. 0. 0. 0. 0. 0. 0. 0. 0. 0.
      9.25925933e-03 0. 0. 2.77777780e-02 0. 1.85185187e-02 0. 0. 0. 0.
      0. 0. 0. 9.25925933e-03 9.25925933e-03 0. 0. 9.25925933e-03 0. 0.
      0. 0. 0. 0. 0. 0. 0. 0. 0. 0. 0. 0. 9.25925933e-03 0. 0. 0. 0.
      9.25925933e-03 0. 0. 0. 1.85185187e-02 0. 0. 0. 0. 0.
      9.25925933e-03 0. 9.25925933e-03 0. 0. 0. 0. 0. 9.25925933e-03 0.
      0. 0. 0. 0. 0. 0. 0. 0. 0. 0. 9.25925933e-03 0. 0. 9.25925933e-03
      0. 0. 0. 0. 0. 0. 0. 0. 0. 0. 0. 9.25925933e-03 0. 0. 0. 0. 0. 0.
      0. 0. 0. 0. 0. 0. 0. 0. 0. 9.25925933e-03 0. 0. 0. 0. 0. 0. 0. 0.
      0. 0. 0. 0. 9.25925933e-03 0. 0. 0. 0. 0. 0. 0. 0. 0. 0. 0. 0. 0.
      0. 0. 0. 0. 0. 0. 0. 0. 0. 0. 0. 0. 0. 0. 0. 0. 0. 0. 0. 0. 0. 0.
      0. 0. 0. 0. 0. 9.25925933e-03 0. 0. 0. 0. 0. 9.25925933e-03 0. 0.
      0. 0. 0. 1.85185187e-02 0. 0. 0. 0. 0. 0. 0. 0. 0. 0. 0. 0. 0. 0.
      0. 1.85185187e-02 0. 0. 0. 0. 0. 0. 0. 0. 9.25925933e-03
      9.25925933e-03 0. 0. 0. 0. 0. 0. 0. 0. 0. 0. 0. 0. 9.25925933e-03
      9.25925933e-03 0. 0. 0. 0. 0. 0. 0. 0. 0. 0. 0. 0. 0. 0. 0. 0. 0.
      0. 0. 0. 0. 0. 0. 0. 0. 0. 0. 0. 0. 0. 0. 0. 1.85185187e-02 0. 0.
      0. 0. 9.25925933e-03 0. 0. 0. 0. 9.25925933e-03 9.25925933e-03 0.
      0. 0. 0. 0. 0. 0. 0. 0. 0. 0. 0. 0. 9.25925933e-03 0. 0. 0. 0. 0.
      0. 0. 0. 0. 0. 0. 0. 0. 0. 0. 0. 1.85185187e-02 0. 0.
      9.25925933e-03 0. 0. 9.25925933e-03 0. 0. 0. 0. 0. 0. 0. 0. 0.
      9.25925933e-03 0. 0. 0. 0. 9.25925933e-03 0. 0. 0. 0. 0. 0. 0. 0.
      0. 0. 0. 0. 0. 0. 0. 0. 0. 0. 0. 0. 0. 0. 0. 0. 0. 0. 0.
      9.25925933e-03 0. 0. 0. 0. 0. 0. 0. 0. 0. 0. 0. 0. 0.</_>
    <_>
      9.90098994e-03 0. 0. 0. 0. 0. 9.90098994e-03 0. 0. 0. 0. 0. 0. 0.
      0. 0. 0. 0. 0. 0. 0. 0. 0. 0. 0. 0. 0. 0. 0. 0. 0. 0. 0. 0. 0. 0.
      0. 0. 0. 0. 0. 0. 0. 0. 0. 0. 0. 0. 0. 0. 0. 0. 0. 0. 0. 0. 0. 0.
      0. 1.98019799e-02 0. 0. 0. 0. 0. 0. 0. 0. 0. 0. 0. 0. 0. 0.
      9.90098994e-03 9.90098994e-03 0. 0. 0. 0. 0. 0. 0. 9.90098994e-03
      0. 0. 0. 0. 0. 0. 0. 0. 0. 0. 0. 0. 0. 0. 0. 0. 0. 9.90098994e-03
      0. 0. 0. 0. 0. 0. 0. 0. 0. 0. 0. 0. 9.90098994e-03 0. 0.
      9.90098994e-03 0. 0. 0. 0. 0. 0. 0. 0. 0. 0. 0. 0. 0. 0. 0.
      9.90098994e-03 0. 0. 0. 0. 0. 0. 9.90098994e-03 0. 0. 0. 0. 0. 0.
      0. 0. 0. 0. 0. 0. 0. 0. 0. 0. 0. 0. 0. 0. 0. 0. 0. 0. 0.
      9.90098994e-03 0. 0. 0. 0. 0. 9.90098994e-03 9.90098994e-03 0. 0.
      0. 0. 0. 0. 1.98019799e-02 0. 0. 0. 9.90098994e-03 0. 0. 0. 0. 0.
      0. 0. 0. 0. 0. 0. 0. 0. 0. 0. 0. 0. 0. 0. 0. 0. 0. 0. 0. 0. 0. 0.
      0. 0. 0. 0. 0. 0. 0. 0. 9.90098994e-03 0. 0. 0. 0. 0. 0. 0. 0. 0.
      0. 0. 0. 0. 0. 0. 0. 1.98019799e-02 0. 0. 0. 0. 0. 9.90098994e-03
      0. 0. 0. 0. 0. 0. 0. 0. 0. 0. 0. 0. 0. 9.90098994e-03 0. 0.
      9.90098994e-03 0. 0. 0. 0. 0. 0. 0. 0. 0. 0. 0. 1.98019799e-02 0.
      0. 0. 0. 0. 0. 0. 0. 0. 0. 0. 0. 0. 0. 9.90098994e-03 0. 0. 0. 0.
      0. 0. 0. 0. 0. 0. 0. 0. 0. 0. 0. 0. 0. 0. 0. 0. 0. 0. 0. 0. 0. 0.
      0. 0. 0. 0. 0. 0. 0. 0. 0. 0. 0. 0. 0. 0. 0. 0. 0. 0. 0. 0. 0. 0.
      0. 0. 0. 0. 0. 0. 9.90098994e-03 0. 0. 0. 0. 0. 0. 0. 0. 0. 0. 0.
      0. 0. 0. 0. 0. 0. 1.98019799e-02 0. 0. 0. 0. 0. 0. 0. 0. 0.
      9.90098994e-03 0. 0. 0. 0. 0. 0. 0. 0. 9.90098994e-03
      9.90098994e-03 0. 0. 0. 0. 0. 0. 0. 0. 0. 9.90098994e-03 0. 0. 0.
      9.90098994e-03 0. 0. 0. 0. 0. 0. 0. 0. 0. 0. 0. 0. 0.
      9.90098994e-03 0. 0. 0. 0. 1.98019799e-02 0. 0. 0. 0. 0. 0. 0. 0.
      9.90098994e-03 0. 9.90098994e-03 0. 0. 0. 0. 0. 9.90098994e-03 0.
      0. 1.98019799e-02 0. 0. 0. 0. 0. 0. 0. 0. 0. 0. 0. 0. 0. 0. 0. 0.
      0. 0. 0. 0. 0. 0. 0. 0. 9.90098994e-03 0. 0. 0. 0. 0. 0. 0. 0. 0.
      0. 0. 0. 0. 0. 0. 0. 0. 0. 0. 0. 0. 0. 0. 0. 0. 0. 0. 0. 0. 0. 0.
      0. 0. 0. 0. 0. 0. 0. 0. 0. 9.90098994e-03 0. 0. 0. 0. 0. 0. 0. 0.
      0. 0. 0. 0. 0. 0. 0. 0. 0. 0. 0. 0. 0. 0. 0. 0. 0. 0. 0.
      9.90098994e-03 0. 0. 0. 9.90098994e-03 0. 0. 0. 0. 0. 0. 0. 0. 0.
      9.90098994e-03 0. 0. 0. 0. 0. 0. 0. 0. 0. 0. 0. 0. 0. 0. 0. 0. 0.
      9.90098994e-03 0. 0. 0. 0. 0. 0. 0. 0. 0. 0. 0. 1.98019799e-02 0.
      0. 0. 0. 0. 0. 0. 0. 0. 0. 0. 0. 0. 0. 0. 0. 0. 1.98019799e-02 0.
      0. 0. 9.90098994e-03 0. 0. 9.90098994e-03 0. 0. 0. 0. 0. 0. 0.
      9.90098994e-03 0. 0. 0. 0. 0. 0. 0. 0. 0. 0. 0. 0. 0. 0. 0. 0. 0.
      0. 0. 0. 0. 0. 0. 0. 0. 0. 0. 0. 0. 0. 0. 0. 9.90098994e-03 0. 0.
      0. 0. 0. 0. 0. 9.90098994e-03 0. 0. 0. 0. 0. 0. 0. 0. 0. 0. 0.
      9.90098994e-03 0. 0. 0. 2.97029689e-02 0. 1.98019799e-02 0. 0. 0.
      0. 0. 0. 0. 0. 9.90098994e-03 0. 0. 9.90098994e-03 9.90098994e-03
      0. 0. 0. 0. 0. 0. 0. 0. 0. 0. 0. 0. 0. 0. 0. 0. 0. 0.
      9.90098994e-03 0. 0. 0. 0. 0. 0. 0. 0. 0. 0. 0. 0. 0. 0. 0. 0. 0.
      9.90098994e-03 0. 0. 0. 0. 9.90098994e-03 0. 0. 0. 0. 0. 0. 0. 0.
      0. 0. 0. 0. 0. 0. 0. 0. 0. 0. 9.90098994e-03 0. 0. 9.90098994e-03
      0. 0. 0. 0. 0. 9.90098994e-03 0. 0. 0. 0. 0. 0. 0. 0. 0. 0. 0. 0.
      0. 0. 0. 0. 0. 0. 0. 0. 0. 0. 0. 0. 0. 0. 0. 0. 0. 0. 0. 0. 0. 0.
      0. 0. 9.90098994e-03 0. 0. 0. 0. 0. 0. 0. 0. 0. 0. 0. 0. 0. 0. 0.
      0. 0. 0. 0. 0. 0. 0. 0. 0. 9.90098994e-03 0. 1.98019799e-02 0. 0.
      0. 0. 0. 0. 0. 0. 0. 0. 0. 2.97029689e-02 0. 0. 0. 0. 0. 0. 0. 0.
      0. 0. 0. 0. 0. 0. 0. 0. 0. 0. 0. 0. 0. 0. 0. 0. 0. 9.90098994e-03
      0. 0. 0. 0. 0. 0. 1.98019799e-02 0. 0. 0. 0. 0. 0. 0. 0. 0. 0. 0.
      0. 0. 0. 0. 0. 0. 0. 0. 0. 0. 0. 0. 0. 9.90098994e-03 0. 0. 0. 0.
      0. 0. 0. 0. 0. 0. 0. 0. 0. 0. 9.90098994e-03 0. 0. 0. 0.
      9.90098994e-03 0. 0. 0. 0. 9.90098994e-03 0. 0. 0. 1.98019799e-02
      0. 9.90098994e-03 0. 0. 0. 0. 0. 0. 0. 0. 9.90098994e-03 0. 0. 0.
      0. 0. 0. 0. 0. 0. 9.90098994e-03 0. 0. 0. 9.90098994e-03 0. 0.
      9.90098994e-03 0. 0. 1.98019799e-02 0. 0. 0. 0. 0. 0. 0.
      9.90098994e-03 0. 0. 0. 0. 9.90098994e-03 0. 0. 0. 0.
      9.90098994e-03 0. 0. 0. 0. 0. 0. 0. 0. 0. 0. 0. 0. 0.
      9.90098994e-03 0. 0. 0. 0. 0. 0. 0. 0. 0. 0. 0. 0. 0.
      9.90098994e-03 0. 0. 0. 0. 0. 0. 0. 0. 0. 0. 0. 0. 0.</_>
    <_>
      1.16959065e-02 0. 0. 0. 0. 0. 0. 0. 0. 0. 5.84795326e-03 0. 0.
      5.84795326e-03 0. 0. 0. 0. 0. 0. 5.84795326e-03 0. 0. 0. 0. 0. 0.
      0. 5.84795326e-03 0. 0. 0. 0. 0. 0. 0. 0. 0. 0. 0. 0.
      5.84795326e-03 0. 0. 0. 0. 1.16959065e-02 0. 0. 0. 0. 0.
      5.84795326e-03 0. 0. 0. 0. 1.16959065e-02 0. 1.16959065e-02 0. 0.
      0. 0. 0. 0. 0. 0. 0. 0. 0. 5.84795326e-03 0. 0. 0. 5.84795326e-03
      0. 0. 0. 1.16959065e-02 0. 5.84795326e-03 0. 0. 0. 0. 0. 0. 0. 0.
      0. 0. 0. 0. 0. 0. 0. 0. 0. 0. 0. 5.84795326e-03 0. 0. 0. 0. 0. 0.
      0. 0. 0. 0. 0. 0. 0. 0. 0. 0. 0. 0. 0. 0. 0. 0. 0. 0. 0. 0.
      5.84795326e-03 0. 0. 0. 0. 5.84795326e-03 0. 0. 0. 1.16959065e-02
      0. 0. 0. 0. 5.84795326e-03 0. 0. 0. 0. 0. 1.16959065e-02 0. 0. 0.
      0. 5.84795326e-03 0. 0. 0. 0. 0. 5.84795326e-03 0. 0. 0. 0. 0. 0.
      5.84795326e-03 0. 0. 0. 0. 0. 0. 5.84795326e-03 0. 0. 0. 0. 0. 0.
      5.84795326e-03 0. 0. 0. 0. 0. 0. 0. 0. 0. 0. 0. 0. 0.
      5.84795326e-03 0. 0. 0. 0. 0. 0. 1.75438598e-02 0. 0. 0. 0. 0. 0.
      0. 0. 0. 0. 0. 0. 0. 0. 0. 0. 5.84795326e-03 5.84795326e-03 0. 0.
      0. 0. 0. 0. 0. 0. 5.84795326e-03 0. 0. 1.16959065e-02 0. 0.
      5.84795326e-03 0. 0. 0. 0. 0. 0. 0. 0. 5.84795326e-03 0. 0. 0. 0.
      0. 0. 0. 0. 0. 0. 0. 0. 0. 0. 0. 5.84795326e-03 0. 0.
      5.84795326e-03 0. 5.84795326e-03 0. 0. 0. 0. 0. 0. 0.
      5.84795326e-03 0. 0. 0. 0. 0. 0. 0. 0. 0. 5.84795326e-03 0. 0. 0.
      0. 0. 0. 0. 0. 0. 0. 0. 1.16959065e-02 1.16959065e-02 0. 0.
      1.16959065e-02 0. 0. 0. 0. 0. 0. 0. 0. 0. 0. 0. 0. 0.
      5.84795326e-03 0. 0. 0. 0. 0. 0. 0. 0. 0. 0. 0. 0. 0. 0.
      5.84795326e-03 0. 0. 0. 0. 0. 0. 0. 0. 0. 0. 5.84795326e-03 0. 0.
      0. 0. 0. 0. 0. 0. 0. 0. 0. 0. 0. 0. 0. 0. 0. 0. 0. 0. 0. 0. 0. 0.
      0. 0. 0. 0. 0. 0. 0. 0. 0. 0. 0. 0. 0. 0. 0. 0. 0. 0.
      5.84795326e-03 0. 0. 0. 0. 0. 5.84795326e-03 0. 0. 0. 0. 0. 0. 0.
      0. 0. 0. 0. 0. 0. 0. 5.84795326e-03 0. 0. 0. 0. 0. 0.
      5.84795326e-03 0. 0. 0. 0. 0. 0. 0. 0. 0. 0. 0. 0. 0. 0.
      5.84795326e-03 0. 0. 0. 0. 0. 0. 0. 0. 1.75438598e-02 0. 0.
      5.84795326e-03 0. 0. 0. 0. 5.84795326e-03 0. 0. 0. 0. 0.
      5.84795326e-03 5.84795326e-03 0. 0. 0. 0. 0. 0. 0. 0. 0. 0. 0. 0.
      0. 0. 0. 0. 5.84795326e-03 0. 0. 0. 0. 0. 0. 0. 0. 0. 0. 0. 0. 0.
      0. 0. 0. 0. 0. 0. 0. 0. 0. 0. 0. 0. 0. 0. 1.16959065e-02 0. 0. 0.
      0. 0. 5.84795326e-03 0. 1.16959065e-02 0. 0. 5.84795326e-03 0. 0.
      0. 0. 0. 0. 0. 1.75438598e-02 0. 0. 0. 0. 0. 1.16959065e-02 0. 0.
      5.84795326e-03 0. 5.84795326e-03 0. 0. 0. 5.84795326e-03 0. 0.
      5.84795326e-03 0. 0. 0. 0. 0. 0. 0. 0. 0. 0. 0. 0. 0. 0. 0. 0. 0.
      0. 0. 0. 0. 0. 1.16959065e-02 0. 0. 0. 0. 0. 1.16959065e-02 0. 0.
      1.16959065e-02 0. 0. 0. 0. 0. 0. 0. 0. 1.75438598e-02
