<?xml version="1.0"?>
<opencv_storage>
<my_svm type_id="opencv-ml-svm">
  <svm_type>C_SVC</svm_type>
  <kernel><type>RBF</type>
    <gamma>8.</gamma></kernel>
  <C>10.</C>
  <term_criteria><epsilon>1.1920928955078125e-07</epsilon>
    <iterations>2147483647</iterations></term_criteria>
  <var_all>1000</var_all>
  <var_count>1000</var_count>
  <class_count>2</class_count>
  <class_labels type_id="opencv-matrix">
    <rows>1</rows>
    <cols>2</cols>
    <dt>i</dt>
    <data>
      0 1</data></class_labels>
  <sv_total>138</sv_total>
  <support_vectors>
    <_>
      0. 0. 0. 0. 0. 0. 0. 0. 0. 0. 0. 0. 0. 4.16666679e-02
      2.08333340e-02 0. 0. 0. 0. 0. 0. 0. 0. 0. 0. 0. 0. 0. 0. 0. 0. 0.
      0. 0. 0. 0. 0. 0. 0. 0. 0. 0. 2.08333340e-02 0. 2.08333340e-02 0.
      0. 0. 0. 0. 0. 0. 0. 0. 0. 0. 0. 0. 0. 0. 0. 0. 0. 0. 0. 0. 0. 0.
      0. 0. 0. 0. 0. 0. 0. 0. 0. 0. 0. 0. 0. 0. 0. 0. 0. 0. 0. 0. 0. 0.
      0. 0. 0. 0. 0. 0. 0. 0. 0. 0. 0. 0. 0. 0. 0. 0. 0. 0. 0. 0. 0. 0.
      0. 0. 0. 0. 0. 0. 0. 0. 0. 0. 0. 0. 0. 0. 0. 0. 0. 0. 0. 0. 0. 0.
      0. 0. 2.08333340e-02 0. 0. 0. 0. 0. 0. 0. 0. 0. 0. 0. 0. 0. 0. 0.
      0. 0. 0. 0. 0. 0. 0. 0. 0. 0. 0. 0. 0. 0. 0. 0. 0. 0. 0. 0. 0. 0.
      0. 0. 0. 0. 0. 0. 0. 2.08333340e-02 0. 0. 0. 0. 0. 0. 0. 0. 0. 0.
      0. 0. 0. 0. 0. 0. 0. 0. 0. 0. 0. 0. 0. 0. 0. 0. 0. 0. 0.
      2.08333340e-02 0. 0. 0. 0. 0. 0. 0. 0. 0. 0. 0. 0. 2.08333340e-02
      0. 0. 0. 0. 0. 0. 0. 0. 0. 0. 0. 0. 0. 0. 0. 0. 0. 0. 0. 0. 0. 0.
      2.08333340e-02 0. 0. 0. 0. 0. 0. 0. 0. 0. 0. 0. 0. 0. 0. 0. 0. 0.
      0. 0. 0. 0. 0. 0. 0. 0. 0. 0. 0. 0. 0. 0. 0. 0. 0. 0. 0. 0. 0. 0.
      0. 0. 0. 0. 0. 0. 0. 0. 0. 0. 0. 0. 0. 0. 0. 0. 0. 0. 0. 0. 0. 0.
      0. 0. 0. 0. 0. 0. 0. 0. 0. 2.08333340e-02 0. 0. 0. 0. 0. 0. 0. 0.
      0. 0. 0. 2.08333340e-02 0. 0. 0. 0. 0. 0. 0. 0. 0. 0. 0. 0. 0. 0.
      0. 0. 0. 0. 0. 0. 0. 2.08333340e-02 0. 0. 0. 0. 0. 0. 0. 0. 0. 0.
      0. 0. 0. 0. 0. 0. 0. 0. 0. 0. 0. 0. 0. 0. 0. 0. 0. 0. 0. 0. 0. 0.
      0. 0. 0. 0. 0. 0. 0. 0. 2.08333340e-02 0. 0. 0. 0. 0. 0. 0. 0. 0.
      0. 0. 0. 0. 0. 0. 0. 2.08333340e-02 0. 0. 0. 2.08333340e-02 0. 0.
      0. 0. 0. 0. 0. 0. 0. 2.08333340e-02 0. 0. 0. 0. 0. 0. 0.
      2.08333340e-02 0. 0. 0. 2.08333340e-02 0. 0. 0. 0. 0. 0. 0. 0. 0.
      0. 0. 0. 0. 0. 0. 0. 0. 0. 0. 0. 0. 0. 0. 0. 0. 0. 0. 0. 0. 0. 0.
      0. 0. 0. 0. 2.08333340e-02 0. 0. 0. 0. 0. 0. 0. 0. 0. 0. 0. 0. 0.
      0. 0. 0. 0. 0. 0. 0. 0. 0. 0. 2.08333340e-02 0. 0. 0. 0. 0.
      2.08333340e-02 0. 2.08333340e-02 0. 0. 0. 0. 0. 0. 0. 0. 0. 0. 0.
      0. 0. 0. 0. 2.08333340e-02 0. 0. 0. 0. 0. 0. 0. 0. 0. 0. 0. 0. 0.
      0. 0. 0. 0. 0. 0. 0. 0. 0. 0. 0. 0. 0. 0. 0. 2.08333340e-02 0. 0.
      0. 0. 0. 0. 0. 0. 0. 0. 0. 2.08333340e-02 0. 2.08333340e-02 0. 0.
      0. 0. 0. 0. 0. 0. 0. 0. 0. 0. 0. 0. 0. 0. 0. 0. 0. 0. 0.
      2.08333340e-02 0. 2.08333340e-02 0. 0. 0. 0. 0. 0. 0. 0. 0. 0. 0.
      0. 0. 0. 0. 0. 0. 0. 0. 0. 2.08333340e-02 0. 0. 0. 0. 0. 0. 0. 0.
      0. 0. 0. 0. 0. 0. 0. 0. 0. 0. 0. 0. 0. 0. 0. 0. 0. 0.
      2.08333340e-02 0. 0. 0. 0. 0. 0. 2.08333340e-02 0. 2.08333340e-02
      0. 0. 0. 0. 0. 0. 0. 0. 0. 0. 0. 0. 0. 0. 0. 2.08333340e-02 0. 0.
      0. 0. 0. 0. 0. 0. 0. 0. 0. 0. 0. 0. 0. 0. 2.08333340e-02 0. 0. 0.
      0. 0. 0. 0. 0. 0. 0. 0. 2.08333340e-02 0. 0. 2.08333340e-02 0. 0.
      0. 0. 0. 0. 2.08333340e-02 0. 0. 0. 0. 0. 0. 0. 0. 0. 0. 0. 0. 0.
      0. 0. 0. 0. 0. 0. 0. 0. 0. 0. 0. 0. 0. 0. 0. 0. 0. 0. 0. 0. 0. 0.
      0. 0. 0. 0. 2.08333340e-02 0. 0. 0. 0. 0. 0. 0. 0. 0. 0. 0. 0. 0.
      0. 2.08333340e-02 0. 0. 0. 0. 0. 0. 0. 0. 0. 0. 0. 0. 0. 0. 0. 0.
      0. 0. 0. 0. 0. 0. 0. 0. 0. 0. 0. 0. 0. 0. 0. 0. 0. 0. 0. 0. 0. 0.
      0. 0. 0. 0. 0. 0. 0. 0. 0. 0. 0. 0. 0. 0. 0. 0. 0. 0. 0. 0. 0. 0.
      0. 0. 0. 0. 0. 0. 2.08333340e-02 0. 0. 0. 0. 0. 0. 0. 0. 0. 0. 0.
      0. 0. 0. 0. 0. 0. 0. 0. 0. 0. 0. 0. 0. 0. 0. 0. 0. 0. 0. 0. 0. 0.
      0. 0. 0. 0. 0. 0. 0. 0. 0. 0. 0. 0. 0. 0. 0. 0. 0. 0. 0. 0. 0. 0.
      0. 0. 0. 0. 0. 0. 0. 0. 0. 0. 0. 0. 0. 0. 4.16666679e-02 0. 0. 0.
      0. 0. 0. 0. 2.08333340e-02 0. 0. 0. 0. 0. 0. 0. 0. 0. 0. 0. 0. 0.
      0. 0. 2.08333340e-02 0. 0. 0. 0. 0. 0. 0. 0. 0. 0. 0. 0. 0. 0. 0.
      0. 0. 0. 0. 0. 0. 0. 0. 0. 0. 0. 0. 0. 0. 0. 0. 0. 0. 0. 0. 0. 0.
      0. 0. 0. 0. 0. 0. 0. 0. 0. 0. 0. 0. 0. 0. 0. 4.16666679e-02 0. 0.
      0. 2.08333340e-02 0. 0. 0. 0. 0. 0. 0. 0. 0. 0. 0. 0. 0. 0. 0. 0.
      0. 0. 0. 0. 0. 0. 0. 0. 0. 0. 0.</_>
    <_>
      0. 0. 1.75438598e-02 0. 0. 0. 0. 0. 0. 0. 0. 0. 0. 0.
      5.26315793e-02 0. 0. 0. 0. 0. 0. 0. 0. 0. 0. 0. 0. 0. 0. 0. 0. 0.
      0. 1.75438598e-02 0. 0. 0. 0. 0. 0. 0. 0. 0. 0. 0. 0. 0. 0. 0. 0.
      0. 0. 0. 0. 0. 0. 0. 0. 0. 0. 0. 0. 0. 0. 0. 0. 0. 0. 0. 0. 0. 0.
      0. 0. 0. 0. 0. 0. 0. 0. 0. 0. 0. 0. 0. 0. 0. 0. 0. 0. 0. 0. 0. 0.
      0. 0. 3.50877196e-02 0. 0. 0. 0. 0. 0. 0. 0. 0. 0. 0. 0. 0. 0. 0.
      0. 0. 0. 0. 0. 0. 0. 0. 0. 0. 0. 0. 0. 0. 0. 0. 0. 0. 0. 0. 0. 0.
      0. 0. 0. 0. 0. 0. 0. 0. 0. 0. 0. 1.75438598e-02 0. 0. 0. 0.
      1.75438598e-02 0. 0. 0. 0. 0. 0. 0. 0. 0. 0. 0. 0. 0. 0. 0. 0. 0.
      0. 0. 0. 0. 0. 0. 0. 0. 0. 0. 0. 0. 0. 0. 0. 0. 0. 0. 0. 0. 0. 0.
      0. 0. 0. 0. 0. 0. 0. 0. 0. 0. 0. 0. 0. 0. 0. 0. 0. 0. 0. 0. 0. 0.
      0. 0. 0. 0. 1.75438598e-02 0. 0. 0. 0. 0. 0. 0. 5.26315793e-02 0.
      0. 0. 0. 1.75438598e-02 0. 1.75438598e-02 0. 0. 0. 0. 0. 0. 0. 0.
      0. 0. 0. 1.75438598e-02 0. 0. 0. 1.75438598e-02 0. 0. 0. 0. 0. 0.
      0. 0. 0. 0. 0. 0. 0. 0. 0. 0. 0. 0. 0. 0. 0. 0. 0. 0. 0. 0. 0. 0.
      1.75438598e-02 0. 0. 0. 0. 3.50877196e-02 0. 0. 0. 0. 0. 0.
      1.75438598e-02 0. 0. 0. 0. 0. 0. 0. 0. 0. 0. 0. 0. 0. 0. 0. 0. 0.
      0. 0. 0. 0. 0. 0. 0. 0. 0. 0. 0. 0. 0. 0. 0. 0. 0. 0. 0. 0. 0. 0.
      0. 0. 0. 0. 0. 0. 0. 0. 0. 0. 0. 0. 0. 0. 0. 0. 0. 0. 0.
      1.75438598e-02 0. 0. 0. 0. 0. 0. 0. 0. 0. 0. 0. 0. 0. 0. 0. 0. 0.
      0. 0. 0. 0. 0. 0. 0. 0. 0. 0. 0. 0. 0. 0. 0. 0. 0. 0. 0.
      3.50877196e-02 0. 0. 0. 0. 0. 0. 0. 0. 0. 0. 0. 3.50877196e-02 0.
      0. 0. 0. 0. 0. 0. 1.75438598e-02 0. 0. 0. 0. 0. 0. 0. 0. 0.
      3.50877196e-02 0. 0. 0. 0. 0. 0. 0. 1.75438598e-02 0. 0. 0. 0. 0.
      0. 0. 0. 0. 0. 0. 0. 0. 0. 0. 0. 0. 0. 0. 0. 0. 0. 0. 0. 0. 0. 0.
      0. 0. 0. 0. 0. 0. 0. 0. 0. 3.50877196e-02 0. 0. 0. 0. 0. 0. 0. 0.
      0. 0. 0. 0. 1.75438598e-02 1.75438598e-02 0. 0. 0. 0.
      1.75438598e-02 0. 0. 0. 0. 0. 0. 0. 0. 0. 0. 0. 0. 0. 0. 0. 0. 0.
      0. 0. 0. 0. 0. 0. 0. 0. 0. 0. 0. 0. 0. 0. 0. 0. 0. 0. 0. 0. 0. 0.
      0. 1.75438598e-02 0. 0. 0. 0. 0. 0. 0. 0. 0. 0. 0. 0. 0. 0. 0. 0.
      0. 0. 1.75438598e-02 0. 0. 0. 0. 0. 0. 0. 0. 0. 0. 0. 0. 0. 0. 0.
      0. 0. 0. 0. 0. 0. 0. 3.50877196e-02 0. 1.75438598e-02
      1.75438598e-02 0. 0. 0. 0. 0. 0. 0. 1.75438598e-02 0. 0. 0. 0. 0.
      0. 0. 0. 0. 0. 0. 0. 1.75438598e-02 0. 1.75438598e-02 0. 0. 0. 0.
      0. 0. 0. 0. 0. 0. 0. 0. 0. 0. 0. 0. 0. 0. 0. 0. 0. 0. 0. 0. 0. 0.
      0. 0. 0. 0. 0. 0. 0. 0. 0. 0. 0. 0. 0. 0. 0. 0. 0. 0. 0. 0. 0. 0.
      0. 0. 0. 0. 0. 0. 0. 0. 0. 0. 0. 0. 0. 0. 0. 0. 0. 0. 0. 0. 0.
      1.75438598e-02 0. 0. 0. 0. 0. 0. 0. 0. 0. 0. 0. 0. 0. 0. 0. 0. 0.
      1.75438598e-02 0. 0. 0. 0. 0. 0. 0. 0. 0. 0. 0. 0. 0. 0. 0. 0. 0.
      0. 0. 0. 0. 0. 0. 0. 0. 0. 1.75438598e-02 0. 0. 0. 3.50877196e-02
      0. 0. 0. 0. 0. 0. 0. 0. 0. 0. 0. 0. 0. 0. 0. 5.26315793e-02 0. 0.
      0. 0. 0. 0. 0. 0. 0. 0. 0. 0. 0. 0. 0. 0. 0. 0. 0. 0. 0. 0. 0. 0.
      0. 0. 0. 0. 0. 0. 0. 0. 0. 0. 0. 0. 0. 0. 0. 0. 0. 0. 0. 0. 0. 0.
      0. 0. 0. 0. 0. 0. 0. 0. 0. 0. 0. 0. 0. 0. 0. 0. 0. 0. 0. 0. 0. 0.
      0. 0. 0. 1.75438598e-02 0. 0. 0. 0. 0. 0. 0. 0. 0. 0. 0. 0. 0. 0.
      0. 0. 0. 0. 0. 0. 0. 0. 0. 0. 0. 0. 0. 0. 0. 0. 0. 0. 0. 0. 0. 0.
      0. 0. 0. 0. 0. 0. 0. 0. 0. 0. 0. 0. 0. 0. 0. 0. 0. 0. 0. 0. 0. 0.
      0. 0. 0. 0. 0. 0. 0. 0. 0. 0. 0. 0. 0. 0. 0. 0. 0. 1.75438598e-02
      0. 0. 0. 0. 0. 0. 0. 0. 0. 0. 0. 0. 0. 0. 0. 0. 0. 0. 0. 0. 0. 0.
      0. 0. 0. 0. 0. 0. 3.50877196e-02 0. 0. 0. 0. 0. 0. 0. 0. 0. 0. 0.
      0. 0. 0. 0. 0. 0. 0. 0. 0. 0. 0. 0. 0. 0. 0. 0. 0. 0. 0. 0. 0. 0.
      0. 0. 0. 0. 0. 0. 0. 0. 0. 0. 0. 0. 0. 0. 0. 0. 0. 0. 0. 0. 0. 0.
      0. 0. 0. 0. 0. 0. 0. 0. 0. 0. 0. 0. 0. 0. 0. 0. 0. 0. 0. 0. 0. 0.
      0. 0. 0. 0. 0. 0. 0. 0. 0. 0. 0. 0. 0. 0. 0. 0. 0. 1.75438598e-02
      0. 0. 0. 0. 0.</_>
    <_>
      0. 0. 0. 0. 0. 0. 0. 0. 2.17391308e-02 0. 0. 0. 0. 0. 0.
      2.17391308e-02 2.17391308e-02 0. 0. 0. 0. 0. 0. 0. 0. 0. 0. 0. 0.
      0. 0. 0. 0. 0. 0. 0. 0. 0. 0. 0. 0. 0. 0. 0. 0. 0. 0. 0. 0. 0. 0.
      0. 0. 0. 0. 0. 0. 0. 0. 2.17391308e-02 0. 0. 0. 0. 0. 0. 0. 0. 0.
      0. 2.17391308e-02 0. 0. 0. 0. 0. 0. 0. 0. 0. 0. 0. 0. 0. 0. 0. 0.
      0. 0. 0. 0. 2.17391308e-02 0. 0. 0. 0. 0. 0. 0. 0. 0. 0. 0. 0.
      2.17391308e-02 0. 0. 0. 0. 0. 0. 2.17391308e-02 0. 0. 0. 0. 0.
      2.17391308e-02 0. 0. 0. 0. 0. 0. 0. 2.17391308e-02 0. 0. 0. 0. 0.
      0. 0. 0. 0. 0. 0. 0. 0. 0. 0. 0. 0. 0. 0. 0. 0. 0. 0. 0. 0. 0. 0.
      0. 0. 0. 0. 0. 0. 0. 0. 0. 0. 0. 0. 0. 0. 0. 0. 0. 0. 0. 0. 0. 0.
      0. 0. 0. 0. 0. 0. 0. 0. 0. 0. 0. 0. 0. 0. 0. 0. 0. 0. 0. 0. 0. 0.
      0. 0. 0. 0. 0. 0. 0. 0. 0. 0. 0. 0. 0. 0. 0. 0. 0. 0. 0.
      2.17391308e-02 0. 0. 0. 0. 0. 0. 0. 0. 0. 0. 0. 0. 0. 0. 0.
      2.17391308e-02 0. 0. 0. 0. 0. 0. 0. 0. 0. 0. 0. 2.17391308e-02 0.
      0. 2.17391308e-02 0. 0. 0. 0. 0. 2.17391308e-02 0. 0. 0. 0. 0. 0.
      0. 0. 0. 0. 0. 2.17391308e-02 0. 0. 0. 0. 0. 0. 0. 0. 0. 0. 0. 0.
      0. 0. 0. 0. 0. 0. 0. 0. 0. 2.17391308e-02 2.17391308e-02 0. 0. 0.
      0. 0. 0. 0. 0. 0. 0. 0. 0. 0. 2.17391308e-02 0. 0. 0. 0. 0. 0. 0.
      0. 0. 0. 0. 0. 0. 0. 0. 0. 0. 0. 0. 0. 0. 0. 0. 0. 0. 0. 0. 0. 0.
      0. 0. 0. 0. 0. 0. 0. 0. 0. 0. 0. 0. 0. 0. 0. 0. 0. 0. 0. 0. 0. 0.
      0. 0. 0. 0. 0. 0. 0. 0. 0. 0. 0. 0. 0. 0. 0. 0. 0. 0. 0. 0. 0. 0.
      0. 0. 0. 0. 0. 0. 0. 0. 0. 0. 0. 0. 0. 0. 0. 0. 0. 0. 0. 0.
      2.17391308e-02 0. 0. 0. 0. 0. 0. 0. 0. 0. 0. 0. 0. 0. 0. 0. 0. 0.
      0. 0. 0. 0. 0. 0. 0. 0. 0. 0. 0. 0. 0. 0. 0. 0. 0. 0. 0. 0. 0. 0.
      0. 0. 0. 0. 0. 0. 0. 0. 0. 0. 0. 0. 0. 0. 0. 0. 0. 0. 0. 0. 0.
      2.17391308e-02 0. 0. 0. 0. 0. 0. 0. 0. 0. 0. 0. 0. 0. 0.
      2.17391308e-02 0. 0. 0. 0. 0. 0. 0. 0. 0. 0. 0. 0. 0. 0. 0. 0. 0.
      0. 0. 0. 0. 0. 0. 0. 0. 2.17391308e-02 0. 0. 0. 0. 0. 0. 0. 0. 0.
      0. 0. 0. 0. 0. 0. 0. 0. 0. 0. 0. 0. 0. 0. 0. 0. 0. 0. 0. 0.
      2.17391308e-02 0. 0. 0. 0. 0. 0. 0. 0. 0. 0. 0. 0. 0. 0.
      2.17391308e-02 2.17391308e-02 0. 0. 0. 0. 0. 0. 0. 0. 0. 0. 0. 0.
      0. 0. 0. 0. 0. 2.17391308e-02 0. 2.17391308e-02 0. 0. 0. 0. 0. 0.
      0. 2.17391308e-02 0. 0. 0. 0. 0. 0. 0. 0. 0. 0. 2.17391308e-02 0.
      0. 0. 0. 2.17391308e-02 0. 0. 0. 0. 0. 0. 0. 0. 0. 0. 0. 0. 0. 0.
      0. 0. 0. 0. 0. 0. 0. 0. 0. 0. 0. 0. 0. 0. 0. 0. 0. 0. 0. 0. 0. 0.
      0. 0. 0. 0. 0. 0. 0. 0. 0. 0. 0. 0. 0. 0. 0. 0. 0. 0. 0. 0. 0. 0.
      0. 0. 0. 2.17391308e-02 0. 0. 0. 0. 2.17391308e-02 0. 0. 0. 0. 0.
      0. 0. 0. 0. 0. 0. 0. 0. 0. 0. 0. 0. 0. 0. 0. 0. 2.17391308e-02
      2.17391308e-02 2.17391308e-02 0. 0. 0. 0. 0. 0. 0. 0. 0. 0. 0. 0.
      0. 0. 0. 0. 0. 0. 2.17391308e-02 0. 0. 0. 0. 0. 0. 0. 0. 0. 0. 0.
      0. 0. 0. 0. 0. 0. 0. 0. 0. 0. 0. 0. 0. 0. 0. 0. 0. 0. 0. 0. 0. 0.
      0. 0. 0. 0. 0. 0. 0. 0. 0. 0. 0. 0. 0. 0. 0. 0. 0. 0. 0. 0. 0. 0.
      0. 0. 0. 0. 0. 0. 0. 0. 0. 0. 0. 0. 0. 2.17391308e-02 0. 0. 0. 0.
      0. 0. 0. 0. 0. 0. 0. 0. 0. 0. 0. 0. 0. 0. 0. 0. 0. 0. 0. 0. 0.
      2.17391308e-02 0. 0. 0. 0. 0. 0. 0. 0. 0. 0. 0. 0. 2.17391308e-02
      0. 0. 0. 0. 0. 0. 0. 0. 0. 0. 0. 0. 0. 0. 0. 0. 0. 0. 0. 0. 0. 0.
      0. 0. 0. 0. 0. 0. 0. 2.17391308e-02 0. 0. 0. 0. 0. 0. 0. 0. 0. 0.
      0. 0. 0. 0. 0. 0. 0. 0. 0. 0. 0. 0. 0. 0. 0. 0. 0. 0. 0. 0. 0. 0.
      2.17391308e-02 0. 0. 0. 0. 0. 0. 0. 0. 0. 0. 0. 0. 0. 0. 0. 0. 0.
      0. 0. 0. 0. 0. 0. 0. 0. 0. 0. 0. 0. 0. 0. 0. 0. 0. 0. 0. 0. 0. 0.
      0. 0. 0. 0. 0. 0. 2.17391308e-02 0. 0. 0. 0. 0. 0. 0. 0. 0. 0. 0.
      0. 0. 0. 0. 0. 0. 0. 0. 0. 0. 0. 0. 0. 0. 0. 0. 0. 0. 0. 0. 0. 0.
      2.17391308e-02 0. 0. 0. 0. 0. 0. 0. 0. 0. 0. 0. 0. 0. 0. 0. 0. 0.
      0. 0. 0. 0. 0. 0. 0. 0. 0. 0. 0. 0. 0. 0. 0. 0. 0. 0. 0. 0.
      2.17391308e-02 0. 0. 0. 0. 0. 2.17391308e-02 0. 0. 0. 0. 0. 0.</_>
    <_>
      0. 0. 0. 0. 0. 0. 0. 0. 2.08333340e-02 0. 0. 0. 0. 0. 0.
      2.08333340e-02 2.08333340e-02 0. 0. 0. 0. 0. 0. 0. 0. 0. 0. 0. 0.
      0. 0. 0. 0. 0. 0. 0. 0. 0. 0. 0. 0. 0. 0. 0. 0. 0. 0. 0. 0. 0. 0.
      0. 0. 0. 0. 0. 0. 0. 0. 0. 0. 0. 0. 0. 0. 0. 0. 0. 0. 0. 0. 0. 0.
      0. 0. 0. 0. 0. 0. 0. 0. 0. 0. 0. 0. 2.08333340e-02 0. 0. 0. 0. 0.
      0. 0. 0. 0. 0. 0. 0. 0. 0. 0. 0. 0. 0. 0. 0. 0. 0. 0. 0. 0.
      2.08333340e-02 0. 0. 0. 0. 0. 2.08333340e-02 0. 0. 0. 0. 0. 0. 0.
      0. 0. 0. 0. 0. 0. 0. 2.08333340e-02 0. 0. 0. 0. 0. 2.08333340e-02
      0. 0. 0. 0. 0. 0. 0. 0. 0. 0. 0. 0. 0. 0. 0. 0. 0. 0. 0. 0. 0. 0.
      0. 0. 0. 0. 0. 0. 0. 0. 0. 0. 0. 0. 0. 0. 0. 0. 0. 0. 0. 0. 0. 0.
      0. 0. 0. 0. 0. 0. 0. 0. 0. 0. 0. 0. 0. 0. 0. 0. 0. 0. 0. 0. 0. 0.
      0. 0. 0. 0. 0. 0. 0. 0. 0. 0. 0. 2.08333340e-02 0. 0. 0. 0. 0.
      2.08333340e-02 0. 0. 0. 0. 0. 0. 0. 0. 0. 2.08333340e-02 0. 0. 0.
      0. 0. 0. 0. 0. 0. 0. 2.08333340e-02 2.08333340e-02 0. 0.
      2.08333340e-02 0. 0. 0. 0. 0. 2.08333340e-02 0. 0. 0. 0. 0. 0. 0.
      0. 0. 0. 0. 2.08333340e-02 0. 0. 0. 0. 0. 0. 0. 0. 0. 0. 0. 0. 0.
      0. 0. 0. 0. 0. 0. 0. 0. 2.08333340e-02 2.08333340e-02 0. 0. 0. 0.
      0. 0. 0. 0. 0. 0. 0. 0. 0. 2.08333340e-02 0. 0. 0. 0. 0. 0. 0. 0.
      0. 0. 0. 0. 0. 0. 0. 0. 0. 0. 0. 0. 0. 0. 0. 0. 0. 0. 0. 0. 0. 0.
      0. 0. 0. 0. 0. 0. 0. 0. 0. 0. 0. 0. 0. 0. 0. 0. 0. 0. 0. 0. 0. 0.
      0. 0. 0. 0. 0. 0. 0. 0. 0. 0. 0. 0. 0. 0. 0. 0. 0. 0. 0. 0. 0. 0.
      0. 0. 0. 0. 0. 0. 0. 0. 0. 0. 0. 0. 0. 0. 0. 0. 0. 0. 0. 0. 0. 0.
      0. 0. 0. 2.08333340e-02 0. 0. 0. 0. 0. 0. 0. 2.08333340e-02 0. 0.
      0. 0. 0. 0. 0. 0. 0. 0. 0. 0. 0. 0. 0. 0. 0. 0. 0. 0. 0. 0. 0. 0.
      0. 0. 0. 0. 0. 0. 0. 0. 0. 0. 0. 0. 0. 2.08333340e-02 0. 0. 0. 0.
      0. 0. 0. 0. 0. 0. 0. 0. 0. 0. 0. 0. 0. 0. 0. 0. 0. 0. 0.
      2.08333340e-02 0. 0. 0. 0. 0. 0. 0. 0. 0. 0. 0. 0. 0. 0. 0. 0. 0.
      0. 0. 0. 0. 0. 0. 0. 0. 2.08333340e-02 0. 0. 0. 0. 0. 0. 0. 0. 0.
      0. 0. 0. 0. 0. 0. 2.08333340e-02 0. 0. 0. 0. 0. 0. 0. 0. 0. 0. 0.
      0. 0. 0. 0. 0. 0. 0. 0. 0. 0. 0. 0. 0. 0. 0. 0. 0. 4.16666679e-02
      0. 0. 0. 0. 0. 0. 0. 0. 0. 0. 0. 0. 0. 0. 0. 0. 0. 0.
      4.16666679e-02 0. 2.08333340e-02 0. 0. 0. 0. 0. 0. 0.
      2.08333340e-02 0. 0. 0. 0. 0. 0. 0. 0. 0. 2.08333340e-02
      2.08333340e-02 0. 0. 0. 0. 2.08333340e-02 2.08333340e-02 0. 0. 0.
      0. 0. 0. 0. 0. 0. 0. 0. 0. 0. 0. 0. 0. 0. 0. 0. 0. 0. 0. 0. 0. 0.
      0. 0. 0. 0. 0. 0. 0. 0. 0. 0. 0. 0. 0. 0. 0. 0. 0. 0. 0. 0. 0. 0.
      0. 0. 0. 0. 0. 0. 0. 0. 0. 0. 0. 0. 0. 2.08333340e-02 0. 0. 0. 0.
      2.08333340e-02 0. 0. 0. 0. 0. 0. 0. 0. 0. 0. 0. 0. 0. 0. 0. 0. 0.
      0. 0. 0. 0. 0. 0. 2.08333340e-02 0. 0. 0. 0. 0. 0. 0. 0. 0. 0. 0.
      0. 0. 0. 0. 0. 0. 0. 2.08333340e-02 0. 0. 0. 0. 0. 0. 0. 0. 0. 0.
      0. 0. 0. 0. 0. 0. 0. 0. 0. 0. 0. 0. 0. 0. 0. 0. 0. 0. 0. 0. 0. 0.
      0. 0. 0. 0. 0. 0. 0. 0. 0. 0. 0. 0. 0. 0. 0. 0. 0. 0. 0. 0. 0. 0.
      0. 0. 0. 0. 0. 0. 0. 0. 0. 0. 0. 0. 0. 0. 0. 0. 0. 0. 0. 0. 0. 0.
      0. 0. 0. 0. 0. 0. 0. 0. 0. 0. 0. 0. 0. 0. 0. 0. 0. 0.
      2.08333340e-02 0. 0. 0. 0. 0. 0. 0. 0. 0. 0. 0. 0. 2.08333340e-02
      0. 0. 0. 0. 0. 0. 0. 0. 0. 0. 0. 0. 0. 0. 0. 0. 0. 0. 0. 0. 0. 0.
      0. 0. 0. 0. 0. 0. 0. 2.08333340e-02 0. 0. 0. 0. 0. 0. 0. 0. 0. 0.
      0. 0. 0. 0. 0. 0. 0. 0. 0. 0. 0. 0. 0. 0. 0. 0. 0. 0. 0. 0. 0. 0.
      2.08333340e-02 0. 0. 0. 0. 0. 0. 0. 0. 0. 0. 0. 0. 0. 0. 0. 0. 0.
      0. 0. 0. 0. 0. 0. 0. 0. 0. 0. 0. 0. 0. 0. 0. 0. 0. 0. 0. 0. 0. 0.
      0. 0. 0. 0. 0. 0. 2.08333340e-02 0. 0. 0. 0. 0. 0. 0. 0. 0. 0. 0.
      0. 0. 0. 0. 0. 0. 0. 0. 0. 0. 0. 0. 0. 0. 0. 0. 0. 0. 0. 0. 0. 0.
      2.08333340e-02 0. 2.08333340e-02 0. 0. 0. 0. 0. 0. 0. 0. 0. 0. 0.
      0. 0. 0. 0. 0. 0. 0. 0. 0. 0. 0. 0. 0. 0. 0. 0. 0. 0. 0. 0. 0. 0.
      0. 0. 2.08333340e-02 0. 0. 0. 0. 0. 2.08333340e-02 0. 0. 0. 0. 0.
      0.</_>
    <_>
      0. 0. 0. 0. 0. 0. 0. 0. 1.58730168e-02 0. 0. 0. 0. 0. 0.
      1.58730168e-02 0. 0. 0. 0. 0. 0. 0. 1.58730168e-02 0. 0. 0. 0. 0.
      0. 0. 0. 0. 0. 0. 0. 0. 0. 0. 0. 0. 0. 0. 0. 0. 0. 0. 0. 0. 0. 0.
      0. 0. 0. 0. 0. 0. 0. 0. 0. 0. 0. 0. 0. 0. 0. 0. 0. 0. 0. 0. 0. 0.
      0. 0. 0. 0. 0. 0. 0. 0. 0. 0. 0. 0. 1.58730168e-02 0. 0. 0. 0. 0.
      0. 0. 0. 0. 0. 0. 0. 0. 0. 0. 0. 0. 0. 1.58730168e-02 0. 0. 0. 0.
      0. 0. 1.58730168e-02 0. 0. 1.58730168e-02 0. 0. 0. 0. 0. 0. 0. 0.
      0. 0. 0. 0. 0. 0. 0. 0. 0. 0. 0. 0. 0. 0. 0. 1.58730168e-02 0. 0.
      0. 0. 0. 0. 0. 0. 0. 0. 0. 0. 0. 0. 0. 0. 0. 0. 0. 0. 0. 0. 0. 0.
      0. 0. 0. 0. 0. 0. 0. 0. 0. 0. 0. 0. 0. 0. 0. 0. 0. 0. 0. 0. 0. 0.
      0. 0. 0. 0. 0. 0. 0. 0. 0. 0. 0. 0. 0. 0. 0. 0. 0. 0. 0. 0.
      1.58730168e-02 0. 0. 0. 0. 0. 0. 0. 0. 0. 0. 1.58730168e-02 0. 0.
      0. 0. 0. 0. 0. 0. 0. 0. 0. 0. 0. 0. 0. 1.58730168e-02 0. 0. 0. 0.
      0. 0. 0. 0. 0. 0. 0. 1.58730168e-02 0. 0. 1.58730168e-02 0. 0. 0.
      0. 0. 1.58730168e-02 0. 0. 0. 0. 0. 0. 0. 0. 1.58730168e-02 0. 0.
      1.58730168e-02 0. 0. 0. 0. 0. 0. 0. 0. 0. 0. 0. 1.58730168e-02 0.
      0. 0. 0. 0. 0. 0. 0. 0. 1.58730168e-02 1.58730168e-02 0. 0. 0. 0.
      0. 0. 0. 0. 0. 0. 0. 0. 0. 1.58730168e-02 0. 0. 0. 0. 0. 0. 0. 0.
      0. 0. 0. 0. 0. 0. 0. 0. 0. 0. 0. 0. 0. 0. 0. 0. 0. 0. 0. 0. 0. 0.
      0. 0. 0. 0. 0. 0. 0. 0. 0. 0. 0. 0. 0. 0. 0. 0. 0. 0. 0. 0. 0. 0.
      0. 0. 0. 0. 0. 0. 0. 0. 0. 0. 0. 0. 0. 0. 0. 1.58730168e-02 0. 0.
      0. 0. 0. 0. 0. 0. 0. 0. 0. 0. 0. 0. 0. 0. 0. 0. 0. 0. 0. 0. 0. 0.
      0. 0. 0. 0. 0. 0. 0. 1.58730168e-02 0. 0. 0. 0. 0. 0. 0. 0. 0. 0.
      0. 0. 0. 0. 0. 0. 0. 1.58730168e-02 0. 0. 0. 0. 0. 0. 0. 0. 0. 0.
      0. 0. 0. 0. 0. 0. 0. 0. 0. 0. 0. 0. 0. 0. 0. 1.58730168e-02 0.
      1.58730168e-02 0. 0. 0. 0. 0. 0. 0. 0. 1.58730168e-02 0. 0. 0. 0.
      0. 0. 0. 0. 0. 0. 0. 0. 0. 0. 1.58730168e-02 0. 0. 0. 0. 0. 0. 0.
      0. 0. 0. 0. 0. 0. 0. 0. 0. 0. 0. 0. 1.58730168e-02 0. 0. 0. 0. 0.
      1.58730168e-02 0. 0. 0. 0. 0. 0. 0. 0. 0. 0. 0. 0. 0. 0. 0. 0. 0.
      0. 0. 0. 0. 0. 0. 0. 0. 0. 0. 0. 0. 1.58730168e-02 0. 0. 0. 0. 0.
      0. 0. 0. 0. 0. 0. 0. 0. 0. 0. 0. 0. 0. 0. 1.58730168e-02 0. 0. 0.
      0. 0. 0. 0. 0. 0. 0. 0. 0. 0. 3.17460336e-02 0. 1.58730168e-02 0.
      0. 0. 0. 0. 0. 0. 1.58730168e-02 1.58730168e-02 0. 0. 0. 0. 0. 0.
      0. 0. 1.58730168e-02 1.58730168e-02 0. 0. 0. 0. 3.17460336e-02
      1.58730168e-02 0. 0. 0. 0. 0. 0. 0. 0. 0. 1.58730168e-02 0. 0. 0.
      0. 0. 0. 0. 0. 0. 0. 0. 0. 0. 0. 0. 0. 0. 0. 0. 0. 0. 0. 0. 0. 0.
      0. 0. 0. 0. 0. 0. 0. 0. 0. 0. 0. 0. 0. 0. 0. 0. 0. 0. 0. 0. 0. 0.
      0. 0. 0. 1.58730168e-02 0. 0. 0. 0. 1.58730168e-02 0. 0. 0. 0. 0.
      0. 0. 0. 0. 0. 0. 0. 0. 0. 0. 0. 0. 0. 0. 0. 0. 1.58730168e-02 0.
      1.58730168e-02 0. 0. 0. 0. 0. 0. 0. 0. 0. 0. 0. 0. 0. 0. 0. 0. 0.
      0. 1.58730168e-02 0. 0. 0. 0. 0. 0. 0. 0. 0. 0. 0. 0. 0. 0. 0. 0.
      0. 0. 0. 0. 0. 0. 0. 0. 0. 0. 0. 0. 0. 0. 0. 0. 0. 0. 0. 0. 0. 0.
      0. 0. 0. 0. 0. 0. 0. 0. 0. 0. 0. 0. 0. 0. 0. 0. 0. 0. 0. 0. 0. 0.
      0. 1.58730168e-02 0. 0. 0. 0. 0. 0. 0. 0. 0. 0. 0. 0. 0. 0. 0. 0.
      0. 0. 0. 0. 0. 0. 0. 0. 0. 0. 0. 0. 0. 0. 0. 0. 1.58730168e-02 0.
      0. 0. 0. 0. 0. 0. 0. 0. 0. 0. 0. 1.58730168e-02 0. 1.58730168e-02
      0. 0. 0. 0. 0. 0. 0. 0. 0. 0. 0. 0. 1.58730168e-02 0. 0. 0. 0. 0.
      0. 0. 0. 0. 0. 0. 0. 0. 0. 0. 0. 0. 0. 0. 0. 0. 0. 0. 0. 0. 0. 0.
      0. 0. 0. 0. 0. 0. 0. 0. 0. 0. 0. 0. 0. 0. 0. 0. 0. 0. 0. 0.
      3.17460336e-02 0. 0. 0. 0. 0. 0. 0. 0. 0. 0. 0. 0. 0. 0. 0. 0. 0.
      0. 0. 0. 0. 0. 0. 0. 1.58730168e-02 0. 0. 0. 0. 0. 0. 0. 0. 0. 0.
      0. 0. 0. 0. 0. 0. 0. 0. 0. 0. 1.58730168e-02 0. 0. 0. 0. 0. 0. 0.
      0. 0. 0. 0. 0. 3.17460336e-02 0. 0. 0. 0. 0. 0. 0. 0. 0. 0. 0. 0.
      0. 0. 0. 0. 0. 0. 0. 0. 0. 0. 1.58730168e-02 0. 0. 0. 0. 0. 0. 0.
      0. 0. 0. 0. 0. 0. 0. 0. 0. 0. 0. 1.58730168e-02 0. 1.58730168e-02
      0. 0. 0. 0. 0. 0. 0. 0. 0. 0. 0. 0. 0. 0. 1.58730168e-02 0. 0. 0.
      0. 0. 1.58730168e-02 0. 0. 0. 0. 0. 0.</_>
    <_>
      1.13636367e-02 0. 0. 0. 0. 0. 0. 0. 0. 0. 0. 0. 0. 0. 0. 0. 0. 0.
      0. 0. 0. 0. 0. 0. 2.27272734e-02 0. 0. 0. 0. 0. 0. 0. 0. 0. 0. 0.
      0. 0. 0. 0. 0. 0. 0. 0. 0. 0. 0. 0. 0. 0. 0. 0. 0. 0. 0. 0. 0. 0.
      0. 0. 0. 0. 0. 0. 0. 0. 0. 0. 0. 0. 0. 0. 1.13636367e-02 0. 0.
      1.13636367e-02 0. 0. 0. 0. 0. 0. 0. 0. 0. 0. 0. 0. 0. 0. 0. 0. 0.
      0. 0. 2.27272734e-02 0. 0. 0. 0. 0. 0. 0. 0. 0. 0. 0. 0. 0. 0. 0.
      0. 0. 0. 0. 0. 0. 0. 0. 0. 0. 0. 0. 0. 0. 0. 0. 1.13636367e-02 0.
      0. 0. 0. 0. 0. 0. 0. 0. 0. 0. 0. 0. 0. 0. 0. 0. 1.13636367e-02 0.
      0. 0. 0. 0. 0. 0. 1.13636367e-02 0. 0. 0. 0. 0. 0. 0. 0. 0. 0. 0.
      0. 0. 0. 0. 0. 0. 0. 0. 0. 0. 0. 0. 0. 0. 0. 0. 0. 0. 0. 0. 0. 0.
      0. 0. 0. 0. 0. 0. 0. 1.13636367e-02 0. 0. 1.13636367e-02 0. 0. 0.
      0. 0. 0. 0. 1.13636367e-02 0. 0. 0. 0. 0. 0. 0. 0. 0. 0.
      1.13636367e-02 0. 0. 0. 0. 1.13636367e-02 0. 0. 0. 0. 0. 0. 0. 0.
      0. 0. 0. 0. 0. 0. 0. 0. 0. 0. 0. 0. 1.13636367e-02 1.13636367e-02
      1.13636367e-02 0. 0. 1.13636367e-02 2.27272734e-02 0. 0. 0. 0. 0.
      0. 0. 0. 0. 0. 0. 0. 0. 0. 0. 0. 0. 0. 0. 0. 0. 0. 0. 0. 0. 0. 0.
      0. 0. 0. 1.13636367e-02 0. 0. 0. 0. 0. 0. 0. 0. 0. 0.
      1.13636367e-02 0. 0. 0. 0. 0. 0. 0. 0. 0. 0. 0. 0. 0. 0. 0. 0. 0.
      0. 0. 0. 0. 0. 0. 0. 0. 0. 0. 0. 0. 0. 0. 0. 0. 0. 0. 0. 0. 0. 0.
      0. 0. 0. 0. 0. 0. 0. 0. 0. 0. 0. 0. 0. 0. 0. 0. 0. 0. 0. 0. 0. 0.
      0. 0. 0. 0. 0. 0. 0. 0. 0. 0. 0. 0. 0. 1.13636367e-02 0. 0. 0. 0.
      0. 0. 0. 0. 0. 0. 1.13636367e-02 0. 0. 0. 0. 0. 0. 0.
      1.13636367e-02 0. 0. 0. 1.13636367e-02 0. 0. 0. 0. 0. 0. 0. 0. 0.
      0. 0. 0. 0. 0. 0. 1.13636367e-02 0. 0. 0. 0. 0. 0. 0. 0. 0. 0. 0.
      0. 0. 0. 0. 0. 0. 0. 0. 0. 0. 0. 0. 0. 0. 0. 0. 0. 0. 0. 0. 0. 0.
      0. 0. 0. 0. 0. 0. 0. 0. 0. 0. 0. 0. 0. 0. 0. 0. 0. 0. 0. 0. 0. 0.
      0. 0. 0. 0. 0. 0. 3.40909101e-02 0. 0. 1.13636367e-02 0. 0. 0.
      1.13636367e-02 0. 0. 0. 0. 0. 0. 0. 0. 0. 0. 0. 0. 0. 0. 0. 0. 0.
      0. 0. 0. 0. 0. 0. 0. 0. 0. 0. 0. 0. 0. 0. 0. 0. 0. 0.
      1.13636367e-02 0. 0. 0. 0. 1.13636367e-02 0. 0. 0. 0. 0. 0. 0. 0.
      0. 0. 0. 0. 0. 0. 0. 0. 0. 0. 0. 0. 0. 0. 0. 1.13636367e-02 0. 0.
      0. 0. 0. 0. 1.13636367e-02 0. 0. 1.13636367e-02 0. 0. 0. 0. 0. 0.
      0. 0. 0. 0. 0. 0. 1.13636367e-02 0. 1.13636367e-02 1.13636367e-02
      0. 0. 0. 0. 0. 0. 0. 1.13636367e-02 1.13636367e-02 0. 0. 0. 0. 0.
      0. 0. 2.27272734e-02 0. 1.13636367e-02 1.13636367e-02 0. 0. 0. 0.
      0. 0. 0. 0. 0. 0. 0. 0. 0. 0. 0. 0. 0. 0. 0. 0. 0. 0. 0. 0. 0. 0.
      0. 0. 0. 0. 0. 0. 0. 0. 0. 0. 0. 0. 0. 0. 0. 0. 0. 0. 0. 0. 0.
      1.13636367e-02 0. 0. 0. 0. 0. 0. 0. 0. 0. 0. 0. 0. 0. 0. 0. 0. 0.
      0. 0. 0. 0. 0. 0. 0. 0. 0. 0. 0. 0. 0. 0. 0. 1.13636367e-02 0. 0.
      0. 0. 0. 0. 0. 0. 0. 0. 0. 3.40909101e-02 0. 0. 0. 0. 0. 0. 0. 0.
      0. 0. 0. 0. 1.13636367e-02 0. 4.54545468e-02 0. 0. 0. 0. 0. 0. 0.
      0. 0. 0. 0. 0. 0. 0. 0. 0. 0. 0. 0. 0. 0. 1.13636367e-02 0. 0. 0.
      0. 0. 0. 0. 0. 3.40909101e-02 1.13636367e-02 0. 0. 0. 0. 0. 0. 0.
      1.13636367e-02 0. 0. 0. 0. 0. 0. 0. 0. 0. 0. 0. 0. 0. 0. 0. 0. 0.
      0. 0. 0. 0. 0. 0. 1.13636367e-02 0. 0. 0. 0. 0. 0. 0. 0. 0. 0. 0.
      0. 0. 0. 0. 1.13636367e-02 0. 3.40909101e-02 1.13636367e-02 0.
      1.13636367e-02 0. 0. 0. 0. 0. 0. 0. 0. 0. 0. 0. 0. 0. 0. 0.
      1.13636367e-02 0. 1.13636367e-02 0. 0. 0. 1.13636367e-02 0. 0. 0.
      0. 0. 0. 0. 0. 0. 0. 0. 0. 0. 0. 0. 0. 0. 0. 0. 0. 0.
      1.13636367e-02 0. 0. 0. 0. 0. 0. 0. 0. 0. 0. 0. 0. 0. 0. 0. 0. 0.
      0. 0. 0. 0. 0. 0. 0. 0. 0. 0. 0. 0. 0. 0. 0. 0. 0. 1.13636367e-02
      0. 0. 0. 0. 0. 0. 0. 1.13636367e-02 0. 0. 0. 0. 0. 0. 0. 0. 0. 0.
      0. 0. 0. 0. 0. 0. 1.13636367e-02 0. 0. 0. 0. 0. 0. 0. 0. 0. 0. 0.
      0. 1.13636367e-02 0. 0. 0. 0. 0. 0. 2.27272734e-02 0.
      1.13636367e-02 1.13636367e-02 0. 0. 0. 0. 0. 0. 0. 1.13636367e-02
      0. 0. 0. 0. 0. 0. 0. 0. 0. 0. 0. 0. 0. 0. 0. 0. 0. 0. 0. 0. 0. 0.
      0. 0. 0. 0. 0. 0. 0. 0. 0. 0. 0. 0. 0. 0. 0. 0. 0. 0.
      2.27272734e-02 0. 0. 0. 0. 0. 0. 0. 0. 0. 0. 0. 0. 0. 0.
      1.13636367e-02 0. 0. 0. 0. 0. 0. 0. 0. 0. 0. 0. 0. 0. 0. 0. 0. 0.
      0. 2.27272734e-02 0. 0. 0. 0. 0. 0. 0. 0. 0. 0. 0. 0.</_>
    <_>
      0. 0. 0. 0. 0. 0. 0. 0. 0. 0. 0. 0. 0. 0. 0. 0. 0. 0. 0. 0. 0. 0.
      0. 0. 2.12765951e-02 1.06382975e-02 0. 0. 0. 0. 0. 0. 0. 0. 0. 0.
      0. 0. 0. 0. 0. 1.06382975e-02 0. 0. 0. 0. 0. 0. 0. 0. 0. 0. 0. 0.
      0. 0. 0. 0. 0. 0. 0. 0. 0. 0. 0. 0. 0. 0. 0. 0. 0. 0. 0. 0.
      1.06382975e-02 1.06382975e-02 0. 0. 0. 0. 0. 0. 0. 0. 0. 0. 0. 0.
      0. 0. 0. 0. 0. 0. 0. 3.19148935e-02 0. 0. 0. 0. 0. 0. 0. 0. 0. 0.
      0. 0. 0. 0. 0. 0. 0. 0. 0. 0. 0. 0. 0. 0. 0. 0. 0. 0. 0. 0. 0.
      1.06382975e-02 0. 0. 0. 0. 1.06382975e-02 0. 0. 0. 0. 0. 0. 0. 0.
      0. 0. 0. 1.06382975e-02 1.06382975e-02 0. 0. 0. 0. 0. 0. 0.
      1.06382975e-02 0. 0. 0. 0. 0. 0. 0. 0. 1.06382975e-02 0. 0. 0. 0.
      0. 0. 0. 0. 0. 0. 0. 0. 0. 0. 0. 0. 0. 0. 0. 0. 0. 0. 0. 0. 0. 0.
      0. 0. 0. 0. 0. 0. 0. 0. 0. 0. 0. 0. 0. 0. 0. 0. 0. 0. 0. 0. 0. 0.
      0. 0. 0. 0. 0. 1.06382975e-02 0. 0. 0. 0. 1.06382975e-02 0. 0. 0.
      0. 0. 0. 0. 1.06382975e-02 0. 0. 1.06382975e-02 0. 0. 0. 0. 0. 0.
      0. 0. 0. 2.12765951e-02 0. 1.06382975e-02 0. 0. 1.06382975e-02
      1.06382975e-02 0. 0. 0. 0. 0. 0. 0. 0. 0. 0. 0. 0. 0.
      1.06382975e-02 0. 0. 0. 0. 0. 0. 0. 0. 0. 0. 3.19148935e-02
      1.06382975e-02 0. 0. 0. 0. 1.06382975e-02 0. 0. 0. 0. 0. 0. 0. 0.
      0. 0. 1.06382975e-02 0. 0. 0. 0. 0. 0. 0. 0. 0. 0. 0. 0. 0. 0. 0.
      0. 0. 0. 0. 0. 0. 0. 0. 0. 0. 0. 0. 0. 0. 0. 0. 0. 0. 0. 0. 0. 0.
      0. 0. 0. 0. 0. 0. 0. 0. 0. 0. 0. 0. 0. 0. 0. 0. 0. 0. 0. 0. 0. 0.
      0. 0. 0. 0. 0. 1.06382975e-02 0. 0. 0. 0. 0. 0. 0. 0. 0. 0. 0.
      1.06382975e-02 0. 0. 0. 1.06382975e-02 0. 0. 0. 0. 2.12765951e-02
      0. 0. 0. 0. 0. 0. 0. 1.06382975e-02 0. 0. 0. 1.06382975e-02 0. 0.
      0. 0. 0. 0. 0. 0. 0. 0. 0. 0. 0. 0. 0. 1.06382975e-02 0. 0.
      1.06382975e-02 0. 0. 0. 0. 1.06382975e-02 0. 0. 0. 0. 0. 0. 0. 0.
      0. 0. 0. 0. 0. 0. 0. 0. 0. 0. 0. 0. 0. 0. 0. 0. 0. 0. 0. 0. 0. 0.
      0. 0. 0. 0. 0. 0. 0. 0. 0. 0. 0. 0. 0. 0. 0. 0. 0. 0. 0. 0. 0. 0.
      0. 2.12765951e-02 0. 0. 0. 0. 0. 0. 0. 0. 0. 0. 0. 0. 0. 0. 0. 0.
      0. 0. 0. 0. 0. 0. 0. 0. 0. 0. 0. 0. 0. 1.06382975e-02 0. 0. 0. 0.
      0. 0. 0. 0. 0. 0. 0. 0. 1.06382975e-02 0. 0. 1.06382975e-02 0.
      1.06382975e-02 0. 0. 0. 0. 0. 0. 0. 0. 0. 0. 0. 0. 0. 0. 0. 0. 0.
      0. 0. 0. 0. 0. 0. 1.06382975e-02 0. 0. 0. 0. 0. 0. 1.06382975e-02
      0. 0. 0. 0. 0. 0. 0. 0. 2.12765951e-02 0. 0. 0. 0. 0.
      1.06382975e-02 1.06382975e-02 0. 1.06382975e-02 1.06382975e-02 0.
      0. 0. 0. 0. 0. 0. 1.06382975e-02 0. 0. 0. 0. 0. 0. 0. 0.
      1.06382975e-02 0. 1.06382975e-02 1.06382975e-02 0. 0. 0. 0. 0. 0.
      0. 0. 0. 0. 1.06382975e-02 0. 0. 0. 0. 0. 0. 0. 0. 0. 0. 0. 0. 0.
      0. 0. 0. 0. 0. 0. 0. 0. 0. 0. 0. 0. 0. 0. 0. 0. 0. 0. 0. 0. 0. 0.
      0. 1.06382975e-02 0. 0. 0. 0. 0. 0. 0. 0. 0. 0. 1.06382975e-02 0.
      0. 0. 0. 0. 0. 0. 0. 0. 0. 0. 0. 0. 0. 0. 0. 0. 0. 0. 0. 0.
      1.06382975e-02 0. 0. 0. 0. 0. 0. 0. 0. 0. 0. 0. 4.25531901e-02 0.
      0. 0. 0. 0. 0. 0. 0. 0. 0. 0. 0. 1.06382975e-02 0. 3.19148935e-02
      0. 0. 0. 0. 0. 0. 0. 0. 0. 0. 0. 0. 0. 0. 0. 0. 0. 0. 0. 0. 0. 0.
      0. 1.06382975e-02 0. 0. 0. 0. 0. 0. 1.06382975e-02 1.06382975e-02
      0. 0. 0. 0. 0. 0. 0. 1.06382975e-02 0. 0. 0. 0. 0. 0. 0. 0. 0. 0.
      0. 0. 0. 0. 0. 0. 0. 1.06382975e-02 0. 0. 0. 0. 0. 0. 0. 0. 0. 0.
      0. 0. 0. 0. 0. 0. 0. 0. 1.06382975e-02 0. 0. 0. 0. 2.12765951e-02
      1.06382975e-02 0. 0. 0. 0. 0. 0. 0. 0. 0. 0. 0. 0. 0. 0. 0. 0.
      1.06382975e-02 1.06382975e-02 0. 0. 0. 0. 0. 0. 0. 0. 0. 0. 0. 0.
      0. 0. 0. 0. 0. 0. 0. 1.06382975e-02 0. 0. 0. 0. 0. 0. 0. 0. 0. 0.
      0. 0. 0. 0. 0. 0. 0. 0. 0. 0. 0. 0. 0. 0. 0. 0. 0. 0. 0. 0. 0. 0.
      0. 0. 0. 0. 0. 0. 0. 0. 0. 0. 0. 0. 0. 0. 0. 0. 0. 0.
      1.06382975e-02 0. 0. 0. 0. 0. 0. 0. 0. 0. 0. 0. 0. 0. 0. 0. 0. 0.
      0. 0. 0. 0. 0. 0. 0. 0. 0. 0. 0. 0. 0. 0. 0. 0. 0. 0. 0.
      1.06382975e-02 0. 1.06382975e-02 1.06382975e-02 0. 0. 0. 0. 0. 0.
      0. 1.06382975e-02 0. 0. 0. 0. 0. 0. 0. 0. 0. 0. 0. 0. 0. 0. 0.
      2.12765951e-02 0. 0. 0. 0. 0. 0. 0. 0. 0. 0. 0. 0. 0. 0. 0. 0. 0.
      0. 0. 0. 0. 0. 0. 0. 1.06382975e-02 0. 0. 0. 0. 0. 0. 0. 0. 0. 0.
      0. 0. 0. 1.06382975e-02 0. 0. 0. 0. 0. 0. 0. 0. 0. 0. 0. 0. 0. 0.
      0. 0. 0. 0. 0. 2.12765951e-02 0. 0. 0. 0. 0. 0. 0. 0. 0. 0. 0. 0.</_>
    <_>
      0. 0. 0. 0. 0. 0. 0. 0. 0. 0. 0. 0. 0. 0. 0. 0. 0. 0. 0. 0. 0. 0.
      0. 0. 2.53164563e-02 1.26582282e-02 0. 0. 0. 0. 0. 0. 0. 0. 0. 0.
      0. 0. 0. 0. 0. 1.26582282e-02 0. 0. 0. 0. 0. 0. 0. 0. 0. 0. 0. 0.
      0. 0. 0. 0. 0. 0. 0. 0. 0. 0. 0. 0. 0. 0. 0. 0. 0. 0. 0. 0.
      1.26582282e-02 0. 0. 0. 0. 0. 0. 0. 0. 0. 0. 0. 0. 0. 0. 0. 0. 0.
      0. 0. 0. 2.53164563e-02 0. 0. 0. 0. 0. 0. 0. 0. 0. 0. 0. 0. 0. 0.
      0. 0. 2.53164563e-02 0. 0. 0. 0. 0. 0. 0. 0. 0. 0. 0. 0. 0. 0.
      1.26582282e-02 0. 0. 0. 0. 0. 0. 0. 0. 0. 0. 0. 0. 0. 0. 0. 0.
      1.26582282e-02 1.26582282e-02 0. 0. 0. 0. 0. 0. 0. 1.26582282e-02
      0. 0. 0. 0. 0. 0. 0. 0. 1.26582282e-02 0. 0. 0. 0. 0. 0. 0. 0. 0.
      0. 0. 0. 0. 0. 0. 0. 0. 0. 0. 0. 0. 0. 0. 0. 0. 0. 0. 0. 0. 0. 0.
      0. 0. 0. 0. 0. 0. 0. 0. 0. 0. 0. 0. 0. 0. 0. 0. 0. 0. 0. 0. 0. 0.
      1.26582282e-02 0. 0. 1.26582282e-02 0. 1.26582282e-02 0. 0. 0. 0.
      0. 0. 0. 1.26582282e-02 0. 0. 1.26582282e-02 0. 0. 0. 0. 0. 0. 0.
      0. 0. 1.26582282e-02 0. 1.26582282e-02 0. 0. 1.26582282e-02
      1.26582282e-02 0. 0. 0. 0. 0. 0. 0. 0. 0. 0. 0. 0. 0. 0. 0. 0. 0.
      0. 0. 0. 0. 0. 0. 0. 2.53164563e-02 0. 0. 0. 0. 0. 0. 0. 0. 0. 0.
      0. 0. 0. 0. 0. 0. 0. 0. 0. 0. 0. 0. 0. 0. 0. 0. 0. 0. 0. 0. 0. 0.
      0. 0. 0. 0. 0. 0. 0. 0. 0. 0. 0. 0. 0. 0. 0. 0. 0. 0. 0. 0. 0. 0.
      0. 0. 0. 0. 0. 0. 0. 0. 0. 0. 0. 0. 0. 0. 0. 0. 0. 0. 0. 0. 0. 0.
      0. 0. 0. 0. 0. 0. 0. 0. 0. 0. 0. 0. 0. 0. 0. 0. 0. 1.26582282e-02
      0. 0. 0. 1.26582282e-02 0. 0. 0. 0. 0. 0. 0. 0. 0. 0. 0. 0.
      1.26582282e-02 0. 0. 0. 1.26582282e-02 0. 0. 0. 0. 0. 0. 0. 0. 0.
      0. 0. 0. 0. 0. 0. 0. 0. 0. 1.26582282e-02 0. 0. 0. 0. 0. 0. 0. 0.
      0. 0. 0. 0. 0. 0. 0. 0. 0. 0. 0. 0. 0. 0. 0. 0. 0. 0. 0. 0. 0. 0.
      0. 0. 0. 0. 0. 0. 0. 0. 0. 0. 0. 0. 0. 0. 0. 0. 0. 0. 0. 0. 0. 0.
      0. 0. 0. 0. 0. 0. 0. 0. 0. 0. 0. 0. 0. 0. 0. 0. 0. 0. 0. 0. 0. 0.
      0. 0. 0. 0. 0. 0. 0. 0. 0. 0. 0. 0. 0. 0. 1.26582282e-02 0. 0. 0.
      0. 0. 0. 0. 0. 0. 0. 0. 0. 1.26582282e-02 0. 0. 0. 0.
      1.26582282e-02 0. 0. 0. 0. 0. 0. 0. 0. 0. 0. 0. 0. 0. 0. 0. 0. 0.
      0. 0. 0. 0. 0. 0. 1.26582282e-02 0. 0. 0. 0. 0. 0. 1.26582282e-02
      0. 0. 0. 0. 0. 0. 0. 0. 1.26582282e-02 0. 0. 0. 0. 0. 0.
      1.26582282e-02 0. 2.53164563e-02 1.26582282e-02 0. 0. 0. 0. 0. 0.
      0. 1.26582282e-02 1.26582282e-02 0. 0. 0. 0. 0. 0. 0.
      1.26582282e-02 0. 1.26582282e-02 0. 0. 0. 0. 0. 0. 0. 0. 0. 0. 0.
      0. 0. 0. 0. 0. 0. 0. 0. 0. 0. 0. 0. 0. 0. 0. 0. 0. 0. 0. 0. 0. 0.
      0. 0. 0. 0. 0. 0. 0. 0. 0. 0. 0. 0. 0. 0. 0. 1.26582282e-02 0. 0.
      0. 0. 0. 0. 0. 0. 0. 0. 1.26582282e-02 0. 0. 0. 0. 0. 0. 0. 0. 0.
      0. 0. 0. 0. 0. 0. 1.26582282e-02 0. 0. 0. 0. 0. 1.26582282e-02 0.
      0. 0. 0. 0. 0. 0. 0. 0. 0. 0. 2.53164563e-02 0. 0. 0. 0. 0. 0. 0.
      0. 0. 0. 0. 0. 1.26582282e-02 0. 2.53164563e-02 0. 0. 0. 0. 0. 0.
      0. 0. 0. 0. 0. 0. 0. 0. 0. 0. 0. 0. 0. 0. 0. 0. 0. 0. 0. 0. 0. 0.
      0. 0. 1.26582282e-02 1.26582282e-02 0. 0. 0. 0. 0. 0. 0.
      1.26582282e-02 0. 0. 0. 0. 0. 0. 0. 0. 0. 0. 0. 0. 0. 0. 0. 0. 0.
      0. 0. 0. 0. 0. 0. 0. 0. 0. 0. 0. 0. 0. 0. 0. 0. 0. 0. 0.
      1.26582282e-02 0. 0. 1.26582282e-02 0. 2.53164563e-02
      1.26582282e-02 0. 0. 0. 0. 0. 0. 0. 0. 0. 0. 0. 0. 0. 0. 0. 0.
      1.26582282e-02 1.26582282e-02 0. 1.26582282e-02 0. 0. 0.
      1.26582282e-02 0. 0. 0. 0. 0. 0. 0. 0. 0. 0. 0. 0. 0.
      1.26582282e-02 0. 0. 0. 0. 0. 0. 0. 1.26582282e-02 0. 0. 0. 0. 0.
      0. 0. 0. 0. 0. 0. 0. 0. 0. 0. 0. 0. 0. 0. 0. 0. 0. 0. 0. 0. 0. 0.
      0. 0. 0. 0. 0. 0. 0. 0. 0. 0. 0. 0. 0. 0. 0. 1.26582282e-02 0. 0.
      0. 0. 0. 0. 0. 0. 0. 0. 0. 0. 0. 0. 0. 0. 0. 0. 0. 0. 0. 0. 0. 0.
      0. 0. 0. 0. 0. 0. 0. 0. 0. 0. 0. 0. 2.53164563e-02 0.
      1.26582282e-02 1.26582282e-02 0. 0. 0. 0. 0. 0. 0. 1.26582282e-02
      0. 0. 0. 0. 0. 0. 0. 0. 0. 0. 0. 0. 0. 0. 0. 1.26582282e-02 0. 0.
      0. 0. 0. 0. 0. 0. 0. 0. 0. 0. 0. 0. 0. 0. 0. 0. 0. 0. 0. 0. 0. 0.
      2.53164563e-02 0. 0. 0. 0. 0. 0. 0. 0. 0. 0. 0. 0. 0.
      1.26582282e-02 0. 0. 0. 0. 0. 0. 0. 0. 0. 0. 0. 0. 0. 0. 0. 0. 0.
      0. 0. 2.53164563e-02 0. 0. 0. 0. 0. 0. 0. 0. 0. 0. 0. 0.</_>
    <_>
      0. 0. 0. 0. 0. 0. 0. 0. 2.35294122e-02 0. 0. 0. 0. 0. 0.
      1.17647061e-02 0. 0. 0. 0. 2.35294122e-02 0. 0. 1.17647061e-02 0.
      0. 0. 0. 0. 0. 0. 0. 0. 0. 0. 0. 0. 0. 0. 0. 0. 0. 0.
      1.17647061e-02 0. 0. 0. 0. 0. 0. 0. 0. 0. 0. 0. 0. 0. 0. 0. 0. 0.
      0. 0. 0. 0. 0. 0. 0. 0. 0. 0. 0. 1.17647061e-02 0. 0. 0. 0. 0. 0.
      0. 0. 0. 0. 0. 0. 0. 0. 1.17647061e-02 0. 0. 0. 1.17647061e-02 0.
      0. 0. 0. 0. 0. 0. 0. 0. 0. 0. 0. 0. 0. 0. 0. 0. 0. 0.
      1.17647061e-02 0. 0. 0. 0. 0. 0. 0. 0. 0. 0. 0. 0. 0. 0. 0. 0. 0.
      0. 0. 0. 0. 0. 0. 0. 0. 0. 1.17647061e-02 0. 0. 0. 0. 0. 0.
      1.17647061e-02 0. 0. 0. 0. 0. 0. 0. 1.17647061e-02 0. 0. 0. 0. 0.
      0. 0. 0. 0. 0. 0. 0. 0. 0. 0. 0. 0. 0. 0. 0. 0. 0. 0. 0. 0. 0. 0.
      0. 0. 0. 0. 0. 0. 0. 0. 0. 0. 0. 0. 0. 0. 0. 0. 0. 0. 0. 0. 0. 0.
      0. 0. 0. 0. 0. 0. 0. 0. 0. 0. 0. 0. 0. 2.35294122e-02 0. 0. 0. 0.
      0. 0. 0. 0. 0. 0. 0. 0. 0. 0. 0. 0. 0. 0. 0. 0. 0. 0. 0. 0. 0. 0.
      0. 1.17647061e-02 0. 0. 1.17647061e-02 1.17647061e-02 0. 0. 0. 0.
      0. 0. 0. 0. 0. 0. 0. 0. 0. 1.17647061e-02 0. 0. 0. 0. 0. 0. 0. 0.
      0. 0. 0. 0. 0. 0. 1.17647061e-02 0. 0. 0. 0. 0. 0. 0. 0. 0.
      1.17647061e-02 1.17647061e-02 0. 0. 0. 0. 0. 0. 0. 0. 0. 0. 0. 0.
      0. 2.35294122e-02 0. 0. 0. 0. 0. 0. 0. 0. 0. 0. 0. 0. 0. 0. 0. 0.
      0. 0. 0. 0. 0. 0. 0. 0. 0. 0. 0. 0. 0. 0. 0. 0. 0. 0. 0. 0. 0. 0.
      0. 0. 0. 0. 0. 0. 0. 0. 0. 0. 1.17647061e-02 0. 0. 0. 0. 0. 0. 0.
      0. 0. 0. 0. 0. 0. 0. 0. 0. 0. 0. 0. 0. 0. 0. 0. 0. 0. 0. 0. 0. 0.
      0. 0. 0. 0. 0. 0. 0. 0. 0. 0. 0. 0. 0. 0. 0. 0. 0. 0. 0. 0. 0. 0.
      0. 0. 0. 0. 0. 0. 0. 1.17647061e-02 0. 0. 0. 0. 0. 0. 0. 0. 0. 0.
      0. 0. 0. 0. 0. 0. 0. 0. 0. 0. 0. 0. 0. 0. 0. 0. 0. 0. 0. 0. 0. 0.
      0. 0. 0. 0. 0. 0. 0. 0. 0. 0. 0. 0. 0. 0. 0. 0. 0. 0. 0. 0. 0. 0.
      0. 0. 0. 0. 1.17647061e-02 0. 0. 1.17647061e-02 0. 0. 0. 0. 0.
      1.17647061e-02 0. 0. 0. 0. 0. 0. 0. 2.35294122e-02 1.17647061e-02
      1.17647061e-02 0. 0. 0. 0. 2.35294122e-02 0. 0. 0. 3.52941193e-02
      1.17647061e-02 0. 0. 1.17647061e-02 2.35294122e-02 0. 0. 0. 0. 0.
      1.17647061e-02 0. 0. 0. 0. 0. 1.17647061e-02 0. 0. 0.
      1.17647061e-02 0. 0. 0. 0. 0. 0. 0. 0. 0. 1.17647061e-02 0. 0. 0.
      0. 0. 0. 0. 0. 0. 0. 0. 0. 0. 0. 0. 1.17647061e-02 0. 0. 0. 0. 0.
      0. 0. 1.17647061e-02 0. 1.17647061e-02 1.17647061e-02 0. 0.
      1.17647061e-02 0. 0. 0. 0. 0. 1.17647061e-02 0. 0. 0. 0. 0. 0. 0.
      1.17647061e-02 0. 0. 0. 0. 0. 0. 0. 0. 0. 1.17647061e-02
      1.17647061e-02 1.17647061e-02 0. 0. 0. 0. 0. 0. 0. 0. 0. 0. 0. 0.
      0. 0. 0. 0. 0. 0. 0. 0. 0. 0. 0. 0. 0. 0. 0. 0. 0. 0. 0. 0. 0. 0.
      0. 0. 0. 0. 0. 0. 0. 0. 0. 0. 0. 0. 0. 0. 0. 0. 0. 0. 0. 0. 0. 0.
      0. 0. 0. 0. 0. 0. 0. 0. 0. 1.17647061e-02 0. 1.17647061e-02
      1.17647061e-02 0. 1.17647061e-02 0. 0. 0. 0. 0. 0. 0. 0. 0. 0. 0.
      0. 0. 0. 0. 0. 0. 0. 0. 0. 0. 0. 0. 1.17647061e-02 0. 0. 0. 0. 0.
      0. 0. 0. 0. 0. 1.17647061e-02 0. 0. 0. 0. 0. 0. 0. 1.17647061e-02
      0. 0. 0. 0. 0. 0. 0. 0. 0. 0. 0. 0. 0. 0. 0. 0. 0. 0. 0. 0. 0. 0.
      0. 0. 0. 0. 0. 0. 0. 0. 0. 0. 0. 0. 0. 0. 0. 0. 0. 0. 0. 0. 0. 0.
      0. 0. 0. 0. 0. 0. 0. 0. 0. 0. 0. 1.17647061e-02 0. 0. 0. 0. 0. 0.
      0. 0. 0. 0. 1.17647061e-02 0. 1.17647061e-02 0. 0. 0. 0. 0. 0. 0.
      0. 0. 1.17647061e-02 0. 0. 0. 0. 0. 0. 0. 0. 0. 0. 0. 0. 0. 0. 0.
      0. 0. 0. 0. 0. 0. 0. 1.17647061e-02 0. 0. 0. 1.17647061e-02 0. 0.
      0. 1.17647061e-02 0. 0. 0. 0. 0. 0. 0. 0. 0. 0. 0. 0. 0. 0. 0. 0.
      0. 0. 0. 0. 0. 0. 0. 0. 0. 0. 1.17647061e-02 0. 0. 0. 0. 0. 0. 0.
      0. 0. 0. 0. 0. 0. 0. 0. 0. 1.17647061e-02 0. 0. 0. 0. 0. 0. 0. 0.
      0. 0. 0. 0. 0. 0. 0. 0. 0. 0. 0. 0. 0. 0. 0. 0. 0. 0. 0. 0. 0. 0.
      0. 0. 0. 0. 0. 0. 1.17647061e-02 0. 0. 0. 0. 1.17647061e-02 0. 0.
      1.17647061e-02 0. 0. 0. 0. 0. 0. 0. 0. 0. 0. 0. 0. 0. 0. 0. 0. 0.
      0. 0. 0. 0. 0. 0. 0. 0. 1.17647061e-02 0. 0. 0. 0. 0. 0. 0. 0. 0.
      0. 0. 0. 0. 0. 0. 0. 0. 1.17647061e-02 0. 2.35294122e-02 0. 0. 0.
      0. 0. 0. 0. 0. 0. 0. 0. 0. 0. 0. 0. 0. 0. 0. 2.35294122e-02 0. 0.
      0. 0. 0. 0. 0. 0. 0. 0. 1.17647061e-02 0. 0. 0. 0. 0. 0.
      1.17647061e-02 0. 0. 0. 0. 0. 0. 1.17647061e-02 0. 0. 0. 0. 0. 0.
      0. 0. 0. 0. 0. 0.</_>
    <_>
      0. 0. 0. 9.61538497e-03 0. 0. 0. 0. 1.92307699e-02 0. 0. 0. 0. 0.
      0. 9.61538497e-03 0. 0. 0. 0. 0. 0. 0. 9.61538497e-03 0. 0. 0. 0.
      0. 0. 0. 0. 0. 0. 0. 0. 0. 0. 0. 0. 0. 0. 0. 0. 0. 0. 0. 0. 0. 0.
      0. 0. 0. 0. 0. 0. 0. 0. 9.61538497e-03 0. 0. 0. 0. 0. 0. 0. 0. 0.
      0. 0. 0. 0. 0. 0. 0. 0. 0. 0. 0. 0. 0. 0. 0. 9.61538497e-03 0.
      9.61538497e-03 0. 9.61538497e-03 0. 0. 0. 0. 0. 0. 0. 0. 0. 0. 0.
      0. 0. 0. 0. 0. 9.61538497e-03 0. 9.61538497e-03 0. 0. 0. 0.
      1.92307699e-02 0. 0. 9.61538497e-03 9.61538497e-03 0. 0. 0. 0. 0.
      0. 0. 0. 0. 0. 0. 0. 0. 0. 0. 0. 0. 0. 0. 0. 0. 0. 9.61538497e-03
      0. 0. 0. 0. 0. 0. 0. 0. 0. 0. 0. 0. 0. 0. 9.61538497e-03 0. 0. 0.
      0. 0. 0. 0. 0. 0. 0. 0. 0. 0. 0. 0. 0. 0. 0. 0. 0. 0. 0. 0. 0. 0.
      0. 0. 0. 0. 0. 0. 0. 0. 0. 0. 0. 0. 0. 0. 0. 0. 0. 0. 0. 0. 0. 0.
      0. 0. 0. 0. 0. 0. 0. 0. 0. 0. 0. 0. 0. 0. 0. 0. 0. 0. 0. 0. 0. 0.
      0. 0. 0. 0. 0. 0. 0. 0. 0. 9.61538497e-03 0. 0. 0. 0. 0. 0. 0. 0.
      0. 0. 0. 9.61538497e-03 0. 0. 9.61538497e-03 0. 0. 0. 0. 0.
      9.61538497e-03 0. 0. 0. 0. 0. 0. 0. 0. 0. 0. 0. 1.92307699e-02 0.
      9.61538497e-03 0. 0. 0. 0. 0. 0. 0. 0. 0. 9.61538497e-03 0. 0. 0.
      0. 0. 0. 0. 0. 0. 9.61538497e-03 1.92307699e-02 0. 0. 0. 0. 0. 0.
      0. 0. 0. 0. 0. 0. 0. 1.92307699e-02 0. 0. 0. 0. 0. 0. 0. 0. 0. 0.
      0. 0. 0. 0. 0. 0. 0. 0. 0. 0. 0. 0. 0. 9.61538497e-03 0. 0. 0. 0.
      0. 0. 0. 0. 0. 0. 0. 0. 0. 0. 0. 0. 0. 0. 0. 0. 0. 0. 0. 0.
      1.92307699e-02 0. 0. 0. 9.61538497e-03 0. 0. 0. 0. 0. 0. 0. 0. 0.
      0. 0. 9.61538497e-03 0. 0. 0. 0. 0. 0. 0. 0. 0. 0. 0. 0. 0. 0. 0.
      0. 0. 0. 0. 0. 0. 0. 0. 0. 0. 0. 0. 0. 0. 9.61538497e-03 0. 0. 0.
      0. 0. 0. 0. 9.61538497e-03 0. 0. 0. 0. 0. 0. 9.61538497e-03 0. 0.
      0. 9.61538497e-03 0. 0. 0. 0. 0. 9.61538497e-03 0. 0. 0. 0. 0. 0.
      0. 0. 0. 0. 0. 0. 0. 0. 0. 9.61538497e-03 0. 9.61538497e-03 0. 0.
      0. 0. 0. 0. 0. 0. 0. 0. 0. 0. 0. 0. 0. 0. 0. 0. 0. 0.
      9.61538497e-03 0. 0. 0. 0. 0. 0. 0. 0. 0. 0. 0. 0. 0. 0. 0. 0.
      9.61538497e-03 0. 0. 0. 0. 0. 0. 0. 0. 0. 0. 0. 0. 0. 0.
      2.88461559e-02 0. 0. 0. 9.61538497e-03 9.61538497e-03 0. 0.
      9.61538497e-03 9.61538497e-03 0. 0. 0. 0. 0. 9.61538497e-03 0. 0.
      0. 0. 0. 9.61538497e-03 0. 0. 9.61538497e-03 9.61538497e-03 0. 0.
      0. 0. 0. 0. 0. 0. 0. 9.61538497e-03 0. 0. 0. 0. 0. 0. 0. 0. 0. 0.
      0. 0. 0. 0. 0. 9.61538497e-03 9.61538497e-03 9.61538497e-03 0. 0.
      0. 0. 0. 9.61538497e-03 0. 0. 9.61538497e-03 0. 0. 9.61538497e-03
      0. 0. 0. 1.92307699e-02 0. 9.61538497e-03 0. 0. 0. 0. 0. 0. 0. 0.
      0. 0. 0. 0. 0. 0. 0. 0. 0. 2.88461559e-02 9.61538497e-03 0. 0. 0.
      0. 0. 0. 0. 0. 0. 0. 0. 0. 0. 0. 0. 0. 0. 0. 0. 0. 0. 0. 0. 0. 0.
      0. 0. 0. 0. 0. 0. 0. 0. 0. 0. 0. 0. 0. 0. 0. 0. 0. 0. 0. 0. 0. 0.
      0. 0. 0. 0. 0. 0. 0. 0. 0. 9.61538497e-03 0. 0. 0. 0. 0. 0. 0. 0.
      0. 9.61538497e-03 0. 9.61538497e-03 1.92307699e-02 0.
      9.61538497e-03 0. 0. 0. 0. 0. 0. 0. 0. 0. 0. 0. 0. 0. 0. 0. 0. 0.
      0. 9.61538497e-03 0. 0. 0. 0. 9.61538497e-03 0. 0. 0. 0. 0. 0. 0.
      0. 0. 0. 9.61538497e-03 0. 0. 0. 0. 0. 0. 0. 1.92307699e-02 0. 0.
      0. 0. 0. 0. 0. 0. 0. 0. 0. 0. 0. 0. 0. 0. 0. 0. 0. 0. 0. 0. 0. 0.
      0. 0. 0. 0. 0. 0. 0. 0. 0. 0. 0. 0. 0. 0. 0. 0. 0. 0. 0. 0. 0. 0.
      0. 0. 0. 0. 0. 0. 0. 0. 0. 9.61538497e-03 0. 0. 0. 0. 0.
      9.61538497e-03 0. 0. 0. 0. 0. 0. 9.61538497e-03 0. 0. 0. 0. 0. 0.
      0. 0. 0. 0. 0. 0. 0. 0. 0. 0. 0. 0. 0. 0. 0. 0. 0. 0. 0. 0. 0. 0.
      0. 0. 0. 0. 9.61538497e-03 0. 0. 0. 0. 0. 0. 0. 9.61538497e-03 0.
      0. 0. 0. 0. 0. 0. 0. 0. 0. 0. 0. 0. 0. 0. 0. 0. 0. 0. 0. 0. 0. 0.
      0. 0. 0. 2.88461559e-02 0. 0. 0. 0. 0. 0. 0. 0. 0. 0. 0. 0. 0. 0.
      0. 0. 0. 0. 0. 0. 0. 0. 0. 0. 0. 0. 0. 0. 0. 0. 0. 0. 0. 0. 0. 0.
      0. 0. 0. 0. 0. 0. 0. 0. 0. 0. 0. 0. 0. 0. 0. 0. 0. 0. 0. 0. 0. 0.
      9.61538497e-03 0. 0. 0. 0. 0. 0. 0. 0. 0. 0. 0. 0. 0. 0. 0. 0. 0.
      0. 0. 0. 0. 0. 0. 0. 0. 0. 0. 0. 0. 9.61538497e-03 0. 0. 0. 0. 0.
      0. 0. 0. 9.61538497e-03 0. 0. 0. 0. 0. 0. 0. 0. 0. 1.92307699e-02
      0. 0. 0. 0. 0. 0. 0. 0. 0. 2.88461559e-02 0. 0. 0. 0. 0.
      9.61538497e-03 0. 0. 1.92307699e-02 0. 0. 0. 0. 0. 0. 0. 0. 0. 0.
      0. 0. 0. 9.61538497e-03 0. 0. 0. 9.61538497e-03 0. 0. 0. 0. 0. 0.
      9.61538497e-03 0. 0. 0. 0. 0. 0. 0. 0. 0. 0. 1.92307699e-02 0.</_>
    <_>
      0. 0. 0. 0. 0. 0. 0. 0. 1.73913036e-02 0. 0. 0. 0. 0. 0. 0. 0. 0.
      0. 0. 0. 0. 0. 0. 0. 0. 0. 0. 0. 0. 0. 0. 0. 0. 0. 0. 0. 0. 0. 0.
      0. 0. 0. 0. 0. 0. 0. 0. 0. 0. 0. 0. 0. 0. 0. 0. 0. 0.
      8.69565178e-03 0. 0. 0. 0. 0. 8.69565178e-03 0. 0. 0. 0. 0. 0. 0.
      0. 0. 0. 0. 0. 0. 0. 0. 0. 0. 0. 8.69565178e-03 0. 8.69565178e-03
      0. 8.69565178e-03 0. 0. 0. 8.69565178e-03 0. 0. 0. 0. 0. 0. 0. 0.
      0. 0. 0. 0. 8.69565178e-03 8.69565178e-03 0. 0. 0. 0. 0.
      8.69565178e-03 8.69565178e-03 0. 8.69565178e-03 8.69565178e-03 0.
      0. 0. 0. 0. 0. 0. 0. 0. 0. 0. 0. 0. 0. 0. 0. 8.69565178e-03 0. 0.
      0. 0. 0. 0. 0. 0. 0. 0. 0. 0. 0. 0. 0. 0. 8.69565178e-03 0. 0. 0.
      8.69565178e-03 0. 0. 0. 0. 0. 0. 0. 0. 0. 0. 0. 0. 0. 0. 0. 0. 0.
      0. 0. 0. 0. 0. 0. 0. 0. 0. 0. 0. 0. 0. 0. 0. 0. 0. 0. 0. 0. 0. 0.
      0. 0. 0. 0. 0. 0. 0. 0. 0. 0. 0. 0. 0. 0. 0. 0. 0. 0. 0. 0. 0. 0.
      0. 1.73913036e-02 0. 0. 0. 0. 0. 8.69565178e-03 0. 0. 0. 0. 0. 0.
      0. 0. 0. 8.69565178e-03 0. 0. 0. 0. 0. 0. 0. 0. 0. 0. 0.
      8.69565178e-03 0. 0. 1.73913036e-02 0. 0. 0. 0. 0. 8.69565178e-03
      0. 0. 0. 0. 0. 0. 0. 0. 0. 0. 0. 8.69565178e-03 0. 1.73913036e-02
      0. 0. 0. 0. 0. 0. 0. 0. 0. 0. 0. 0. 0. 0. 0. 0. 0. 0. 0.
      8.69565178e-03 1.73913036e-02 0. 0. 0. 0. 0. 0. 0. 0. 0. 0. 0. 0.
      0. 8.69565178e-03 0. 0. 0. 0. 0. 0. 0. 0. 0. 0. 0. 0. 0. 0. 0. 0.
      0. 0. 0. 0. 0. 0. 0. 0. 0. 0. 0. 0. 0. 0. 0. 0. 0. 0. 0. 0. 0. 0.
      0. 0. 0. 0. 0. 0. 0. 0. 0. 0. 8.69565178e-03 0. 0. 0.
      8.69565178e-03 0. 0. 0. 0. 0. 0. 0. 0. 0. 0. 0. 0. 0. 0. 0.
      8.69565178e-03 0. 0. 0. 0. 0. 0. 0. 0. 0. 0. 0. 0. 0. 0. 0. 0. 0.
      0. 0. 0. 0. 0. 0. 0. 0. 8.69565178e-03 0. 0. 8.69565178e-03 0. 0.
      0. 0. 8.69565178e-03 0. 0. 0. 0. 0. 0. 0. 0. 0. 0. 0. 0. 0. 0. 0.
      0. 0. 0. 0. 0. 8.69565178e-03 0. 0. 0. 0. 0. 0. 0. 0. 0.
      8.69565178e-03 0. 0. 0. 8.69565178e-03 0. 0. 0. 0. 0. 0. 0. 0. 0.
      0. 0. 0. 0. 0. 0. 0. 0. 0. 0. 0. 0. 0. 0. 0. 0. 0. 0. 0. 0. 0. 0.
      0. 0. 0. 0. 0. 0. 8.69565178e-03 0. 0. 0. 0. 0. 0. 0.
      8.69565178e-03 0. 0. 0. 0. 0. 0. 1.73913036e-02 0. 0. 0.
      8.69565178e-03 8.69565178e-03 0. 0. 8.69565178e-03 8.69565178e-03
      0. 0. 0. 0. 0. 1.73913036e-02 0. 0. 0. 0. 0. 8.69565178e-03 0. 0.
      8.69565178e-03 8.69565178e-03 0. 0. 0. 0. 0. 0. 0. 0. 0.
      8.69565178e-03 0. 0. 0. 0. 0. 0. 0. 0. 0. 0. 0. 0. 0. 0. 0.
      8.69565178e-03 8.69565178e-03 8.69565178e-03 0. 0. 0. 0. 0.
      1.73913036e-02 0. 0. 8.69565178e-03 0. 0. 8.69565178e-03 0. 0. 0.
      1.73913036e-02 0. 8.69565178e-03 0. 0. 8.69565178e-03 0.
      8.69565178e-03 0. 0. 8.69565178e-03 0. 0. 0. 8.69565178e-03 0. 0.
      0. 0. 0. 8.69565178e-03 8.69565178e-03 8.69565178e-03
      8.69565178e-03 0. 0. 0. 0. 0. 0. 0. 0. 0. 0. 0. 0. 0. 0. 0. 0. 0.
      0. 0. 0. 0. 0. 0. 0. 0. 0. 0. 0. 0. 0. 0. 0. 0. 0. 0. 0. 0. 0. 0.
      0. 0. 0. 0. 0. 0. 0. 0. 0. 0. 0. 0. 0. 0. 0. 0. 0. 0. 0. 0. 0. 0.
      0. 0. 0. 8.69565178e-03 0. 8.69565178e-03 8.69565178e-03 0.
      2.60869563e-02 0. 0. 0. 0. 0. 0. 0. 0. 0. 0. 0. 0. 0. 0. 0. 0. 0.
      0. 0. 0. 0. 0. 0. 8.69565178e-03 0. 0. 0. 0. 0. 0. 0. 0. 0. 0.
      1.73913036e-02 0. 8.69565178e-03 0. 0. 0. 0. 0. 8.69565178e-03 0.
      0. 0. 0. 0. 0. 0. 0. 0. 0. 0. 0. 0. 0. 0. 0. 0. 0. 0. 0. 0. 0. 0.
      0. 0. 0. 0. 0. 0. 0. 0. 0. 0. 0. 0. 0. 0. 0. 0. 0. 0. 0. 0. 0. 0.
      0. 0. 0. 0. 0. 0. 0. 0. 0. 0. 8.69565178e-03 0. 0. 0. 0. 0.
      8.69565178e-03 0. 8.69565178e-03 0. 0. 0. 0. 8.69565178e-03 0. 0.
      0. 0. 0. 0. 0. 0. 0. 0. 0. 0. 0. 0. 0. 0. 0. 0. 0. 0. 0. 0. 0. 0.
      0. 0. 0. 0. 0. 0. 0. 0. 8.69565178e-03 0. 0. 0. 8.69565178e-03 0.
      0. 0. 8.69565178e-03 0. 0. 0. 0. 0. 0. 0. 0. 0. 0. 0. 0. 0. 0. 0.
      0. 0. 0. 0. 0. 0. 8.69565178e-03 0. 0. 0. 0. 8.69565178e-03 0. 0.
      0. 0. 0. 0. 0. 0. 0. 0. 0. 0. 0. 0. 0. 0. 0. 0. 0. 0. 0. 0. 0. 0.
      0. 0. 0. 0. 0. 0. 0. 0. 0. 0. 0. 0. 0. 0. 0. 0. 0. 0. 0. 0. 0. 0.
      0. 0. 0. 0. 0. 0. 0. 0. 0. 0. 0. 0. 8.69565178e-03 0. 0. 0. 0. 0.
      0. 8.69565178e-03 0. 0. 0. 0. 0. 0. 0. 0. 0. 0. 0. 0. 0. 0. 0. 0.
      0. 0. 0. 0. 0. 8.69565178e-03 0. 8.69565178e-03 0. 0. 0. 0. 0. 0.
      0. 8.69565178e-03 0. 0. 0. 0. 0. 0. 0. 0. 0. 2.60869563e-02 0. 0.
      0. 0. 0. 0. 0. 0. 0. 2.60869563e-02 0. 0. 0. 0. 0. 8.69565178e-03
      0. 0. 1.73913036e-02 0. 0. 0. 0. 0. 0. 0. 8.69565178e-03 0. 0.
      8.69565178e-03 0. 0. 1.73913036e-02 0. 0. 0. 0. 0. 0. 0. 0. 0. 0.
      8.69565178e-03 0. 0. 0. 0. 0. 8.69565178e-03 0. 0. 0. 0.
      1.73913036e-02 0.</_>
    <_>
      0. 0. 0. 8.77192989e-03 0. 0. 0. 0. 1.75438598e-02 0. 0. 0. 0. 0.
      0. 1.75438598e-02 0. 0. 0. 0. 0. 0. 0. 8.77192989e-03 0. 0. 0. 0.
      0. 0. 0. 0. 0. 0. 0. 0. 0. 0. 0. 0. 0. 0. 0. 0. 0. 0. 0. 0. 0. 0.
      0. 0. 0. 0. 0. 0. 0. 0. 8.77192989e-03 0. 0. 0. 0. 0. 0. 0. 0. 0.
      0. 0. 0. 0. 0. 0. 0. 0. 0. 0. 0. 0. 0. 8.77192989e-03 0.
      8.77192989e-03 0. 8.77192989e-03 0. 1.75438598e-02 0. 0. 0. 0. 0.
      0. 0. 0. 0. 0. 0. 0. 0. 0. 0. 0. 0. 0. 0. 0. 0. 0. 0.
      8.77192989e-03 8.77192989e-03 0. 0. 8.77192989e-03 8.77192989e-03
      0. 0. 0. 0. 0. 0. 0. 0. 0. 0. 0. 0. 0. 0. 0. 8.77192989e-03 0. 0.
      0. 0. 0. 0. 0. 0. 0. 0. 0. 0. 0. 0. 0. 0. 0. 0. 0. 0.
      8.77192989e-03 0. 0. 0. 0. 0. 0. 0. 0. 0. 0. 0. 0. 0. 0. 0. 0. 0.
      0. 0. 0. 0. 0. 0. 0. 0. 0. 0. 0. 0. 0. 0. 0. 0. 0. 0. 0. 0. 0. 0.
      0. 0. 0. 0. 0. 0. 0. 0. 0. 0. 0. 0. 0. 0. 0. 0. 0. 0. 0. 0. 0. 0.
      0. 1.75438598e-02 0. 0. 0. 0. 0. 0. 0. 0. 0. 0. 0. 0. 0. 0. 0.
      8.77192989e-03 0. 0. 0. 0. 0. 0. 0. 0. 0. 0. 0. 8.77192989e-03 0.
      0. 1.75438598e-02 0. 0. 0. 0. 0. 8.77192989e-03 0. 0. 0. 0. 0. 0.
      0. 0. 0. 0. 0. 0. 0. 1.75438598e-02 0. 0. 0. 0. 0. 0. 0. 0. 0.
      8.77192989e-03 0. 0. 0. 0. 0. 0. 0. 0. 0. 8.77192989e-03
      1.75438598e-02 0. 0. 0. 0. 0. 0. 0. 0. 0. 0. 0. 0. 0.
      2.63157897e-02 0. 0. 0. 0. 0. 0. 0. 0. 0. 0. 0. 0. 8.77192989e-03
      0. 0. 0. 0. 0. 0. 0. 0. 0. 0. 8.77192989e-03 0. 0. 0. 0. 0. 0. 0.
      0. 0. 0. 0. 0. 0. 0. 0. 0. 0. 0. 0. 0. 0. 0. 0. 0. 8.77192989e-03
      0. 0. 0. 0. 8.77192989e-03 0. 0. 0. 0. 0. 0. 0. 0. 0. 0. 0. 0. 0.
      0. 0. 0. 0. 0. 0. 0. 0. 0. 0. 0. 0. 0. 0. 0. 0. 0. 0. 0. 0. 0. 0.
      0. 0. 0. 0. 0. 8.77192989e-03 0. 0. 0. 0. 0. 0. 0. 8.77192989e-03
      0. 0. 0. 0. 0. 0. 8.77192989e-03 0. 0. 0. 0. 0. 0. 0. 0. 0. 0. 0.
      0. 0. 0. 0. 0. 0. 0. 0. 0. 0. 0. 0. 8.77192989e-03 0. 0. 0.
      8.77192989e-03 0. 0. 0. 0. 0. 0. 0. 0. 0. 0. 0. 0. 0. 0. 0. 0. 0.
      0. 0. 0. 8.77192989e-03 0. 0. 0. 0. 0. 0. 0. 8.77192989e-03 0. 0.
      8.77192989e-03 0. 0. 0. 0. 0. 8.77192989e-03 0. 0. 0. 0. 0. 0. 0.
      0. 0. 0. 0. 0. 0. 0. 1.75438598e-02 0. 0. 0. 1.75438598e-02
      8.77192989e-03 0. 0. 0. 1.75438598e-02 0. 0. 0. 0. 0.
      1.75438598e-02 0. 0. 0. 0. 0. 1.75438598e-02 0. 0. 8.77192989e-03
      8.77192989e-03 0. 0. 0. 0. 0. 0. 0. 0. 0. 8.77192989e-03 0. 0. 0.
      0. 0. 0. 0. 0. 0. 0. 0. 0. 0. 0. 0. 8.77192989e-03 8.77192989e-03
      0. 0. 0. 0. 0. 0. 8.77192989e-03 0. 0. 8.77192989e-03 0. 0.
      8.77192989e-03 0. 0. 0. 1.75438598e-02 0. 0. 0. 0. 0. 0. 0. 0. 0.
      0. 0. 0. 0. 0. 0. 0. 0. 0. 0. 1.75438598e-02 8.77192989e-03
      8.77192989e-03 0. 0. 0. 0. 0. 0. 0. 0. 0. 0. 0. 0. 0. 0. 0. 0. 0.
      0. 0. 0. 0. 0. 0. 0. 0. 0. 0. 0. 0. 0. 0. 0. 0. 0. 0. 0. 0. 0. 0.
      0. 0. 0. 0. 0. 0. 0. 0. 0. 0. 0. 0. 0. 0. 0. 0. 0. 0. 0. 0. 0. 0.
      0. 0. 0. 0. 8.77192989e-03 0. 8.77192989e-03 8.77192989e-03 0.
      8.77192989e-03 0. 0. 0. 0. 0. 0. 0. 0. 0. 0. 0. 0. 0. 0. 0. 0. 0.
      0. 8.77192989e-03 0. 0. 0. 0. 8.77192989e-03 0. 0. 0. 0. 0. 0. 0.
      0. 0. 0. 1.75438598e-02 0. 0. 0. 0. 0. 0. 0. 8.77192989e-03 0. 0.
      0. 0. 0. 0. 0. 0. 0. 0. 0. 0. 0. 0. 0. 0. 0. 8.77192989e-03 0. 0.
      0. 0. 0. 0. 0. 0. 0. 0. 0. 0. 0. 0. 0. 0. 0. 0. 0. 0. 0. 0. 0. 0.
      0. 0. 0. 0. 0. 0. 0. 0. 0. 0. 0. 0. 0. 8.77192989e-03 0. 0. 0. 0.
      0. 8.77192989e-03 0. 8.77192989e-03 0. 8.77192989e-03 0. 0.
      8.77192989e-03 0. 0. 0. 0. 0. 0. 0. 0. 0. 8.77192989e-03 0. 0. 0.
      0. 0. 0. 0. 0. 0. 0. 0. 0. 0. 0. 0. 8.77192989e-03 0. 0. 0. 0. 0.
      0. 8.77192989e-03 0. 0. 0. 8.77192989e-03 0. 0. 0. 8.77192989e-03
      0. 0. 0. 0. 0. 0. 0. 0. 0. 0. 0. 0. 0. 0. 0. 0. 0. 0. 0. 0. 0.
      8.77192989e-03 0. 0. 0. 0. 1.75438598e-02 0. 0. 0. 0. 0. 0. 0. 0.
      0. 0. 0. 0. 0. 0. 0. 0. 0. 0. 0. 0. 0. 0. 0. 0. 0. 0. 0. 0. 0. 0.
      0. 0. 0. 0. 0. 0. 0. 0. 0. 0. 0. 0. 0. 0. 0. 0. 0. 0. 0. 0. 0. 0.
      0. 0. 0. 0. 0. 0. 8.77192989e-03 0. 0. 8.77192989e-03 0. 0. 0. 0.
      0. 0. 0. 0. 0. 0. 0. 0. 0. 0. 0. 0. 0. 0. 0. 0. 0. 0. 0. 0. 0. 0.
      0. 0. 0. 0. 0. 0. 0. 0. 0. 8.77192989e-03 0. 0. 0. 0. 0. 0. 0. 0.
      0. 2.63157897e-02 0. 0. 0. 0. 0. 8.77192989e-03 0. 0. 0.
      2.63157897e-02 0. 0. 0. 0. 0. 8.77192989e-03 0. 0. 1.75438598e-02
      0. 0. 0. 0. 0. 0. 0. 8.77192989e-03 0. 0. 8.77192989e-03 0. 0. 0.
      0. 0. 0. 0. 0. 0. 0. 0. 0. 0. 0. 0. 0. 0. 0. 0. 1.75438598e-02 0.
      0. 0. 0. 1.75438598e-02 0.</_>
    <_>
      0. 0. 0. 9.43396240e-03 0. 0. 0. 0. 1.88679248e-02 0. 0. 0. 0. 0.
      0. 9.43396240e-03 0. 0. 0. 0. 0. 0. 0. 9.43396240e-03 0. 0. 0. 0.
      0. 0. 0. 0. 0. 0. 0. 0. 0. 0. 9.43396240e-03 0. 0. 0. 0.
      9.43396240e-03 0. 0. 0. 1.88679248e-02 0. 0. 0. 0. 0. 0. 0. 0. 0.
      0. 0. 0. 0. 0. 0. 0. 0. 0. 0. 0. 0. 0. 0. 0. 9.43396240e-03 0. 0.
      0. 0. 0. 0. 0. 0. 0. 0. 0. 0. 0. 0. 9.43396240e-03 0. 0. 0. 0. 0.
      0. 0. 0. 0. 0. 0. 0. 0. 0. 0. 0. 9.43396240e-03 0. 9.43396240e-03
      0. 0. 0. 0. 9.43396240e-03 0. 0. 0. 0. 0. 0. 0. 0. 0. 0. 0. 0. 0.
      0. 0. 0. 0. 0. 0. 0. 0. 0. 0. 0. 0. 0. 9.43396240e-03 0. 0. 0. 0.
      0. 0. 0. 0. 0. 0. 9.43396240e-03 0. 0. 0. 9.43396240e-03 0. 0. 0.
      0. 0. 0. 0. 0. 0. 0. 0. 0. 0. 0. 0. 0. 0. 0. 0. 0. 0. 0. 0. 0. 0.
      0. 0. 9.43396240e-03 0. 0. 0. 0. 0. 0. 0. 0. 0. 0. 0. 0. 0. 0. 0.
      0. 0. 0. 0. 0. 0. 0. 0. 0. 0. 0. 0. 0. 0. 0. 0. 0. 0. 0.
      9.43396240e-03 0. 0. 0. 0. 0. 0. 0. 0. 0. 0. 0. 0. 0. 0. 0.
      9.43396240e-03 0. 0. 0. 0. 0. 0. 0. 0. 0. 0. 0. 9.43396240e-03 0.
      0. 9.43396240e-03 0. 0. 0. 0. 0. 9.43396240e-03 0. 0. 0. 0. 0. 0.
      0. 0. 0. 0. 0. 0. 0. 0. 0. 0. 0. 0. 0. 0. 0. 0. 0. 0. 0. 0. 0. 0.
      0. 0. 0. 0. 0. 9.43396240e-03 9.43396240e-03 0. 0. 0. 0. 0. 0. 0.
      0. 0. 0. 0. 0. 0. 1.88679248e-02 0. 0. 0. 0. 0. 0. 0. 0. 0. 0. 0.
      0. 0. 0. 0. 0. 0. 0. 0. 0. 0. 0. 0. 0. 0. 0. 0. 0. 0. 0. 0. 0. 0.
      0. 0. 0. 0. 0. 0. 0. 0. 0. 0. 0. 0. 0. 0. 0. 9.43396240e-03 0. 0.
      0. 0. 9.43396240e-03 0. 0. 0. 0. 0. 0. 0. 0. 0. 0. 0. 0. 0. 0. 0.
      0. 0. 0. 0. 0. 0. 0. 0. 0. 0. 0. 0. 0. 0. 0. 0. 0. 0. 0. 0. 0. 0.
      0. 0. 0. 0. 0. 0. 9.43396240e-03 9.43396240e-03 0. 0. 0. 0. 0. 0.
      0. 0. 0. 0. 0. 0. 0. 0. 0. 0. 0. 0. 0. 0. 0. 0. 0. 0. 0. 0. 0. 0.
      9.43396240e-03 0. 0. 0. 0. 0. 0. 0. 0. 0. 9.43396240e-03 0. 0. 0.
      0. 0. 0. 0. 0. 0. 0. 0. 0. 0. 0. 9.43396240e-03 0. 0. 0. 0. 0. 0.
      0. 0. 0. 0. 0. 0. 0. 9.43396240e-03 0. 0. 0. 0. 0. 0. 0. 0.
      9.43396240e-03 0. 0. 0. 0. 0. 0. 0. 1.88679248e-02 9.43396240e-03
      0. 0. 0. 0. 0. 2.83018872e-02 9.43396240e-03 0. 0. 1.88679248e-02
      9.43396240e-03 0. 0. 9.43396240e-03 9.43396240e-03 0. 0. 0. 0. 0.
      1.88679248e-02 0. 0. 0. 0. 0. 0. 0. 9.43396240e-03 9.43396240e-03
      9.43396240e-03 0. 0. 0. 0. 0. 0. 0. 0. 0. 1.88679248e-02 0. 0. 0.
      0. 0. 0. 0. 0. 0. 0. 0. 0. 0. 0. 0. 9.43396240e-03 0. 0. 0. 0. 0.
      0. 0. 9.43396240e-03 0. 9.43396240e-03 9.43396240e-03 0. 0.
      9.43396240e-03 0. 0. 0. 9.43396240e-03 0. 9.43396240e-03 0. 0. 0.
      0. 9.43396240e-03 0. 0. 9.43396240e-03 0. 0. 0. 0. 0. 0. 0. 0. 0.
      9.43396240e-03 9.43396240e-03 0. 0. 0. 0. 0. 0. 0. 0. 0. 0. 0. 0.
      0. 0. 0. 0. 0. 0. 0. 0. 0. 0. 0. 0. 0. 0. 0. 0. 0. 0. 0. 0. 0. 0.
      0. 0. 0. 0. 0. 0. 0. 0. 0. 0. 0. 0. 0. 0. 0. 0. 0. 0. 0. 0. 0. 0.
      0. 0. 0. 0. 0. 0. 0. 0. 0. 0. 9.43396240e-03 0. 9.43396240e-03
      9.43396240e-03 0. 1.88679248e-02 0. 0. 0. 0. 0. 0. 0. 0. 0.
      9.43396240e-03 0. 0. 0. 0. 0. 0. 0. 0. 0. 0. 0. 0. 0.
      9.43396240e-03 0. 0. 0. 0. 0. 0. 0. 0. 0. 0. 1.88679248e-02 0. 0.
      0. 0. 0. 0. 0. 9.43396240e-03 0. 0. 0. 0. 0. 0. 0. 0. 0. 0. 0. 0.
      0. 0. 0. 0. 0. 0. 0. 0. 0. 0. 0. 0. 0. 0. 0. 0. 0. 0. 0. 0. 0. 0.
      0. 0. 0. 0. 0. 0. 0. 0. 0. 0. 0. 0. 0. 0. 0. 0. 0. 0. 0. 0. 0.
      9.43396240e-03 0. 0. 0. 0. 0. 9.43396240e-03 0. 0. 9.43396240e-03
      0. 0. 0. 9.43396240e-03 0. 0. 0. 0. 0. 0. 0. 0. 0. 9.43396240e-03
      0. 0. 0. 0. 0. 0. 0. 0. 0. 0. 0. 0. 0. 0. 0. 0. 0. 0. 0. 0. 0. 0.
      9.43396240e-03 0. 0. 0. 0. 0. 0. 0. 9.43396240e-03 0. 0. 0. 0. 0.
      0. 0. 0. 0. 0. 0. 0. 0. 0. 0. 0. 0. 0. 0. 0. 0. 9.43396240e-03 0.
      0. 0. 0. 9.43396240e-03 9.43396240e-03 0. 0. 0. 0. 0. 0. 0. 0. 0.
      0. 0. 0. 0. 0. 0. 1.88679248e-02 0. 0. 0. 0. 0. 0. 0. 0. 0. 0. 0.
      0. 0. 0. 0. 0. 0. 0. 0. 0. 0. 0. 0. 0. 0. 0. 0. 0. 0. 0. 0. 0. 0.
      0. 0. 0. 0. 0. 0. 0. 0. 9.43396240e-03 0. 0. 0. 0. 0. 0. 0. 0. 0.
      0. 0. 0. 0. 0. 0. 0. 0. 0. 0. 0. 0. 0. 0. 0. 0. 0. 0. 0. 0. 0. 0.
      0. 0. 0. 0. 0. 0. 0. 0. 0. 0. 0. 0. 0. 0. 0. 0. 0. 9.43396240e-03
      0. 0. 9.43396240e-03 0. 0. 9.43396240e-03 0. 9.43396240e-03 0.
      3.77358496e-02 0. 0. 0. 0. 0. 9.43396240e-03 0. 0. 1.88679248e-02
      0. 0. 0. 0. 0. 0. 0. 9.43396240e-03 0. 0. 0. 0. 0. 9.43396240e-03
      0. 0. 0. 9.43396240e-03 0. 0. 0. 0. 0. 0. 9.43396240e-03 0. 0. 0.
      0. 0. 0. 0. 0. 0. 0. 1.88679248e-02 0.</_>
    <_>
      0. 0. 0. 0. 0. 0. 0. 0. 2.22222228e-02 0. 0. 0. 0. 0. 0. 0.
      2.22222228e-02 0. 0. 0. 0. 0. 0. 2.22222228e-02 0. 0. 0. 0. 0. 0.
      0. 0. 0. 0. 0. 0. 0. 0. 0. 0. 0. 0. 0. 0. 0. 0. 0. 0. 0. 0. 0. 0.
      0. 0. 0. 0. 0. 0. 0. 0. 0. 0. 0. 0. 0. 0. 2.22222228e-02 0. 0. 0.
      0. 0. 0. 0. 0. 0. 0. 0. 0. 0. 0. 0. 0. 0. 0. 0. 0. 0. 0. 0. 0.
      2.22222228e-02 0. 0. 0. 0. 0. 0. 0. 0. 0. 0. 0. 0. 2.22222228e-02
      0. 0. 0. 0. 0. 0. 2.22222228e-02 0. 0. 0. 0. 0. 0. 0. 0. 0. 0. 0.
      0. 0. 0. 0. 0. 0. 0. 0. 0. 2.22222228e-02 0. 0. 0. 0. 0.
      2.22222228e-02 0. 0. 0. 0. 0. 0. 0. 0. 0. 0. 0. 0. 0. 0. 0. 0. 0.
      0. 0. 0. 0. 0. 0. 0. 0. 0. 0. 0. 0. 0. 0. 0. 0. 0. 0. 0. 0. 0. 0.
      0. 0. 0. 0. 0. 0. 0. 0. 0. 0. 0. 0. 0. 0. 0. 0. 0. 0. 0. 0. 0. 0.
      0. 0. 0. 0. 0. 0. 0. 0. 0. 0. 0. 0. 0. 0. 0. 0. 4.44444455e-02 0.
      0. 0. 0. 0. 0. 0. 0. 0. 0. 0. 0. 0. 0. 0. 0. 0. 0. 0. 0. 0. 0. 0.
      0. 0. 0. 2.22222228e-02 0. 0. 0. 2.22222228e-02 0. 0. 0. 0. 0.
      2.22222228e-02 0. 0. 0. 0. 0. 0. 0. 0. 0. 0. 0. 2.22222228e-02 0.
      0. 0. 0. 0. 0. 0. 0. 0. 0. 0. 0. 0. 0. 0. 0. 0. 0. 0. 0. 0. 0.
      2.22222228e-02 0. 0. 0. 0. 0. 0. 0. 0. 0. 0. 0. 0. 0. 0. 0. 0. 0.
      0. 0. 0. 0. 0. 0. 0. 0. 0. 0. 0. 0. 0. 0. 0. 0. 0. 0. 0. 0. 0. 0.
      0. 0. 0. 0. 0. 0. 0. 0. 0. 0. 0. 0. 0. 0. 0. 0. 0. 0. 0. 0. 0. 0.
      0. 0. 0. 0. 0. 0. 0. 0. 0. 0. 0. 0. 0. 0. 0. 0. 0. 0. 0. 0. 0. 0.
      0. 0. 0. 0. 0. 0. 0. 0. 0. 0. 0. 0. 0. 0. 0. 0. 0. 0. 0. 0. 0. 0.
      0. 0. 0. 0. 0. 0. 0. 0. 2.22222228e-02 0. 0. 0. 0. 0. 0. 0. 0. 0.
      0. 0. 0. 0. 0. 0. 0. 0. 0. 0. 0. 0. 0. 0. 0. 0. 0. 0. 0. 0. 0. 0.
      0. 0. 0. 0. 0. 0. 0. 0. 0. 0. 0. 0. 0. 0. 0. 0. 0. 0. 0. 0. 0. 0.
      0. 2.22222228e-02 0. 0. 0. 0. 0. 0. 0. 0. 0. 0. 0. 0. 0. 0. 0. 0.
      0. 0. 0. 0. 0. 0. 0. 0. 0. 0. 0. 0. 0. 2.22222228e-02 0. 0. 0. 0.
      0. 0. 0. 2.22222228e-02 0. 0. 0. 0. 0. 0. 0. 0. 0. 0. 0. 0. 0. 0.
      0. 0. 0. 0. 0. 0. 0. 0. 0. 0. 0. 0. 0. 0. 0. 0. 0. 0. 0. 0. 0. 0.
      0. 0. 0. 0. 0. 0. 0. 0. 0. 0. 0. 0. 2.22222228e-02 0. 0. 0.
      2.22222228e-02 0. 0. 0. 0. 0. 0. 0. 0. 0. 0. 0. 0. 0.
      4.44444455e-02 0. 2.22222228e-02 0. 0. 0. 0. 0. 0. 0.
      2.22222228e-02 0. 0. 0. 0. 0. 0. 0. 0. 0. 2.22222228e-02
      2.22222228e-02 0. 0. 0. 0. 4.44444455e-02 2.22222228e-02 0. 0. 0.
      0. 0. 0. 0. 0. 0. 0. 0. 0. 0. 0. 0. 0. 0. 0. 0. 0. 0. 0. 0. 0. 0.
      0. 0. 0. 0. 0. 0. 0. 0. 0. 0. 0. 0. 0. 0. 0. 0. 0. 0. 0. 0. 0. 0.
      0. 0. 0. 0. 0. 0. 0. 0. 0. 0. 0. 0. 0. 2.22222228e-02 0. 0. 0. 0.
      2.22222228e-02 0. 0. 0. 0. 0. 0. 0. 0. 0. 0. 0. 0. 0. 0. 0. 0. 0.
      0. 0. 0. 0. 0. 2.22222228e-02 2.22222228e-02 0. 0. 0. 0. 0. 0. 0.
      0. 0. 0. 0. 0. 0. 0. 0. 0. 0. 0. 2.22222228e-02 0. 0. 0. 0. 0. 0.
      0. 0. 0. 0. 0. 0. 0. 0. 0. 0. 0. 0. 0. 0. 0. 0. 0. 0. 0. 0. 0. 0.
      0. 0. 0. 0. 0. 0. 0. 0. 0. 0. 0. 0. 0. 0. 0. 0. 0. 0. 0. 0. 0. 0.
      0. 0. 0. 0. 0. 0. 0. 0. 0. 0. 0. 0. 0. 0. 2.22222228e-02 0. 0. 0.
      0. 0. 0. 0. 0. 0. 0. 0. 0. 0. 0. 0. 0. 0. 0. 0. 0. 0. 0. 0. 0. 0.
      0. 0. 0. 0. 2.22222228e-02 0. 0. 0. 0. 0. 0. 0. 0. 0. 0. 0. 0.
      2.22222228e-02 0. 0. 0. 0. 0. 0. 0. 0. 0. 0. 0. 0. 0. 0. 0. 0. 0.
      0. 0. 0. 0. 0. 0. 0. 0. 0. 0. 0. 0. 2.22222228e-02 0. 0. 0. 0. 0.
      0. 0. 0. 0. 0. 0. 0. 0. 0. 0. 0. 0. 0. 0. 0. 0. 0. 0. 0. 0. 0. 0.
      0. 0. 0. 0. 0. 2.22222228e-02 0. 0. 0. 0. 0. 0. 0. 0. 0. 0. 0. 0.
      0. 0. 0. 0. 0. 0. 0. 0. 0. 0. 0. 0. 0. 0. 0. 0. 0. 0. 0. 0. 0. 0.
      0. 0. 0. 0. 0. 0. 0. 0. 0. 0. 0. 2.22222228e-02 0. 0. 0. 0. 0. 0.
      0. 0. 0. 0. 0. 0. 0. 0. 0. 0. 0. 0. 0. 0. 0. 0. 0. 0. 0. 0. 0. 0.
      0. 0. 0. 0. 0. 0. 0. 2.22222228e-02 0. 0. 0. 0. 0. 0. 0. 0. 0. 0.
      0. 0. 0. 0. 0. 0. 0. 0. 0. 0. 0. 0. 0. 0. 0. 0. 0. 0. 0. 0. 0. 0.
      0. 0. 0. 2.22222228e-02 0. 0. 0. 0. 0. 2.22222228e-02 0. 0. 0. 0.
      0. 0.</_>
    <_>
      0. 0. 0. 0. 0. 0. 0. 0. 0. 0. 0. 1.28205130e-02 0. 0. 0.
      1.28205130e-02 0. 0. 0. 0. 0. 0. 1.28205130e-02 0. 0. 0. 0. 0. 0.
      0. 0. 0. 0. 0. 0. 0. 0. 0. 0. 0. 0. 1.28205130e-02 0. 0.
      1.28205130e-02 0. 0. 0. 0. 0. 1.28205130e-02 1.28205130e-02
      1.28205130e-02 0. 0. 0. 0. 0. 0. 0. 0. 0. 0. 0. 0. 0.
      1.28205130e-02 0. 0. 0. 0. 0. 0. 0. 2.56410260e-02 0. 0. 0. 0. 0.
      0. 0. 0. 0. 0. 0. 0. 0. 0. 0. 0. 0. 0. 0. 0. 1.28205130e-02 0. 0.
      0. 0. 0. 0. 0. 0. 1.28205130e-02 0. 1.28205130e-02 0. 0. 0. 0. 0.
      0. 0. 0. 0. 0. 0. 0. 0. 0. 0. 0. 0. 0. 0. 0. 1.28205130e-02 0. 0.
      0. 0. 0. 0. 0. 0. 0. 1.28205130e-02 0. 0. 0. 0. 0. 0. 0. 0. 0. 0.
      0. 0. 0. 0. 0. 0. 0. 1.28205130e-02 0. 0. 0. 0. 0. 0. 0. 0. 0. 0.
      0. 0. 0. 0. 0. 0. 0. 0. 0. 0. 0. 0. 0. 0. 0. 0. 0. 0. 0. 0. 0. 0.
      0. 0. 0. 0. 0. 0. 0. 0. 0. 0. 0. 1.28205130e-02 0. 0. 0. 0. 0.
      1.28205130e-02 0. 0. 0. 0. 0. 1.28205130e-02 0. 0. 0. 0.
      1.28205130e-02 0. 0. 0. 0. 0. 0. 0. 0. 0. 0. 0. 0. 0. 0. 0.
      1.28205130e-02 0. 0. 0. 0. 0. 0. 0. 0. 0. 1.28205130e-02 0.
      1.28205130e-02 0. 0. 1.28205130e-02 2.56410260e-02 0.
      1.28205130e-02 0. 0. 0. 0. 0. 0. 0. 0. 0. 0. 0. 0. 0. 0. 0. 0. 0.
      0. 0. 0. 0. 0. 0. 0. 0. 0. 0. 0. 0. 0. 0. 0. 0. 0. 0. 0. 0. 0. 0.
      1.28205130e-02 0. 0. 0. 0. 0. 0. 0. 0. 0. 0. 0. 0. 0. 0. 0. 0. 0.
      0. 0. 0. 0. 0. 0. 0. 0. 0. 0. 0. 0. 0. 0. 0. 0. 0. 0. 0. 0. 0. 0.
      0. 0. 0. 0. 0. 0. 0. 0. 0. 2.56410260e-02 0. 0. 0. 0. 0. 0. 0. 0.
      0. 0. 0. 0. 0. 0. 0. 1.28205130e-02 0. 0. 0. 0. 0. 0. 0. 0. 0. 0.
      0. 0. 0. 0. 0. 0. 0. 0. 0. 0. 0. 0. 0. 0. 0. 0. 0. 0.
      1.28205130e-02 0. 0. 0. 0. 0. 0. 0. 0. 0. 0. 0. 0. 0. 0. 0. 0. 0.
      0. 0. 0. 1.28205130e-02 0. 0. 0. 0. 0. 0. 0. 0. 0. 0. 0. 0. 0. 0.
      0. 0. 0. 0. 0. 0. 0. 0. 0. 0. 0. 0. 0. 0. 0. 0. 0. 0. 0.
      1.28205130e-02 0. 0. 0. 0. 0. 0. 0. 0. 1.28205130e-02 0. 0. 0. 0.
      0. 0. 0. 0. 0. 0. 0. 0. 0. 0. 0. 0. 0. 1.28205130e-02 0. 0. 0. 0.
      0. 0. 0. 0. 0. 0. 0. 0. 0. 0. 0. 1.28205130e-02 0. 0. 0.
      1.28205130e-02 0. 0. 0. 0. 0. 0. 0. 0. 0. 0. 0. 2.56410260e-02 0.
      0. 0. 0. 0. 0. 2.56410260e-02 1.28205130e-02 0. 0. 0. 0. 0. 0. 0.
      0. 0. 1.28205130e-02 0. 0. 0. 0. 0. 0. 0. 0. 0. 0. 0. 0. 0. 0. 0.
      0. 0. 0. 0. 0. 0. 1.28205130e-02 0. 0. 0. 0. 0. 0. 0. 0.
      1.28205130e-02 0. 0. 0. 0. 1.28205130e-02 0. 0. 0. 0. 0. 0. 0. 0.
      1.28205130e-02 0. 0. 1.28205130e-02 0. 0. 0. 0. 0. 0. 0.
      1.28205130e-02 0. 0. 0. 0. 0. 0. 0. 0. 0. 0. 1.28205130e-02 0. 0.
      0. 0. 0. 0. 0. 0. 0. 0. 0. 0. 0. 0. 0. 0. 0. 0. 0. 0. 0. 0. 0. 0.
      0. 0. 0. 0. 0. 0. 0. 0. 0. 0. 0. 0. 0. 0. 0. 0. 0. 0. 0. 0. 0. 0.
      0. 0. 1.28205130e-02 0. 0. 0. 0. 0. 0. 0. 0. 0. 0. 0. 0. 0. 0. 0.
      0. 0. 0. 0. 0. 0. 0. 0. 0. 0. 0. 0. 0. 0. 0. 0. 0. 0. 0. 0. 0. 0.
      0. 0. 0. 0. 0. 0. 0. 1.28205130e-02 1.28205130e-02 0. 0. 0. 0. 0.
      0. 0. 0. 0. 0. 0. 0. 0. 2.56410260e-02 0. 0. 0. 0. 0. 0. 0. 0. 0.
      0. 0. 0. 0. 0. 0. 0. 0. 0. 0. 0. 0. 1.28205130e-02 0.
      1.28205130e-02 0. 0. 0. 0. 0. 0. 1.28205130e-02 0. 0. 0. 0. 0. 0.
      0. 0. 0. 0. 0. 0. 0. 0. 0. 0. 0. 0. 0. 0. 0. 0. 0. 0. 0. 0. 0. 0.
      0. 1.28205130e-02 0. 0. 0. 0. 0. 0. 0. 2.56410260e-02 0. 0. 0. 0.
      0. 0. 0. 1.28205130e-02 0. 0. 0. 0. 0. 1.28205130e-02 0. 0. 0. 0.
      0. 0. 0. 0. 0. 0. 0. 0. 0. 0. 0. 0. 1.28205130e-02 0. 0. 0. 0. 0.
      0. 0. 0. 0. 0. 0. 0. 0. 0. 0. 0. 0. 0. 0. 0. 0. 0. 0. 0. 0. 0. 0.
      0. 0. 0. 0. 0. 0. 0. 0. 0. 0. 0. 0. 0. 0. 1.28205130e-02 0.
      1.28205130e-02 0. 0. 0. 0. 0. 0. 0. 0. 0. 0. 0. 0. 0. 0. 0. 0. 0.
      0. 0. 0. 0. 0. 0. 0. 0. 0. 0. 1.28205130e-02 0. 0. 0. 0. 0. 0. 0.
      0. 0. 0. 0. 0. 0. 0. 0. 0. 0. 0. 0. 0. 0. 0. 0. 0. 0. 0. 0. 0. 0.
      0. 0. 0. 0. 0. 0. 0. 0. 0. 2.56410260e-02 0. 0. 0. 0. 0. 0. 0. 0.
      0. 0. 0. 0. 0. 0. 1.28205130e-02 0. 0. 0. 0. 0. 0. 0. 0. 0. 0. 0.
      0. 0. 0. 0. 0. 0. 0. 0. 0. 0. 0. 0. 1.28205130e-02 0. 0. 0. 0. 0.
      0. 0. 0. 0. 0. 0. 0. 0. 0. 0. 0. 0. 0. 0. 0. 0. 0. 0. 0.
      1.28205130e-02 2.56410260e-02 0. 0. 0. 0. 0. 0. 0. 0. 0. 0. 0. 0.
      0. 0. 0. 0. 0. 0. 1.28205130e-02 0. 0. 0. 0. 0. 1.28205130e-02 0.
      0. 0. 0. 0. 0.</_>
    <_>
      0. 0. 0. 0. 0. 0. 0. 0. 0. 0. 0. 0. 0. 0. 0. 1.25000002e-02 0. 0.
      0. 0. 0. 0. 1.25000002e-02 1.25000002e-02 0. 0. 0. 0. 0. 0.
      1.25000002e-02 0. 0. 0. 0. 0. 0. 0. 0. 0. 0. 0. 0. 0. 0. 0. 0. 0.
      0. 0. 0. 0. 0. 0. 0. 0. 0. 0. 0. 0. 0. 0. 0. 0. 0. 0. 0. 0. 0. 0.
      0. 0. 0. 0. 3.75000015e-02 0. 0. 0. 0. 0. 0. 0. 0. 0. 0. 0. 0. 0.
      0. 0. 0. 0. 0. 0. 0. 1.25000002e-02 0. 0. 0. 0. 0. 0. 0. 0. 0. 0.
      0. 0. 0. 0. 0. 0. 0. 0. 0. 0. 1.25000002e-02 0. 0. 0. 0. 0. 0. 0.
      0. 0. 0. 1.25000002e-02 0. 0. 0. 0. 1.25000002e-02 0. 0. 0. 0. 0.
      0. 0. 0. 0. 0. 0. 0. 0. 0. 0. 0. 0. 0. 0. 0. 1.25000002e-02 0.
      2.50000004e-02 0. 0. 0. 0. 0. 0. 0. 0. 0. 0. 0. 0. 0. 0. 0. 0. 0.
      1.25000002e-02 0. 0. 0. 0. 0. 0. 0. 0. 0. 0. 0. 0. 0. 0. 0. 0. 0.
      0. 0. 0. 0. 0. 0. 0. 0. 0. 0. 0. 0. 0. 0. 1.25000002e-02 0. 0. 0.
      0. 0. 0. 0. 0. 0. 0. 1.25000002e-02 0. 0. 1.25000002e-02 0. 0. 0.
      0. 0. 0. 0. 0. 0. 0. 0. 0. 2.50000004e-02 0. 0. 0. 0. 0. 0. 0. 0.
      0. 1.25000002e-02 1.25000002e-02 1.25000002e-02 0. 0.
      1.25000002e-02 1.25000002e-02 0. 1.25000002e-02 0. 0. 0. 0. 0. 0.
      0. 0. 0. 0. 0. 0. 0. 0. 0. 0. 0. 0. 0. 0. 0. 0. 1.25000002e-02 0.
      0. 0. 0. 0. 0. 0. 0. 0. 0. 0. 0. 0. 0. 0. 0. 0. 0. 0. 0. 0. 0. 0.
      0. 0. 0. 0. 0. 1.25000002e-02 0. 0. 0. 0. 0. 0. 0. 0. 0. 0. 0. 0.
      0. 0. 0. 0. 0. 0. 0. 0. 0. 0. 0. 0. 0. 0. 0. 0. 0. 0. 0. 0. 0. 0.
      0. 0. 0. 0. 0. 0. 0. 0. 0. 0. 0. 1.25000002e-02 0. 0. 0. 0. 0. 0.
      0. 0. 0. 0. 0. 0. 0. 0. 0. 0. 0. 0. 0. 0. 0. 0. 1.25000002e-02 0.
      0. 0. 0. 0. 0. 0. 0. 0. 0. 0. 0. 1.25000002e-02 0. 0. 0. 0. 0. 0.
      0. 0. 0. 0. 0. 0. 0. 0. 0. 1.25000002e-02 0. 0. 0. 0. 0. 0. 0. 0.
      0. 0. 0. 0. 0. 0. 0. 0. 0. 0. 0. 0. 0. 0. 0. 0. 0. 0. 0. 0. 0. 0.
      0. 0. 0. 0. 0. 0. 0. 0. 2.50000004e-02 0. 0. 0. 0. 0. 0. 0. 0. 0.
      0. 0. 0. 0. 0. 0. 0. 0. 0. 0. 0. 0. 1.25000002e-02 0. 0. 0. 0.
      2.50000004e-02 0. 0. 0. 0. 0. 0. 1.25000002e-02 0. 0. 0. 0. 0. 0.
      0. 0. 0. 0. 0. 0. 0. 0. 0. 0. 0. 0. 0. 0. 0. 0. 0. 0.
      1.25000002e-02 0. 0. 0. 0. 0. 0. 0. 1.25000002e-02 0. 0. 0. 0. 0.
      0. 0. 1.25000002e-02 0. 1.25000002e-02 0. 0. 0. 0. 0.
      1.25000002e-02 0. 0. 0. 0. 0. 0. 0. 0. 0. 0. 0. 0. 0. 0. 0. 0. 0.
      0. 0. 0. 0. 0. 1.25000002e-02 0. 0. 0. 0. 0. 0. 0. 0. 0. 0. 0. 0.
      0. 0. 0. 1.25000002e-02 0. 1.25000002e-02 1.25000002e-02 0. 0. 0.
      0. 0. 0. 0. 1.25000002e-02 0. 0. 0. 0. 0. 0. 0. 0. 1.25000002e-02
      0. 2.50000004e-02 0. 0. 0. 0. 0. 0. 0. 0. 0. 0. 0. 0. 0. 0. 0. 0.
      0. 0. 0. 0. 0. 0. 0. 0. 0. 0. 0. 0. 0. 0. 0. 0. 0. 0. 0. 0. 0. 0.
      0. 0. 0. 0. 0. 0. 0. 0. 0. 0. 0. 0. 0. 0. 0. 0. 0. 0. 0. 0. 0. 0.
      0. 0. 0. 0. 0. 1.25000002e-02 0. 0. 0. 0. 0. 0. 0. 0. 0.
      1.25000002e-02 0. 0. 0. 0. 0. 0. 0. 0. 0. 0. 0. 0. 0. 0.
      2.50000004e-02 0. 0. 5.00000007e-02 0. 0. 0. 0. 0. 0. 0. 0. 0. 0.
      0. 0. 0. 0. 0. 0. 0. 0. 0. 0. 0. 0. 0. 0. 0. 0. 0. 0. 0. 0. 0. 0.
      0. 0. 0. 0. 0. 0. 1.25000002e-02 0. 0. 0. 0. 0. 0. 1.25000002e-02
      0. 0. 0. 0. 0. 0. 0. 0. 0. 0. 0. 0. 0. 0. 0. 0. 0. 0. 0. 0. 0. 0.
      0. 0. 0. 0. 0. 0. 0. 0. 0. 0. 0. 0. 0. 0. 0. 0. 0. 0. 0. 0. 0. 0.
      0. 1.25000002e-02 0. 0. 0. 0. 0. 1.25000002e-02 0. 1.25000002e-02
      0. 0. 0. 0. 0. 0. 0. 0. 0. 0. 0. 0. 0. 0. 0. 0. 0. 0. 0. 0. 0. 0.
      0. 0. 0. 0. 0. 0. 0. 0. 0. 0. 0. 0. 0. 0. 0. 0. 0. 0. 0. 0. 0.
      1.25000002e-02 0. 0. 0. 1.25000002e-02 0. 0. 0. 0. 0. 0. 0. 0.
      1.25000002e-02 0. 0. 0. 0. 0. 0. 0. 0. 0. 0. 1.25000002e-02 0. 0.
      0. 0. 0. 0. 0. 0. 0. 0. 0. 0. 0. 0. 0. 0. 1.25000002e-02 0. 0. 0.
      0. 0. 0. 0. 0. 0. 0. 0. 0. 0. 0. 0. 0. 0. 0. 0. 0. 0. 0. 0. 0. 0.
      0. 0. 0. 0. 0. 0. 0. 0. 0. 0. 0. 0. 0. 0. 0. 2.50000004e-02 0. 0.
      0. 0. 0. 0. 0. 0. 0. 1.25000002e-02 0. 0. 1.25000002e-02 0.
      1.25000002e-02 0. 0. 0. 0. 0. 0. 0. 0. 0. 0. 0. 0. 0. 0.
      1.25000002e-02 0. 0. 0. 0. 0. 0. 0. 0. 1.25000002e-02 0. 0. 0. 0.
      0. 0. 0. 0. 0. 0. 0. 0. 0. 0. 0. 0. 0. 0. 0. 0. 0. 0. 0. 0. 0.
      2.50000004e-02 1.25000002e-02 0. 0. 0. 0. 0. 0. 0. 0. 0. 0. 0. 0.
      0. 0. 0. 0. 0. 1.25000002e-02 0. 0. 0. 0. 0. 0. 0. 0. 0. 0. 0. 0.</_>
    <_>
      0. 0. 0. 0. 0. 0. 0. 0. 0. 0. 0. 0. 0. 0. 0. 3.19148935e-02 0. 0.
      0. 0. 0. 0. 0. 1.06382975e-02 0. 0. 0. 0. 0. 0. 0. 0. 0. 0. 0. 0.
      0. 0. 0. 0. 0. 1.06382975e-02 0. 0. 1.06382975e-02 0.
      1.06382975e-02 0. 0. 0. 0. 0. 0. 0. 0. 0. 0. 0. 0. 0. 0. 0. 0. 0.
      0. 0. 0. 0. 0. 0. 0. 0. 0. 0. 0. 0. 1.06382975e-02 0. 0. 0. 0. 0.
      0. 2.12765951e-02 0. 0. 0. 0. 0. 0. 0. 0. 0. 0. 0. 0.
      1.06382975e-02 0. 0. 0. 0. 0. 0. 0. 0. 0. 0. 0. 0. 0. 0. 0. 0. 0.
      0. 0. 0. 0. 0. 0. 0. 0. 0. 0. 0. 0. 0. 0. 0. 0. 0. 0. 0. 0. 0. 0.
      0. 0. 1.06382975e-02 0. 0. 0. 0. 0. 1.06382975e-02 0. 0. 0. 0.
      1.06382975e-02 0. 0. 0. 0. 0. 0. 0. 0. 0. 0. 0. 0. 1.06382975e-02
      0. 0. 0. 0. 0. 0. 0. 0. 0. 0. 0. 0. 0. 0. 0. 0. 0. 0.
      1.06382975e-02 3.19148935e-02 0. 1.06382975e-02 0. 0. 0. 0. 0. 0.
      0. 0. 0. 1.06382975e-02 0. 0. 0. 0. 0. 0. 0. 0. 0. 0.
      1.06382975e-02 0. 0. 0. 0. 0. 0. 0. 0. 0. 0. 0. 0. 0. 0. 0. 0. 0.
      0. 3.19148935e-02 0. 0. 0. 0. 0. 0. 0. 0. 0. 0. 0. 0. 0. 0. 0. 0.
      0. 0. 2.12765951e-02 0. 0. 1.06382975e-02 1.06382975e-02
      2.12765951e-02 0. 0. 0. 0. 0. 0. 0. 0. 0. 0. 0. 0. 0. 0.
      1.06382975e-02 0. 0. 0. 0. 0. 0. 0. 0. 0. 1.06382975e-02 0. 0. 0.
      0. 0. 0. 0. 0. 0. 0. 0. 0. 0. 0. 0. 0. 0. 0. 0. 0. 0. 0. 0. 0. 0.
      0. 0. 0. 0. 0. 0. 1.06382975e-02 0. 0. 0. 0. 0. 0. 0. 0. 0. 0. 0.
      0. 0. 0. 0. 0. 0. 0. 0. 0. 0. 0. 0. 0. 0. 0. 0. 0. 0. 0. 0. 0. 0.
      0. 0. 0. 0. 0. 0. 0. 0. 0. 0. 0. 0. 0. 0. 0. 0. 0. 0. 0. 0. 0. 0.
      1.06382975e-02 0. 0. 0. 0. 1.06382975e-02 0. 0. 0. 0. 0. 0. 0. 0.
      0. 0. 0. 0. 0. 0. 0. 0. 0. 1.06382975e-02 0. 0. 0. 0. 0. 0. 0. 0.
      0. 0. 0. 0. 0. 0. 0. 0. 0. 0. 0. 1.06382975e-02 0. 0. 0. 0. 0. 0.
      0. 0. 0. 2.12765951e-02 0. 0. 2.12765951e-02 0. 0. 0. 0. 0. 0.
      1.06382975e-02 0. 0. 0. 0. 0. 0. 0. 0. 0. 0. 1.06382975e-02 0. 0.
      1.06382975e-02 0. 0. 0. 1.06382975e-02 0. 0. 0. 0. 0. 0. 0. 0. 0.
      0. 0. 0. 0. 0. 0. 0. 0. 0. 0. 0. 0. 0. 0. 0. 0. 0. 0. 0. 0. 0. 0.
      0. 0. 0. 0. 0. 0. 0. 0. 0. 0. 0. 0. 0. 1.06382975e-02 0. 0. 0. 0.
      0. 0. 0. 0. 0. 0. 0. 1.06382975e-02 0. 0. 0. 0. 0. 0. 0. 0. 0. 0.
      0. 0. 0. 0. 0. 0. 0. 0. 0. 0. 0. 0. 0. 0. 1.06382975e-02 0.
      1.06382975e-02 0. 0. 0. 0. 0. 1.06382975e-02 0. 0. 0. 0. 0. 0. 0.
      0. 0. 0. 0. 0. 0. 0. 0. 0. 2.12765951e-02 0. 0. 1.06382975e-02 0.
      0. 0. 0. 0. 0. 0. 0. 2.12765951e-02 0. 0. 1.06382975e-02 0. 0.
      1.06382975e-02 0. 1.06382975e-02 0. 0. 1.06382975e-02 0. 0. 0. 0.
      0. 0. 0. 0. 0. 0. 0. 0. 0. 0. 0. 0. 0. 1.06382975e-02 0. 0. 0. 0.
      0. 0. 0. 0. 0. 0. 0. 0. 0. 0. 0. 0. 1.06382975e-02 0. 0. 0. 0. 0.
      0. 0. 0. 0. 0. 0. 0. 0. 0. 0. 0. 0. 0. 0. 0. 0. 0. 0. 0. 0. 0. 0.
      0. 0. 0. 0. 1.06382975e-02 0. 0. 0. 0. 0. 0. 0. 0. 0. 0. 0.
      1.06382975e-02 0. 0. 0. 0. 0. 0. 0. 0. 1.06382975e-02 0. 0.
      1.06382975e-02 0. 0. 0. 0. 0. 1.06382975e-02 0. 0. 0. 0.
      1.06382975e-02 0. 0. 0. 0. 0. 0. 0. 0. 0. 0. 0. 0. 0. 0. 0. 0. 0.
      0. 1.06382975e-02 0. 0. 0. 0. 0. 0. 0. 0. 0. 0. 0. 0.
      1.06382975e-02 0. 0. 0. 0. 0. 0. 0. 0. 0. 0. 0. 0. 0. 0. 0. 0. 0.
      0. 0. 0. 1.06382975e-02 0. 0. 0. 0. 0. 0. 0. 0. 0. 0. 0. 0. 0. 0.
      1.06382975e-02 0. 0. 0. 0. 0. 0. 0. 1.06382975e-02 0. 0. 0. 0. 0.
      1.06382975e-02 0. 0. 0. 0. 0. 0. 0. 0. 0. 0. 0. 0. 0. 0. 0. 0. 0.
      0. 0. 0. 0. 0. 0. 0. 0. 0. 0. 0. 1.06382975e-02 0. 0. 0. 0. 0. 0.
      0. 0. 0. 0. 0. 0. 0. 0. 0. 0. 0. 0. 0. 0. 1.06382975e-02 0. 0. 0.
      1.06382975e-02 0. 0. 0. 0. 0. 1.06382975e-02 0. 0. 0. 0. 0. 0. 0.
      0. 1.06382975e-02 0. 1.06382975e-02 0. 0. 0. 0. 0. 0. 0. 0. 0. 0.
      0. 0. 0. 0. 0. 0. 1.06382975e-02 0. 0. 0. 0. 0. 0. 0. 0. 0. 0. 0.
      0. 0. 0. 0. 0. 0. 0. 0. 0. 0. 0. 0. 0. 1.06382975e-02
      1.06382975e-02 0. 0. 0. 0. 0. 0. 0. 0. 0. 0. 0. 0. 0. 0. 0. 0. 0.
      1.06382975e-02 0. 0. 0. 0. 0. 0. 0. 0. 0. 0. 0. 0. 0. 0. 0. 0. 0.
      0. 0. 1.06382975e-02 0. 0. 0. 0. 0. 0. 0. 0. 0. 0. 0. 0. 0. 0. 0.
      0. 0. 0. 0. 0. 0. 0. 0. 0. 0. 0. 0. 0. 0. 0. 0. 0. 0. 0. 0. 0. 0.
      0. 0. 0. 1.06382975e-02 0. 1.06382975e-02 0. 0. 0. 0. 0. 0. 0.
      1.06382975e-02 0. 0. 2.12765951e-02 0. 0. 0. 0. 0. 1.06382975e-02
      0. 1.06382975e-02 0. 0. 0. 0. 0. 1.06382975e-02 0. 0. 0. 0. 0. 0.
      0. 0. 0. 0. 0. 0. 0. 0. 0. 0. 0. 1.06382975e-02 0. 0. 0. 0. 0.</_>
    <_>
      0. 0. 0. 0. 0. 0. 0. 0. 0. 0. 0. 0. 0. 0. 0. 1.13636367e-02 0. 0.
      0. 0. 0. 0. 0. 1.13636367e-02 0. 0. 0. 0. 0. 0. 0. 0. 0. 0. 0. 0.
      1.13636367e-02 0. 0. 0. 0. 0. 0. 0. 1.13636367e-02 0.
      2.27272734e-02 0. 0. 0. 0. 0. 0. 0. 0. 0. 0. 0. 0. 0. 0. 0. 0. 0.
      0. 0. 0. 0. 0. 0. 0. 0. 0. 0. 0. 0. 1.13636367e-02 0. 0. 0. 0. 0.
      1.13636367e-02 3.40909101e-02 0. 0. 0. 0. 0. 0. 0. 0. 0. 0. 0. 0.
      1.13636367e-02 0. 0. 0. 0. 0. 0. 0. 0. 0. 0. 0. 0. 0. 0. 0. 0. 0.
      0. 0. 0. 0. 0. 0. 0. 0. 0. 0. 0. 0. 0. 0. 0. 0. 0. 0. 0. 0. 0. 0.
      0. 0. 1.13636367e-02 0. 0. 0. 0. 0. 1.13636367e-02 0. 0. 0. 0. 0.
      0. 0. 0. 0. 0. 0. 0. 0. 0. 0. 0. 0. 2.27272734e-02 0. 0. 0. 0. 0.
      0. 0. 0. 0. 0. 0. 0. 0. 0. 0. 0. 0. 0. 0. 2.27272734e-02 0.
      1.13636367e-02 0. 0. 0. 0. 0. 0. 0. 0. 0. 1.13636367e-02 0. 0. 0.
      0. 0. 0. 0. 0. 0. 0. 1.13636367e-02 0. 0. 0. 0. 0. 0. 0. 0.
      1.13636367e-02 0. 0. 0. 0. 0. 0. 0. 0. 0. 3.40909101e-02 0. 0. 0.
      0. 0. 0. 0. 0. 1.13636367e-02 0. 0. 0. 0. 0. 0. 0. 0. 0.
      2.27272734e-02 0. 0. 0. 1.13636367e-02 2.27272734e-02 0. 0. 0. 0.
      0. 0. 0. 0. 0. 0. 0. 0. 0. 0. 0. 0. 0. 0. 0. 0. 0. 0. 0. 0.
      1.13636367e-02 1.13636367e-02 0. 0. 0. 0. 0. 0. 0. 0. 0. 0. 0. 0.
      0. 0. 0. 0. 0. 0. 1.13636367e-02 0. 0. 0. 0. 0. 0. 0. 0. 0. 0. 0.
      1.13636367e-02 0. 0. 0. 0. 0. 0. 0. 0. 0. 0. 0. 0. 0. 0. 0. 0. 0.
      0. 0. 0. 0. 0. 0. 0. 0. 0. 0. 0. 0. 0. 0. 0. 0. 0. 0. 0. 0. 0. 0.
      0. 0. 0. 0. 0. 0. 0. 0. 0. 1.13636367e-02 0. 0. 0. 0. 0. 0.
      1.13636367e-02 0. 0. 0. 0. 1.13636367e-02 0. 0. 0. 0. 0. 0. 0. 0.
      0. 0. 0. 0. 0. 0. 0. 0. 0. 1.13636367e-02 0. 0. 0. 0. 0. 0. 0. 0.
      0. 0. 0. 0. 0. 0. 0. 0. 0. 0. 0. 1.13636367e-02 0. 0. 0. 0. 0. 0.
      0. 0. 0. 1.13636367e-02 0. 0. 0. 0. 0. 0. 0. 0. 0. 1.13636367e-02
      0. 0. 0. 0. 0. 0. 0. 0. 0. 0. 0. 0. 0. 1.13636367e-02 0. 0. 0. 0.
      0. 0. 0. 0. 0. 0. 0. 0. 0. 0. 0. 0. 0. 0. 0. 0. 0. 0. 0. 0. 0. 0.
      0. 0. 0. 0. 0. 0. 0. 0. 0. 0. 1.13636367e-02 0. 0. 0. 0. 0. 0. 0.
      0. 0. 0. 0. 1.13636367e-02 0. 0. 0. 0. 0. 0. 0. 0. 0. 0. 0.
      1.13636367e-02 0. 0. 0. 0. 0. 0. 0. 0. 0. 0. 0. 0. 0. 0. 0. 0. 0.
      0. 0. 0. 0. 0. 0. 0. 1.13636367e-02 1.13636367e-02 0. 0. 0. 0. 0.
      0. 1.13636367e-02 0. 0. 0. 0. 0. 0. 0. 0. 0. 0. 0. 0. 0. 0. 0. 0.
      2.27272734e-02 0. 0. 1.13636367e-02 0. 0. 0. 0. 0. 0. 0. 0.
      2.27272734e-02 0. 0. 1.13636367e-02 0. 0. 1.13636367e-02 0.
      1.13636367e-02 0. 0. 1.13636367e-02 0. 0. 0. 0. 0. 0. 0. 0. 0. 0.
      0. 0. 0. 0. 0. 0. 1.13636367e-02 0. 0. 0. 0. 0. 0. 0. 0.
      2.27272734e-02 0. 0. 0. 0. 0. 0. 0. 0. 1.13636367e-02 0. 0. 0. 0.
      0. 0. 0. 0. 0. 0. 0. 0. 0. 0. 0. 0. 0. 1.13636367e-02 0. 0. 0. 0.
      0. 0. 0. 0. 0. 0. 0. 0. 0. 1.13636367e-02 0. 0. 0. 0. 0. 0. 0. 0.
      0. 0. 0. 1.13636367e-02 0. 0. 0. 0. 0. 0. 0. 0. 1.13636367e-02 0.
      0. 1.13636367e-02 0. 0. 0. 0. 0. 0. 0. 0. 0. 0. 1.13636367e-02 0.
      0. 0. 0. 0. 0. 0. 0. 0. 0. 0. 0. 0. 0. 0. 0. 0. 0. 0. 0. 0. 0. 0.
      0. 0. 0. 0. 0. 0. 0. 0. 1.13636367e-02 0. 0. 0. 0. 0. 0. 0. 0. 0.
      0. 0. 0. 0. 0. 0. 0. 1.13636367e-02 0. 0. 0. 0. 0. 0. 0. 0. 0. 0.
      0. 0. 1.13636367e-02 0. 0. 0. 0. 0. 0. 0. 0. 0. 0. 0.
      1.13636367e-02 0. 1.13636367e-02 0. 0. 0. 0. 0. 1.13636367e-02 0.
      0. 0. 0. 0. 0. 0. 0. 0. 0. 0. 0. 0. 0. 0. 0. 0. 0. 0. 0. 0. 0. 0.
      0. 0. 0. 0. 0. 0. 0. 0. 0. 0. 0. 0. 0. 0. 0. 0. 0. 0. 0. 0. 0. 0.
      0. 0. 0. 0. 0. 0. 0. 0. 0. 0. 0. 0. 1.13636367e-02 0.
      1.13636367e-02 0. 0. 0. 0. 0. 0. 0. 0. 1.13636367e-02 0. 0. 0. 0.
      0. 0. 0. 0. 0. 0. 0. 0. 0. 0. 0. 1.13636367e-02 0. 0. 0. 0. 0. 0.
      0. 0. 0. 0. 0. 0. 0. 0. 0. 0. 0. 0. 0. 0. 0. 0. 0. 0. 0. 0. 0. 0.
      0. 0. 0. 0. 0. 0. 0. 0. 0. 0. 0. 0. 0. 0. 0. 0. 0. 0.
      1.13636367e-02 0. 0. 0. 0. 0. 0. 0. 0. 0. 0. 0. 0. 0. 0. 0. 0. 0.
      0. 1.13636367e-02 1.13636367e-02 0. 0. 0. 0. 0. 0. 0. 0. 0. 0. 0.
      0. 0. 0. 0. 0. 0. 0. 1.13636367e-02 0. 0. 0. 0. 0. 0. 0. 0. 0. 0.
      0. 0. 0. 0. 0. 0. 0. 0. 0. 0. 0. 0. 0. 1.13636367e-02 0. 0. 0. 0.
      0. 0. 0. 0. 0. 0. 2.27272734e-02 0. 0. 0. 1.13636367e-02 0.
      1.13636367e-02 0. 0. 0. 0. 0. 0. 0. 1.13636367e-02 0. 0. 0. 0. 0.
      0. 0. 0. 0. 0. 0. 0. 0. 0. 0. 0. 0. 0. 0. 0. 0. 0. 0.</_>
    <_>
      1.13636367e-02 0. 0. 0. 0. 0. 0. 0. 0. 0. 0. 0. 0. 0. 0.
      2.27272734e-02 0. 0. 0. 0. 0. 0. 0. 1.13636367e-02 0. 0. 0. 0. 0.
      0. 0. 0. 0. 0. 0. 0. 0. 1.13636367e-02 0. 0. 0. 0. 0. 0.
      1.13636367e-02 0. 2.27272734e-02 0. 0. 0. 0. 0. 0. 0. 0.
      1.13636367e-02 0. 0. 0. 0. 0. 0. 0. 0. 0. 0. 1.13636367e-02 0. 0.
      0. 0. 0. 0. 0. 0. 0. 1.13636367e-02 0. 0. 0. 0. 0. 0.
      3.40909101e-02 0. 0. 0. 0. 0. 0. 0. 0. 0. 0. 0. 0. 1.13636367e-02
      0. 0. 0. 0. 0. 0. 0. 0. 0. 0. 0. 0. 0. 0. 0. 0. 0. 0. 0. 0. 0. 0.
      0. 0. 0. 0. 0. 0. 1.13636367e-02 0. 0. 0. 0. 1.13636367e-02 0. 0.
      0. 0. 0. 0. 0. 1.13636367e-02 0. 0. 0. 0. 0. 1.13636367e-02
      1.13636367e-02 0. 0. 0. 0. 0. 0. 0. 0. 0. 0. 0. 0. 0. 0. 0. 0.
      1.13636367e-02 0. 0. 0. 0. 0. 0. 0. 0. 0. 0. 0. 0. 0. 0. 0. 0. 0.
      0. 1.13636367e-02 3.40909101e-02 0. 1.13636367e-02 0. 0. 0. 0. 0.
      0. 0. 0. 0. 0. 0. 0. 0. 0. 0. 0. 0. 0. 0. 0. 1.13636367e-02 0. 0.
      0. 0. 0. 0. 0. 0. 0. 0. 0. 0. 0. 0. 0. 0. 0. 0. 2.27272734e-02 0.
      0. 0. 0. 0. 0. 0. 0. 0. 0. 0. 0. 0. 0. 0. 0. 0. 0. 2.27272734e-02
      0. 0. 0. 1.13636367e-02 2.27272734e-02 0. 0. 0. 0. 0. 0. 0. 0. 0.
      0. 0. 0. 0. 0. 0. 0. 0. 0. 0. 0. 0. 0. 0. 0. 1.13636367e-02 0. 0.
      0. 0. 0. 0. 0. 0. 0. 0. 0. 0. 0. 0. 0. 0. 0. 0. 0. 1.13636367e-02
      0. 0. 0. 0. 0. 0. 0. 0. 0. 0. 0. 1.13636367e-02 0. 0. 0. 0. 0. 0.
      0. 0. 0. 0. 0. 0. 0. 0. 0. 0. 0. 0. 0. 0. 0. 0. 0. 0. 0. 0. 0. 0.
      0. 0. 0. 1.13636367e-02 0. 0. 0. 0. 0. 0. 0. 0. 0. 0. 0. 0. 0. 0.
      0. 0. 0. 0. 0. 0. 0. 0. 0. 1.13636367e-02 0. 0. 0. 0.
      1.13636367e-02 0. 0. 0. 0. 0. 0. 0. 0. 0. 0. 0. 0. 0. 0. 0. 0. 0.
      1.13636367e-02 0. 0. 0. 0. 0. 0. 0. 0. 0. 0. 0. 0. 0. 0. 0. 0. 0.
      0. 0. 1.13636367e-02 0. 0. 0. 0. 0. 0. 0. 0. 0. 1.13636367e-02 0.
      0. 0. 0. 0. 0. 0. 0. 0. 1.13636367e-02 0. 0. 0. 0. 0. 0. 0. 0. 0.
      0. 0. 0. 0. 1.13636367e-02 0. 0. 0. 0. 0. 0. 0. 0. 0. 0. 0. 0. 0.
      0. 0. 0. 0. 0. 0. 0. 0. 0. 0. 0. 0. 0. 0. 0. 0. 0. 0. 0. 0. 0. 0.
      0. 0. 0. 0. 1.13636367e-02 0. 0. 0. 0. 0. 0. 0. 0. 1.13636367e-02
      0. 0. 0. 0. 0. 0. 0. 0. 0. 0. 0. 2.27272734e-02 0. 0. 0. 0. 0. 0.
      0. 0. 0. 0. 0. 0. 0. 0. 0. 0. 0. 0. 0. 0. 0. 0. 0. 0.
      1.13636367e-02 0. 1.13636367e-02 0. 0. 0. 0. 0. 1.13636367e-02 0.
      0. 0. 0. 0. 0. 0. 0. 0. 0. 0. 0. 0. 0. 0. 0. 2.27272734e-02 0. 0.
      0. 0. 0. 0. 0. 0. 0. 0. 0. 2.27272734e-02 0. 0. 0. 0. 0. 0. 0. 0.
      0. 0. 1.13636367e-02 0. 0. 0. 0. 0. 0. 0. 0. 0. 0. 0. 0. 0. 0. 0.
      0. 1.13636367e-02 0. 0. 0. 0. 0. 0. 0. 0. 1.13636367e-02 0. 0. 0.
      0. 0. 0. 0. 0. 1.13636367e-02 0. 0. 0. 0. 0. 0. 0. 0. 0. 0. 0. 0.
      0. 0. 0. 0. 0. 1.13636367e-02 0. 1.13636367e-02 0. 0. 0. 0. 0. 0.
      0. 0. 0. 0. 0. 1.13636367e-02 0. 0. 0. 0. 0. 0. 0. 0. 0. 0. 0.
      1.13636367e-02 0. 0. 0. 0. 0. 0. 0. 0. 1.13636367e-02 0. 0.
      1.13636367e-02 0. 0. 0. 0. 0. 0. 0. 0. 0. 0. 0. 0. 0. 0. 0. 0. 0.
      0. 0. 0. 0. 0. 0. 0. 0. 0. 0. 0. 0. 0. 0. 0. 0. 0. 0. 0. 0. 0. 0.
      0. 0. 0. 1.13636367e-02 0. 0. 0. 0. 0. 0. 0. 0. 0. 0. 0. 0. 0. 0.
      0. 1.13636367e-02 0. 0. 0. 0. 1.13636367e-02 0. 0. 0. 0. 0. 0. 0.
      0. 0. 0. 0. 0. 0. 0. 1.13636367e-02 0. 0. 0. 0. 0. 0. 0.
      1.13636367e-02 0. 0. 0. 0. 0. 0. 0. 0. 0. 0. 0. 0. 0. 0. 0. 0. 0.
      0. 0. 0. 0. 0. 0. 0. 0. 0. 0. 0. 0. 0. 0. 0. 0. 0. 0. 0. 0. 0. 0.
      0. 0. 0. 0. 0. 0. 0. 0. 0. 0. 0. 0. 0. 0. 0. 0. 0. 0. 0. 0. 0. 0.
      0. 0. 0. 0. 1.13636367e-02 0. 0. 0. 0. 0. 0. 0. 0. 1.13636367e-02
      0. 1.13636367e-02 0. 0. 0. 0. 0. 0. 0. 0. 0. 0. 0. 0. 0. 0. 0. 0.
      0. 1.13636367e-02 0. 0. 0. 0. 0. 0. 0. 0. 0. 0. 0. 0. 0. 0. 0. 0.
      0. 0. 0. 0. 0. 0. 0. 0. 0. 0. 0. 0. 0. 0. 0. 0. 0. 0. 0. 0. 0. 0.
      0. 0. 0. 0. 1.13636367e-02 0. 0. 0. 0. 0. 0. 0. 0. 0. 0.
      1.13636367e-02 0. 0. 0. 0. 0. 0. 0. 1.13636367e-02 1.13636367e-02
      0. 0. 0. 0. 0. 0. 0. 0. 0. 0. 0. 0. 0. 0. 1.13636367e-02 0. 0. 0.
      0. 0. 0. 0. 0. 0. 0. 0. 0. 0. 0. 0. 0. 0. 0. 0. 0. 0. 0. 0. 0. 0.
      1.13636367e-02 0. 1.13636367e-02 0. 0. 0. 0. 0. 0. 0.
      1.13636367e-02 0. 0. 2.27272734e-02 0. 0. 0. 1.13636367e-02 0. 0.
      0. 0. 0. 0. 0. 0. 0. 1.13636367e-02 0. 0. 0. 0. 0. 0. 0. 0. 0. 0.
      0. 0. 0. 0. 0. 0. 0. 1.13636367e-02 0. 0. 0. 0. 0.</_>
    <_>
      0. 0. 0. 0. 0. 0. 0. 0. 0. 0. 0. 0. 0. 0. 0. 1.28205130e-02 0. 0.
      0. 0. 0. 0. 0. 2.56410260e-02 0. 0. 0. 0. 0. 0. 0. 0. 0. 0. 0. 0.
      1.28205130e-02 0. 0. 0. 0. 1.28205130e-02 0. 0. 1.28205130e-02 0.
      2.56410260e-02 0. 0. 0. 0. 0. 0. 0. 0. 1.28205130e-02 0. 0. 0. 0.
      0. 0. 0. 0. 0. 0. 0. 0. 0. 1.28205130e-02 0. 0. 0. 0. 0. 0.
      1.28205130e-02 0. 0. 0. 0. 0. 0. 3.84615399e-02 0. 0. 0. 0. 0. 0.
      0. 1.28205130e-02 0. 0. 0. 0. 1.28205130e-02 0. 0. 0. 0. 0. 0. 0.
      0. 0. 0. 0. 0. 0. 0. 0. 0. 0. 0. 0. 0. 0. 0. 0. 0. 0. 0. 0. 0. 0.
      0. 0. 0. 0. 0. 0. 0. 0. 0. 0. 0. 0. 0. 0. 0. 0. 0. 0.
      1.28205130e-02 0. 0. 0. 0. 1.28205130e-02 0. 0. 0. 0. 0. 0. 0. 0.
      0. 0. 0. 0. 1.28205130e-02 0. 0. 0. 0. 0. 0. 0. 0. 0. 0. 0. 0. 0.
      0. 0. 0. 0. 0. 0. 3.84615399e-02 0. 1.28205130e-02 0. 0. 0. 0. 0.
      0. 0. 0. 0. 0. 0. 0. 0. 0. 0. 0. 0. 0. 0. 0. 0. 0. 0. 0. 0. 0. 0.
      0. 0. 0. 0. 0. 0. 0. 0. 0. 0. 0. 0. 2.56410260e-02 0. 0. 0. 0. 0.
      0. 0. 0. 0. 0. 0. 0. 0. 0. 0. 0. 0. 0. 2.56410260e-02 0. 0. 0.
      1.28205130e-02 2.56410260e-02 0. 0. 0. 0. 0. 0. 0. 0. 0. 0. 0. 0.
      0. 0. 0. 0. 0. 0. 0. 0. 0. 0. 0. 0. 1.28205130e-02 0. 0. 0. 0. 0.
      0. 0. 0. 0. 0. 0. 0. 0. 0. 0. 0. 0. 0. 0. 0. 0. 0. 0. 0. 0. 0. 0.
      0. 0. 0. 0. 1.28205130e-02 0. 0. 0. 0. 0. 0. 0. 0. 0. 0. 0. 0. 0.
      0. 0. 0. 0. 0. 0. 0. 0. 0. 0. 0. 0. 0. 0. 0. 0. 0. 0. 0. 0. 0. 0.
      0. 0. 0. 0. 0. 0. 0. 0. 0. 1.28205130e-02 0. 0. 0. 1.28205130e-02
      0. 0. 0. 0. 0. 0. 1.28205130e-02 0. 0. 0. 0. 1.28205130e-02 0. 0.
      0. 0. 0. 0. 0. 0. 0. 0. 0. 0. 0. 0. 0. 0. 0. 1.28205130e-02 0. 0.
      0. 0. 0. 0. 0. 0. 0. 0. 0. 0. 0. 0. 0. 0. 0. 0. 0. 1.28205130e-02
      0. 0. 0. 0. 0. 0. 0. 0. 0. 1.28205130e-02 0. 0. 0. 0. 0. 0. 0. 0.
      0. 1.28205130e-02 0. 0. 0. 0. 0. 0. 0. 0. 0. 0. 0. 0. 0.
      1.28205130e-02 0. 0. 0. 0. 0. 0. 0. 0. 0. 0. 0. 0. 0. 0. 0. 0. 0.
      0. 0. 0. 0. 0. 0. 0. 0. 0. 0. 0. 0. 0. 0. 0. 0. 0. 0. 0. 0. 0. 0.
      0. 0. 0. 0. 0. 0. 0. 0. 0. 0. 0. 0. 0. 0. 0. 0. 0. 0. 0. 0. 0.
      1.28205130e-02 0. 0. 0. 0. 0. 0. 0. 0. 0. 0. 0. 0. 0. 0. 0. 0. 0.
      0. 0. 0. 0. 0. 0. 0. 1.28205130e-02 0. 1.28205130e-02 0. 0. 0. 0.
      0. 1.28205130e-02 0. 0. 0. 0. 0. 0. 0. 0. 0. 0. 0. 0. 0. 0. 0. 0.
      2.56410260e-02 0. 0. 0. 0. 0. 0. 0. 0. 0. 0. 0. 1.28205130e-02 0.
      0. 1.28205130e-02 0. 0. 1.28205130e-02 0. 1.28205130e-02 0. 0.
      1.28205130e-02 0. 0. 0. 0. 0. 0. 0. 0. 0. 0. 0. 0. 0. 0. 0. 0.
      1.28205130e-02 0. 0. 0. 0. 0. 0. 0. 0. 1.28205130e-02 0. 0. 0. 0.
      0. 0. 0. 0. 1.28205130e-02 0. 0. 0. 0. 0. 0. 0. 0. 0. 0. 0. 0. 0.
      0. 0. 0. 0. 1.28205130e-02 0. 0. 0. 0. 0. 0. 0. 1.28205130e-02 0.
      0. 0. 0. 0. 0. 0. 0. 0. 0. 0. 0. 0. 0. 0. 0. 0. 1.28205130e-02 0.
      0. 0. 0. 0. 0. 0. 0. 1.28205130e-02 0. 0. 0. 0. 0. 0. 0. 0. 0. 0.
      0. 0. 0. 1.28205130e-02 1.28205130e-02 0. 0. 0. 0. 0. 0. 0. 0. 0.
      0. 0. 0. 0. 0. 0. 0. 0. 0. 0. 0. 0. 0. 0. 0. 0. 0. 0. 0. 0. 0.
      1.28205130e-02 0. 0. 0. 0. 0. 0. 0. 0. 0. 0. 0. 0. 0. 0. 0.
      1.28205130e-02 0. 0. 0. 0. 0. 0. 0. 0. 0. 0. 0. 0. 0. 0. 0. 0. 0.
      0. 0. 1.28205130e-02 0. 0. 0. 0. 0. 0. 0. 1.28205130e-02 0. 0. 0.
      0. 0. 0. 0. 0. 0. 0. 0. 0. 0. 0. 0. 0. 0. 0. 0. 0. 0. 0. 0. 0. 0.
      0. 0. 0. 0. 0. 0. 0. 0. 0. 0. 0. 0. 0. 0. 0. 0. 0. 0. 0. 0. 0. 0.
      0. 0. 0. 0. 0. 0. 0. 0. 0. 0. 0. 0. 0. 0. 0. 0. 0. 0.
      1.28205130e-02 0. 0. 0. 0. 0. 0. 0. 0. 1.28205130e-02 0.
      1.28205130e-02 0. 1.28205130e-02 0. 0. 0. 0. 0. 0. 0. 0. 0. 0. 0.
      0. 0. 0. 0. 0. 0. 0. 0. 0. 0. 0. 0. 0. 0. 0. 0. 0. 0. 0. 0. 0. 0.
      0. 0. 0. 0. 0. 0. 0. 0. 0. 0. 0. 0. 0. 0. 0. 0. 0. 0. 0. 0. 0. 0.
      0. 0. 0. 1.28205130e-02 0. 0. 0. 0. 0. 0. 0. 0. 0. 0. 0. 0. 0. 0.
      0. 0. 0. 0. 1.28205130e-02 0. 0. 0. 0. 0. 0. 0. 0. 0. 0. 0. 0. 0.
      0. 0. 0. 0. 0. 0. 0. 0. 0. 0. 0. 0. 0. 0. 0. 0. 0. 0. 0. 0. 0. 0.
      0. 0. 0. 0. 0. 0. 0. 0. 0. 0. 0. 0. 0. 0. 0. 0. 1.28205130e-02 0.
      0. 2.56410260e-02 0. 0. 0. 1.28205130e-02 0. 1.28205130e-02 0. 0.
      0. 0. 0. 0. 0. 1.28205130e-02 0. 0. 0. 0. 0. 0. 0. 0. 0. 0. 0. 0.
      0. 0. 0. 0. 0. 1.28205130e-02 0. 0. 0. 0. 0.</_>
    <_>
      1.16279069e-02 0. 2.32558139e-02 0. 0. 0. 0. 0. 0. 0. 0. 0. 0. 0.
      0. 0. 0. 0. 0. 0. 0. 0. 0. 1.16279069e-02 0. 0. 0. 0. 0. 0. 0. 0.
      0. 0. 0. 0. 0. 0. 0. 0. 0. 0. 0. 0. 0. 0. 0. 0. 0. 0. 0. 0. 0. 0.
      0. 0. 0. 0. 0. 0. 0. 0. 0. 0. 0. 0. 0. 0. 0. 0. 0. 0. 0. 0. 0. 0.
      0. 3.48837227e-02 0. 0. 1.16279069e-02 0. 0. 0. 0. 0. 0. 0. 0. 0.
      0. 1.16279069e-02 0. 0. 0. 0. 1.16279069e-02 0. 1.16279069e-02 0.
      0. 0. 0. 0. 0. 0. 0. 0. 0. 0. 0. 0. 0. 1.16279069e-02 0. 0. 0. 0.
      0. 0. 0. 0. 0. 0. 0. 0. 0. 1.16279069e-02 0. 0. 0. 0. 0.
      1.16279069e-02 0. 0. 0. 0. 0. 0. 0. 0. 0. 1.16279069e-02 0. 0. 0.
      0. 0. 0. 0. 0. 0. 0. 0. 0. 0. 0. 0. 0. 0. 0. 0. 0. 0. 0. 0. 0. 0.
      0. 0. 0. 0. 0. 0. 0. 0. 3.48837227e-02 0. 0. 0. 1.16279069e-02 0.
      0. 1.16279069e-02 0. 0. 0. 0. 0. 0. 0. 0. 0. 0. 0. 0. 0. 0. 0. 0.
      0. 0. 0. 0. 0. 0. 0. 0. 0. 0. 0. 0. 0. 0. 0. 0. 0. 0. 0. 0. 0. 0.
      0. 1.16279069e-02 0. 0. 0. 0. 1.16279069e-02 0. 0. 0. 0. 0. 0. 0.
      0. 0. 0. 0. 0. 0. 0. 0. 0. 1.16279069e-02 0. 0. 0. 2.32558139e-02
      0. 0. 0. 0. 0. 0. 0. 1.16279069e-02 0. 0. 2.32558139e-02 0. 0. 0.
      0. 0. 0. 1.16279069e-02 0. 0. 0. 0. 0. 0. 0. 0. 0. 0. 0. 0. 0. 0.
      0. 0. 0. 0. 0. 0. 1.16279069e-02 0. 0. 0. 0. 2.32558139e-02 0. 0.
      0. 0. 0. 0. 0. 0. 0. 0. 0. 0. 0. 0. 0. 0. 0. 0. 0. 0. 0. 0.
      1.16279069e-02 0. 0. 0. 0. 0. 0. 0. 0. 0. 0. 0. 0. 0. 0. 0. 0. 0.
      0. 0. 0. 0. 0. 0. 0. 0. 0. 0. 0. 0. 0. 0. 0. 0. 0. 0. 0. 0. 0. 0.
      0. 0. 0. 0. 0. 0. 0. 0. 0. 0. 0. 0. 0. 0. 0. 0. 0. 0. 0. 0. 0. 0.
      0. 0. 0. 0. 0. 1.16279069e-02 0. 0. 0. 0. 0. 0. 0. 0. 0. 0. 0. 0.
      0. 0. 0. 0. 0. 0. 0. 1.16279069e-02 2.32558139e-02 0. 0. 0. 0. 0.
      0. 0. 0. 0. 0. 0. 0. 0. 0. 1.16279069e-02 0. 0. 0. 0. 0. 0. 0. 0.
      0. 0. 0. 0. 0. 0. 0. 0. 0. 0. 0. 0. 0. 0. 0. 0. 0. 0. 0. 0. 0. 0.
      0. 0. 0. 0. 0. 0. 0. 1.16279069e-02 0. 0. 0. 0. 0. 0. 0. 0. 0. 0.
      0. 0. 0. 0. 0. 0. 0. 0. 0. 0. 0. 0. 0. 0. 0. 0. 0. 0. 0. 0. 0. 0.
      0. 1.16279069e-02 0. 0. 0. 0. 1.16279069e-02 1.16279069e-02 0. 0.
      0. 2.32558139e-02 0. 0. 0. 0. 0. 0. 0. 0. 0. 0. 1.16279069e-02
      1.16279069e-02 0. 0. 0. 0. 0. 0. 0. 0. 0. 0. 0. 0. 0. 0. 0. 0. 0.
      0. 0. 0. 0. 0. 0. 1.16279069e-02 0. 0. 0. 0. 0. 0. 0. 0. 0. 0. 0.
      0. 0. 1.16279069e-02 0. 0. 0. 0. 1.16279069e-02 0. 0. 0. 0. 0. 0.
      1.16279069e-02 0. 0. 0. 0. 0. 0. 0. 0. 0. 0. 0. 0. 0. 0. 0. 0. 0.
      0. 0. 0. 0. 0. 0. 0. 0. 0. 0. 0. 0. 0. 0. 0. 0. 0. 1.16279069e-02
      0. 1.16279069e-02 0. 0. 0. 0. 1.16279069e-02 0. 2.32558139e-02 0.
      0. 0. 0. 0. 0. 0. 0. 0. 0. 0. 0. 0. 1.16279069e-02 0. 0. 0. 0. 0.
      0. 0. 0. 0. 0. 0. 0. 0. 0. 0. 0. 1.16279069e-02 0. 0. 0. 0. 0. 0.
      0. 0. 0. 0. 0. 0. 1.16279069e-02 0. 0. 0. 0. 0. 0. 0.
      1.16279069e-02 0. 0. 0. 0. 0. 0. 0. 0. 0. 0. 0. 0. 0. 0.
      1.16279069e-02 0. 0. 0. 0. 0. 0. 0. 0. 0. 0. 0. 0. 0. 0. 0. 0. 0.
      1.16279069e-02 0. 0. 0. 0. 0. 0. 0. 0. 1.16279069e-02 0.
      1.16279069e-02 0. 0. 0. 0. 0. 0. 0. 0. 0. 0. 0. 0. 0. 0. 0. 0. 0.
      3.48837227e-02 0. 0. 0. 0. 0. 0. 0. 0. 0. 0. 0. 1.16279069e-02 0.
      0. 0. 0. 0. 1.16279069e-02 0. 0. 0. 0. 0. 0. 0. 0. 0.
      2.32558139e-02 0. 0. 0. 0. 0. 0. 0. 0. 0. 0. 0. 0. 0. 0. 0. 0. 0.
      0. 1.16279069e-02 0. 0. 1.16279069e-02 0. 0. 1.16279069e-02 0.
      1.16279069e-02 0. 0. 0. 0. 0. 0. 0. 0. 0. 0. 0. 0. 0. 0. 0. 0. 0.
      0. 0. 0. 0. 0. 0. 0. 0. 0. 0. 0. 0. 0. 0. 0. 0. 0. 0. 0. 0. 0. 0.
      0. 0. 0. 0. 0. 1.16279069e-02 0. 0. 0. 0. 0. 0. 0. 0. 0. 0. 0. 0.
      0. 0. 0. 0. 0. 0. 0. 0. 0. 0. 0. 0. 0. 0. 0. 0. 2.32558139e-02 0.
      0. 0. 0. 0. 0. 0. 0. 0. 0. 0. 0. 0. 0. 0. 0. 0. 0. 0. 0. 0. 0. 0.
      0. 0. 0. 0. 0. 0. 1.16279069e-02 0. 0. 1.16279069e-02 0. 0. 0.
      1.16279069e-02 0. 0. 0. 0. 0. 0. 0. 0. 0. 0. 1.16279069e-02 0. 0.
      0. 0. 0. 0. 0. 0. 0. 1.16279069e-02 0. 0. 0. 0. 0. 0. 0. 0. 0. 0.
      0. 0. 0. 0. 0. 0. 0. 0. 0. 0. 0. 0. 0. 0. 0. 0. 0. 0.
      2.32558139e-02 0. 0. 0. 0. 0. 0. 0. 0. 0. 0. 0. 0. 0. 0.
      1.16279069e-02 0. 0. 0. 0. 0. 0. 0. 0. 0. 0. 0. 0. 0. 0.
      1.16279069e-02 0. 0. 0. 0. 0. 0. 0. 0. 0. 0. 0. 0. 0. 0. 0. 0. 0.
      0. 0. 0. 0. 0. 0. 0. 0. 0. 0. 0. 0. 0. 0.</_>
    <_>
      0. 9.38967150e-03 9.38967150e-03 0. 0. 0. 0. 0. 0. 0. 0. 0. 0.
      4.69483575e-03 0. 0. 0. 0. 0. 4.69483575e-03 0. 0. 0. 0. 0. 0. 0.
      0. 0. 4.69483575e-03 0. 0. 0. 0. 0. 0. 0. 0. 0. 0. 0. 0. 0. 0. 0.
      0. 0. 0. 0. 0. 0. 0. 0. 0. 0. 0. 1.40845068e-02 9.38967150e-03 0.
      4.69483575e-03 9.38967150e-03 0. 0. 0. 0. 0. 0. 4.69483575e-03 0.
      0. 0. 0. 4.69483575e-03 0. 9.38967150e-03 0. 4.69483575e-03
      4.69483575e-03 0. 0. 4.69483575e-03 0. 0. 0. 0. 0. 0. 0. 0. 0. 0.
      9.38967150e-03 0. 4.69483575e-03 0. 4.69483575e-03 4.69483575e-03
      0. 0. 0. 0. 0. 0. 0. 0. 4.69483575e-03 4.69483575e-03 0. 0. 0. 0.
      4.69483575e-03 0. 0. 0. 0. 0. 0. 0. 0. 4.69483575e-03 0. 0. 0. 0.
      0. 0. 0. 0. 0. 0. 0. 0. 4.69483575e-03 0. 0. 0. 0. 0. 0. 0. 0. 0.
      0. 4.69483575e-03 0. 4.69483575e-03 0. 0. 4.69483575e-03 0. 0. 0.
      0. 0. 0. 0. 0. 0. 0. 0. 0. 1.87793430e-02 0. 0. 0. 4.69483575e-03
      0. 0. 4.69483575e-03 0. 0. 0. 0. 0. 0. 0. 4.69483575e-03 0. 0. 0.
      2.34741792e-02 0. 0. 4.69483575e-03 0. 0. 0. 4.69483575e-03 0. 0.
      0. 4.69483575e-03 0. 0. 0. 0. 0. 0. 0. 0. 0. 0. 0. 0. 0. 0. 0. 0.
      4.69483575e-03 0. 0. 0. 0. 4.69483575e-03 0. 0. 0. 0. 0. 0. 0. 0.
      0. 4.69483575e-03 0. 0. 0. 0. 0. 0. 0. 0. 4.69483575e-03 0. 0. 0.
      0. 0. 4.69483575e-03 0. 0. 0. 0. 0. 0. 0. 0. 0. 0. 4.69483575e-03
      0. 0. 0. 0. 0. 0. 0. 0. 0. 0. 0. 0. 0. 0. 0. 4.69483575e-03 0. 0.
      0. 0. 0. 0. 4.69483575e-03 0. 0. 9.38967150e-03 0. 9.38967150e-03
      0. 0. 0. 0. 0. 0. 4.69483575e-03 0. 0. 0. 0. 4.69483575e-03 0. 0.
      0. 0. 0. 0. 0. 4.69483575e-03 0. 0. 0. 0. 0. 0. 0. 0. 0. 0. 0. 0.
      0. 0. 0. 0. 0. 0. 9.38967150e-03 0. 0. 0. 0. 0. 0. 0. 0. 0. 0. 0.
      0. 0. 0. 0. 0. 0. 0. 0. 0. 0. 0. 0. 4.69483575e-03 0. 0. 0. 0. 0.
      0. 0. 0. 0. 0. 0. 0. 0. 0. 0. 0. 0. 4.69483575e-03 0.
      9.38967150e-03 0. 4.69483575e-03 0. 0. 0. 0. 0. 0. 0.
      4.69483575e-03 0. 4.69483575e-03 0. 0. 4.69483575e-03
      4.69483575e-03 0. 0. 0. 0. 0. 0. 4.69483575e-03 0. 0. 0.
      4.69483575e-03 0. 0. 0. 0. 0. 0. 0. 0. 0. 0. 0. 0. 0. 0. 0.
      4.69483575e-03 4.69483575e-03 0. 0. 0. 0. 0. 0. 0. 0.
      1.40845068e-02 0. 0. 0. 0. 0. 4.69483575e-03 0. 1.40845068e-02 0.
      0. 0. 0. 0. 4.69483575e-03 0. 0. 4.69483575e-03 0. 0. 0. 0. 0. 0.
      9.38967150e-03 0. 4.69483575e-03 0. 0. 0. 0. 0. 0. 0. 0. 0. 0. 0.
      0. 0. 0. 0. 0. 4.69483575e-03 4.69483575e-03 4.69483575e-03 0. 0.
      0. 0. 0. 0. 0. 0. 4.69483575e-03 0. 0. 0. 0. 9.38967150e-03 0. 0.
      0. 4.69483575e-03 0. 0. 0. 0. 0. 0. 0. 0. 4.69483575e-03
      4.69483575e-03 0. 0. 0. 0. 0. 0. 0. 0. 0. 0. 0. 0. 4.69483575e-03
      0. 4.69483575e-03 0. 0. 0. 0. 0. 0. 0. 0. 0. 0. 0. 9.38967150e-03
      0. 4.69483575e-03 0. 0. 0. 9.38967150e-03 4.69483575e-03 0. 0.
      9.38967150e-03 4.69483575e-03 0. 0. 0. 0. 4.69483575e-03 0. 0. 0.
      0. 0. 0. 0. 4.69483575e-03 0. 0. 0. 0. 0. 9.38967150e-03 0. 0. 0.
      0. 0. 0. 0. 4.69483575e-03 0. 0. 0. 4.69483575e-03 4.69483575e-03
      0. 0. 0. 4.69483575e-03 0. 0. 0. 0. 0. 0. 0. 0. 0. 0. 0.
      4.69483575e-03 0. 0. 4.69483575e-03 0. 0. 0. 0. 0. 0. 0. 0. 0. 0.
      0. 0. 0. 0. 0. 0. 0. 1.40845068e-02 0. 0. 0. 0. 0. 0. 0. 0. 0. 0.
      4.69483575e-03 9.38967150e-03 0. 9.38967150e-03 0. 0. 0. 0. 0.
      4.69483575e-03 0. 0. 0. 0. 4.69483575e-03 4.69483575e-03 0. 0. 0.
      4.69483575e-03 0. 0. 0. 0. 0. 0. 0. 4.69483575e-03 0.
      4.69483575e-03 0. 4.69483575e-03 0. 4.69483575e-03 4.69483575e-03
      0. 0. 0. 0. 0. 0. 0. 0. 4.69483575e-03 0. 0. 0. 0. 0. 0. 0.
      4.69483575e-03 0. 0. 0. 4.69483575e-03 0. 0. 0. 0. 0. 0. 0. 0. 0.
      0. 0. 0. 0. 0. 9.38967150e-03 0. 0. 0. 0. 0. 0. 0. 0.
      4.69483575e-03 0. 0. 0. 0. 0. 0. 0. 1.40845068e-02 0.
      4.69483575e-03 4.69483575e-03 0. 0. 0. 0. 0. 0. 0. 0.
      1.40845068e-02 0. 0. 0. 0. 4.69483575e-03 4.69483575e-03
      4.69483575e-03 0. 0. 0. 0. 0. 0. 0. 0. 0. 0. 9.38967150e-03
      4.69483575e-03 4.69483575e-03 0. 0. 0. 1.87793430e-02 0. 0.
      4.69483575e-03 0. 0. 0. 0. 0. 4.69483575e-03 4.69483575e-03 0. 0.
      0. 0. 0. 4.69483575e-03 0. 0. 0. 0. 0. 2.34741792e-02
      4.69483575e-03 0. 9.38967150e-03 0. 0. 0. 0. 0. 0. 0. 0. 0. 0. 0.
      0. 0. 0. 0. 0. 0. 0. 0. 0. 0. 0. 0. 0. 0. 0. 0. 0. 0. 0. 0. 0. 0.
      0. 4.69483575e-03 0. 0. 0. 0. 0. 0. 4.69483575e-03 0. 0. 0. 0.
      4.69483575e-03 4.69483575e-03 0. 0. 0. 0. 0. 0. 0. 0. 0. 0. 0.
      4.69483575e-03 0. 0. 4.69483575e-03 0. 0. 4.69483575e-03 0. 0.
      4.69483575e-03 0. 0. 0. 0. 0. 0. 0. 4.69483575e-03 0. 0. 0. 0. 0.
      0. 4.69483575e-03 0. 0. 0. 0. 0. 0. 0. 0. 0. 0. 0. 0. 0. 0. 0. 0.
      0. 0. 0. 0. 0. 0. 0. 0. 0. 0. 0. 0. 0. 4.69483575e-03 0. 0. 0. 0.
      4.69483575e-03 0. 0. 0. 0. 0. 0. 0. 0. 9.38967150e-03 0. 0.
      4.69483575e-03 0. 0. 0. 0. 0. 0. 0. 0. 0. 0. 0. 0. 0. 0. 0. 0. 0.
      0. 0. 0. 0. 0. 0. 0. 4.69483575e-03 4.69483575e-03 4.69483575e-03
      0. 0. 0. 4.69483575e-03 0. 0. 4.69483575e-03 0. 0. 0. 0.
      4.69483575e-03 0. 0. 0. 0. 0. 0. 0. 4.69483575e-03 0.
      4.69483575e-03 0. 0. 4.69483575e-03 0. 4.69483575e-03 0. 0.
      4.69483575e-03 0. 0. 0. 0. 0. 0. 0. 0. 0. 0. 0. 0. 0.
      4.69483575e-03 4.69483575e-03 0. 0. 0. 0. 0. 0. 4.69483575e-03 0.
      0. 0. 0. 1.40845068e-02 0. 0. 0. 0. 4.69483575e-03 0. 0. 0. 0. 0.
      4.69483575e-03 0. 0. 0. 4.69483575e-03 4.69483575e-03 0. 0. 0. 0.
      4.69483575e-03 0. 0. 0. 0. 0. 0. 0. 0. 0. 0.</_>
    <_>
      0. 0. 0. 0. 0. 0. 0. 0. 0. 0. 0. 0. 0. 0. 0. 0. 0. 0. 0. 0. 0. 0.
      0. 0. 0. 0. 0. 0. 0. 0. 0. 0. 0. 0. 0. 0. 0. 0. 0. 0. 0. 0. 0. 0.
      0. 0. 0. 0. 0. 0. 0. 0. 0. 0. 0. 0. 0. 0. 0. 0. 0. 0. 0. 0. 0. 0.
      0. 0. 0. 0. 0. 0. 0. 0. 0. 0. 0. 0. 0. 0. 0. 0. 0. 0. 0. 0. 0. 0.
      0. 0. 0. 0. 0. 0. 0. 0. 0. 0. 0. 0. 0. 0. 0. 0. 0. 0. 0. 0. 0. 0.
      0. 0. 0. 0. 0. 0. 0. 0. 0. 0. 0. 0. 0. 0. 0. 0. 0. 0. 0. 0. 0. 0.
      0. 3.70370373e-02 0. 0. 0. 0. 0. 0. 0. 0. 0. 0. 0. 0. 0. 0. 0. 0.
      0. 0. 0. 0. 0. 0. 0. 0. 0. 0. 0. 0. 0. 0. 0. 0. 0. 0. 0. 0. 0. 0.
      0. 0. 0. 0. 0. 0. 0. 0. 0. 0. 0. 0. 0. 0. 0. 0. 0. 0. 0. 0. 0. 0.
      0. 0. 0. 0. 0. 0. 0. 0. 3.70370373e-02 0. 0. 0. 0. 0. 0. 0. 0.
      3.70370373e-02 0. 0. 3.70370373e-02 0. 0. 0. 0. 0. 0. 0. 0. 0. 0.
      0. 0. 0. 0. 1.11111112e-01 0. 0. 0. 0. 3.70370373e-02 0. 0. 0. 0.
      0. 0. 0. 0. 0. 0. 0. 0. 0. 0. 0. 0. 0. 0. 0. 0. 0. 0. 0. 0. 0. 0.
      0. 3.70370373e-02 0. 0. 3.70370373e-02 0. 3.70370373e-02 0. 0. 0.
      0. 0. 0. 0. 0. 0. 0. 0. 0. 0. 0. 0. 0. 0. 0. 0. 0. 0. 0. 0. 0. 0.
      0. 0. 0. 0. 0. 0. 0. 0. 0. 0. 0. 0. 0. 0. 0. 0. 0. 0. 0. 0. 0. 0.
      0. 0. 0. 0. 0. 0. 0. 0. 0. 0. 0. 0. 0. 0. 0. 0. 0. 0. 0. 0. 0. 0.
      0. 0. 0. 0. 0. 0. 0. 0. 0. 0. 0. 0. 0. 0. 0. 0. 0. 0. 0. 0. 0. 0.
      0. 0. 0. 0. 0. 0. 0. 0. 0. 0. 0. 0. 0. 0. 0. 0. 0. 0. 0. 0. 0. 0.
      0. 0. 0. 3.70370373e-02 0. 0. 0. 0. 0. 0. 0. 0. 0. 0. 0. 0. 0. 0.
      0. 0. 0. 0. 0. 0. 0. 0. 0. 0. 0. 0. 0. 0. 0. 0. 0. 0. 0.
      3.70370373e-02 0. 0. 0. 0. 0. 0. 0. 0. 0. 0. 3.70370373e-02 0. 0.
      0. 0. 0. 0. 0. 0. 0. 0. 0. 0. 0. 0. 0. 0. 0. 0. 0. 0. 0. 0. 0. 0.
      0. 0. 0. 0. 0. 0. 0. 0. 0. 3.70370373e-02 0. 0. 0. 0. 0. 0. 0. 0.
      3.70370373e-02 0. 0. 0. 0. 0. 0. 0. 0. 0. 0. 0. 0. 0. 0. 0. 0. 0.
      0. 0. 0. 0. 0. 0. 0. 0. 0. 0. 0. 0. 0. 0. 3.70370373e-02 0. 0. 0.
      0. 0. 0. 0. 0. 0. 0. 0. 0. 0. 0. 0. 0. 0. 0. 0. 0. 0. 0. 0. 0. 0.
      0. 0. 0. 0. 0. 0. 0. 0. 0. 0. 0. 0. 0. 0. 0. 0. 0. 0. 0. 0. 0. 0.
      0. 0. 0. 0. 0. 0. 0. 0. 0. 0. 0. 0. 0. 0. 0. 0. 0. 0. 0. 0. 0.
      3.70370373e-02 3.70370373e-02 0. 0. 0. 0. 0. 0. 0. 0. 0. 0. 0. 0.
      0. 0. 3.70370373e-02 0. 0. 0. 0. 0. 0. 0. 0. 0. 0. 0. 0. 0. 0. 0.
      0. 0. 0. 0. 0. 0. 0. 0. 0. 0. 0. 0. 0. 0. 0. 0. 0. 0. 0. 0. 0. 0.
      0. 0. 0. 0. 0. 0. 0. 0. 0. 0. 0. 0. 0. 0. 0. 0. 0. 0. 0. 0. 0. 0.
      0. 0. 0. 0. 0. 0. 0. 0. 0. 0. 0. 0. 0. 0. 0. 0. 0. 0. 0. 0. 0. 0.
      0. 0. 0. 0. 0. 0. 0. 0. 0. 0. 0. 0. 0. 0. 0. 0. 0. 3.70370373e-02
      0. 0. 0. 0. 0. 0. 0. 0. 0. 0. 0. 0. 0. 0. 0. 0. 0. 0. 0. 0. 0. 0.
      0. 0. 0. 0. 0. 0. 0. 0. 0. 0. 0. 0. 0. 0. 0. 0. 0. 0. 0. 0. 0. 0.
      0. 0. 0. 0. 0. 0. 0. 0. 0. 0. 0. 0. 0. 0. 0. 0. 0. 0. 0. 0. 0. 0.
      0. 0. 0. 0. 0. 0. 0. 0. 0. 0. 0. 0. 0. 0. 0. 0. 0. 0. 0. 0. 0. 0.
      0. 0. 0. 0. 0. 0. 0. 0. 0. 0. 0. 0. 0. 0. 0. 0. 0. 0. 0. 0. 0. 0.
      0. 0. 0. 0. 0. 0. 0. 0. 0. 0. 0. 0. 0. 0. 0. 0. 0. 0. 0. 0. 0. 0.
      0. 0. 0. 0. 0. 0. 0. 0. 0. 0. 0. 0. 0. 3.70370373e-02 0. 0. 0. 0.
      0. 0. 0. 0. 0. 0. 0. 0. 0. 0. 0. 0. 0. 0. 0. 0. 0. 0. 0. 0. 0. 0.
      0. 0. 0. 0. 0. 0. 0. 0. 0. 0. 0. 0. 3.70370373e-02 0. 0. 0. 0. 0.
      0. 0. 0. 0. 0. 0. 0. 0. 0. 0. 0. 0. 0. 0. 0. 0. 0. 0. 0. 0. 0. 0.
      0. 0. 3.70370373e-02 0. 0. 0. 0. 0. 0. 0. 0. 0. 0. 0.
      3.70370373e-02 0. 0. 0. 0. 0. 0. 0. 0. 0. 0. 0. 0. 0. 0.
      3.70370373e-02 0. 0. 0. 0. 0. 0. 0. 0. 0. 3.70370373e-02 0. 0. 0.
      0. 0. 0. 0. 0. 0. 0. 0. 0. 0. 0. 0. 0. 0. 0. 0. 0. 0. 0. 0. 0. 0.
      0. 0. 0. 0. 0. 0. 0. 0. 0. 0. 0. 0. 0. 0. 0. 0. 0. 0. 0. 0. 0. 0.
      0. 0. 0. 0. 0. 0. 0. 0. 0. 0. 0. 0.</_>
    <_>
      0. 0. 0. 1.92307699e-02 0. 0. 0. 0. 0. 0. 0. 0. 0. 0. 0. 0. 0. 0.
      0. 0. 0. 0. 1.92307699e-02 0. 0. 0. 0. 0. 0. 0. 0. 0. 0. 0. 0. 0.
      0. 0. 0. 0. 0. 0. 0. 1.92307699e-02 0. 0. 0. 0. 0. 0. 0. 0. 0. 0.
      0. 0. 0. 0. 0. 0. 0. 0. 0. 0. 0. 0. 0. 0. 0. 0. 0. 0. 0. 0. 0. 0.
      1.92307699e-02 1.92307699e-02 0. 0. 0. 0. 0. 0. 0. 0. 0. 0. 0. 0.
      0. 0. 0. 0. 0. 0. 1.92307699e-02 0. 0. 0. 0. 0. 0. 0. 0. 0.
      3.84615399e-02 0. 0. 0. 0. 0. 0. 0. 0. 0. 0. 0. 0. 0.
      1.92307699e-02 0. 0. 0. 0. 0. 0. 0. 0. 0. 0. 0. 0. 0. 0. 0. 0. 0.
      0. 0. 0. 0. 0. 0. 0. 0. 0. 0. 0. 0. 0. 0. 0. 0. 0. 0. 0. 0. 0. 0.
      0. 1.92307699e-02 0. 0. 0. 0. 0. 0. 0. 0. 0. 0. 0. 0. 0. 0. 0. 0.
      0. 0. 0. 0. 0. 0. 0. 0. 0. 0. 0. 0. 0. 0. 0. 0. 0. 0. 0. 0. 0. 0.
      0. 0. 0. 0. 0. 0. 0. 0. 0. 0. 0. 0. 0. 0. 0. 0. 0. 0. 0. 0. 0. 0.
      0. 0. 0. 0. 0. 0. 0. 0. 0. 0. 0. 0. 0. 0. 0. 0. 0. 0. 0. 0. 0.
      1.92307699e-02 0. 0. 0. 0. 0. 0. 0. 0. 0. 0. 0. 0. 1.92307699e-02
      0. 0. 0. 0. 0. 0. 1.92307699e-02 0. 1.92307699e-02 0.
      1.92307699e-02 0. 0. 0. 0. 0. 0. 1.92307699e-02 0. 0. 0. 0. 0. 0.
      0. 0. 0. 0. 0. 0. 0. 0. 0. 0. 0. 0. 0. 0. 0. 0. 0. 0. 0. 0. 0. 0.
      0. 0. 0. 0. 0. 0. 0. 0. 0. 0. 0. 0. 1.92307699e-02 0. 0. 0. 0. 0.
      0. 0. 0. 0. 0. 0. 0. 0. 0. 0. 0. 0. 0. 1.92307699e-02 0. 0. 0. 0.
      0. 0. 0. 0. 0. 0. 1.92307699e-02 1.92307699e-02 0. 0. 0. 0. 0. 0.
      0. 0. 0. 0. 0. 0. 0. 0. 0. 0. 0. 0. 0. 0. 0. 0. 0. 0. 0. 0. 0. 0.
      0. 0. 0. 0. 0. 0. 0. 0. 0. 1.92307699e-02 0. 0. 0. 0. 0. 0.
      1.92307699e-02 0. 0. 0. 0. 0. 0. 0. 0. 0. 0. 1.92307699e-02 0.
      1.92307699e-02 0. 0. 0. 0. 0. 0. 0. 0. 0. 1.92307699e-02 0. 0. 0.
      0. 0. 0. 0. 0. 0. 0. 0. 0. 0. 0. 0. 0. 0. 0. 0. 0. 0.
      3.84615399e-02 0. 0. 0. 0. 0. 0. 0. 0. 0. 0. 0. 0. 0. 0. 0. 0. 0.
      0. 1.92307699e-02 0. 0. 0. 0. 0. 0. 0. 0. 0. 0. 0. 0. 0. 0. 0. 0.
      0. 0. 0. 0. 0. 0. 0. 0. 0. 0. 0. 0. 0. 0. 0. 0. 0. 0. 0. 0. 0. 0.
      0. 0. 0. 0. 0. 0. 0. 0. 0. 0. 0. 0. 0. 0. 0. 0. 0. 0. 0. 0. 0. 0.
      0. 0. 0. 0. 0. 0. 0. 0. 0. 0. 0. 0. 0. 0. 0. 0. 0. 0. 0. 0. 0. 0.
      0. 0. 0. 0. 0. 0. 0. 0. 0. 0. 0. 0. 0. 0. 3.84615399e-02 0. 0. 0.
      0. 0. 0. 0. 0. 3.84615399e-02 0. 1.92307699e-02 0. 0. 0. 0. 0. 0.
      0. 0. 0. 0. 0. 0. 0. 0. 0. 0. 0. 0. 0. 0. 0. 0. 0. 0. 0. 0. 0. 0.
      0. 0. 0. 0. 0. 0. 0. 0. 0. 0. 0. 0. 0. 0. 0. 0. 0. 0. 0. 0. 0. 0.
