<?xml version="1.0"?>
<opencv_storage>
<my_svm type_id="opencv-ml-svm">
  <svm_type>C_SVC</svm_type>
  <kernel><type>RBF</type>
    <gamma>8.</gamma></kernel>
  <C>10.</C>
  <term_criteria><epsilon>1.1920928955078125e-07</epsilon>
    <iterations>2147483647</iterations></term_criteria>
  <var_all>1000</var_all>
  <var_count>1000</var_count>
  <class_count>2</class_count>
  <class_labels type_id="opencv-matrix">
    <rows>1</rows>
    <cols>2</cols>
    <dt>i</dt>
    <data>
      0 1</data></class_labels>
  <sv_total>157</sv_total>
  <support_vectors>
    <_>
      0. 0. 9.25925933e-03 9.25925933e-03 9.25925933e-03 0. 0. 0. 0. 0.
      0. 0. 0. 0. 0. 0. 0. 0. 0. 0. 0. 0. 0. 0. 0. 0. 0. 0. 0. 0. 0. 0.
      0. 0. 0. 0. 0. 0. 0. 9.25925933e-03 0. 0. 0. 2.77777780e-02 0. 0.
      0. 0. 9.25925933e-03 0. 0. 0. 0. 0. 9.25925933e-03 0. 0. 0. 0. 0.
      0. 0. 0. 9.25925933e-03 1.85185187e-02 0. 0. 0. 0. 0. 0. 0. 0. 0.
      0. 0. 0. 0. 0. 0. 0. 0. 0. 9.25925933e-03 0. 0. 0. 0. 0. 0. 0. 0.
      0. 9.25925933e-03 0. 0. 0. 0. 0. 0. 0. 0. 0. 0. 0. 0. 0. 0.
      1.85185187e-02 0. 0. 9.25925933e-03 0. 0. 0. 0. 0. 0.
      9.25925933e-03 0. 9.25925933e-03 0. 0. 0. 0. 0. 0. 0. 0. 0. 0. 0.
      0. 0. 0. 0. 0. 0. 0. 0. 0. 0. 1.85185187e-02 0. 0. 0. 0. 0.
      9.25925933e-03 0. 0. 0. 9.25925933e-03 0. 9.25925933e-03 0. 0. 0.
      0. 0. 0. 0. 0. 0. 0. 0. 0. 0. 0. 0. 0. 0. 0. 0. 0. 0. 0. 0. 0. 0.
      0. 0. 0. 0. 0. 0. 0. 0. 9.25925933e-03 0. 0. 0. 0. 9.25925933e-03
      0. 9.25925933e-03 9.25925933e-03 0. 0. 0. 0. 0. 0. 0. 0. 0. 0. 0.
      0. 0. 0. 0. 9.25925933e-03 0. 0. 0. 0. 0. 0. 0. 0. 0. 0. 0. 0. 0.
      0. 0. 0. 0. 0. 0. 0. 0. 0. 0. 0. 0. 0. 0. 0. 9.25925933e-03 0. 0.
      9.25925933e-03 0. 0. 0. 0. 9.25925933e-03 0. 0. 0. 0. 0. 0. 0. 0.
      0. 0. 0. 0. 0. 9.25925933e-03 0. 0. 0. 0. 9.25925933e-03 0. 0.
      9.25925933e-03 0. 0. 0. 0. 0. 0. 0. 9.25925933e-03 0. 0. 0. 0. 0.
      0. 0. 0. 0. 0. 0. 0. 0. 0. 0. 9.25925933e-03 0. 0. 0. 0. 0. 0. 0.
      9.25925933e-03 0. 0. 0. 0. 9.25925933e-03 0. 0. 0. 0. 0. 0. 0. 0.
      9.25925933e-03 0. 0. 0. 0. 0. 0. 0. 0. 0. 0. 0. 0. 0. 0. 0. 0. 0.
      0. 0. 0. 0. 0. 0. 0. 0. 0. 0. 0. 0. 9.25925933e-03 0. 0. 0. 0. 0.
      0. 0. 0. 0. 0. 0. 0. 9.25925933e-03 0. 9.25925933e-03 0. 0. 0. 0.
      0. 0. 0. 9.25925933e-03 0. 0. 0. 0. 0. 0. 0. 0. 0. 9.25925933e-03
      0. 0. 0. 0. 0. 0. 0. 0. 0. 0. 0. 0. 0. 0. 0. 9.25925933e-03 0. 0.
      0. 0. 0. 0. 0. 0. 9.25925933e-03 0. 9.25925933e-03 0. 0.
      9.25925933e-03 0. 0. 0. 0. 9.25925933e-03 0. 0. 9.25925933e-03 0.
      0. 0. 0. 0. 0. 0. 0. 0. 0. 0. 0. 1.85185187e-02 0. 0. 0. 0. 0. 0.
      9.25925933e-03 0. 0. 0. 0. 0. 0. 0. 0. 0. 0. 0. 0. 0. 0. 0.
      9.25925933e-03 0. 0. 0. 0. 0. 0. 0. 0. 0. 0. 0. 0. 0. 0. 0. 0. 0.
      9.25925933e-03 9.25925933e-03 0. 0. 0. 0. 0. 0. 0. 0. 0. 0. 0. 0.
      0. 0. 0. 0. 0. 0. 0. 9.25925933e-03 0. 9.25925933e-03 0. 0. 0. 0.
      0. 9.25925933e-03 0. 0. 0. 0. 0. 0. 0. 0. 0. 0. 9.25925933e-03 0.
      0. 9.25925933e-03 0. 0. 0. 0. 0. 0. 0. 0. 0. 0. 0. 0. 0. 0. 0. 0.
      0. 0. 0. 0. 0. 0. 0. 9.25925933e-03 0. 0. 0. 0. 9.25925933e-03 0.
      0. 0. 0. 0. 0. 0. 9.25925933e-03 0. 0. 0. 0. 0. 0. 0. 0. 0. 0. 0.
      0. 0. 0. 0. 0. 0. 0. 0. 0. 0. 0. 0. 0. 0. 0. 0. 0. 0. 0. 0. 0. 0.
      0. 0. 0. 0. 0. 9.25925933e-03 0. 0. 0. 0. 0. 0. 0. 0. 0. 0. 0. 0.
      0. 0. 0. 0. 9.25925933e-03 0. 0. 0. 0. 0. 1.85185187e-02 0. 0.
      9.25925933e-03 9.25925933e-03 0. 0. 0. 0. 0. 0. 0. 0. 0. 0. 0. 0.
      9.25925933e-03 9.25925933e-03 0. 0. 0. 0. 0. 0. 0. 0. 0. 0. 0. 0.
      0. 0. 0. 9.25925933e-03 0. 0. 0. 0. 0. 0. 0. 0. 0. 0. 0. 0. 0. 0.
      0. 9.25925933e-03 9.25925933e-03 0. 0. 0. 9.25925933e-03 0. 0. 0.
      0. 0. 0. 0. 0. 0. 0. 0. 0. 0. 0. 0. 0. 9.25925933e-03
      9.25925933e-03 0. 0. 0. 0. 9.25925933e-03 0. 0. 0. 0. 0. 0. 0. 0.
      0. 0. 0. 0. 0. 0. 0. 0. 0. 0. 0. 0. 0. 0. 0. 0. 0. 0. 0. 0. 0. 0.
      9.25925933e-03 0. 0. 9.25925933e-03 0. 0. 0. 0. 0. 0.
      9.25925933e-03 0. 0. 0. 0. 0. 0. 0. 0. 0. 0. 0. 0. 9.25925933e-03
      0. 0. 0. 0. 0. 0. 0. 0. 9.25925933e-03 0. 0. 0. 0. 0. 0. 0. 0. 0.
      0. 0. 9.25925933e-03 0. 0. 0. 0. 0. 0. 9.25925933e-03 0. 0. 0. 0.
      0. 0. 0. 0. 0. 0. 0. 0. 0. 0. 1.85185187e-02 0. 0. 9.25925933e-03
      0. 0. 9.25925933e-03 0. 0. 0. 9.25925933e-03 0. 0. 0. 0. 0. 0.
      9.25925933e-03 9.25925933e-03 0. 0. 0. 9.25925933e-03 0. 0. 0. 0.
      0. 0. 0. 0. 0. 0. 0. 9.25925933e-03 0. 0. 0. 0. 9.25925933e-03 0.
      0. 0. 0. 0. 0. 0. 0. 0. 0. 0. 0. 0. 0. 9.25925933e-03 0. 0. 0. 0.
      0. 0. 0. 0. 0. 0. 0. 0. 0. 0. 0. 0. 0. 0. 0. 0. 0. 0. 0. 0. 0. 0.
      0. 0. 0. 9.25925933e-03 0. 0. 0. 0. 0. 0. 0. 0. 0. 0. 0. 0. 0. 0.
      0. 0. 0. 0. 0. 0. 0. 0. 0. 0. 0. 9.25925933e-03 0. 0. 0. 0. 0.
      9.25925933e-03 0. 0. 9.25925933e-03 0. 0. 0. 0. 0. 9.25925933e-03
      0. 0. 0. 0. 0. 0. 0. 0. 0. 0. 0. 0. 0. 0. 0. 9.25925933e-03 0. 0.
      0. 0. 0. 0. 0. 0. 0. 0. 0. 0. 0. 0. 0. 0. 0. 0. 0. 0. 0. 0. 0. 0.
      0. 0. 0. 0. 0. 0. 0. 0. 1.85185187e-02 0. 0. 0. 0. 0. 0. 0. 0. 0.
      0. 0. 0. 0. 0. 0. 9.25925933e-03 0. 0. 0. 0. 0. 0. 0. 0. 0. 0. 0.
      0. 0. 0. 0. 9.25925933e-03 0. 0. 0. 0.</_>
    <_>
      8.54700897e-03 0. 8.54700897e-03 8.54700897e-03 0. 0. 0. 0. 0.
      8.54700897e-03 0. 0. 0. 0. 0. 0. 0. 0. 0. 0. 0. 0. 0. 0.
      2.56410278e-02 0. 0. 0. 0. 0. 0. 0. 0. 0. 0. 0. 0. 0. 0. 0. 0. 0.
      0. 1.70940179e-02 0. 0. 0. 0. 1.70940179e-02 0. 0. 0. 0. 0.
      8.54700897e-03 0. 0. 0. 0. 0. 0. 0. 0. 8.54700897e-03
      8.54700897e-03 0. 0. 0. 0. 0. 0. 0. 0. 0. 0. 0. 0. 0. 0. 0. 0. 0.
      0. 8.54700897e-03 0. 0. 0. 0. 0. 0. 0. 0. 0. 8.54700897e-03 0. 0.
      0. 0. 0. 0. 0. 0. 0. 8.54700897e-03 0. 0. 0. 0. 1.70940179e-02 0.
      0. 0. 0. 0. 0. 0. 0. 0. 0. 0. 8.54700897e-03 0. 0. 0. 0. 0. 0. 0.
      0. 0. 0. 0. 0. 0. 0. 0. 0. 0. 0. 0. 0. 0. 8.54700897e-03 0. 0. 0.
      0. 0. 0. 0. 0. 0. 8.54700897e-03 0. 0. 0. 0. 0. 0. 0. 0. 0. 0. 0.
      0. 8.54700897e-03 0. 0. 0. 0. 0. 0. 0. 0. 0. 0. 0. 0. 0.
      8.54700897e-03 0. 0. 0. 0. 8.54700897e-03 0. 0. 0. 0. 0. 0. 0. 0.
      8.54700897e-03 0. 0. 8.54700897e-03 0. 0. 0. 0. 0. 0. 0. 0. 0.
      8.54700897e-03 0. 0. 0. 0. 0. 8.54700897e-03 0. 0. 0. 0. 0. 0. 0.
      0. 0. 0. 0. 0. 0. 0. 0. 0. 0. 0. 0. 0. 0. 0. 0. 0. 0. 0. 0. 0.
      8.54700897e-03 0. 0. 8.54700897e-03 0. 0. 0. 0. 8.54700897e-03 0.
      0. 0. 0. 0. 0. 0. 8.54700897e-03 0. 0. 0. 0. 0. 0. 0. 0. 0. 0.
      8.54700897e-03 0. 0. 1.70940179e-02 0. 0. 0. 0. 8.54700897e-03 0.
      0. 0. 0. 0. 0. 8.54700897e-03 0. 0. 0. 0. 0. 0. 0. 0. 0. 0. 0.
      8.54700897e-03 0. 0. 0. 0. 0. 8.54700897e-03 0. 8.54700897e-03 0.
      0. 0. 0. 0. 0. 0. 0. 0. 0. 0. 0. 0. 8.54700897e-03 0. 0. 0. 0. 0.
      0. 0. 0. 0. 0. 0. 0. 0. 0. 0. 0. 0. 8.54700897e-03 0. 0. 0. 0. 0.
      0. 0. 0. 0. 0. 0. 8.54700897e-03 0. 0. 0. 0. 0. 0. 0. 0. 0. 0. 0.
      0. 8.54700897e-03 0. 0. 0. 0. 0. 0. 0. 0. 0. 8.54700897e-03 0. 0.
      0. 0. 0. 0. 0. 0. 0. 8.54700897e-03 0. 8.54700897e-03 0. 0. 0. 0.
      0. 0. 0. 0. 0. 0. 0. 8.54700897e-03 0. 8.54700897e-03 0. 0. 0. 0.
      0. 0. 0. 0. 8.54700897e-03 0. 8.54700897e-03 0. 0. 0. 0. 0. 0. 0.
      8.54700897e-03 0. 1.70940179e-02 8.54700897e-03 0. 0. 0. 0. 0. 0.
      0. 0. 0. 0. 0. 0. 1.70940179e-02 0. 0. 0. 0. 0. 0. 8.54700897e-03
      0. 0. 0. 0. 8.54700897e-03 0. 0. 0. 0. 0. 0. 8.54700897e-03 0. 0.
      0. 0. 0. 0. 0. 0. 0. 0. 0. 0. 0. 0. 0. 0. 0. 0. 0. 0. 0.
      8.54700897e-03 8.54700897e-03 0. 0. 0. 0. 0. 0. 0. 0. 0. 0. 0. 0.
      0. 0. 0. 0. 0. 0. 0. 8.54700897e-03 0. 8.54700897e-03 0. 0. 0. 0.
      0. 0. 0. 0. 0. 0. 0. 0. 8.54700897e-03 0. 0. 0. 8.54700897e-03 0.
      8.54700897e-03 8.54700897e-03 0. 0. 0. 0. 0. 0. 0. 0. 0. 0. 0. 0.
      0. 8.54700897e-03 0. 0. 0. 0. 0. 0. 0. 0. 0. 0. 0. 0. 0. 0. 0. 0.
      0. 0. 0. 0. 0. 0. 8.54700897e-03 0. 0. 0. 0. 0. 0. 0. 0. 0. 0. 0.
      0. 0. 0. 8.54700897e-03 0. 0. 0. 0. 0. 0. 0. 0. 0. 0. 0. 0. 0. 0.
      0. 0. 0. 0. 0. 0. 0. 0. 0. 8.54700897e-03 0. 0. 0. 8.54700897e-03
      8.54700897e-03 0. 0. 0. 0. 0. 0. 8.54700897e-03 0. 0. 0. 0. 0. 0.
      0. 0. 0. 0. 1.70940179e-02 0. 0. 0. 8.54700897e-03 0. 0. 0. 0. 0.
      0. 0. 0. 0. 0. 0. 0. 0. 8.54700897e-03 0. 0. 0. 0. 0. 0. 0. 0. 0.
      0. 0. 0. 0. 1.70940179e-02 0. 8.54700897e-03 0. 0. 0. 0. 0.
      8.54700897e-03 0. 0. 0. 0. 0. 0. 0. 0. 0. 8.54700897e-03
      8.54700897e-03 0. 0. 0. 8.54700897e-03 0. 0. 0. 0. 0. 0. 0. 0. 0.
      0. 0. 0. 8.54700897e-03 0. 0. 0. 8.54700897e-03 8.54700897e-03 0.
      0. 0. 0. 8.54700897e-03 0. 8.54700897e-03 0. 0. 0. 0. 0. 0. 0. 0.
      0. 0. 0. 0. 0. 0. 0. 0. 0. 0. 0. 8.54700897e-03 0. 0. 0. 0. 0. 0.
      0. 0. 8.54700897e-03 0. 0. 8.54700897e-03 0. 0. 0. 0. 0. 0. 0. 0.
      0. 0. 0. 0. 0. 0. 0. 0. 0. 0. 0. 8.54700897e-03 0. 0. 0. 0. 0. 0.
      0. 0. 8.54700897e-03 0. 0. 0. 0. 0. 0. 0. 0. 0. 0. 0.
      8.54700897e-03 0. 0. 0. 0. 0. 0. 8.54700897e-03 0. 0. 0. 0. 0. 0.
      0. 0. 0. 0. 0. 0. 0. 0. 8.54700897e-03 0. 0. 0. 0. 0.
      8.54700897e-03 0. 0. 0. 0. 0. 0. 0. 0. 0. 0. 0. 1.70940179e-02 0.
      0. 0. 8.54700897e-03 8.54700897e-03 0. 0. 0. 0. 0. 0. 0. 0. 0. 0.
      8.54700897e-03 0. 0. 0. 0. 0. 0. 0. 0. 0. 0. 0. 0. 0. 0. 0. 0. 0.
      0. 0. 0. 0. 0. 0. 0. 0. 0. 0. 0. 0. 0. 8.54700897e-03 0. 0. 0. 0.
      0. 0. 8.54700897e-03 0. 0. 0. 0. 0. 0. 0. 0. 0. 0. 0. 0. 0. 0. 0.
      0. 0. 0. 0. 0. 0. 0. 0. 0. 0. 0. 0. 0. 0. 0. 0. 0. 0. 0. 0. 0. 0.
      0. 0. 0. 0. 0. 0. 0. 0. 0. 0. 0. 8.54700897e-03 0. 0. 0.
      8.54700897e-03 0. 0. 0. 8.54700897e-03 0. 8.54700897e-03 0. 0. 0.
      0. 0. 0. 0. 0. 0. 8.54700897e-03 0. 0. 0. 0. 0. 0. 0. 0. 0. 0. 0.
      0. 0. 0. 0. 0. 8.54700897e-03 0. 0. 0. 0. 0. 0. 0. 0. 0. 0. 0. 0.
      0. 0. 0. 8.54700897e-03 0. 0. 0. 0. 0. 0. 0. 0. 0. 0. 0. 0. 0. 0.
      0. 8.54700897e-03 0. 0. 0. 0. 0. 0. 0. 0. 0. 0. 0. 0. 0. 0. 0.
      8.54700897e-03 0. 0. 0. 0.</_>
    <_>
      0. 0. 7.93650839e-03 7.93650839e-03 0. 0. 0. 0. 0. 0. 0. 0. 0. 0.
      0. 0. 0. 0. 0. 0. 0. 0. 0. 0. 7.93650839e-03 7.93650839e-03
      7.93650839e-03 0. 0. 0. 0. 0. 0. 0. 0. 0. 0. 0. 0. 7.93650839e-03
      0. 0. 0. 2.38095261e-02 0. 0. 7.93650839e-03 0. 1.58730168e-02 0.
      0. 0. 0. 0. 7.93650839e-03 0. 0. 0. 0. 0. 0. 0. 0. 0.
      7.93650839e-03 0. 0. 0. 0. 0. 0. 0. 0. 0. 0. 0. 0. 0.
      7.93650839e-03 0. 0. 0. 0. 0. 0. 0. 0. 0. 0. 7.93650839e-03 0. 0.
      0. 0. 0. 0. 0. 0. 0. 0. 0. 0. 0. 7.93650839e-03 0. 0. 0. 0.
      7.93650839e-03 0. 0. 0. 0. 0. 0. 0. 0. 0. 0. 0. 7.93650839e-03 0.
      0. 0. 0. 0. 0. 0. 0. 0. 7.93650839e-03 0. 0. 0. 0. 0. 0. 0. 0. 0.
      0. 0. 7.93650839e-03 0. 0. 0. 0. 0. 0. 0. 0. 0. 7.93650839e-03 0.
      0. 0. 0. 0. 0. 0. 0. 0. 0. 0. 0. 0. 0. 0. 0. 0. 0. 0. 0. 0. 0. 0.
      0. 0. 0. 0. 0. 0. 0. 0. 0. 0. 0. 0. 0. 0. 0. 0. 0. 0. 0. 0.
      7.93650839e-03 0. 0. 0. 0. 0. 0. 0. 0. 0. 7.93650839e-03 0. 0.
      7.93650839e-03 0. 0. 0. 0. 0. 0. 0. 7.93650839e-03 0. 0. 0.
      7.93650839e-03 7.93650839e-03 0. 0. 0. 0. 0. 0. 0. 0. 0. 0. 0. 0.
      0. 0. 0. 0. 0. 0. 7.93650839e-03 0. 0. 7.93650839e-03 0. 0. 0. 0.
      7.93650839e-03 0. 0. 0. 0. 0. 0. 7.93650839e-03 0. 7.93650839e-03
      0. 0. 0. 0. 0. 0. 0. 0. 0. 0. 0. 0. 7.93650839e-03 0. 0.
      7.93650839e-03 0. 0. 0. 0. 0. 0. 0. 0. 0. 0. 0. 0. 0. 0. 0. 0. 0.
      0. 0. 0. 7.93650839e-03 0. 0. 7.93650839e-03 0. 0. 7.93650839e-03
      0. 7.93650839e-03 0. 0. 0. 0. 7.93650839e-03 0. 0. 0. 0. 0. 0. 0.
      0. 7.93650839e-03 0. 0. 0. 0. 0. 0. 0. 0. 0. 0. 0. 0. 0. 0. 0. 0.
      0. 0. 0. 0. 0. 0. 0. 0. 0. 0. 0. 0. 0. 7.93650839e-03 0. 0. 0. 0.
      0. 0. 0. 0. 0. 0. 0. 0. 0. 0. 0. 0. 0. 0. 0. 0. 0. 0. 0. 0. 0. 0.
      0. 0. 0. 0. 0. 0. 1.58730168e-02 7.93650839e-03 7.93650839e-03 0.
      0. 0. 0. 0. 0. 0. 0. 0. 0. 0. 7.93650839e-03 0. 7.93650839e-03 0.
      0. 0. 0. 0. 0. 0. 0. 0. 0. 7.93650839e-03 0. 0. 0. 0. 0.
      7.93650839e-03 0. 0. 0. 7.93650839e-03 7.93650839e-03 0. 0. 0. 0.
      0. 0. 0. 0. 0. 0. 0. 7.93650839e-03 0. 0. 0. 0. 0. 0. 0.
      7.93650839e-03 0. 0. 0. 0. 7.93650839e-03 7.93650839e-03 0. 0. 0.
      0. 0. 0. 0. 0. 0. 0. 0. 0. 0. 0. 0. 0. 0. 0. 0. 0. 0. 0. 0. 0. 0.
      0. 0. 0. 0. 0. 7.93650839e-03 0. 0. 0. 0. 0. 0. 0. 7.93650839e-03
      0. 0. 0. 0. 0. 0. 0. 0. 0. 7.93650839e-03 0. 7.93650839e-03 0. 0.
      0. 0. 0. 7.93650839e-03 0. 0. 0. 0. 0. 0. 7.93650839e-03 0. 0. 0.
      7.93650839e-03 0. 0. 1.58730168e-02 0. 0. 0. 7.93650839e-03 0. 0.
      0. 0. 0. 0. 0. 0. 0. 0. 0. 0. 0. 0. 0. 0. 7.93650839e-03 0. 0. 0.
      0. 0. 0. 7.93650839e-03 0. 0. 0. 0. 0. 0. 0. 0. 7.93650839e-03 0.
      0. 0. 0. 0. 7.93650839e-03 0. 0. 0. 0. 0. 0. 0. 0. 0. 0. 0. 0. 0.
      0. 0. 0. 0. 0. 0. 7.93650839e-03 0. 0. 0. 0. 0. 0. 7.93650839e-03
      0. 0. 0. 0. 0. 7.93650839e-03 0. 0. 0. 0. 0. 0. 0. 0. 0. 0. 0.
      7.93650839e-03 7.93650839e-03 0. 0. 0. 0. 0. 0. 0. 0. 0.
      1.58730168e-02 0. 0. 0. 7.93650839e-03 0. 0. 0. 0. 0. 0. 0. 0. 0.
      0. 1.58730168e-02 0. 0. 1.58730168e-02 0. 0. 0. 0. 7.93650839e-03
      7.93650839e-03 0. 0. 0. 0. 0. 0. 0. 7.93650839e-03 0.
      7.93650839e-03 0. 0. 0. 0. 0. 7.93650839e-03 0. 0. 0.
      7.93650839e-03 0. 0. 0. 0. 0. 0. 7.93650839e-03 0. 0. 0. 0. 0.
      7.93650839e-03 0. 0. 0. 0. 0. 0. 0. 0. 0. 0. 0. 0. 0. 0.
      7.93650839e-03 7.93650839e-03 0. 0. 0. 0. 7.93650839e-03 0.
      7.93650839e-03 7.93650839e-03 0. 0. 0. 0. 0. 0. 0. 0. 0. 0. 0. 0.
      0. 0. 0. 0. 0. 0. 0. 0. 0. 0. 0. 0. 0. 0. 0. 0. 0. 0.
      7.93650839e-03 0. 7.93650839e-03 0. 0. 0. 0. 0. 0. 0. 0. 0. 0. 0.
      0. 0. 0. 0. 0. 0. 7.93650839e-03 0. 0. 0. 0. 0. 0. 0. 0. 0.
      7.93650839e-03 0. 0. 0. 0. 0. 0. 0. 0. 0. 0. 7.93650839e-03 0. 0.
      0. 0. 0. 0. 7.93650839e-03 0. 0. 0. 0. 0. 0. 0. 0. 1.58730168e-02
      0. 0. 0. 0. 0. 0. 0. 0. 7.93650839e-03 0. 0. 7.93650839e-03 0. 0.
      0. 7.93650839e-03 0. 0. 0. 0. 0. 0. 0. 7.93650839e-03 0. 0. 0.
      7.93650839e-03 0. 0. 0. 0. 0. 0. 0. 0. 0. 7.93650839e-03 0.
      7.93650839e-03 0. 0. 7.93650839e-03 0. 7.93650839e-03 0. 0. 0. 0.
      0. 0. 0. 0. 0. 0. 0. 0. 0. 0. 7.93650839e-03 0. 0. 0. 0. 0. 0.
      7.93650839e-03 0. 0. 0. 0. 0. 0. 0. 0. 0. 0. 0. 0. 0. 0. 0. 0. 0.
      0. 0. 7.93650839e-03 0. 0. 0. 0. 0. 0. 0. 0. 0. 0. 0. 0. 0. 0. 0.
      7.93650839e-03 0. 0. 0. 0. 0. 0. 0. 0. 0. 7.93650839e-03 0. 0. 0.
      0. 0. 0. 0. 0. 0. 0. 0. 0. 0. 7.93650839e-03 0. 0. 0. 0. 0. 0. 0.
      0. 0. 0. 7.93650839e-03 0. 0. 0. 0. 0. 7.93650839e-03 0. 0.
      7.93650839e-03 0. 0. 0. 0. 0. 0. 0. 7.93650839e-03 0. 0. 0. 0. 0.
      0. 0. 0. 7.93650839e-03 0. 0. 0. 0. 0. 0. 0. 0. 0. 0. 0. 0. 0. 0.
      0. 0. 0. 0. 0. 0. 0. 0. 0. 0. 0. 0. 7.93650839e-03 0. 0. 0. 0.
      1.58730168e-02 0. 0. 0. 0. 0. 0. 0. 0. 0. 0. 0. 0. 0. 0. 0. 0. 0.
      0. 0. 0.</_>
    <_>
      0. 0. 8.33333377e-03 8.33333377e-03 0. 0. 0. 0. 0. 0. 0. 0. 0. 0.
      0. 0. 0. 0. 0. 0. 0. 0. 0. 0. 0. 0. 0. 0. 0. 0. 0. 0. 0. 0. 0. 0.
      0. 0. 0. 0. 0. 0. 0. 1.66666675e-02 0. 0. 0. 0. 8.33333377e-03 0.
      0. 0. 0. 0. 8.33333377e-03 0. 0. 0. 0. 0. 0. 0. 0. 0. 0. 0. 0. 0.
      0. 0. 0. 0. 0. 0. 0. 0. 0. 0. 0. 0. 0. 0. 0. 8.33333377e-03 0.
      8.33333377e-03 0. 8.33333377e-03 0. 0. 0. 0. 0. 8.33333377e-03 0.
      0. 0. 0. 0. 0. 0. 0. 0. 8.33333377e-03 0. 0. 0. 0. 0. 0. 0.
      8.33333377e-03 0. 0. 0. 0. 0. 8.33333377e-03 0. 0. 8.33333377e-03
      8.33333377e-03 0. 0. 8.33333377e-03 0. 0. 0. 0. 0. 0. 0. 0. 0. 0.
      0. 0. 0. 0. 0. 0. 0. 8.33333377e-03 0. 0. 0. 0. 0. 1.66666675e-02
      0. 0. 0. 8.33333377e-03 0. 0. 0. 0. 0. 0. 0. 0. 0. 0. 0. 0. 0. 0.
      0. 0. 0. 0. 0. 0. 0. 0. 0. 0. 0. 0. 0. 0. 0. 0. 0. 0. 0. 0. 0. 0.
      0. 0. 0. 0. 0. 0. 0. 1.66666675e-02 0. 0. 0. 0. 0. 0. 0. 0. 0.
      8.33333377e-03 0. 0. 0. 0. 0. 0. 8.33333377e-03 0. 0. 0. 0. 0. 0.
      0. 0. 8.33333377e-03 0. 0. 0. 0. 0. 0. 0. 0. 0. 0. 0. 0. 0. 0. 0.
      0. 0. 0. 8.33333377e-03 0. 0. 8.33333377e-03 8.33333377e-03 0. 0.
      0. 8.33333377e-03 0. 0. 0. 0. 0. 0. 0. 0. 0. 0. 0. 0. 0. 0. 0. 0.
      0. 0. 8.33333377e-03 0. 8.33333377e-03 1.66666675e-02 0. 0.
      8.33333377e-03 0. 8.33333377e-03 0. 0. 0. 0. 0. 0. 0.
      8.33333377e-03 0. 0. 0. 0. 0. 0. 0. 0. 0. 0. 0. 0. 0. 0. 0. 0. 0.
      0. 8.33333377e-03 0. 0. 0. 0. 8.33333377e-03 0. 0. 0. 0.
      8.33333377e-03 0. 0. 8.33333377e-03 0. 0. 0. 0. 0. 0. 0. 0. 0. 0.
      0. 0. 0. 0. 0. 0. 0. 0. 8.33333377e-03 0. 0. 0. 0. 0. 0. 0. 0. 0.
      0. 0. 0. 0. 0. 0. 0. 0. 0. 0. 0. 0. 0. 0. 0. 8.33333377e-03 0. 0.
      0. 0. 0. 0. 0. 0. 0. 0. 0. 0. 0. 0. 0. 0. 0. 0. 0. 8.33333377e-03
      0. 0. 0. 0. 0. 0. 0. 0. 0. 0. 0. 0. 0. 8.33333377e-03 0. 0. 0. 0.
      0. 0. 0. 0. 0. 0. 8.33333377e-03 0. 8.33333377e-03 0. 0. 0. 0. 0.
      8.33333377e-03 0. 0. 0. 0. 8.33333377e-03 0. 0. 0. 0. 0. 0. 0. 0.
      0. 0. 0. 0. 1.66666675e-02 0. 0. 0. 0. 0. 0. 8.33333377e-03 0. 0.
      0. 0. 8.33333377e-03 0. 0. 0. 0. 0. 0. 0. 0. 0. 0. 8.33333377e-03
      0. 0. 0. 0. 0. 8.33333377e-03 0. 0. 0. 0. 0. 0. 0. 0. 0. 0. 0. 0.
      8.33333377e-03 0. 0. 0. 0. 0. 0. 0. 0. 0. 0. 0. 0. 0. 0. 0. 0.
      8.33333377e-03 0. 0. 8.33333377e-03 0. 8.33333377e-03 0. 0. 0. 0.
      0. 0. 0. 0. 0. 0. 0. 0. 0. 0. 0. 0. 8.33333377e-03 0. 0.
      8.33333377e-03 0. 0. 0. 0. 0. 0. 0. 0. 0. 0. 0. 8.33333377e-03 0.
      0. 0. 0. 0. 0. 0. 0. 8.33333377e-03 0. 8.33333377e-03 0. 0. 0. 0.
      0. 0. 0. 0. 0. 0. 0. 0. 0. 8.33333377e-03 0. 0. 0. 8.33333377e-03
      0. 0. 0. 0. 0. 0. 0. 0. 0. 0. 0. 0. 0. 0. 0. 0. 0. 0. 0. 0. 0. 0.
      0. 0. 0. 0. 0. 0. 8.33333377e-03 0. 0. 0. 0. 0. 0. 0.
      8.33333377e-03 0. 1.66666675e-02 0. 0. 0. 0. 0. 0. 0. 0. 0. 0. 0.
      0. 0. 0. 0. 0. 0. 0. 8.33333377e-03 0. 8.33333377e-03 0.
      8.33333377e-03 0. 0. 0. 0. 0. 0. 0. 0. 0. 8.33333377e-03 0. 0. 0.
      8.33333377e-03 0. 0. 0. 0. 0. 0. 0. 0. 0. 0. 0. 0. 0. 0. 0.
      8.33333377e-03 0. 0. 0. 0. 0. 1.66666675e-02 0. 0. 0. 0. 0. 0. 0.
      0. 0. 8.33333377e-03 8.33333377e-03 0. 0. 0. 0. 0. 0. 0. 0. 0. 0.
      0. 0. 0. 0. 0. 0. 0. 0. 0. 0. 8.33333377e-03 8.33333377e-03 0. 0.
      0. 0. 8.33333377e-03 0. 0. 0. 0. 0. 0. 8.33333377e-03 0. 0. 0. 0.
      0. 0. 0. 0. 0. 0. 0. 0. 0. 0. 0. 8.33333377e-03 0. 0. 0. 0. 0. 0.
      0. 8.33333377e-03 0. 0. 1.66666675e-02 0. 0. 0. 0. 0. 0.
      8.33333377e-03 0. 0. 0. 0. 0. 0. 0. 0. 0. 0. 0. 0. 8.33333377e-03
      8.33333377e-03 0. 0. 0. 0. 0. 0. 0. 8.33333377e-03 0. 0. 0. 0. 0.
      0. 0. 0. 0. 0. 0. 8.33333377e-03 0. 0. 0. 0. 0. 0. 0. 0. 0. 0. 0.
      0. 0. 0. 0. 0. 0. 0. 0. 8.33333377e-03 0. 1.66666675e-02 0. 0.
      8.33333377e-03 0. 0. 8.33333377e-03 0. 0. 0. 8.33333377e-03 0. 0.
      0. 0. 0. 0. 0. 1.66666675e-02 0. 0. 0. 8.33333377e-03
      8.33333377e-03 0. 0. 0. 0. 0. 0. 0. 0. 0. 0. 8.33333377e-03 0. 0.
      0. 0. 1.66666675e-02 0. 0. 0. 0. 0. 0. 0. 0. 0. 8.33333377e-03 0.
      0. 0. 0. 0. 0. 0. 0. 0. 0. 0. 0. 0. 0. 0. 0. 0. 0. 0. 0. 0. 0.
      8.33333377e-03 0. 0. 0. 0. 0. 0. 0. 0. 0. 0. 0. 0. 0. 0. 0. 0. 0.
      0. 0. 0. 0. 0. 0. 0. 0. 0. 0. 0. 0. 0. 0. 0. 0. 0. 0. 0. 0.
      8.33333377e-03 0. 0. 0. 0. 0. 8.33333377e-03 0. 0. 0. 0.
      1.66666675e-02 0. 0. 0. 8.33333377e-03 0. 0. 8.33333377e-03 0. 0.
      0. 0. 0. 0. 0. 0. 0. 0. 0. 0. 8.33333377e-03 0. 0. 0. 0. 0. 0. 0.
      0. 0. 0. 0. 0. 0. 0. 0. 0. 8.33333377e-03 0. 0. 0. 0. 0. 0. 0. 0.
      0. 0. 0. 0. 0. 0. 0. 8.33333377e-03 0. 0. 0. 0. 0. 0. 0. 0. 0. 0.
      8.33333377e-03 0. 0. 0. 0. 8.33333377e-03 0. 0. 0. 0. 0. 0. 0.
      8.33333377e-03 0. 0. 0. 0. 0. 0. 0. 8.33333377e-03 0. 0. 0. 0.</_>
    <_>
      0. 7.87401572e-03 0. 7.87401572e-03 0. 0. 0. 0. 0. 0. 0. 0. 0. 0.
      0. 0. 0. 0. 0. 0. 0. 0. 0. 0. 0. 0. 0. 0. 0. 0. 0. 0. 0. 0. 0. 0.
      7.87401572e-03 0. 0. 7.87401572e-03 0. 0. 0. 2.36220472e-02 0. 0.
      0. 0. 0. 0. 0. 0. 0. 0. 7.87401572e-03 0. 0. 0. 0. 0. 0. 0. 0. 0.
      0. 0. 0. 0. 0. 0. 0. 0. 7.87401572e-03 0. 0. 0. 0. 0. 0. 0. 0. 0.
      0. 7.87401572e-03 0. 7.87401572e-03 0. 0. 0. 0. 0. 0. 0.
      7.87401572e-03 0. 0. 0. 0. 0. 0. 0. 0. 0. 7.87401572e-03 0. 0. 0.
      0. 7.87401572e-03 0. 0. 7.87401572e-03 0. 0. 0. 0. 0.
      7.87401572e-03 0. 0. 7.87401572e-03 0. 0. 0. 0. 0. 0. 0. 0. 0. 0.
      0. 0. 0. 0. 0. 0. 0. 0. 0. 0. 0. 7.87401572e-03 0. 0. 0. 0. 0.
      7.87401572e-03 0. 0. 0. 7.87401572e-03 0. 0. 0. 0. 0. 0. 0. 0. 0.
      0. 0. 0. 0. 0. 0. 0. 0. 0. 0. 7.87401572e-03 0. 0. 0. 0. 0. 0.
      7.87401572e-03 0. 0. 0. 0. 0. 0. 0. 0. 0. 7.87401572e-03 0. 0. 0.
      0. 0. 0. 0. 0. 0. 0. 0. 0. 0. 0. 0. 0. 0. 0. 0. 0. 0. 0. 0.
      7.87401572e-03 1.57480314e-02 0. 0. 0. 0. 0. 0. 7.87401572e-03
      7.87401572e-03 0. 0. 0. 0. 0. 0. 0. 0. 0. 0. 0. 0. 0. 0. 0. 0. 0.
      0. 0. 0. 0. 0. 0. 0. 0. 0. 7.87401572e-03 0. 0. 0. 0. 0. 0. 0. 0.
      0. 0. 0. 0. 0. 0. 0. 0. 0. 0. 7.87401572e-03 0. 0. 7.87401572e-03
      0. 0. 0. 0. 7.87401572e-03 0. 0. 7.87401572e-03 0. 0. 0. 0. 0. 0.
      0. 0. 0. 0. 0. 0. 0. 0. 0. 7.87401572e-03 0. 0. 0. 7.87401572e-03
      0. 0. 0. 7.87401572e-03 0. 0. 0. 0. 0. 0. 0. 0. 7.87401572e-03 0.
      0. 0. 0. 0. 0. 0. 0. 0. 0. 0. 0. 0. 0. 0. 7.87401572e-03 0. 0. 0.
      0. 0. 0. 7.87401572e-03 0. 0. 0. 0. 0. 0. 0. 0. 0. 0. 0. 0. 0. 0.
      0. 0. 0. 0. 0. 0. 0. 0. 0. 0. 7.87401572e-03 0. 0. 0. 0. 0. 0.
      7.87401572e-03 0. 0. 0. 7.87401572e-03 0. 0. 0. 0. 0. 0.
      7.87401572e-03 0. 7.87401572e-03 0. 0. 0. 0. 0. 0. 0. 0. 0. 0. 0.
      0. 1.57480314e-02 0. 0. 1.57480314e-02 0. 0. 0. 0. 0. 0. 0. 0. 0.
      0. 7.87401572e-03 0. 0. 0. 0. 0. 7.87401572e-03 0. 7.87401572e-03
      0. 7.87401572e-03 7.87401572e-03 0. 0. 0. 0. 0. 0. 7.87401572e-03
      0. 7.87401572e-03 0. 0. 0. 1.57480314e-02 0. 0. 7.87401572e-03 0.
      0. 0. 7.87401572e-03 7.87401572e-03 0. 0. 0. 1.57480314e-02 0. 0.
      0. 0. 0. 0. 0. 0. 0. 0. 0. 0. 0. 0. 0. 0. 0. 0. 0. 0. 0. 0. 0. 0.
      0. 0. 0. 0. 0. 7.87401572e-03 0. 0. 0. 0. 0. 0. 0. 0. 0. 0. 0. 0.
      0. 0. 7.87401572e-03 0. 0. 0. 0. 7.87401572e-03 0. 7.87401572e-03
      0. 0. 7.87401572e-03 0. 0. 0. 0. 0. 0. 0. 0. 0. 7.87401572e-03 0.
      0. 0. 7.87401572e-03 0. 0. 1.57480314e-02 0. 0. 0. 0. 0. 0. 0. 0.
      0. 0. 0. 0. 0. 0. 0. 0. 0. 0. 0. 0. 0. 0. 0. 0. 0. 0.
      7.87401572e-03 0. 0. 0. 0. 0. 0. 0. 0. 0. 7.87401572e-03 0. 0. 0.
      0. 0. 0. 0. 0. 0. 0. 0. 0. 0. 0. 0. 0. 0. 0. 0. 0. 0. 0. 0. 0. 0.
      0. 0. 0. 0. 0. 0. 0. 7.87401572e-03 0. 0. 0. 0. 0. 1.57480314e-02
      0. 0. 0. 7.87401572e-03 0. 0. 0. 0. 0. 0. 0. 0. 0. 0.
      7.87401572e-03 0. 0. 0. 0. 0. 0. 0. 7.87401572e-03 0. 0. 0.
      7.87401572e-03 0. 0. 7.87401572e-03 0. 0. 0. 0. 0. 0. 0. 0. 0.
      7.87401572e-03 1.57480314e-02 0. 0. 0. 0. 0. 7.87401572e-03 0. 0.
      0. 0. 0. 0. 0. 0. 0. 0. 0. 0. 0. 0. 0. 7.87401572e-03 0. 0. 0. 0.
      0. 0. 0. 0. 0. 0. 7.87401572e-03 0. 0. 0. 0. 0. 0. 0. 0. 0. 0. 0.
      0. 0. 0. 0. 0. 0. 0. 0. 0. 7.87401572e-03 7.87401572e-03 0.
      7.87401572e-03 0. 0. 7.87401572e-03 0. 7.87401572e-03 0. 0. 0. 0.
      7.87401572e-03 0. 0. 0. 0. 0. 0. 0. 0. 0. 0. 0. 0. 0. 0. 0. 0. 0.
      7.87401572e-03 0. 0. 0. 0. 0. 7.87401572e-03 0. 0. 1.57480314e-02
      0. 0. 0. 0. 0. 0. 0. 0. 0. 7.87401572e-03 0. 0. 0. 0. 0. 0. 0. 0.
      0. 7.87401572e-03 0. 0. 0. 0. 0. 0. 0. 0. 7.87401572e-03 0. 0. 0.
      0. 0. 0. 0. 0. 0. 0. 0. 0. 0. 0. 0. 0. 0. 0. 0. 0. 0. 0. 0. 0. 0.
      0. 0. 0. 0. 0. 0. 0. 0. 2.36220472e-02 0. 0. 0. 7.87401572e-03 0.
      7.87401572e-03 0. 0. 0. 7.87401572e-03 0. 0. 0. 0. 0. 0. 0.
      7.87401572e-03 0. 7.87401572e-03 0. 0. 7.87401572e-03 0. 0. 0. 0.
      0. 0. 0. 0. 1.57480314e-02 0. 0. 0. 0. 0. 0. 1.57480314e-02 0. 0.
      0. 0. 0. 0. 0. 0. 0. 1.57480314e-02 7.87401572e-03 0. 0. 0. 0. 0.
      0. 0. 0. 0. 0. 0. 0. 0. 0. 0. 0. 0. 0. 0. 0. 0. 7.87401572e-03 0.
      0. 0. 0. 0. 0. 0. 0. 0. 0. 0. 0. 0. 0. 0. 0. 0. 0. 0. 0. 0. 0. 0.
      0. 0. 0. 0. 0. 0. 0. 0. 0. 0. 0. 0. 0. 0. 7.87401572e-03 0. 0. 0.
      0. 0. 0. 0. 0. 0. 0. 1.57480314e-02 0. 0. 0. 7.87401572e-03 0. 0.
      0. 7.87401572e-03 0. 0. 0. 0. 0. 0. 0. 0. 0. 0. 0. 0. 0. 0. 0. 0.
      0. 0. 0. 0. 0. 0. 0. 0. 0. 0. 0. 0. 0. 0. 0. 0. 0. 0. 0. 0. 0. 0.
      0. 0. 0. 0. 0. 0. 0. 0. 0. 7.87401572e-03 0. 0. 0. 0. 0. 0.
      7.87401572e-03 0. 0. 0. 7.87401572e-03 0. 7.87401572e-03 0. 0. 0.
      0. 0. 0. 0. 0. 0. 0. 0. 0. 0. 0. 0. 0. 0. 7.87401572e-03 0. 0.</_>
    <_>
      0. 0. 0. 8.84955749e-03 0. 0. 0. 0. 0. 0. 0. 0. 0. 0. 0. 0. 0. 0.
      0. 0. 0. 0. 0. 0. 8.84955749e-03 0. 0. 0. 0. 0. 0. 0. 0. 0. 0. 0.
      8.84955749e-03 0. 0. 0. 0. 0. 0. 1.76991150e-02 0. 0. 0. 0. 0. 0.
      0. 0. 0. 0. 8.84955749e-03 0. 0. 0. 0. 0. 0. 0. 0. 0. 0. 0. 0. 0.
      0. 0. 0. 0. 8.84955749e-03 0. 0. 0. 0. 0. 0. 0. 0. 0. 0.
      8.84955749e-03 0. 8.84955749e-03 0. 0. 0. 0. 0. 0. 0.
      8.84955749e-03 0. 0. 0. 0. 0. 0. 0. 0. 0. 8.84955749e-03 0. 0. 0.
      0. 8.84955749e-03 0. 0. 0. 0. 0. 0. 0. 0. 0. 0. 0. 8.84955749e-03
      0. 0. 0. 0. 0. 0. 0. 0. 0. 8.84955749e-03 0. 0. 0. 0. 0. 0. 0. 0.
      0. 0. 0. 8.84955749e-03 0. 0. 0. 0. 0. 2.65486725e-02 0. 0. 0.
      8.84955749e-03 0. 0. 0. 0. 0. 0. 0. 0. 8.84955749e-03 0. 0. 0. 0.
      0. 0. 0. 0. 0. 0. 0. 0. 0. 0. 0. 0. 0. 0. 0. 0. 0. 0. 0. 0. 0. 0.
      0. 0. 0. 0. 0. 0. 0. 0. 0. 0. 0. 0. 0. 0. 0. 0. 0. 8.84955749e-03
      0. 0. 0. 0. 0. 0. 0. 0. 0. 0. 0. 0. 0. 0. 0. 0. 8.84955749e-03 0.
      0. 0. 0. 0. 0. 0. 0. 0. 8.84955749e-03 0. 0. 0. 0. 0. 0. 0. 0. 0.
      0. 0. 0. 0. 0. 0. 0. 8.84955749e-03 0. 0. 0. 0. 0. 0. 0. 0. 0. 0.
      0. 0. 0. 0. 0. 0. 0. 0. 0. 0. 0. 8.84955749e-03 0. 0. 0. 0. 0. 0.
      0. 0. 0. 0. 0. 0. 0. 0. 0. 0. 0. 0. 0. 0. 0. 0. 0. 0. 0. 0. 0.
      8.84955749e-03 0. 0. 0. 8.84955749e-03 0. 0. 0. 0. 0. 0. 0. 0. 0.
      0. 0. 0. 0. 0. 0. 0. 0. 0. 0. 0. 0. 0. 0. 0. 8.84955749e-03 0. 0.
      0. 0. 0. 0. 8.84955749e-03 0. 0. 0. 0. 0. 0. 0. 0. 0. 0. 0. 0. 0.
      0. 0. 0. 0. 0. 0. 0. 0. 0. 0. 8.84955749e-03 0. 0. 0. 0. 0. 0. 0.
      0. 0. 0. 0. 8.84955749e-03 0. 0. 0. 8.84955749e-03 0. 0.
      8.84955749e-03 0. 8.84955749e-03 0. 0. 0. 0. 0. 0. 0. 0. 0. 0. 0.
      0. 8.84955749e-03 0. 0. 8.84955749e-03 0. 0. 0. 0. 0. 0. 0. 0. 0.
      0. 8.84955749e-03 0. 0. 0. 0. 0. 0. 0. 0. 0. 8.84955749e-03
      8.84955749e-03 0. 0. 0. 0. 0. 0. 1.76991150e-02 0. 0. 0. 0. 0.
      8.84955749e-03 0. 0. 0. 0. 0. 0. 8.84955749e-03 0. 0. 0. 0.
      1.76991150e-02 0. 0. 0. 0. 0. 0. 0. 0. 0. 0. 8.84955749e-03 0. 0.
      0. 0. 0. 0. 0. 0. 0. 0. 0. 0. 0. 0. 0. 0. 0. 0. 8.84955749e-03 0.
      0. 0. 0. 0. 0. 0. 0. 0. 0. 0. 0. 0. 0. 8.84955749e-03 0.
      8.84955749e-03 0. 0. 8.84955749e-03 0. 8.84955749e-03 0. 0.
      8.84955749e-03 0. 0. 0. 0. 0. 0. 0. 0. 0. 8.84955749e-03 0. 0. 0.
      8.84955749e-03 0. 0. 1.76991150e-02 0. 0. 0. 0. 0. 8.84955749e-03
      0. 0. 0. 0. 0. 0. 0. 0. 0. 0. 0. 8.84955749e-03 0. 0. 0. 0.
      8.84955749e-03 0. 0. 0. 8.84955749e-03 0. 0. 0. 0. 0. 0. 0. 0. 0.
      8.84955749e-03 0. 0. 0. 0. 0. 0. 0. 0. 0. 0. 0. 0. 0. 0. 0. 0. 0.
      0. 0. 0. 0. 0. 0. 0. 0. 0. 0. 0. 0. 0. 0. 8.84955749e-03
      8.84955749e-03 0. 0. 0. 0. 0. 8.84955749e-03 0. 0. 0.
      8.84955749e-03 0. 0. 0. 0. 0. 0. 0. 0. 0. 0. 0. 0. 0. 0. 0. 0. 0.
      0. 8.84955749e-03 0. 0. 0. 8.84955749e-03 0. 0. 8.84955749e-03 0.
      0. 0. 0. 0. 0. 0. 0. 0. 8.84955749e-03 8.84955749e-03 0. 0. 0. 0.
      0. 0. 0. 0. 0. 0. 0. 0. 0. 0. 0. 8.84955749e-03 8.84955749e-03 0.
      0. 0. 0. 8.84955749e-03 0. 0. 0. 0. 0. 0. 0. 0. 0. 8.84955749e-03
      8.84955749e-03 0. 0. 0. 0. 0. 0. 0. 0. 0. 0. 0. 0. 0. 0. 0. 0. 0.
      0. 0. 0. 8.84955749e-03 8.84955749e-03 0. 8.84955749e-03 0. 0.
      8.84955749e-03 0. 8.84955749e-03 8.84955749e-03 0. 0. 0.
      8.84955749e-03 0. 0. 0. 0. 0. 0. 0. 0. 0. 0. 0. 0. 0. 0. 0. 0. 0.
      0. 0. 0. 0. 0. 0. 1.76991150e-02 0. 0. 8.84955749e-03 0. 0. 0. 0.
      0. 0. 0. 0. 0. 0. 0. 0. 0. 0. 0. 0. 0. 0. 0. 8.84955749e-03 0. 0.
      0. 0. 0. 0. 0. 0. 8.84955749e-03 0. 0. 0. 0. 0. 0. 0. 0. 0. 0. 0.
      0. 0. 0. 0. 0. 0. 0. 0. 0. 0. 0. 0. 0. 0. 0. 0. 0. 0. 0. 0.
      8.84955749e-03 0. 1.76991150e-02 0. 0. 0. 8.84955749e-03 0.
      8.84955749e-03 0. 0. 0. 0. 0. 0. 0. 0. 0. 0. 0. 1.76991150e-02 0.
      8.84955749e-03 0. 8.84955749e-03 8.84955749e-03 0. 0. 0. 0. 0. 0.
      0. 0. 0. 0. 8.84955749e-03 0. 0. 0. 0. 8.84955749e-03 0. 0. 0. 0.
      0. 0. 0. 0. 0. 1.76991150e-02 0. 0. 0. 0. 0. 0. 0. 0. 0. 0. 0. 0.
      0. 0. 0. 0. 0. 0. 0. 0. 0. 0. 0. 0. 0. 0. 0. 0. 0. 0. 0. 0. 0. 0.
      0. 0. 0. 0. 0. 0. 0. 8.84955749e-03 0. 0. 0. 0. 0. 8.84955749e-03
      8.84955749e-03 0. 0. 0. 0. 0. 0. 0. 0. 0. 0. 0. 1.76991150e-02 0.
      0. 0. 0. 0. 0. 0. 0. 0. 0. 1.76991150e-02 0. 0. 0. 8.84955749e-03
      0. 8.84955749e-03 0. 0. 0. 0. 0. 0. 0. 0. 0. 0. 0. 0. 0. 0. 0. 0.
      0. 0. 0. 0. 0. 0. 0. 0. 0. 0. 0. 0. 0. 0. 0. 0. 0. 0. 0. 0. 0. 0.
      0. 8.84955749e-03 0. 0. 0. 0. 0. 0. 0. 0. 0. 0. 8.84955749e-03 0.
      0. 0. 0. 0. 0. 0. 0. 0. 0. 0. 8.84955749e-03 0. 0. 0. 0. 0. 0. 0.
      0. 0. 0. 0. 0. 0. 0. 0. 0. 0. 0. 0. 0.</_>
    <_>
      0. 0. 0. 9.09090880e-03 9.09090880e-03 0. 0. 0. 0. 9.09090880e-03
      0. 0. 0. 9.09090880e-03 0. 0. 0. 0. 0. 0. 0. 0. 9.09090880e-03 0.
      9.09090880e-03 0. 0. 0. 0. 0. 0. 0. 0. 0. 0. 9.09090880e-03
      9.09090880e-03 0. 0. 0. 0. 0. 0. 9.09090880e-03 0. 0.
      9.09090880e-03 0. 0. 0. 0. 0. 0. 0. 9.09090880e-03 0.
      9.09090880e-03 0. 0. 0. 0. 0. 0. 0. 0. 0. 0. 0. 0. 0. 0. 0. 0. 0.
      0. 0. 0. 0. 0. 0. 0. 0. 0. 9.09090880e-03 0. 9.09090880e-03 0. 0.
      0. 0. 0. 0. 0. 9.09090880e-03 0. 0. 0. 0. 0. 0. 0. 0. 0.
      9.09090880e-03 0. 0. 0. 0. 9.09090880e-03 0. 0. 0. 0. 0. 0. 0. 0.
      0. 0. 0. 9.09090880e-03 0. 0. 0. 0. 0. 0. 0. 0. 0. 9.09090880e-03
      0. 0. 0. 0. 0. 0. 0. 0. 0. 0. 0. 9.09090880e-03 0. 0. 0. 0. 0.
      1.81818176e-02 0. 0. 0. 9.09090880e-03 0. 0. 0. 0. 0. 0. 0. 0. 0.
      0. 0. 0. 0. 0. 0. 0. 0. 0. 0. 0. 0. 0. 0. 0. 0. 0. 0. 0. 0. 0. 0.
      0. 0. 0. 0. 0. 0. 0. 0. 0. 0. 0. 0. 9.09090880e-03 0. 0. 0. 0. 0.
      0. 0. 0. 0. 9.09090880e-03 0. 0. 0. 0. 0. 0. 9.09090880e-03
      9.09090880e-03 0. 0. 0. 0. 0. 0. 0. 9.09090880e-03 0. 0. 0. 0. 0.
      0. 0. 0. 0. 9.09090880e-03 0. 0. 0. 0. 0. 0. 0. 0. 0. 0. 0. 0. 0.
      0. 0. 0. 9.09090880e-03 0. 0. 9.09090880e-03 0. 0. 0. 0. 0. 0. 0.
      0. 0. 0. 0. 0. 0. 0. 0. 9.09090880e-03 0. 0. 9.09090880e-03 0. 0.
      9.09090880e-03 0. 0. 0. 0. 0. 0. 0. 0. 0. 0. 0. 0. 0. 0. 0. 0. 0.
      0. 0. 0. 9.09090880e-03 0. 0. 0. 0. 0. 0. 0. 9.09090880e-03 0. 0.
      0. 0. 0. 0. 0. 0. 0. 0. 0. 0. 0. 9.09090880e-03 0. 0. 0. 0. 0. 0.
      0. 0. 0. 0. 9.09090880e-03 0. 0. 0. 0. 0. 0. 9.09090880e-03 0. 0.
      0. 0. 0. 0. 0. 0. 0. 0. 9.09090880e-03 0. 0. 0. 0. 0. 0. 0. 0. 0.
      0. 0. 0. 0. 0. 0. 0. 0. 0. 0. 0. 0. 0. 0. 0. 0. 0. 0. 0. 0. 0. 0.
      0. 0. 9.09090880e-03 0. 0. 0. 0. 0. 0. 0. 0. 0. 0. 0. 0.
      1.81818176e-02 0. 0. 9.09090880e-03 0. 0. 0. 0. 0. 0. 0. 0. 0. 0.
      9.09090880e-03 0. 0. 0. 0. 0. 9.09090880e-03 0. 0. 0.
      9.09090880e-03 9.09090880e-03 0. 0. 0. 0. 0. 0. 0. 0. 0. 0. 0. 0.
      9.09090880e-03 0. 0. 0. 0. 0. 0. 9.09090880e-03 9.09090880e-03 0.
      0. 0. 0. 0. 0. 0. 0. 0. 0. 0. 0. 0. 0. 9.09090880e-03 0. 0. 0. 0.
      9.09090880e-03 0. 0. 0. 0. 0. 0. 0. 0. 0. 0. 0. 0. 0.
      9.09090880e-03 0. 0. 0. 0. 0. 0. 0. 0. 0. 0. 0. 0. 0. 0.
      9.09090880e-03 0. 0. 9.09090880e-03 0. 9.09090880e-03 0.
      9.09090880e-03 0. 0. 0. 0. 0. 0. 0. 0. 0. 0. 0. 0. 9.09090880e-03
      0. 0. 0. 9.09090880e-03 0. 0. 1.81818176e-02 0. 0. 0. 0. 0. 0. 0.
      0. 0. 0. 0. 0. 0. 0. 0. 0. 0. 0. 0. 0. 0. 0. 0. 0. 0. 0. 0. 0. 0.
      0. 0. 0. 0. 0. 0. 9.09090880e-03 9.09090880e-03 0. 0. 0. 0. 0. 0.
      0. 0. 0. 0. 0. 0. 0. 0. 0. 0. 0. 0. 0. 0. 0. 0. 0. 0. 0. 0. 0. 0.
      0. 0. 0. 9.09090880e-03 9.09090880e-03 0. 0. 0. 0. 0.
      9.09090880e-03 0. 0. 0. 9.09090880e-03 0. 0. 0. 0. 0. 0. 0. 0. 0.
      0. 9.09090880e-03 0. 0. 0. 0. 0. 0. 0. 1.81818176e-02 0. 0. 0.
      9.09090880e-03 0. 0. 0. 0. 0. 0. 0. 0. 0. 0. 0. 0. 0.
      9.09090880e-03 0. 0. 0. 9.09090880e-03 0. 9.09090880e-03 0. 0. 0.
      0. 0. 0. 0. 0. 0. 0. 9.09090880e-03 0. 0. 0. 0. 0. 0. 0. 0. 0. 0.
      0. 0. 0. 0. 9.09090880e-03 9.09090880e-03 0. 0. 0. 0. 0. 0. 0. 0.
      0. 0. 0. 0. 0. 0. 0. 0. 0. 0. 0. 0. 9.09090880e-03 9.09090880e-03
      0. 0. 0. 0. 9.09090880e-03 0. 9.09090880e-03 0. 0. 0. 0.
      9.09090880e-03 0. 0. 0. 0. 0. 0. 0. 0. 0. 0. 0. 0. 0. 0. 0. 0. 0.
      0. 0. 0. 0. 0. 0. 9.09090880e-03 0. 0. 9.09090880e-03 0. 0. 0. 0.
      0. 0. 0. 0. 0. 9.09090880e-03 0. 0. 9.09090880e-03 0. 0. 0. 0. 0.
      0. 9.09090880e-03 0. 0. 0. 0. 0. 0. 0. 0. 9.09090880e-03 0. 0. 0.
      0. 0. 0. 0. 0. 0. 0. 0. 0. 0. 0. 0. 0. 0. 0. 0. 0. 0. 0. 0. 0. 0.
      0. 0. 0. 0. 0. 0. 0. 0. 2.72727273e-02 0. 0. 0. 0. 0. 0. 0. 0. 0.
      9.09090880e-03 0. 0. 0. 0. 0. 0. 0. 9.09090880e-03 0. 0. 0. 0.
      9.09090880e-03 0. 0. 0. 0. 0. 0. 0. 0. 9.09090880e-03 0.
      9.09090880e-03 0. 0. 0. 0. 0. 0. 0. 9.09090880e-03 0. 0. 0. 0. 0.
      0. 9.09090880e-03 0. 0. 0. 0. 0. 0. 0. 0. 0. 0. 0. 0. 0. 0. 0. 0.
      0. 0. 0. 0. 0. 0. 9.09090880e-03 0. 0. 0. 0. 0. 0. 0. 0. 0. 0. 0.
      0. 0. 0. 0. 0. 0. 0. 0. 0. 0. 0. 0. 0. 0. 9.09090880e-03 0. 0. 0.
      0. 0. 0. 9.09090880e-03 0. 0. 0. 0. 9.09090880e-03 0. 0. 0. 0. 0.
      9.09090880e-03 0. 0. 0. 0. 9.09090880e-03 0. 0. 0. 9.09090880e-03
      0. 0. 9.09090880e-03 9.09090880e-03 0. 0. 0. 0. 0. 0. 0. 0. 0. 0.
      0. 0. 0. 0. 0. 0. 0. 0. 0. 0. 0. 0. 0. 0. 0. 0. 0. 0. 0. 0. 0. 0.
      0. 0. 0. 0. 0. 0. 0. 0. 0. 0. 0. 0. 0. 0. 0. 0. 0. 0. 0. 0. 0. 0.
      0. 0. 0. 0. 0. 0. 1.81818176e-02 0. 0. 0. 0. 0. 0. 0. 0. 0. 0. 0.
      0. 0. 0. 0. 0. 0. 0. 0. 0.</_>
    <_>
      0. 0. 0. 0. 0. 0. 0. 0. 0. 8.54700897e-03 0. 0. 0. 0. 0. 0. 0. 0.
      0. 0. 0. 0. 8.54700897e-03 0. 0. 0. 0. 0. 0. 0. 0. 0. 0. 0. 0. 0.
      0. 0. 0. 0. 0. 0. 8.54700897e-03 8.54700897e-03 0. 0. 0. 0.
      8.54700897e-03 0. 0. 0. 0. 0. 8.54700897e-03 0. 0. 0. 0. 0. 0. 0.
      0. 0. 0. 0. 0. 0. 0. 0. 0. 0. 0. 8.54700897e-03 0. 0. 0. 0. 0. 0.
      0. 0. 0. 8.54700897e-03 0. 8.54700897e-03 0. 0. 0. 0. 0.
      8.54700897e-03 0. 0. 0. 8.54700897e-03 0. 0. 0. 0. 0. 0.
      8.54700897e-03 8.54700897e-03 0. 0. 0. 0. 0. 0. 0. 0. 0. 0. 0. 0.
      0. 0. 0. 0. 8.54700897e-03 8.54700897e-03 0. 0. 0. 0. 0. 0. 0. 0.
      0. 0. 0. 0. 0. 0. 0. 0. 0. 0. 0. 8.54700897e-03 0. 8.54700897e-03
      0. 0. 8.54700897e-03 0. 0. 0. 0. 0. 8.54700897e-03 0. 0. 0. 0. 0.
      0. 0. 0. 1.70940179e-02 0. 0. 0. 0. 0. 0. 0. 0. 8.54700897e-03 0.
      0. 0. 0. 0. 0. 0. 0. 0. 0. 0. 0. 0. 0. 0. 0. 0. 0. 0. 0. 0. 0. 0.
      0. 0. 0. 0. 0. 0. 0. 0. 0. 0. 0. 0. 8.54700897e-03 0.
      8.54700897e-03 0. 0. 0. 0. 0. 0. 0. 0. 0. 0. 0. 0. 0. 0. 0.
      8.54700897e-03 0. 0. 0. 0. 0. 0. 0. 0. 0. 0. 0. 0. 0. 0. 0. 0. 0.
      0. 0. 0. 0. 0. 0. 0. 8.54700897e-03 0. 0. 0. 0. 0. 0. 0. 0.
      8.54700897e-03 0. 0. 0. 0. 8.54700897e-03 0. 0. 0. 0. 0.
      8.54700897e-03 0. 8.54700897e-03 0. 0. 0. 0. 0. 0. 0. 0. 0. 0. 0.
      0. 0. 0. 0. 0. 0. 8.54700897e-03 0. 0. 8.54700897e-03 0. 0.
      8.54700897e-03 0. 0. 0. 0. 0. 0. 0. 0. 0. 8.54700897e-03
      8.54700897e-03 0. 8.54700897e-03 0. 0. 0. 0. 0. 0. 0. 0.
      8.54700897e-03 0. 0. 0. 0. 0. 0. 8.54700897e-03 0. 0. 0.
      1.70940179e-02 0. 0. 0. 0. 0. 0. 0. 0. 0. 0. 0. 0. 0. 0. 0. 0. 0.
      0. 8.54700897e-03 8.54700897e-03 0. 0. 0. 0. 0. 0. 0. 0. 0. 0. 0.
      8.54700897e-03 0. 0. 0. 0. 0. 0. 0. 0. 0. 0. 0. 0. 0. 0. 0. 0. 0.
      0. 0. 0. 0. 0. 0. 0. 0. 0. 0. 0. 0. 0. 0. 0. 0. 0. 0.
      8.54700897e-03 0. 0. 0. 0. 0. 8.54700897e-03 0. 0. 8.54700897e-03
      0. 8.54700897e-03 0. 0. 0. 0. 0. 0. 0. 0. 0. 8.54700897e-03
      8.54700897e-03 0. 0. 0. 0. 0. 0. 0. 0. 0. 0. 8.54700897e-03 0.
      8.54700897e-03 0. 0. 0. 0. 0. 0. 0. 0. 0. 0. 0. 8.54700897e-03 0.
      0. 0. 0. 0. 0. 0. 0. 8.54700897e-03 0. 0. 0. 0. 0. 0. 0.
      8.54700897e-03 0. 0. 8.54700897e-03 0. 0. 0. 0. 0. 0. 0. 0. 0. 0.
      0. 8.54700897e-03 0. 0. 8.54700897e-03 0. 8.54700897e-03 0. 0. 0.
      0. 0. 0. 0. 8.54700897e-03 0. 0. 0. 0. 8.54700897e-03 0.
      8.54700897e-03 0. 0. 0. 0. 0. 0. 0. 0. 0. 0. 0. 0. 0. 0. 0. 0. 0.
      0. 0. 1.70940179e-02 0. 0. 0. 0. 0. 0. 0. 0. 0. 0. 0. 0. 0. 0.
      8.54700897e-03 0. 8.54700897e-03 0. 0. 0. 0. 0. 8.54700897e-03 0.
      0. 0. 0. 0. 0. 0. 0. 0. 0. 0. 0. 8.54700897e-03 0. 0. 0. 0. 0. 0.
      0. 0. 0. 0. 0. 0. 0. 0. 0. 0. 0. 0. 0. 0. 0. 0. 8.54700897e-03 0.
      0. 0. 0. 0. 0. 0. 0. 0. 0. 0. 0. 0. 0. 0. 0. 0. 8.54700897e-03 0.
      0. 8.54700897e-03 0. 0. 0. 0. 0. 0. 0. 0. 0. 0. 0. 0.
      8.54700897e-03 0. 0. 0. 0. 0. 0. 0. 0. 0. 8.54700897e-03 0. 0. 0.
      0. 0. 0. 0. 0. 0. 0. 0. 0. 0. 1.70940179e-02 0. 0. 0. 0. 0. 0. 0.
      0. 0. 0. 0. 0. 0. 0. 0. 8.54700897e-03 0. 0. 0. 0. 0. 0. 0. 0.
      8.54700897e-03 0. 0. 0. 8.54700897e-03 0. 0. 0. 0. 0. 0. 0.
      8.54700897e-03 0. 0. 0. 0. 0. 0. 0. 0. 0. 0. 0. 0. 0. 0. 0. 0. 0.
      8.54700897e-03 0. 0. 0. 0. 8.54700897e-03 0. 0. 8.54700897e-03 0.
      0. 0. 0. 0. 0. 0. 0. 0. 0. 0. 0. 0. 0. 0. 0. 0. 0. 0. 0. 0. 0. 0.
      0. 0. 0. 0. 0. 0. 0. 0. 8.54700897e-03 1.70940179e-02 0. 0. 0. 0.
      0. 0. 0. 0. 0. 0. 0. 8.54700897e-03 0. 0. 0. 0. 0. 8.54700897e-03
      0. 0. 0. 0. 0. 0. 0. 0. 0. 0. 0. 0. 0. 0. 0. 0. 0. 0. 0. 0.
      8.54700897e-03 0. 0. 0. 0. 0. 0. 8.54700897e-03 0. 0. 0. 0. 0. 0.
      8.54700897e-03 0. 8.54700897e-03 0. 0. 0. 0. 0. 0. 0. 0.
      8.54700897e-03 1.70940179e-02 0. 8.54700897e-03 0. 0. 0.
      1.70940179e-02 0. 1.70940179e-02 0. 0. 8.54700897e-03 0. 0. 0. 0.
      0. 8.54700897e-03 0. 0. 0. 0. 0. 0. 0. 0. 0. 0. 0. 0. 0. 0. 0. 0.
      8.54700897e-03 1.70940179e-02 0. 0. 0. 8.54700897e-03 0. 0. 0. 0.
      0. 0. 0. 0. 0. 0. 8.54700897e-03 0. 0. 0. 0. 0. 0. 0. 0. 0. 0. 0.
      0. 0. 0. 0. 0. 0. 0. 8.54700897e-03 0. 0. 0. 0. 0. 0. 0. 0. 0. 0.
      0. 0. 0. 0. 0. 0. 0. 0. 8.54700897e-03 0. 0. 0. 0. 0. 0. 0.
      8.54700897e-03 0. 0. 0. 0. 0. 0. 0. 8.54700897e-03 0. 0. 0. 0. 0.
      0. 0. 0. 0. 0. 0. 0. 0. 0. 0. 0. 0. 0. 0. 0. 0. 0. 0.
      8.54700897e-03 0. 0. 0. 0. 0. 1.70940179e-02 0. 0. 8.54700897e-03
      8.54700897e-03 0. 0. 0. 0. 0. 0. 0. 0. 0. 0. 0. 0. 0. 0. 0. 0. 0.
      0. 0. 0. 0. 0. 8.54700897e-03 0. 0. 0. 0. 0. 0. 0. 0. 0. 0. 0. 0.
      8.54700897e-03 0. 0. 0. 0. 0. 0. 0. 0. 0. 0. 8.54700897e-03 0. 0.
      0. 0. 0. 0. 0. 0. 0. 0. 0. 0. 0. 0. 0. 0. 0. 0. 0. 0. 0.</_>
    <_>
      0. 0. 0. 0. 0. 0. 0. 0. 0. 8.62068962e-03 0. 0. 0. 0. 0. 0. 0. 0.
      0. 0. 0. 0. 1.72413792e-02 0. 0. 0. 0. 0. 0. 0. 0. 0. 0. 0. 0. 0.
      0. 0. 0. 0. 0. 0. 0. 1.72413792e-02 0. 0. 0. 0. 8.62068962e-03 0.
      0. 0. 0. 0. 8.62068962e-03 0. 0. 0. 0. 0. 0. 0. 0. 0. 0. 0. 0. 0.
      0. 0. 0. 0. 0. 1.72413792e-02 0. 0. 0. 0. 0. 0. 0. 0. 0.
      8.62068962e-03 0. 8.62068962e-03 0. 0. 0. 0. 0. 8.62068962e-03 0.
      0. 0. 0. 0. 0. 0. 0. 0. 0. 8.62068962e-03 0. 0. 0. 0. 0. 0. 0. 0.
      0. 0. 0. 0. 0. 0. 0. 0. 0. 0. 0. 0. 0. 0. 0. 0. 0. 0. 0. 0. 0.
      8.62068962e-03 0. 0. 0. 0. 0. 0. 0. 0. 0. 0. 0. 0. 0. 0. 0. 0. 0.
      0. 0. 8.62068962e-03 8.62068962e-03 0. 0. 0. 0. 0. 0. 0.
      8.62068962e-03 0. 0. 0. 0. 0. 8.62068962e-03 0. 0. 0. 0. 0. 0. 0.
      0. 0. 0. 0. 0. 0. 0. 0. 0. 0. 0. 0. 0. 0. 0. 0. 0. 0. 0. 0. 0. 0.
      0. 0. 0. 0. 0. 0. 8.62068962e-03 0. 0. 0. 0. 0. 0. 0. 0. 0. 0. 0.
      0. 0. 0. 0. 0. 0. 0. 0. 0. 8.62068962e-03 0. 0. 0. 0. 0. 0. 0. 0.
      0. 0. 0. 0. 0. 0. 0. 0. 8.62068962e-03 0. 0. 0. 0. 0. 0. 0. 0. 0.
      0. 0. 0. 0. 0. 0. 0. 0. 0. 0. 0. 0. 8.62068962e-03 8.62068962e-03
      0. 0. 0. 0. 8.62068962e-03 0. 8.62068962e-03 0. 0. 0. 0. 0. 0. 0.
      0. 0. 0. 0. 0. 0. 0. 0. 0. 0. 0. 0. 0. 8.62068962e-03 0. 0.
      8.62068962e-03 0. 0. 0. 0. 0. 0. 0. 0. 0. 8.62068962e-03 0. 0.
      8.62068962e-03 0. 8.62068962e-03 0. 0. 0. 0. 0. 0. 1.72413792e-02
      0. 0. 0. 0. 0. 0. 8.62068962e-03 0. 0. 0. 3.44827585e-02 0. 0. 0.
      0. 0. 0. 0. 0. 0. 0. 0. 0. 0. 0. 0. 0. 0. 0. 8.62068962e-03
      8.62068962e-03 0. 0. 0. 0. 0. 0. 0. 0. 0. 0. 0. 8.62068962e-03 0.
      8.62068962e-03 0. 0. 0. 0. 0. 0. 0. 0. 0. 0. 0. 0. 0.
      8.62068962e-03 0. 8.62068962e-03 0. 0. 0. 0. 0. 8.62068962e-03 0.
      0. 0. 0. 0. 0. 0. 0. 8.62068962e-03 0. 0. 8.62068962e-03 0. 0. 0.
      0. 0. 8.62068962e-03 0. 0. 8.62068962e-03 0. 8.62068962e-03 0. 0.
      0. 0. 0. 0. 0. 0. 0. 8.62068962e-03 0. 0. 0. 0. 0. 0. 0. 0. 0. 0.
      0. 0. 0. 0. 0. 0. 0. 0. 0. 0. 0. 0. 0. 0. 0. 8.62068962e-03 0. 0.
      0. 0. 0. 0. 0. 0. 8.62068962e-03 0. 0. 0. 0. 0. 0. 0. 0. 0. 0.
      1.72413792e-02 0. 0. 0. 0. 0. 0. 0. 0. 0. 0. 0. 8.62068962e-03 0.
      0. 8.62068962e-03 0. 8.62068962e-03 0. 0. 0. 0. 0. 0. 0. 0. 0. 0.
      0. 0. 8.62068962e-03 0. 0. 0. 0. 0. 0. 0. 0. 0. 0. 0. 0.
      8.62068962e-03 0. 0. 0. 0. 0. 0. 0. 0. 8.62068962e-03 0. 0. 0. 0.
      0. 0. 0. 0. 0. 0. 0. 0. 0. 0. 8.62068962e-03 0. 0. 0. 0. 0.
      8.62068962e-03 0. 8.62068962e-03 2.58620679e-02 0. 8.62068962e-03
      0. 0. 0. 0. 0. 0. 0. 0. 0. 0. 0. 0. 0. 0. 0. 0. 0. 0. 0. 0. 0. 0.
      0. 0. 0. 0. 0. 0. 0. 0. 0. 0. 8.62068962e-03 0. 0. 0. 0. 0. 0. 0.
      0. 0. 0. 0. 0. 0. 8.62068962e-03 0. 0. 0. 0. 0. 0. 8.62068962e-03
      0. 0. 8.62068962e-03 0. 0. 0. 0. 8.62068962e-03 0. 0. 0. 0. 0. 0.
      0. 0. 0. 0. 0. 0. 0. 0. 8.62068962e-03 0. 0. 0. 0. 0. 0. 0. 0. 0.
      0. 8.62068962e-03 0. 0. 0. 0. 0. 0. 0. 0. 0. 0. 0. 0. 0. 0. 0. 0.
      0. 0. 0. 8.62068962e-03 0. 0. 0. 0. 0. 0. 0. 8.62068962e-03
      8.62068962e-03 0. 8.62068962e-03 0. 0. 0. 0. 0. 0. 0. 0. 0. 0. 0.
      0. 0. 0. 0. 0. 0. 0. 0. 8.62068962e-03 0. 0. 0. 0. 0. 0. 0. 0. 0.
      0. 0. 8.62068962e-03 0. 0. 1.72413792e-02 0. 0. 0. 0. 0. 0. 0. 0.
      0. 0. 0. 0. 1.72413792e-02 0. 0. 0. 0. 0. 0. 8.62068962e-03 0. 0.
      0. 0. 0. 0. 0. 0. 0. 0. 0. 0. 1.72413792e-02 8.62068962e-03 0. 0.
      0. 8.62068962e-03 0. 0. 0. 0. 0. 0. 0. 0. 0. 0. 0. 0.
      8.62068962e-03 0. 0. 0. 0. 0. 0. 0. 0. 0. 0. 0. 0. 0. 0. 0. 0. 0.
      0. 0. 0. 8.62068962e-03 0. 0. 0. 0. 0. 0. 0. 0. 0. 0. 0. 0. 0. 0.
      0. 0. 0. 0. 0. 0. 0. 0. 0. 0. 0. 1.72413792e-02 0. 8.62068962e-03
      0. 0. 0. 0. 0. 0. 0. 0. 0. 0. 0. 0. 0. 0. 8.62068962e-03 0. 0. 0.
      0. 0. 8.62068962e-03 0. 0. 0. 0. 0. 0. 8.62068962e-03 0. 0. 0.
      8.62068962e-03 8.62068962e-03 0. 0. 0. 0. 0. 8.62068962e-03 0. 0.
      0. 0. 0. 0. 0. 0. 8.62068962e-03 0. 0. 0. 0. 0. 0. 0. 0. 0. 0. 0.
      0. 0. 0. 0. 0. 0. 0. 8.62068962e-03 0. 0. 0. 0. 0. 0. 0. 0. 0. 0.
      0. 0. 0. 0. 0. 0. 0. 0. 8.62068962e-03 0. 0. 0. 0. 0. 0. 0. 0. 0.
      0. 0. 0. 0. 0. 0. 8.62068962e-03 0. 0. 0. 0. 0. 0. 0. 0. 0. 0. 0.
      0. 0. 0. 0. 0. 0. 0. 0. 0. 0. 0. 0. 8.62068962e-03 8.62068962e-03
      0. 0. 0. 0. 1.72413792e-02 0. 0. 8.62068962e-03 0. 0. 0. 0. 0. 0.
      0. 0. 0. 0. 0. 0. 0. 0. 0. 0. 0. 0. 0. 0. 0. 8.62068962e-03 0.
      8.62068962e-03 0. 0. 0. 0. 0. 0. 0. 0. 0. 0. 0. 0. 8.62068962e-03
      0. 0. 0. 0. 0. 0. 0. 0. 0. 0. 0. 0. 0. 0. 8.62068962e-03 0. 0. 0.
      0. 0. 0. 0. 8.62068962e-03 0. 0. 0. 8.62068962e-03 0. 0.
      8.62068962e-03 0. 0.</_>
    <_>
      0. 0. 0. 0. 8.62068962e-03 0. 0. 0. 0. 8.62068962e-03 0. 0. 0. 0.
      0. 0. 0. 0. 0. 0. 0. 0. 0. 0. 0. 0. 0. 0. 0. 0. 0. 0. 0. 0. 0. 0.
      0. 0. 8.62068962e-03 0. 0. 0. 0. 0. 0. 0. 0. 0. 0. 0. 0. 0. 0. 0.
      8.62068962e-03 0. 0. 0. 8.62068962e-03 0. 0. 0. 0. 0. 0. 0. 0. 0.
      0. 0. 0. 0. 0. 2.58620679e-02 0. 0. 0. 0. 0. 0. 0. 0. 0. 0. 0.
      8.62068962e-03 0. 0. 0. 0. 0. 0. 0. 0. 0. 0. 0. 0. 0. 0. 0. 0.
      8.62068962e-03 0. 0. 0. 0. 0. 0. 0. 0. 0. 0. 0. 0. 0.
      8.62068962e-03 0. 0. 0. 0. 0. 0. 0. 8.62068962e-03 0. 0. 0. 0. 0.
      0. 0. 8.62068962e-03 0. 0. 0. 0. 0. 0. 0. 0. 0. 0. 0. 0. 0. 0. 0.
      0. 0. 0. 0. 8.62068962e-03 8.62068962e-03 0. 0. 0. 0. 0. 0. 0.
      1.72413792e-02 0. 0. 0. 0. 0. 8.62068962e-03 0. 0. 0. 0. 0. 0. 0.
      0. 0. 0. 0. 0. 0. 0. 0. 0. 0. 0. 0. 0. 8.62068962e-03 0. 0. 0. 0.
      0. 0. 0. 0. 0. 0. 0. 0. 0. 0. 8.62068962e-03 0. 0. 8.62068962e-03
      0. 0. 0. 0. 0. 0. 0. 0. 0. 0. 0. 0. 0. 0. 0. 0. 0. 1.72413792e-02
      0. 0. 0. 0. 0. 0. 0. 0. 0. 0. 0. 0. 0. 0. 0. 0. 8.62068962e-03 0.
      0. 0. 0. 0. 0. 0. 0. 0. 0. 0. 0. 0. 0. 0. 0. 0. 0. 0. 0. 0. 0.
      8.62068962e-03 0. 0. 0. 0. 0. 0. 8.62068962e-03 0. 0. 0. 0. 0. 0.
      0. 0. 0. 0. 0. 0. 0. 0. 0. 0. 0. 0. 0. 0. 8.62068962e-03 0. 0.
      8.62068962e-03 0. 0. 0. 0. 0. 0. 0. 0. 0. 8.62068962e-03 0. 0. 0.
      0. 8.62068962e-03 0. 0. 0. 0. 0. 0. 1.72413792e-02 0. 0. 0. 0. 0.
      0. 8.62068962e-03 0. 0. 0. 3.44827585e-02 0. 0. 0. 0. 0. 0. 0. 0.
      0. 0. 0. 0. 0. 0. 0. 0. 0. 0. 1.72413792e-02 8.62068962e-03 0. 0.
      0. 0. 0. 0. 0. 0. 0. 0. 0. 8.62068962e-03 0. 0. 0. 0. 0. 0. 0. 0.
      0. 0. 0. 0. 0. 0. 0. 0. 0. 1.72413792e-02 0. 0. 0. 0. 0. 0. 0.
      8.62068962e-03 8.62068962e-03 0. 0. 0. 0. 0. 0. 0. 0.
      8.62068962e-03 0. 0. 0. 0. 0. 8.62068962e-03 0. 0. 8.62068962e-03
      0. 8.62068962e-03 0. 0. 0. 0. 0. 0. 0. 0. 0. 8.62068962e-03 0. 0.
      0. 0. 0. 0. 0. 0. 0. 0. 0. 8.62068962e-03 0. 0. 0. 0. 0. 0. 0. 0.
      0. 0. 0. 0. 0. 1.72413792e-02 0. 0. 0. 0. 0. 0. 0. 0.
      8.62068962e-03 0. 0. 0. 0. 0. 0. 0. 0. 0. 0. 1.72413792e-02 0. 0.
      0. 0. 0. 0. 0. 0. 8.62068962e-03 0. 0. 8.62068962e-03 0. 0. 0. 0.
      8.62068962e-03 0. 0. 0. 0. 0. 0. 0. 8.62068962e-03 0. 0. 0. 0.
      8.62068962e-03 0. 0. 0. 0. 0. 0. 0. 0. 0. 0. 0. 0. 0. 0.
      8.62068962e-03 0. 8.62068962e-03 0. 0. 0. 0. 8.62068962e-03 0. 0.
      0. 0. 0. 0. 0. 0. 0. 0. 0. 0. 0. 0. 8.62068962e-03 0. 0. 0. 0. 0.
      0. 0. 0. 2.58620679e-02 0. 8.62068962e-03 0. 0. 0. 0. 0. 0. 0. 0.
      0. 8.62068962e-03 0. 0. 0. 0. 0. 0. 0. 0. 0. 0. 8.62068962e-03 0.
      0. 0. 0. 0. 0. 0. 0. 0. 0. 0. 8.62068962e-03 0. 0. 0. 0. 0. 0. 0.
      0. 8.62068962e-03 0. 0. 0. 0. 8.62068962e-03 0. 0. 0. 0. 0. 0. 0.
      0. 0. 8.62068962e-03 0. 0. 0. 0. 8.62068962e-03 0. 0. 0. 0. 0. 0.
      0. 0. 0. 0. 0. 0. 0. 0. 8.62068962e-03 0. 0. 0. 0. 0. 0. 0. 0. 0.
      0. 8.62068962e-03 0. 0. 0. 0. 0. 0. 0. 0. 0. 0. 0. 0.
      8.62068962e-03 0. 0. 0. 0. 0. 0. 0. 0. 0. 0. 0. 0. 0. 0.
      8.62068962e-03 8.62068962e-03 0. 1.72413792e-02 8.62068962e-03 0.
      0. 0. 0. 0. 0. 0. 0. 0. 0. 0. 0. 0. 0. 0. 0. 0. 0. 8.62068962e-03
      0. 0. 0. 0. 0. 0. 0. 0. 0. 0. 0. 8.62068962e-03 0. 0.
      8.62068962e-03 0. 0. 0. 0. 0. 0. 0. 0. 0. 0. 0. 0. 1.72413792e-02
      0. 0. 0. 0. 0. 0. 8.62068962e-03 0. 0. 0. 0. 0. 0. 0. 0. 0. 0. 0.
      0. 8.62068962e-03 0. 0. 0. 0. 0. 0. 0. 0. 0. 0. 0. 0. 0. 0. 0. 0.
      0. 0. 0. 0. 0. 0. 0. 0. 0. 0. 0. 0. 0. 0. 0. 0. 0. 0. 0. 0. 0. 0.
      8.62068962e-03 0. 0. 0. 0. 0. 0. 0. 0. 0. 0. 0. 0. 0. 0. 0. 0. 0.
      0. 0. 0. 0. 0. 0. 0. 0. 1.72413792e-02 0. 8.62068962e-03 0. 0. 0.
      0. 0. 0. 0. 0. 0. 0. 0. 0. 0. 0. 8.62068962e-03 0. 0. 0. 0. 0. 0.
      0. 0. 0. 0. 0. 0. 8.62068962e-03 0. 0. 0. 8.62068962e-03
      8.62068962e-03 0. 0. 0. 0. 0. 0. 0. 0. 0. 0. 0. 0. 0. 0.
      8.62068962e-03 0. 0. 0. 0. 0. 0. 0. 0. 0. 0. 0. 0. 0. 0. 0. 0. 0.
      0. 8.62068962e-03 0. 0. 0. 0. 0. 0. 0. 0. 0. 0. 0. 0. 0. 0. 0. 0.
      0. 0. 8.62068962e-03 0. 0. 0. 0. 0. 0. 0. 0. 0. 0. 0. 0. 0. 0. 0.
      8.62068962e-03 0. 0. 0. 0. 0. 0. 0. 8.62068962e-03 0. 0. 0. 0. 0.
      0. 0. 0. 0. 0. 0. 0. 0. 0. 0. 8.62068962e-03 8.62068962e-03 0. 0.
      0. 0. 3.44827585e-02 0. 0. 8.62068962e-03 0. 0. 0. 0. 0. 0. 0. 0.
      0. 0. 0. 0. 0. 0. 0. 0. 8.62068962e-03 0. 0. 0. 0. 0. 0.
      1.72413792e-02 0. 0. 0. 0. 0. 0. 0. 0. 0. 0. 0. 0. 8.62068962e-03
      0. 0. 0. 0. 0. 0. 0. 0. 0. 0. 0. 0. 0. 0. 0. 0. 0. 0. 0. 0. 0. 0.
      0. 0. 0. 0. 0. 0. 0. 8.62068962e-03 0. 0.</_>
    <_>
      0. 8.62068962e-03 8.62068962e-03 0. 0. 0. 0. 8.62068962e-03 0.
      8.62068962e-03 0. 0. 0. 0. 0. 0. 0. 0. 0. 0. 0. 0. 0. 0. 0. 0. 0.
      0. 0. 0. 0. 0. 0. 0. 0. 0. 0. 8.62068962e-03 0. 0. 0. 0. 0.
      8.62068962e-03 0. 0. 0. 0. 0. 0. 0. 0. 0. 0. 8.62068962e-03 0. 0.
      0. 1.72413792e-02 0. 0. 0. 0. 0. 0. 0. 0. 0. 0. 0. 0. 0. 0.
      1.72413792e-02 0. 0. 0. 0. 0. 0. 0. 0. 0. 0. 0. 8.62068962e-03 0.
      0. 0. 0. 0. 8.62068962e-03 0. 0. 0. 0. 0. 0. 0. 0. 0. 0.
      8.62068962e-03 0. 0. 0. 0. 0. 0. 0. 0. 0. 0. 0. 0. 0. 0. 0. 0. 0.
      0. 0. 0. 0. 0. 0. 0. 0. 0. 0. 0. 0. 8.62068962e-03 0. 0. 0. 0. 0.
      0. 0. 0. 0. 0. 0. 0. 0. 0. 0. 0. 0. 0. 0. 8.62068962e-03
      8.62068962e-03 0. 0. 0. 0. 0. 0. 0. 1.72413792e-02 0. 0. 0. 0. 0.
      8.62068962e-03 0. 0. 0. 0. 0. 0. 0. 0. 0. 0. 0. 0. 0. 0. 0. 0. 0.
      0. 0. 0. 0. 0. 0. 0. 0. 0. 0. 0. 0. 0. 0. 0. 0. 0. 0. 0. 0. 0.
      8.62068962e-03 0. 0. 0. 0. 0. 0. 0. 0. 0. 0. 0. 0. 0. 0. 0. 0. 0.
      8.62068962e-03 0. 0. 0. 0. 0. 0. 0. 0. 0. 0. 0. 0. 0. 0. 0. 0.
      8.62068962e-03 0. 0. 0. 0. 0. 0. 0. 0. 0. 0. 0. 8.62068962e-03 0.
      0. 0. 0. 0. 8.62068962e-03 0. 0. 0. 0. 0. 0. 0. 0. 0.
      8.62068962e-03 0. 8.62068962e-03 0. 0. 0. 0. 0. 0. 0. 0. 0. 0. 0.
      0. 8.62068962e-03 0. 8.62068962e-03 0. 0. 0. 0. 0. 8.62068962e-03
      0. 0. 8.62068962e-03 0. 0. 0. 0. 0. 0. 0. 0. 0. 8.62068962e-03 0.
      0. 8.62068962e-03 0. 0. 0. 0. 0. 0. 0. 0. 1.72413792e-02 0. 0. 0.
      0. 0. 0. 8.62068962e-03 0. 0. 0. 3.44827585e-02 0. 0. 0. 0. 0. 0.
      0. 0. 0. 0. 0. 0. 0. 0. 0. 0. 0. 0. 0. 8.62068962e-03 0. 0. 0. 0.
      0. 0. 0. 0. 0. 0. 0. 8.62068962e-03 0. 8.62068962e-03 0. 0. 0. 0.
      0. 0. 0. 0. 0. 0. 0. 0. 0. 8.62068962e-03 0. 1.72413792e-02 0. 0.
      0. 0. 0. 0. 0. 0. 8.62068962e-03 0. 0. 0. 0. 0. 0. 0. 0. 0. 0. 0.
      0. 0. 0. 0. 0. 0. 8.62068962e-03 0. 8.62068962e-03 0. 0. 0. 0. 0.
      0. 0. 0. 0. 8.62068962e-03 0. 0. 0. 0. 0. 0. 0. 0. 0. 0. 0.
      8.62068962e-03 0. 0. 0. 0. 0. 0. 0. 0. 0. 0. 0. 0. 0.
      1.72413792e-02 0. 0. 0. 0. 0. 0. 0. 0. 8.62068962e-03 0. 0. 0. 0.
      0. 0. 0. 0. 0. 0. 1.72413792e-02 0. 0. 0. 0. 0. 0. 0. 0. 0. 0. 0.
      8.62068962e-03 0. 0. 0. 0. 8.62068962e-03 0. 0. 0. 0. 0. 0. 0.
      8.62068962e-03 0. 0. 0. 0. 8.62068962e-03 0. 8.62068962e-03 0. 0.
      0. 0. 0. 0. 0. 0. 0. 0. 0. 0. 8.62068962e-03 0. 0. 0. 0. 0. 0.
      8.62068962e-03 0. 0. 0. 0. 0. 0. 0. 0. 0. 0. 0. 0. 0. 0.
      8.62068962e-03 0. 0. 0. 0. 0. 8.62068962e-03 0. 8.62068962e-03 0.
      0. 8.62068962e-03 0. 0. 0. 0. 0. 0. 0. 0. 0. 8.62068962e-03 0. 0.
      0. 0. 0. 0. 0. 0. 0. 0. 0. 0. 0. 0. 0. 0. 0. 0. 0. 0. 0. 0.
      8.62068962e-03 0. 0. 0. 0. 0. 0. 0. 0. 8.62068962e-03 0. 0. 0. 0.
      8.62068962e-03 0. 0. 0. 0. 0. 0. 8.62068962e-03 0. 0. 0. 0. 0. 0.
      0. 8.62068962e-03 0. 0. 0. 0. 0. 0. 0. 0. 0. 0. 0. 0. 0. 0.
      8.62068962e-03 0. 0. 0. 0. 0. 0. 0. 0. 0. 0. 8.62068962e-03 0. 0.
      0. 0. 0. 0. 0. 0. 0. 0. 0. 0. 8.62068962e-03 0. 0. 0. 0. 0. 0.
      8.62068962e-03 0. 0. 0. 0. 8.62068962e-03 0. 0. 8.62068962e-03 0.
      0. 8.62068962e-03 0. 0. 0. 0. 0. 0. 0. 0. 0. 0. 0. 0. 0. 0. 0. 0.
      0. 0. 0. 8.62068962e-03 0. 0. 0. 0. 0. 0. 0. 0. 0. 0. 0.
      8.62068962e-03 0. 0. 8.62068962e-03 0. 0. 0. 0. 0. 0. 0. 0. 0. 0.
      0. 0. 1.72413792e-02 0. 0. 0. 0. 0. 0. 8.62068962e-03 0. 0. 0. 0.
      0. 0. 0. 0. 0. 0. 0. 0. 8.62068962e-03 0. 0. 0. 0. 0. 0. 0. 0. 0.
      0. 0. 0. 0. 0. 0. 0. 0. 0. 0. 0. 0. 0. 0. 0. 0. 0. 0. 0. 0. 0. 0.
      0. 0. 0. 0. 0. 0. 0. 8.62068962e-03 0. 0. 0. 0. 0. 0. 0. 0. 0. 0.
      0. 0. 0. 0. 0. 0. 0. 0. 0. 0. 0. 0. 0. 0. 0. 2.58620679e-02 0.
      8.62068962e-03 0. 0. 0. 0. 0. 0. 0. 0. 0. 0. 0. 0. 0. 0.
      1.72413792e-02 0. 0. 0. 0. 0. 0. 0. 0. 0. 0. 0. 0. 8.62068962e-03
      0. 0. 0. 0. 8.62068962e-03 0. 0. 0. 0. 0. 0. 0. 0. 0. 0. 0. 0. 0.
      0. 0. 0. 0. 0. 0. 0. 0. 0. 0. 0. 0. 0. 0. 0. 0. 0. 0. 0. 0.
      8.62068962e-03 0. 0. 0. 0. 0. 0. 0. 0. 0. 0. 8.62068962e-03 0. 0.
      0. 0. 0. 0. 0. 8.62068962e-03 0. 0. 0. 0. 0. 0. 0. 0. 0. 0. 0. 0.
      0. 0. 0. 8.62068962e-03 0. 0. 8.62068962e-03 0. 0. 0. 0. 0. 0. 0.
      0. 0. 0. 0. 0. 0. 0. 0. 0. 0. 0. 0. 0. 8.62068962e-03 0. 0. 0. 0.
      0. 1.72413792e-02 0. 0. 8.62068962e-03 0. 0. 0. 0. 0. 0. 0. 0. 0.
      0. 0. 0. 0. 0. 8.62068962e-03 8.62068962e-03 8.62068962e-03 0. 0.
      0. 0. 1.72413792e-02 0. 1.72413792e-02 0. 0. 0. 0. 0. 0. 0. 0. 0.
      0. 0. 0. 8.62068962e-03 0. 0. 0. 0. 0. 0. 0. 0. 0. 0. 0. 0. 0. 0.
      0. 0. 0. 0. 0. 0. 0. 0. 8.62068962e-03 0. 0. 0. 0. 0. 0.
      1.72413792e-02 0. 0.</_>
    <_>
      0. 1.66666675e-02 0. 8.33333377e-03 0. 0. 0. 0. 0. 0. 0. 0. 0. 0.
      0. 0. 0. 0. 0. 0. 0. 8.33333377e-03 0. 0. 0. 0. 0. 0. 0. 0. 0.
      8.33333377e-03 0. 0. 0. 0. 8.33333377e-03 0. 8.33333377e-03 0. 0.
      8.33333377e-03 0. 1.66666675e-02 0. 1.66666675e-02 0. 0. 0. 0. 0.
      0. 0. 0. 8.33333377e-03 0. 0. 8.33333377e-03 8.33333377e-03 0. 0.
      0. 0. 0. 0. 0. 0. 0. 0. 0. 0. 8.33333377e-03 0. 1.66666675e-02 0.
      0. 0. 0. 0. 0. 0. 0. 0. 0. 0. 0. 0. 0. 0. 0. 0. 0. 0. 0. 0. 0. 0.
      0. 0. 0. 0. 0. 0. 8.33333377e-03 0. 0. 0. 0. 0. 0. 0.
      8.33333377e-03 0. 0. 0. 0. 0. 0. 0. 0. 0. 0. 0. 0. 0.
      1.66666675e-02 0. 0. 0. 0. 0. 0. 0. 0. 0. 0. 0. 0. 0. 0.
      8.33333377e-03 0. 8.33333377e-03 0. 0. 0. 0. 0. 8.33333377e-03 0.
      0. 0. 8.33333377e-03 0. 0. 8.33333377e-03 0. 0. 0. 8.33333377e-03
      0. 0. 0. 0. 0. 0. 0. 0. 0. 0. 8.33333377e-03 0. 0. 0. 0. 0. 0. 0.
      0. 8.33333377e-03 0. 0. 0. 0. 0. 0. 0. 0. 0. 0. 0. 0. 0. 0. 0. 0.
      0. 0. 0. 0. 0. 0. 0. 0. 0. 0. 0. 0. 0. 0. 0. 0. 0. 8.33333377e-03
      8.33333377e-03 0. 8.33333377e-03 0. 0. 0. 0. 0. 0. 0. 0. 0. 0. 0.
      0. 0. 0. 0. 0. 0. 0. 0. 0. 0. 0. 0. 0. 0. 0. 0. 0. 0. 0. 0. 0.
      8.33333377e-03 0. 0. 0. 0. 0. 0. 0. 0. 0. 0. 0. 0. 0. 0. 0. 0. 0.
      0. 0. 0. 0. 8.33333377e-03 0. 0. 0. 0. 0. 0. 0. 0. 0. 0. 0. 0. 0.
      0. 0. 0. 0. 0. 0. 0. 0. 0. 0. 0. 0. 0. 0. 8.33333377e-03 0. 0. 0.
      8.33333377e-03 0. 0. 0. 0. 0. 0. 0. 0. 0. 0. 0. 0. 0. 0. 0. 0. 0.
      0. 0. 8.33333377e-03 0. 0. 0. 0. 8.33333377e-03 0. 0. 0. 0. 0. 0.
      0. 0. 0. 0. 0. 0. 0. 0. 0. 0. 0. 0. 0. 0. 0. 0. 0. 0. 0.
      8.33333377e-03 0. 0. 0. 0. 0. 0. 0. 0. 0. 0. 0. 0. 0. 0. 0. 0. 0.
      0. 0. 0. 0. 0. 0. 8.33333377e-03 0. 8.33333377e-03 0. 0. 0. 0. 0.
      0. 1.66666675e-02 0. 0. 0. 0. 0. 8.33333377e-03 0. 0. 0. 0. 0. 0.
      0. 0. 0. 0. 0. 0. 0. 8.33333377e-03 0. 0. 0. 0. 0. 8.33333377e-03
      0. 0. 0. 8.33333377e-03 0. 0. 0. 0. 0. 8.33333377e-03 0. 0. 0. 0.
      0. 0. 0. 1.66666675e-02 0. 0. 0. 0. 0. 0. 1.66666675e-02 0. 0. 0.
      0. 8.33333377e-03 0. 0. 0. 0. 0. 0. 0. 0. 0. 0. 8.33333377e-03 0.
      0. 0. 0. 0. 0. 0. 0. 0. 0. 0. 0. 0. 0. 0. 0. 0. 0. 2.50000022e-02
      0. 0. 0. 0. 0. 0. 0. 8.33333377e-03 0. 0. 0. 0. 0. 0. 0. 0. 0. 0.
      0. 0. 0. 0. 0. 8.33333377e-03 0. 0. 0. 0. 0. 0. 0. 0. 0. 0.
      8.33333377e-03 0. 0. 0. 1.66666675e-02 0. 0. 8.33333377e-03 0. 0.
      0. 0. 8.33333377e-03 8.33333377e-03 0. 0. 0. 0. 0. 0. 0. 0. 0. 0.
      0. 2.50000022e-02 0. 0. 0. 0. 0. 0. 0. 0. 0. 0. 0. 0. 0.
      8.33333377e-03 0. 0. 0. 0. 8.33333377e-03 0. 0. 0. 0. 0. 0. 0. 0.
      0. 0. 0. 0. 0. 0. 8.33333377e-03 0. 0. 0. 0. 0. 0. 0. 0. 0. 0. 0.
      0. 0. 8.33333377e-03 0. 0. 8.33333377e-03 0. 0. 0. 0. 0. 0.
      8.33333377e-03 0. 0. 0. 0. 8.33333377e-03 0. 0. 0. 0. 0. 0.
      8.33333377e-03 0. 0. 0. 0. 0. 0. 0. 0. 0. 0. 8.33333377e-03 0. 0.
      0. 8.33333377e-03 0. 0. 0. 0. 0. 0. 8.33333377e-03 0. 0. 0. 0. 0.
      0. 0. 0. 0. 0. 0. 0. 8.33333377e-03 0. 0. 0. 0. 0. 0. 0. 0. 0. 0.
      0. 0. 0. 0. 0. 8.33333377e-03 0. 0. 0. 0. 0. 0. 8.33333377e-03 0.
      0. 0. 8.33333377e-03 0. 0. 0. 0. 8.33333377e-03 8.33333377e-03 0.
      0. 0. 0. 0. 0. 0. 0. 0. 0. 0. 0. 0. 0. 8.33333377e-03 0. 0. 0. 0.
      0. 0. 0. 0. 0. 0. 0. 0. 8.33333377e-03 0. 0. 0. 0. 0. 0. 0. 0. 0.
      0. 0. 8.33333377e-03 0. 0. 0. 0. 0. 0. 0. 0. 0. 0. 8.33333377e-03
      8.33333377e-03 0. 0. 0. 0. 0. 0. 0. 0. 0. 0. 0. 0. 0. 0. 0. 0. 0.
      0. 0. 0. 0. 0. 8.33333377e-03 0. 0. 0. 0. 0. 0. 0. 0. 0. 0. 0. 0.
      0. 0. 0. 0. 0. 0. 0. 0. 0. 0. 0. 0. 0. 0. 0. 0. 0. 0. 0. 0. 0. 0.
      0. 0. 0. 8.33333377e-03 0. 0. 8.33333377e-03 0. 1.66666675e-02 0.
      0. 0. 0. 0. 0. 0. 0. 0. 0. 0. 0. 0. 0. 0. 0. 0. 8.33333377e-03 0.
      8.33333377e-03 0. 0. 0. 0. 0. 0. 1.66666675e-02 0. 0. 0. 0. 0. 0.
      8.33333377e-03 0. 0. 0. 8.33333377e-03 8.33333377e-03 0. 0.
      8.33333377e-03 0. 0. 0. 0. 0. 0. 8.33333377e-03 0. 0. 0. 0. 0. 0.
      0. 0. 0. 0. 0. 0. 0. 0. 0. 0. 0. 0. 0. 0. 0. 0. 0. 8.33333377e-03
      0. 0. 0. 0. 0. 0. 0. 0. 0. 0. 0. 0. 0. 8.33333377e-03 0. 0.
      8.33333377e-03 0. 0. 0. 0. 0. 0. 0. 0. 0. 0. 0. 8.33333377e-03 0.
      0. 2.50000022e-02 0. 0. 0. 0. 8.33333377e-03 0. 0. 0. 0. 0. 0. 0.
      0. 0. 0. 8.33333377e-03 8.33333377e-03 0. 0. 0. 0. 0. 0. 0. 0. 0.
      0. 0. 0. 0. 0. 0. 8.33333377e-03 0. 0. 0. 0. 0. 0. 0. 0. 0. 0. 0.
      0. 0. 0. 0. 0. 0. 0. 0. 0. 0. 0. 0. 0. 0. 0. 0. 0. 0. 0. 0. 0. 0.
      0. 0. 0. 0. 8.33333377e-03 0. 0. 0. 0. 0. 0. 0. 8.33333377e-03 0.
      0. 0. 0. 8.33333377e-03 0. 0. 0. 0. 0. 0. 0. 0. 0. 0.
      8.33333377e-03 0. 0. 0. 0. 0. 0. 0. 0. 0. 0.</_>
    <_>
      0. 0. 0. 0. 0. 0. 0. 0. 0. 1.07526882e-02 0. 0. 0. 0. 0. 0. 0. 0.
      0. 0. 0. 0. 0. 0. 0. 0. 0. 0. 0. 0. 0. 0. 0. 0. 0. 0. 0. 0. 0. 0.
      0. 0. 0. 1.07526882e-02 0. 0. 1.07526882e-02 0. 0. 3.22580636e-02
      0. 0. 1.07526882e-02 0. 1.07526882e-02 0. 0. 0. 0. 0. 0. 0. 0. 0.
      0. 0. 0. 0. 0. 0. 0. 0. 0. 1.07526882e-02 0. 0. 0. 0. 0. 0. 0. 0.
      0. 1.07526882e-02 0. 0. 0. 0. 0. 0. 0. 0. 0. 0. 0. 0. 0. 0. 0.
      1.07526882e-02 0. 0. 0. 1.07526882e-02 0. 0. 0. 0. 0. 0. 0. 0. 0.
      0. 0. 0. 0. 0. 0. 0. 0. 0. 0. 0. 0. 0. 0. 0. 0. 0. 0. 0. 0. 0. 0.
      0. 0. 0. 0. 0. 0. 0. 0. 0. 0. 0. 0. 0. 0. 0. 0. 0. 1.07526882e-02
      1.07526882e-02 0. 0. 1.07526882e-02 0. 0. 0. 0. 1.07526882e-02 0.
      0. 0. 0. 0. 0. 0. 0. 0. 0. 0. 0. 0. 0. 0. 0. 0. 0. 0. 0. 0. 0. 0.
      0. 0. 0. 1.07526882e-02 1.07526882e-02 0. 0. 0. 0. 0. 0. 0. 0. 0.
      0. 0. 0. 0. 0. 1.07526882e-02 1.07526882e-02 0. 0. 0. 0. 0. 0. 0.
      0. 0. 0. 0. 0. 0. 0. 0. 1.07526882e-02 0. 1.07526882e-02 0. 0. 0.
      0. 0. 0. 0. 0. 0. 1.07526882e-02 0. 0. 0. 0. 0. 1.07526882e-02 0.
      2.15053763e-02 0. 0. 0. 0. 0. 0. 1.07526882e-02 2.15053763e-02 0.
      0. 0. 0. 0. 0. 0. 0. 1.07526882e-02 0. 0. 0. 0. 0. 0. 0. 0. 0. 0.
      0. 0. 1.07526882e-02 0. 0. 0. 0. 0. 1.07526882e-02 0. 0. 0. 0. 0.
      0. 0. 0. 0. 0. 0. 0. 0. 0. 0. 0. 0. 1.07526882e-02 0. 0. 0. 0. 0.
      0. 0. 0. 0. 0. 0. 0. 1.07526882e-02 0. 1.07526882e-02 0. 0. 0.
      1.07526882e-02 0. 0. 1.07526882e-02 0. 0. 0. 0. 0. 1.07526882e-02
      0. 0. 0. 0. 1.07526882e-02 0. 0. 0. 0. 0. 0. 0. 0. 0. 0. 0. 0. 0.
      0. 0. 0. 0. 0. 0. 0. 0. 2.15053763e-02 0. 0. 0. 0. 0. 0. 0. 0. 0.
      0. 0. 0. 0. 0. 0. 0. 0. 0. 0. 0. 0. 0. 0. 0. 0. 0. 0.
      1.07526882e-02 0. 0. 0. 0. 0. 1.07526882e-02 1.07526882e-02 0.
      1.07526882e-02 0. 0. 0. 0. 0. 0. 0. 0. 1.07526882e-02 0. 0. 0. 0.
      0. 0. 0. 1.07526882e-02 0. 0. 1.07526882e-02 0. 0. 0. 0. 0. 0. 0.
      0. 0. 0. 1.07526882e-02 0. 0. 0. 0. 0. 0. 1.07526882e-02 0. 0. 0.
      0. 0. 1.07526882e-02 1.07526882e-02 0. 0. 0. 0. 0. 0. 0. 0. 0. 0.
      2.15053763e-02 0. 0. 0. 0. 0. 0. 0. 0. 0. 0. 0. 0. 0. 0. 0. 0. 0.
      0. 0. 2.15053763e-02 0. 0. 0. 0. 0. 0. 0. 0. 0. 0. 0.
      1.07526882e-02 0. 0. 0. 0. 0. 0. 0. 0. 0. 0. 0. 0. 0. 0. 0. 0. 0.
      0. 0. 0. 0. 0. 0. 0. 0. 0. 0. 0. 0. 0. 0. 0. 0. 0. 0. 0. 0. 0. 0.
      0. 0. 0. 0. 0. 0. 0. 1.07526882e-02 0. 0. 0. 0. 0. 0. 0. 0. 0. 0.
      1.07526882e-02 0. 1.07526882e-02 0. 0. 1.07526882e-02
      1.07526882e-02 0. 0. 0. 0. 0. 0. 0. 0. 0. 0. 0. 0. 0. 0.
      1.07526882e-02 0. 0. 0. 0. 0. 0. 0. 1.07526882e-02 0. 0. 0. 0. 0.
      0. 0. 0. 0. 0. 0. 0. 0. 0. 0. 0. 0. 0. 0. 0. 0. 0. 0. 0. 0. 0. 0.
      0. 0. 0. 0. 0. 0. 0. 0. 0. 0. 0. 0. 0. 0. 0. 0. 0. 0. 0. 0. 0. 0.
      0. 0. 0. 0. 0. 0. 0. 0. 0. 0. 0. 0. 0. 1.07526882e-02 0. 0. 0. 0.
      0. 0. 1.07526882e-02 0. 0. 0. 0. 0. 0. 0. 0. 0. 0. 0. 0. 0. 0. 0.
      0. 1.07526882e-02 0. 0. 0. 0. 0. 0. 0. 0. 0. 0. 0. 0. 0. 0. 0. 0.
      0. 0. 0. 0. 0. 0. 0. 0. 0. 0. 0. 0. 0. 1.07526882e-02 0. 0. 0. 0.
      0. 0. 0. 1.07526882e-02 1.07526882e-02 0. 0. 0. 1.07526882e-02 0.
      0. 1.07526882e-02 0. 0. 0. 0. 0. 0. 0. 0. 0. 0. 0. 0. 0. 0. 0.
      1.07526882e-02 0. 0. 0. 0. 0. 0. 0. 1.07526882e-02 0. 0. 0. 0. 0.
      0. 0. 0. 1.07526882e-02 0. 0. 0. 0. 1.07526882e-02 0. 0. 0. 0. 0.
      0. 0. 0. 0. 0. 0. 0. 1.07526882e-02 0. 0. 0. 0. 0. 0. 0. 0. 0. 0.
      0. 0. 0. 0. 0. 0. 0. 0. 0. 0. 1.07526882e-02 0. 0. 0. 0. 0. 0. 0.
      1.07526882e-02 0. 0. 1.07526882e-02 0. 0. 1.07526882e-02 0. 0.
      1.07526882e-02 0. 0. 0. 0. 0. 0. 0. 0. 2.15053763e-02 0.
      1.07526882e-02 0. 0. 0. 0. 0. 0. 0. 0. 0. 0. 0. 0. 0. 0. 0. 0. 0.
      0. 0. 0. 0. 0. 0. 0. 0. 0. 0. 0. 0. 0. 0. 0. 1.07526882e-02 0. 0.
      0. 0. 0. 0. 0. 0. 0. 0. 0. 0. 0. 0. 0. 0. 0. 0. 0. 0. 0. 0. 0. 0.
      0. 0. 0. 0. 0. 0. 0. 0. 0. 0. 0. 0. 0. 0. 0. 0. 0. 0. 0. 0. 0. 0.
      0. 0. 0. 0. 0. 0. 1.07526882e-02 1.07526882e-02 0. 0. 0. 0.
      1.07526882e-02 0. 0. 0. 0. 0. 0. 1.07526882e-02 0. 0. 0. 0. 0. 0.
      0. 0. 0. 0. 0. 0. 0. 0. 0. 0. 0. 0. 0. 0. 0. 0. 0. 0. 0. 0. 0. 0.
      0. 0. 0. 0. 0. 0. 0. 1.07526882e-02 0. 0. 0. 0. 0. 0. 0. 0. 0. 0.
      0. 0. 0. 0. 0. 0. 1.07526882e-02 0. 0. 0. 0. 0. 0. 0. 0. 0. 0. 0.
      0. 0. 0. 0. 0. 0. 0. 0. 0. 0. 0. 0. 0. 0. 0. 0. 0. 0. 0. 0. 0. 0.
      0. 0. 1.07526882e-02 0. 0. 0. 0. 0. 0. 0. 0. 0. 0. 0. 0. 0. 0. 0.
      0.</_>
    <_>
      0. 0. 9.43396240e-03 0. 0. 0. 0. 0. 0. 2.83018872e-02 0. 0. 0. 0.
      0. 0. 0. 0. 0. 0. 0. 0. 0. 0. 0. 9.43396240e-03 0. 0. 0. 0.
      9.43396240e-03 0. 0. 0. 0. 0. 0. 0. 0. 0. 0. 9.43396240e-03 0.
      9.43396240e-03 0. 0. 0. 0. 0. 1.88679248e-02 0. 0. 0. 0.
      9.43396240e-03 0. 0. 0. 0. 0. 0. 0. 0. 0. 9.43396240e-03 0. 0. 0.
      0. 0. 0. 0. 0. 9.43396240e-03 0. 0. 0. 0. 0. 0. 0. 0. 0. 0. 0. 0.
      0. 0. 0. 0. 0. 9.43396240e-03 0. 0. 0. 0. 0. 0. 0. 0. 0. 0. 0. 0.
      0. 0. 0. 0. 9.43396240e-03 0. 0. 0. 0. 0. 0. 0. 0. 0. 0. 0. 0. 0.
      0. 0. 0. 0. 0. 0. 0. 0. 0. 0. 0. 0. 0. 0. 0. 0. 0. 0. 0. 0. 0. 0.
      0. 0. 0. 0. 0. 0. 0. 0. 9.43396240e-03 0. 0. 0. 0. 0. 0. 0. 0.
      9.43396240e-03 0. 0. 0. 9.43396240e-03 0. 0. 0. 0. 0. 0.
      9.43396240e-03 0. 0. 0. 9.43396240e-03 0. 0. 0. 0. 0. 0. 0. 0. 0.
      0. 0. 0. 9.43396240e-03 0. 0. 0. 0. 0. 0. 0. 0. 9.43396240e-03 0.
      0. 9.43396240e-03 0. 0. 0. 0. 0. 0. 0. 0. 0. 0. 0. 0. 0.
      9.43396240e-03 0. 0. 0. 0. 0. 0. 0. 0. 0. 0. 0. 0. 0. 0. 0. 0. 0.
      0. 0. 0. 0. 0. 0. 0. 0. 9.43396240e-03 0. 0. 9.43396240e-03 0. 0.
      0. 0. 0. 0. 0. 0. 0. 0. 0. 0. 0. 0. 0. 0. 0. 0. 9.43396240e-03 0.
      0. 0. 9.43396240e-03 0. 0. 0. 0. 0. 0. 0. 0. 0. 0. 0. 0. 0. 0. 0.
      0. 0. 0. 0. 9.43396240e-03 0. 0. 0. 0. 1.88679248e-02 0. 0. 0. 0.
      0. 0. 0. 0. 0. 0. 0. 0. 9.43396240e-03 0. 0. 0. 0. 0. 0. 0. 0. 0.
      0. 0. 9.43396240e-03 0. 0. 0. 0. 0. 9.43396240e-03 9.43396240e-03
      0. 9.43396240e-03 0. 2.83018872e-02 0. 0. 0. 0. 0. 0. 0. 0. 0. 0.
      0. 0. 0. 0. 0. 0. 0. 0. 0. 9.43396240e-03 0. 9.43396240e-03 0. 0.
      0. 0. 0. 0. 0. 0. 0. 9.43396240e-03 0. 9.43396240e-03 0. 0. 0. 0.
      0. 0. 0. 0. 0. 0. 9.43396240e-03 9.43396240e-03 0. 0. 0.
      9.43396240e-03 0. 0. 0. 0. 0. 9.43396240e-03 0. 0. 2.83018872e-02
      0. 0. 0. 0. 0. 0. 0. 0. 0. 0. 0. 0. 0. 0. 0. 0. 0. 0. 0. 0. 0. 0.
      0. 0. 0. 0. 0. 0. 0. 0. 0. 0. 0. 0. 0. 0. 0. 0. 0. 0. 0. 0. 0. 0.
      0. 0. 0. 0. 0. 0. 0. 0. 0. 0. 9.43396240e-03 9.43396240e-03 0. 0.
      0. 0. 0. 0. 0. 0. 0. 0. 0. 0. 0. 0. 0. 0. 0. 0. 0. 9.43396240e-03
      0. 0. 0. 0. 0. 0. 0. 0. 0. 0. 0. 0. 0. 0. 0. 0. 9.43396240e-03 0.
      0. 0. 0. 9.43396240e-03 0. 0. 0. 0. 0. 0. 9.43396240e-03 0. 0. 0.
      0. 0. 0. 0. 0. 0. 0. 0. 0. 0. 0. 0. 2.83018872e-02 0. 0. 0. 0. 0.
      9.43396240e-03 0. 0. 0. 0. 0. 0. 0. 0. 0. 0. 0. 0. 0. 0. 0. 0. 0.
      0. 0. 0. 0. 0. 0. 0. 0. 0. 0. 0. 0. 0. 0. 0. 0. 0. 0. 0.
      9.43396240e-03 0. 0. 0. 0. 0. 0. 0. 0. 0. 0. 0. 0. 0.
      9.43396240e-03 0. 0. 0. 0. 0. 0. 0. 0. 0. 0. 0. 0. 0. 0. 0. 0. 0.
      0. 9.43396240e-03 0. 0. 0. 0. 0. 0. 0. 0. 0. 0. 0. 0. 0. 0. 0. 0.
      0. 0. 9.43396240e-03 0. 9.43396240e-03 0. 0. 0. 0. 0. 0. 0.
      9.43396240e-03 0. 0. 0. 9.43396240e-03 9.43396240e-03 0. 0. 0. 0.
      0. 0. 0. 0. 0. 0. 9.43396240e-03 0. 0. 0. 0. 0. 0. 0. 0. 0. 0. 0.
      0. 0. 0. 0. 0. 0. 9.43396240e-03 0. 0. 0. 0. 0. 0. 0. 0. 0.
      9.43396240e-03 0. 0. 1.88679248e-02 0. 0. 0. 0. 0. 0. 0. 0. 0. 0.
      0. 0. 0. 0. 0. 0. 0. 0. 0. 0. 0. 0. 0. 0. 0. 0. 9.43396240e-03
      9.43396240e-03 0. 0. 0. 9.43396240e-03 0. 0. 0. 0. 0. 0. 0. 0. 0.
      0. 0. 0. 0. 0. 0. 0. 0. 0. 9.43396240e-03 0. 0. 0. 0. 0. 0. 0. 0.
      0. 0. 0. 0. 0. 0. 0. 0. 9.43396240e-03 0. 0. 0. 0. 9.43396240e-03
      0. 0. 0. 0. 0. 0. 0. 0. 0. 0. 0. 0. 0. 0. 0. 0. 0. 0. 0. 0. 0. 0.
      0. 0. 0. 0. 0. 0. 0. 0. 0. 0. 0. 9.43396240e-03 0. 0. 0. 0. 0. 0.
      0. 0. 0. 0. 0. 0. 0. 0. 0. 0. 0. 0. 0. 0. 0. 0. 0. 0. 0.
      9.43396240e-03 0. 9.43396240e-03 0. 0. 0. 0. 0. 0. 0. 0. 0. 0. 0.
      0. 0. 0. 9.43396240e-03 0. 0. 0. 0. 0. 0. 0. 0. 0. 0. 0. 0. 0. 0.
      0. 0. 0. 9.43396240e-03 0. 0. 0. 0. 0. 0. 0. 0. 0. 0. 0. 0. 0. 0.
      9.43396240e-03 2.83018872e-02 0. 0. 0. 0. 0. 0. 0. 0. 0. 0. 0. 0.
      0. 0. 0. 0. 0. 9.43396240e-03 0. 0. 0. 0. 0. 0. 0. 0. 0. 0. 0. 0.
      0. 0. 0. 0. 0. 0. 9.43396240e-03 0. 0. 0. 0. 0. 0. 9.43396240e-03
      0. 0. 0. 0. 0. 0. 0. 0. 0. 0. 0. 0. 0. 0. 0. 0. 0. 0. 0. 0. 0. 0.
      0. 0. 0. 0. 0. 0. 0. 0. 0. 0. 1.88679248e-02 0. 0. 0. 0.
      9.43396240e-03 0. 0. 0. 1.88679248e-02 0. 0. 0. 0. 0. 0. 0. 0. 0.
      0. 0. 0. 0. 0. 0. 0. 0. 0. 0. 0. 9.43396240e-03 9.43396240e-03 0.
      0. 0. 0. 0. 0. 0. 9.43396240e-03 0. 0. 9.43396240e-03 0. 0. 0.
      9.43396240e-03 0. 0. 0. 0. 0. 0. 9.43396240e-03 0. 0. 0.
      9.43396240e-03 0. 0. 0. 0. 0. 0. 0. 0. 0. 0. 9.43396240e-03 0. 0.
      0. 0. 9.43396240e-03 0. 0. 9.43396240e-03 0. 0.</_>
    <_>
      0. 0. 0. 0. 0. 0. 0. 0. 0. 0. 0. 0. 0. 0. 0. 0. 0. 0. 0. 0. 0. 0.
      0. 0. 1.05263162e-02 0. 0. 0. 0. 0. 1.05263162e-02 0. 0. 0. 0. 0.
      0. 0. 0. 0. 0. 0. 0. 1.05263162e-02 0. 0. 0. 0. 0. 1.05263162e-02
      1.05263162e-02 0. 1.05263162e-02 0. 1.05263162e-02 0. 0. 0.
      2.10526325e-02 0. 0. 0. 0. 0. 0. 0. 0. 0. 0. 0. 0. 0. 0.
      1.05263162e-02 0. 0. 0. 0. 0. 0. 1.05263162e-02 0. 0. 0.
      2.10526325e-02 0. 0. 0. 0. 0. 0. 0. 0. 0. 0. 0. 0. 0. 0. 0. 0. 0.
      0. 0. 0. 0. 0. 0. 0. 0. 0. 0. 0. 0. 0. 0. 0. 0. 0. 0. 0. 0. 0. 0.
      0. 0. 0. 0. 0. 0. 0. 0. 1.05263162e-02 0. 0. 0. 0. 0. 0. 0.
      1.05263162e-02 0. 0. 0. 0. 0. 0. 0. 1.05263162e-02 0. 0.
      1.05263162e-02 1.05263162e-02 0. 0. 0. 0. 0. 0. 0. 0.
      1.05263162e-02 0. 0. 0. 0. 0. 0. 0. 0. 0. 0. 0. 0. 0. 0. 0. 0. 0.
      0. 0. 0. 0. 0. 1.05263162e-02 0. 1.05263162e-02 0. 0. 0. 0. 0. 0.
      0. 0. 0. 0. 0. 1.05263162e-02 0. 0. 0. 0. 0. 0. 1.05263162e-02 0.
      0. 0. 1.05263162e-02 0. 0. 0. 0. 0. 0. 0. 0. 0. 0. 0. 0. 0. 0. 0.
      0. 0. 0. 0. 0. 0. 0. 0. 0. 0. 0. 0. 0. 0. 0. 0. 1.05263162e-02 0.
      0. 0. 0. 0. 0. 1.05263162e-02 0. 0. 0. 0. 0. 0. 0. 0. 0. 0.
      1.05263162e-02 0. 0. 0. 1.05263162e-02 0. 0. 0. 1.05263162e-02 0.
      0. 0. 1.05263162e-02 1.05263162e-02 0. 0. 0. 0. 0. 0. 0. 0. 0. 0.
      0. 0. 0. 0. 0. 0. 0. 0. 0. 1.05263162e-02 0. 0. 0. 0. 0. 0. 0. 0.
      0. 0. 0. 0. 0. 0. 0. 0. 0. 0. 0. 0. 0. 0. 0. 0. 0. 0. 0. 0. 0. 0.
      1.05263162e-02 0. 0. 0. 0. 3.15789506e-02 0. 0. 0. 0. 0. 0. 0. 0.
      0. 0. 0. 0. 0. 0. 0. 0. 0. 0. 0. 0. 0. 0. 0. 0. 0. 0. 0. 0. 0. 0.
      0. 1.05263162e-02 0. 0. 0. 0. 1.05263162e-02 0. 0. 0. 0. 0. 0. 0.
      0. 0. 0. 0. 0. 2.10526325e-02 0. 0. 0. 0. 0. 1.05263162e-02 0. 0.
      1.05263162e-02 0. 0. 0. 0. 0. 0. 0. 0. 0. 0. 0. 1.05263162e-02 0.
      0. 1.05263162e-02 0. 0. 1.05263162e-02 0. 1.05263162e-02 0. 0.
      1.05263162e-02 0. 0. 0. 0. 0. 0. 0. 0. 0. 0. 0. 0. 0. 0. 0. 0. 0.
      0. 0. 0. 1.05263162e-02 0. 0. 0. 0. 0. 0. 0. 0. 0. 0. 0.
      1.05263162e-02 0. 0. 0. 0. 0. 1.05263162e-02 0. 0. 0. 0. 0. 0. 0.
      0. 0. 1.05263162e-02 0. 0. 0. 2.10526325e-02 0. 0. 0. 0. 0. 0. 0.
      0. 0. 0. 0. 0. 0. 0. 0. 0. 0. 0. 0. 0. 0. 0. 1.05263162e-02 0. 0.
      0. 0. 0. 0. 0. 0. 0. 0. 0. 0. 0. 0. 0. 0. 0. 0. 0. 0. 0. 0. 0. 0.
      0. 0. 0. 1.05263162e-02 0. 0. 0. 0. 0. 0. 0. 1.05263162e-02 0. 0.
      0. 0. 0. 0. 0. 0. 0. 0. 0. 0. 0. 0. 0. 1.05263162e-02 0. 0.
      1.05263162e-02 1.05263162e-02 0. 0. 0. 0. 0. 0. 0. 0. 0. 0. 0. 0.
      0. 0. 0. 0. 0. 0. 0. 1.05263162e-02 0. 0. 0. 0. 0. 0. 0. 0. 0. 0.
      0. 0. 0. 0. 0. 0. 0. 0. 0. 0. 1.05263162e-02 0. 0. 0. 0. 0. 0. 0.
      0. 0. 0. 0. 0. 0. 0. 0. 0. 0. 0. 0. 0. 0. 0. 0. 0. 0. 0. 0. 0. 0.
      1.05263162e-02 0. 0. 0. 0. 1.05263162e-02 0. 0. 0. 0. 0. 0. 0. 0.
      0. 0. 0. 0. 0. 0. 0. 0. 0. 0. 0. 0. 0. 0. 0. 0. 0. 0. 0. 0. 0. 0.
      0. 0. 0. 0. 0. 0. 0. 0. 1.05263162e-02 0. 0. 1.05263162e-02 0. 0.
      0. 0. 0. 0. 0. 0. 0. 1.05263162e-02 0. 0. 0. 1.05263162e-02 0. 0.
      0. 0. 0. 0. 0. 0. 0. 0. 0. 0. 0. 0. 0. 0. 0. 2.10526325e-02 0. 0.
      0. 0. 0. 0. 0. 0. 0. 0. 0. 0. 0. 0. 0. 0. 0. 0. 0. 0. 0.
      1.05263162e-02 0. 0. 0. 0. 0. 1.05263162e-02 0. 0. 0. 0. 0. 0. 0.
      1.05263162e-02 0. 0. 0. 0. 1.05263162e-02 0. 0. 0. 0. 0. 0. 0. 0.
      0. 0. 0. 0. 0. 0. 0. 0. 0. 0. 0. 0. 0. 0. 0. 0. 0. 0. 0. 0. 0. 0.
      0. 0. 0. 1.05263162e-02 0. 0. 0. 0. 0. 0. 0. 1.05263162e-02 0. 0.
      1.05263162e-02 0. 0. 0. 0. 0. 0. 0. 0. 0. 2.10526325e-02 0. 0. 0.
      0. 2.10526325e-02 0. 1.05263162e-02 0. 0. 0. 0. 0. 0. 0. 0. 0. 0.
      0. 0. 0. 0. 0. 1.05263162e-02 0. 0. 0. 0. 0. 0. 0. 0. 0. 0. 0.
      1.05263162e-02 0. 0. 0. 0. 1.05263162e-02 0. 0. 0. 0. 0. 0. 0. 0.
      0. 0. 0. 0. 0. 0. 1.05263162e-02 0. 0. 0. 1.05263162e-02 0. 0. 0.
      0. 0. 0. 0. 0. 0. 0. 0. 0. 0. 0. 1.05263162e-02 0. 0. 0. 0. 0. 0.
      0. 1.05263162e-02 0. 0. 0. 0. 0. 0. 0. 0. 0. 0. 1.05263162e-02 0.
      0. 0. 0. 0. 0. 0. 0. 0. 0. 0. 0. 0. 0. 0. 0. 0. 0. 0. 0. 0. 0. 0.
      1.05263162e-02 0. 1.05263162e-02 0. 0. 0. 0. 0. 0. 0. 0. 0. 0. 0.
      0. 0. 1.05263162e-02 0. 0. 0. 0. 0. 0. 0. 0. 1.05263162e-02 0. 0.
      0. 0. 0. 0. 1.05263162e-02 0. 0. 0. 0. 0. 0. 0. 0. 0. 0. 0. 0. 0.
      0. 0. 0. 0. 0. 0. 0. 0. 0. 0. 0. 0. 0. 0. 0. 0. 0. 0. 0. 0. 0. 0.
      0. 0. 0. 0. 0. 1.05263162e-02 0. 0. 0. 0. 0. 0. 0. 0. 0. 0. 0. 0.
      0. 0. 0. 0. 0. 0. 0. 0. 0.</_>
    <_>
      0. 0. 0. 0. 0. 0. 0. 0. 0. 0. 0. 0. 0. 0. 0. 0. 0. 0. 0. 0. 0. 0.
      0. 0. 1.02040814e-02 0. 0. 0. 0. 0. 0. 1.02040814e-02 0. 0. 0. 0.
      0. 1.02040814e-02 0. 1.02040814e-02 0. 0. 0. 1.02040814e-02 0. 0.
      0. 0. 0. 1.02040814e-02 1.02040814e-02 0. 1.02040814e-02 0.
      1.02040814e-02 0. 0. 0. 1.02040814e-02 0. 0. 0. 0. 0. 0. 0. 0. 0.
      0. 0. 0. 0. 0. 1.02040814e-02 1.02040814e-02 0. 0. 0. 0. 0. 0. 0.
      0. 0. 0. 0. 0. 0. 0. 1.02040814e-02 0. 0. 0. 0. 0. 1.02040814e-02
      0. 0. 0. 0. 0. 0. 0. 0. 0. 0. 0. 0. 0. 0. 0. 0. 0. 0. 0. 0. 0. 0.
      0. 0. 0. 0. 0. 0. 0. 0. 0. 0. 0. 0. 0. 0. 0. 0. 0. 0. 0. 0. 0. 0.
      0. 0. 0. 0. 0. 0. 0. 0. 1.02040814e-02 0. 0. 1.02040814e-02
      1.02040814e-02 0. 0. 0. 0. 0. 0. 0. 1.02040814e-02 1.02040814e-02
      0. 0. 0. 0. 0. 0. 0. 0. 0. 1.02040814e-02 0. 0. 0. 0. 0. 0. 0. 0.
      0. 0. 0. 0. 1.02040814e-02 0. 0. 0. 0. 0. 0. 0. 0. 0. 0. 0. 0. 0.
      1.02040814e-02 0. 0. 0. 0. 0. 0. 0. 0. 0. 0. 0. 0. 0. 0. 0. 0. 0.
      0. 0. 0. 0. 0. 0. 0. 0. 0. 0. 0. 0. 0. 0. 0. 0. 0. 0. 0. 0. 0. 0.
      0. 0. 1.02040814e-02 1.02040814e-02 0. 0. 0. 0. 0. 0. 0.
      1.02040814e-02 0. 0. 0. 0. 0. 0. 0. 0. 0. 0. 0. 0. 0.
      1.02040814e-02 0. 0. 0. 0. 0. 0. 0. 1.02040814e-02 0. 0. 0. 0. 0.
      0. 0. 0. 0. 0. 0. 0. 0. 0. 0. 0. 0. 0. 0. 1.02040814e-02 0. 0. 0.
      1.02040814e-02 0. 0. 0. 0. 0. 0. 0. 1.02040814e-02 0. 0. 0. 0. 0.
      0. 0. 0. 0. 0. 1.02040814e-02 0. 0. 1.02040814e-02 0. 0. 0. 0. 0.
      1.02040814e-02 0. 0. 0. 0. 2.04081628e-02 0. 0. 0. 0. 0. 0. 0.
      1.02040814e-02 0. 0. 0. 0. 0. 0. 0. 0. 0. 0. 1.02040814e-02
      1.02040814e-02 0. 0. 0. 0. 0. 0. 0. 0. 0. 0. 0. 1.02040814e-02 0.
      0. 0. 0. 0. 0. 0. 0. 0. 0. 0. 0. 0. 0. 0. 0. 0. 2.04081628e-02 0.
      0. 0. 0. 0. 1.02040814e-02 0. 0. 2.04081628e-02 0. 0. 0. 0. 0. 0.
      0. 0. 1.02040814e-02 0. 0. 0. 0. 0. 0. 0. 0. 1.02040814e-02 0.
      2.04081628e-02 0. 0. 0. 0. 0. 0. 0. 0. 0. 0. 0. 0. 0. 0. 0. 0. 0.
      1.02040814e-02 0. 0. 0. 0. 0. 1.02040814e-02 0. 0. 0. 0. 0. 0. 0.
      0. 0. 0. 0. 1.02040814e-02 0. 0. 0. 0. 0. 0. 0. 0. 0. 0. 0. 0. 0.
      0. 0. 0. 0. 0. 0. 3.06122452e-02 0. 0. 0. 0. 0. 0. 0. 0. 0. 0. 0.
      1.02040814e-02 0. 0. 0. 0. 0. 0. 0. 0. 0. 0. 0. 0. 0. 0.
      1.02040814e-02 0. 0. 0. 0. 0. 0. 0. 0. 0. 0. 0. 0. 0. 0.
      1.02040814e-02 0. 0. 0. 0. 0. 0. 0. 0. 1.02040814e-02 0. 0. 0. 0.
      0. 0. 0. 1.02040814e-02 0. 0. 0. 0. 0. 2.04081628e-02 0. 0. 0. 0.
      0. 0. 0. 0. 0. 1.02040814e-02 1.02040814e-02 0. 1.02040814e-02 0.
      0. 0. 0. 0. 0. 0. 0. 0. 0. 0. 0. 0. 0. 0. 0. 0. 0. 0. 0. 0. 0. 0.
      0. 0. 0. 0. 0. 0. 0. 0. 0. 0. 0. 0. 0. 0. 0. 0. 0. 0. 0.
      1.02040814e-02 0. 0. 0. 0. 0. 0. 0. 0. 0. 0. 0. 0. 0. 0. 0. 0. 0.
      0. 0. 0. 0. 0. 0. 0. 0. 0. 0. 0. 1.02040814e-02 0. 0. 0. 0.
      1.02040814e-02 0. 0. 0. 0. 0. 0. 0. 0. 0. 0. 0. 0. 0. 0. 0. 0. 0.
      0. 0. 0. 0. 0. 0. 1.02040814e-02 0. 0. 0. 0. 0. 0. 0. 0. 0. 0. 0.
      0. 0. 0. 1.02040814e-02 0. 0. 1.02040814e-02 0. 0. 0. 0. 0. 0. 0.
      0. 0. 0. 0. 0. 0. 0. 0. 0. 0. 0. 0. 0. 0. 0. 0. 0. 0. 0. 0.
      1.02040814e-02 0. 0. 0. 1.02040814e-02 0. 0. 1.02040814e-02 0. 0.
      0. 0. 0. 0. 0. 0. 0. 0. 0. 1.02040814e-02 0. 0. 0. 0. 0. 0.
      1.02040814e-02 0. 0. 0. 0. 0. 1.02040814e-02 0. 0. 0. 0. 0. 0. 0.
      1.02040814e-02 0. 0. 0. 0. 1.02040814e-02 0. 0. 0. 0. 0. 0. 0. 0.
      0. 0. 0. 0. 1.02040814e-02 0. 0. 0. 0. 0. 0. 0. 0. 0. 0. 0. 0. 0.
      0. 0. 0. 0. 0. 0. 0. 1.02040814e-02 0. 0. 0. 0. 0. 0. 0.
      1.02040814e-02 0. 0. 0. 0. 0. 0. 0. 0. 0. 0. 0. 0. 0. 0. 0. 0. 0.
      2.04081628e-02 0. 1.02040814e-02 0. 0. 0. 0. 2.04081628e-02 0. 0.
      0. 0. 0. 0. 0. 0. 0. 0. 0. 0. 0. 0. 0. 0. 0. 0. 0. 0. 0. 0.
      1.02040814e-02 0. 0. 0. 0. 0. 0. 0. 0. 0. 0. 0. 0. 0. 0. 0. 0.
      1.02040814e-02 0. 0. 0. 0. 0. 0. 0. 0. 0. 0. 0. 0. 0. 0. 0. 0. 0.
      0. 0. 0. 0. 1.02040814e-02 0. 0. 0. 0. 0. 0. 1.02040814e-02 0. 0.
      0. 0. 0. 0. 0. 0. 0. 0. 0. 1.02040814e-02 0. 0. 0. 0. 0. 0. 0. 0.
      0. 0. 0. 0. 1.02040814e-02 0. 0. 0. 0. 0. 0. 0. 0. 0. 0.
      1.02040814e-02 0. 1.02040814e-02 0. 0. 0. 0. 0. 0. 0. 0. 0. 0. 0.
      0. 0. 0. 0. 0. 0. 0. 0. 0. 0. 0. 1.02040814e-02 0. 0. 0. 0. 0. 0.
      0. 0. 0. 0. 0. 0. 0. 0. 0. 0. 0. 0. 0. 0. 0. 0. 0. 1.02040814e-02
      0. 0. 1.02040814e-02 0. 0. 0. 0. 0. 0. 0. 0. 0. 0. 0. 0. 0. 0. 0.
      0. 0. 0. 0. 0. 0. 1.02040814e-02 0. 0. 0. 0. 0. 0. 0. 0. 0. 0. 0.
      0. 0. 0. 0. 0. 0. 0. 0. 0.</_>
    <_>
      0. 0. 0. 0. 0. 0. 0. 0. 0. 0. 0. 1.01010101e-02 0. 0. 0. 0. 0. 0.
      0. 0. 0. 0. 0. 0. 0. 0. 0. 0. 0. 0. 0. 0. 0. 0. 0. 0. 0. 0. 0. 0.
      0. 0. 0. 1.01010101e-02 0. 0. 0. 0. 0. 1.01010101e-02
      1.01010101e-02 0. 1.01010101e-02 0. 1.01010101e-02 0. 0. 0. 0. 0.
      0. 1.01010101e-02 0. 0. 0. 0. 0. 0. 0. 0. 0. 0. 0. 1.01010101e-02
      1.01010101e-02 0. 0. 0. 0. 0. 0. 0. 0. 0. 0. 0. 0. 0. 0. 0. 0. 0.
      0. 0. 0. 0. 0. 0. 0. 0. 0. 0. 0. 0. 0. 0. 0. 0. 0. 0. 0. 0. 0. 0.
      0. 0. 0. 0. 1.01010101e-02 0. 0. 0. 0. 0. 0. 0. 0. 0. 0. 0. 0. 0.
      0. 0. 0. 0. 0. 0. 0. 0. 0. 0. 0. 0. 0. 0. 0. 0. 1.01010101e-02 0.
      0. 0. 1.01010101e-02 0. 0. 0. 0. 0. 0. 0. 1.01010101e-02
      1.01010101e-02 0. 0. 0. 0. 0. 0. 0. 0. 0. 0. 0. 0. 0. 0. 0. 0. 0.
      0. 0. 0. 0. 0. 1.01010101e-02 0. 0. 0. 0. 0. 0. 0. 0. 0. 0. 0. 0.
      0. 0. 0. 0. 0. 0. 0. 0. 0. 0. 0. 0. 0. 0. 0. 0. 0. 0. 0. 0. 0. 0.
      0. 0. 0. 0. 0. 0. 0. 0. 0. 0. 0. 0. 0. 0. 0. 0. 0. 0. 0. 0. 0.
      1.01010101e-02 1.01010101e-02 0. 0. 0. 0. 0. 0. 0. 2.02020202e-02
      0. 0. 0. 0. 0. 0. 0. 0. 0. 0. 0. 0. 0. 1.01010101e-02 0. 0. 0. 0.
      0. 0. 0. 1.01010101e-02 0. 0. 0. 0. 0. 0. 0. 0. 0. 0. 0. 0. 0. 0.
      0. 0. 0. 0. 0. 0. 0. 0. 0. 1.01010101e-02 0. 0. 0. 0. 0. 0. 0.
      1.01010101e-02 0. 0. 0. 0. 0. 0. 0. 0. 0. 0. 1.01010101e-02 0. 0.
      0. 0. 0. 0. 0. 0. 1.01010101e-02 0. 0. 0. 0. 3.03030312e-02 0. 0.
      0. 0. 0. 0. 0. 1.01010101e-02 0. 0. 0. 0. 0. 0. 0. 0. 0. 0. 0. 0.
      0. 0. 0. 0. 0. 0. 0. 0. 0. 0. 0. 1.01010101e-02 0. 1.01010101e-02
      0. 0. 0. 0. 0. 0. 0. 0. 0. 0. 0. 1.01010101e-02 0. 0. 0.
      1.01010101e-02 0. 0. 0. 0. 0. 0. 0. 0. 1.01010101e-02 0. 0. 0. 0.
      0. 0. 0. 0. 1.01010101e-02 0. 0. 0. 0. 0. 0. 0. 0. 1.01010101e-02
      0. 1.01010101e-02 0. 0. 0. 0. 0. 0. 0. 0. 0. 0. 0. 0. 0. 0. 0. 0.
      0. 0. 0. 0. 0. 0. 0. 1.01010101e-02 0. 0. 0. 0. 0. 0. 0. 0. 0. 0.
      0. 1.01010101e-02 0. 0. 0. 0. 0. 0. 0. 0. 0. 0. 0. 0. 0. 0. 0. 0.
      0. 0. 0. 3.03030312e-02 0. 0. 0. 0. 0. 0. 0. 0. 0. 0. 0.
      2.02020202e-02 0. 0. 0. 0. 0. 0. 0. 0. 0. 0. 0. 0. 0. 0. 0. 0. 0.
      0. 0. 0. 0. 0. 0. 0. 0. 0. 0. 0. 0. 0. 0. 0. 1.01010101e-02 0. 0.
      0. 0. 0. 1.01010101e-02 0. 0. 0. 0. 0. 0. 0. 1.01010101e-02 0. 0.
      0. 0. 0. 1.01010101e-02 0. 0. 0. 0. 0. 0. 0. 0. 0. 1.01010101e-02
      1.01010101e-02 0. 1.01010101e-02 0. 0. 0. 0. 0. 0. 0. 0. 0. 0. 0.
      0. 0. 0. 0. 0. 0. 0. 0. 0. 0. 0. 0. 0. 0. 0. 0. 0. 0. 0. 0. 0. 0.
      0. 0. 0. 0. 0. 0. 0. 0. 0. 0. 0. 0. 0. 0. 0. 0. 0. 0. 0. 0.
      1.01010101e-02 0. 0. 0. 0. 0. 0. 0. 0. 0. 0. 0. 0. 0. 0. 0. 0. 0.
      1.01010101e-02 0. 0. 0. 0. 1.01010101e-02 0. 0. 0. 0. 0. 0. 0. 0.
      0. 0. 0. 0. 0. 0. 0. 0. 0. 0. 0. 0. 0. 0. 0. 2.02020202e-02 0. 0.
      0. 0. 0. 0. 0. 0. 0. 0. 0. 0. 0. 0. 1.01010101e-02 0. 0.
      1.01010101e-02 0. 0. 0. 0. 0. 0. 0. 0. 0. 0. 0. 0. 0.
      1.01010101e-02 0. 0. 0. 0. 1.01010101e-02 0. 0. 0. 0. 0. 0. 0. 0.
      0. 0. 0. 0. 2.02020202e-02 0. 0. 0. 0. 0. 0. 0. 0. 0.
      1.01010101e-02 0. 0. 0. 0. 1.01010101e-02 0. 0. 0. 1.01010101e-02
      0. 0. 1.01010101e-02 0. 0. 0. 0. 0. 0. 0. 0. 0. 0. 1.01010101e-02
      0. 0. 1.01010101e-02 0. 0. 0. 0. 1.01010101e-02 0. 0. 0. 0. 0. 0.
      0. 0. 0. 0. 0. 0. 1.01010101e-02 0. 0. 0. 0. 0. 0. 0. 0. 0. 0. 0.
      0. 0. 1.01010101e-02 0. 0. 0. 0. 0. 0. 1.01010101e-02 0. 0. 0. 0.
      0. 0. 0. 2.02020202e-02 0. 0. 1.01010101e-02 0. 0. 0. 0. 0. 0. 0.
      0. 1.01010101e-02 0. 0. 0. 0. 0. 2.02020202e-02 0. 2.02020202e-02
      0. 0. 0. 0. 1.01010101e-02 0. 0. 0. 0. 0. 0. 0. 0. 0.
      1.01010101e-02 0. 0. 0. 0. 0. 0. 0. 0. 0. 0. 0. 0. 2.02020202e-02
      0. 0. 0. 0. 0. 0. 0. 0. 0. 0. 0. 0. 0. 0. 0. 0. 1.01010101e-02 0.
      0. 0. 0. 0. 0. 1.01010101e-02 0. 0. 0. 0. 0. 0. 0. 0.
      2.02020202e-02 0. 0. 0. 0. 0. 0. 0. 0. 0. 0. 0. 0. 0.
      1.01010101e-02 0. 0. 1.01010101e-02 0. 0. 0. 0. 0. 0. 0.
      1.01010101e-02 0. 0. 0. 0. 0. 0. 0. 0. 0. 0. 0. 0. 0. 0. 0. 0. 0.
      0. 0. 0. 0. 0. 0. 0. 0. 1.01010101e-02 0. 0. 0. 0. 0. 0. 0.
      1.01010101e-02 0. 0. 0. 0. 0. 1.01010101e-02 0. 0. 0. 0. 0. 0. 0.
      0. 1.01010101e-02 0. 0. 0. 0. 0. 0. 0. 0. 0. 0. 0. 0. 0. 0. 0. 0.
      0. 0. 0. 0. 0. 0. 1.01010101e-02 1.01010101e-02 0. 0.
      1.01010101e-02 0. 0. 0. 0. 0. 0. 0. 0. 0. 0. 0. 0. 0. 0. 0. 0. 0.
      0. 0. 0. 0. 1.01010101e-02 0. 0. 0. 0. 0. 0. 0. 0. 0. 0. 0. 0. 0.
      0. 0. 0. 0. 0. 0. 0.</_>
    <_>
      0. 0. 0. 1.02040814e-02 0. 0. 0. 0. 0. 0. 0. 0. 0. 0. 0. 0. 0. 0.
      0. 0. 0. 0. 1.02040814e-02 0. 0. 0. 0. 0. 0. 0. 0. 0. 0. 0. 0. 0.
      0. 0. 0. 0. 0. 0. 0. 1.02040814e-02 0. 0. 0. 0. 1.02040814e-02 0.
      0. 0. 0. 0. 1.02040814e-02 0. 0. 0. 0. 0. 0. 0. 0. 0.
      1.02040814e-02 0. 0. 0. 0. 0. 0. 0. 0. 0. 0. 0. 0. 0. 0. 0. 0. 0.
      0. 1.02040814e-02 0. 1.02040814e-02 0. 1.02040814e-02 0. 0. 0. 0.
      0. 1.02040814e-02 0. 0. 0. 0. 0. 0. 0. 0. 0. 1.02040814e-02 0. 0.
      0. 0. 0. 0. 0. 0. 0. 0. 1.02040814e-02 0. 0. 0. 0. 0.
      1.02040814e-02 0. 0. 0. 0. 0. 0. 0. 0. 0. 0. 0. 0. 0. 0. 0. 0. 0.
      0. 0. 0. 0. 2.04081628e-02 0. 0. 0. 0. 0. 0. 0. 0. 0.
      1.02040814e-02 0. 0. 0. 0. 0. 0. 0. 0. 0. 0. 0. 0. 0. 0. 0. 0. 0.
      0. 1.02040814e-02 0. 0. 0. 0. 0. 0. 0. 0. 0. 0. 0. 0. 0. 0. 0. 0.
      1.02040814e-02 0. 0. 0. 0. 0. 0. 0. 1.02040814e-02 0. 0. 0. 0. 0.
      0. 0. 0. 0. 0. 0. 0. 0. 0. 0. 0. 0. 0. 0. 0. 0. 0. 0. 0. 0. 0. 0.
      0. 0. 0. 0. 0. 0. 0. 0. 0. 0. 0. 0. 0. 0. 0. 0. 0. 1.02040814e-02
      0. 0. 0. 0. 0. 0. 0. 1.02040814e-02 0. 0. 0. 0. 0. 0. 0. 0. 0. 0.
      0. 0. 0. 1.02040814e-02 0. 0. 0. 0. 1.02040814e-02 0. 0.
      1.02040814e-02 0. 0. 0. 0. 0. 0. 0. 0. 0. 0. 0. 0. 0. 0. 0. 0. 0.
      0. 0. 0. 0. 0. 0. 1.02040814e-02 0. 0. 0. 0. 0. 0. 0. 0. 0.
      1.02040814e-02 0. 0. 1.02040814e-02 0. 0. 0. 0. 0. 0. 0. 0.
      1.02040814e-02 0. 0. 0. 0. 0. 0. 1.02040814e-02 0. 0. 0. 0. 0. 0.
      0. 0. 0. 0. 1.02040814e-02 0. 0. 0. 0. 0. 0. 0. 0. 0. 0. 0. 0. 0.
      0. 0. 0. 0. 0. 1.02040814e-02 0. 0. 0. 0. 0. 1.02040814e-02 0.
      1.02040814e-02 0. 0. 0. 0. 0. 0. 0. 0. 1.02040814e-02 0. 0. 0. 0.
      0. 0. 0. 0. 0. 1.02040814e-02 0. 0. 0. 0. 0. 0. 0. 0. 0. 0. 0. 0.
      1.02040814e-02 0. 1.02040814e-02 0. 0. 0. 0. 0. 0. 0. 0.
      1.02040814e-02 0. 1.02040814e-02 0. 0. 0. 0. 0. 0. 0. 0. 0. 0.
      1.02040814e-02 0. 0. 0. 0. 0. 0. 0. 0. 0. 0. 0. 0. 2.04081628e-02
      0. 0. 1.02040814e-02 0. 0. 0. 0. 1.02040814e-02 0. 0. 0. 0. 0. 0.
      0. 0. 0. 0. 1.02040814e-02 0. 0. 1.02040814e-02 0. 0.
      1.02040814e-02 0. 0. 0. 0. 0. 0. 0. 0. 0. 0. 0. 0. 0. 0. 0. 0. 0.
      0. 0. 0. 0. 0. 1.02040814e-02 1.02040814e-02 0. 0. 0. 0.
      1.02040814e-02 0. 0. 0. 0. 0. 0. 0. 1.02040814e-02 0.
      1.02040814e-02 0. 0. 0. 0. 0. 0. 0. 0. 0. 0. 0. 0. 0. 0. 0. 0. 0.
      0. 0. 1.02040814e-02 0. 0. 0. 0. 0. 0. 0. 0. 0. 0. 0. 0. 0. 0. 0.
      0. 0. 0. 0. 1.02040814e-02 0. 0. 0. 0. 0. 0. 0. 0. 0. 0. 0. 0. 0.
      0. 0. 0. 1.02040814e-02 0. 0. 0. 0. 0. 0. 0. 0. 0. 0. 0. 0. 0. 0.
      0. 0. 0. 0. 0. 0. 0. 0. 0. 0. 0. 0. 0. 0. 0. 1.02040814e-02 0. 0.
      0. 0. 0. 0. 0. 0. 0. 0. 0. 0. 0. 0. 0. 0. 0. 0. 0. 0. 0. 0. 0. 0.
      0. 0. 0. 0. 0. 0. 0. 0. 0. 0. 0. 1.02040814e-02 0. 0. 0. 0. 0. 0.
      0. 0. 0. 0. 0. 0. 0. 1.02040814e-02 0. 0. 0. 0. 0. 0. 0. 0. 0. 0.
      0. 0. 0. 0. 0. 0. 1.02040814e-02 0. 0. 0. 0. 2.04081628e-02 0. 0.
      1.02040814e-02 0. 0. 2.04081628e-02 0. 0. 0. 1.02040814e-02 0. 0.
      0. 0. 0. 0. 0. 0. 0. 0. 0. 0. 0. 0. 0. 0. 0. 0. 0. 0. 0.
      1.02040814e-02 1.02040814e-02 0. 0. 0. 0. 1.02040814e-02 0. 0.
      1.02040814e-02 0. 0. 0. 0. 0. 0. 0. 0. 0. 0. 0. 0. 1.02040814e-02
      0. 1.02040814e-02 0. 0. 0. 0. 0. 0. 0. 0. 0. 0. 0. 0. 0. 0. 0. 0.
      0. 1.02040814e-02 0. 0. 0. 0. 0. 0. 0. 0. 0. 1.02040814e-02 0. 0.
      0. 0. 0. 0. 0. 1.02040814e-02 0. 0. 0. 0. 0. 0. 0. 0.
      1.02040814e-02 0. 0. 0. 0. 0. 0. 0. 0. 0. 0. 0. 1.02040814e-02 0.
      0. 0. 0. 0. 0. 0. 1.02040814e-02 0. 0. 0. 0. 0. 0. 0. 0. 0. 0. 0.
      0. 0. 0. 0. 0. 0. 1.02040814e-02 0. 1.02040814e-02 0. 0. 0.
      1.02040814e-02 0. 0. 0. 0. 0. 0. 0. 1.02040814e-02 0. 0.
      1.02040814e-02 0. 1.02040814e-02 0. 0. 0. 0. 0. 0. 0. 0. 0. 0.
      1.02040814e-02 0. 0. 0. 0. 1.02040814e-02 0. 0. 0. 0. 0. 0. 0. 0.
      0. 0. 0. 0. 0. 0. 1.02040814e-02 0. 0. 0. 0. 0. 0. 0. 0. 0. 0. 0.
      0. 0. 0. 0. 0. 0. 0. 1.02040814e-02 0. 0. 0. 0. 0. 0. 0. 0. 0. 0.
      1.02040814e-02 0. 0. 0. 0. 0. 0. 0. 1.02040814e-02 0. 0. 0. 0. 0.
      0. 0. 0. 0. 0. 0. 0. 0. 0. 1.02040814e-02 0. 0. 1.02040814e-02 0.
      0. 0. 0. 0. 1.02040814e-02 0. 1.02040814e-02 0. 0. 0. 0. 0. 0. 0.
      0. 0. 0. 0. 0. 0. 1.02040814e-02 0. 0. 0. 0. 0. 0. 0. 0.
      1.02040814e-02 0. 0. 0. 0. 0. 0. 0. 0. 0. 0. 0. 0. 0. 0. 0. 0. 0.
      0. 0. 0. 0. 0. 0. 0. 0. 0. 0. 0. 0. 0. 0. 0. 2.04081628e-02 0. 0.
      0. 0. 0. 0. 0. 0. 0. 0. 0. 0. 0. 0. 0. 1.02040814e-02 0. 0. 0. 0.
      0. 0. 0. 0. 0. 0. 0. 0. 0. 0. 0. 0. 0. 0. 0. 0.</_>
    <_>
      0. 0. 8.62068962e-03 8.62068962e-03 0. 0. 0. 0. 0. 0. 0. 0. 0. 0.
      0. 0. 0. 0. 0. 0. 0. 0. 0. 0. 8.62068962e-03 0. 0. 0. 0. 0. 0. 0.
      0. 0. 0. 0. 0. 0. 0. 0. 0. 0. 0. 8.62068962e-03 0. 0. 0. 0. 0. 0.
      0. 0. 0. 0. 8.62068962e-03 0. 0. 0. 0. 0. 0. 0. 0. 8.62068962e-03
      8.62068962e-03 0. 0. 0. 0. 0. 0. 0. 0. 0. 8.62068962e-03 0. 0. 0.
      0. 0. 0. 0. 0. 8.62068962e-03 0. 8.62068962e-03 0. 2.58620679e-02
      0. 8.62068962e-03 0. 8.62068962e-03 8.62068962e-03 8.62068962e-03
      0. 0. 0. 0. 0. 0. 0. 0. 0. 8.62068962e-03 0. 0. 0. 0. 0. 0. 0. 0.
      0. 0. 8.62068962e-03 0. 0. 0. 0. 0. 8.62068962e-03 0. 0. 0. 0. 0.
      0. 0. 0. 0. 0. 0. 0. 0. 0. 0. 0. 0. 0. 0. 0. 0. 1.72413792e-02 0.
      0. 0. 0. 0. 0. 0. 0. 0. 8.62068962e-03 0. 0. 0. 0. 0. 0. 0. 0. 0.
      0. 0. 0. 0. 0. 0. 0. 0. 0. 8.62068962e-03 0. 0. 0. 0. 0. 0. 0. 0.
      0. 0. 0. 0. 0. 0. 0. 0. 8.62068962e-03 0. 0. 0. 0. 0. 0. 0.
      8.62068962e-03 0. 0. 0. 0. 0. 0. 8.62068962e-03 0. 0.
      8.62068962e-03 0. 0. 0. 0. 0. 0. 0. 0. 0. 0. 0. 0. 0. 0. 0. 0. 0.
      0. 0. 0. 0. 0. 0. 0. 0. 0. 0. 0. 0. 0. 0. 0. 0. 0. 8.62068962e-03
      0. 0. 0. 0. 0. 0. 0. 0. 0. 0. 0. 0. 0. 0. 0. 0. 0. 8.62068962e-03
      0. 0. 0. 8.62068962e-03 0. 0. 0. 0. 8.62068962e-03 0. 0.
      8.62068962e-03 0. 0. 0. 0. 0. 0. 0. 0. 0. 0. 0. 0. 0. 0. 0. 0. 0.
      0. 0. 0. 0. 0. 0. 8.62068962e-03 0. 0. 0. 0. 0. 0. 0. 0. 0.
      8.62068962e-03 0. 0. 8.62068962e-03 0. 0. 0. 0. 0. 0. 0. 0.
      8.62068962e-03 0. 0. 0. 0. 0. 0. 8.62068962e-03 0. 0. 0. 0. 0. 0.
      0. 0. 0. 0. 0. 0. 0. 0. 0. 0. 0. 0. 0. 0. 0. 0. 1.72413792e-02 0.
      8.62068962e-03 0. 0. 0. 0. 0. 0. 0. 0. 0. 0. 1.72413792e-02 0. 0.
      0. 0. 0. 0. 0. 0. 0. 8.62068962e-03 0. 0. 0. 0. 0. 0. 0. 0. 0. 0.
      8.62068962e-03 0. 0. 0. 0. 0. 0. 0. 0. 0. 0. 0. 0. 8.62068962e-03
      0. 1.72413792e-02 0. 0. 0. 0. 0. 0. 0. 0. 8.62068962e-03 0.
      8.62068962e-03 0. 0. 0. 0. 0. 0. 0. 0. 0. 0. 8.62068962e-03 0. 0.
      0. 0. 0. 0. 8.62068962e-03 0. 0. 0. 0. 0. 1.72413792e-02 0. 0.
      1.72413792e-02 0. 0. 0. 0. 8.62068962e-03 0. 0. 0. 8.62068962e-03
      0. 0. 0. 0. 0. 0. 0. 0. 0. 8.62068962e-03 0. 0. 0. 0. 0. 0. 0. 0.
      0. 0. 0. 0. 0. 0. 0. 0. 0. 0. 0. 0. 0. 8.62068962e-03 0. 0. 0. 0.
      8.62068962e-03 0. 0. 0. 0. 8.62068962e-03 0. 0. 0. 0. 0. 0. 0.
      8.62068962e-03 0. 1.72413792e-02 0. 0. 0. 0. 0. 0. 0. 0. 0. 0. 0.
      0. 0. 0. 0. 0. 0. 0. 0. 8.62068962e-03 0. 0. 0. 0. 0.
      8.62068962e-03 0. 0. 0. 0. 0. 0. 0. 0. 0. 0. 0. 0. 0.
      1.72413792e-02 8.62068962e-03 0. 0. 0. 0. 0. 0. 0. 0. 0. 0. 0. 0.
      0. 0. 0. 8.62068962e-03 0. 0. 0. 0. 0. 0. 0. 0. 0. 0. 0.
      8.62068962e-03 0. 0. 0. 0. 0. 0. 0. 0. 0. 0. 0. 0. 0. 0. 0. 0. 0.
      0. 0. 0. 0. 0. 0. 0. 0. 0. 0. 0. 0. 0. 8.62068962e-03
      8.62068962e-03 0. 0. 0. 0. 0. 0. 0. 0. 0. 0. 0. 0. 0. 0. 0. 0. 0.
      8.62068962e-03 0. 0. 0. 8.62068962e-03 0. 0. 0. 0. 0. 0. 0. 0. 0.
      0. 0. 0. 0. 8.62068962e-03 0. 0. 0. 0. 0. 0. 0. 0. 0. 0. 0. 0. 0.
      0. 0. 0. 8.62068962e-03 0. 0. 0. 0. 0. 0. 0. 8.62068962e-03 0. 0.
      1.72413792e-02 0. 0. 0. 0. 0. 0. 0. 0. 0. 0. 0. 0. 0. 0. 0. 0. 0.
      0. 0. 0. 0. 0. 0. 0. 0. 8.62068962e-03 8.62068962e-03 0. 0. 0. 0.
      8.62068962e-03 0. 0. 8.62068962e-03 0. 0. 0. 0. 0. 0. 0. 0. 0. 0.
      0. 0. 0. 0. 0. 0. 0. 0. 8.62068962e-03 0. 0. 0. 0. 0. 0. 0. 0. 0.
      0. 0. 0. 0. 8.62068962e-03 0. 0. 0. 0. 0. 0. 0. 0. 0.
      8.62068962e-03 0. 0. 0. 0. 0. 0. 0. 8.62068962e-03 0. 0. 0. 0. 0.
      0. 0. 0. 8.62068962e-03 0. 0. 0. 0. 0. 0. 0. 0. 0. 0. 0.
      1.72413792e-02 0. 0. 0. 0. 0. 0. 0. 8.62068962e-03 0. 0. 0. 0. 0.
      0. 0. 0. 0. 0. 0. 0. 0. 0. 0. 0. 0. 8.62068962e-03 0.
      8.62068962e-03 0. 0. 0. 0. 0. 0. 0. 0. 0. 0. 0. 0. 0. 0.
      8.62068962e-03 8.62068962e-03 8.62068962e-03 0. 0. 0. 0. 0. 0. 0.
      0. 0. 0. 0. 0. 0. 0. 0. 8.62068962e-03 0. 0. 0. 0. 0. 0. 0. 0. 0.
      0. 0. 0. 0. 0. 8.62068962e-03 8.62068962e-03 0. 0. 0. 0. 0. 0. 0.
      0. 0. 0. 0. 0. 0. 0. 0. 0. 0. 8.62068962e-03 0. 0. 0. 0. 0. 0. 0.
      0. 0. 0. 8.62068962e-03 0. 0. 0. 0. 0. 0. 0. 8.62068962e-03 0. 0.
      0. 0. 0. 0. 0. 0. 0. 0. 0. 0. 0. 0. 8.62068962e-03 0. 0.
      8.62068962e-03 0. 0. 0. 0. 0. 8.62068962e-03 0. 0. 0. 0. 0. 0. 0.
      0. 0. 0. 0. 0. 0. 0. 0. 8.62068962e-03 0. 0. 0. 0. 0. 0. 0. 0.
      8.62068962e-03 0. 0. 0. 0. 0. 0. 0. 8.62068962e-03 0. 0. 0. 0. 0.
      0. 0. 0. 0. 0. 0. 0. 0. 8.62068962e-03 0. 0. 0. 0. 0. 0.
      8.62068962e-03 0. 0. 0. 1.72413792e-02 0. 0. 0. 0. 0. 0. 0. 0. 0.
      0. 0. 0. 0. 0. 8.62068962e-03 8.62068962e-03 0. 0. 0. 0. 0. 0. 0.
      0. 0. 0. 0. 0. 0. 0. 0. 0. 0. 0. 0. 0.</_>
    <_>
      0. 0. 0. 9.90098994e-03 0. 0. 0. 0. 0. 0. 0. 0. 0. 0. 0. 0. 0. 0.
      0. 0. 0. 0. 0. 0. 9.90098994e-03 0. 0. 0. 0. 0. 0. 0. 0. 0. 0. 0.
      0. 0. 0. 0. 0. 0. 0. 1.98019799e-02 0. 0. 0. 0. 0. 0.
      9.90098994e-03 0. 0. 0. 9.90098994e-03 0. 0. 0. 0. 0. 0. 0. 0. 0.
      0. 0. 0. 0. 0. 0. 0. 0. 0. 0. 0. 0. 0. 0. 0. 0. 0. 0. 0.
      9.90098994e-03 0. 0. 0. 1.98019799e-02 0. 9.90098994e-03 0. 0. 0.
      9.90098994e-03 0. 0. 0. 0. 0. 0. 0. 0. 0. 1.98019799e-02 0. 0. 0.
      0. 0. 0. 0. 0. 0. 0. 0. 0. 0. 0. 0. 0. 0. 0. 0. 0. 0. 0. 0. 0. 0.
      0. 0. 0. 0. 0. 0. 0. 0. 0. 0. 0. 0. 0. 0. 0. 0. 0. 0. 0.
      9.90098994e-03 0. 0. 0. 1.98019799e-02 0. 0. 0. 0. 0. 0. 0. 0. 0.
      0. 0. 0. 0. 0. 0. 0. 0. 0. 0. 0. 0. 0. 0. 0. 0. 0. 0. 0. 0. 0. 0.
      0. 0. 0. 0. 9.90098994e-03 0. 0. 0. 0. 0. 0. 0. 9.90098994e-03 0.
      0. 0. 0. 0. 0. 0. 0. 0. 0. 0. 0. 9.90098994e-03 0. 0. 0. 0.
      9.90098994e-03 0. 0. 0. 0. 0. 0. 0. 0. 0. 0. 0. 0. 0. 0. 0. 0. 0.
      0. 0. 0. 0. 0. 0. 0. 0. 0. 9.90098994e-03 0. 0. 0. 0. 0. 0. 0.
      9.90098994e-03 0. 0. 0. 0. 0. 0. 0. 0. 0. 0. 0. 0. 0.
      9.90098994e-03 0. 0. 0. 0. 9.90098994e-03 0. 0. 9.90098994e-03 0.
      0. 0. 0. 0. 0. 0. 0. 0. 0. 0. 0. 9.90098994e-03 0. 0. 0. 0. 0. 0.
      0. 0. 0. 0. 9.90098994e-03 0. 0. 0. 0. 0. 0. 0. 0. 0.
      9.90098994e-03 0. 0. 9.90098994e-03 0. 0. 0. 0. 0. 0. 0. 0.
      1.98019799e-02 0. 0. 0. 0. 0. 0. 9.90098994e-03 0. 0. 0. 0. 0. 0.
      0. 0. 0. 0. 9.90098994e-03 0. 0. 0. 0. 0. 0. 0. 0. 0. 0. 0.
      9.90098994e-03 0. 0. 0. 0. 0. 0. 0. 0. 0. 0. 0. 0. 1.98019799e-02
      0. 9.90098994e-03 0. 0. 0. 0. 0. 0. 0. 0. 0. 0. 0. 0. 0. 0. 0.
      9.90098994e-03 0. 0. 9.90098994e-03 0. 0. 0. 0. 0. 0. 0. 0. 0. 0.
      0. 0. 9.90098994e-03 0. 1.98019799e-02 0. 0. 0. 0. 0. 0. 0. 0.
      9.90098994e-03 0. 9.90098994e-03 0. 0. 0. 0. 0. 0. 0. 0. 0. 0.
      9.90098994e-03 0. 0. 0. 0. 0. 0. 0. 0. 0. 0. 0. 0. 1.98019799e-02
      0. 0. 0. 0. 0. 0. 0. 9.90098994e-03 0. 0. 0. 1.98019799e-02 0. 0.
      0. 0. 0. 0. 0. 0. 0. 9.90098994e-03 0. 0. 0. 0. 0. 0.
      9.90098994e-03 0. 0. 0. 0. 0. 0. 0. 0. 0. 0. 0. 0. 0. 0. 0. 0. 0.
      0. 9.90098994e-03 9.90098994e-03 0. 0. 0. 0. 9.90098994e-03 0. 0.
      0. 0. 0. 0. 0. 9.90098994e-03 0. 1.98019799e-02 0. 0. 0. 0. 0. 0.
      0. 0. 0. 0. 0. 0. 0. 0. 0. 0. 0. 0. 9.90098994e-03 9.90098994e-03
      0. 0. 0. 0. 0. 0. 0. 0. 0. 0. 0. 0. 0. 0. 0. 0. 0. 0. 0.
      1.98019799e-02 0. 0. 9.90098994e-03 0. 0. 0. 0. 0. 0. 0. 0. 0. 0.
      0. 0. 0. 9.90098994e-03 0. 0. 0. 0. 0. 0. 0. 0. 0. 0. 0.
      9.90098994e-03 0. 0. 0. 0. 0. 0. 0. 0. 0. 0. 0. 0. 0. 0. 0. 0. 0.
      0. 0. 0. 0. 0. 0. 0. 0. 0. 0. 0. 0. 0. 0. 0. 0. 9.90098994e-03 0.
      0. 0. 0. 0. 0. 0. 0. 0. 0. 0. 0. 0. 0. 0. 0. 0. 0. 0.
      9.90098994e-03 0. 0. 0. 0. 0. 0. 0. 0. 0. 0. 0. 0. 0.
      9.90098994e-03 0. 0. 0. 0. 0. 0. 0. 0. 0. 0. 0. 0. 0. 0. 0. 0.
      9.90098994e-03 0. 0. 0. 0. 9.90098994e-03 0. 0. 9.90098994e-03 0.
      0. 9.90098994e-03 0. 0. 0. 9.90098994e-03 0. 0. 0. 0. 0. 0.
      9.90098994e-03 0. 0. 0. 0. 0. 0. 0. 0. 0. 0. 0. 0. 0. 0.
      9.90098994e-03 9.90098994e-03 0. 0. 0. 0. 9.90098994e-03 0. 0. 0.
      0. 0. 0. 0. 0. 0. 0. 0. 0. 0. 0. 0. 0. 0. 0. 0. 0. 0.
      9.90098994e-03 0. 0. 0. 0. 0. 0. 0. 0. 0. 0. 0. 0. 0.
      9.90098994e-03 0. 0. 0. 0. 9.90098994e-03 0. 0. 0. 0. 0. 0. 0. 0.
      0. 0. 0. 0. 9.90098994e-03 0. 0. 0. 0. 0. 0. 0. 0. 9.90098994e-03
      0. 0. 0. 0. 0. 0. 0. 0. 0. 0. 0. 1.98019799e-02 0. 0. 0. 0. 0. 0.
      0. 9.90098994e-03 0. 0. 0. 0. 0. 0. 0. 0. 0. 0. 0. 0. 0. 0. 0. 0.
      0. 9.90098994e-03 0. 9.90098994e-03 0. 0. 0. 0. 0. 0. 0. 0. 0. 0.
      0. 0. 0. 0. 9.90098994e-03 9.90098994e-03 9.90098994e-03 0. 0. 0.
      0. 0. 0. 0. 0. 0. 0. 0. 0. 0. 0. 0. 0. 0. 0. 0. 0. 0. 0. 0. 0. 0.
      0. 0. 0. 0. 0. 9.90098994e-03 0. 0. 0. 0. 0. 0. 0. 0. 0. 0. 0. 0.
      0. 0. 0. 0. 0. 0. 9.90098994e-03 0. 0. 0. 0. 0. 0. 0. 0. 0. 0.
      9.90098994e-03 0. 0. 0. 0. 0. 0. 0. 9.90098994e-03 0. 0. 0. 0. 0.
      0. 0. 0. 0. 0. 0. 0. 0. 0. 9.90098994e-03 0. 0. 9.90098994e-03 0.
      0. 0. 0. 0. 0. 0. 0. 0. 0. 0. 0. 0. 0. 0. 0. 0. 0. 0. 0. 0.
      9.90098994e-03 0. 0. 0. 0. 0. 0. 0. 0. 0. 0. 0. 0. 0. 0. 0. 0. 0.
      0. 0. 0. 0. 0. 0. 0. 0. 0. 0. 0. 0. 0. 0. 0. 0. 0. 0. 0. 0.
      9.90098994e-03 0. 0. 0. 9.90098994e-03 0. 0. 9.90098994e-03 0. 0.
      0. 0. 0. 0. 0. 0. 0. 0. 0. 0. 9.90098994e-03 0. 0. 0. 0. 0. 0. 0.
      0. 0. 0. 0. 0. 0. 0. 0. 0. 0. 0. 0. 0.</_>
    <_>
      0. 0. 0. 1.40845068e-02 0. 0. 0. 0. 0. 0. 0. 0. 0. 0. 0. 0. 0. 0.
      0. 1.40845068e-02 0. 0. 0. 0. 2.81690136e-02 0. 0. 0. 0. 0. 0.
      1.40845068e-02 0. 0. 0. 0. 0. 0. 0. 1.40845068e-02 0.
      1.40845068e-02 0. 2.81690136e-02 0. 0. 0. 0. 0. 0. 0. 0. 0. 0.
      1.40845068e-02 0. 0. 0. 0. 0. 0. 0. 0. 0. 0. 0. 0. 0. 0. 0. 0. 0.
      0. 1.40845068e-02 0. 0. 0. 0. 0. 0. 0. 0. 0. 0. 0. 0. 0. 0. 0.
      1.40845068e-02 0. 0. 0. 0. 0. 0. 0. 0. 0. 0. 0. 0. 0.
      1.40845068e-02 0. 0. 0. 0. 0. 0. 0. 0. 0. 0. 0. 0. 0. 0. 0. 0. 0.
      1.40845068e-02 0. 0. 0. 0. 0. 0. 0. 0. 0. 0. 0. 0. 0. 0. 0. 0. 0.
      0. 0. 0. 0. 0. 0. 0. 0. 0. 0. 0. 0. 0. 1.40845068e-02 0. 0. 0. 0.
      0. 0. 0. 0. 0. 0. 0. 1.40845068e-02 0. 0. 0. 0. 0. 0. 0. 0. 0. 0.
      0. 0. 0. 0. 0. 0. 0. 0. 0. 0. 0. 0. 0. 1.40845068e-02 0. 0. 0. 0.
      0. 0. 0. 0. 0. 0. 0. 0. 0. 0. 0. 0. 0. 0. 0. 0. 0. 0. 0. 0. 0.
      1.40845068e-02 0. 0. 0. 0. 0. 0. 0. 0. 0. 0. 0. 0. 0. 0. 0. 0. 0.
      1.40845068e-02 0. 0. 0. 0. 0. 0. 0. 0. 1.40845068e-02 0. 0. 0. 0.
      0. 0. 0. 2.81690136e-02 0. 0. 0. 0. 1.40845068e-02 0. 0. 0. 0. 0.
      0. 0. 0. 1.40845068e-02 1.40845068e-02 0. 0. 0. 1.40845068e-02 0.
      0. 0. 0. 0. 0. 0. 0. 0. 0. 0. 1.40845068e-02 0. 0. 1.40845068e-02
      0. 0. 0. 0. 0. 0. 0. 0. 0. 1.40845068e-02 0. 0. 0. 0. 0. 0. 0. 0.
      0. 0. 0. 0. 0. 0. 0. 0. 0. 0. 0. 0. 0. 0. 0. 2.81690136e-02 0. 0.
      0. 0. 0. 0. 0. 0. 0. 0. 0. 0. 0. 0. 0. 0. 0. 0. 0. 0. 0. 0. 0. 0.
      0. 0. 0. 0. 0. 0. 0. 0. 0. 0. 0. 0. 0. 0. 0. 0. 0. 0.
      1.40845068e-02 0. 1.40845068e-02 0. 0. 0. 0. 0. 0. 0. 0. 0. 0. 0.
      0. 0. 0. 0. 0. 0. 0. 0. 0. 0. 0. 0. 0. 0. 0. 0. 0. 0. 0. 0.
      2.81690136e-02 0. 0. 0. 0. 0. 0. 0. 0. 0. 0. 1.40845068e-02 0.
      1.40845068e-02 0. 0. 0. 0. 0. 0. 0. 0. 0. 0. 0. 0. 0. 0. 0. 0. 0.
      0. 0. 0. 0. 0. 0. 1.40845068e-02 0. 0. 0. 0. 0. 0. 1.40845068e-02
      0. 0. 0. 0. 1.40845068e-02 0. 0. 0. 0. 0. 0. 0. 0. 0. 0.
      2.81690136e-02 1.40845068e-02 0. 0. 0. 0. 1.40845068e-02 0. 0. 0.
      0. 0. 0. 0. 0. 0. 0. 0. 0. 0. 0. 0. 0. 0. 0. 0. 0. 0. 0. 0. 0. 0.
      0. 0. 0. 0. 0. 0. 0. 0. 0. 0. 0. 0. 0. 0. 0. 0. 0. 0. 0. 0. 0. 0.
      0. 0. 0. 0. 0. 0. 0. 1.40845068e-02 0. 0. 0. 0. 0. 0. 0. 0. 0. 0.
      0. 0. 0. 0. 0. 0. 0. 0. 0. 0. 0. 0. 0. 0. 0. 0. 0. 0. 0. 0. 0. 0.
      0. 0. 0. 0. 0. 0. 0. 0. 0. 0. 0. 0. 0. 0. 0. 0. 1.40845068e-02 0.
      0. 0. 0. 0. 0. 0. 0. 0. 0. 0. 0. 0. 0. 0. 0. 0. 0. 0. 0. 0. 0. 0.
      0. 0. 0. 1.40845068e-02 0. 0. 0. 0. 0. 0. 0. 0. 0. 0. 0. 0. 0. 0.
      0. 0. 0. 0. 0. 0. 0. 0. 0. 0. 0. 1.40845068e-02 1.40845068e-02 0.
      0. 0. 0. 0. 0. 0. 0. 0. 0. 1.40845068e-02 0. 0. 0. 0. 0. 0. 0. 0.
      0. 0. 0. 0. 0. 0. 0. 0. 0. 0. 0. 0. 0. 0. 0. 0. 0. 0. 0. 0. 0. 0.
      1.40845068e-02 0. 0. 0. 0. 0. 0. 0. 0. 0. 0. 0. 0. 0. 0. 0. 0. 0.
      0. 0. 0. 0. 0. 0. 0. 0. 0. 0. 0. 0. 0. 0. 0. 0. 0. 0. 0. 0. 0. 0.
      0. 0. 0. 0. 0. 0. 0. 0. 0. 1.40845068e-02 0. 0. 0. 0. 0. 0. 0. 0.
      0. 0. 0. 0. 0. 0. 1.40845068e-02 0. 0. 0. 1.40845068e-02 0. 0. 0.
      0. 1.40845068e-02 0. 1.40845068e-02 0. 0. 0. 0. 0. 0. 0. 0. 0. 0.
      0. 0. 0. 0. 0. 0. 0. 0. 0. 0. 0. 0. 0. 0. 0. 0. 0. 0. 0. 0. 0.
      1.40845068e-02 0. 0. 0. 0. 0. 0. 0. 0. 0. 0. 0. 0. 0. 0. 0. 0. 0.
      0. 0. 0. 0. 0. 0. 0. 0. 0. 0. 1.40845068e-02 0. 0. 0. 0. 0. 0. 0.
      0. 0. 0. 0. 2.81690136e-02 0. 0. 0. 0. 0. 0. 0. 0. 0. 0. 0. 0. 0.
      0. 0. 1.40845068e-02 0. 0. 0. 0. 0. 0. 0. 0. 0. 0. 0. 0. 0. 0. 0.
      0. 0. 0. 0. 0. 0. 0. 0. 0. 0. 0. 0. 0. 0. 0. 0. 0. 0. 0. 0. 0. 0.
      0. 0. 0. 0. 0. 0. 0. 0. 0. 0. 0. 1.40845068e-02 0. 0. 0. 0. 0. 0.
      0. 0. 0. 0. 0. 0. 0. 0. 0. 0. 0. 0. 0. 0. 0. 0. 0. 1.40845068e-02
      0. 0. 0. 0. 0. 0. 0. 0. 0. 0. 1.40845068e-02 0. 0. 0. 0. 0. 0. 0.
      0. 0. 0. 0. 0. 0. 1.40845068e-02 0. 0. 0. 0. 0. 1.40845068e-02 0.
      0. 1.40845068e-02 0. 0. 0. 1.40845068e-02 0. 0. 0. 0. 0. 0. 0. 0.
      0. 0. 0. 0. 0. 0. 0. 0. 0. 0. 0. 1.40845068e-02 0. 0. 0. 0. 0. 0.
      0. 0. 0. 0. 0. 0. 0. 0. 0. 0. 0. 0. 0. 0. 0. 0. 0. 0. 0. 0. 0. 0.
      0. 0. 0. 0. 1.40845068e-02 0. 0. 0. 0. 1.40845068e-02 0. 0. 0. 0.
      0. 0. 0.</_>
    <_>
      0. 0. 9.43396240e-03 0. 0. 0. 0. 0. 0. 0. 0. 0. 0. 0. 0. 0. 0. 0.
      0. 0. 0. 0. 0. 0. 0. 0. 9.43396240e-03 0. 0. 0. 0. 9.43396240e-03
      0. 0. 0. 0. 0. 0. 0. 0. 0. 0. 0. 9.43396240e-03 0. 0. 0. 0. 0.
      2.83018872e-02 1.88679248e-02 0. 0. 0. 9.43396240e-03 0. 0. 0. 0.
      0. 0. 0. 0. 0. 0. 0. 0. 0. 0. 0. 0. 0. 0. 9.43396240e-03
      9.43396240e-03 0. 0. 0. 0. 0. 0. 0. 0. 0. 0. 0. 0. 0. 0. 0. 0. 0.
      0. 0. 0. 0. 0. 0. 0. 0. 0. 0. 9.43396240e-03 9.43396240e-03 0. 0.
      0. 0. 0. 0. 0. 0. 0. 0. 0. 0. 0. 0. 0. 0. 0. 0. 0. 0. 0. 0. 0. 0.
      0. 0. 0. 0. 0. 0. 0. 0. 0. 0. 0. 0. 0. 0. 0. 0. 0. 0. 0. 0. 0. 0.
      0. 0. 9.43396240e-03 0. 0. 0. 0. 0. 0. 0. 0. 1.88679248e-02 0. 0.
      0. 0. 0. 0. 0. 0. 0. 0. 0. 0. 0. 0. 0. 0. 9.43396240e-03 0. 0. 0.
      0. 0. 0. 0. 0. 0. 0. 0. 0. 0. 0. 0. 0. 0. 0. 0. 0. 0. 0. 0. 0. 0.
      0. 0. 0. 0. 0. 0. 0. 0. 0. 0. 0. 0. 0. 0. 0. 0. 0. 9.43396240e-03
      0. 0. 0. 0. 0. 0. 0. 0. 0. 0. 0. 0. 0. 0. 0. 0. 0. 0. 0.
      9.43396240e-03 0. 0. 0. 0. 0. 0. 0. 9.43396240e-03 0. 0. 0. 0. 0.
      0. 0. 0. 9.43396240e-03 0. 0. 0. 0. 9.43396240e-03 0. 0. 0. 0. 0.
      0. 0. 9.43396240e-03 0. 0. 0. 0. 0. 9.43396240e-03 0. 0. 0. 0.
      9.43396240e-03 0. 0. 0. 9.43396240e-03 0. 0. 0. 0. 0. 0. 0. 0.
      9.43396240e-03 0. 0. 0. 0. 0. 0. 0. 0. 0. 9.43396240e-03 0. 0.
      9.43396240e-03 0. 0. 0. 0. 0. 0. 0. 0. 0. 0. 0. 0. 0. 0.
      1.88679248e-02 9.43396240e-03 0. 0. 0. 1.88679248e-02 0. 0. 0. 0.
      0. 0. 0. 0. 0. 0. 0. 0. 0. 0. 0. 0. 0. 0. 0. 9.43396240e-03 0. 0.
      0. 0. 0. 9.43396240e-03 0. 0. 0. 0. 0. 9.43396240e-03 0.
      9.43396240e-03 0. 0. 0. 0. 0. 0. 0. 0. 9.43396240e-03 0. 0. 0. 0.
      0. 0. 9.43396240e-03 0. 0. 1.88679248e-02 0. 0. 9.43396240e-03 0.
      0. 9.43396240e-03 0. 0. 0. 0. 0. 0. 0. 0. 9.43396240e-03 0. 0. 0.
      9.43396240e-03 0. 0. 0. 0. 9.43396240e-03 0. 9.43396240e-03 0. 0.
      0. 0. 0. 0. 0. 0. 0. 0. 9.43396240e-03 0. 0. 0. 0. 0. 0. 0. 0. 0.
      0. 0. 0. 0. 0. 0. 0. 0. 0. 0. 0. 0. 0. 0. 0. 0. 9.43396240e-03 0.
      0. 0. 0. 0. 0. 0. 0. 0. 0. 0. 0. 0. 0. 0. 0. 0. 0. 9.43396240e-03
      0. 0. 0. 0. 0. 0. 0. 0. 0. 0. 0. 9.43396240e-03 0. 0. 0. 0.
      9.43396240e-03 9.43396240e-03 0. 0. 0. 0. 0. 0. 0. 0. 0. 0. 0. 0.
      0. 0. 0. 0. 0. 0. 0. 0. 0. 0. 0. 0. 0. 0. 1.88679248e-02 0. 0. 0.
      0. 0. 9.43396240e-03 0. 0. 0. 0. 0. 0. 0. 0. 0. 0. 0. 0. 0.
      9.43396240e-03 0. 0. 0. 0. 9.43396240e-03 0. 0. 0. 0. 0. 0. 0. 0.
      0. 0. 0. 0. 0. 0. 0. 0. 0. 0. 0. 0. 0. 0. 0. 0. 0. 0. 0. 0. 0. 0.
      0. 0. 0. 0. 9.43396240e-03 0. 0. 0. 0. 0. 0. 0. 0. 0. 0. 0. 0. 0.
      0. 0. 9.43396240e-03 0. 0. 0. 0. 0. 0. 0. 0. 0. 0. 9.43396240e-03
      0. 0. 0. 0. 0. 9.43396240e-03 0. 0. 0. 0. 0. 0. 9.43396240e-03 0.
      0. 0. 0. 0. 0. 0. 0. 0. 9.43396240e-03 0. 0. 0. 0. 0. 0. 0. 0. 0.
      0. 0. 0. 0. 0. 0. 0. 0. 0. 9.43396240e-03 0. 0. 0. 0. 0. 0. 0. 0.
      0. 0. 0. 0. 0. 0. 0. 0. 0. 0. 0. 9.43396240e-03 0. 0.
      1.88679248e-02 0. 0. 0. 0. 0. 0. 0. 0. 0. 0. 0. 0. 0.
      9.43396240e-03 0. 0. 0. 0. 9.43396240e-03 0. 0. 0. 0. 0. 0. 0.
      9.43396240e-03 0. 9.43396240e-03 0. 0. 1.88679248e-02 0. 0.
      9.43396240e-03 0. 0. 0. 0. 0. 0. 0. 0. 0. 0. 0. 0. 0. 0. 0.
      9.43396240e-03 0. 0. 0. 0. 0. 0. 0. 0. 0. 0. 0. 0. 0. 0. 0.
      9.43396240e-03 9.43396240e-03 0. 0. 0. 0. 0. 0. 0. 0. 0. 0. 0. 0.
      0. 0. 0. 0. 0. 9.43396240e-03 0. 0. 0. 0. 0. 0. 0. 0. 0. 0. 0. 0.
      0. 0. 0. 0. 0. 0. 0. 0. 9.43396240e-03 0. 0. 0. 0. 0. 0. 0. 0. 0.
