<?xml version="1.0"?>
<opencv_storage>
<my_svm type_id="opencv-ml-svm">
  <svm_type>C_SVC</svm_type>
  <kernel><type>RBF</type>
    <gamma>8.</gamma></kernel>
  <C>10.</C>
  <term_criteria><epsilon>1.1920928955078125e-07</epsilon>
    <iterations>2147483647</iterations></term_criteria>
  <var_all>1000</var_all>
  <var_count>1000</var_count>
  <class_count>2</class_count>
  <class_labels type_id="opencv-matrix">
    <rows>1</rows>
    <cols>2</cols>
    <dt>i</dt>
    <data>
      0 1</data></class_labels>
  <sv_total>162</sv_total>
  <support_vectors>
    <_>
      0. 0. 0. 0. 0. 0. 0. 0. 0. 0. 0. 0. 0. 4.16666679e-02
      2.08333340e-02 0. 0. 0. 0. 0. 0. 0. 0. 0. 0. 0. 0. 0. 0. 0. 0. 0.
      0. 0. 0. 0. 0. 0. 0. 0. 0. 0. 2.08333340e-02 0. 2.08333340e-02 0.
      0. 0. 0. 0. 0. 0. 0. 0. 0. 0. 0. 0. 0. 0. 0. 0. 0. 0. 0. 0. 0. 0.
      0. 0. 0. 0. 0. 0. 0. 0. 0. 0. 0. 0. 0. 0. 0. 0. 0. 0. 0. 0. 0. 0.
      0. 0. 0. 0. 0. 0. 0. 0. 0. 0. 0. 0. 0. 0. 0. 0. 0. 0. 0. 0. 0. 0.
      0. 0. 0. 0. 0. 0. 0. 0. 0. 0. 0. 0. 0. 0. 0. 0. 0. 0. 0. 0. 0. 0.
      0. 0. 2.08333340e-02 0. 0. 0. 0. 0. 0. 0. 0. 0. 0. 0. 0. 0. 0. 0.
      0. 0. 0. 0. 0. 0. 0. 0. 0. 0. 0. 0. 0. 0. 0. 0. 0. 0. 0. 0. 0. 0.
      0. 0. 0. 0. 0. 0. 0. 2.08333340e-02 0. 0. 0. 0. 0. 0. 0. 0. 0. 0.
      0. 0. 0. 0. 0. 0. 0. 0. 0. 0. 0. 0. 0. 0. 0. 0. 0. 0. 0.
      2.08333340e-02 0. 0. 0. 0. 0. 0. 0. 0. 0. 0. 0. 0. 2.08333340e-02
      0. 0. 0. 0. 0. 0. 0. 0. 0. 0. 0. 0. 0. 0. 0. 0. 0. 0. 0. 0. 0. 0.
      2.08333340e-02 0. 0. 0. 0. 0. 0. 0. 0. 0. 0. 0. 0. 0. 0. 0. 0. 0.
      0. 0. 0. 0. 0. 0. 0. 0. 0. 0. 0. 0. 0. 0. 0. 0. 0. 0. 0. 0. 0. 0.
      0. 0. 0. 0. 0. 0. 0. 0. 0. 0. 0. 0. 0. 0. 0. 0. 0. 0. 0. 0. 0. 0.
      0. 0. 0. 0. 0. 0. 0. 0. 0. 2.08333340e-02 0. 0. 0. 0. 0. 0. 0. 0.
      0. 0. 0. 2.08333340e-02 0. 0. 0. 0. 0. 0. 0. 0. 0. 0. 0. 0. 0. 0.
      0. 0. 0. 0. 0. 0. 0. 2.08333340e-02 0. 0. 0. 0. 0. 0. 0. 0. 0. 0.
      0. 0. 0. 0. 0. 0. 0. 0. 0. 0. 0. 0. 0. 0. 0. 0. 0. 0. 0. 0. 0. 0.
      0. 0. 0. 0. 0. 0. 0. 0. 2.08333340e-02 0. 0. 0. 0. 0. 0. 0. 0. 0.
      0. 0. 0. 0. 0. 0. 0. 2.08333340e-02 0. 0. 0. 2.08333340e-02 0. 0.
      0. 0. 0. 0. 0. 0. 0. 2.08333340e-02 0. 0. 0. 0. 0. 0. 0.
      2.08333340e-02 0. 0. 0. 2.08333340e-02 0. 0. 0. 0. 0. 0. 0. 0. 0.
      0. 0. 0. 0. 0. 0. 0. 0. 0. 0. 0. 0. 0. 0. 0. 0. 0. 0. 0. 0. 0. 0.
      0. 0. 0. 0. 2.08333340e-02 0. 0. 0. 0. 0. 0. 0. 0. 0. 0. 0. 0. 0.
      0. 0. 0. 0. 0. 0. 0. 0. 0. 0. 2.08333340e-02 0. 0. 0. 0. 0.
      2.08333340e-02 0. 2.08333340e-02 0. 0. 0. 0. 0. 0. 0. 0. 0. 0. 0.
      0. 0. 0. 0. 2.08333340e-02 0. 0. 0. 0. 0. 0. 0. 0. 0. 0. 0. 0. 0.
      0. 0. 0. 0. 0. 0. 0. 0. 0. 0. 0. 0. 0. 0. 0. 2.08333340e-02 0. 0.
      0. 0. 0. 0. 0. 0. 0. 0. 0. 2.08333340e-02 0. 2.08333340e-02 0. 0.
      0. 0. 0. 0. 0. 0. 0. 0. 0. 0. 0. 0. 0. 0. 0. 0. 0. 0. 0.
      2.08333340e-02 0. 2.08333340e-02 0. 0. 0. 0. 0. 0. 0. 0. 0. 0. 0.
      0. 0. 0. 0. 0. 0. 0. 0. 0. 2.08333340e-02 0. 0. 0. 0. 0. 0. 0. 0.
      0. 0. 0. 0. 0. 0. 0. 0. 0. 0. 0. 0. 0. 0. 0. 0. 0. 0.
      2.08333340e-02 0. 0. 0. 0. 0. 0. 2.08333340e-02 0. 2.08333340e-02
      0. 0. 0. 0. 0. 0. 0. 0. 0. 0. 0. 0. 0. 0. 0. 2.08333340e-02 0. 0.
      0. 0. 0. 0. 0. 0. 0. 0. 0. 0. 0. 0. 0. 0. 2.08333340e-02 0. 0. 0.
      0. 0. 0. 0. 0. 0. 0. 0. 2.08333340e-02 0. 0. 2.08333340e-02 0. 0.
      0. 0. 0. 0. 2.08333340e-02 0. 0. 0. 0. 0. 0. 0. 0. 0. 0. 0. 0. 0.
      0. 0. 0. 0. 0. 0. 0. 0. 0. 0. 0. 0. 0. 0. 0. 0. 0. 0. 0. 0. 0. 0.
      0. 0. 0. 0. 2.08333340e-02 0. 0. 0. 0. 0. 0. 0. 0. 0. 0. 0. 0. 0.
      0. 2.08333340e-02 0. 0. 0. 0. 0. 0. 0. 0. 0. 0. 0. 0. 0. 0. 0. 0.
      0. 0. 0. 0. 0. 0. 0. 0. 0. 0. 0. 0. 0. 0. 0. 0. 0. 0. 0. 0. 0. 0.
      0. 0. 0. 0. 0. 0. 0. 0. 0. 0. 0. 0. 0. 0. 0. 0. 0. 0. 0. 0. 0. 0.
      0. 0. 0. 0. 0. 0. 2.08333340e-02 0. 0. 0. 0. 0. 0. 0. 0. 0. 0. 0.
      0. 0. 0. 0. 0. 0. 0. 0. 0. 0. 0. 0. 0. 0. 0. 0. 0. 0. 0. 0. 0. 0.
      0. 0. 0. 0. 0. 0. 0. 0. 0. 0. 0. 0. 0. 0. 0. 0. 0. 0. 0. 0. 0. 0.
      0. 0. 0. 0. 0. 0. 0. 0. 0. 0. 0. 0. 0. 0. 4.16666679e-02 0. 0. 0.
      0. 0. 0. 0. 2.08333340e-02 0. 0. 0. 0. 0. 0. 0. 0. 0. 0. 0. 0. 0.
      0. 0. 2.08333340e-02 0. 0. 0. 0. 0. 0. 0. 0. 0. 0. 0. 0. 0. 0. 0.
      0. 0. 0. 0. 0. 0. 0. 0. 0. 0. 0. 0. 0. 0. 0. 0. 0. 0. 0. 0. 0. 0.
      0. 0. 0. 0. 0. 0. 0. 0. 0. 0. 0. 0. 0. 0. 0. 4.16666679e-02 0. 0.
      0. 2.08333340e-02 0. 0. 0. 0. 0. 0. 0. 0. 0. 0. 0. 0. 0. 0. 0. 0.
      0. 0. 0. 0. 0. 0. 0. 0. 0. 0. 0.</_>
    <_>
      1.17647061e-02 0. 0. 0. 0. 0. 0. 0. 0. 0. 0. 0. 0. 0. 0.
      1.17647061e-02 0. 0. 0. 0. 0. 0. 0. 0. 1.17647061e-02 0. 0. 0. 0.
      0. 0. 0. 0. 0. 1.17647061e-02 0. 0. 0. 0. 0. 0. 0. 0.
      1.17647061e-02 0. 0. 0. 1.17647061e-02 0. 0. 0. 0. 0. 0. 0. 0. 0.
      1.17647061e-02 0. 0. 0. 0. 0. 0. 0. 0. 0. 0. 0. 0. 0. 0. 0. 0.
      1.17647061e-02 1.17647061e-02 0. 0. 0. 0. 0. 0. 0. 0. 0. 0. 0. 0.
      0. 0. 0. 0. 0. 0. 0. 1.17647061e-02 0. 0. 0. 0. 0. 0. 0. 0. 0. 0.
      0. 0. 0. 0. 0. 1.17647061e-02 0. 0. 0. 0. 0. 0. 0. 0. 0. 0. 0. 0.
      0. 0. 0. 0. 0. 0. 0. 0. 0. 0. 0. 0. 0. 0. 0. 0. 0. 0. 0. 0. 0. 0.
      0. 0. 0. 0. 0. 0. 0. 1.17647061e-02 0. 0. 0. 0. 0. 0. 0. 0.
      1.17647061e-02 0. 0. 0. 0. 0. 0. 0. 0. 0. 0. 0. 0. 0. 0. 0. 0. 0.
      0. 0. 1.17647061e-02 0. 0. 0. 0. 0. 0. 0. 0. 0. 0. 0. 0. 0. 0. 0.
      0. 0. 0. 0. 0. 0. 0. 0. 0. 0. 0. 0. 0. 0. 0. 0. 0. 0.
      1.17647061e-02 0. 0. 0. 0. 0. 0. 0. 0. 0. 0. 0. 0. 0. 0. 0.
      1.17647061e-02 0. 0. 0. 0. 0. 0. 0. 0. 0. 1.17647061e-02
      1.17647061e-02 0. 0. 0. 1.17647061e-02 2.35294122e-02 0.
      1.17647061e-02 0. 0. 0. 0. 0. 0. 0. 0. 0. 0. 0. 0. 0. 0. 0. 0. 0.
      0. 0. 0. 0. 0. 0. 0. 0. 0. 0. 0. 0. 0. 0. 0. 0. 0. 0. 0. 0. 0. 0.
      1.17647061e-02 0. 0. 0. 0. 0. 0. 0. 0. 0. 0. 0. 0. 0. 0. 0. 0. 0.
      0. 0. 0. 0. 0. 1.17647061e-02 0. 0. 0. 0. 0. 0. 0. 0. 0. 0. 0. 0.
      0. 0. 0. 0. 0. 0. 0. 0. 0. 0. 0. 0. 0. 0. 0. 0. 0. 0. 0. 0. 0. 0.
      0. 0. 0. 0. 0. 0. 0. 1.17647061e-02 0. 0. 0. 0. 0. 0. 0. 0. 0. 0.
      0. 1.17647061e-02 0. 0. 0. 0. 0. 0. 0. 0. 1.17647061e-02 0. 0. 0.
      0. 0. 0. 0. 1.17647061e-02 0. 0. 0. 1.17647061e-02 0. 0. 0. 0. 0.
      0. 0. 0. 0. 0. 0. 0. 0. 0. 0. 1.17647061e-02 1.17647061e-02 0.
      1.17647061e-02 0. 0. 0. 0. 0. 0. 0. 0. 0. 0. 0. 0. 0. 0. 0. 0. 0.
      0. 0. 0. 0. 0. 0. 0. 0. 0. 0. 0. 0. 0. 0. 0. 0. 0. 0. 0. 0. 0. 0.
      0. 0. 0. 0. 0. 0. 0. 0. 0. 0. 0. 0. 0. 0. 0. 0. 0. 0. 0.
      2.35294122e-02 0. 0. 0. 0. 0. 0. 0. 0. 0. 0. 0. 1.17647061e-02 0.
      0. 0. 0. 1.17647061e-02 0. 0. 0. 0. 0. 0. 0. 0. 0. 0. 0. 0. 0. 0.
      0. 0. 0. 0. 0. 0. 0. 1.17647061e-02 1.17647061e-02 0. 0.
      1.17647061e-02 0. 0. 0. 0. 1.17647061e-02 0. 0. 0. 0. 0. 0. 0. 0.
      0. 0. 0. 0. 0. 0. 0. 0. 0. 0. 0. 0. 0. 0. 0. 1.17647061e-02 0. 0.
      0. 0. 0. 0. 1.17647061e-02 0. 0. 1.17647061e-02 0. 0. 0. 0.
      1.17647061e-02 0. 0. 0. 0. 0. 0. 0. 1.17647061e-02 1.17647061e-02
      0. 1.17647061e-02 0. 0. 0. 0. 0. 0. 0. 0. 0. 0. 0. 0. 0. 0. 0. 0.
      0. 0. 1.17647061e-02 0. 0. 0. 0. 0. 0. 0. 0. 0. 0. 0. 0. 0. 0. 0.
      0. 0. 0. 0. 0. 0. 0. 0. 0. 0. 0. 0. 0. 0. 0. 0. 0. 0. 0. 0. 0. 0.
      0. 0. 0. 0. 0. 0. 0. 0. 0. 0. 0. 1.17647061e-02 0. 0. 0. 0. 0. 0.
      0. 0. 0. 0. 0. 0. 0. 0. 0. 0. 0. 0. 0. 0. 0. 0. 0. 0. 0. 0.
      1.17647061e-02 0. 0. 0. 0. 0. 1.17647061e-02 0. 1.17647061e-02 0.
      0. 0. 0. 0. 0. 0. 0. 0. 4.70588244e-02 0. 0. 0. 0. 0. 0. 0. 0. 0.
      0. 0. 0. 1.17647061e-02 0. 3.52941193e-02 0. 0. 0. 0. 0. 0. 0. 0.
      0. 0. 0. 0. 0. 0. 0. 0. 0. 0. 0. 0. 0. 0. 0. 0. 0. 0. 0. 0. 0. 0.
      1.17647061e-02 0. 0. 0. 0. 0. 0. 0. 0. 0. 0. 0. 0. 0. 0. 0. 0. 0.
      0. 0. 0. 0. 0. 0. 0. 0. 0. 0. 0. 0. 0. 0. 0. 0. 0. 0. 0. 0.
      1.17647061e-02 0. 0. 0. 0. 0. 0. 0. 1.17647061e-02 0. 0. 0. 0. 0.
      2.35294122e-02 0. 1.17647061e-02 0. 0. 0. 0. 0. 0. 0. 0. 0. 0. 0.
      0. 0. 0. 1.17647061e-02 1.17647061e-02 0. 0. 0. 0. 0. 0. 0. 0. 0.
      0. 0. 0. 0. 0. 0. 0. 0. 0. 0. 1.17647061e-02 0. 0. 0. 0. 0. 0. 0.
      1.17647061e-02 0. 0. 0. 0. 0. 0. 0. 0. 0. 0. 0. 0. 1.17647061e-02
      0. 0. 0. 0. 0. 0. 0. 0. 0. 0. 0. 0. 0. 0. 0. 0. 0. 0. 0. 0. 0. 0.
      0. 0. 0. 0. 0. 0. 0. 1.17647061e-02 0. 0. 0. 0. 0. 0. 0. 0. 0. 0.
      0. 0. 0. 0. 0. 0. 1.17647061e-02 0. 0. 1.17647061e-02 0. 0. 0. 0.
      0. 0. 0. 0. 0. 0. 0. 0. 0. 0. 0. 0. 1.17647061e-02 0.
      1.17647061e-02 0. 0. 0. 0. 0. 0. 0. 0. 0. 0. 0. 0. 0. 0. 0. 0. 0.
      0. 0. 0. 0. 0. 0. 0. 1.17647061e-02 0. 0. 0. 0. 0. 0. 0. 0. 0. 0.
      0. 0. 0. 0. 0. 0. 0. 0. 0. 0. 0. 0. 0. 0. 0. 0. 0. 0. 0. 0. 0. 0.
      0. 0. 0. 0. 0. 0. 2.35294122e-02 1.17647061e-02 2.35294122e-02 0.
      0. 0. 0. 0. 0. 0. 0. 0. 0. 0. 0. 0. 0. 0. 0. 0. 2.35294122e-02 0.
      0. 0. 0. 0. 0. 0. 0. 0. 0. 0. 1.17647061e-02</_>
    <_>
      1.14942528e-02 0. 0. 0. 0. 0. 0. 0. 0. 0. 1.14942528e-02 0. 0. 0.
      0. 0. 0. 0. 0. 0. 0. 0. 1.14942528e-02 0. 1.14942528e-02 0. 0. 0.
      0. 0. 0. 0. 0. 0. 0. 0. 0. 0. 0. 0. 0. 0. 0. 0. 0. 0. 0. 0. 0. 0.
      0. 0. 0. 0. 0. 0. 0. 2.29885057e-02 0. 0. 0. 0. 1.14942528e-02 0.
      0. 0. 1.14942528e-02 0. 0. 0. 0. 0. 0. 0. 1.14942528e-02
      1.14942528e-02 0. 0. 0. 0. 0. 0. 0. 0. 0. 0. 0. 0. 0. 0. 0. 0. 0.
      0. 0. 1.14942528e-02 0. 0. 0. 0. 0. 0. 0. 0. 0. 0. 0. 0. 0. 0. 0.
      0. 1.14942528e-02 0. 0. 0. 0. 0. 0. 0. 0. 0. 0. 0. 0. 0. 0. 0. 0.
      0. 0. 0. 0. 0. 0. 0. 0. 0. 0. 0. 0. 0. 0. 0. 0. 0. 0. 0. 0. 0. 0.
      0. 0. 0. 0. 1.14942528e-02 0. 0. 0. 0. 0. 0. 0. 0. 0. 0. 0. 0. 0.
      0. 0. 0. 0. 0. 0. 0. 0. 0. 0. 0. 0. 0. 0. 0. 0. 0. 0. 0. 0. 0. 0.
      0. 0. 0. 0. 0. 0. 0. 0. 0. 0. 0. 0. 0. 0. 0. 0. 0. 0. 0. 0. 0. 0.
      0. 0. 0. 1.14942528e-02 0. 0. 0. 0. 0. 0. 0. 0. 0. 0. 0. 0. 0. 0.
      1.14942528e-02 1.14942528e-02 0. 0. 0. 0. 0. 0. 0. 0. 0.
      2.29885057e-02 0. 2.29885057e-02 0. 0. 1.14942528e-02
      1.14942528e-02 0. 0. 0. 0. 0. 0. 0. 0. 0. 0. 0. 0. 0.
      1.14942528e-02 0. 0. 0. 0. 0. 0. 0. 0. 0. 0. 0. 0. 0. 0. 0. 0. 0.
      0. 0. 0. 0. 0. 0. 0. 0. 0. 0. 1.14942528e-02 0. 0. 0. 0. 0. 0. 0.
      0. 0. 0. 0. 0. 0. 0. 0. 0. 0. 0. 0. 0. 0. 0. 0. 0. 0. 0. 0. 0. 0.
      0. 0. 0. 0. 0. 0. 0. 0. 0. 0. 0. 0. 0. 0. 0. 0. 0. 0. 0. 0. 0. 0.
      0. 0. 0. 0. 0. 0. 0. 0. 0. 0. 0. 0. 0. 0. 0. 0. 0. 0. 0. 0. 0. 0.
      0. 0. 0. 0. 0. 0. 0. 1.14942528e-02 0. 0. 0. 0. 1.14942528e-02 0.
      0. 0. 0. 0. 0. 0. 1.14942528e-02 0. 0. 0. 1.14942528e-02 0. 0. 0.
      0. 0. 0. 0. 0. 0. 0. 0. 0. 0. 0. 0. 0. 0. 0. 0. 0. 0. 0. 0.
      1.14942528e-02 0. 0. 0. 0. 0. 0. 0. 0. 0. 0. 0. 0. 0. 0. 0. 0. 0.
      0. 0. 0. 0. 0. 0. 0. 0. 0. 0. 0. 0. 0. 0. 0. 0. 0. 0. 0. 0.
      1.14942528e-02 0. 0. 0. 0. 0. 0. 0. 0. 0. 0. 0. 0. 0. 0. 0.
      2.29885057e-02 0. 0. 0. 0. 0. 0. 0. 0. 0. 0. 0. 1.14942528e-02 0.
      0. 0. 0. 0. 0. 0. 0. 0. 0. 0. 0. 0. 0. 0. 0. 0. 0. 0.
      2.29885057e-02 0. 0. 0. 0. 0. 0. 1.14942528e-02 1.14942528e-02 0.
      0. 1.14942528e-02 0. 0. 0. 0. 1.14942528e-02 0. 0. 0. 0. 0. 0. 0.
      0. 0. 0. 0. 0. 0. 0. 0. 0. 0. 0. 0. 0. 0. 0. 0. 1.14942528e-02 0.
      0. 0. 0. 0. 1.14942528e-02 1.14942528e-02 0. 0. 1.14942528e-02 0.
      0. 0. 0. 0. 0. 0. 0. 0. 0. 0. 0. 1.14942528e-02 1.14942528e-02 0.
      1.14942528e-02 0. 0. 0. 0. 0. 0. 0. 1.14942528e-02 0. 0. 0. 0. 0.
      0. 0. 0. 1.14942528e-02 0. 1.14942528e-02 0. 0. 0. 0. 0. 0. 0. 0.
      0. 0. 0. 0. 0. 0. 0. 1.14942528e-02 0. 0. 0. 0. 0. 0. 0. 0. 0. 0.
      0. 0. 0. 0. 0. 0. 0. 0. 0. 0. 0. 0. 0. 0. 0. 0. 0. 0. 0. 0. 0. 0.
      1.14942528e-02 0. 0. 0. 0. 0. 0. 0. 0. 0. 0. 0. 0. 0. 0. 0. 0. 0.
      0. 0. 0. 0. 0. 0. 0. 0. 0. 1.14942528e-02 0. 0. 0. 0. 0.
      1.14942528e-02 0. 1.14942528e-02 0. 0. 0. 0. 0. 0. 0. 0. 0.
      4.59770113e-02 0. 0. 0. 0. 0. 0. 0. 0. 0. 0. 0. 0. 1.14942528e-02
      0. 2.29885057e-02 0. 0. 0. 0. 0. 0. 0. 0. 0. 0. 0. 0. 0. 0. 0. 0.
      0. 0. 0. 0. 0. 0. 0. 1.14942528e-02 0. 0. 0. 0. 0. 0.
      2.29885057e-02 0. 0. 0. 0. 0. 0. 0. 0. 0. 0. 0. 0. 0. 0. 0. 0. 0.
      0. 0. 0. 0. 0. 0. 0. 0. 0. 1.14942528e-02 0. 0. 0. 0. 0. 0. 0. 0.
      0. 0. 0. 0. 0. 0. 0. 0. 0. 0. 1.14942528e-02 0. 0. 0. 0. 0.
      1.14942528e-02 0. 1.14942528e-02 0. 0. 0. 0. 0. 0. 0. 0. 0. 0. 0.
      0. 0. 0. 1.14942528e-02 1.14942528e-02 0. 1.14942528e-02 0. 0. 0.
      1.14942528e-02 0. 0. 0. 0. 0. 0. 0. 0. 0. 0. 0. 0. 0. 0. 0. 0. 0.
      1.14942528e-02 0. 0. 0. 1.14942528e-02 0. 0. 0. 0. 0. 0. 0. 0. 0.
      0. 0. 0. 0. 0. 0. 0. 0. 0. 0. 0. 0. 0. 0. 0. 0. 0. 1.14942528e-02
      0. 0. 0. 0. 0. 0. 0. 0. 0. 0. 0. 0. 0. 0. 0. 1.14942528e-02 0. 0.
      0. 0. 0. 0. 0. 0. 0. 0. 0. 0. 0. 0. 0. 0. 1.14942528e-02 0. 0.
      1.14942528e-02 0. 0. 0. 0. 0. 0. 0. 0. 0. 0. 0. 0. 0. 0. 0. 0.
      1.14942528e-02 0. 0. 0. 0. 0. 0. 0. 0. 0. 0. 0. 0. 0. 0. 0. 0. 0.
      0. 0. 0. 0. 0. 0. 0. 0. 0. 1.14942528e-02 0. 0. 0. 0. 0. 0. 0. 0.
      0. 0. 0. 0. 0. 0. 0. 0. 0. 0. 0. 0. 0. 0. 0. 0. 0. 0. 0. 0. 0. 0.
      0. 0. 0. 0. 0. 0. 0. 0. 2.29885057e-02 0. 3.44827585e-02 0. 0. 0.
      0. 0. 0. 0. 0. 0. 0. 0. 0. 0. 0. 0. 0. 0. 2.29885057e-02 0. 0. 0.
      0. 0. 0. 0. 0. 0. 0. 0. 0.</_>
    <_>
      0. 0. 0. 0. 0. 0. 0. 0. 0. 0. 0. 0. 0. 0. 0. 0. 0. 0. 0. 0. 0. 0.
      0. 0. 2.24719103e-02 1.12359552e-02 0. 0. 0. 0. 0. 0. 0. 0. 0. 0.
      0. 0. 0. 0. 0. 0. 0. 0. 0. 0. 0. 0. 0. 0. 0. 0. 0. 0. 0. 0. 0. 0.
      0. 0. 0. 0. 0. 0. 0. 0. 0. 0. 0. 0. 0. 0. 0. 0. 1.12359552e-02
      1.12359552e-02 0. 0. 0. 0. 0. 0. 0. 0. 0. 0. 0. 0. 0. 0. 0. 0. 0.
      0. 0. 1.12359552e-02 0. 0. 0. 0. 0. 0. 0. 0. 0. 0. 0. 0. 0. 0. 0.
      1.12359552e-02 0. 0. 0. 0. 0. 0. 0. 0. 0. 0. 0. 0. 0. 0. 0. 0. 0.
      0. 0. 0. 0. 0. 0. 0. 0. 0. 0. 0. 0. 0. 0. 0. 1.12359552e-02 0. 0.
      0. 0. 0. 0. 0. 0. 1.12359552e-02 0. 0. 0. 0. 0. 0. 0. 0.
      1.12359552e-02 0. 0. 0. 0. 0. 0. 0. 0. 0. 0. 0. 0. 0. 0. 0. 0. 0.
      0. 0. 0. 0. 0. 0. 0. 0. 0. 0. 0. 0. 0. 0. 0. 0. 0. 0. 0. 0. 0. 0.
      0. 0. 0. 0. 0. 0. 0. 0. 0. 0. 0. 0. 0. 0. 1.12359552e-02 0. 0.
      1.12359552e-02 0. 2.24719103e-02 0. 0. 0. 0. 0. 0. 0.
      1.12359552e-02 0. 0. 1.12359552e-02 0. 0. 0. 0. 0. 0. 0. 0. 0.
      1.12359552e-02 0. 2.24719103e-02 0. 0. 1.12359552e-02
      1.12359552e-02 0. 0. 0. 0. 0. 0. 0. 0. 0. 0. 0. 0. 0.
      2.24719103e-02 0. 0. 0. 0. 0. 0. 0. 0. 0. 0. 0. 0. 0. 0. 0. 0. 0.
      0. 0. 0. 0. 0. 0. 0. 0. 0. 0. 0. 0. 0. 0. 0. 0. 0. 0. 0. 0. 0. 0.
      0. 0. 0. 0. 0. 0. 0. 1.12359552e-02 0. 0. 0. 0. 0. 0. 0. 0. 0. 0.
      0. 0. 0. 0. 0. 0. 0. 0. 0. 0. 0. 0. 0. 0. 0. 0. 0. 0. 0. 0. 0. 0.
      0. 0. 0. 0. 0. 0. 0. 0. 0. 0. 0. 0. 0. 0. 0. 0. 0. 0. 0. 0. 0. 0.
      0. 0. 0. 1.12359552e-02 0. 0. 0. 0. 0. 0. 0. 0. 2.24719103e-02 0.
      0. 0. 0. 0. 0. 0. 1.12359552e-02 0. 0. 0. 1.12359552e-02 0. 0. 0.
      0. 0. 0. 0. 0. 0. 0. 0. 0. 0. 0. 0. 0. 0. 0. 0. 0. 0. 0.
      1.12359552e-02 0. 0. 0. 0. 0. 0. 0. 0. 0. 0. 0. 0. 0. 0. 0. 0. 0.
      0. 0. 0. 0. 0. 0. 0. 0. 0. 0. 0. 0. 0. 0. 0. 0. 0. 0. 0. 0. 0. 0.
      0. 0. 0. 0. 1.12359552e-02 0. 0. 0. 0. 0. 0. 0. 0. 0. 0.
      2.24719103e-02 0. 0. 1.12359552e-02 0. 0. 0. 0. 0. 0. 0. 0. 0. 0.
      0. 0. 0. 0. 0. 0. 0. 0. 0. 0. 0. 0. 0. 0. 0. 0. 0. 0. 0. 0. 0. 0.
      0. 0. 0. 0. 0. 0. 0. 1.12359552e-02 0. 0. 0. 0. 2.24719103e-02 0.
      0. 0. 0. 0. 0. 0. 0. 0. 0. 0. 0. 0. 0. 0. 0. 0. 0. 0. 0. 0. 0. 0.
      1.12359552e-02 0. 0. 0. 0. 0. 1.12359552e-02 1.12359552e-02 0. 0.
      0. 0. 0. 0. 0. 0. 0. 0. 0. 0. 0. 0. 0. 1.12359552e-02
      1.12359552e-02 1.12359552e-02 1.12359552e-02 0. 0. 0. 0. 0. 0. 0.
      1.12359552e-02 0. 1.12359552e-02 0. 0. 0. 0. 0. 0. 2.24719103e-02
      0. 1.12359552e-02 1.12359552e-02 0. 0. 0. 0. 0. 0. 0. 0. 0. 0.
      1.12359552e-02 0. 0. 0. 0. 0. 0. 0. 0. 0. 0. 0. 0. 0. 0. 0. 0. 0.
      0. 0. 0. 0. 0. 0. 0. 0. 0. 0. 0. 0. 0. 0. 0. 0. 0. 0. 0.
      2.24719103e-02 0. 0. 0. 0. 0. 0. 0. 0. 0. 0. 1.12359552e-02 0. 0.
      0. 0. 0. 0. 0. 0. 0. 0. 0. 0. 0. 0. 0. 1.12359552e-02 0. 0. 0. 0.
      0. 1.12359552e-02 0. 0. 0. 0. 0. 0. 0. 0. 0. 0. 0. 2.24719103e-02
      0. 0. 0. 0. 0. 0. 0. 0. 0. 0. 0. 0. 1.12359552e-02 0.
      1.12359552e-02 0. 0. 0. 0. 0. 0. 0. 0. 0. 0. 0. 0. 0. 0. 0. 0. 0.
      0. 0. 0. 0. 0. 0. 0. 0. 0. 0. 0. 0. 0. 2.24719103e-02
      1.12359552e-02 0. 0. 0. 0. 0. 0. 0. 1.12359552e-02 0. 0. 0. 0. 0.
      1.12359552e-02 0. 0. 0. 0. 0. 0. 0. 0. 0. 0. 0. 0. 0. 0. 0. 0. 0.
      0. 0. 0. 0. 0. 0. 0. 0. 0. 0. 0. 0. 0. 1.12359552e-02 0. 0.
      1.12359552e-02 0. 1.12359552e-02 2.24719103e-02 0. 1.12359552e-02
      0. 0. 0. 0. 0. 0. 0. 0. 0. 0. 0. 0. 0. 0. 1.12359552e-02
      1.12359552e-02 0. 2.24719103e-02 0. 0. 0. 0. 0. 0. 0. 0. 0. 0. 0.
      0. 0. 1.12359552e-02 0. 0. 0. 0. 0. 0. 0. 0. 0. 0. 0.
      1.12359552e-02 0. 0. 0. 0. 0. 0. 0. 0. 0. 0. 0. 0. 0. 0.
      1.12359552e-02 0. 0. 0. 0. 0. 0. 0. 0. 0. 0. 0. 0. 0. 0. 0. 0. 0.
      0. 0. 0. 0. 0. 0. 0. 0. 0. 0. 0. 0. 0. 0. 0. 0. 0. 0. 0. 0. 0. 0.
      0. 0. 0. 0. 0. 2.24719103e-02 0. 0. 0. 0. 0. 0. 0. 0. 0. 0. 0. 0.
      0. 0. 0. 0. 0. 0. 0. 0. 0. 1.12359552e-02 0. 0. 0. 0. 0. 0. 0. 0.
      1.12359552e-02 0. 0. 0. 0. 0. 0. 0. 0. 0. 0. 0. 0. 0. 0. 0.
      1.12359552e-02 0. 0. 0. 0. 0. 0. 0. 0. 0. 0. 0. 0. 0. 0. 0. 0. 0.
      0. 0. 0. 0. 0. 0. 0. 3.37078646e-02 0. 0. 0. 0. 0. 0. 0. 0. 0. 0.
      0. 0. 0. 1.12359552e-02 0. 0. 0. 0. 0. 0. 0. 0. 0. 0. 0. 0. 0. 0.
      0. 0. 0. 0. 0. 2.24719103e-02 0. 0. 0. 0. 0. 0. 0. 0. 0. 0. 0. 0.</_>
    <_>
      0. 0. 0. 0. 0. 0. 0. 0. 1.47058824e-02 0. 0. 0. 0. 0. 0.
      1.47058824e-02 0. 0. 0. 0. 0. 0. 0. 0. 0. 0. 0. 0. 0. 0. 0. 0. 0.
      0. 0. 0. 0. 0. 0. 0. 0. 0. 0. 1.47058824e-02 0. 0. 0. 0. 0. 0. 0.
      0. 0. 0. 0. 0. 0. 0. 0. 0. 0. 0. 0. 0. 0. 0. 0. 0. 0. 0. 0. 0.
      1.47058824e-02 0. 0. 0. 0. 0. 0. 0. 0. 0. 0. 0. 0. 0. 0. 0. 0. 0.
      0. 0. 0. 0. 0. 1.47058824e-02 0. 0. 0. 0. 0. 0. 0. 0.
      1.47058824e-02 0. 0. 0. 0. 0. 0. 1.47058824e-02 0. 0.
      1.47058824e-02 0. 0. 0. 0. 0. 0. 0. 0. 0. 0. 0. 0. 0. 0. 0. 0. 0.
      1.47058824e-02 0. 0. 0. 0. 0. 1.47058824e-02 0. 0. 0. 0. 0. 0. 0.
      0. 0. 0. 0. 0. 0. 0. 1.47058824e-02 0. 0. 0. 0. 0. 0. 0. 0. 0. 0.
      0. 0. 0. 0. 0. 0. 0. 0. 0. 0. 0. 0. 0. 0. 0. 0. 0. 0. 0. 0. 0. 0.
      0. 0. 0. 0. 0. 0. 0. 0. 0. 0. 0. 0. 0. 0. 0. 0. 0. 0. 0.
      1.47058824e-02 0. 0. 0. 0. 0. 0. 0. 0. 0. 0. 1.47058824e-02 0. 0.
      0. 0. 0. 1.47058824e-02 0. 0. 0. 0. 0. 0. 0. 0. 0. 1.47058824e-02
      0. 0. 0. 0. 0. 0. 0. 0. 0. 0. 0. 1.47058824e-02 0. 0.
      1.47058824e-02 0. 0. 0. 0. 0. 0. 0. 0. 0. 0. 0. 0. 0. 0. 0. 0. 0.
      2.94117648e-02 0. 0. 0. 0. 0. 0. 0. 0. 0. 0. 0. 1.47058824e-02 0.
      0. 0. 0. 0. 0. 0. 0. 0. 1.47058824e-02 1.47058824e-02 0. 0. 0. 0.
      0. 0. 0. 0. 0. 0. 0. 0. 0. 2.94117648e-02 0. 0. 0. 0. 0. 0. 0. 0.
      0. 0. 0. 0. 0. 0. 0. 0. 0. 0. 0. 0. 0. 0. 0. 0. 0. 0. 0. 0. 0. 0.
      0. 0. 0. 0. 0. 0. 0. 0. 0. 0. 0. 0. 0. 0. 0. 0. 0. 0.
      1.47058824e-02 0. 0. 0. 1.47058824e-02 1.47058824e-02 0. 0. 0. 0.
      0. 0. 0. 0. 0. 0. 0. 0. 0. 0. 0. 0. 0. 0. 0. 0. 0. 0. 0. 0. 0. 0.
      0. 0. 0. 0. 0. 0. 0. 0. 0. 0. 0. 0. 0. 0. 0. 0. 0. 0. 0. 0. 0. 0.
      0. 0. 0. 0. 0. 0. 0. 1.47058824e-02 0. 0. 0. 0. 0. 0. 0. 0. 0. 0.
      0. 0. 0. 0. 0. 0. 0. 1.47058824e-02 0. 0. 0. 0. 0. 0. 0. 0. 0. 0.
      0. 0. 0. 0. 0. 0. 0. 0. 0. 0. 0. 0. 0. 0. 0. 0. 0. 0. 0. 0. 0. 0.
      0. 0. 0. 0. 0. 0. 0. 0. 0. 1.47058824e-02 0. 0. 0. 0. 0. 0. 0. 0.
      0. 0. 0. 0. 0. 0. 1.47058824e-02 0. 0. 0. 0. 0. 0. 0. 0. 0. 0.
      1.47058824e-02 0. 0. 1.47058824e-02 0. 0. 0. 0. 0. 0. 0. 0. 0. 0.
      0. 0. 1.47058824e-02 0. 0. 0. 0. 0. 0. 0. 0. 0. 0. 0. 0. 0.
      1.47058824e-02 0. 0. 0. 0. 0. 0. 0. 0. 0. 0. 0. 0. 0. 0. 0. 0. 0.
      0. 0. 0. 0. 0. 0. 0. 0. 0. 2.94117648e-02 0. 0. 0. 0. 0. 0.
      1.47058824e-02 0. 1.47058824e-02 0. 0. 0. 0. 0. 0. 0.
      1.47058824e-02 1.47058824e-02 0. 0. 0. 0. 0. 0. 0. 0.
      1.47058824e-02 1.47058824e-02 1.47058824e-02 0. 0. 0.
      2.94117648e-02 0. 0. 0. 0. 0. 0. 0. 0. 0. 0. 0. 0. 0. 0. 0. 0. 0.
      0. 0. 0. 0. 0. 0. 0. 0. 0. 0. 0. 0. 0. 0. 0. 0. 0. 0. 0. 0. 0. 0.
      0. 0. 0. 0. 0. 0. 0. 0. 0. 0. 0. 1.47058824e-02 0. 0. 0. 0. 0. 0.
      0. 0. 0. 0. 1.47058824e-02 0. 1.47058824e-02 0. 0. 1.47058824e-02
      0. 0. 0. 0. 0. 0. 0. 0. 0. 0. 0. 0. 0. 0. 0. 0. 0. 0. 0. 0. 0.
      1.47058824e-02 0. 0. 0. 0. 0. 0. 0. 0. 0. 0. 0. 0. 0. 0. 0. 0. 0.
      0. 0. 0. 1.47058824e-02 0. 0. 0. 0. 0. 0. 0. 0. 0. 0. 0. 0. 0. 0.
      0. 0. 0. 0. 0. 0. 0. 0. 0. 0. 0. 0. 0. 0. 0. 0. 0. 0. 0. 0. 0. 0.
      0. 0. 0. 0. 0. 0. 0. 0. 0. 0. 0. 0. 0. 0. 0. 0. 0. 0. 0. 0. 0. 0.
      0. 0. 0. 1.47058824e-02 0. 0. 0. 0. 0. 1.47058824e-02 0. 0. 0. 0.
      0. 0. 0. 0. 0. 0. 0. 0. 0. 0. 0. 0. 0. 0. 0. 0. 0. 0. 0. 0. 0. 0.
      0. 0. 1.47058824e-02 0. 0. 0. 0. 2.94117648e-02 0. 0. 0. 0. 0.
      1.47058824e-02 0. 0. 0. 0. 0. 0. 0. 0. 0. 0. 0. 0. 0. 0. 0. 0. 0.
      0. 0. 0. 0. 0. 0. 0. 0. 0. 0. 0. 2.94117648e-02 0. 0. 0. 0. 0. 0.
      0. 0. 0. 0. 0. 0. 0. 1.47058824e-02 0. 0. 1.47058824e-02 0. 0. 0.
      0. 0. 0. 0. 0. 0. 0. 0. 0. 0. 0. 0. 0. 1.47058824e-02 0. 0. 0. 0.
      0. 0. 0. 0. 0. 0. 0. 0. 0. 0. 0. 0. 0. 0. 0. 1.47058824e-02 0. 0.
      0. 0. 1.47058824e-02 0. 0. 0. 0. 0. 0. 0. 0. 0. 0. 0. 0. 0. 0. 0.
      0. 0. 0. 0. 0. 0. 0. 0. 0. 0. 0. 0. 0. 0. 0. 0. 0. 0. 0. 0. 0. 0.
      0. 1.47058824e-02 0. 0. 0. 0. 0. 0. 0. 0. 0. 0. 0. 0. 0. 0. 0. 0.
      0. 0. 0. 0. 0. 0. 0. 0. 0. 0. 0. 0. 0. 0. 0. 0. 0. 0. 0. 0. 0. 0.
      0. 1.47058824e-02 0. 0. 0. 0. 0. 0. 0. 0. 0. 0. 0. 0. 0.
      1.47058824e-02 0. 0. 0. 0. 0. 0. 0. 0. 0. 0. 0. 0.</_>
    <_>
      0. 0. 0. 0. 0. 0. 0. 0. 1.42857144e-02 0. 0. 0. 0. 0. 0.
      1.42857144e-02 0. 0. 0. 0. 0. 0. 0. 1.42857144e-02 0. 0. 0. 0. 0.
      0. 0. 0. 0. 0. 0. 0. 0. 0. 0. 0. 0. 0. 0. 1.42857144e-02 0. 0. 0.
      0. 0. 0. 0. 0. 0. 0. 0. 0. 0. 0. 0. 0. 0. 0. 0. 0. 0. 0. 0. 0. 0.
      0. 0. 0. 0. 0. 0. 0. 0. 0. 0. 0. 0. 0. 0. 0. 0. 0. 0. 0. 0. 0. 0.
      0. 0. 0. 0. 1.42857144e-02 0. 0. 0. 0. 0. 0. 0. 0. 1.42857144e-02
      0. 0. 0. 0. 0. 0. 1.42857144e-02 0. 0. 0. 0. 0. 0. 0. 0. 0. 0. 0.
      0. 0. 0. 0. 0. 0. 0. 0. 0. 2.85714287e-02 0. 0. 0. 0. 0.
      1.42857144e-02 0. 0. 0. 0. 0. 0. 0. 0. 0. 0. 0. 0. 0. 0.
      1.42857144e-02 0. 0. 0. 0. 0. 0. 0. 0. 0. 0. 0. 0. 0. 0. 0. 0. 0.
      0. 0. 0. 0. 0. 0. 0. 0. 0. 0. 0. 0. 0. 0. 0. 0. 0. 0. 0. 0. 0. 0.
      0. 0. 0. 0. 0. 0. 0. 0. 0. 0. 0. 0. 0. 0. 0. 0. 0. 0. 0. 0. 0. 0.
      0. 2.85714287e-02 0. 0. 0. 0. 0. 0. 0. 0. 0. 0. 0. 0. 0. 0. 0.
      1.42857144e-02 0. 0. 0. 0. 0. 0. 0. 0. 0. 0. 0. 1.42857144e-02 0.
      0. 2.85714287e-02 0. 0. 0. 0. 0. 0. 0. 0. 0. 0. 0. 1.42857144e-02
      0. 0. 0. 0. 0. 2.85714287e-02 0. 0. 0. 0. 0. 0. 0. 0. 0. 0. 0.
      1.42857144e-02 0. 0. 0. 0. 0. 0. 0. 0. 0. 1.42857144e-02
      1.42857144e-02 0. 0. 0. 0. 0. 0. 0. 0. 0. 0. 0. 0. 0.
      2.85714287e-02 0. 0. 0. 0. 0. 0. 0. 0. 0. 0. 0. 0. 0. 0. 0. 0. 0.
      0. 0. 0. 0. 0. 0. 0. 0. 0. 0. 0. 0. 0. 0. 0. 0. 0. 0. 0. 0. 0. 0.
      0. 0. 0. 0. 0. 0. 1.42857144e-02 0. 0. 0. 0. 0. 0. 1.42857144e-02
      1.42857144e-02 0. 0. 0. 0. 0. 0. 0. 0. 0. 0. 0. 0. 0. 0. 0. 0. 0.
      0. 0. 0. 0. 0. 0. 0. 0. 0. 0. 0. 0. 0. 0. 0. 0. 0. 0. 0. 0. 0. 0.
      0. 0. 0. 0. 0. 0. 0. 0. 0. 0. 0. 0. 0. 0. 2.85714287e-02 0. 0. 0.
      0. 0. 0. 0. 0. 0. 0. 0. 0. 0. 0. 0. 1.42857144e-02 0. 0. 0. 0. 0.
      0. 0. 0. 0. 0. 0. 0. 0. 0. 0. 0. 0. 0. 0. 0. 0. 0. 0. 0. 0. 0. 0.
      0. 0. 0. 1.42857144e-02 0. 0. 0. 0. 0. 0. 0. 0. 0. 0. 0. 0. 0. 0.
      1.42857144e-02 0. 0. 0. 0. 0. 0. 0. 0. 0. 0. 0. 0. 0. 0. 0.
      1.42857144e-02 0. 0. 0. 0. 0. 0. 0. 0. 0. 1.42857144e-02 0.
      1.42857144e-02 1.42857144e-02 0. 0. 0. 0. 0. 0. 0. 0. 0. 0. 0. 0.
      1.42857144e-02 0. 0. 0. 0. 0. 0. 0. 0. 0. 0. 0. 0. 0.
      1.42857144e-02 0. 0. 0. 0. 0. 0. 0. 0. 0. 0. 0. 0. 0. 0. 0. 0. 0.
      0. 0. 0. 0. 0. 0. 0. 0. 0. 1.42857144e-02 0. 0. 0. 0. 0. 0.
      2.85714287e-02 1.42857144e-02 1.42857144e-02 0. 0. 0. 0. 0. 0. 0.
      1.42857144e-02 0. 0. 0. 0. 0. 0. 0. 0. 0. 1.42857144e-02
      1.42857144e-02 1.42857144e-02 0. 0. 0. 2.85714287e-02 0. 0. 0. 0.
      0. 0. 1.42857144e-02 0. 0. 0. 0. 0. 0. 0. 0. 0. 1.42857144e-02 0.
      0. 0. 0. 0. 0. 0. 0. 0. 0. 0. 0. 0. 0. 0. 0. 0. 0. 0. 0. 0. 0. 0.
      0. 0. 0. 0. 0. 0. 0. 0. 0. 0. 1.42857144e-02 0. 0. 0. 0. 0. 0. 0.
      0. 0. 0. 1.42857144e-02 0. 1.42857144e-02 0. 0. 1.42857144e-02 0.
      0. 0. 0. 0. 0. 0. 0. 0. 0. 0. 0. 0. 0. 0. 0. 0. 0. 0. 0. 0. 0. 0.
      0. 0. 0. 0. 0. 0. 0. 0. 0. 0. 0. 0. 0. 0. 0. 0. 0. 0. 0.
      1.42857144e-02 0. 0. 0. 0. 0. 0. 0. 0. 0. 0. 0. 0. 0. 0. 0. 0. 0.
      0. 0. 0. 0. 0. 0. 0. 0. 0. 0. 0. 0. 0. 0. 0. 0. 0. 0. 0. 0. 0. 0.
      0. 0. 0. 0. 0. 0. 0. 0. 0. 0. 0. 0. 0. 0. 0. 0. 0. 0. 0. 0. 0. 0.
      1.42857144e-02 0. 0. 0. 0. 0. 1.42857144e-02 0. 0. 0. 0. 0. 0. 0.
      0. 0. 0. 0. 0. 0. 0. 0. 0. 0. 0. 0. 0. 0. 0. 0. 0. 0. 0. 0. 0.
      1.42857144e-02 0. 0. 0. 0. 1.42857144e-02 0. 0. 0. 0. 0.
      1.42857144e-02 0. 0. 0. 0. 0. 0. 0. 0. 0. 0. 0. 0. 0. 0. 0. 0. 0.
      0. 0. 0. 0. 0. 0. 0. 0. 0. 0. 0. 2.85714287e-02 0. 0. 0. 0. 0. 0.
      0. 0. 0. 0. 0. 0. 0. 0. 0. 0. 1.42857144e-02 0. 0. 0. 0. 0. 0. 0.
      0. 0. 0. 0. 0. 0. 0. 0. 0. 1.42857144e-02 0. 0. 0. 0. 0. 0. 0. 0.
      0. 0. 0. 0. 0. 0. 0. 0. 0. 0. 0. 1.42857144e-02 0. 0. 0. 0.
      1.42857144e-02 0. 0. 0. 0. 0. 0. 0. 0. 0. 0. 0. 0. 0. 0. 0. 0. 0.
      0. 0. 0. 0. 0. 0. 0. 0. 0. 0. 0. 0. 1.42857144e-02 0. 0. 0. 0. 0.
      0. 0. 0. 0. 0. 0. 0. 0. 0. 0. 0. 0. 0. 0. 0. 0. 0. 0. 0. 0. 0. 0.
      0. 0. 0. 0. 0. 0. 0. 0. 0. 0. 0. 0. 0. 0. 0. 0. 0. 0. 0. 0. 0. 0.
      0. 0. 0. 0. 0. 0. 0. 0. 0. 0. 0. 0. 0. 1.42857144e-02 0. 0. 0. 0.
      0. 0. 0. 0. 0. 0. 0. 0.</_>
    <_>
      0. 0. 0. 0. 0. 0. 0. 0. 9.80392192e-03 0. 0. 0. 0. 0. 0.
      9.80392192e-03 0. 0. 0. 0. 0. 0. 0. 9.80392192e-03 0. 0. 0. 0. 0.
      0. 0. 0. 0. 0. 0. 0. 0. 0. 0. 0. 0. 0. 0. 2.94117667e-02 0. 0. 0.
      0. 0. 0. 0. 0. 0. 0. 0. 0. 0. 0. 9.80392192e-03 0. 0. 0. 0. 0. 0.
      0. 0. 0. 0. 0. 0. 0. 0. 0. 0. 0. 0. 0. 0. 0. 0. 0. 0. 0. 0.
      9.80392192e-03 0. 9.80392192e-03 0. 0. 0. 0. 0. 0. 0. 0. 0. 0. 0.
      0. 0. 0. 0. 0. 0. 0. 0. 0. 0. 0. 0. 9.80392192e-03 9.80392192e-03
      0. 9.80392192e-03 9.80392192e-03 0. 0. 0. 0. 0. 0. 0. 0. 0. 0. 0.
      0. 0. 0. 0. 0. 9.80392192e-03 0. 0. 0. 0. 0. 0. 0. 0. 0. 0. 0.
      9.80392192e-03 0. 0. 0. 0. 0. 0. 0. 0. 9.80392192e-03 0. 0. 0. 0.
      0. 0. 0. 0. 0. 0. 0. 0. 0. 0. 0. 0. 0. 0. 0. 0. 0. 0. 0. 0. 0. 0.
      0. 0. 0. 0. 0. 0. 0. 0. 0. 0. 0. 0. 0. 0. 0. 0. 0. 0. 0. 0. 0. 0.
      0. 0. 0. 9.80392192e-03 0. 0. 0. 0. 0. 0. 0. 0. 0. 0.
      9.80392192e-03 0. 0. 0. 0. 0. 0. 0. 0. 0. 0. 0. 0. 0. 0. 0.
      9.80392192e-03 0. 0. 0. 0. 0. 0. 0. 0. 0. 9.80392192e-03 0.
      9.80392192e-03 0. 0. 9.80392192e-03 0. 0. 0. 0. 0. 9.80392192e-03
      0. 0. 0. 0. 0. 0. 0. 0. 9.80392192e-03 0. 0. 9.80392192e-03 0.
      9.80392192e-03 0. 0. 0. 0. 0. 0. 0. 0. 0. 9.80392192e-03 0. 0. 0.
      0. 0. 0. 0. 0. 0. 9.80392192e-03 1.96078438e-02 0. 0. 0. 0. 0. 0.
      0. 0. 0. 0. 0. 0. 0. 9.80392192e-03 0. 0. 0. 0. 0. 0. 0. 0. 0. 0.
      0. 0. 0. 0. 0. 0. 0. 0. 0. 0. 0. 0. 0. 9.80392192e-03 0. 0. 0. 0.
      0. 0. 0. 0. 0. 0. 0. 0. 0. 0. 0. 0. 0. 0. 0. 0. 0. 0. 0. 0.
      9.80392192e-03 0. 0. 0. 9.80392192e-03 0. 0. 0. 0. 0. 0. 0. 0. 0.
      0. 0. 9.80392192e-03 0. 0. 0. 9.80392192e-03 0. 0. 0. 0. 0. 0. 0.
      0. 0. 0. 0. 0. 0. 0. 0. 0. 0. 0. 0. 0. 0. 0. 0. 9.80392192e-03 0.
      0. 0. 0. 9.80392192e-03 0. 0. 0. 0. 0. 0. 0. 0. 0. 0. 0.
      9.80392192e-03 0. 0. 0. 0. 0. 0. 0. 0. 0. 0. 0. 0. 0. 0. 0. 0. 0.
      0. 0. 0. 0. 0. 0. 0. 0. 9.80392192e-03 0. 9.80392192e-03 0. 0. 0.
      0. 0. 0. 0. 0. 0. 0. 0. 0. 0. 0. 0. 0. 0. 0. 0. 0. 9.80392192e-03
      0. 0. 0. 0. 0. 0. 0. 0. 0. 0. 9.80392192e-03 0. 0. 0. 0. 0.
      9.80392192e-03 0. 0. 0. 0. 0. 0. 0. 0. 0. 0. 0. 0. 0. 0.
      2.94117667e-02 0. 0. 0. 9.80392192e-03 9.80392192e-03 0. 0. 0.
      1.96078438e-02 0. 0. 0. 0. 0. 9.80392192e-03 0. 0. 0. 0. 0.
      9.80392192e-03 0. 0. 9.80392192e-03 9.80392192e-03 0. 0. 0. 0. 0.
      0. 0. 0. 0. 9.80392192e-03 0. 0. 0. 0. 0. 0. 0. 0. 0. 0. 0. 0. 0.
      0. 0. 9.80392192e-03 9.80392192e-03 0. 0. 0. 0. 0. 0.
      9.80392192e-03 0. 0. 9.80392192e-03 0. 0. 9.80392192e-03 0. 0. 0.
      9.80392192e-03 0. 9.80392192e-03 0. 0. 0. 0. 0. 0. 0. 0. 0. 0. 0.
      0. 0. 0. 0. 0. 9.80392192e-03 1.96078438e-02 9.80392192e-03 0. 0.
      0. 0. 0. 0. 0. 0. 0. 0. 0. 0. 0. 0. 0. 0. 0. 0. 0. 0. 0. 0. 0. 0.
      0. 0. 0. 0. 0. 0. 0. 0. 0. 0. 0. 0. 0. 0. 0. 0. 0. 0. 0. 0. 0. 0.
      0. 0. 0. 0. 0. 0. 0. 0. 0. 0. 0. 0. 0. 0. 0. 0. 0. 0. 0. 0.
      9.80392192e-03 0. 9.80392192e-03 9.80392192e-03 0. 9.80392192e-03
      0. 0. 0. 0. 0. 0. 0. 0. 0. 0. 0. 0. 0. 0. 0. 0. 0. 0. 0. 0. 0.
      9.80392192e-03 0. 9.80392192e-03 0. 0. 0. 0. 0. 0. 0. 0. 0. 0.
      1.96078438e-02 0. 0. 0. 0. 0. 0. 0. 0. 0. 0. 0. 0. 0. 0. 0. 0. 0.
      0. 0. 0. 0. 0. 0. 0. 0. 0. 0. 0. 0. 0. 0. 0. 0. 0. 0. 0. 0. 0. 0.
      0. 0. 0. 0. 0. 0. 0. 0. 0. 0. 0. 0. 0. 0. 0. 0. 0. 0. 0. 0. 0. 0.
      0. 0. 9.80392192e-03 0. 0. 0. 0. 0. 9.80392192e-03 0. 0. 0. 0. 0.
      0. 9.80392192e-03 0. 0. 0. 0. 0. 0. 0. 0. 0. 0. 0. 0. 0. 0. 0. 0.
      0. 0. 0. 0. 0. 9.80392192e-03 0. 0. 0. 0. 0. 0. 0. 0. 0. 0.
      9.80392192e-03 0. 0. 0. 9.80392192e-03 0. 0. 0. 0. 0. 0. 0. 0. 0.
      0. 0. 0. 0. 0. 0. 0. 0. 0. 0. 0. 0. 0. 0. 0. 0. 9.80392192e-03 0.
      0. 0. 0. 1.96078438e-02 0. 0. 0. 0. 0. 0. 0. 0. 0. 0. 0. 0. 0. 0.
      0. 0. 0. 0. 0. 0. 0. 0. 0. 0. 0. 0. 0. 0. 9.80392192e-03 0. 0. 0.
      0. 0. 0. 0. 0. 0. 0. 0. 0. 0. 0. 0. 0. 0. 0. 0. 0. 0. 0. 0. 0. 0.
      0. 0. 0. 0. 9.80392192e-03 0. 0. 9.80392192e-03 0. 0. 0. 0. 0. 0.
      0. 0. 0. 0. 0. 0. 0. 0. 0. 0. 0. 0. 0. 0. 0. 0. 0. 0. 0. 0.
      9.80392192e-03 0. 0. 0. 0. 0. 0. 0. 0. 9.80392192e-03 0. 0. 0. 0.
      0. 0. 0. 0. 0. 1.96078438e-02 0. 0. 0. 0. 0. 9.80392192e-03 0. 0.
      0. 9.80392192e-03 0. 0. 0. 0. 0. 9.80392192e-03 0. 0.
      1.96078438e-02 0. 0. 0. 0. 0. 0. 9.80392192e-03 9.80392192e-03 0.
      0. 9.80392192e-03 0. 0. 0. 0. 0. 0. 0. 0. 0. 0. 0. 0. 0.
      1.96078438e-02 0. 0. 0. 0. 0. 0. 0. 0. 0. 0. 9.80392192e-03 0.</_>
    <_>
      0. 0. 0. 8.47457629e-03 0. 0. 0. 0. 1.69491526e-02 0. 0. 0. 0. 0.
      0. 1.69491526e-02 0. 0. 0. 0. 0. 0. 0. 1.69491526e-02 0. 0. 0. 0.
      0. 0. 0. 0. 0. 0. 0. 0. 0. 0. 0. 0. 0. 0. 0. 1.69491526e-02 0. 0.
      0. 0. 0. 0. 0. 0. 0. 0. 0. 0. 0. 0. 8.47457629e-03 0. 0. 0. 0. 0.
      0. 0. 0. 0. 0. 0. 0. 0. 0. 0. 0. 0. 0. 0. 0. 0. 0. 0. 0. 0. 0. 0.
      0. 8.47457629e-03 0. 0. 0. 0. 0. 0. 0. 8.47457629e-03 0. 0. 0. 0.
      0. 0. 0. 0. 0. 0. 0. 0. 0. 0. 0. 8.47457629e-03 0. 0.
      8.47457629e-03 0. 0. 0. 0. 0. 0. 0. 0. 0. 0. 0. 0. 0. 0. 0. 0. 0.
      0. 0. 0. 0. 0. 0. 8.47457629e-03 0. 0. 0. 0. 0. 0. 0. 0. 0. 0.
      8.47457629e-03 0. 0. 0. 1.69491526e-02 0. 0. 0. 0. 0. 0. 0. 0. 0.
      0. 0. 0. 0. 0. 0. 0. 0. 0. 0. 0. 0. 0. 0. 0. 0. 0. 0.
      8.47457629e-03 0. 0. 0. 0. 0. 0. 0. 0. 0. 0. 0. 0. 0. 0. 0. 0. 0.
      0. 0. 0. 0. 0. 0. 8.47457629e-03 0. 0. 0. 0. 0. 0. 0. 0. 0. 0.
      1.69491526e-02 0. 0. 0. 0. 0. 0. 0. 0. 0. 0. 0. 0. 0. 0. 0.
      8.47457629e-03 0. 0. 0. 0. 0. 0. 0. 0. 0. 0. 0. 8.47457629e-03
      8.47457629e-03 0. 8.47457629e-03 0. 0. 0. 0. 0. 8.47457629e-03 0.
      0. 0. 0. 0. 0. 0. 0. 0. 0. 0. 0. 0. 8.47457629e-03 0. 0. 0. 0. 0.
      0. 0. 0. 0. 8.47457629e-03 0. 0. 0. 0. 0. 0. 0. 0. 0.
      8.47457629e-03 8.47457629e-03 0. 8.47457629e-03 0. 0. 0.
      8.47457629e-03 0. 0. 0. 0. 0. 0. 0. 1.69491526e-02 0. 0. 0. 0. 0.
      0. 0. 0. 0. 0. 0. 0. 0. 0. 0. 0. 0. 0. 0. 0. 0. 0. 0. 0. 0. 0. 0.
      0. 0. 0. 0. 0. 0. 0. 0. 0. 0. 0. 0. 0. 0. 0. 0. 0. 0.
      8.47457629e-03 0. 0. 8.47457629e-03 0. 0. 0. 0. 8.47457629e-03 0.
      0. 0. 0. 0. 0. 0. 0. 0. 0. 8.47457629e-03 0. 0. 0. 0. 0. 0. 0. 0.
      0. 0. 0. 0. 0. 0. 0. 0. 0. 0. 0. 0. 0. 0. 0. 0. 0. 0. 0. 0. 0.
      8.47457629e-03 0. 0. 0. 8.47457629e-03 0. 0. 0. 0. 0. 0. 0. 0. 0.
      0. 8.47457629e-03 0. 0. 0. 0. 0. 0. 0. 0. 0. 0. 0. 0. 0. 0. 0. 0.
      0. 8.47457629e-03 0. 0. 0. 0. 0. 0. 0. 8.47457629e-03 0. 0. 0. 0.
      0. 0. 0. 0. 0. 0. 0. 0. 0. 0. 0. 0. 8.47457629e-03 0. 0. 0. 0. 0.
      0. 0. 0. 0. 0. 0. 0. 0. 0. 0. 0. 8.47457629e-03 0. 0. 0. 0. 0.
      8.47457629e-03 0. 0. 0. 0. 0. 0. 0. 8.47457629e-03 8.47457629e-03
      0. 0. 0. 0. 0. 3.38983051e-02 0. 0. 0. 8.47457629e-03
      1.69491526e-02 0. 8.47457629e-03 8.47457629e-03 1.69491526e-02 0.
      0. 0. 0. 0. 1.69491526e-02 0. 0. 0. 0. 0. 8.47457629e-03 0. 0.
      8.47457629e-03 8.47457629e-03 0. 0. 0. 0. 0. 0. 0. 0.
      8.47457629e-03 8.47457629e-03 0. 0. 0. 0. 0. 0. 0. 0. 0. 0. 0. 0.
      0. 0. 0. 8.47457629e-03 0. 0. 0. 0. 0. 0. 0. 8.47457629e-03 0.
      8.47457629e-03 8.47457629e-03 0. 0. 8.47457629e-03 0. 0. 0.
      8.47457629e-03 0. 8.47457629e-03 0. 0. 0. 0. 0. 0. 0. 0. 0. 0. 0.
      0. 0. 0. 0. 0. 0. 8.47457629e-03 8.47457629e-03 1.69491526e-02 0.
      0. 0. 8.47457629e-03 0. 0. 0. 0. 0. 0. 0. 0. 0. 0. 0. 0. 0. 0. 0.
      0. 0. 0. 0. 0. 0. 0. 0. 0. 0. 0. 0. 0. 0. 0. 0. 0. 0. 0. 0. 0. 0.
      0. 0. 0. 0. 0. 0. 0. 0. 0. 0. 0. 0. 0. 0. 0. 0. 0. 0. 0. 0. 0. 0.
      0. 0. 8.47457629e-03 0. 8.47457629e-03 8.47457629e-03 0.
      1.69491526e-02 0. 0. 0. 0. 0. 0. 0. 0. 0. 0. 0. 0. 0. 0. 0. 0. 0.
      0. 0. 0. 0. 8.47457629e-03 0. 8.47457629e-03 0. 0. 0. 0. 0. 0. 0.
      0. 0. 0. 1.69491526e-02 0. 0. 0. 0. 0. 0. 0. 8.47457629e-03 0. 0.
      0. 0. 0. 0. 0. 0. 0. 0. 0. 0. 0. 0. 0. 0. 0. 0. 0. 0. 0. 0. 0. 0.
      0. 0. 0. 0. 0. 0. 0. 0. 0. 0. 0. 0. 0. 0. 0. 0. 0. 0. 0. 0. 0. 0.
      0. 0. 0. 8.47457629e-03 0. 0. 0. 0. 0. 8.47457629e-03 0. 0. 0. 0.
      0. 8.47457629e-03 0. 0. 0. 0. 0. 0. 8.47457629e-03 0. 0. 0. 0. 0.
      0. 0. 0. 0. 8.47457629e-03 0. 0. 0. 0. 0. 0. 0. 0. 0. 0. 0. 0. 0.
      0. 8.47457629e-03 0. 0. 0. 0. 0. 0. 0. 8.47457629e-03 0. 0. 0.
      8.47457629e-03 0. 0. 0. 8.47457629e-03 0. 0. 0. 0. 0.
      8.47457629e-03 0. 0. 0. 0. 0. 0. 0. 0. 0. 0. 0. 0. 0. 0. 0.
      8.47457629e-03 0. 0. 0. 0. 1.69491526e-02 0. 0. 0. 0. 0. 0. 0. 0.
      0. 0. 0. 0. 0. 0. 0. 0. 0. 0. 0. 0. 0. 0. 0. 0. 0. 0. 0. 0. 0. 0.
      0. 0. 0. 0. 0. 0. 0. 0. 0. 0. 0. 0. 0. 0. 0. 0. 0. 0. 0. 0. 0. 0.
      0. 0. 0. 0. 0. 0. 8.47457629e-03 0. 0. 0. 0. 0. 0. 0. 0. 0. 0. 0.
      0. 0. 0. 0. 0. 0. 0. 0. 0. 0. 0. 0. 0. 0. 0. 0. 0. 0.
      8.47457629e-03 0. 0. 0. 0. 0. 0. 0. 0. 0. 0. 0. 0. 0. 0. 0. 0. 0.
      0. 8.47457629e-03 0. 0. 0. 0. 0. 0. 0. 0. 0. 3.38983051e-02 0. 0.
      0. 0. 0. 8.47457629e-03 0. 0. 1.69491526e-02 0. 0. 0. 0. 0. 0. 0.
      8.47457629e-03 0. 8.47457629e-03 0. 0. 0. 0. 0. 0. 0.
      8.47457629e-03 0. 0. 0. 0. 0. 0. 8.47457629e-03 0. 0. 0. 0. 0. 0.
      0. 0. 0. 0. 1.69491526e-02 0.</_>
    <_>
      1.26582282e-02 0. 0. 0. 0. 1.26582282e-02 0. 0. 0. 0.
      1.26582282e-02 0. 1.26582282e-02 0. 0. 2.53164563e-02 0. 0. 0. 0.
      0. 0. 0. 0. 0. 0. 0. 0. 0. 0. 0. 0. 0. 0. 0. 0. 0. 0. 0. 0. 0. 0.
      0. 0. 0. 0. 0. 0. 0. 0. 0. 0. 0. 0. 0. 0. 0. 1.26582282e-02 0.
      1.26582282e-02 0. 0. 0. 0. 0. 0. 0. 0. 0. 1.26582282e-02 0. 0. 0.
      0. 1.26582282e-02 0. 0. 0. 0. 0. 0. 0. 0. 0. 0. 0. 0. 0. 0. 0. 0.
      0. 0. 0. 0. 1.26582282e-02 0. 0. 0. 0. 0. 0. 0. 0. 0. 0. 0. 0. 0.
      0. 0. 0. 0. 0. 0. 0. 0. 0. 0. 0. 1.26582282e-02 0. 0. 0. 0. 0. 0.
      0. 0. 0. 0. 0. 1.26582282e-02 0. 0. 0. 0. 0. 0. 0. 0. 0. 0. 0. 0.
      0. 0. 0. 0. 0. 0. 0. 0. 1.26582282e-02 0. 0. 0. 0. 0. 0. 0. 0.
      1.26582282e-02 0. 0. 0. 0. 0. 0. 0. 0. 0. 0. 0. 0. 0. 0. 0. 0. 0.
      0. 0. 0. 0. 0. 0. 0. 0. 0. 0. 0. 0. 0. 0. 0. 0. 0. 0. 0. 0. 0. 0.
      0. 0. 0. 1.26582282e-02 0. 0. 0. 0. 0. 0. 0. 0. 1.26582282e-02 0.
      1.26582282e-02 0. 0. 0. 0. 0. 0. 0. 0. 0. 0. 0. 0. 0. 0. 0.
      2.53164563e-02 0. 0. 0. 0. 0. 0. 0. 0. 0. 1.26582282e-02
      1.26582282e-02 1.26582282e-02 0. 0. 1.26582282e-02 2.53164563e-02
      0. 0. 0. 0. 0. 0. 0. 0. 0. 0. 0. 0. 0. 0. 0. 0. 0. 0. 0. 0. 0. 0.
      0. 0. 0. 0. 0. 0. 0. 0. 0. 0. 0. 0. 0. 0. 0. 0. 0. 0. 0. 0. 0. 0.
      0. 0. 0. 0. 0. 0. 0. 0. 0. 0. 0. 0. 0. 0. 0. 0. 0. 0. 0. 0. 0. 0.
      0. 0. 0. 0. 0. 0. 0. 0. 0. 0. 0. 0. 0. 0. 0. 0. 0. 0. 0. 0. 0. 0.
      0. 0. 0. 0. 0. 0. 0. 0. 0. 0. 0. 0. 0. 0. 0. 0. 0. 0.
      1.26582282e-02 0. 0. 0. 0. 0. 0. 0. 0. 0. 0. 0. 0. 0. 0. 0. 0. 0.
      0. 0. 0. 0. 0. 0. 0. 0. 0. 0. 0. 1.26582282e-02 0. 0. 0.
      2.53164563e-02 0. 0. 0. 0. 0. 0. 0. 0. 0. 0. 0. 0. 0. 0. 0.
      2.53164563e-02 0. 0. 0. 0. 0. 0. 0. 0. 0. 0. 0. 0. 0. 0. 0. 0. 0.
      0. 0. 0. 0. 0. 0. 0. 0. 0. 0. 0. 0. 0. 0. 0. 0. 0. 0. 0. 0. 0. 0.
      0. 0. 0. 0. 0. 0. 0. 0. 0. 0. 0. 0. 0. 0. 0. 0. 0. 0. 0. 0. 0. 0.
      0. 0. 0. 0. 0. 0. 0. 0. 0. 0. 0. 0. 1.26582282e-02 0. 0. 0. 0. 0.
      0. 0. 0. 0. 0. 0. 0. 0. 0. 0. 0. 0. 1.26582282e-02 0.
      2.53164563e-02 0. 0. 0. 0. 0. 0. 1.26582282e-02 1.26582282e-02 0.
      0. 1.26582282e-02 0. 0. 0. 0. 0. 0. 0. 0. 0. 0. 1.26582282e-02 0.
      0. 0. 0. 0. 0. 0. 0. 0. 0. 0. 0. 0. 0. 0. 0. 0. 1.26582282e-02 0.
      0. 0. 0. 0. 1.26582282e-02 1.26582282e-02 0. 0. 0. 0. 0. 0. 0.
      1.26582282e-02 0. 0. 0. 0. 0. 0. 0. 1.26582282e-02 1.26582282e-02
      1.26582282e-02 1.26582282e-02 0. 0. 0. 0. 0. 0. 0. 0. 0. 0. 0. 0.
      0. 0. 0. 0. 1.26582282e-02 0. 1.26582282e-02 0. 0. 0. 0. 0. 0. 0.
      0. 0. 0. 0. 0. 0. 0. 0. 0. 0. 0. 0. 0. 0. 0. 0. 0. 0. 0. 0. 0. 0.
      0. 0. 0. 0. 0. 0. 1.26582282e-02 0. 0. 0. 0. 0. 0. 0. 0. 0. 0. 0.
      0. 1.26582282e-02 0. 0. 0. 0. 0. 0. 0. 0. 0. 0. 0. 0. 0. 0. 0. 0.
      0. 0. 0. 0. 0. 0. 0. 0. 0. 0. 0. 0. 0. 0. 0. 0. 0. 0.
      1.26582282e-02 0. 0. 0. 0. 0. 0. 0. 0. 0. 3.79746854e-02 0. 0. 0.
      0. 0. 0. 0. 0. 0. 0. 0. 0. 1.26582282e-02 0. 3.79746854e-02 0. 0.
      0. 0. 0. 0. 0. 0. 0. 0. 0. 0. 0. 0. 0. 0. 0. 0. 0. 0. 0. 0. 0. 0.
      0. 0. 0. 0. 0. 0. 0. 1.26582282e-02 0. 0. 0. 0. 0. 0. 0. 0. 0. 0.
      0. 0. 0. 0. 0. 0. 0. 0. 0. 0. 0. 0. 0. 0. 0. 0. 0. 0. 0. 0. 0. 0.
      0. 0. 0. 0. 1.26582282e-02 0. 0. 0. 0. 0. 0. 0. 0. 0. 0. 0. 0. 0.
      2.53164563e-02 0. 1.26582282e-02 0. 0. 0. 0. 0. 0. 0. 0. 0.
      1.26582282e-02 0. 0. 0. 0. 0. 0. 0. 0. 0. 0. 0. 0. 0. 0. 0. 0. 0.
      0. 0. 0. 0. 0. 0. 0. 0. 0. 0. 0. 0. 0. 0. 0. 0. 1.26582282e-02 0.
      0. 0. 0. 0. 0. 0. 0. 0. 0. 0. 0. 0. 0. 0. 0. 0. 0. 0. 0. 0. 0. 0.
      0. 0. 0. 0. 0. 0. 0. 0. 0. 0. 0. 0. 1.26582282e-02 0. 0. 0. 0. 0.
      0. 1.26582282e-02 0. 0. 0. 0. 0. 0. 0. 0. 0. 0. 0. 0. 0. 0. 0. 0.
      0. 0. 0. 1.26582282e-02 0. 0. 0. 0. 0. 0. 0. 0. 0. 0. 0. 0. 0. 0.
      0. 0. 3.79746854e-02 0. 1.26582282e-02 0. 0. 0. 0. 0. 0. 0. 0. 0.
      0. 0. 1.26582282e-02 0. 0. 0. 0. 0. 0. 0. 0. 0. 0. 0. 0. 0. 0. 0.
      0. 0. 0. 0. 0. 0. 0. 0. 0. 0. 0. 0. 0. 0. 0. 0. 0. 0. 0. 0. 0. 0.
      1.26582282e-02 0. 0. 0. 0. 0. 0. 0. 0. 0. 0. 0. 0. 0.
      1.26582282e-02 0. 1.26582282e-02 0. 0. 0. 0. 0. 0. 0. 0. 0. 0. 0.
      0. 0. 0. 0. 0. 0. 1.26582282e-02 0. 0. 0. 0. 0. 0. 0. 0. 0. 0. 0.
      0.</_>
    <_>
      1.23456791e-02 0. 0. 0. 0. 1.23456791e-02 0. 0. 1.23456791e-02 0.
      0. 0. 0. 0. 0. 0. 0. 0. 0. 0. 0. 0. 0. 0. 0. 0. 0. 0. 0. 0. 0. 0.
      0. 0. 0. 0. 0. 0. 0. 0. 0. 0. 0. 0. 0. 0. 0. 0. 0. 0. 0. 0. 0. 0.
      0. 0. 0. 0. 0. 0. 0. 0. 0. 0. 0. 0. 0. 0. 0. 0. 0. 0. 0. 0. 0. 0.
      0. 0. 0. 0. 0. 0. 0. 0. 0. 0. 0. 0. 0. 0. 0. 0. 0. 0. 0.
      1.23456791e-02 0. 0. 0. 0. 0. 0. 0. 0. 0. 0. 0. 0. 0. 0. 0. 0.
      1.23456791e-02 0. 0. 0. 0. 0. 0. 0. 1.23456791e-02 0. 0. 0. 0. 0.
      0. 1.23456791e-02 0. 0. 0. 0. 0. 0. 0. 0. 0. 0. 0. 0. 0. 0. 0. 0.
      0. 0. 0. 0. 0. 0. 0. 1.23456791e-02 0. 1.23456791e-02 0. 0. 0. 0.
      0. 0. 0. 0. 1.23456791e-02 0. 0. 0. 0. 0. 0. 0. 0. 0. 0. 0. 0. 0.
      1.23456791e-02 0. 0. 0. 0. 0. 0. 0. 0. 0. 0. 0. 0. 0. 0. 0. 0. 0.
      0. 0. 0. 0. 0. 0. 0. 0. 0. 0. 0. 1.23456791e-02 0. 0. 0. 0. 0. 0.
      0. 0. 0. 0. 2.46913582e-02 0. 0. 0. 0. 0. 0. 0. 0. 0. 0. 0. 0. 0.
      0. 1.23456791e-02 0. 0. 0. 0. 0. 0. 0. 0. 0. 0. 1.23456791e-02
      1.23456791e-02 1.23456791e-02 0. 0. 1.23456791e-02 1.23456791e-02
      0. 0. 0. 0. 0. 0. 0. 0. 0. 0. 0. 0. 0. 2.46913582e-02 0. 0. 0. 0.
      0. 0. 0. 0. 0. 0. 0. 0. 0. 0. 0. 0. 0. 0. 0. 0. 0. 0. 0. 0. 0. 0.
      0. 1.23456791e-02 0. 0. 0. 0. 0. 0. 0. 0. 0. 0. 0. 0. 0. 0. 0. 0.
      0. 0. 0. 0. 0. 0. 0. 0. 0. 0. 0. 0. 0. 0. 0. 0. 0. 0. 0. 0. 0. 0.
      0. 0. 0. 0. 0. 0. 0. 0. 0. 0. 0. 0. 0. 0. 0. 0. 0. 0. 0. 0. 0. 0.
      0. 0. 0. 0. 1.23456791e-02 0. 0. 0. 0. 0. 0. 0. 0. 0. 0. 0. 0. 0.
      0. 0. 0. 0. 0. 0. 0. 0. 0. 0. 0. 0. 0. 0. 0. 1.23456791e-02 0. 0.
      0. 1.23456791e-02 0. 0. 0. 0. 0. 0. 0. 0. 0. 0. 0. 0. 0. 0. 0. 0.
      0. 0. 0. 0. 0. 1.23456791e-02 0. 0. 0. 0. 0. 0. 0. 0. 0. 0. 0. 0.
      0. 0. 0. 0. 0. 0. 0. 0. 0. 0. 0. 0. 0. 0. 0. 0. 0. 0. 0. 0. 0. 0.
      0. 0. 0. 0. 0. 0. 0. 0. 0. 0. 0. 0. 0. 0. 0. 0. 0. 0. 0. 0. 0.
      3.70370373e-02 0. 0. 0. 0. 0. 0. 0. 0. 0. 0. 0. 1.23456791e-02 0.
      0. 0. 0. 1.23456791e-02 0. 0. 0. 0. 0. 0. 0. 0. 0. 0. 0. 0. 0. 0.
      3.70370373e-02 0. 0. 0. 0. 0. 0. 1.23456791e-02 1.23456791e-02 0.
      0. 1.23456791e-02 0. 0. 0. 0. 1.23456791e-02 0. 0. 0. 0. 0. 0. 0.
      0. 0. 0. 0. 0. 0. 0. 0. 0. 0. 0. 1.23456791e-02 0. 0. 0. 0.
      1.23456791e-02 0. 0. 0. 0. 0. 0. 0. 0. 0. 1.23456791e-02 0. 0. 0.
      0. 1.23456791e-02 0. 0. 0. 0. 0. 0. 0. 1.23456791e-02
      1.23456791e-02 1.23456791e-02 1.23456791e-02 0. 0. 0. 0. 0. 0. 0.
      1.23456791e-02 0. 0. 0. 0. 0. 0. 0. 0. 0. 0. 1.23456791e-02 0. 0.
      0. 0. 0. 0. 0. 0. 0. 0. 0. 0. 0. 0. 0. 1.23456791e-02 0. 0. 0. 0.
      0. 0. 0. 0. 0. 0. 0. 0. 0. 0. 0. 0. 0. 0. 0. 1.23456791e-02 0. 0.
      0. 0. 0. 0. 0. 0. 0. 0. 0. 0. 1.23456791e-02 0. 0. 0. 0. 0. 0. 0.
      0. 0. 0. 0. 0. 0. 0. 0. 0. 0. 0. 0. 0. 0. 0. 1.23456791e-02 0. 0.
      0. 0. 0. 0. 0. 0. 0. 0. 0. 0. 0. 0. 0. 0. 0. 0. 0. 0. 0.
      2.46913582e-02 1.23456791e-02 0. 0. 0. 0. 0. 0. 0. 0. 0. 0. 0.
      1.23456791e-02 0. 1.23456791e-02 0. 0. 0. 0. 0. 0. 0. 0. 0. 0. 0.
      0. 0. 0. 0. 0. 0. 0. 0. 0. 0. 0. 0. 0. 0. 0. 0. 0. 0. 0.
      1.23456791e-02 1.23456791e-02 0. 0. 0. 0. 0. 0. 0. 0. 0. 0. 0. 0.
      0. 0. 0. 0. 0. 0. 0. 0. 0. 0. 0. 0. 0. 0. 0. 0. 0. 0. 0. 0. 0. 0.
      0. 0. 1.23456791e-02 0. 0. 0. 0. 0. 0. 0. 1.23456791e-02 0. 0. 0.
      0. 0. 1.23456791e-02 0. 1.23456791e-02 0. 0. 0. 0. 0. 0. 0. 0. 0.
      0. 0. 0. 0. 0. 0. 1.23456791e-02 0. 0. 0. 0. 0. 0. 0. 0. 0. 0. 0.
      0. 0. 0. 1.23456791e-02 0. 0. 0. 0. 0. 0. 0. 0. 0. 0. 0. 0. 0. 0.
      0. 0. 0. 0. 0. 0. 0. 0. 0. 0. 0. 1.23456791e-02 1.23456791e-02 0.
      0. 0. 0. 0. 0. 0. 0. 0. 0. 0. 0. 0. 0. 0. 0. 0. 0. 0. 0.
      1.23456791e-02 0. 0. 0. 0. 0. 0. 0. 1.23456791e-02 0. 0. 0. 0. 0.
      0. 0. 0. 0. 0. 0. 0. 0. 0. 0. 0. 1.23456791e-02 0. 0. 0. 0. 0. 0.
      0. 0. 0. 0. 0. 0. 0. 0. 0. 0. 0. 0. 0. 2.46913582e-02 0. 0.
      1.23456791e-02 0. 0. 0. 0. 0. 0. 0. 0. 0. 0. 0. 0. 0. 0. 0. 0. 0.
      0. 0. 0. 0. 0. 0. 0. 0. 0. 0. 0. 0. 0. 0. 0. 0. 0. 0. 0. 0. 0. 0.
      0. 1.23456791e-02 0. 0. 0. 0. 0. 0. 0. 1.23456791e-02 0. 0. 0. 0.
      0. 0. 0. 0. 0. 0. 0. 0. 0. 1.23456791e-02 0. 1.23456791e-02 0. 0.
      0. 0. 0. 0. 0. 0. 0. 0. 0. 0. 0. 0. 1.23456791e-02 0. 0.
      2.46913582e-02 0. 0. 0. 0. 0. 0. 0. 0. 0. 0. 0. 0.</_>
    <_>
      1.26582282e-02 0. 0. 0. 0. 0. 0. 0. 2.53164563e-02 0.
      1.26582282e-02 0. 0. 0. 0. 1.26582282e-02 0. 0. 0. 0. 0. 0. 0. 0.
      0. 0. 0. 0. 0. 0. 0. 0. 0. 0. 0. 0. 0. 0. 0. 0. 0. 1.26582282e-02
      0. 0. 0. 0. 0. 0. 0. 0. 0. 0. 0. 0. 0. 0. 0. 0. 0. 0. 0. 0. 0. 0.
      0. 0. 0. 0. 0. 0. 0. 0. 0. 0. 0. 0. 0. 0. 0. 0. 0. 0. 0. 0. 0. 0.
      0. 0. 0. 0. 0. 0. 0. 0. 0. 1.26582282e-02 0. 0. 0. 0. 0. 0. 0. 0.
      0. 0. 0. 0. 0. 0. 0. 0. 0. 0. 0. 0. 0. 0. 0. 0. 1.26582282e-02 0.
      0. 0. 0. 0. 0. 1.26582282e-02 0. 0. 0. 0. 1.26582282e-02 0. 0. 0.
      0. 0. 0. 0. 0. 0. 0. 0. 0. 0. 0. 0. 0. 0. 0. 0. 0. 1.26582282e-02
      0. 0. 0. 0. 0. 0. 0. 0. 2.53164563e-02 0. 0. 0. 0. 0. 0. 0. 0. 0.
      0. 0. 0. 0. 0. 0. 0. 0. 0. 0. 0. 0. 0. 0. 0. 0. 0. 0. 0. 0. 0. 0.
      0. 0. 0. 0. 0. 0. 0. 0. 0. 0. 0. 0. 0. 0. 0. 0. 0. 0. 0. 0. 0. 0.
      1.26582282e-02 0. 0. 0. 0. 0. 0. 0. 0. 0. 0. 0. 0. 0. 0. 0.
      1.26582282e-02 0. 0. 0. 0. 0. 0. 0. 0. 0. 2.53164563e-02
      1.26582282e-02 1.26582282e-02 0. 0. 1.26582282e-02 1.26582282e-02
      0. 1.26582282e-02 0. 0. 0. 0. 0. 0. 0. 0. 0. 0. 0. 0. 0. 0. 0. 0.
      0. 0. 0. 0. 0. 0. 0. 0. 0. 0. 0. 0. 0. 0. 0. 0. 0. 0. 0. 0. 0. 0.
      0. 1.26582282e-02 0. 0. 0. 0. 0. 0. 0. 0. 0. 0. 0. 0. 0. 0. 0. 0.
      0. 0. 0. 0. 0. 0. 0. 0. 1.26582282e-02 0. 0. 0. 0. 0. 0. 0. 0. 0.
      0. 0. 0. 0. 0. 0. 0. 0. 0. 0. 0. 0. 0. 0. 0. 0. 0. 0. 0. 0. 0. 0.
      0. 0. 0. 0. 0. 0. 0. 0. 1.26582282e-02 0. 0. 0. 0. 0. 0. 0. 0. 0.
      0. 0. 0. 0. 0. 0. 1.26582282e-02 0. 0. 0. 0. 0. 0. 0. 0. 0. 0. 0.
      0. 1.26582282e-02 0. 0. 0. 1.26582282e-02 0. 0. 0. 0. 0. 0. 0. 0.
      0. 0. 0. 0. 0. 0. 0. 0. 0. 0. 0. 0. 0. 0. 0. 0. 0. 0. 0. 0. 0. 0.
      0. 0. 0. 0. 0. 0. 0. 0. 0. 0. 0. 0. 0. 0. 0. 0. 0. 0. 0. 0. 0. 0.
      0. 0. 0. 0. 0. 0. 0. 0. 0. 0. 0. 0. 0. 0. 0. 0. 0. 0. 0. 0. 0. 0.
      0. 0. 0. 1.26582282e-02 0. 0. 0. 0. 0. 0. 0. 0. 0. 0. 0. 0. 0. 0.
      0. 0. 0. 0. 0. 0. 0. 0. 0. 0. 0. 0. 0. 0. 0. 0. 0. 2.53164563e-02
      0. 0. 0. 0. 0. 0. 1.26582282e-02 1.26582282e-02 0. 0.
      1.26582282e-02 0. 0. 0. 0. 0. 0. 0. 0. 0. 0. 0. 0. 0. 0. 0. 0. 0.
      0. 0. 0. 0. 0. 0. 0. 0. 0. 0. 0. 1.26582282e-02 0. 0. 0. 0. 0.
      1.26582282e-02 1.26582282e-02 0. 1.26582282e-02 1.26582282e-02 0.
      0. 0. 0. 1.26582282e-02 0. 0. 0. 0. 0. 0. 0. 1.26582282e-02
      1.26582282e-02 1.26582282e-02 1.26582282e-02 0. 0. 0. 0. 0. 0. 0.
      0. 1.26582282e-02 0. 0. 0. 0. 0. 0. 0. 0. 0. 1.26582282e-02 0. 0.
      0. 0. 0. 0. 0. 0. 0. 0. 0. 0. 0. 0. 0. 0. 0. 0. 0. 0. 0. 0. 0. 0.
      0. 0. 0. 0. 0. 0. 0. 0. 0. 0. 0. 1.26582282e-02 0. 0. 0. 0. 0. 0.
      0. 0. 0. 0. 0. 0. 1.26582282e-02 0. 0. 0. 0. 0. 0. 0. 0. 0. 0.
      1.26582282e-02 0. 0. 0. 0. 0. 0. 0. 0. 0. 0. 0. 1.26582282e-02 0.
      0. 0. 0. 0. 0. 0. 0. 0. 0. 0. 0. 0. 0. 0. 0. 0. 0. 0. 0. 0.
      5.06329127e-02 0. 0. 0. 0. 1.26582282e-02 0. 0. 0. 0. 0. 0. 0. 0.
      0. 2.53164563e-02 0. 0. 0. 0. 0. 0. 0. 0. 0. 0. 0. 0. 0. 0. 0. 0.
      0. 0. 0. 0. 0. 0. 0. 0. 0. 0. 0. 0. 0. 0. 1.26582282e-02
      1.26582282e-02 0. 0. 0. 0. 0. 0. 0. 0. 0. 0. 0. 0. 0. 0. 0. 0. 0.
      0. 0. 0. 0. 0. 0. 0. 0. 0. 0. 0. 0. 0. 0. 0. 0. 0. 0. 0.
      1.26582282e-02 0. 0. 0. 0. 0. 0. 0. 1.26582282e-02 0. 0.
      1.26582282e-02 0. 0. 1.26582282e-02 0. 2.53164563e-02 0. 0. 0. 0.
      0. 0. 0. 0. 0. 0. 0. 0. 0. 0. 0. 1.26582282e-02 0. 0. 0. 0. 0. 0.
      0. 0. 0. 0. 0. 0. 0. 0. 0. 1.26582282e-02 0. 0. 0. 0. 0. 0. 0. 0.
      0. 0. 0. 1.26582282e-02 0. 0. 0. 0. 0. 0. 0. 0. 0. 0. 0. 0. 0. 0.
      0. 0. 0. 0. 0. 0. 0. 0. 0. 0. 0. 0. 0. 0. 0. 0. 0. 0. 0. 0. 0.
      2.53164563e-02 0. 0. 0. 0. 0. 0. 2.53164563e-02 0. 0. 0. 0. 0. 0.
      0. 0. 0. 0. 0. 0. 0. 0. 0. 0. 1.26582282e-02 0. 0. 0. 0. 0. 0. 0.
      0. 0. 0. 0. 0. 0. 0. 0. 0. 0. 0. 0. 0. 0. 0. 0. 0. 0. 0. 0. 0. 0.
      0. 1.26582282e-02 0. 0. 0. 0. 0. 0. 0. 0. 0. 0. 0. 0. 0. 0. 0.
      1.26582282e-02 0. 0. 0. 0. 0. 0. 0. 0. 0. 0. 0. 0. 0. 0. 0. 0. 0.
      0. 0. 0. 0. 0. 0. 0. 0. 0. 0. 0. 0. 0. 0. 0. 0. 0. 0. 0. 0. 0.
      1.26582282e-02 0. 1.26582282e-02 0. 0. 0. 0. 0. 0. 0. 0. 0. 0. 0.
      0. 0. 0. 0. 0. 0. 2.53164563e-02 0. 0. 0. 0. 0. 0. 0. 0. 0. 0. 0.
      0.</_>
    <_>
      0. 0. 0. 0. 0. 0. 0. 0. 1.88679248e-02 0. 0. 0. 0. 0. 0.
      1.88679248e-02 0. 0. 0. 0. 1.88679248e-02 0. 0. 0. 0. 0. 0. 0. 0.
      0. 0. 0. 0. 0. 0. 0. 0. 0. 0. 0. 0. 0. 0. 0. 0. 0. 0. 0. 0. 0. 0.
      0. 0. 0. 0. 0. 0. 0. 0. 0. 0. 0. 0. 0. 0. 0. 0. 0. 0. 0. 0. 0. 0.
      0. 0. 0. 0. 0. 0. 0. 0. 0. 0. 0. 0. 0. 0. 0. 0. 0. 0. 0. 0. 0. 0.
      0. 0. 0. 0. 0. 0. 0. 0. 0. 1.88679248e-02 0. 0. 0. 0. 0. 0.
      1.88679248e-02 0. 0. 1.88679248e-02 0. 0. 0. 0. 0. 0. 0. 0. 0. 0.
      0. 0. 0. 0. 0. 0. 0. 0. 0. 0. 0. 0. 0. 1.88679248e-02 0. 0. 0. 0.
      0. 0. 0. 0. 0. 0. 0. 0. 0. 0. 0. 0. 0. 0. 0. 0. 0. 0. 0. 0. 0. 0.
      0. 0. 0. 0. 0. 0. 0. 0. 0. 0. 0. 0. 0. 0. 0. 0. 0. 0. 0. 0. 0. 0.
      0. 0. 0. 0. 0. 0. 0. 0. 0. 0. 0. 0. 0. 0. 0. 0. 0. 0.
      1.88679248e-02 0. 0. 0. 0. 0. 0. 0. 0. 0. 0. 1.88679248e-02 0. 0.
      0. 0. 0. 0. 0. 0. 0. 3.77358496e-02 0. 0. 0. 0. 0. 1.88679248e-02
      0. 0. 0. 0. 0. 0. 0. 0. 0. 1.88679248e-02 0. 1.88679248e-02 0. 0.
      1.88679248e-02 0. 0. 0. 0. 0. 1.88679248e-02 0. 0. 0. 0. 0. 0. 0.
      0. 1.88679248e-02 0. 0. 0. 3.77358496e-02 0. 0. 0. 0. 0. 0. 0. 0.
      0. 0. 0. 0. 0. 0. 0. 0. 0. 0. 0. 0. 1.88679248e-02 1.88679248e-02
      0. 0. 0. 0. 0. 0. 0. 0. 0. 0. 1.88679248e-02 0. 0. 1.88679248e-02
      0. 0. 0. 0. 0. 0. 0. 0. 0. 0. 0. 0. 0. 0. 0. 0. 0. 0. 0. 0. 0. 0.
      0. 0. 0. 0. 0. 0. 0. 0. 0. 0. 0. 0. 0. 0. 0. 0. 0. 0. 0. 0. 0. 0.
      0. 0. 0. 0. 0. 0. 0. 0. 1.88679248e-02 0. 0. 0. 0. 0. 0. 0. 0. 0.
      0. 0. 0. 0. 0. 0. 0. 0. 0. 0. 0. 1.88679248e-02 0. 0. 0. 0. 0. 0.
      0. 0. 0. 0. 0. 0. 0. 0. 0. 0. 0. 0. 0. 0. 0. 0. 0. 0. 0. 0. 0. 0.
      0. 0. 0. 0. 0. 0. 0. 0. 0. 0. 0. 0. 0. 0. 0. 0. 0. 0. 0. 0. 0. 0.
      0. 0. 0. 1.88679248e-02 0. 0. 0. 0. 0. 0. 0. 0. 0. 0. 0. 0. 0. 0.
      0. 1.88679248e-02 0. 0. 0. 0. 0. 0. 0. 0. 0. 0. 0. 0. 0. 0. 0. 0.
      0. 0. 0. 0. 0. 0. 0. 0. 0. 0. 0. 0. 0. 0. 0. 0. 0. 0. 0. 0. 0. 0.
      0. 0. 0. 0. 0. 0. 0. 0. 0. 0. 0. 0. 0. 1.88679248e-02 0. 0. 0. 0.
      0. 0. 0. 0. 0. 0. 0. 0. 0. 0. 0. 0. 0. 0. 0. 0. 0. 0. 0. 0. 0. 0.
      0. 0. 0. 1.88679248e-02 0. 0. 0. 0. 0. 0. 0. 0. 0. 0. 0. 0. 0. 0.
      0. 0. 0. 0. 0. 0. 0. 0. 0. 0. 0. 0. 0. 0. 0. 0. 0. 0.
      1.88679248e-02 1.88679248e-02 0. 1.88679248e-02 0. 0. 0. 0. 0. 0.
      0. 1.88679248e-02 1.88679248e-02 0. 0. 0. 0. 0. 0. 0. 0.
      1.88679248e-02 1.88679248e-02 0. 0. 0. 0. 0. 0. 0. 0. 0. 0. 0. 0.
      0. 0. 0. 0. 0. 0. 0. 0. 0. 0. 0. 0. 0. 0. 0. 0. 0. 0. 0. 0. 0. 0.
      0. 0. 0. 0. 0. 0. 0. 0. 0. 0. 0. 0. 0. 0. 0. 0. 0. 0. 0. 0. 0. 0.
      0. 0. 0. 0. 0. 0. 0. 0. 0. 0. 1.88679248e-02 1.88679248e-02 0. 0.
      0. 0. 0. 0. 0. 0. 0. 0. 0. 0. 0. 0. 0. 0. 0. 0. 0. 0. 0. 0. 0. 0.
      0. 1.88679248e-02 0. 1.88679248e-02 0. 0. 0. 0. 0. 0. 0. 0. 0. 0.
      0. 0. 0. 0. 0. 0. 0. 0. 1.88679248e-02 0. 0. 0. 0. 0. 0. 0. 0. 0.
      0. 0. 0. 0. 0. 0. 0. 0. 0. 0. 0. 0. 0. 0. 0. 0. 0. 0. 0. 0. 0. 0.
      0. 0. 0. 0. 0. 0. 0. 0. 0. 0. 0. 0. 0. 0. 0. 0. 0. 0. 0. 0. 0. 0.
      0. 0. 0. 0. 0. 0. 0. 0. 0. 0. 0. 1.88679248e-02 0. 0. 0. 0. 0.
      1.88679248e-02 0. 0. 0. 0. 0. 0. 0. 0. 0. 0. 0. 0. 0. 0. 0. 0. 0.
      0. 0. 0. 0. 0. 0. 0. 0. 1.88679248e-02 0. 0. 0. 0. 1.88679248e-02
      0. 0. 0. 0. 0. 0. 0. 0. 0. 0. 0. 0. 0. 0. 0. 0. 0. 0. 0. 0. 0. 0.
      0. 0. 0. 0. 0. 0. 0. 0. 0. 0. 0. 0. 0. 0. 0. 0. 0. 0. 0. 0. 0. 0.
      0. 0. 0. 0. 0. 0. 0. 3.77358496e-02 0. 0. 0. 0. 0. 0. 0. 0. 0. 0.
      0. 0. 0. 0. 0. 0. 0. 1.88679248e-02 0. 0. 0. 0. 0. 0. 0. 0. 0. 0.
      0. 0. 0. 0. 0. 0. 0. 0. 0. 0. 0. 0. 0. 0. 0. 0. 0. 0. 0. 0. 0. 0.
      0. 0. 0. 0. 0. 0. 0. 0. 0. 0. 0. 0. 0. 0. 0. 0. 0. 0. 0. 0. 0. 0.
      0. 0. 0. 0. 0. 0. 0. 0. 0. 0. 0. 0. 0. 0. 0. 0. 0. 0. 0. 0. 0. 0.
      0. 0. 1.88679248e-02 0. 0. 0. 3.77358496e-02 0. 0. 0. 0. 0. 0. 0.
      0. 0. 0. 0. 0. 0. 0. 0. 0. 0. 0. 0. 0. 0. 0. 0. 0. 0. 0. 0. 0. 0.
      0. 0. 0. 0. 1.88679248e-02 0. 0. 0. 0. 0. 1.88679248e-02 0. 0. 0.
      0. 0. 0.</_>
    <_>
      0. 0. 0. 0. 0. 0. 0. 0. 0. 0. 0. 0. 0. 0. 0. 2.19780225e-02 0. 0.
      0. 0. 0. 0. 0. 1.09890113e-02 0. 0. 0. 0. 0. 0. 0. 0. 0. 0. 0. 0.
      0. 0. 0. 0. 0. 0. 0. 1.09890113e-02 1.09890113e-02 0.
      1.09890113e-02 0. 0. 0. 0. 0. 0. 0. 0. 0. 0. 0. 0. 0. 0. 0. 0. 0.
      0. 0. 0. 0. 0. 0. 0. 0. 0. 0. 0. 0. 1.09890113e-02 0. 0. 0. 0. 0.
      0. 3.29670347e-02 0. 0. 0. 0. 0. 0. 0. 0. 0. 0. 0. 0.
      1.09890113e-02 0. 0. 0. 0. 0. 0. 0. 0. 0. 0. 0. 0. 0. 0. 0. 0. 0.
      0. 0. 0. 0. 0. 0. 0. 0. 0. 0. 0. 0. 0. 0. 0. 0. 0. 0. 0. 0. 0. 0.
      0. 0. 0. 0. 0. 0. 0. 0. 1.09890113e-02 1.09890113e-02 0. 0. 0. 0.
      0. 0. 0. 0. 0. 0. 0. 0. 0. 0. 0. 0. 1.09890113e-02 0. 0. 0. 0. 0.
      0. 0. 0. 0. 0. 0. 0. 0. 0. 0. 0. 0. 0. 1.09890113e-02
      1.09890113e-02 0. 1.09890113e-02 0. 0. 0. 0. 0. 0. 0. 0. 0. 0. 0.
      0. 0. 0. 0. 0. 0. 0. 0. 0. 0. 0. 0. 0. 0. 0. 0. 0. 0. 0. 0. 0. 0.
      0. 0. 0. 0. 0. 0. 2.19780225e-02 0. 0. 0. 0. 0. 0. 0. 0. 0. 0. 0.
      0. 0. 0. 0. 0. 0. 0. 2.19780225e-02 0. 0. 1.09890113e-02
      1.09890113e-02 2.19780225e-02 0. 0. 0. 0. 0. 1.09890113e-02 0. 0.
      0. 0. 0. 1.09890113e-02 0. 0. 0. 0. 0. 0. 0. 1.09890113e-02 0. 0.
      0. 0. 1.09890113e-02 0. 0. 0. 0. 0. 0. 0. 0. 0. 0. 0. 0. 0. 0. 0.
      0. 0. 0. 0. 1.09890113e-02 0. 0. 0. 0. 0. 0. 0. 0. 0. 0. 0.
      1.09890113e-02 0. 0. 0. 0. 0. 0. 0. 0. 0. 0. 0. 0. 0. 0. 0. 0. 0.
      0. 0. 0. 0. 0. 0. 0. 0. 0. 1.09890113e-02 0. 0. 0. 0. 0. 0. 0. 0.
      0. 0. 0. 0. 0. 0. 0. 0. 0. 0. 0. 0. 0. 1.09890113e-02 0. 0. 0. 0.
      0. 0. 1.09890113e-02 0. 0. 0. 0. 1.09890113e-02 0. 0. 0. 0. 0. 0.
      0. 0. 0. 1.09890113e-02 0. 0. 0. 0. 0. 0. 0. 1.09890113e-02 0. 0.
      0. 0. 0. 0. 0. 0. 0. 0. 0. 0. 0. 0. 0. 0. 0. 0. 0. 1.09890113e-02
      0. 0. 0. 0. 0. 0. 0. 0. 0. 3.29670347e-02 0. 0. 0. 0. 0. 0. 0. 0.
      0. 1.09890113e-02 0. 0. 0. 0. 0. 0. 0. 0. 0. 0. 0. 0. 0.
      1.09890113e-02 0. 0. 0. 0. 0. 0. 0. 0. 0. 0. 1.09890113e-02 0. 0.
      0. 0. 0. 0. 0. 0. 0. 0. 0. 0. 0. 0. 0. 0. 0. 0. 0. 0. 0. 0. 0. 0.
      0. 0. 0. 0. 0. 0. 0. 0. 0. 0. 0. 0. 0. 0. 0. 0. 0. 0. 0. 0. 0. 0.
      0. 0. 0. 2.19780225e-02 0. 0. 0. 0. 0. 0. 0. 0. 0. 0. 0. 0. 0. 0.
      0. 0. 0. 0. 0. 0. 0. 0. 0. 0. 1.09890113e-02 0. 0. 0. 0. 0. 0. 0.
      1.09890113e-02 0. 0. 0. 0. 0. 0. 0. 0. 0. 0. 0. 0. 0. 0. 0. 0.
      1.09890113e-02 0. 0. 0. 0. 0. 0. 0. 0. 0. 0. 0. 2.19780225e-02 0.
      0. 0. 0. 0. 1.09890113e-02 0. 1.09890113e-02 0. 0. 1.09890113e-02
      0. 0. 0. 0. 0. 1.09890113e-02 0. 0. 0. 0. 0. 0. 0. 0. 0. 0.
      1.09890113e-02 1.09890113e-02 0. 0. 0. 0. 0. 0. 0. 1.09890113e-02
      0. 0. 0. 0. 0. 0. 0. 0. 1.09890113e-02 0. 0. 0. 0. 0. 0. 0. 0. 0.
      0. 0. 0. 0. 0. 0. 0. 0. 1.09890113e-02 0. 0. 0. 0. 0. 0. 0. 0. 0.
      0. 0. 0. 0. 1.09890113e-02 0. 0. 0. 0. 0. 0. 0. 0. 0. 0. 0.
      1.09890113e-02 0. 0. 0. 0. 0. 0. 0. 0. 1.09890113e-02 0. 0.
      1.09890113e-02 0. 0. 0. 0. 0. 1.09890113e-02 0. 0. 0. 0.
      1.09890113e-02 0. 0. 1.09890113e-02 0. 0. 0. 0. 0. 0. 0. 0. 0. 0.
      0. 0. 0. 0. 0. 0. 0. 0. 0. 0. 0. 0. 0. 0. 0. 0. 0. 0.
      1.09890113e-02 0. 0. 0. 0. 0. 0. 0. 0. 0. 0. 0. 0. 0. 0. 0.
      1.09890113e-02 1.09890113e-02 0. 0. 0. 1.09890113e-02 0. 0. 0. 0.
      0. 0. 0. 0. 0. 0. 0. 0. 0. 0. 0. 0. 0. 0. 0. 0. 0. 0.
      1.09890113e-02 0. 0. 0. 0. 0. 0. 0. 0. 0. 0. 0. 0. 0. 0. 0. 0. 0.
      0. 1.09890113e-02 0. 0. 0. 0. 0. 0. 0. 0. 0. 0. 0. 0. 0. 0. 0. 0.
      0. 0. 0. 0. 0. 0. 0. 0. 0. 0. 0. 0. 0. 0. 0. 0. 0. 0. 0. 0. 0. 0.
      0. 0. 0. 0. 0. 0. 0. 1.09890113e-02 1.09890113e-02 0. 0. 0. 0. 0.
      0. 0. 0. 1.09890113e-02 0. 1.09890113e-02 0. 0. 0. 0. 0. 0. 0. 0.
      0. 0. 0. 0. 0. 0. 0. 0. 1.09890113e-02 1.09890113e-02 0. 0. 0. 0.
      0. 0. 0. 0. 0. 0. 0. 0. 0. 0. 0. 0. 0. 0. 0. 0. 0. 0. 0.
      1.09890113e-02 1.09890113e-02 0. 0. 0. 0. 0. 0. 0. 0. 0. 0. 0. 0.
      0. 0. 0. 0. 0. 1.09890113e-02 0. 0. 0. 0. 0. 0. 0. 0. 0. 0. 0. 0.
      0. 0. 0. 0. 0. 0. 0. 1.09890113e-02 0. 0. 1.09890113e-02 0. 0. 0.
      0. 0. 0. 0. 0. 0. 0. 0. 0. 0. 0. 0. 0. 0. 0. 0. 0. 0. 0. 0. 0. 0.
      0. 0. 0. 0. 0. 0. 0. 0. 0. 0. 0. 0. 0. 0. 1.09890113e-02 0. 0. 0.
      0. 0. 0. 0. 1.09890113e-02 0. 0. 2.19780225e-02 0. 0. 0.
      1.09890113e-02 0. 0. 0. 0. 0. 0. 0. 0. 0. 1.09890113e-02 0. 0. 0.
      0. 0. 0. 0. 0. 0. 0. 0. 0. 0. 0. 0. 0. 0. 1.09890113e-02 0. 0. 0.
      0. 0.</_>
    <_>
      0. 0. 0. 0. 0. 0. 0. 0. 0. 0. 0. 0. 0. 0. 0. 1.02040814e-02 0. 0.
      0. 0. 0. 0. 0. 1.02040814e-02 0. 0. 0. 0. 0. 0. 0. 0. 0. 0. 0. 0.
      1.02040814e-02 0. 0. 0. 0. 0. 0. 0. 1.02040814e-02 0.
      1.02040814e-02 0. 0. 0. 0. 0. 0. 0. 0. 1.02040814e-02 0. 0. 0. 0.
      1.02040814e-02 0. 0. 0. 0. 0. 0. 0. 0. 0. 0. 0. 0. 0. 0. 0.
      2.04081628e-02 0. 0. 0. 0. 0. 1.02040814e-02 3.06122452e-02 0. 0.
      0. 0. 0. 0. 0. 0. 0. 0. 0. 0. 1.02040814e-02 0. 0. 0. 0. 0. 0. 0.
      0. 0. 0. 1.02040814e-02 0. 0. 0. 0. 0. 0. 0. 0. 0. 0. 0. 0. 0. 0.
      0. 0. 0. 0. 0. 0. 0. 0. 0. 0. 0. 0. 0. 0. 0. 0. 1.02040814e-02 0.
      0. 0. 0. 0. 1.02040814e-02 2.04081628e-02 0. 0. 0. 0. 0.
      1.02040814e-02 0. 0. 0. 0. 0. 0. 0. 0. 0. 0. 0. 0. 0. 0. 0. 0. 0.
      0. 0. 0. 0. 0. 0. 0. 1.02040814e-02 0. 0. 0. 0. 1.02040814e-02
      3.06122452e-02 0. 1.02040814e-02 0. 0. 0. 0. 0. 0. 0. 0. 0. 0. 0.
      0. 0. 0. 0. 0. 0. 0. 0. 0. 2.04081628e-02 0. 0. 0. 0.
      1.02040814e-02 0. 0. 0. 1.02040814e-02 0. 0. 0. 0. 0. 0. 0. 0. 0.
      2.04081628e-02 0. 0. 0. 0. 0. 0. 0. 0. 0. 0. 0. 0. 0. 0. 0. 0. 0.
      0. 2.04081628e-02 0. 0. 0. 1.02040814e-02 2.04081628e-02 0. 0. 0.
      0. 0. 0. 0. 1.02040814e-02 0. 0. 0. 0. 0. 0. 0. 0. 0. 0. 0. 0. 0.
      0. 0. 0. 1.02040814e-02 0. 0. 0. 1.02040814e-02 0. 0. 0. 0. 0. 0.
      0. 0. 0. 0. 0. 0. 0. 0. 0. 1.02040814e-02 0. 0. 0. 0. 0.
      1.02040814e-02 0. 0. 0. 0. 0. 1.02040814e-02 0. 0. 0. 0. 0. 0. 0.
      0. 0. 0. 0. 0. 0. 0. 0. 0. 0. 0. 0. 0. 0. 0. 0. 0. 0. 0. 0. 0. 0.
      0. 0. 0. 0. 0. 0. 0. 0. 0. 0. 0. 0. 0. 0. 0. 0. 0. 0. 0.
      1.02040814e-02 0. 0. 0. 0. 0. 0. 1.02040814e-02 0. 0. 0. 0.
      1.02040814e-02 0. 0. 0. 0. 0. 0. 0. 0. 0. 0. 0. 0. 0. 0. 0. 0. 0.
      1.02040814e-02 0. 0. 0. 0. 0. 0. 0. 0. 0. 0. 0. 0. 0. 0. 0. 0. 0.
      0. 0. 1.02040814e-02 0. 0. 0. 0. 0. 0. 0. 0. 0. 2.04081628e-02 0.
      0. 0. 0. 0. 0. 0. 0. 0. 1.02040814e-02 0. 0. 0. 0. 0. 0. 0. 0. 0.
      0. 1.02040814e-02 0. 0. 1.02040814e-02 0. 0. 0. 0. 0. 0. 0. 0. 0.
      0. 0. 0. 0. 0. 0. 0. 0. 0. 0. 0. 0. 0. 0. 0. 0. 0. 0. 0. 0. 0. 0.
      0. 0. 0. 0. 0. 0. 0. 0. 0. 0. 0. 0. 0. 0. 0. 0. 0. 0. 0. 0. 0. 0.
      0. 0. 0. 0. 0. 0. 0. 1.02040814e-02 0. 0. 0. 0. 0. 0. 0. 0. 0. 0.
      0. 0. 0. 0. 0. 0. 0. 0. 0. 0. 0. 0. 0. 0. 1.02040814e-02 0.
      1.02040814e-02 0. 0. 0. 0. 0. 1.02040814e-02 0. 0. 0. 0. 0. 0. 0.
      0. 0. 0. 0. 0. 0. 0. 0. 0. 2.04081628e-02 0. 0. 0. 0. 0. 0. 0. 0.
      0. 0. 0. 1.02040814e-02 0. 0. 0. 0. 0. 0. 0. 1.02040814e-02 0. 0.
      1.02040814e-02 0. 0. 0. 0. 0. 0. 0. 0. 0. 0. 0. 1.02040814e-02 0.
      0. 1.02040814e-02 0. 0. 1.02040814e-02 0. 0. 1.02040814e-02 0. 0.
      0. 0. 2.04081628e-02 0. 0. 0. 0. 0. 0. 0. 0. 1.02040814e-02 0. 0.
      0. 0. 0. 0. 0. 0. 0. 0. 0. 0. 0. 0. 0. 0. 0. 0. 0. 0. 0. 0. 0. 0.
      0. 0. 0. 0. 0. 0. 0. 1.02040814e-02 0. 0. 0. 0. 0. 0. 0. 0. 0. 0.
      0. 1.02040814e-02 0. 0. 0. 0. 0. 0. 0. 0. 1.02040814e-02 0. 0.
      1.02040814e-02 0. 0. 0. 0. 0. 0. 0. 0. 0. 0. 0. 1.02040814e-02 0.
      1.02040814e-02 0. 0. 0. 0. 0. 0. 0. 0. 0. 0. 0. 0. 1.02040814e-02
      0. 0. 0. 0. 0. 0. 0. 0. 0. 0. 0. 0. 0. 0. 0. 1.02040814e-02 0. 0.
      0. 0. 0. 0. 0. 0. 0. 1.02040814e-02 0. 0. 0. 0. 0. 1.02040814e-02
      0. 0. 0. 0. 0. 0. 0. 0. 0. 0. 0. 0. 0. 0. 0. 1.02040814e-02 0. 0.
      1.02040814e-02 1.02040814e-02 1.02040814e-02 0. 0. 0. 0. 0. 0.
      1.02040814e-02 0. 0. 0. 0. 0. 0. 0. 0. 0. 0. 0. 0. 0. 0. 0. 0. 0.
      0. 0. 0. 0. 0. 0. 0. 0. 0. 0. 0. 0. 0. 0. 0. 0. 0. 0. 0. 0. 0. 0.
      0. 0. 0. 0. 0. 0. 0. 0. 0. 0. 0. 0. 0. 0. 0. 0. 0. 0. 0. 0. 0. 0.
      0. 1.02040814e-02 0. 0. 1.02040814e-02 0. 0. 0. 0. 0. 0. 0. 0.
      1.02040814e-02 0. 1.02040814e-02 0. 1.02040814e-02 0. 0. 0. 0. 0.
      0. 0. 0. 0. 0. 0. 0. 0. 0. 0. 0. 0. 0. 0. 0. 0. 0. 0. 0. 0. 0. 0.
      0. 0. 0. 0. 0. 0. 0. 0. 0. 0. 0. 0. 1.02040814e-02 0. 0. 0. 0. 0.
      0. 0. 0. 0. 0. 0. 0. 0. 0. 1.02040814e-02 0. 0. 0. 1.02040814e-02
      0. 0. 0. 0. 0. 0. 0. 0. 0. 0. 0. 0. 0. 0. 0. 0. 0. 0. 0. 0. 0. 0.
      0. 0. 0. 0. 0. 0. 1.02040814e-02 0. 0. 0. 0. 0. 0. 0. 0. 0. 0. 0.
      0. 0. 0. 0. 0. 0. 0. 0. 0. 0. 0. 0. 0. 0. 0. 0. 0. 0. 0. 0. 0. 0.
      0. 0. 0. 0. 0. 0. 0. 0. 0. 0. 0. 2.04081628e-02 0. 0. 0.
      1.02040814e-02 0. 1.02040814e-02 0. 0. 0. 0. 0. 0. 0. 0. 0. 0. 0.
      0. 0. 0. 0. 0. 0. 0. 0. 0. 0. 0. 0. 0. 0. 1.02040814e-02 0. 0. 0.
      0. 0.</_>
    <_>
      1.16279069e-02 0. 2.32558139e-02 0. 0. 0. 0. 0. 0. 0. 0. 0. 0. 0.
      0. 0. 0. 0. 0. 0. 0. 0. 0. 1.16279069e-02 0. 0. 0. 0. 0. 0. 0. 0.
      0. 0. 0. 0. 0. 0. 0. 0. 0. 0. 0. 0. 0. 0. 0. 0. 0. 0. 0. 0. 0. 0.
      0. 0. 0. 0. 0. 0. 0. 0. 0. 0. 0. 0. 0. 0. 0. 0. 0. 0. 0. 0. 0. 0.
      0. 3.48837227e-02 0. 0. 1.16279069e-02 0. 0. 0. 0. 0. 0. 0. 0. 0.
      0. 1.16279069e-02 0. 0. 0. 0. 1.16279069e-02 0. 1.16279069e-02 0.
      0. 0. 0. 0. 0. 0. 0. 0. 0. 0. 0. 0. 0. 1.16279069e-02 0. 0. 0. 0.
      0. 0. 0. 0. 0. 0. 0. 0. 0. 1.16279069e-02 0. 0. 0. 0. 0.
      1.16279069e-02 0. 0. 0. 0. 0. 0. 0. 0. 0. 1.16279069e-02 0. 0. 0.
      0. 0. 0. 0. 0. 0. 0. 0. 0. 0. 0. 0. 0. 0. 0. 0. 0. 0. 0. 0. 0. 0.
      0. 0. 0. 0. 0. 0. 0. 0. 3.48837227e-02 0. 0. 0. 1.16279069e-02 0.
      0. 1.16279069e-02 0. 0. 0. 0. 0. 0. 0. 0. 0. 0. 0. 0. 0. 0. 0. 0.
      0. 0. 0. 0. 0. 0. 0. 0. 0. 0. 0. 0. 0. 0. 0. 0. 0. 0. 0. 0. 0. 0.
      0. 1.16279069e-02 0. 0. 0. 0. 1.16279069e-02 0. 0. 0. 0. 0. 0. 0.
      0. 0. 0. 0. 0. 0. 0. 0. 0. 1.16279069e-02 0. 0. 0. 2.32558139e-02
      0. 0. 0. 0. 0. 0. 0. 1.16279069e-02 0. 0. 2.32558139e-02 0. 0. 0.
      0. 0. 0. 1.16279069e-02 0. 0. 0. 0. 0. 0. 0. 0. 0. 0. 0. 0. 0. 0.
      0. 0. 0. 0. 0. 0. 1.16279069e-02 0. 0. 0. 0. 2.32558139e-02 0. 0.
      0. 0. 0. 0. 0. 0. 0. 0. 0. 0. 0. 0. 0. 0. 0. 0. 0. 0. 0. 0.
      1.16279069e-02 0. 0. 0. 0. 0. 0. 0. 0. 0. 0. 0. 0. 0. 0. 0. 0. 0.
      0. 0. 0. 0. 0. 0. 0. 0. 0. 0. 0. 0. 0. 0. 0. 0. 0. 0. 0. 0. 0. 0.
      0. 0. 0. 0. 0. 0. 0. 0. 0. 0. 0. 0. 0. 0. 0. 0. 0. 0. 0. 0. 0. 0.
      0. 0. 0. 0. 0. 1.16279069e-02 0. 0. 0. 0. 0. 0. 0. 0. 0. 0. 0. 0.
      0. 0. 0. 0. 0. 0. 0. 1.16279069e-02 2.32558139e-02 0. 0. 0. 0. 0.
      0. 0. 0. 0. 0. 0. 0. 0. 0. 1.16279069e-02 0. 0. 0. 0. 0. 0. 0. 0.
      0. 0. 0. 0. 0. 0. 0. 0. 0. 0. 0. 0. 0. 0. 0. 0. 0. 0. 0. 0. 0. 0.
      0. 0. 0. 0. 0. 0. 0. 1.16279069e-02 0. 0. 0. 0. 0. 0. 0. 0. 0. 0.
      0. 0. 0. 0. 0. 0. 0. 0. 0. 0. 0. 0. 0. 0. 0. 0. 0. 0. 0. 0. 0. 0.
      0. 1.16279069e-02 0. 0. 0. 0. 1.16279069e-02 1.16279069e-02 0. 0.
      0. 2.32558139e-02 0. 0. 0. 0. 0. 0. 0. 0. 0. 0. 1.16279069e-02
      1.16279069e-02 0. 0. 0. 0. 0. 0. 0. 0. 0. 0. 0. 0. 0. 0. 0. 0. 0.
      0. 0. 0. 0. 0. 0. 1.16279069e-02 0. 0. 0. 0. 0. 0. 0. 0. 0. 0. 0.
      0. 0. 1.16279069e-02 0. 0. 0. 0. 1.16279069e-02 0. 0. 0. 0. 0. 0.
      1.16279069e-02 0. 0. 0. 0. 0. 0. 0. 0. 0. 0. 0. 0. 0. 0. 0. 0. 0.
      0. 0. 0. 0. 0. 0. 0. 0. 0. 0. 0. 0. 0. 0. 0. 0. 0. 1.16279069e-02
      0. 1.16279069e-02 0. 0. 0. 0. 1.16279069e-02 0. 2.32558139e-02 0.
      0. 0. 0. 0. 0. 0. 0. 0. 0. 0. 0. 0. 1.16279069e-02 0. 0. 0. 0. 0.
      0. 0. 0. 0. 0. 0. 0. 0. 0. 0. 0. 1.16279069e-02 0. 0. 0. 0. 0. 0.
      0. 0. 0. 0. 0. 0. 1.16279069e-02 0. 0. 0. 0. 0. 0. 0.
      1.16279069e-02 0. 0. 0. 0. 0. 0. 0. 0. 0. 0. 0. 0. 0. 0.
      1.16279069e-02 0. 0. 0. 0. 0. 0. 0. 0. 0. 0. 0. 0. 0. 0. 0. 0. 0.
      1.16279069e-02 0. 0. 0. 0. 0. 0. 0. 0. 1.16279069e-02 0.
      1.16279069e-02 0. 0. 0. 0. 0. 0. 0. 0. 0. 0. 0. 0. 0. 0. 0. 0. 0.
      3.48837227e-02 0. 0. 0. 0. 0. 0. 0. 0. 0. 0. 0. 1.16279069e-02 0.
      0. 0. 0. 0. 1.16279069e-02 0. 0. 0. 0. 0. 0. 0. 0. 0.
      2.32558139e-02 0. 0. 0. 0. 0. 0. 0. 0. 0. 0. 0. 0. 0. 0. 0. 0. 0.
      0. 1.16279069e-02 0. 0. 1.16279069e-02 0. 0. 1.16279069e-02 0.
      1.16279069e-02 0. 0. 0. 0. 0. 0. 0. 0. 0. 0. 0. 0. 0. 0. 0. 0. 0.
      0. 0. 0. 0. 0. 0. 0. 0. 0. 0. 0. 0. 0. 0. 0. 0. 0. 0. 0. 0. 0. 0.
      0. 0. 0. 0. 0. 1.16279069e-02 0. 0. 0. 0. 0. 0. 0. 0. 0. 0. 0. 0.
      0. 0. 0. 0. 0. 0. 0. 0. 0. 0. 0. 0. 0. 0. 0. 0. 2.32558139e-02 0.
      0. 0. 0. 0. 0. 0. 0. 0. 0. 0. 0. 0. 0. 0. 0. 0. 0. 0. 0. 0. 0. 0.
      0. 0. 0. 0. 0. 0. 1.16279069e-02 0. 0. 1.16279069e-02 0. 0. 0.
      1.16279069e-02 0. 0. 0. 0. 0. 0. 0. 0. 0. 0. 1.16279069e-02 0. 0.
      0. 0. 0. 0. 0. 0. 0. 1.16279069e-02 0. 0. 0. 0. 0. 0. 0. 0. 0. 0.
      0. 0. 0. 0. 0. 0. 0. 0. 0. 0. 0. 0. 0. 0. 0. 0. 0. 0.
      2.32558139e-02 0. 0. 0. 0. 0. 0. 0. 0. 0. 0. 0. 0. 0. 0.
      1.16279069e-02 0. 0. 0. 0. 0. 0. 0. 0. 0. 0. 0. 0. 0. 0.
      1.16279069e-02 0. 0. 0. 0. 0. 0. 0. 0. 0. 0. 0. 0. 0. 0. 0. 0. 0.
      0. 0. 0. 0. 0. 0. 0. 0. 0. 0. 0. 0. 0. 0.</_>
    <_>
      0. 6.57894742e-03 6.57894742e-03 0. 0. 0. 0. 0. 0. 6.57894742e-03
      0. 0. 0. 0. 0. 6.57894742e-03 6.57894742e-03 0. 0. 0. 0. 0.
      6.57894742e-03 0. 0. 0. 0. 0. 6.57894742e-03 0. 0. 0. 0. 0. 0. 0.
      0. 0. 6.57894742e-03 0. 0. 0. 0. 0. 0. 0. 0. 0. 0. 0. 0. 0. 0. 0.
      0. 0. 6.57894742e-03 6.57894742e-03 0. 6.57894742e-03
      6.57894742e-03 0. 6.57894742e-03 0. 0. 0. 0. 6.57894742e-03 0. 0.
      0. 0. 0. 0. 6.57894742e-03 0. 6.57894742e-03 6.57894742e-03 0. 0.
      0. 0. 0. 0. 0. 0. 0. 0. 0. 0. 0. 0. 0. 0. 0. 6.57894742e-03
      6.57894742e-03 6.57894742e-03 0. 0. 0. 0. 0. 0. 0. 0.
      6.57894742e-03 0. 0. 0. 0. 1.97368413e-02 0. 0. 0. 0. 0. 0. 0. 0.
      6.57894742e-03 0. 0. 0. 0. 0. 0. 0. 0. 0. 0. 0. 0. 6.57894742e-03
      6.57894742e-03 0. 0. 0. 0. 0. 6.57894742e-03 0. 0. 0. 0. 0. 0. 0.
      0. 0. 0. 0. 0. 0. 0. 0. 0. 0. 0. 0. 0. 0. 0. 0. 0. 0.
      6.57894742e-03 0. 0. 0. 0. 6.57894742e-03 0. 0. 0. 0. 0.
      6.57894742e-03 0. 0. 0. 6.57894742e-03 0. 0. 6.57894742e-03 0. 0.
      0. 0. 0. 0. 0. 0. 0. 0. 0. 0. 0. 0. 0. 0. 0. 0. 0. 0. 0. 0. 0. 0.
      0. 0. 0. 0. 0. 0. 0. 0. 0. 0. 0. 0. 0. 0. 0. 1.31578948e-02 0. 0.
      0. 0. 0. 0. 0. 6.57894742e-03 6.57894742e-03 0. 0. 0. 0. 0. 0. 0.
      0. 0. 0. 0. 0. 0. 6.57894742e-03 0. 0. 0. 0. 0. 6.57894742e-03 0.
      0. 0. 0. 0. 0. 0. 0. 0. 0. 0. 0. 0. 0. 6.57894742e-03 0. 0. 0. 0.
      6.57894742e-03 0. 0. 0. 0. 1.31578948e-02 0. 6.57894742e-03 0. 0.
      0. 0. 0. 0. 0. 0. 0. 0. 0. 0. 0. 6.57894742e-03 0. 0. 0. 0. 0. 0.
      0. 0. 0. 0. 6.57894742e-03 0. 0. 0. 0. 0. 0. 0. 0. 0. 0. 0. 0. 0.
      0. 0. 0. 0. 0. 0. 0. 0. 6.57894742e-03 0. 0. 0. 0. 0. 0. 0. 0. 0.
      0. 0. 0. 0. 0. 0. 0. 0. 0. 0. 0. 0. 0. 0. 0. 0. 1.31578948e-02 0.
      0. 0. 0. 0. 0. 6.57894742e-03 0. 0. 6.57894742e-03 0. 0. 0. 0. 0.
      0. 0. 0. 0. 0. 0. 0. 1.31578948e-02 6.57894742e-03 0. 0. 0. 0. 0.
      0. 6.57894742e-03 0. 0. 0. 6.57894742e-03 0. 0. 0. 0. 0. 0. 0. 0.
      0. 0. 0. 0. 0. 0. 0. 0. 6.57894742e-03 0. 0. 0. 0. 0. 0. 0. 0.
      6.57894742e-03 0. 0. 0. 0. 0. 6.57894742e-03 0. 6.57894742e-03 0.
      0. 0. 0. 0. 6.57894742e-03 0. 0. 1.97368413e-02 0. 0. 0. 0. 0. 0.
      1.97368413e-02 0. 0. 0. 0. 0. 0. 0. 0. 0. 0. 0. 0. 0. 0. 0. 0. 0.
      0. 0. 6.57894742e-03 0. 0. 0. 0. 0. 0. 0. 0. 0. 0. 0.
      6.57894742e-03 0. 0. 6.57894742e-03 0. 6.57894742e-03 0. 0. 0. 0.
      0. 0. 0. 6.57894742e-03 0. 0. 0. 6.57894742e-03 0. 0. 0. 0. 0. 0.
      0. 0. 0. 0. 0. 0. 0. 0. 1.31578948e-02 0. 6.57894742e-03 0. 0. 0.
      0. 0. 6.57894742e-03 0. 0. 1.97368413e-02 6.57894742e-03 0. 0. 0.
      0. 0. 0. 0. 0. 0. 0. 6.57894742e-03 0. 0. 6.57894742e-03 0. 0. 0.
      0. 0. 0. 0. 0. 0. 1.97368413e-02 0. 0. 0. 0. 0. 6.57894742e-03 0.
      0. 0. 0. 0. 0. 0. 6.57894742e-03 0. 0. 0. 0. 6.57894742e-03 0. 0.
      0. 6.57894742e-03 0. 0. 6.57894742e-03 0. 0. 0. 0. 6.57894742e-03
      0. 0. 0. 0. 6.57894742e-03 0. 0. 0. 0. 0. 0. 0. 0. 0. 0. 0. 0.
      6.57894742e-03 0. 0. 0. 0. 0. 0. 0. 0. 0. 0. 0. 0. 0. 0. 0. 0. 0.
      6.57894742e-03 0. 0. 1.31578948e-02 0. 0. 0. 0. 0. 0. 0. 0. 0. 0.
      0. 0. 0. 6.57894742e-03 0. 0. 0. 0. 0. 0. 0. 0. 0. 0. 0. 0. 0. 0.
      0. 0. 6.57894742e-03 0. 0. 0. 0. 0. 0. 0. 0. 0. 0. 6.57894742e-03
      0. 6.57894742e-03 0. 0. 0. 6.57894742e-03 0. 0. 0. 1.31578948e-02
      0. 0. 0. 0. 0. 0. 0. 0. 0. 0. 0. 0. 0. 0. 0. 0. 0. 6.57894742e-03
      0. 0. 6.57894742e-03 0. 1.31578948e-02 0. 0. 0. 0. 0. 0. 0. 0.
      6.57894742e-03 0. 0. 0. 0. 0. 0. 0. 0. 0. 0. 0. 6.57894742e-03 0.
      0. 0. 0. 0. 0. 0. 0. 0. 0. 0. 6.57894742e-03 0. 0. 0. 0. 0.
      3.28947380e-02 0. 0. 0. 0. 0. 0. 0. 0. 0. 0. 0. 6.57894742e-03 0.
      0. 0. 1.31578948e-02 0. 0. 0. 0. 0. 0. 0. 0. 0. 0. 6.57894742e-03
      6.57894742e-03 0. 0. 0. 0. 0. 0. 0. 0. 0. 6.57894742e-03 0. 0. 0.
      0. 0. 0. 0. 0. 0. 6.57894742e-03 0. 0. 0. 0. 0. 0. 0. 0. 0. 0. 0.
      0. 0. 0. 0. 0. 0. 6.57894742e-03 0. 0. 0. 0. 6.57894742e-03 0. 0.
      0. 0. 6.57894742e-03 6.57894742e-03 6.57894742e-03 6.57894742e-03
      6.57894742e-03 0. 6.57894742e-03 0. 0. 0. 0. 0. 0. 0. 0. 0. 0. 0.
      0. 0. 0. 0. 0. 0. 1.31578948e-02 0. 6.57894742e-03 0. 0. 0. 0. 0.
      0. 0. 0. 0. 0. 0. 6.57894742e-03 6.57894742e-03 0. 0. 0. 0. 0. 0.
      0. 0. 0. 0. 0. 0. 0. 6.57894742e-03 0. 0. 6.57894742e-03 0. 0. 0.
      0. 0. 0. 0. 0. 0. 0. 0. 0. 0. 0. 0. 0. 0. 0. 0. 0. 0. 0. 0.
      6.57894742e-03 0. 0. 1.97368413e-02 0. 0. 0. 0. 6.57894742e-03 0.
      0. 0. 0. 0. 0. 0. 0. 0. 0. 0. 0. 0. 0. 0. 0. 0. 0. 0. 0. 0. 0.
      6.57894742e-03 0. 0. 0. 0. 0. 0. 0. 0. 0. 0. 0. 0. 0. 0. 0. 0. 0.
      0. 0. 0. 0. 0. 0. 6.57894742e-03 0. 0. 0. 0. 0. 6.57894742e-03 0.
      0. 0. 6.57894742e-03 0. 0. 0. 0. 0. 0. 0. 0. 0. 6.57894742e-03 0.
      0. 0. 0. 0. 0. 0. 0. 0. 0. 0. 0. 0. 0. 6.57894742e-03 0. 0. 0. 0.
      0. 0. 0. 0. 0. 0. 6.57894742e-03 0. 6.57894742e-03 0. 0. 0. 0. 0.
      0. 0. 0. 0. 0. 6.57894742e-03 0. 0. 0. 0. 0. 0. 0.</_>
    <_>
      0. 0. 7.40740728e-03 0. 0. 0. 0. 0. 0. 0. 0. 0. 7.40740728e-03 0.
      0. 7.40740728e-03 0. 0. 0. 0. 0. 0. 7.40740728e-03 0. 0. 0. 0. 0.
      0. 0. 0. 0. 0. 0. 7.40740728e-03 0. 0. 7.40740728e-03
      7.40740728e-03 0. 0. 0. 0. 0. 0. 0. 0. 0. 0. 0. 0. 0. 0. 0. 0. 0.
      0. 7.40740728e-03 0. 7.40740728e-03 7.40740728e-03 0. 0. 0. 0. 0.
      0. 7.40740728e-03 0. 0. 0. 0. 0. 0. 7.40740728e-03 1.48148146e-02
      0. 7.40740728e-03 0. 0. 0. 0. 0. 0. 0. 0. 0. 0. 0. 0. 0. 0. 0. 0.
      0. 7.40740728e-03 1.48148146e-02 0. 0. 0. 7.40740728e-03 0. 0. 0.
      0. 0. 0. 0. 0. 0. 0. 1.48148146e-02 0. 0. 0. 0. 0. 0. 0. 0.
      7.40740728e-03 0. 0. 0. 0. 0. 0. 7.40740728e-03 0. 0. 0. 0. 0. 0.
      0. 0. 0. 0. 0. 0. 0. 0. 0. 1.48148146e-02 7.40740728e-03 0.
      7.40740728e-03 0. 0. 0. 0. 0. 0. 0. 0. 0. 0. 0. 0. 0. 0. 0.
      7.40740728e-03 0. 0. 0. 7.40740728e-03 0. 0. 0. 0. 0. 0. 0. 0. 0.
      7.40740728e-03 0. 0. 0. 0. 0. 0. 0. 0. 0. 0. 7.40740728e-03 0. 0.
      0. 0. 0. 0. 0. 7.40740728e-03 0. 0. 0. 0. 0. 0. 0. 0. 0. 0. 0. 0.
      0. 1.48148146e-02 0. 0. 0. 0. 0. 0. 0. 0. 0. 0. 0. 0. 0. 0. 0. 0.
      0. 0. 0. 0. 0. 0. 0. 0. 0. 0. 0. 0. 0. 0. 0. 0. 7.40740728e-03 0.
      0. 0. 0. 7.40740728e-03 7.40740728e-03 0. 0. 0. 0. 0. 0. 0. 0. 0.
      0. 0. 0. 0. 0. 0. 0. 0. 1.48148146e-02 0. 0. 0. 0. 0. 0. 0. 0. 0.
      7.40740728e-03 0. 0. 7.40740728e-03 0. 0. 0. 0. 0. 0. 0. 0. 0. 0.
      7.40740728e-03 0. 0. 0. 0. 0. 0. 0. 0. 0. 0. 0. 0. 0. 0. 0. 0. 0.
      0. 0. 0. 0. 0. 0. 0. 0. 0. 0. 0. 0. 0. 0. 0. 0. 0. 0. 0. 0. 0. 0.
      0. 0. 0. 0. 0. 0. 0. 0. 0. 0. 0. 0. 0. 0. 0. 0. 0. 0. 0. 0. 0. 0.
      0. 0. 0. 0. 0. 0. 0. 0. 0. 0. 0. 7.40740728e-03 0. 0. 0. 0. 0. 0.
      0. 7.40740728e-03 0. 0. 0. 0. 1.48148146e-02 0. 0. 0. 0. 0. 0. 0.
      1.48148146e-02 0. 0. 0. 0. 0. 7.40740728e-03 0. 0. 0. 0. 0. 0. 0.
      0. 0. 0. 0. 0. 0. 7.40740728e-03 7.40740728e-03 0. 0. 0. 0. 0. 0.
      0. 0. 0. 0. 0. 0. 0. 0. 7.40740728e-03 0. 0. 7.40740728e-03 0. 0.
      0. 0. 0. 0. 0. 0. 0. 0. 0. 0. 0. 0. 1.48148146e-02 0. 0. 0. 0. 0.
      0. 0. 0. 0. 7.40740728e-03 0. 0. 0. 0. 0. 0. 0. 0. 0. 0. 0. 0. 0.
      0. 0. 0. 0. 0. 0. 0. 0. 0. 7.40740728e-03 0. 7.40740728e-03
      7.40740728e-03 0. 0. 0. 0. 0. 0. 7.40740728e-03 0. 7.40740728e-03
      0. 0. 7.40740728e-03 0. 0. 0. 0. 0. 0. 0. 0. 0. 0. 0. 0. 0. 0. 0.
      7.40740728e-03 0. 0. 0. 0. 0. 0. 0. 0. 0. 0. 7.40740728e-03 0. 0.
      0. 0. 0. 0. 0. 0. 0. 0. 1.48148146e-02 0. 0. 0. 0. 0. 0. 0. 0. 0.
      0. 0. 0. 0. 7.40740728e-03 0. 0. 7.40740728e-03 0. 0.
      7.40740728e-03 0. 0. 0. 7.40740728e-03 0. 0. 0. 0. 0. 0. 0. 0.
      1.48148146e-02 0. 0. 0. 0. 0. 0. 7.40740728e-03 0. 0. 0. 0. 0. 0.
      0. 0. 7.40740728e-03 7.40740728e-03 0. 0. 0. 0. 0. 0. 0.
      7.40740728e-03 0. 7.40740728e-03 0. 0. 0. 0. 0. 0. 0. 0. 0. 0. 0.
      0. 0. 7.40740728e-03 0. 0. 0. 0. 0. 0. 0. 7.40740728e-03 0. 0. 0.
      0. 0. 0. 0. 0. 0. 0. 0. 0. 0. 0. 0. 0. 0. 0. 0. 0. 0. 0. 0. 0. 0.
      7.40740728e-03 0. 0. 0. 1.48148146e-02 0. 0. 7.40740728e-03 0. 0.
      0. 0. 0. 0. 0. 0. 0. 0. 0. 0. 0. 7.40740728e-03 0. 0.
      7.40740728e-03 0. 0. 7.40740728e-03 0. 0. 0. 0. 0. 0. 0. 0. 0. 0.
      0. 0. 0. 0. 0. 0. 0. 0. 2.96296291e-02 0. 0. 0. 0. 0.
      7.40740728e-03 0. 0. 0. 0. 0. 0. 0. 1.48148146e-02 0. 0. 0. 0. 0.
      0. 0. 0. 0. 0. 0. 0. 0. 0. 0. 0. 7.40740728e-03 0. 0. 0. 0.
      7.40740728e-03 0. 0. 0. 0. 0. 0. 0. 7.40740728e-03 7.40740728e-03
      0. 0. 0. 0. 0. 0. 0. 2.22222209e-02 0. 0. 0. 0. 0. 0. 0. 0. 0. 0.
      0. 0. 0. 0. 0. 0. 0. 0. 1.48148146e-02 0. 0. 0. 7.40740728e-03 0.
      0. 0. 0. 0. 0. 0. 0. 0. 0. 0. 0. 0. 0. 0. 7.40740728e-03 0. 0. 0.
      0. 0. 0. 0. 0. 0. 0. 0. 0. 0. 0. 0. 0. 0. 7.40740728e-03 0. 0. 0.
      0. 7.40740728e-03 7.40740728e-03 0. 0. 0. 0. 0. 0. 0. 0. 0. 0. 0.
      0. 0. 0. 0. 7.40740728e-03 0. 0. 0. 0. 0. 0. 0. 0. 0. 0. 0.
      2.22222209e-02 0. 0. 7.40740728e-03 0. 0. 0. 0. 1.48148146e-02 0.
      0. 0. 0. 0. 0. 0. 0. 0. 0. 0. 0. 0. 0. 7.40740728e-03 0. 0. 0.
      7.40740728e-03 0. 0. 0. 0. 7.40740728e-03 0. 0. 1.48148146e-02 0.
      0. 0. 0. 0. 0. 0. 0. 0. 0. 0. 0. 0. 0. 0. 0. 0. 0. 0. 0. 0. 0. 0.
      2.96296291e-02 0. 0. 0. 0. 7.40740728e-03 0. 0. 0. 0. 0. 0. 0. 0.
      0. 0. 0. 0. 0. 0. 0. 0. 0. 0. 0. 7.40740728e-03 0. 0. 0.
      7.40740728e-03 0. 0. 0. 0. 0. 0. 0. 0. 0. 0. 0. 0. 0. 0. 0. 0. 0.
      0. 0. 0. 0. 0. 0. 0. 0. 0. 0. 0. 0. 0. 0. 0. 0. 0. 0. 0. 0. 0. 0.
      0. 0. 0. 1.48148146e-02 0. 1.48148146e-02 0. 0. 0. 0. 0. 0. 0.
      7.40740728e-03 0. 0. 0. 0. 0. 0. 0. 0. 0. 0. 0. 0. 0. 0. 0. 0. 0.
      7.40740728e-03 0. 0. 0. 7.40740728e-03 0. 0. 0. 0. 0. 0.
      7.40740728e-03 0. 7.40740728e-03 0. 0. 0. 0. 0.</_>
    <_>
      0. 0. 6.99300691e-03 0. 0. 0. 0. 0. 0. 0. 0. 0. 0. 0. 0. 0. 0. 0.
      0. 0. 0. 0. 0. 0. 0. 0. 0. 0. 0. 0. 6.99300691e-03 0.
      6.99300691e-03 0. 0. 0. 0. 0. 6.99300691e-03 0. 0. 0. 0. 0. 0. 0.
      0. 0. 0. 0. 0. 0. 0. 0. 0. 0. 1.39860138e-02 6.99300691e-03 0. 0.
      6.99300691e-03 0. 0. 0. 0. 0. 0. 0. 0. 0. 0. 0. 0. 0.
      1.39860138e-02 0. 0. 6.99300691e-03 0. 0. 0. 0. 0. 0. 0. 0. 0. 0.
      0. 0. 0. 0. 0. 0. 0. 6.99300691e-03 6.99300691e-03 0. 0. 0. 0. 0.
      0. 0. 0. 0. 6.99300691e-03 0. 0. 0. 0. 0. 0. 0. 0. 0. 0. 0. 0. 0.
      6.99300691e-03 0. 0. 0. 0. 0. 0. 0. 0. 0. 0. 0. 0. 0. 0. 0. 0. 0.
      0. 6.99300691e-03 0. 0. 0. 0. 6.99300691e-03 0. 0. 0. 0. 0. 0. 0.
      0. 0. 0. 0. 0. 0. 0. 0. 0. 0. 2.09790207e-02 0. 0. 0. 0. 0. 0. 0.
      0. 0. 0. 0. 0. 0. 6.99300691e-03 0. 0. 0. 0. 0. 0. 0.
      6.99300691e-03 0. 0. 0. 0. 0. 0. 0. 0. 0. 0. 0. 0. 0.
      1.39860138e-02 0. 0. 0. 0. 0. 0. 0. 0. 0. 0. 0. 0. 0. 0. 0. 0.
      6.99300691e-03 0. 0. 0. 0. 0. 0. 0. 0. 1.39860138e-02 0.
      6.99300691e-03 0. 0. 0. 0. 0. 0. 0. 0. 0. 0. 0. 0. 6.99300691e-03
      0. 0. 0. 0. 0. 0. 0. 0. 0. 0. 1.39860138e-02 0. 0. 6.99300691e-03
      0. 0. 0. 0. 6.99300691e-03 0. 0. 6.99300691e-03 0. 0. 0. 0. 0. 0.
      0. 0. 0. 0. 0. 0. 0. 0. 0. 0. 0. 0. 0. 0. 0. 0. 0. 6.99300691e-03
      0. 0. 0. 0. 0. 0. 0. 0. 0. 0. 0. 0. 0. 0. 0. 0. 0. 0. 0. 0. 0. 0.
      0. 0. 0. 0. 0. 0. 0. 0. 0. 6.99300691e-03 0. 0. 0. 0. 0. 0. 0. 0.
      0. 0. 0. 0. 0. 0. 0. 0. 0. 0. 0. 0. 0. 0. 0. 0. 0. 0. 0. 0. 0. 0.
      0. 0. 0. 0. 0. 0. 0. 0. 0. 0. 0. 0. 0. 0. 0. 6.99300691e-03 0. 0.
      0. 0. 0. 0. 0. 6.99300691e-03 0. 6.99300691e-03 0. 0.
      1.39860138e-02 0. 0. 0. 6.99300691e-03 0. 0. 0. 1.39860138e-02 0.
      0. 0. 0. 0. 0. 0. 0. 0. 0. 0. 0. 0. 0. 0. 0. 6.99300691e-03 0. 0.
      0. 0. 0. 0. 6.99300691e-03 0. 0. 0. 0. 0. 2.09790207e-02 0. 0. 0.
      0. 0. 0. 0. 6.99300691e-03 6.99300691e-03 0. 0. 0. 0. 0. 0. 0.
      2.09790207e-02 0. 6.99300691e-03 0. 6.99300691e-03 0. 0. 0. 0.
      6.99300691e-03 0. 0. 0. 0. 0. 0. 0. 6.99300691e-03 0. 0. 0. 0. 0.
      0. 0. 0. 0. 6.99300691e-03 0. 0. 6.99300691e-03 0. 0. 0. 0. 0. 0.
      0. 0. 0. 6.99300691e-03 0. 6.99300691e-03 0. 0. 0. 0. 0. 0. 0. 0.
      0. 6.99300691e-03 0. 0. 6.99300691e-03 0. 0. 0. 0. 0. 0. 0. 0. 0.
      0. 0. 0. 0. 6.99300691e-03 0. 6.99300691e-03 0. 0. 0. 0. 0. 0. 0.
      0. 0. 0. 0. 6.99300691e-03 0. 6.99300691e-03 0. 0. 0.
      6.99300691e-03 0. 0. 0. 6.99300691e-03 0. 0. 0. 0. 0.
      6.99300691e-03 0. 0. 0. 0. 0. 0. 0. 6.99300691e-03 0.
      1.39860138e-02 0. 0. 0. 6.99300691e-03 0. 0. 0. 1.39860138e-02 0.
      0. 0. 1.39860138e-02 0. 0. 0. 0. 6.99300691e-03 0. 0. 0.
      6.99300691e-03 0. 0. 6.99300691e-03 0. 0. 0. 0. 0. 0.
      1.39860138e-02 0. 0. 6.99300691e-03 0. 0. 0. 0. 0. 0.
      6.99300691e-03 6.99300691e-03 0. 0. 0. 0. 0. 0. 0. 0. 0. 0. 0. 0.
      0. 0. 0. 0. 0. 0. 0. 0. 0. 0. 6.99300691e-03 6.99300691e-03 0. 0.
      0. 0. 0. 0. 0. 0. 0. 0. 0. 0. 6.99300691e-03 0. 0. 0. 0.
      6.99300691e-03 0. 0. 0. 0. 0. 0. 0. 0. 0. 0. 6.99300691e-03
      1.39860138e-02 0. 0. 6.99300691e-03 0. 0. 0. 0. 0. 0. 0. 0. 0. 0.
      0. 0. 0. 0. 0. 0. 6.99300691e-03 0. 6.99300691e-03 6.99300691e-03
      6.99300691e-03 0. 0. 0. 0. 0. 0. 0. 0. 0. 0. 0. 0. 0. 0. 0. 0. 0.
      0. 0. 0. 0. 0. 0. 0. 0. 0. 0. 0. 0. 0. 0. 6.99300691e-03 0. 0.
      6.99300691e-03 0. 0. 0. 0. 0. 0. 0. 0. 1.39860138e-02 0. 0. 0. 0.
      0. 0. 6.99300691e-03 0. 0. 0. 0. 0. 0. 0. 6.99300691e-03 0. 0.
      1.39860138e-02 0. 0. 0. 0. 0. 0. 6.99300691e-03 0. 6.99300691e-03
      0. 0. 0. 0. 0. 0. 2.09790207e-02 0. 0. 0. 0. 0. 0. 0. 0.
      6.99300691e-03 0. 6.99300691e-03 0. 0. 6.99300691e-03 0. 0. 0. 0.
      0. 0. 0. 6.99300691e-03 0. 0. 0. 0. 0. 0. 0. 0. 0. 6.99300691e-03
      0. 0. 0. 0. 0. 0. 0. 0. 0. 0. 0. 0. 0. 0. 0. 0. 0. 6.99300691e-03
      0. 0. 0. 0. 6.99300691e-03 0. 0. 0. 0. 0. 0. 0. 0. 0. 0. 0. 0. 0.
      0. 0. 0. 0. 0. 0. 0. 0. 0. 6.99300691e-03 0. 0. 0. 0. 0.
      6.99300691e-03 0. 0. 0. 0. 0. 0. 0. 6.99300691e-03 0. 0.
      6.99300691e-03 0. 0. 0. 0. 0. 0. 0. 0. 0. 0. 0. 1.39860138e-02 0.
      0. 0. 0. 0. 0. 0. 0. 0. 0. 0. 0. 0. 0. 0. 0. 0. 0. 0. 0. 0.
      6.99300691e-03 0. 0. 6.99300691e-03 0. 6.99300691e-03 0. 0.
      6.99300691e-03 0. 0. 0. 0. 0. 0. 0. 0. 6.99300691e-03 0. 0. 0.
      6.99300691e-03 0. 0. 0. 0. 0. 0. 0. 0. 0. 0. 1.39860138e-02 0. 0.
      6.99300691e-03 6.99300691e-03 0. 0. 0. 0. 0. 0. 0. 0. 0. 0. 0. 0.
      0. 0. 0. 0. 0. 0. 0. 0. 0. 0. 0. 0. 0. 0. 0. 0. 0. 6.99300691e-03
      0. 0. 6.99300691e-03 0. 0. 0. 0. 0. 0. 0. 0. 0. 0. 0. 0. 0. 0. 0.
      0. 0. 0. 6.99300691e-03 0. 0. 0. 0. 0. 0. 0. 0. 0. 0. 0. 0.
      1.39860138e-02 0. 0. 0. 0. 6.99300691e-03 0. 0. 0. 0. 0. 0. 0. 0.
      6.99300691e-03 0. 0. 6.99300691e-03 0. 0. 0. 0. 0. 0. 0. 0. 0. 0.
      0. 0. 0. 0.</_>
    <_>
      0. 0. 0. 0. 0. 0. 0. 0. 0. 0. 0. 0. 0. 1.76991150e-02 0. 0.
      8.84955749e-03 0. 0. 0. 0. 0. 0. 0. 0. 0. 0. 0. 0. 0. 0. 0. 0. 0.
      0. 0. 0. 0. 0. 0. 0. 0. 0. 0. 0. 0. 0. 0. 0. 0. 0. 0. 0. 0. 0. 0.
      8.84955749e-03 0. 0. 0. 0. 0. 0. 0. 0. 0. 0. 0. 0. 0. 0. 0. 0. 0.
      1.76991150e-02 0. 0. 8.84955749e-03 0. 0. 0. 0. 0. 0. 0. 0. 0. 0.
      0. 8.84955749e-03 0. 0. 0. 0. 0. 8.84955749e-03 1.76991150e-02 0.
      0. 0. 0. 0. 0. 0. 0. 0. 0. 8.84955749e-03 0. 0. 0. 0. 0. 0. 0. 0.
      0. 0. 0. 0. 2.65486725e-02 0. 0. 0. 0. 0. 0. 0. 0. 0. 0. 0. 0. 0.
      0. 0. 0. 0. 0. 0. 0. 0. 0. 0. 8.84955749e-03 0. 0. 0. 0. 0. 0. 0.
      0. 0. 0. 8.84955749e-03 0. 0. 0. 0. 0. 0. 1.76991150e-02 0. 0. 0.
      0. 0. 0. 0. 0. 0. 0. 0. 0. 0. 8.84955749e-03 0. 0. 0. 0. 0. 0. 0.
      0. 0. 0. 0. 8.84955749e-03 0. 0. 0. 0. 0. 8.84955749e-03 0. 0.
      8.84955749e-03 0. 0. 0. 0. 0. 0. 0. 0. 0. 0. 0. 8.84955749e-03 0.
      0. 0. 0. 0. 0. 0. 0. 0. 0. 0. 0. 0. 0. 8.84955749e-03 0. 0. 0. 0.
      0. 0. 0. 0. 0. 0. 0. 0. 0. 8.84955749e-03 0. 0. 0. 8.84955749e-03
      0. 0. 0. 0. 8.84955749e-03 0. 0. 0. 0. 0. 0. 0. 0. 0. 0. 0. 0. 0.
      0. 0. 0. 0. 0. 0. 0. 0. 0. 0. 0. 0. 0. 0. 0. 0. 0. 0. 0. 0. 0. 0.
      0. 0. 0. 0. 0. 0. 0. 0. 0. 0. 0. 8.84955749e-03 0. 0. 0. 0. 0. 0.
      0. 0. 0. 0. 0. 0. 0. 0. 0. 0. 0. 0. 0. 0. 0. 0. 0. 8.84955749e-03
      0. 0. 0. 0. 0. 0. 0. 0. 0. 0. 0. 0. 0. 0. 0. 0. 0. 0. 0. 0.
      8.84955749e-03 0. 0. 0. 0. 0. 0. 0. 0. 0. 0. 8.84955749e-03 0. 0.
      0. 0. 0. 0. 0. 0. 8.84955749e-03 0. 0. 0. 8.84955749e-03 0. 0. 0.
      0. 0. 0. 0. 1.76991150e-02 0. 8.84955749e-03 0. 0. 1.76991150e-02
      0. 0. 0. 0. 0. 0. 0. 1.76991150e-02 0. 0. 0. 0. 0. 0. 0. 0. 0. 0.
      0. 0. 0. 0. 0. 0. 0. 0. 0. 0. 0. 8.84955749e-03 0. 8.84955749e-03
      0. 0. 0. 0. 0. 0. 0. 0. 0. 0. 0. 8.84955749e-03 0. 0. 0.
      8.84955749e-03 0. 0. 0. 0. 0. 0. 0. 0. 0. 0. 0. 0. 0.
      8.84955749e-03 0. 0. 0. 0. 0. 0. 0. 0. 0. 0. 8.84955749e-03 0. 0.
      0. 0. 0. 0. 0. 0. 0. 0. 0. 0. 0. 0. 0. 0. 0. 0. 8.84955749e-03 0.
      0. 0. 0. 8.84955749e-03 0. 0. 0. 8.84955749e-03 0. 0. 0. 0. 0. 0.
      0. 0. 8.84955749e-03 8.84955749e-03 0. 0. 0. 0. 0. 0. 0. 0. 0. 0.
      0. 0. 0. 0. 8.84955749e-03 0. 0. 0. 0. 0. 0. 0. 0. 0. 0. 0.
      1.76991150e-02 0. 0. 0. 0. 0. 0. 0. 0. 0. 0. 8.84955749e-03 0.
      8.84955749e-03 0. 0. 0. 0. 0. 0. 0. 0. 0. 0. 8.84955749e-03 0. 0.
      0. 0. 1.76991150e-02 0. 0. 0. 0. 0. 0. 0. 0. 0. 0. 0. 0. 0. 0. 0.
      0. 8.84955749e-03 1.76991150e-02 8.84955749e-03 8.84955749e-03
      8.84955749e-03 0. 0. 0. 8.84955749e-03 0. 0. 0. 0. 0. 0. 0. 0. 0.
      0. 0. 0. 0. 0. 0. 8.84955749e-03 0. 0. 0. 0. 8.84955749e-03 0. 0.
      0. 0. 0. 0. 0. 0. 0. 0. 0. 0. 0. 0. 0. 8.84955749e-03 0. 0.
      1.76991150e-02 0. 0. 0. 0. 0. 0. 0. 0. 0. 8.84955749e-03 0. 0. 0.
      0. 0. 0. 0. 0. 0. 0. 0. 8.84955749e-03 0. 0. 0. 0. 0. 0. 0. 0.
      8.84955749e-03 0. 0. 0. 8.84955749e-03 0. 0. 0. 0. 0. 0. 0. 0.
      8.84955749e-03 0. 0. 0. 0. 0. 0. 0. 0. 0. 0. 0. 0. 0. 0. 0. 0. 0.
      0. 0. 0. 0. 0. 0. 0. 0. 0. 8.84955749e-03 0. 0. 0. 0. 0. 0. 0. 0.
      0. 0. 0. 0. 8.84955749e-03 0. 0. 0. 0. 0. 0. 0. 0. 0. 0. 0. 0. 0.
      0. 0. 0. 0. 0. 0. 8.84955749e-03 0. 0. 0. 0. 0. 0. 0. 0. 0.
      8.84955749e-03 0. 8.84955749e-03 0. 0. 0. 8.84955749e-03 0. 0.
      8.84955749e-03 0. 0. 0. 0. 0. 0. 0. 0. 0. 8.84955749e-03 0. 0.
      8.84955749e-03 0. 0. 0. 0. 0. 8.84955749e-03 0. 0. 0.
      8.84955749e-03 0. 0. 0. 0. 0. 0. 0. 0. 0. 0. 0. 0. 0.
      8.84955749e-03 8.84955749e-03 0. 0. 0. 0. 0. 0. 0. 1.76991150e-02
      0. 0. 0. 0. 0. 0. 0. 0. 0. 0. 0. 0. 0. 0. 0. 0. 8.84955749e-03 0.
      0. 0. 0. 0. 0. 0. 0. 0. 0. 0. 0. 0. 0. 0. 0. 0. 0. 0. 0. 0. 0. 0.
      0. 0. 0. 0. 8.84955749e-03 0. 0. 0. 0. 0. 0. 0. 8.84955749e-03 0.
      0. 8.84955749e-03 0. 0. 0. 0. 0. 0. 0. 0. 0. 0. 0. 0. 0. 0. 0. 0.
      0. 0. 0. 0. 0. 0. 0. 0. 0. 0. 0. 8.84955749e-03 0. 0. 0. 0. 0. 0.
      0. 0. 0. 0. 0. 0. 0. 0. 0. 0. 0. 0. 0. 0. 0. 0. 0. 0. 0. 0.
      1.76991150e-02 0. 0. 0. 0. 0. 0. 0. 0. 0. 0. 8.84955749e-03 0.
      8.84955749e-03 0. 0. 0. 0. 0. 0. 0. 8.84955749e-03 0. 0. 0. 0. 0.
      0. 0. 0. 0. 0. 0. 0. 0. 0. 0. 0. 0. 0. 0. 0. 0. 0. 0. 0. 0. 0.
      8.84955749e-03 0. 0. 0. 0. 0. 0. 0. 8.84955749e-03 0. 0. 0. 0. 0.
      0. 0. 8.84955749e-03 0. 0. 0. 0. 0. 0. 0. 0. 0. 0. 8.84955749e-03
      0. 0. 0. 0. 1.76991150e-02 0. 0. 1.76991150e-02 0. 0. 0. 0.
      8.84955749e-03 0. 0. 0. 0. 8.84955749e-03 0. 0. 0. 0. 0. 0. 0. 0.
      0. 0. 0. 0. 8.84955749e-03 0. 0. 0. 0. 0.</_>
    <_>
      0. 0. 5.40540554e-03 0. 0. 0. 0. 0. 0. 0. 0. 0. 0. 0. 0. 0. 0. 0.
      0. 1.08108111e-02 0. 0. 0. 0. 0. 0. 0. 0. 0. 5.40540554e-03 0. 0.
      0. 0. 0. 0. 0. 0. 5.40540554e-03 0. 0. 0. 0. 0. 0. 0. 0. 0. 0. 0.
      0. 0. 0. 0. 0. 0. 0. 5.40540554e-03 0. 0. 5.40540554e-03 0. 0. 0.
      0. 0. 0. 5.40540554e-03 0. 0. 0. 0. 0. 0. 1.62162166e-02 0.
      5.40540554e-03 1.08108111e-02 0. 0. 5.40540554e-03 0. 0. 0. 0. 0.
      5.40540554e-03 0. 0. 0. 0. 0. 0. 0. 0. 5.40540554e-03
      1.08108111e-02 0. 0. 0. 0. 0. 0. 0. 0. 5.40540554e-03
      1.08108111e-02 0. 0. 0. 0. 1.08108111e-02 0. 0. 5.40540554e-03 0.
      0. 5.40540554e-03 0. 0. 0. 0. 0. 0. 0. 0. 0. 5.40540554e-03 0. 0.
      0. 0. 0. 5.40540554e-03 0. 0. 0. 0. 0. 0. 0. 0. 0. 0. 0. 0.
      1.08108111e-02 0. 0. 5.40540554e-03 0. 0. 0. 0. 0. 0. 0. 0. 0. 0.
      0. 5.40540554e-03 1.08108111e-02 0. 0. 0. 1.08108111e-02 0. 0. 0.
      0. 0. 0. 0. 0. 0. 0. 0. 0. 0. 0. 5.40540554e-03 0. 0. 0. 0. 0. 0.
      0. 0. 0. 5.40540554e-03 0. 0. 0. 0. 0. 0. 0. 5.40540554e-03 0. 0.
      0. 0. 0. 0. 0. 0. 0. 5.40540554e-03 0. 0. 0. 0. 5.40540554e-03 0.
      0. 0. 0. 0. 0. 0. 0. 0. 5.40540554e-03 0. 5.40540554e-03 0. 0. 0.
      0. 0. 0. 0. 0. 0. 0. 0. 0. 5.40540554e-03 0. 0. 5.40540554e-03 0.
      0. 0. 5.40540554e-03 0. 0. 0. 0. 0. 0. 0. 0. 0. 0. 0.
      5.40540554e-03 0. 0. 5.40540554e-03 0. 0. 0. 0. 5.40540554e-03 0.
      0. 0. 0. 0. 0. 1.08108111e-02 0. 0. 0. 0. 1.08108111e-02 0.
      5.40540554e-03 0. 0. 0. 0. 5.40540554e-03 0. 0. 0. 0. 0. 0. 0. 0.
      0. 0. 0. 0. 0. 0. 0. 0. 0. 0. 0. 0. 0. 0. 0. 0. 0. 0. 0. 0. 0. 0.
      0. 5.40540554e-03 0. 0. 0. 0. 0. 0. 0. 0. 0. 0. 0. 0. 0.
      5.40540554e-03 0. 0. 0. 0. 0. 0. 0. 0. 0. 0. 0. 0. 0. 0.
      5.40540554e-03 0. 0. 0. 0. 0. 0. 5.40540554e-03 0. 0. 0. 0. 0. 0.
      0. 1.08108111e-02 0. 5.40540554e-03 0. 0. 0. 0. 0. 0. 0. 0. 0. 0.
      0. 0. 1.08108111e-02 5.40540554e-03 0. 0. 0. 0. 0. 0. 0. 0. 0. 0.
      5.40540554e-03 0. 0. 5.40540554e-03 0. 5.40540554e-03 0. 0. 0. 0.
      0. 0. 0. 0. 0. 0. 5.40540554e-03 1.62162166e-02 0. 0.
      5.40540554e-03 0. 0. 0. 0. 0. 5.40540554e-03 0. 0. 0. 0. 0.
      5.40540554e-03 0. 1.62162166e-02 5.40540554e-03 0. 0. 0. 0.
      5.40540554e-03 0. 0. 5.40540554e-03 0. 0. 0. 0. 0. 0.
      1.08108111e-02 0. 0. 0. 0. 0. 0. 0. 0. 0. 0. 0. 0. 0. 0. 0. 0. 0.
      0. 5.40540554e-03 0. 0. 0. 0. 0. 0. 0. 0. 0. 0. 0. 0. 0. 0. 0. 0.
      0. 5.40540554e-03 0. 0. 0. 5.40540554e-03 0. 0. 5.40540554e-03 0.
      0. 5.40540554e-03 5.40540554e-03 0. 0. 0. 0. 0. 0. 0. 0. 0. 0. 0.
      0. 0. 5.40540554e-03 0. 1.08108111e-02 0. 0. 5.40540554e-03 0. 0.
      0. 0. 0. 0. 0. 5.40540554e-03 5.40540554e-03 0. 0. 0. 0. 0.
      5.40540554e-03 0. 0. 0. 0. 5.40540554e-03 0. 0. 5.40540554e-03 0.
      0. 0. 0. 0. 0. 0. 0. 0. 1.08108111e-02 0. 0. 5.40540554e-03 0. 0.
      0. 0. 0. 0. 0. 0. 0. 0. 5.40540554e-03 0. 0. 0. 0. 0.
      5.40540554e-03 0. 0. 1.08108111e-02 0. 0. 0. 5.40540554e-03 0. 0.
      0. 0. 0. 5.40540554e-03 0. 5.40540554e-03 0. 0. 5.40540554e-03 0.
      0. 0. 0. 0. 0. 0. 0. 5.40540554e-03 0. 0. 0. 0. 0. 0. 0. 0. 0. 0.
      0. 0. 0. 5.40540554e-03 0. 0. 0. 0. 0. 5.40540554e-03
      5.40540554e-03 0. 5.40540554e-03 0. 0. 0. 0. 0. 0. 0. 0. 0. 0. 0.
      0. 0. 0. 0. 0. 0. 0. 0. 0. 0. 0. 0. 0. 0. 0. 0. 0. 0. 0. 0. 0. 0.
      0. 0. 0. 0. 0. 0. 0. 0. 0. 0. 5.40540554e-03 0. 0. 0.
      5.40540554e-03 0. 0. 1.08108111e-02 0. 0. 0. 0. 0. 0. 0. 0. 0. 0.
      0. 0. 0. 0. 0. 1.08108111e-02 0. 0. 0. 0. 0. 0. 0. 5.40540554e-03
      0. 0. 0. 0. 0. 0. 0. 0. 0. 0. 0. 5.40540554e-03 0. 0. 0. 0. 0.
      5.40540554e-03 0. 0. 5.40540554e-03 0. 0. 0. 5.40540554e-03
      5.40540554e-03 5.40540554e-03 0. 0. 0. 0. 0. 5.40540554e-03 0. 0.
      0. 0. 0. 5.40540554e-03 0. 0. 0. 0. 0. 1.08108111e-02 0. 0.
      1.08108111e-02 0. 0. 5.40540554e-03 0. 0. 5.40540554e-03 0. 0. 0.
      0. 0. 0. 0. 0. 0. 0. 0. 5.40540554e-03 1.08108111e-02 0. 0. 0. 0.
      0. 0. 0. 0. 0. 0. 0. 0. 5.40540554e-03 0. 0. 0. 5.40540554e-03 0.
      5.40540554e-03 5.40540554e-03 0. 0. 0. 0. 0. 0. 5.40540554e-03 0.
      0. 0. 0. 0. 0. 0. 0. 0. 0. 5.40540554e-03 0. 0. 0. 0. 0. 0. 0.
      1.08108111e-02 0. 0. 0. 0. 1.08108111e-02 0. 0. 0. 0. 0. 0. 0. 0.
      0. 0. 0. 5.40540554e-03 0. 0. 5.40540554e-03 0. 0. 0.
      5.40540554e-03 0. 1.08108111e-02 0. 0. 0. 0. 0. 0. 0.
      5.40540554e-03 0. 0. 0. 0. 0. 0. 5.40540554e-03 0. 0. 0. 0.
      5.40540554e-03 0. 0. 0. 0. 0. 0. 0. 0. 0. 0. 0. 5.40540554e-03 0.
      0. 0. 0. 0. 0. 0. 0. 0. 0. 0. 0. 1.08108111e-02 0. 0. 0. 0.
      5.40540554e-03 0. 0. 0. 0. 0. 0. 0. 0. 1.62162166e-02 0. 0. 0. 0.
      0. 0. 0. 0. 0. 0. 0. 0. 0. 0. 0. 0. 0. 5.40540554e-03 0. 0. 0. 0.
      0. 0. 0. 0. 0. 1.08108111e-02 0. 5.40540554e-03 0. 0.
      5.40540554e-03 0. 0. 0. 5.40540554e-03 0. 0. 0. 0. 5.40540554e-03
      0. 0. 0. 0. 0. 0. 0. 5.40540554e-03 1.08108111e-02 5.40540554e-03
      0. 0. 5.40540554e-03 0. 5.40540554e-03 0. 0. 0. 0. 0. 0. 0. 0. 0.
      0. 0. 0. 0. 0. 5.40540554e-03 5.40540554e-03 5.40540554e-03 0. 0.
      0. 0. 0. 0. 0. 0. 5.40540554e-03 0. 0. 0. 1.08108111e-02 0. 0. 0.
      0. 5.40540554e-03 0. 0. 0. 0. 0. 5.40540554e-03 0. 5.40540554e-03
      0. 0. 0. 0. 0. 0. 0. 0. 0. 0. 0. 0. 0. 0. 0. 0. 0. 0.</_>
    <_>
      0. 1.20481923e-02 1.20481923e-02 0. 0. 0. 0. 0. 0. 0. 0. 0. 0. 0.
      0. 0. 0. 0. 0. 0. 0. 0. 0. 0. 0. 0. 0. 0. 0. 0. 0. 0. 0. 0. 0. 0.
      0. 0. 1.20481923e-02 0. 0. 0. 0. 0. 0. 0. 0. 1.20481923e-02 0. 0.
      0. 0. 0. 0. 0. 0. 0. 0. 0. 0. 0. 0. 0. 0. 0. 0. 0. 0. 0. 0. 0. 0.
      0. 0. 0. 0. 0. 0. 0. 0. 0. 0. 0. 0. 0. 0. 0. 0. 0. 0. 0. 0. 0. 0.
      0. 0. 1.20481923e-02 0. 0. 0. 0. 0. 0. 0. 0. 0. 0. 1.20481923e-02
      0. 0. 0. 0. 0. 0. 0. 0. 0. 0. 0. 0. 1.20481923e-02 0. 0. 0. 0. 0.
      0. 0. 0. 0. 0. 0. 1.20481923e-02 0. 1.20481923e-02 0. 0. 0. 0. 0.
      1.20481923e-02 0. 0. 1.20481923e-02 1.20481923e-02 0. 0. 0. 0.
      1.20481923e-02 0. 0. 0. 0. 0. 0. 1.20481923e-02 0. 0. 0. 0. 0. 0.
      0. 0. 0. 0. 0. 0. 0. 0. 0. 0. 0. 0. 0. 1.20481923e-02 0. 0. 0. 0.
      0. 0. 0. 0. 0. 0. 0. 0. 0. 0. 0. 0. 0. 0. 1.20481923e-02 0. 0. 0.
      1.20481923e-02 0. 0. 0. 0. 0. 0. 0. 0. 0. 0. 0. 0. 0. 0.
      1.20481923e-02 0. 0. 0. 0. 0. 0. 0. 0. 0. 1.20481923e-02 0.
      2.40963846e-02 0. 0. 0. 0. 0. 0. 0. 0. 0. 0. 0. 0. 0. 0. 0. 0. 0.
      0. 0. 1.20481923e-02 0. 0. 0. 0. 0. 0. 0. 0. 0. 1.20481923e-02 0.
      0. 0. 0. 0. 0. 0. 0. 0. 2.40963846e-02 0. 0. 0. 0. 0. 0.
      3.61445770e-02 0. 0. 0. 0. 1.20481923e-02 0. 0. 0. 0. 0. 0. 0. 0.
      0. 0. 0. 0. 0. 0. 0. 0. 0. 0. 0. 0. 0. 0. 0. 0. 0. 0. 0. 0. 0. 0.
      0. 0. 0. 0. 0. 0. 0. 0. 0. 0. 0. 0. 0. 0. 0. 0. 0. 0. 0. 0. 0. 0.
      1.20481923e-02 0. 0. 0. 0. 0. 0. 0. 0. 0. 0. 0. 0. 0. 0. 0. 0. 0.
      0. 1.20481923e-02 0. 0. 0. 0. 0. 0. 0. 0. 0. 0. 0. 0.
      1.20481923e-02 0. 0. 0. 0. 0. 0. 0. 0. 0. 0. 0. 0. 0. 0. 0. 0. 0.
      0. 0. 0. 1.20481923e-02 0. 0. 0. 0. 0. 0. 0. 0. 0. 0. 0. 0. 0. 0.
      0. 0. 1.20481923e-02 0. 0. 0. 1.20481923e-02 0. 0. 0. 0. 0. 0. 0.
      0. 1.20481923e-02 0. 0. 0. 1.20481923e-02 0. 0. 0. 0. 0. 0.
      1.20481923e-02 0. 0. 0. 0. 0. 0. 0. 0. 0. 1.20481923e-02 0. 0. 0.
      0. 0. 0. 0. 0. 0. 0. 0. 0. 0. 1.20481923e-02 0. 0. 0. 0. 0. 0. 0.
      0. 0. 1.20481923e-02 0. 0. 0. 0. 0. 0. 0. 0. 0. 0. 0. 0. 0. 0.
      1.20481923e-02 0. 0. 0. 0. 0. 0. 0. 0. 0. 0. 0. 0. 0. 0. 0. 0. 0.
      0. 0. 0. 0. 0. 1.20481923e-02 0. 0. 0. 0. 0. 0. 0. 0. 0. 0. 0. 0.
      0. 0. 0. 0. 0. 0. 1.20481923e-02 0. 0. 0. 0. 0. 0. 0. 0. 0. 0. 0.
      0. 0. 0. 0. 0. 0. 0. 0. 0. 0. 0. 0. 0. 0. 0. 0. 0. 0. 0. 0. 0. 0.
      0. 0. 0. 0. 0. 0. 0. 0. 0. 0. 0. 1.20481923e-02 0. 0.
      1.20481923e-02 0. 0. 0. 0. 0. 0. 0. 0. 1.20481923e-02 0. 0. 0. 0.
      0. 0. 0. 0. 0. 1.20481923e-02 0. 0. 0. 0. 0. 0. 0. 0. 0. 0. 0. 0.
      0. 0. 0. 0. 0. 0. 0. 0. 0. 0. 0. 0. 1.20481923e-02 0. 0. 0. 0.
      1.20481923e-02 0. 0. 0. 0. 1.20481923e-02 0. 0. 0. 0. 0. 0. 0. 0.
      0. 0. 0. 0. 0. 0. 0. 0. 0. 0. 0. 0. 1.20481923e-02 0. 0. 0.
      1.20481923e-02 0. 0. 0. 0. 0. 0. 0. 0. 0. 0. 0. 0. 0. 0. 0.
      1.20481923e-02 1.20481923e-02 0. 0. 0. 0. 0. 0. 0. 0. 0. 0. 0. 0.
      0. 0. 0. 0. 0. 0. 2.40963846e-02 0. 0. 0. 0. 0. 0. 0. 0. 0. 0. 0.
      0. 0. 0. 0. 0. 0. 0. 0. 0. 0. 0. 0. 0. 0. 0. 0. 0. 0. 0. 0. 0. 0.
      0. 2.40963846e-02 0. 1.20481923e-02 0. 0. 0. 0. 0. 1.20481923e-02
      0. 0. 0. 0. 0. 0. 0. 0. 0. 0. 0. 0. 0. 0. 0. 1.20481923e-02 0.
      1.20481923e-02 0. 0. 0. 0. 0. 0. 0. 0. 0. 1.20481923e-02 0. 0. 0.
      0. 0. 0. 0. 0. 0. 0. 0. 0. 0. 0. 0. 0. 0. 0. 0. 0. 0. 0. 0. 0. 0.
      0. 0. 0. 0. 0. 0. 0. 0. 0. 0. 0. 0. 0. 0. 0. 0. 0. 0. 0. 0. 0. 0.
      0. 2.40963846e-02 0. 1.20481923e-02 0. 0. 1.20481923e-02 0. 0. 0.
      0. 0. 0. 0. 0. 0. 0. 0. 0. 0. 0. 0. 0. 1.20481923e-02
      2.40963846e-02 0. 2.40963846e-02 0. 0. 0. 0. 0. 1.20481923e-02 0.
      0. 0. 0. 1.20481923e-02 0. 0. 0. 0. 0. 0. 0. 0. 0. 0. 0. 0. 0. 0.
      0. 0. 0. 1.20481923e-02 0. 0. 0. 0. 0. 0. 0. 0. 0. 0. 0. 0. 0.
      1.20481923e-02 0. 0. 0. 0. 0. 0. 0. 1.20481923e-02 0. 0. 0. 0. 0.
      0. 0. 0. 0. 0. 0. 0. 1.20481923e-02 0. 0. 1.20481923e-02 0. 0. 0.
      0. 0. 0. 0. 0. 0. 0. 0. 0. 0. 0. 0. 0. 0. 0. 0. 0. 1.20481923e-02
      0. 0. 0. 0. 0. 0. 0. 0. 0. 0. 0. 0. 0. 0. 0. 0. 0. 0. 0. 0. 0. 0.
      0. 0. 0. 0. 0. 0. 0. 0. 0. 0. 0. 0. 1.20481923e-02 0. 0. 0. 0. 0.
      0. 0. 0. 0. 0. 0. 0. 0. 0. 0. 0. 0. 0. 0. 0. 1.20481923e-02 0. 0.
      0. 0. 0. 0. 0. 0. 0. 0. 0. 0. 0. 0. 0. 0. 0. 0. 0. 0. 0. 0. 0. 0.
      0. 0. 0. 0. 0. 0. 0.</_>
    <_>
      0. 5.52486209e-03 5.52486209e-03 0. 0. 0. 0. 0. 0. 0. 0. 0. 0. 0.
      0. 0. 0. 0. 0. 0. 0. 0. 0. 0. 0. 0. 0. 0. 0. 5.52486209e-03 0. 0.
      0. 0. 0. 0. 0. 0. 0. 0. 5.52486209e-03 0. 0. 0. 0. 0. 0. 0. 0. 0.
      0. 0. 0. 0. 0. 0. 1.65745858e-02 1.10497242e-02 0. 5.52486209e-03
      5.52486209e-03 0. 5.52486209e-03 0. 0. 0. 0. 5.52486209e-03 0. 0.
      0. 0. 0. 0. 1.65745858e-02 5.52486209e-03 5.52486209e-03
      1.10497242e-02 0. 0. 5.52486209e-03 0. 0. 0. 0. 0. 0. 0. 0.
      5.52486209e-03 0. 5.52486209e-03 0. 0. 0. 5.52486209e-03 0. 0. 0.
      0. 5.52486209e-03 0. 0. 0. 0. 0. 0. 0. 0. 0. 0. 5.52486209e-03 0.
      0. 0. 0. 0. 0. 0. 0. 5.52486209e-03 0. 0. 0. 0. 0. 0. 0. 0. 0. 0.
      0. 0. 0. 0. 0. 0. 0. 0. 0. 5.52486209e-03 0. 0. 5.52486209e-03
      5.52486209e-03 0. 5.52486209e-03 0. 0. 5.52486209e-03 0. 0. 0. 0.
      0. 5.52486209e-03 0. 0. 0. 0. 0. 0. 1.10497242e-02 5.52486209e-03
      0. 0. 5.52486209e-03 0. 0. 0. 0. 0. 0. 0. 0. 0. 5.52486209e-03 0.
      0. 0. 0. 1.10497242e-02 0. 0. 0. 0. 0. 0. 5.52486209e-03 0. 0. 0.
      5.52486209e-03 0. 0. 0. 0. 0. 0. 5.52486209e-03 0. 0. 0. 0. 0. 0.
      0. 0. 0. 5.52486209e-03 0. 0. 0. 0. 0. 0. 0. 0. 0. 0. 0. 0. 0. 0.
      5.52486209e-03 0. 5.52486209e-03 0. 0. 0. 5.52486209e-03 0. 0. 0.
      0. 0. 0. 0. 0. 0. 0. 0. 0. 0. 0. 0. 0. 0. 0. 0. 0. 0. 0. 0. 0. 0.
      0. 0. 0. 0. 0. 5.52486209e-03 0. 0. 0. 0. 5.52486209e-03 0. 0. 0.
      0. 0. 0. 0. 0. 0. 0. 0. 0. 5.52486209e-03 0. 0. 0. 0. 0. 0. 0. 0.
      0. 0. 5.52486209e-03 0. 0. 0. 0. 0. 0. 0. 5.52486209e-03 0. 0. 0.
      0. 0. 0. 0. 0. 0. 0. 0. 0. 0. 0. 0. 0. 0. 0. 5.52486209e-03 0. 0.
      0. 0. 0. 5.52486209e-03 0. 0. 0. 0. 0. 0. 0. 0. 0. 0. 0. 0. 0. 0.
      0. 0. 0. 0. 0. 0. 0. 0. 0. 0. 0. 0. 0. 0. 0. 0. 0. 0. 0. 0. 0. 0.
      0. 1.10497242e-02 0. 5.52486209e-03 0. 0. 0. 5.52486209e-03 0. 0.
      0. 5.52486209e-03 0. 0. 0. 0. 1.65745858e-02 0. 0. 0. 0. 0. 0. 0.
      5.52486209e-03 0. 0. 0. 0. 0. 0. 0. 0. 0. 0. 0. 0. 0. 0. 0. 0.
      5.52486209e-03 0. 0. 5.52486209e-03 1.10497242e-02 0. 0. 0. 0. 0.
      0. 0. 0. 1.65745858e-02 0. 0. 0. 0. 5.52486209e-03 0. 0.
      1.10497242e-02 0. 0. 0. 0. 0. 0. 0. 0. 1.65745858e-02 0.
      1.65745858e-02 0. 0. 0. 0. 1.10497242e-02 0. 0. 0. 0. 0. 0. 0. 0.
      0. 5.52486209e-03 0. 0. 0. 0. 0. 0. 0. 0. 0. 0. 5.52486209e-03 0.
      0. 0. 0. 0. 0. 0. 0. 0. 0. 0. 0. 0. 1.10497242e-02 0. 0. 0. 0. 0.
      0. 0. 0. 0. 0. 0. 0. 1.10497242e-02 0. 0. 0. 0. 0. 0. 0. 0. 0. 0.
      5.52486209e-03 0. 0. 5.52486209e-03 0. 5.52486209e-03 0. 0. 0. 0.
      0. 0. 0. 0. 0. 0. 5.52486209e-03 1.10497242e-02 0. 5.52486209e-03
      0. 0. 0. 5.52486209e-03 0. 0. 0. 5.52486209e-03 5.52486209e-03 0.
      0. 0. 0. 0. 0. 0. 0. 0. 0. 0. 0. 1.10497242e-02 0. 0.
      5.52486209e-03 0. 0. 1.10497242e-02 0. 0. 0. 5.52486209e-03 0. 0.
      0. 0. 0. 0. 0. 0. 5.52486209e-03 0. 0. 5.52486209e-03
      1.10497242e-02 0. 5.52486209e-03 0. 5.52486209e-03 0. 0. 0. 0. 0.
      0. 0. 0. 0. 0. 5.52486209e-03 0. 0. 0. 0. 5.52486209e-03 0. 0. 0.
      0. 0. 0. 0. 0. 0. 0. 0. 0. 5.52486209e-03 0. 0. 0. 0. 0. 0. 0. 0.
      0. 0. 0. 0. 0. 1.65745858e-02 0. 0. 0. 0. 0. 5.52486209e-03 0. 0.
      0. 0. 0. 0. 0. 0. 0. 0. 0. 0. 0. 0. 0. 0. 0. 5.52486209e-03 0. 0.
      0. 5.52486209e-03 0. 0. 5.52486209e-03 0. 0. 0. 0. 0. 0. 0. 0. 0.
      0. 0. 0. 0. 0. 0. 0. 1.10497242e-02 0. 0. 0. 0. 0. 0. 0. 0. 0. 0.
      0. 0. 0. 0. 0. 0. 5.52486209e-03 0. 0. 0. 0. 0. 0. 0. 0. 0. 0. 0.
      0. 0. 0. 0. 5.52486209e-03 0. 0. 2.20994484e-02 0. 0.
      5.52486209e-03 0. 0. 0. 0. 0. 0. 0. 0. 5.52486209e-03 0. 0. 0. 0.
      5.52486209e-03 0. 5.52486209e-03 0. 0. 0. 0. 0. 0. 0. 0. 0. 0.
      1.10497242e-02 0. 0. 0. 0. 0. 1.65745858e-02 5.52486209e-03 0. 0.
      0. 0. 0. 0. 0. 0. 5.52486209e-03 0. 5.52486209e-03 5.52486209e-03
      0. 0. 5.52486209e-03 0. 0. 0. 0. 0. 5.52486209e-03 0. 0. 0. 0. 0.
      0. 0. 0. 0. 0. 0. 0. 5.52486209e-03 0. 0. 0. 5.52486209e-03 0. 0.
      0. 0. 0. 0. 0. 0. 0. 5.52486209e-03 0. 0. 0. 0. 0. 0. 0. 0. 0. 0.
      5.52486209e-03 0. 0. 0. 0. 5.52486209e-03 0. 0. 0. 0. 0.
      5.52486209e-03 0. 0. 0. 0. 0. 0. 0. 0. 0. 0. 0. 0. 0. 0. 0. 0.
      1.10497242e-02 0. 0. 5.52486209e-03 0. 0. 5.52486209e-03 0. 0. 0.
      0. 0. 0. 0. 1.10497242e-02 0. 0. 0. 0. 0. 0. 0. 0. 0. 0. 0. 0. 0.
      0. 0. 0. 0. 0. 0. 0. 0. 0. 0. 0. 0. 0. 0. 0. 0. 0. 0. 0. 0. 0. 0.
      0. 5.52486209e-03 0. 0. 0. 0. 5.52486209e-03 0. 0. 5.52486209e-03
      0. 0. 0. 0. 0. 1.10497242e-02 0. 0. 1.10497242e-02 0. 0. 0.
      5.52486209e-03 0. 0. 0. 0. 0. 0. 0. 0. 0. 0. 1.10497242e-02 0. 0.
      0. 0. 5.52486209e-03 0. 0. 0. 0. 1.10497242e-02 0. 0. 0.
      5.52486209e-03 0. 0. 0. 0. 0. 0. 0. 0. 0. 5.52486209e-03 0. 0. 0.
      0. 0. 0. 0. 1.10497242e-02 1.10497242e-02 5.52486209e-03 0. 0.
      5.52486209e-03 0. 0. 0. 0. 5.52486209e-03 0. 5.52486209e-03 0. 0.
      0. 0. 0. 0. 0. 0. 0. 0. 0. 0. 0. 0. 0. 0. 0. 0. 0. 5.52486209e-03
      0. 0. 0. 0. 0. 0. 0. 0. 0. 0. 0. 0. 0. 0. 0. 0. 0. 0. 0.
      5.52486209e-03 0. 0. 0. 0. 0. 5.52486209e-03 0. 0. 5.52486209e-03
      0. 0. 0. 0. 0. 0. 0.</_>
    <_>
      0. 9.38967150e-03 9.38967150e-03 0. 0. 0. 0. 0. 0. 0. 0. 0. 0.
      4.69483575e-03 0. 0. 0. 0. 0. 4.69483575e-03 0. 0. 0. 0. 0. 0. 0.
      0. 0. 4.69483575e-03 0. 0. 0. 0. 0. 0. 0. 0. 0. 0. 0. 0. 0. 0. 0.
      0. 0. 0. 0. 0. 0. 0. 0. 0. 0. 0. 1.40845068e-02 9.38967150e-03 0.
      4.69483575e-03 9.38967150e-03 0. 0. 0. 0. 0. 0. 4.69483575e-03 0.
      0. 0. 0. 4.69483575e-03 0. 9.38967150e-03 0. 4.69483575e-03
      4.69483575e-03 0. 0. 4.69483575e-03 0. 0. 0. 0. 0. 0. 0. 0. 0. 0.
      9.38967150e-03 0. 4.69483575e-03 0. 4.69483575e-03 4.69483575e-03
      0. 0. 0. 0. 0. 0. 0. 0. 4.69483575e-03 4.69483575e-03 0. 0. 0. 0.
      4.69483575e-03 0. 0. 0. 0. 0. 0. 0. 0. 4.69483575e-03 0. 0. 0. 0.
      0. 0. 0. 0. 0. 0. 0. 0. 4.69483575e-03 0. 0. 0. 0. 0. 0. 0. 0. 0.
      0. 4.69483575e-03 0. 4.69483575e-03 0. 0. 4.69483575e-03 0. 0. 0.
      0. 0. 0. 0. 0. 0. 0. 0. 0. 1.87793430e-02 0. 0. 0. 4.69483575e-03
      0. 0. 4.69483575e-03 0. 0. 0. 0. 0. 0. 0. 4.69483575e-03 0. 0. 0.
      2.34741792e-02 0. 0. 4.69483575e-03 0. 0. 0. 4.69483575e-03 0. 0.
      0. 4.69483575e-03 0. 0. 0. 0. 0. 0. 0. 0. 0. 0. 0. 0. 0. 0. 0. 0.
      4.69483575e-03 0. 0. 0. 0. 4.69483575e-03 0. 0. 0. 0. 0. 0. 0. 0.
      0. 4.69483575e-03 0. 0. 0. 0. 0. 0. 0. 0. 4.69483575e-03 0. 0. 0.
      0. 0. 4.69483575e-03 0. 0. 0. 0. 0. 0. 0. 0. 0. 0. 4.69483575e-03
      0. 0. 0. 0. 0. 0. 0. 0. 0. 0. 0. 0. 0. 0. 0. 4.69483575e-03 0. 0.
      0. 0. 0. 0. 4.69483575e-03 0. 0. 9.38967150e-03 0. 9.38967150e-03
      0. 0. 0. 0. 0. 0. 4.69483575e-03 0. 0. 0. 0. 4.69483575e-03 0. 0.
      0. 0. 0. 0. 0. 4.69483575e-03 0. 0. 0. 0. 0. 0. 0. 0. 0. 0. 0. 0.
      0. 0. 0. 0. 0. 0. 9.38967150e-03 0. 0. 0. 0. 0. 0. 0. 0. 0. 0. 0.
      0. 0. 0. 0. 0. 0. 0. 0. 0. 0. 0. 0. 4.69483575e-03 0. 0. 0. 0. 0.
      0. 0. 0. 0. 0. 0. 0. 0. 0. 0. 0. 0. 4.69483575e-03 0.
      9.38967150e-03 0. 4.69483575e-03 0. 0. 0. 0. 0. 0. 0.
      4.69483575e-03 0. 4.69483575e-03 0. 0. 4.69483575e-03
      4.69483575e-03 0. 0. 0. 0. 0. 0. 4.69483575e-03 0. 0. 0.
      4.69483575e-03 0. 0. 0. 0. 0. 0. 0. 0. 0. 0. 0. 0. 0. 0. 0.
      4.69483575e-03 4.69483575e-03 0. 0. 0. 0. 0. 0. 0. 0.
      1.40845068e-02 0. 0. 0. 0. 0. 4.69483575e-03 0. 1.40845068e-02 0.
      0. 0. 0. 0. 4.69483575e-03 0. 0. 4.69483575e-03 0. 0. 0. 0. 0. 0.
      9.38967150e-03 0. 4.69483575e-03 0. 0. 0. 0. 0. 0. 0. 0. 0. 0. 0.
