<?xml version="1.0"?>
<opencv_storage>
<my_svm type_id="opencv-ml-svm">
  <svm_type>C_SVC</svm_type>
  <kernel><type>RBF</type>
    <gamma>8.</gamma></kernel>
  <C>10.</C>
  <term_criteria><epsilon>1.1920928955078125e-07</epsilon>
    <iterations>2147483647</iterations></term_criteria>
  <var_all>1000</var_all>
  <var_count>1000</var_count>
  <class_count>2</class_count>
  <class_labels type_id="opencv-matrix">
    <rows>1</rows>
    <cols>2</cols>
    <dt>i</dt>
    <data>
      0 1</data></class_labels>
  <sv_total>143</sv_total>
  <support_vectors>
    <_>
      0. 0. 0. 1.07526882e-02 0. 0. 0. 0. 0. 0. 0. 0. 0. 0. 0. 0. 0. 0.
      0. 0. 0. 0. 0. 0. 0. 0. 0. 0. 0. 0. 0. 0. 0. 0. 0. 0. 0. 0. 0. 0.
      0. 0. 0. 3.22580636e-02 0. 0. 0. 0. 0. 1.07526882e-02 0. 0. 0. 0.
      1.07526882e-02 0. 1.07526882e-02 0. 0. 0. 0. 1.07526882e-02 0.
      1.07526882e-02 1.07526882e-02 0. 0. 0. 0. 0. 0. 0. 0.
      1.07526882e-02 0. 0. 0. 0. 0. 0. 0. 0. 0. 1.07526882e-02 0.
      1.07526882e-02 0. 0. 0. 0. 0. 0. 0. 1.07526882e-02 0. 0. 0. 0. 0.
      0. 0. 0. 0. 1.07526882e-02 0. 0. 0. 0. 0. 0. 0. 0. 0. 0. 0. 0. 0.
      0. 0. 0. 1.07526882e-02 0. 0. 0. 0. 0. 0. 0. 0. 0. 0. 0. 0. 0. 0.
      0. 0. 0. 0. 0. 0. 0. 0. 0. 0. 0. 0. 0. 0. 0. 0. 0. 1.07526882e-02
      0. 0. 0. 1.07526882e-02 0. 0. 0. 0. 0. 0. 0. 0. 0. 0. 0. 0. 0. 0.
      0. 0. 0. 0. 0. 0. 0. 0. 0. 0. 0. 0. 0. 0. 0. 0. 0. 1.07526882e-02
      0. 0. 0. 0. 1.07526882e-02 0. 0. 0. 0. 0. 0. 0. 0. 0. 0. 0. 0.
      1.07526882e-02 0. 0. 0. 0. 0. 0. 0. 0. 0. 0. 0. 0. 0. 0. 0. 0. 0.
      0. 0. 0. 0. 0. 0. 0. 0. 0. 0. 0. 0. 0. 0. 0. 0. 0. 0. 0. 0. 0. 0.
      0. 0. 0. 1.07526882e-02 0. 0. 0. 0. 0. 0. 0. 0. 0. 0. 0. 0. 0.
      1.07526882e-02 0. 0. 0. 0. 1.07526882e-02 0. 0. 2.15053763e-02 0.
      0. 0. 0. 0. 0. 0. 0. 0. 0. 0. 0. 0. 0. 0. 0. 0. 0. 0. 0. 0. 0. 0.
      1.07526882e-02 0. 0. 0. 0. 0. 0. 0. 0. 0. 1.07526882e-02 0. 0. 0.
      0. 0. 0. 1.07526882e-02 0. 0. 0. 0. 0. 0. 0. 0. 0. 0. 0. 0. 0. 0.
      0. 0. 0. 0. 0. 0. 0. 0. 1.07526882e-02 0. 0. 0. 0. 0. 0. 0. 0. 0.
      0. 0. 0. 0. 1.07526882e-02 0. 0. 0. 0. 1.07526882e-02 0. 0. 0. 0.
      0. 1.07526882e-02 1.07526882e-02 1.07526882e-02 0. 0. 0. 0. 0. 0.
      0. 0. 0. 0. 0. 0. 0. 0. 0. 0. 0. 1.07526882e-02 0. 2.15053763e-02
      0. 0. 0. 0. 0. 0. 0. 0. 0. 0. 0. 0. 0. 1.07526882e-02 0. 0. 0. 0.
      0. 0. 0. 0. 1.07526882e-02 0. 1.07526882e-02 0. 0. 0. 0. 0. 0. 0.
      0. 0. 1.07526882e-02 1.07526882e-02 0. 0. 0. 0. 0. 0. 0. 0. 0. 0.
      0. 0. 1.07526882e-02 0. 0. 0. 0. 0. 0. 1.07526882e-02
      1.07526882e-02 0. 0. 0. 1.07526882e-02 0. 0. 0. 0. 0. 0. 0. 0. 0.
      0. 0. 0. 0. 0. 0. 0. 0. 0. 0. 0. 0. 0. 0. 0. 0. 0. 0. 0. 0. 0. 0.
      0. 0. 0. 0. 0. 1.07526882e-02 0. 0. 0. 0. 1.07526882e-02 0. 0. 0.
      0. 0. 0. 0. 0. 0. 1.07526882e-02 0. 0. 0. 0. 0. 0. 0. 0. 0. 0. 0.
      0. 1.07526882e-02 0. 0. 0. 0. 0. 0. 1.07526882e-02 0. 0. 0. 0. 0.
      0. 0. 0. 0. 0. 0. 0. 0. 0. 0. 0. 0. 0. 0. 0. 0. 0. 1.07526882e-02
      0. 0. 0. 0. 0. 0. 0. 0. 0. 0. 0. 0. 0. 1.07526882e-02 0. 0. 0. 0.
      3.22580636e-02 0. 0. 0. 0. 0. 0. 0. 0. 0. 0. 0. 0. 0. 0. 0. 0. 0.
      0. 0. 0. 0. 0. 0. 0. 0. 0. 0. 0. 0. 0. 1.07526882e-02 0. 0. 0. 0.
      0. 0. 0. 0. 0. 0. 0. 0. 0. 0. 0. 0. 0. 0. 0. 0. 0. 0. 0. 0. 0. 0.
      0. 0. 0. 1.07526882e-02 0. 0. 0. 0. 0. 0. 0. 0. 0. 0. 0. 0. 0.
      1.07526882e-02 0. 0. 0. 0. 0. 0. 0. 0. 0. 0. 0. 0. 0. 0. 0. 0. 0.
      0. 0. 0. 0. 1.07526882e-02 0. 0. 1.07526882e-02 0. 0.
      2.15053763e-02 0. 0. 0. 0. 1.07526882e-02 0. 0. 0. 1.07526882e-02
      0. 0. 0. 0. 0. 0. 0. 0. 0. 0. 0. 0. 0. 0. 0. 0. 1.07526882e-02
      1.07526882e-02 0. 0. 0. 0. 1.07526882e-02 0. 0. 0. 0. 0. 0. 0. 0.
      0. 0. 0. 0. 0. 0. 0. 0. 0. 0. 0. 0. 0. 0. 0. 0. 1.07526882e-02 0.
      0. 0. 0. 0. 1.07526882e-02 0. 0. 1.07526882e-02 0. 0. 0. 0. 0. 0.
      0. 0. 0. 0. 0. 0. 0. 0. 0. 0. 0. 0. 0. 1.07526882e-02 0. 0. 0. 0.
      0. 0. 0. 0. 1.07526882e-02 0. 0. 0. 0. 0. 0. 0. 0. 0. 0. 0.
      1.07526882e-02 0. 0. 0. 0. 0. 0. 1.07526882e-02 0. 0. 0. 0. 0. 0.
      0. 0. 0. 0. 0. 0. 0. 0. 0. 0. 0. 0. 0. 0. 0. 0. 0. 0.
      1.07526882e-02 0. 0. 0. 0. 0. 0. 0. 2.15053763e-02 0. 0.
      1.07526882e-02 1.07526882e-02 1.07526882e-02 0. 0. 0. 0. 0. 0. 0.
      0. 0. 0. 0. 0. 0. 0. 0. 0. 0. 0. 0. 0. 0. 0. 0. 0. 0. 0. 0. 0. 0.
      0. 0. 0. 0. 0. 0. 0. 0. 0. 0. 0. 0. 0. 0. 0. 0. 0. 0. 0. 0. 0. 0.
      0. 0. 0. 0. 0. 0. 0. 0. 0. 0. 0. 0. 0. 0. 0. 0. 0. 1.07526882e-02
      0. 0. 0. 0. 0. 0. 0. 0. 0. 0. 0. 0. 0. 0. 0. 0. 0. 0. 0. 0. 0. 0.
      0. 1.07526882e-02 0. 0. 0. 0. 0. 0. 0. 0. 1.07526882e-02 0. 0. 0.
      0. 0. 1.07526882e-02 1.07526882e-02 0. 0. 0. 0. 0. 1.07526882e-02
      0. 0. 1.07526882e-02 0. 0. 0. 0. 0. 0. 0. 0. 0. 0. 0. 0. 0. 0. 0.
      0. 0. 0. 0. 0. 1.07526882e-02 0. 0. 0. 0. 0. 0. 0. 0. 0. 0. 0.
      2.15053763e-02 0. 0. 1.07526882e-02 0. 0. 0. 0. 0. 0. 0. 0. 0. 0.
      0. 0. 0. 0. 0. 0. 0. 0. 0. 0. 0. 0. 0. 0. 0. 0. 0. 0. 0. 0. 0. 0.
      0.</_>
    <_>
      0. 0. 1.04166670e-02 1.04166670e-02 0. 0. 0. 0. 0. 0. 0. 0. 0. 0.
      0. 0. 0. 0. 0. 0. 0. 0. 0. 0. 0. 0. 1.04166670e-02 0. 0. 0. 0. 0.
      0. 0. 0. 0. 0. 0. 0. 0. 0. 0. 0. 2.08333340e-02 0. 0. 0. 0. 0. 0.
      0. 0. 0. 0. 1.04166670e-02 0. 0. 0. 0. 0. 0. 0. 0. 0.
      2.08333340e-02 0. 0. 0. 0. 0. 0. 0. 0. 1.04166670e-02 0. 0. 0. 0.
      0. 0. 0. 0. 0. 1.04166670e-02 0. 0. 0. 0. 0. 0. 0. 0. 0. 0. 0. 0.
      0. 0. 0. 0. 0. 0. 1.04166670e-02 1.04166670e-02 0. 0. 0. 0. 0. 0.
      0. 0. 0. 0. 0. 0. 0. 0. 0. 0. 1.04166670e-02 0. 0. 0. 0. 0. 0. 0.
      0. 0. 0. 0. 1.04166670e-02 1.04166670e-02 0. 0. 0. 0. 0. 0. 0. 0.
      0. 0. 0. 0. 0. 0. 0. 0. 0. 0. 1.04166670e-02 0. 0. 0. 0. 0. 0. 0.
      0. 1.04166670e-02 0. 0. 0. 0. 0. 0. 0. 0. 0. 0. 0. 0. 0. 0. 0. 0.
      1.04166670e-02 0. 0. 0. 0. 0. 1.04166670e-02 0. 0. 0.
      1.04166670e-02 0. 0. 0. 0. 0. 0. 0. 0. 0. 0. 0. 0. 0. 0. 0. 0. 0.
      1.04166670e-02 0. 0. 0. 0. 0. 0. 0. 0. 0. 0. 0. 0. 0. 0. 0. 0. 0.
      0. 0. 0. 0. 0. 0. 0. 0. 0. 0. 0. 0. 0. 0. 0. 0. 0. 0. 0. 0. 0. 0.
      0. 0. 0. 1.04166670e-02 0. 0. 0. 0. 0. 0. 0. 0. 0. 0. 0. 0. 0. 0.
      0. 0. 0. 0. 0. 0. 0. 1.04166670e-02 0. 0. 0. 0. 0. 0. 0. 0. 0. 0.
      0. 0. 0. 0. 0. 0. 0. 0. 0. 0. 0. 0. 0. 1.04166670e-02 0. 0. 0. 0.
      0. 0. 0. 0. 0. 1.04166670e-02 0. 0. 0. 0. 0. 0. 0. 0. 0. 0. 0. 0.
      0. 0. 0. 0. 0. 0. 0. 0. 0. 0. 0. 0. 0. 0. 0. 0. 0. 0. 0. 0. 0. 0.
      0. 0. 0. 0. 0. 0. 0. 1.04166670e-02 1.04166670e-02 0. 0. 0. 0. 0.
      0. 0. 0. 0. 0. 0. 1.04166670e-02 0. 0. 0. 0. 0. 0. 0. 0. 0. 0. 0.
      0. 0. 0. 0. 1.04166670e-02 0. 0. 0. 1.04166670e-02 0. 0. 0. 0. 0.
      0. 0. 0. 0. 0. 0. 0. 1.04166670e-02 0. 0. 1.04166670e-02 0. 0. 0.
      0. 0. 0. 0. 0. 1.04166670e-02 0. 1.04166670e-02 0. 0. 0. 0. 0. 0.
      0. 0. 0. 1.04166670e-02 1.04166670e-02 0. 0. 0. 0. 0. 0. 0. 0. 0.
      0. 0. 0. 0. 0. 0. 0. 0. 0. 0. 1.04166670e-02 0. 0. 0. 0.
      1.04166670e-02 1.04166670e-02 0. 0. 0. 0. 0. 0. 0. 1.04166670e-02
      0. 1.04166670e-02 0. 0. 0. 0. 0. 0. 0. 0. 1.04166670e-02 0. 0. 0.
      0. 0. 0. 0. 0. 0. 0. 0. 1.04166670e-02 0. 0. 0. 0. 1.04166670e-02
      0. 0. 1.04166670e-02 0. 2.08333340e-02 0. 0. 0. 0. 0. 0. 0.
      1.04166670e-02 0. 1.04166670e-02 0. 0. 0. 0. 0. 0. 0. 0. 0. 0. 0.
      0. 0. 0. 0. 0. 0. 0. 0. 1.04166670e-02 0. 0. 0. 0. 0. 0. 0. 0. 0.
      0. 0. 0. 0. 0. 0. 0. 0. 0. 0. 0. 0. 0. 0. 0. 0. 0. 0. 0. 0. 0. 0.
      0. 0. 0. 0. 0. 0. 0. 0. 0. 1.04166670e-02 1.04166670e-02 0. 0. 0.
      0. 0. 0. 0. 0. 0. 0. 0. 0. 0. 0. 0. 0. 0. 0. 0. 0. 0. 0. 0. 0. 0.
      0. 0. 0. 0. 0. 0. 0. 0. 0. 0. 0. 0. 1.04166670e-02 1.04166670e-02
      0. 0. 0. 0. 0. 0. 0. 0. 1.04166670e-02 0. 0. 0. 0. 0. 0. 0. 0.
      1.04166670e-02 0. 0. 0. 1.04166670e-02 0. 0. 0. 0. 0. 0. 0. 0. 0.
      0. 0. 0. 0. 2.08333340e-02 0. 0. 0. 0. 0. 0. 0. 0. 0. 0. 0. 0. 0.
      1.04166670e-02 0. 0. 0. 0. 0. 0. 0. 0. 0. 0. 1.04166670e-02 0. 0.
      1.04166670e-02 0. 0. 0. 1.04166670e-02 0. 0. 0. 0. 0. 0.
      1.04166670e-02 0. 0. 0. 0. 0. 0. 0. 0. 0. 0. 0. 0. 0. 0.
      1.04166670e-02 1.04166670e-02 0. 0. 0. 0. 1.04166670e-02 0.
      1.04166670e-02 2.08333340e-02 0. 0. 0. 0. 0. 0. 0. 0. 0. 0. 0. 0.
      0. 0. 0. 0. 0. 0. 0. 0. 0. 0. 0. 0. 0. 0. 0. 0. 0. 0. 0. 0.
      2.08333340e-02 0. 0. 0. 0. 1.04166670e-02 0. 0. 0. 0. 0. 0. 0. 0.
      0. 0. 0. 0. 1.04166670e-02 0. 0. 0. 0. 0. 0. 0. 0. 0. 0. 0. 0. 0.
      0. 0. 0. 0. 0. 0. 0. 1.04166670e-02 0. 0. 0. 0. 0. 0.
      1.04166670e-02 0. 0. 0. 0. 0. 0. 0. 0. 0. 0. 0. 0. 1.04166670e-02
      0. 0. 0. 0. 0. 0. 0. 0. 0. 0. 0. 1.04166670e-02 0. 0. 0. 0. 0. 0.
      0. 1.04166670e-02 0. 0. 1.04166670e-02 1.04166670e-02 0. 0. 0. 0.
      0. 0. 0. 0. 0. 0. 0. 1.04166670e-02 0. 0. 0. 0. 1.04166670e-02 0.
      0. 0. 0. 0. 0. 0. 1.04166670e-02 0. 0. 0. 0. 0. 0. 0. 0. 0. 0. 0.
      0. 0. 1.04166670e-02 0. 0. 0. 0. 0. 0. 0. 1.04166670e-02 0. 0. 0.
      1.04166670e-02 0. 0. 0. 0. 0. 0. 0. 0. 0. 0. 0. 0. 0. 0. 0. 0. 0.
      0. 1.04166670e-02 0. 0. 0. 0. 1.04166670e-02 0. 0. 0. 0. 0. 0. 0.
      0. 0. 0. 0. 0. 0. 0. 0. 0. 0. 0. 1.04166670e-02 0. 0. 0. 0. 0. 0.
      0. 0. 1.04166670e-02 0. 0. 0. 0. 0. 0. 1.04166670e-02 0. 0. 0. 0.
      0. 0. 0. 0. 1.04166670e-02 0. 0. 0. 0. 0. 0. 0. 0. 0. 0. 0.
      1.04166670e-02 0. 0. 0. 0. 0. 0. 0. 0. 0. 0. 0. 0. 0. 0. 0. 0. 0.
      0. 0. 0. 1.04166670e-02 0. 0. 0. 0. 0. 0. 0. 0. 0. 0. 0. 0. 0. 0.
      0. 0. 0. 0. 0. 0. 0. 0. 0. 0. 0. 0. 0. 0. 0. 0. 0. 1.04166670e-02
      0. 0. 0. 0.</_>
    <_>
      0. 0. 1.02040814e-02 1.02040814e-02 0. 0. 0. 0. 0. 0. 0. 0. 0. 0.
      0. 0. 0. 0. 0. 0. 0. 0. 0. 0. 0. 0. 0. 0. 0. 0. 0. 0. 0. 0. 0. 0.
      0. 0. 0. 0. 0. 0. 0. 3.06122452e-02 0. 0. 0. 0. 0. 1.02040814e-02
      0. 0. 0. 0. 1.02040814e-02 0. 1.02040814e-02 0. 0. 0. 0. 0. 0.
      1.02040814e-02 1.02040814e-02 0. 0. 0. 0. 0. 0. 0. 0.
      1.02040814e-02 0. 0. 0. 0. 0. 0. 0. 0. 0. 1.02040814e-02 0.
      1.02040814e-02 0. 0. 0. 0. 0. 0. 0. 1.02040814e-02 0. 0. 0. 0. 0.
      0. 0. 0. 0. 1.02040814e-02 0. 0. 0. 0. 0. 0. 0. 0. 0. 0. 0. 0. 0.
      0. 0. 0. 1.02040814e-02 0. 0. 0. 0. 0. 0. 0. 0. 0. 1.02040814e-02
      0. 0. 0. 0. 0. 0. 0. 0. 0. 0. 0. 0. 0. 0. 0. 0. 0. 0. 0. 0. 0.
      1.02040814e-02 0. 0. 0. 0. 0. 0. 0. 0. 0. 0. 0. 0. 0. 0. 0. 0. 0.
      0. 0. 0. 0. 0. 0. 0. 0. 0. 0. 0. 0. 0. 0. 0. 0. 0. 0.
      1.02040814e-02 0. 0. 0. 0. 0. 0. 0. 0. 0. 0. 0. 0. 0. 0. 0. 0. 0.
      1.02040814e-02 0. 0. 0. 0. 0. 0. 0. 1.02040814e-02 0. 0. 0. 0. 0.
      0. 0. 0. 0. 0. 0. 0. 0. 0. 0. 0. 0. 1.02040814e-02 1.02040814e-02
      0. 0. 1.02040814e-02 0. 0. 0. 0. 0. 0. 0. 0. 0. 0. 0. 0.
      1.02040814e-02 0. 0. 0. 0. 0. 0. 0. 0. 0. 0. 0. 0. 0. 0. 0. 0. 0.
      0. 0. 0. 0. 1.02040814e-02 0. 0. 0. 0. 0. 0. 0. 0. 0. 0. 0. 0. 0.
      0. 0. 0. 0. 0. 0. 0. 0. 0. 0. 1.02040814e-02 0. 0. 0. 0. 0. 0. 0.
      1.02040814e-02 0. 0. 0. 0. 0. 0. 0. 0. 0. 0. 0. 0. 0. 0. 0. 0. 0.
      0. 0. 0. 0. 0. 0. 0. 0. 0. 0. 0. 0. 0. 0. 1.02040814e-02 0. 0. 0.
      0. 0. 0. 0. 0. 0. 0. 0. 0. 0. 0. 0. 0. 0. 0. 0. 0. 0. 0. 0. 0. 0.
      0. 0. 0. 0. 0. 0. 0. 0. 0. 0. 0. 0. 0. 0. 0. 0. 0. 0. 0.
      1.02040814e-02 0. 2.04081628e-02 0. 0. 0. 0. 0. 0. 0. 0. 0. 0. 0.
      0. 0. 1.02040814e-02 0. 0. 0. 0. 0. 0. 0. 0. 1.02040814e-02 0.
      1.02040814e-02 0. 0. 0. 0. 0. 1.02040814e-02 0. 0. 0.
      1.02040814e-02 1.02040814e-02 0. 0. 0. 0. 0. 0. 0. 0. 0. 0. 0. 0.
      1.02040814e-02 0. 0. 0. 0. 0. 0. 1.02040814e-02 0. 0. 0. 0. 0. 0.
      0. 0. 0. 0. 0. 0. 0. 1.02040814e-02 0. 1.02040814e-02 0. 0. 0. 0.
      0. 0. 0. 0. 0. 0. 0. 0. 0. 0. 0. 0. 0. 0. 1.02040814e-02 0. 0.
      1.02040814e-02 0. 0. 0. 0. 0. 0. 0. 0. 1.02040814e-02 0. 0. 0. 0.
      0. 0. 0. 0. 0. 1.02040814e-02 0. 0. 0. 0. 0. 0. 0. 0. 0. 0.
      1.02040814e-02 0. 1.02040814e-02 0. 0. 0. 1.02040814e-02 0. 0.
      1.02040814e-02 0. 0. 0. 0. 0. 0. 0. 0. 0. 0. 0. 0. 0. 0. 0. 0. 0.
      0. 0. 0. 0. 0. 0. 0. 0. 0. 0. 0. 0. 0. 0. 0. 0. 0. 0. 0.
      1.02040814e-02 0. 0. 0. 0. 2.04081628e-02 0. 0. 0. 0. 0. 0. 0. 0.
      0. 0. 0. 0. 0. 0. 0. 0. 0. 0. 0. 0. 0. 0. 0. 0. 0. 0. 0. 0. 0. 0.
      1.02040814e-02 0. 0. 0. 0. 0. 0. 1.02040814e-02 0. 0. 0. 0. 0. 0.
      0. 0. 0. 0. 0. 0. 0. 0. 0. 0. 0. 0. 1.02040814e-02 0. 0. 0. 0. 0.
      0. 0. 0. 0. 0. 0. 0. 0. 0. 0. 0. 0. 1.02040814e-02 0. 0. 0. 0. 0.
      0. 0. 0. 0. 0. 0. 0. 0. 0. 0. 1.02040814e-02 0. 0. 0. 0. 0.
      1.02040814e-02 0. 0. 0. 0. 0. 0. 0. 0. 0. 1.02040814e-02
      1.02040814e-02 0. 0. 0. 0. 0. 0. 0. 0. 0. 0. 0. 0. 0. 0. 0. 0. 0.
      0. 0. 0. 1.02040814e-02 1.02040814e-02 0. 0. 0. 0. 1.02040814e-02
      0. 1.02040814e-02 1.02040814e-02 0. 0. 0. 0. 0. 0. 0. 0. 0. 0. 0.
      0. 0. 0. 0. 0. 0. 0. 0. 0. 0. 0. 0. 0. 0. 0. 0. 1.02040814e-02 0.
      0. 1.02040814e-02 0. 1.02040814e-02 0. 0. 0. 0. 1.02040814e-02 0.
      0. 0. 0. 0. 0. 0. 0. 0. 0. 0. 0. 1.02040814e-02 0. 0. 0. 0. 0. 0.
      0. 0. 1.02040814e-02 0. 0. 0. 0. 0. 0. 0. 0. 0. 0. 0.
      1.02040814e-02 0. 0. 0. 0. 0. 0. 1.02040814e-02 0. 0. 0. 0. 0. 0.
      0. 0. 0. 0. 0. 0. 1.02040814e-02 0. 1.02040814e-02 0. 0. 0. 0. 0.
      0. 0. 0. 0. 1.02040814e-02 0. 0. 0. 0. 0. 0. 0. 2.04081628e-02 0.
      0. 0. 1.02040814e-02 1.02040814e-02 0. 0. 0. 0. 0. 0. 0. 0. 0. 0.
      0. 0. 0. 0. 0. 1.02040814e-02 0. 0. 0. 0. 0. 0. 0. 0. 0.
      1.02040814e-02 0. 0. 0. 0. 0. 1.02040814e-02 0. 0. 0. 0. 0. 0. 0.
      0. 0. 0. 0. 0. 0. 0. 0. 0. 0. 0. 0. 0. 0. 0. 0. 0. 0. 0. 0. 0. 0.
      0. 0. 0. 0. 0. 0. 0. 1.02040814e-02 0. 0. 0. 0. 0. 0. 0. 0. 0. 0.
      0. 0. 0. 0. 0. 0. 0. 2.04081628e-02 0. 0. 0. 0. 0. 1.02040814e-02
      0. 0. 0. 0. 1.02040814e-02 0. 0. 0. 1.02040814e-02 0. 0. 0.
      1.02040814e-02 0. 1.02040814e-02 0. 0. 0. 0. 0. 0. 0. 0. 0.
      1.02040814e-02 0. 0. 0. 0. 0. 0. 0. 0. 0. 0. 0. 0. 0. 0. 0. 0.
      1.02040814e-02 0. 0. 0. 1.02040814e-02 0. 0. 0. 0. 0. 0. 0. 0. 0.
      0. 0. 2.04081628e-02 0. 0. 0. 0. 0. 0. 0. 0. 0. 0. 0. 0. 0. 0. 0.
      1.02040814e-02 0. 0. 0. 0. 0. 0. 0. 0. 0. 0. 0. 0. 0. 0. 0. 0. 0.
      0. 0. 0.</_>
    <_>
      0. 8.47457629e-03 8.47457629e-03 8.47457629e-03 0. 0. 0. 0. 0. 0.
      0. 0. 0. 0. 0. 0. 0. 0. 0. 0. 0. 0. 0. 0. 0. 0. 0. 0. 0. 0. 0. 0.
      0. 0. 0. 0. 0. 0. 8.47457629e-03 0. 0. 0. 0. 2.54237279e-02 0. 0.
      0. 0. 0. 0. 0. 0. 0. 0. 8.47457629e-03 0. 8.47457629e-03 0. 0. 0.
      0. 0. 8.47457629e-03 0. 1.69491526e-02 0. 0. 0. 0. 0. 0. 0. 0.
      8.47457629e-03 0. 0. 0. 0. 0. 0. 0. 0. 0. 1.69491526e-02 0. 0. 0.
      0. 0. 0. 0. 0. 0. 0. 0. 0. 0. 0. 0. 0. 0. 0. 0. 0. 0. 0. 0. 0. 0.
      0. 0. 0. 0. 0. 0. 0. 0. 0. 0. 0. 8.47457629e-03 8.47457629e-03 0.
      0. 0. 0. 0. 0. 0. 0. 8.47457629e-03 0. 0. 0. 0. 0. 0. 0. 0. 0. 0.
      0. 8.47457629e-03 0. 0. 0. 0. 0. 1.69491526e-02 0. 0. 0.
      8.47457629e-03 0. 0. 8.47457629e-03 0. 0. 0. 0. 0. 0. 0. 0. 0. 0.
      0. 0. 0. 0. 0. 0. 0. 0. 0. 0. 0. 0. 0. 0. 0. 0. 8.47457629e-03 0.
      0. 0. 0. 0. 0. 0. 0. 0. 0. 8.47457629e-03 0. 0. 0. 0. 0. 0. 0.
      8.47457629e-03 0. 0. 0. 0. 8.47457629e-03 0. 0. 0. 0.
      8.47457629e-03 0. 0. 0. 0. 0. 0. 0. 0. 0. 8.47457629e-03 0. 0. 0.
      0. 0. 0. 0. 0. 0. 0. 0. 0. 0. 0. 0. 0. 0. 0. 0. 8.47457629e-03 0.
      0. 8.47457629e-03 0. 0. 0. 0. 8.47457629e-03 0. 0. 0. 0. 0. 0. 0.
      0. 0. 0. 0. 0. 8.47457629e-03 0. 0. 0. 0. 0. 8.47457629e-03 0. 0.
      1.69491526e-02 0. 0. 0. 0. 8.47457629e-03 0. 0. 0. 0. 0. 0. 0. 0.
      0. 0. 0. 0. 0. 0. 0. 0. 0. 0. 0. 0. 0. 0. 0. 0. 0. 0. 0. 0. 0. 0.
      0. 8.47457629e-03 0. 0. 0. 0. 8.47457629e-03 0. 0. 0.
      8.47457629e-03 0. 8.47457629e-03 0. 0. 0. 0. 0. 0. 0. 0. 0. 0.
      8.47457629e-03 0. 0. 0. 0. 8.47457629e-03 0. 0. 0. 0. 0. 0. 0. 0.
      0. 0. 0. 0. 0. 0. 0. 0. 0. 0. 0. 0. 0. 0. 0. 0. 8.47457629e-03 0.
      8.47457629e-03 0. 0. 0. 0. 8.47457629e-03 0. 0. 0. 0. 0. 0.
      8.47457629e-03 0. 0. 0. 0. 0. 8.47457629e-03 0. 0. 0. 0. 0. 0. 0.
      0. 0. 0. 0. 0. 0. 8.47457629e-03 0. 0. 0. 0. 0. 0. 0. 0. 0. 0.
      8.47457629e-03 0. 8.47457629e-03 0. 0. 0. 0. 0. 0. 0. 0. 0.
      8.47457629e-03 8.47457629e-03 0. 0. 0. 0. 0. 0. 0. 0.
      8.47457629e-03 0. 0. 0. 1.69491526e-02 0. 0. 8.47457629e-03 0. 0.
      0. 8.47457629e-03 0. 0. 0. 0. 8.47457629e-03 0. 0. 0. 0. 0. 0.
      8.47457629e-03 0. 0. 0. 8.47457629e-03 0. 8.47457629e-03 0. 0. 0.
      0. 0. 0. 0. 0. 0. 0. 0. 0. 0. 0. 0. 0. 8.47457629e-03 0. 0. 0. 0.
      0. 0. 0. 0. 0. 0. 0. 1.69491526e-02 0. 0. 0. 0. 0. 0. 0.
      8.47457629e-03 0. 8.47457629e-03 0. 0. 0. 0. 0. 0. 0. 0. 0. 0. 0.
      0. 8.47457629e-03 0. 0. 0. 8.47457629e-03 0. 0. 8.47457629e-03
      8.47457629e-03 0. 0. 0. 0. 0. 0. 0. 0. 0. 0. 0. 0. 0. 0. 0. 0. 0.
      0. 0. 0. 0. 0. 0. 0. 0. 0. 0. 0. 0. 0. 0. 0. 0. 0. 0.
      8.47457629e-03 0. 0. 0. 0. 0. 0. 0. 0. 0. 0. 0. 0. 0. 0. 0. 0. 0.
      0. 0. 0. 0. 0. 0. 0. 0. 0. 0. 0. 0. 0. 0. 0. 0. 0. 0. 0. 0. 0.
      1.69491526e-02 0. 0. 0. 8.47457629e-03 8.47457629e-03 0. 0. 0. 0.
      0. 0. 0. 0. 0. 0. 0. 0. 0. 0. 0. 0. 0. 0. 0. 0. 0. 8.47457629e-03
      0. 8.47457629e-03 0. 0. 0. 0. 0. 0. 0. 0. 0. 0. 0. 8.47457629e-03
      0. 0. 0. 0. 0. 0. 0. 0. 0. 0. 0. 0. 0. 0. 0. 8.47457629e-03 0. 0.
      0. 0. 0. 8.47457629e-03 0. 0. 0. 0. 0. 0. 0. 0. 0. 0.
      8.47457629e-03 0. 0. 0. 0. 0. 0. 0. 0. 0. 0. 0. 0. 0. 0. 0. 0. 0.
      0. 0. 0. 8.47457629e-03 0. 0. 0. 0. 0. 8.47457629e-03 0. 0. 0. 0.
      0. 0. 0. 0. 0. 0. 0. 0. 0. 0. 0. 0. 0. 0. 0. 0. 0. 8.47457629e-03
      0. 0. 0. 0. 0. 0. 0. 0. 8.47457629e-03 0. 0. 0. 0. 0. 0. 0. 0. 0.
      8.47457629e-03 0. 0. 0. 0. 0. 0. 0. 0. 0. 0. 0. 0. 8.47457629e-03
      0. 0. 0. 0. 0. 0. 0. 0. 8.47457629e-03 0. 0. 0. 0. 0. 0. 0. 0. 0.
      0. 0. 8.47457629e-03 0. 0. 0. 0. 0. 0. 0. 0. 0. 0. 0. 0. 0. 0. 0.
      8.47457629e-03 0. 0. 0. 1.69491526e-02 0. 1.69491526e-02 0. 0.
      8.47457629e-03 0. 0. 0. 0. 0. 0. 8.47457629e-03 0. 0. 0. 0. 0. 0.
      0. 1.69491526e-02 0. 0. 0. 8.47457629e-03 8.47457629e-03 0. 0. 0.
      0. 0. 0. 8.47457629e-03 0. 0. 0. 8.47457629e-03 0. 0. 0. 0.
      8.47457629e-03 0. 0. 0. 0. 0. 0. 0. 0. 0. 8.47457629e-03 0.
      8.47457629e-03 0. 0. 0. 8.47457629e-03 0. 0. 0. 0. 0. 0. 0. 0. 0.
      0. 0. 0. 0. 0. 0. 0. 8.47457629e-03 0. 0. 0. 0. 0. 0. 0. 0.
      8.47457629e-03 0. 0. 0. 0. 0. 0. 0. 0. 0. 0. 0. 0. 0. 0. 0. 0. 0.
      0. 0. 0. 0. 0. 0. 0. 0. 0. 0. 0. 8.47457629e-03 0. 0. 0. 0. 0.
      8.47457629e-03 0. 0. 0. 0. 0. 0. 0. 0. 8.47457629e-03 0. 0. 0. 0.
      0. 0. 0. 0. 0. 0. 0. 0. 0. 0. 0. 8.47457629e-03 0. 0. 0. 0. 0. 0.
      0. 0. 0. 0. 0. 0. 0. 0. 0. 0. 8.47457629e-03 0. 0. 0. 0. 0. 0. 0.
      0. 0. 0. 0. 0. 0. 0. 0. 8.47457629e-03 0. 0. 0. 0. 0. 0. 0. 0. 0.
      8.47457629e-03 8.47457629e-03 0. 0. 0. 0. 8.47457629e-03 0. 0. 0.
      0. 0. 0. 0. 0. 0. 0. 0. 0. 0. 0. 0. 0. 0. 0. 0. 0.</_>
    <_>
      0. 1.07526882e-02 0. 1.07526882e-02 0. 0. 0. 0. 0. 0. 0. 0. 0. 0.
      0. 0. 0. 0. 0. 0. 0. 0. 0. 0. 1.07526882e-02 0. 0. 0. 0. 0. 0. 0.
      0. 0. 0. 0. 0. 0. 1.07526882e-02 0. 0. 0. 0. 2.15053763e-02 0. 0.
      0. 0. 1.07526882e-02 0. 0. 0. 0. 0. 1.07526882e-02 0.
      1.07526882e-02 0. 0. 0. 0. 0. 0. 0. 0. 0. 0. 0. 0. 0. 0. 0. 0.
      1.07526882e-02 0. 0. 0. 0. 0. 0. 0. 0. 0. 0. 0. 0. 0. 0. 0.
      1.07526882e-02 0. 0. 0. 0. 0. 0. 0. 0. 0. 0. 0. 0. 0.
      1.07526882e-02 0. 0. 0. 0. 0. 0. 0. 0. 0. 0. 0. 0. 0. 0. 0. 0.
      1.07526882e-02 1.07526882e-02 0. 0. 0. 0. 0. 0. 0. 0. 0. 0. 0. 0.
      0. 0. 0. 0. 0. 0. 0. 0. 0. 0. 0. 0. 0. 0. 1.07526882e-02 0. 0. 0.
      1.07526882e-02 0. 0. 0. 0. 0. 0. 0. 0. 0. 0. 0. 0. 0. 0. 0. 0. 0.
      0. 0. 0. 0. 0. 0. 0. 0. 0. 1.07526882e-02 0. 0. 0. 0.
      1.07526882e-02 0. 0. 0. 0. 0. 0. 0. 0. 1.07526882e-02 0. 0. 0. 0.
      0. 0. 0. 0. 0. 0. 0. 0. 0. 0. 0. 0. 0. 0. 0. 0. 0. 0. 0. 0. 0. 0.
      0. 0. 0. 0. 0. 0. 0. 0. 0. 0. 0. 0. 0. 0. 0. 0. 0. 0. 0. 0. 0. 0.
      0. 0. 0. 0. 0. 0. 0. 1.07526882e-02 1.07526882e-02 0. 0. 0. 0. 0.
      0. 0. 0. 0. 0. 0. 0. 1.07526882e-02 0. 0. 0. 0. 1.07526882e-02 0.
      0. 1.07526882e-02 0. 0. 0. 1.07526882e-02 0. 0. 0. 0. 0. 0. 0. 0.
      0. 0. 0. 0. 0. 0. 0. 0. 0. 0. 0. 0. 0. 0. 0. 0. 0. 0. 0. 0. 0. 0.
      0. 0. 0. 0. 0. 0. 0. 0. 0. 0. 0. 0. 0. 0. 0. 0. 0. 0. 0. 0. 0. 0.
      0. 0. 1.07526882e-02 0. 0. 0. 0. 1.07526882e-02 0. 0.
      1.07526882e-02 0. 0. 0. 0. 0. 0. 0. 0. 1.07526882e-02 0. 0. 0. 0.
      0. 0. 1.07526882e-02 0. 0. 0. 0. 0. 0. 0. 0. 0. 0. 0. 0. 0. 0. 0.
      0. 0. 0. 0. 0. 0. 0. 0. 1.07526882e-02 0. 1.07526882e-02 0.
      1.07526882e-02 0. 0. 0. 0. 0. 0. 0. 0. 0. 0. 0. 0. 0.
      1.07526882e-02 0. 0. 0. 0. 0. 0. 0. 1.07526882e-02 1.07526882e-02
      0. 2.15053763e-02 0. 0. 0. 0. 0. 0. 0. 0. 0. 1.07526882e-02
      1.07526882e-02 0. 0. 0. 0. 0. 0. 0. 0. 0. 0. 0. 0. 2.15053763e-02
      0. 0. 0. 0. 0. 0. 1.07526882e-02 0. 0. 0. 0. 1.07526882e-02 0. 0.
      0. 0. 0. 0. 1.07526882e-02 0. 0. 0. 0. 0. 0. 0. 0. 0. 0. 0. 0. 0.
      0. 0. 0. 0. 0. 0. 0. 0. 0. 2.15053763e-02 0. 0. 0. 0. 0. 0. 0. 0.
      0. 0. 0. 0. 0. 0. 0. 0. 0. 0. 0. 0. 0. 1.07526882e-02 0. 0. 0. 0.
      0. 0. 0. 0. 0. 0. 0. 0. 0. 0. 0. 0. 1.07526882e-02 0. 0.
      1.07526882e-02 0. 0. 0. 0. 0. 0. 0. 0. 0. 0. 0. 0. 0. 0. 0. 0. 0.
      0. 0. 0. 0. 0. 0. 0. 0. 0. 0. 0. 0. 0. 0. 0. 0. 0. 0. 0.
      1.07526882e-02 0. 0. 0. 0. 0. 0. 0. 0. 0. 0. 0. 0. 0. 0. 0. 0. 0.
      0. 0. 0. 0. 0. 0. 0. 0. 0. 0. 0. 0. 0. 0. 1.07526882e-02 0. 0. 0.
      0. 0. 0. 0. 0. 0. 0. 0. 0. 0. 0. 0. 0. 0. 0. 0. 0. 0. 0. 0. 0. 0.
      0. 0. 0. 0. 1.07526882e-02 0. 0. 0. 1.07526882e-02 0. 0. 0. 0. 0.
      0. 0. 0. 0. 0. 0. 0. 0. 0. 0. 0. 0. 0. 0. 0. 0. 0. 0. 0. 0. 0. 0.
      0. 0. 1.07526882e-02 0. 0. 0. 0. 0. 1.07526882e-02 0. 0. 0. 0. 0.
      0. 0. 0. 0. 0. 1.07526882e-02 0. 0. 0. 0. 0. 1.07526882e-02 0. 0.
      0. 0. 0. 0. 0. 0. 0. 0. 0. 0. 0. 0. 1.07526882e-02 0. 0. 0. 0. 0.
      0. 0. 0. 1.07526882e-02 0. 0. 0. 1.07526882e-02 0. 0. 0. 0. 0. 0.
      0. 0. 0. 0. 0. 0. 0. 0. 1.07526882e-02 0. 0. 0. 0. 0. 0. 0. 0.
      1.07526882e-02 0. 0. 0. 0. 0. 0. 0. 0. 0. 0. 0. 0. 0. 0. 0.
      1.07526882e-02 0. 0. 0. 0. 0. 0. 1.07526882e-02 0. 0. 0. 0. 0. 0.
      0. 0. 0. 0. 0. 0. 0. 0. 0. 0. 0. 0. 0. 0. 1.07526882e-02 0. 0. 0.
      0. 0. 0. 0. 0. 0. 0. 0. 0. 0. 0. 1.07526882e-02 0. 0. 0. 0.
      1.07526882e-02 0. 4.30107526e-02 0. 0. 0. 0. 0. 0. 0. 0. 0.
      2.15053763e-02 0. 0. 0. 0. 0. 0. 0. 2.15053763e-02 0. 0. 0. 0. 0.
      0. 0. 0. 1.07526882e-02 0. 0. 1.07526882e-02 0. 0. 0. 0. 0. 0. 0.
      3.22580636e-02 2.15053763e-02 0. 0. 0. 0. 0. 0. 0. 0. 0.
      1.07526882e-02 0. 0. 0. 0. 1.07526882e-02 0. 0. 0. 0. 0. 0. 0. 0.
      0. 0. 0. 0. 0. 0. 0. 0. 0. 1.07526882e-02 0. 0. 0. 0. 0. 0. 0. 0.
      0. 0. 0. 0. 0. 0. 1.07526882e-02 0. 0. 0. 0. 0. 0. 0. 0. 0. 0. 0.
      0. 0. 0. 0. 0. 0. 0. 0. 0. 0. 0. 1.07526882e-02 0. 0. 0. 0. 0.
      1.07526882e-02 0. 0. 0. 0. 0. 0. 0. 0. 1.07526882e-02 0. 0. 0. 0.
      0. 0. 0. 0. 0. 0. 0. 0. 0. 0. 0. 1.07526882e-02 0. 0. 0. 0. 0. 0.
      0. 0. 0. 0. 0. 0. 0. 0. 0. 0. 0. 0. 0. 0. 0. 0. 0. 0. 0. 0. 0. 0.
      0. 0. 0. 0. 0. 0. 0. 0. 1.07526882e-02 0. 0. 0. 0. 0. 0. 0. 0. 0.
      0. 0. 1.07526882e-02 0. 0. 0. 0. 0. 0. 0. 0. 0. 0. 0. 0. 0. 0. 0.
      0. 0. 0. 0. 0.</_>
    <_>
      0. 0. 9.52380989e-03 1.90476198e-02 0. 0. 0. 0. 0. 0. 0. 0. 0. 0.
      0. 0. 0. 0. 0. 0. 0. 0. 0. 0. 9.52380989e-03 0. 0. 0. 0. 0. 0. 0.
      0. 0. 0. 0. 9.52380989e-03 0. 9.52380989e-03 0. 0. 0. 0.
      5.71428612e-02 0. 0. 0. 0. 9.52380989e-03 0. 0. 0. 0. 0.
      9.52380989e-03 0. 0. 0. 0. 0. 0. 0. 0. 0. 0. 0. 0. 0. 0. 0. 0. 0.
      0. 1.90476198e-02 0. 0. 0. 0. 0. 0. 0. 0. 0. 9.52380989e-03 0. 0.
      0. 0. 0. 0. 0. 0. 0. 0. 0. 0. 0. 0. 0. 0. 0. 0. 0. 9.52380989e-03
      0. 0. 0. 0. 0. 0. 0. 0. 0. 0. 0. 0. 0. 0. 0. 0. 9.52380989e-03 0.
      0. 0. 0. 0. 0. 0. 0. 0. 9.52380989e-03 0. 0. 0. 0. 0. 0. 0. 0. 0.
      0. 0. 0. 9.52380989e-03 0. 0. 0. 0. 9.52380989e-03 0. 0. 0.
      9.52380989e-03 0. 0. 0. 0. 0. 0. 0. 0. 0. 0. 0. 0. 0. 0. 0. 0. 0.
      0. 0. 0. 0. 0. 0. 0. 0. 0. 0. 0. 0. 0. 0. 9.52380989e-03 0. 0. 0.
      0. 0. 0. 0. 0. 0. 0. 0. 9.52380989e-03 0. 0. 0. 0. 0. 0. 0. 0. 0.
      0. 0. 0. 0. 0. 0. 0. 9.52380989e-03 0. 0. 0. 0. 0. 0. 0. 0. 0. 0.
      0. 0. 0. 0. 0. 0. 0. 0. 9.52380989e-03 0. 0. 0. 0. 0. 0. 0. 0.
      9.52380989e-03 0. 0. 0. 0. 0. 0. 0. 9.52380989e-03 9.52380989e-03
      0. 0. 0. 0. 0. 0. 0. 0. 0. 0. 0. 0. 0. 0. 0. 0. 0. 0. 0. 0.
      9.52380989e-03 0. 0. 0. 0. 0. 0. 0. 0. 0. 0. 0. 0. 0. 0.
      9.52380989e-03 0. 0. 0. 0. 0. 0. 0. 0. 0. 0. 0. 0. 0. 0. 0. 0.
      9.52380989e-03 0. 0. 0. 0. 0. 0. 0. 0. 0. 0. 0. 0. 0.
      9.52380989e-03 0. 0. 0. 0. 0. 0. 0. 0. 0. 0. 9.52380989e-03
      9.52380989e-03 0. 0. 0. 0. 0. 9.52380989e-03 0. 0. 0. 0. 0. 0. 0.
      0. 0. 0. 0. 0. 9.52380989e-03 0. 0. 0. 0. 0. 9.52380989e-03 0. 0.
      0. 0. 0. 0. 9.52380989e-03 0. 0. 0. 0. 0. 0. 0. 0. 0. 0. 0. 0. 0.
      0. 0. 0. 0. 0. 9.52380989e-03 0. 1.90476198e-02 0. 0. 0. 0. 0. 0.
      0. 0. 0. 0. 0. 0. 0. 9.52380989e-03 0. 0. 0. 0. 0. 0. 0.
      9.52380989e-03 9.52380989e-03 0. 9.52380989e-03 0. 0. 0. 0. 0.
      9.52380989e-03 0. 0. 0. 9.52380989e-03 9.52380989e-03 0. 0. 0. 0.
      0. 0. 0. 0. 0. 0. 0. 0. 9.52380989e-03 0. 0. 0. 0. 0. 0.
      1.90476198e-02 0. 0. 0. 0. 9.52380989e-03 0. 0. 0. 0. 0. 0.
      9.52380989e-03 0. 0. 0. 0. 0. 0. 0. 0. 0. 0. 0. 0. 0. 0. 0. 0. 0.
      0. 0. 0. 0. 0. 9.52380989e-03 0. 0. 0. 0. 0. 0. 0. 0. 0. 0. 0. 0.
      0. 0. 0. 0. 0. 0. 0. 0. 0. 9.52380989e-03 0. 0. 0. 0. 0. 0. 0. 0.
      0. 0. 0. 0. 0. 0. 0. 0. 9.52380989e-03 0. 0. 9.52380989e-03 0. 0.
      0. 0. 0. 0. 0. 0. 0. 0. 0. 0. 0. 0. 0. 0. 0. 0. 0. 0. 0. 0. 0. 0.
      0. 0. 0. 0. 0. 0. 0. 0. 0. 0. 0. 0. 9.52380989e-03 0. 0. 0. 0. 0.
      0. 0. 0. 0. 0. 0. 0. 0. 0. 0. 0. 0. 0. 0. 0. 0. 0. 0. 0. 0. 0. 0.
      0. 0. 0. 0. 9.52380989e-03 0. 0. 0. 0. 0. 0. 0. 0. 0. 0.
      9.52380989e-03 9.52380989e-03 0. 0. 0. 0. 0. 0. 0. 0. 0.
      9.52380989e-03 0. 0. 0. 0. 0. 0. 0. 1.90476198e-02 0. 0. 0.
      9.52380989e-03 0. 0. 0. 0. 0. 0. 0. 0. 0. 9.52380989e-03 0. 0. 0.
      1.90476198e-02 0. 0. 0. 0. 9.52380989e-03 0. 0. 0. 0. 0. 0. 0. 0.
      0. 0. 9.52380989e-03 0. 0. 0. 0. 0. 0. 0. 0. 0. 0. 0. 0.
      9.52380989e-03 0. 0. 0. 0. 0. 0. 0. 0. 0. 9.52380989e-03 0. 0. 0.
      0. 0. 0. 0. 0. 0. 0. 0. 0. 0. 0. 9.52380989e-03 0. 0. 0. 0. 0.
      9.52380989e-03 0. 0. 0. 0. 0. 0. 9.52380989e-03 0. 0. 0. 0. 0. 0.
      0. 0. 0. 0. 0. 0. 0. 0. 0. 0. 0. 0. 0. 0. 0. 0. 0. 9.52380989e-03
      0. 0. 9.52380989e-03 0. 0. 0. 0. 0. 0. 0. 0. 0. 0. 0. 0. 0. 0. 0.
      0. 0. 0. 0. 9.52380989e-03 0. 0. 0. 9.52380989e-03 0. 0. 0. 0. 0.
      0. 0. 0. 0. 0. 0. 0. 0. 0. 0. 0. 9.52380989e-03 0. 0. 0. 0. 0. 0.
      0. 0. 0. 0. 0. 9.52380989e-03 0. 0. 0. 0. 0. 0. 0. 1.90476198e-02
      0. 2.85714306e-02 0. 0. 0. 0. 0. 9.52380989e-03 0. 0. 0. 0. 0. 0.
      0. 0. 0. 0. 0. 9.52380989e-03 0. 0. 0. 0. 0. 0. 0. 0.
      9.52380989e-03 0. 0. 0. 0. 0. 0. 0. 0. 0. 0. 0. 9.52380989e-03 0.
      0. 0. 0. 0. 0. 0. 0. 0. 9.52380989e-03 0. 0. 0. 0. 0. 0. 0. 0. 0.
      0. 0. 0. 0. 0. 0. 0. 0. 0. 0. 0. 0. 0. 0. 0. 0. 0. 0. 0. 0. 0. 0.
      0. 0. 0. 0. 0. 0. 9.52380989e-03 0. 0. 0. 0. 0. 0. 0. 0. 0. 0. 0.
      0. 0. 0. 0. 0. 0. 0. 0. 0. 0. 0. 9.52380989e-03 0. 0. 0. 0. 0. 0.
      9.52380989e-03 0. 0. 0. 9.52380989e-03 0. 0. 0. 0. 0.
      9.52380989e-03 0. 0. 0. 0. 0. 0. 0. 0. 0. 0. 0. 0. 0.
      9.52380989e-03 0. 0. 0. 0. 0. 0. 0. 0. 0. 0. 0. 0. 0. 0. 0. 0.
      9.52380989e-03 0. 0. 0. 0. 0. 0. 9.52380989e-03 0. 9.52380989e-03
      0. 0. 0. 0. 0. 0. 0. 0. 0. 0. 9.52380989e-03 0. 0. 0. 0. 0. 0.
      9.52380989e-03 0. 0. 0. 0. 9.52380989e-03 0. 0. 0. 0. 0. 0. 0. 0.
      0. 0. 0. 0. 0. 0. 0. 0. 0. 0. 0. 0.</_>
    <_>
      0. 0. 0. 7.81250000e-03 0. 0. 0. 0. 0. 0. 0. 0. 0. 0. 0. 0. 0. 0.
      0. 7.81250000e-03 0. 0. 1.56250000e-02 0. 0. 0. 7.81250000e-03 0.
      0. 0. 0. 0. 0. 0. 0. 0. 0. 0. 0. 0. 0. 0. 0. 3.12500000e-02 0. 0.
      0. 0. 0. 2.34375000e-02 0. 0. 0. 0. 7.81250000e-03 0. 0. 0. 0. 0.
      0. 0. 0. 7.81250000e-03 7.81250000e-03 0. 0. 0. 0. 0. 0. 0. 0.
      3.12500000e-02 0. 0. 0. 0. 0. 0. 7.81250000e-03 0. 0.
      7.81250000e-03 0. 0. 0. 0. 0. 0. 0. 0. 0. 0. 0. 0. 0. 0. 0. 0. 0.
      0. 0. 7.81250000e-03 0. 0. 0. 0. 7.81250000e-03 0. 0. 0. 0. 0. 0.
      0. 0. 0. 0. 0. 0. 0. 0. 0. 0. 0. 0. 0. 0. 0. 0. 0. 0. 0. 0. 0. 0.
      0. 0. 0. 0. 0. 7.81250000e-03 0. 0. 0. 0. 0. 0. 0. 0. 0.
      7.81250000e-03 0. 0. 0. 0. 0. 0. 0. 0. 0. 0. 7.81250000e-03 0. 0.
      0. 0. 0. 0. 0. 0. 0. 0. 0. 0. 0. 0. 2.34375000e-02 0. 0. 0. 0. 0.
      0. 0. 0. 0. 0. 7.81250000e-03 0. 0. 0. 0. 0. 7.81250000e-03 0. 0.
      0. 0. 0. 0. 0. 0. 0. 0. 0. 0. 0. 0. 0. 0. 0. 0. 7.81250000e-03 0.
      0. 0. 0. 0. 0. 0. 0. 0. 0. 0. 0. 0. 0. 0. 0. 0. 0. 0. 0. 0. 0. 0.
      0. 0. 0. 0. 0. 0. 7.81250000e-03 0. 0. 0. 0. 7.81250000e-03
      7.81250000e-03 0. 0. 0. 0. 0. 0. 0. 0. 0. 0. 0. 0. 7.81250000e-03
      0. 0. 0. 0. 0. 0. 0. 7.81250000e-03 0. 0. 0. 0. 0. 0. 0. 0. 0. 0.
      0. 0. 0. 0. 0. 0. 0. 0. 0. 0. 0. 0. 0. 7.81250000e-03 0. 0. 0. 0.
      0. 0. 0. 7.81250000e-03 0. 0. 0. 0. 0. 0. 0. 0. 0. 7.81250000e-03
      0. 0. 0. 0. 0. 0. 0. 0. 0. 7.81250000e-03 0. 0. 0. 0.
      3.90625000e-02 0. 0. 0. 0. 0. 0. 1.56250000e-02 0. 0. 0. 0. 0. 0.
      0. 0. 0. 0. 0. 0. 0. 0. 0. 0. 0. 0. 0. 0. 0. 0. 0. 0.
      7.81250000e-03 0. 7.81250000e-03 0. 0. 0. 0. 0. 0. 0. 0. 0. 0. 0.
      0. 0. 0. 0. 7.81250000e-03 0. 7.81250000e-03 0. 7.81250000e-03 0.
      0. 0. 0. 7.81250000e-03 0. 0. 0. 0. 0. 7.81250000e-03
      7.81250000e-03 0. 7.81250000e-03 0. 0. 7.81250000e-03 0. 0. 0. 0.
      0. 7.81250000e-03 7.81250000e-03 7.81250000e-03 0. 0. 0. 0. 0.
      7.81250000e-03 0. 0. 0. 1.56250000e-02 7.81250000e-03 0. 0. 0. 0.
      0. 0. 0. 0. 0. 0. 0. 0. 7.81250000e-03 0. 0. 7.81250000e-03 0. 0.
      0. 7.81250000e-03 0. 0. 0. 0. 7.81250000e-03 0. 0. 0. 0. 0. 0. 0.
      0. 0. 0. 0. 0. 0. 0. 0. 0. 0. 0. 0. 7.81250000e-03 0. 0. 0. 0. 0.
      0. 0. 0. 0. 7.81250000e-03 0. 7.81250000e-03 0. 0. 0. 0. 0.
      7.81250000e-03 7.81250000e-03 7.81250000e-03 0. 7.81250000e-03 0.
      0. 0. 0. 0. 0. 0. 0. 0. 0. 0. 0. 0. 0. 0. 0. 0. 0. 0. 0. 0. 0.
      7.81250000e-03 0. 0. 0. 7.81250000e-03 0. 0. 0. 0. 0. 0. 0. 0. 0.
      0. 0. 0. 0. 0. 0. 0. 0. 0. 0. 0. 0. 0. 0. 0. 0. 0. 0. 0. 0. 0. 0.
      0. 0. 0. 0. 0. 0. 0. 0. 0. 0. 0. 0. 0. 7.81250000e-03 0. 0. 0. 0.
      0. 0. 0. 0. 0. 0. 0. 0. 0. 0. 0. 0. 0. 0. 0. 0. 0. 0. 0. 0. 0.
      7.81250000e-03 1.56250000e-02 0. 0. 0. 7.81250000e-03 0. 0. 0. 0.
      0. 0. 0. 0. 0. 0. 0. 0. 0. 0. 0. 0. 0. 0. 0. 0. 0. 0. 0. 0. 0.
      2.34375000e-02 0. 0. 0. 1.56250000e-02 0. 0. 0. 0. 0. 0.
      7.81250000e-03 0. 0. 0. 0. 0. 0. 1.56250000e-02 0. 0. 0. 0. 0.
      7.81250000e-03 0. 0. 0. 0. 0. 0. 0. 0. 0. 0. 0. 0. 0. 0. 0. 0. 0.
      0. 7.81250000e-03 0. 0. 0. 0. 0. 0. 0. 0. 0. 0. 0. 0. 0. 0. 0.
      7.81250000e-03 0. 0. 0. 0. 0. 0. 0. 0. 0. 0. 0. 0. 7.81250000e-03
      7.81250000e-03 0. 0. 0. 0. 1.56250000e-02 0. 7.81250000e-03 0. 0.
      0. 0. 0. 0. 0. 0. 0. 0. 0. 0. 0. 0. 0. 0. 0. 0. 0. 0. 0. 0. 0. 0.
      0. 0. 0. 0. 7.81250000e-03 0. 0. 0. 0. 7.81250000e-03 0. 0. 0. 0.
      7.81250000e-03 0. 0. 0. 0. 0. 0. 7.81250000e-03 0. 0. 0. 0. 0.
      7.81250000e-03 0. 0. 0. 0. 0. 0. 0. 0. 0. 0. 0. 0. 0. 0.
      7.81250000e-03 0. 0. 0. 0. 0. 1.56250000e-02 0. 0. 0. 0. 0. 0.
      7.81250000e-03 0. 0. 0. 0. 0. 0. 0. 0. 7.81250000e-03 0. 0. 0. 0.
      0. 1.56250000e-02 0. 0. 0. 0. 0. 0. 0. 7.81250000e-03 0. 0. 0. 0.
      0. 0. 0. 0. 0. 7.81250000e-03 0. 0. 0. 0. 0. 0. 0. 0. 0. 0. 0. 0.
      0. 7.81250000e-03 0. 0. 0. 0. 0. 0. 0. 0. 0. 0. 0. 0. 0. 0. 0. 0.
      0. 0. 0. 0. 0. 0. 0. 0. 0. 0. 0. 0. 0. 0. 0. 0. 0. 0. 0. 0. 0. 0.
      0. 0. 0. 0. 0. 0. 0. 0. 0. 0. 0. 7.81250000e-03 0. 7.81250000e-03
      0. 0. 0. 0. 0. 0. 0. 7.81250000e-03 0. 0. 0. 0. 0. 0. 0. 0. 0. 0.
      0. 0. 0. 0. 0. 0. 0. 7.81250000e-03 0. 7.81250000e-03 0. 0. 0. 0.
      0. 0. 0. 0. 7.81250000e-03 0. 0. 0. 7.81250000e-03 0. 0. 0. 0. 0.
      0. 0. 0. 0. 0. 0. 0. 7.81250000e-03 0. 0. 7.81250000e-03 0. 0. 0.
      0. 0. 0. 0. 0. 0. 0. 0. 7.81250000e-03 0. 0. 0. 0. 0. 0. 0. 0. 0.
      0. 0. 0. 0. 0. 0. 0. 7.81250000e-03 0. 0. 0. 7.81250000e-03 0. 0.
      0. 7.81250000e-03 0. 0. 0. 0. 0. 0. 0. 0. 0. 0. 0. 0. 0. 0. 0. 0.
      0. 0. 0. 0. 0. 0. 0. 0. 0. 0. 0. 7.81250000e-03 0. 0. 0. 0.</_>
    <_>
      0. 0. 9.34579410e-03 9.34579410e-03 0. 0. 0. 0. 0. 0. 0. 0. 0. 0.
      0. 0. 0. 0. 0. 0. 0. 0. 0. 0. 0. 0. 0. 0. 0. 0. 0. 0. 0. 0. 0. 0.
      0. 0. 0. 0. 0. 0. 0. 2.80373823e-02 0. 0. 0. 0. 0. 9.34579410e-03
      0. 0. 0. 0. 9.34579410e-03 0. 9.34579410e-03 0. 0. 0. 0. 0. 0.
      9.34579410e-03 0. 0. 0. 0. 0. 0. 0. 0. 0. 2.80373823e-02 0. 0. 0.
      0. 0. 0. 0. 0. 0. 9.34579410e-03 0. 0. 0. 9.34579410e-03 0.
      9.34579410e-03 0. 0. 0. 0. 0. 0. 0. 0. 0. 0. 0. 0. 0.
      9.34579410e-03 0. 0. 0. 0. 0. 0. 0. 0. 0. 0. 0. 0. 0. 0. 0. 0.
      9.34579410e-03 0. 0. 0. 0. 0. 0. 0. 0. 0. 0. 0. 0. 0. 0. 0. 0. 0.
      0. 0. 0. 0. 9.34579410e-03 0. 0. 0. 0. 0. 0. 0. 0. 0.
      9.34579410e-03 0. 0. 0. 0. 0. 0. 0. 0. 9.34579410e-03 0. 0. 0.
      9.34579410e-03 0. 0. 0. 0. 0. 0. 0. 0. 0. 0. 0. 0. 9.34579410e-03
      0. 0. 0. 0. 0. 0. 0. 0. 0. 0. 9.34579410e-03 0. 0. 0. 0. 0. 0. 0.
      0. 0. 0. 0. 0. 0. 0. 0. 0. 0. 0. 0. 0. 0. 0. 0. 0. 0. 0. 0. 0. 0.
      0. 0. 0. 0. 0. 0. 0. 0. 0. 0. 0. 0. 0. 0. 0. 0. 0. 0. 0. 0. 0. 0.
      0. 0. 0. 0. 0. 0. 0. 0. 9.34579410e-03 0. 0. 0. 0. 0. 0. 0. 0. 0.
      0. 0. 0. 0. 1.86915882e-02 0. 0. 0. 0. 0. 0. 0. 9.34579410e-03 0.
      0. 0. 0. 0. 0. 0. 0. 0. 0. 0. 0. 0. 0. 0. 0. 0. 0. 0.
      9.34579410e-03 0. 0. 0. 9.34579410e-03 0. 0. 0. 0. 0. 0. 0.
      9.34579410e-03 0. 9.34579410e-03 0. 0. 9.34579410e-03 0. 0. 0. 0.
      0. 0. 0. 0. 0. 0. 0. 0. 0. 0. 9.34579410e-03 0. 0. 0. 0. 0. 0. 0.
      0. 0. 0. 0. 9.34579410e-03 0. 0. 0. 0. 0. 0. 0. 0. 0. 0. 0. 0. 0.
      0. 0. 0. 0. 0. 9.34579410e-03 0. 0. 0. 0. 0. 0. 0. 0. 0. 0. 0. 0.
      0. 0. 0. 0. 0. 0. 0. 0. 0. 0. 0. 9.34579410e-03 0. 0. 0.
      9.34579410e-03 0. 9.34579410e-03 0. 0. 0. 0. 0. 0. 0. 0. 0. 0. 0.
      9.34579410e-03 0. 0. 0. 0. 0. 0. 0. 0. 9.34579410e-03 0.
      9.34579410e-03 0. 0. 0. 0. 0. 9.34579410e-03 0. 0. 0. 0.
      9.34579410e-03 0. 0. 0. 0. 0. 0. 0. 0. 0. 0. 0. 0. 2.80373823e-02
      0. 0. 0. 0. 0. 0. 9.34579410e-03 0. 0. 0. 0. 9.34579410e-03
      9.34579410e-03 0. 0. 0. 0. 0. 0. 0. 0. 0. 9.34579410e-03 0. 0. 0.
      0. 0. 0. 0. 0. 9.34579410e-03 0. 0. 0. 0. 0. 0. 0. 0. 0. 0. 0. 0.
      0. 0. 0. 0. 9.34579410e-03 9.34579410e-03 0. 0. 0. 9.34579410e-03
      0. 0. 0. 0. 0. 0. 0. 0. 0. 0. 0. 0. 0. 0. 0. 0. 0. 0. 0. 0. 0. 0.
      0. 0. 0. 0. 9.34579410e-03 0. 0. 9.34579410e-03 0. 0. 0. 0. 0. 0.
      0. 0. 0. 0. 0. 0. 0. 0. 0. 0. 0. 0. 0. 0. 0. 0. 0. 9.34579410e-03
      0. 0. 0. 0. 0. 0. 0. 0. 0. 0. 0. 0. 9.34579410e-03 0. 0. 0. 0.
      9.34579410e-03 0. 0. 0. 0. 0. 0. 0. 0. 0. 0. 0. 0. 0. 0. 0. 0. 0.
      0. 0. 0. 0. 0. 0. 0. 0. 0. 1.86915882e-02 0. 0. 0. 9.34579410e-03
      0. 0. 0. 0. 0. 0. 0. 0. 0. 0. 0. 0. 0. 0. 0. 0. 0. 0. 0. 0. 0. 0.
      0. 0. 0. 1.86915882e-02 0. 0. 0. 9.34579410e-03 0. 0. 0. 0. 0. 0.
      9.34579410e-03 0. 0. 0. 0. 0. 9.34579410e-03 9.34579410e-03 0. 0.
      0. 0. 0. 0. 0. 0. 0. 0. 0. 0. 0. 0. 0. 9.34579410e-03 0. 0. 0. 0.
      0. 0. 0. 0. 9.34579410e-03 0. 0. 9.34579410e-03 0. 0. 0. 0.
      9.34579410e-03 0. 0. 0. 0. 0. 0. 0. 0. 0. 0. 0. 1.86915882e-02 0.
      0. 0. 0. 0. 0. 0. 0. 9.34579410e-03 9.34579410e-03 0. 0. 0. 0.
      9.34579410e-03 0. 0. 9.34579410e-03 0. 0. 0. 0. 0. 0. 0. 0. 0. 0.
      0. 0. 0. 0. 0. 9.34579410e-03 0. 0. 9.34579410e-03 0. 0. 0. 0. 0.
      0. 0. 0. 9.34579410e-03 0. 0. 0. 0. 9.34579410e-03 0. 0. 0. 0. 0.
      0. 0. 0. 0. 0. 0. 0. 0. 0. 0. 0. 0. 9.34579410e-03 0. 0.
      9.34579410e-03 0. 0. 0. 0. 0. 0. 0. 0. 0. 0. 0. 0. 0. 0. 0. 0. 0.
      9.34579410e-03 0. 0. 0. 0. 0. 0. 0. 0. 0. 0. 0. 0. 0. 0. 0.
      9.34579410e-03 0. 0. 0. 0. 0. 1.86915882e-02 0. 0. 0. 0. 0. 0. 0.
      0. 0. 0. 0. 0. 0. 9.34579410e-03 0. 0. 0. 1.86915882e-02 0. 0.
      9.34579410e-03 9.34579410e-03 9.34579410e-03 0. 0. 0. 0. 0. 0. 0.
      0. 0. 0. 0. 0. 0. 0. 0. 9.34579410e-03 0. 0. 0. 0. 0. 0. 0. 0. 0.
      0. 0. 0. 0. 0. 0. 9.34579410e-03 0. 0. 0. 0. 0. 0. 0. 0. 0. 0. 0.
      0. 0. 9.34579410e-03 0. 0. 0. 0. 0. 0. 0. 0. 0. 0. 0. 0. 0. 0. 0.
      0. 0. 0. 0. 0. 0. 0. 9.34579410e-03 0. 0. 0. 0. 9.34579410e-03 0.
      0. 0. 0. 0. 0. 0. 0. 0. 0. 0. 0. 9.34579410e-03 0. 0. 0. 0. 0. 0.
      0. 0. 0. 0. 9.34579410e-03 0. 0. 0. 9.34579410e-03 0. 0. 0. 0. 0.
      0. 9.34579410e-03 0. 0. 0. 0. 0. 0. 0. 0. 9.34579410e-03 0. 0. 0.
      0. 0. 0. 0. 0. 0. 0. 0. 0. 0. 0. 0. 0. 0. 0. 0. 0. 0. 0. 0. 0. 0.
      0. 0. 0. 0. 0. 0. 0. 0. 0. 0. 0. 0. 0. 0. 0. 0. 0. 0. 0.
      9.34579410e-03 0. 0. 9.34579410e-03 0. 0. 0. 0. 0. 0. 0. 0.
      9.34579410e-03 0. 0. 0. 0. 0. 0. 0. 0. 0. 0. 0. 0.</_>
    <_>
      0. 1.52671756e-02 0. 7.63358781e-03 0. 0. 0. 0. 0. 0. 0. 0. 0. 0.
      0. 0. 0. 0. 0. 0. 0. 0. 0. 0. 7.63358781e-03 0. 0. 0. 0. 0. 0. 0.
      0. 0. 0. 0. 7.63358781e-03 0. 7.63358781e-03 0. 0. 0. 0.
      3.81679386e-02 0. 1.52671756e-02 0. 0. 0. 0. 0. 0. 0. 0.
      7.63358781e-03 0. 7.63358781e-03 7.63358781e-03 0. 0. 0. 0. 0. 0.
      0. 0. 0. 0. 0. 0. 0. 0. 0. 1.52671756e-02 0. 0. 0. 0.
      7.63358781e-03 0. 0. 0. 0. 0. 0. 0. 0. 0. 0. 0. 0. 0. 0. 0. 0. 0.
      0. 0. 0. 0. 0. 0. 0. 7.63358781e-03 0. 0. 0. 0. 0. 0. 0.
      7.63358781e-03 0. 0. 0. 0. 0. 0. 0. 0. 0. 0. 0. 0. 0.
      7.63358781e-03 0. 0. 0. 0. 7.63358781e-03 7.63358781e-03 0. 0. 0.
      0. 0. 0. 0. 0. 0. 0. 7.63358781e-03 0. 0. 0. 0. 0. 0. 0. 0. 0.
      7.63358781e-03 0. 0. 7.63358781e-03 0. 0. 0. 0. 0. 0. 0. 0. 0. 0.
      0. 0. 0. 0. 0. 0. 0. 0. 0. 0. 0. 0. 0. 7.63358781e-03 0. 0. 0. 0.
      0. 0. 0. 0. 0. 0. 0. 0. 0. 0. 0. 0. 0. 0. 0. 0. 0. 0. 0. 0. 0. 0.
      0. 0. 0. 0. 0. 0. 0. 7.63358781e-03 0. 0. 0. 0. 0. 0. 0. 0. 0. 0.
      0. 0. 0. 0. 0. 0. 0. 0. 0. 0. 0. 0. 0. 0. 0. 0. 0. 0. 0. 0. 0. 0.
      0. 0. 0. 7.63358781e-03 0. 0. 0. 0. 0. 0. 0. 0. 0. 0. 0. 0. 0. 0.
      0. 0. 0. 7.63358781e-03 7.63358781e-03 0. 0. 7.63358781e-03 0. 0.
      0. 0. 0. 7.63358781e-03 0. 0. 0. 0. 0. 0. 0. 0. 0. 0. 0. 0.
      7.63358781e-03 0. 0. 0. 0. 0. 0. 0. 0. 0. 0. 0. 0. 7.63358781e-03
      0. 0. 0. 0. 0. 0. 0. 0. 0. 0. 0. 0. 0. 0. 0. 0. 7.63358781e-03 0.
      0. 7.63358781e-03 0. 0. 0. 0. 7.63358781e-03 0. 0. 0. 0. 0. 0. 0.
      0. 0. 0. 0. 0. 0. 0. 0. 0. 0. 0. 0. 0. 0. 0. 0. 0. 0. 0. 0. 0. 0.
      0. 0. 0. 0. 0. 0. 0. 0. 0. 0. 0. 0. 0. 0. 1.52671756e-02 0. 0. 0.
      0. 0. 1.52671756e-02 0. 3.05343512e-02 0. 0. 0. 7.63358781e-03 0.
      0. 0. 0. 0. 0. 0. 0. 7.63358781e-03 0. 0. 7.63358781e-03 0. 0. 0.
      0. 0. 0. 0. 0. 0. 0. 2.29007639e-02 0. 0. 0. 0. 0. 7.63358781e-03
      0. 0. 0. 7.63358781e-03 7.63358781e-03 0. 0. 0. 0. 7.63358781e-03
      0. 0. 0. 7.63358781e-03 0. 0. 0. 7.63358781e-03 0. 0. 0. 0. 0. 0.
      1.52671756e-02 0. 0. 0. 0. 1.52671756e-02 0. 0. 0. 0. 0. 0. 0. 0.
      0. 0. 7.63358781e-03 0. 0. 0. 0. 0. 0. 0. 0. 0. 0. 0. 0. 0. 0. 0.
      0. 0. 0. 1.52671756e-02 0. 0. 0. 0. 0. 0. 0. 7.63358781e-03 0. 0.
      0. 0. 0. 0. 0. 0. 0. 0. 0. 0. 0. 0. 0. 0. 0. 0. 0. 0. 0. 0. 0. 0.
      0. 0. 1.52671756e-02 0. 0. 0. 7.63358781e-03 0. 0. 0. 0. 0. 0. 0.
      7.63358781e-03 0. 0. 0. 0. 0. 0. 0. 0. 0. 0. 0. 0. 2.29007639e-02
      0. 0. 0. 0. 0. 0. 0. 0. 0. 0. 0. 0. 0. 7.63358781e-03 0. 0. 0. 0.
      7.63358781e-03 0. 0. 0. 0. 0. 0. 0. 0. 0. 0. 0. 0. 0. 0. 0. 0. 0.
      0. 0. 0. 0. 0. 0. 0. 0. 0. 0. 0. 0. 0. 0. 7.63358781e-03 0. 0. 0.
      1.52671756e-02 0. 0. 0. 0. 0. 0. 0. 0. 0. 0. 0. 0. 0. 0. 0. 0. 0.
      7.63358781e-03 0. 0. 0. 0. 0. 0. 0. 7.63358781e-03 0. 0. 0.
      7.63358781e-03 0. 0. 0. 0. 0. 0. 7.63358781e-03 0. 0. 0. 0. 0. 0.
      7.63358781e-03 0. 0. 0. 0. 0. 7.63358781e-03 0. 0. 0. 0. 0. 0. 0.
      7.63358781e-03 0. 0. 0. 0. 0. 0. 0. 0. 0. 0. 0. 0. 0. 0.
      2.29007639e-02 7.63358781e-03 0. 0. 7.63358781e-03 0. 0. 0. 0. 0.
      7.63358781e-03 0. 0. 0. 0. 0. 0. 0. 7.63358781e-03 0. 0. 0. 0. 0.
      0. 7.63358781e-03 0. 0. 7.63358781e-03 0. 0. 7.63358781e-03 0. 0.
      0. 0. 0. 0. 7.63358781e-03 0. 0. 0. 0. 0. 0. 0. 0. 0. 0. 0. 0. 0.
      0. 0. 0. 0. 0. 0. 0. 0. 0. 0. 7.63358781e-03 0. 0. 7.63358781e-03
      0. 0. 0. 0. 0. 0. 0. 0. 0. 0. 0. 0. 0. 0. 0. 0. 0. 0. 0.
      2.29007639e-02 0. 0. 0. 0. 0. 0. 0. 0. 0. 0. 0. 0. 0. 0. 0. 0. 0.
      0. 0. 7.63358781e-03 0. 0. 0. 0. 0. 0. 0. 0. 0. 0. 0. 0. 0. 0. 0.
      7.63358781e-03 0. 0. 0. 0. 0. 0. 2.29007639e-02 0. 0. 0.
      7.63358781e-03 0. 0. 0. 7.63358781e-03 0. 7.63358781e-03 0. 0. 0.
      0. 0. 0. 0. 7.63358781e-03 7.63358781e-03 7.63358781e-03 0. 0.
      7.63358781e-03 0. 0. 0. 7.63358781e-03 0. 0. 0. 0. 0. 0. 0. 0. 0.
      0. 7.63358781e-03 7.63358781e-03 0. 0. 7.63358781e-03 0. 0. 0. 0.
      0. 0. 7.63358781e-03 0. 0. 0. 0. 0. 0. 0. 0. 0. 0. 0. 0. 0. 0. 0.
      0. 0. 0. 0. 0. 0. 0. 0. 0. 0. 0. 0. 0. 0. 0. 0. 0. 0. 0. 0. 0. 0.
      7.63358781e-03 0. 0. 7.63358781e-03 0. 7.63358781e-03 0. 0. 0. 0.
      0. 0. 0. 0. 0. 0. 0. 0. 0. 0. 7.63358781e-03 0. 0. 7.63358781e-03
      0. 0. 0. 0. 0. 0. 0. 0. 0. 0. 7.63358781e-03 7.63358781e-03 0. 0.
      0. 0. 0. 0. 0. 0. 0. 0. 0. 0. 0. 0. 0. 0. 0. 0. 0. 0. 0. 0. 0. 0.
      0. 0. 0. 0. 0. 0. 0. 0. 0. 0. 0. 0. 0. 0. 0. 0. 0. 0. 0. 0. 0. 0.
      0. 0. 7.63358781e-03 0. 0. 0. 0. 0. 0. 7.63358781e-03 0. 0. 0. 0.
      0. 0. 0. 0. 0. 0. 0. 1.52671756e-02 0. 0. 0. 0. 0. 0. 0. 0. 0.
      7.63358781e-03 0. 0. 0. 0. 0. 0. 0. 0. 0. 0.</_>
    <_>
      0. 1.96078438e-02 9.80392192e-03 0. 0. 0. 0. 0. 0. 9.80392192e-03
      0. 0. 0. 0. 0. 0. 0. 0. 0. 0. 0. 0. 0. 0. 0. 0. 0. 0. 0. 0.
      9.80392192e-03 0. 0. 0. 0. 0. 0. 0. 0. 0. 0. 0. 0. 9.80392192e-03
      0. 9.80392192e-03 0. 0. 0. 2.94117667e-02 0. 0. 0. 0.
      9.80392192e-03 0. 0. 0. 0. 0. 0. 0. 0. 0. 0. 0. 0. 0. 0. 0. 0. 0.
      0. 0. 0. 0. 0. 0. 0. 0. 0. 0. 0. 0. 0. 0. 0. 0. 0. 0. 0.
      9.80392192e-03 0. 0. 0. 0. 0. 0. 0. 9.80392192e-03 0. 0. 0. 0. 0.
      0. 0. 0. 0. 0. 0. 0. 0. 0. 0. 0. 0. 0. 0. 0. 0. 0. 0. 0. 0. 0. 0.
      0. 0. 0. 0. 0. 0. 0. 0. 0. 0. 0. 0. 0. 0. 0. 0. 0. 0. 0. 0. 0.
      9.80392192e-03 0. 0. 0. 9.80392192e-03 0. 0. 0. 0. 0. 0. 0. 0.
      9.80392192e-03 0. 0. 0. 0. 0. 0. 0. 0. 0. 0. 9.80392192e-03 0. 0.
      0. 0. 0. 0. 0. 0. 0. 0. 0. 0. 0. 0. 0. 0. 0. 0. 0. 0. 0. 0. 0. 0.
      0. 0. 0. 0. 0. 0. 0. 0. 0. 0. 0. 0. 9.80392192e-03 0. 0.
      9.80392192e-03 0. 0. 0. 0. 0. 0. 0. 0. 0. 0. 0. 0. 0. 0. 0. 0. 0.
      0. 0. 0. 0. 0. 0. 0. 0. 0. 0. 0. 1.96078438e-02 0. 0. 0. 0. 0. 0.
      0. 9.80392192e-03 0. 0. 0. 0. 0. 0. 0. 0. 0. 0. 0. 0. 0. 0. 0. 0.
      0. 0. 0. 0. 0. 9.80392192e-03 0. 0. 0. 0. 0. 9.80392192e-03 0. 0.
      0. 0. 0. 9.80392192e-03 0. 0. 0. 0. 0. 0. 0. 0. 9.80392192e-03 0.
      0. 9.80392192e-03 0. 0. 0. 0. 9.80392192e-03 0. 0. 0. 0.
      9.80392192e-03 0. 0. 0. 0. 0. 0. 0. 0. 0. 0. 0. 0. 0. 0. 0. 0. 0.
      9.80392192e-03 0. 0. 0. 0. 2.94117667e-02 0. 0. 0. 0. 0. 0. 0.
      9.80392192e-03 0. 0. 0. 0. 0. 0. 0. 0. 0. 0. 0. 9.80392192e-03 0.
      0. 0. 0. 0. 0. 0. 0. 0. 0. 0. 9.80392192e-03 0. 9.80392192e-03 0.
      0. 0. 0. 0. 0. 0. 0. 0. 0. 0. 0. 0. 0. 0. 9.80392192e-03 0. 0. 0.
      0. 0. 9.80392192e-03 0. 9.80392192e-03 9.80392192e-03 0. 0. 0. 0.
      0. 0. 0. 0. 9.80392192e-03 0. 0. 9.80392192e-03 0. 0. 0. 0. 0. 0.
      0. 0. 0. 9.80392192e-03 0. 0. 0. 0. 0. 0. 0. 0. 0. 0. 0. 0. 0. 0.
      0. 0. 0. 0. 0. 0. 0. 0. 0. 0. 0. 0. 0. 0. 0. 0. 0. 0. 0.
      1.96078438e-02 0. 0. 0. 0. 0. 0. 0. 0. 9.80392192e-03 0. 0. 0. 0.
      0. 0. 0. 0. 0. 0. 9.80392192e-03 0. 0. 0. 0. 0. 0. 0. 0. 0. 0. 0.
      0. 0. 0. 0. 9.80392192e-03 9.80392192e-03 0. 0. 0. 0. 0. 0. 0. 0.
      0. 0. 0. 0. 0. 0. 9.80392192e-03 0. 0. 0. 0. 0. 0. 0. 0. 0. 0. 0.
      0. 4.90196086e-02 0. 0. 0. 0. 1.96078438e-02 0. 0. 0. 0. 0. 0. 0.
      0. 0. 0. 0. 0. 0. 0. 9.80392192e-03 0. 9.80392192e-03 0. 0. 0. 0.
      0. 0. 0. 0. 0. 0. 9.80392192e-03 0. 9.80392192e-03 9.80392192e-03
      0. 0. 0. 0. 0. 0. 0. 9.80392192e-03 0. 0. 0. 0. 0. 0. 0. 0. 0. 0.
      0. 0. 0. 0. 0. 0. 0. 0. 0. 0. 0. 9.80392192e-03 0. 0. 0.
      9.80392192e-03 0. 0. 0. 0. 9.80392192e-03 9.80392192e-03 0. 0. 0.
      9.80392192e-03 0. 0. 0. 0. 0. 0. 0. 0. 0. 0. 0. 0. 0. 0. 0. 0. 0.
      0. 0. 0. 0. 0. 0. 0. 0. 0. 0. 0. 0. 9.80392192e-03 0. 0. 0. 0. 0.
      0. 0. 0. 0. 0. 0. 0. 0. 0. 0. 0. 0. 0. 0. 0. 0. 0. 0.
      9.80392192e-03 0. 0. 0. 0. 0. 0. 0. 0. 0. 0. 0. 0. 0. 0.
      1.96078438e-02 0. 0. 1.96078438e-02 9.80392192e-03 0. 0. 0. 0. 0.
      0. 0. 0. 0. 0. 0. 0. 0. 0. 0. 0. 0. 9.80392192e-03 0. 0. 0. 0. 0.
      0. 0. 0. 0. 0. 0. 0. 9.80392192e-03 0. 0. 9.80392192e-03 0. 0. 0.
      0. 0. 0. 0. 0. 0. 0. 0. 0. 0. 0. 0. 0. 0. 0. 0. 0. 0. 0. 0. 0. 0.
      0. 0. 0. 0. 0. 0. 0. 1.96078438e-02 0. 0. 0. 0. 9.80392192e-03 0.
      0. 0. 0. 0. 0. 0. 0. 0. 0. 0. 0. 0. 0. 0. 0. 0. 0. 0. 0. 0. 0. 0.
      0. 0. 0. 0. 0. 0. 0. 0. 0. 0. 9.80392192e-03 0. 0. 0. 0. 0. 0.
      9.80392192e-03 0. 0. 0. 0. 0. 0. 0. 0. 0. 0. 0. 0. 0. 0. 0. 0. 0.
      0. 1.96078438e-02 0. 0. 0. 0. 0. 0. 0. 0. 0. 0. 0. 0. 0. 0. 0. 0.
      9.80392192e-03 0. 0. 0. 0. 0. 0. 0. 0. 0. 0. 0. 0. 0. 0. 0. 0.
      9.80392192e-03 0. 0. 0. 0. 0. 0. 0. 0. 0. 0. 0. 0. 0. 0. 0. 0. 0.
      0. 0. 0. 0. 0. 0. 9.80392192e-03 0. 0. 0. 0. 0. 0. 0. 0. 0. 0.
      9.80392192e-03 0. 0. 0. 0. 0. 0. 0. 0. 0. 0. 0. 0. 0. 0. 0. 0. 0.
      0. 9.80392192e-03 0. 0. 0. 0. 0. 0. 1.96078438e-02 0. 0. 0. 0. 0.
      9.80392192e-03 0. 0. 9.80392192e-03 0. 0. 0. 9.80392192e-03 0. 0.
      0. 0. 9.80392192e-03 0. 0. 0. 0. 0. 0. 0. 0. 0. 0. 0. 0. 0. 0.
      1.96078438e-02 0. 0. 0. 0. 0. 0. 0. 0. 9.80392192e-03 0. 0. 0. 0.
      0. 0. 0. 0. 0. 0. 0. 0. 0. 0. 0. 0. 0. 0. 0. 0. 0. 9.80392192e-03
      0. 0. 0. 0. 0. 0. 0. 0. 0. 0. 0. 0. 0. 0. 0. 0. 0. 0. 0. 0. 0. 0.
      0. 0. 0. 0. 0. 0. 0. 0. 0. 0. 0. 0. 0. 0. 0. 0. 0. 0. 0. 0. 0. 0.
      9.80392192e-03 0. 0.</_>
    <_>
      0. 1.92307699e-02 9.61538497e-03 0. 0. 0. 0. 0. 0. 9.61538497e-03
      0. 0. 0. 0. 0. 0. 0. 0. 0. 0. 0. 0. 0. 0. 0. 9.61538497e-03 0. 0.
      0. 0. 9.61538497e-03 0. 0. 0. 0. 0. 0. 0. 0. 0. 0. 0. 0.
      9.61538497e-03 0. 0. 0. 0. 0. 9.61538497e-03 9.61538497e-03 0. 0.
      0. 9.61538497e-03 0. 0. 0. 0. 0. 0. 0. 0. 0. 0. 0. 0. 0. 0. 0. 0.
      0. 0. 9.61538497e-03 0. 0. 0. 0. 0. 0. 0. 0. 0. 0. 0. 0. 0. 0. 0.
      0. 0. 0. 0. 0. 0. 0. 0. 0. 0. 9.61538497e-03 0. 0. 9.61538497e-03
      0. 0. 0. 0. 0. 0. 0. 0. 0. 0. 0. 0. 0. 0. 0. 0. 0. 0. 0. 0. 0. 0.
      0. 0. 0. 0. 0. 0. 0. 0. 0. 0. 0. 0. 0. 0. 0. 0. 0. 0. 0. 0. 0. 0.
      0. 9.61538497e-03 0. 0. 0. 9.61538497e-03 0. 0. 0. 0. 0. 0. 0. 0.
      9.61538497e-03 0. 0. 0. 0. 0. 0. 0. 0. 0. 0. 9.61538497e-03 0. 0.
      0. 0. 0. 0. 0. 0. 0. 0. 0. 0. 0. 0. 0. 0. 0. 0. 0. 0. 0. 0. 0. 0.
      0. 0. 0. 0. 0. 0. 0. 0. 0. 0. 0. 0. 1.92307699e-02 0. 0. 0.
      9.61538497e-03 0. 0. 0. 0. 0. 0. 0. 0. 0. 0. 0. 0. 0. 0. 0. 0. 0.
      0. 0. 0. 0. 0. 0. 0. 0. 0. 0. 9.61538497e-03 0. 0. 0. 0. 0. 0. 0.
      0. 0. 0. 0. 0. 0. 0. 0. 0. 0. 0. 0. 0. 0. 0. 0. 0. 0. 0. 0. 0. 0.
      9.61538497e-03 0. 0. 0. 0. 0. 9.61538497e-03 0. 0. 0. 0. 0.
      9.61538497e-03 0. 0. 0. 0. 0. 0. 0. 0. 9.61538497e-03 0. 0.
      9.61538497e-03 0. 0. 0. 0. 0. 0. 0. 0. 0. 9.61538497e-03 0. 0. 0.
      0. 0. 0. 0. 0. 0. 0. 0. 0. 0. 0. 0. 0. 0. 9.61538497e-03 0. 0. 0.
      0. 2.88461559e-02 0. 0. 0. 0. 0. 0. 0. 0. 0. 0. 0. 0. 0. 0. 0. 0.
      0. 0. 0. 9.61538497e-03 0. 0. 0. 0. 0. 0. 0. 0. 0. 0. 0.
      9.61538497e-03 0. 0. 0. 0. 0. 0. 0. 0. 0. 0. 0. 0. 0. 0. 0. 0. 0.
      9.61538497e-03 0. 0. 0. 0. 0. 9.61538497e-03 0. 0. 9.61538497e-03
      0. 0. 0. 0. 0. 0. 0. 0. 9.61538497e-03 0. 0. 0. 0. 0. 0. 0. 0. 0.
      0. 0. 0. 9.61538497e-03 0. 0. 0. 0. 0. 0. 0. 0. 0. 0. 0. 0. 0. 0.
      0. 0. 0. 0. 0. 0. 0. 0. 0. 0. 0. 0. 0. 0. 0. 0. 9.61538497e-03 0.
      0. 9.61538497e-03 0. 0. 0. 0. 0. 0. 0. 0. 0. 0. 0. 0. 0. 0. 0. 0.
      0. 0. 0. 9.61538497e-03 0. 0. 0. 0. 0. 0. 0. 0. 0. 0. 0. 0. 0. 0.
      0. 9.61538497e-03 9.61538497e-03 0. 0. 0. 0. 0. 9.61538497e-03 0.
      0. 0. 0. 0. 0. 0. 0. 0. 0. 0. 0. 0. 0. 0. 0. 0. 0. 0. 0. 0.
      3.84615399e-02 0. 0. 0. 0. 9.61538497e-03 0. 0. 0. 0. 0. 0. 0. 0.
      0. 0. 0. 0. 0. 0. 9.61538497e-03 0. 9.61538497e-03 0. 0. 0. 0. 0.
      0. 0. 0. 0. 0. 9.61538497e-03 0. 9.61538497e-03 9.61538497e-03 0.
      0. 0. 0. 0. 0. 0. 9.61538497e-03 0. 0. 0. 0. 0. 9.61538497e-03 0.
      0. 0. 0. 0. 0. 0. 0. 0. 0. 9.61538497e-03 0. 0. 0. 0.
      9.61538497e-03 0. 0. 0. 1.92307699e-02 0. 0. 0. 0. 9.61538497e-03
      1.92307699e-02 0. 0. 0. 9.61538497e-03 0. 0. 0. 0. 0. 0.
      9.61538497e-03 0. 0. 0. 0. 0. 9.61538497e-03 0. 0. 0. 0. 0. 0. 0.
      0. 0. 0. 0. 0. 0. 0. 0. 0. 9.61538497e-03 0. 0. 0. 0.
      9.61538497e-03 0. 0. 0. 0. 0. 0. 0. 0. 0. 0. 0. 0. 0. 0. 0.
      9.61538497e-03 0. 0. 9.61538497e-03 0. 0. 0. 0. 0. 0. 0. 0. 0. 0.
      0. 0. 0. 0. 9.61538497e-03 9.61538497e-03 0. 1.92307699e-02 0. 0.
      0. 0. 0. 0. 0. 0. 0. 0. 0. 0. 0. 9.61538497e-03 0. 0. 0. 0. 0. 0.
      0. 0. 0. 0. 0. 0. 0. 9.61538497e-03 0. 0. 0. 9.61538497e-03 0. 0.
      1.92307699e-02 0. 0. 0. 0. 0. 0. 0. 0. 0. 0. 0. 0. 0. 0. 0. 0. 0.
      0. 0. 9.61538497e-03 0. 0. 0. 0. 0. 0. 0. 0. 0. 0. 0. 0.
      9.61538497e-03 0. 0. 0. 0. 9.61538497e-03 0. 0. 0. 0.
      9.61538497e-03 0. 0. 0. 0. 0. 0. 0. 0. 0. 0. 0. 0. 0. 0. 0. 0. 0.
      0. 0. 0. 0. 0. 0. 0. 0. 0. 0. 0. 9.61538497e-03 0. 0. 0. 0. 0. 0.
      9.61538497e-03 0. 9.61538497e-03 0. 0. 0. 0. 0. 0. 0. 0. 0. 0. 0.
      0. 0. 0. 0. 0. 9.61538497e-03 0. 0. 0. 0. 0. 0. 0. 0. 0. 0. 0. 0.
      0. 0. 0. 0. 1.92307699e-02 0. 0. 0. 0. 0. 0. 0. 0. 0. 0. 0. 0. 0.
      0. 0. 0. 9.61538497e-03 9.61538497e-03 0. 0. 0. 0. 0. 0. 0. 0. 0.
      0. 0. 0. 0. 0. 0. 0. 0. 0. 0. 0. 0. 0. 9.61538497e-03 0. 0. 0. 0.
      0. 0. 0. 0. 0. 0. 9.61538497e-03 0. 0. 0. 0. 0. 0. 0. 0.
      9.61538497e-03 0. 0. 0. 0. 0. 0. 0. 0. 0. 9.61538497e-03 0. 0. 0.
      0. 0. 0. 9.61538497e-03 0. 0. 0. 0. 0. 0. 0. 0. 0. 0. 0. 0. 0. 0.
      0. 0. 0. 1.92307699e-02 0. 0. 0. 0. 0. 0. 0. 0. 0. 0. 0. 0. 0. 0.
      1.92307699e-02 0. 0. 0. 0. 0. 0. 0. 0. 9.61538497e-03
      9.61538497e-03 0. 0. 0. 0. 0. 0. 0. 0. 0. 0. 0. 0. 0. 0. 0. 0. 0.
      0. 0. 0. 9.61538497e-03 0. 0. 0. 0. 0. 0. 0. 0. 0. 0. 0. 0. 0. 0.
      0. 0. 0. 0. 0. 0. 0. 0. 0. 0. 0. 0. 0. 0. 0. 0. 0. 0. 0. 0. 0. 0.
      0. 0. 0. 0. 0. 0. 0. 0. 9.61538497e-03 0. 0.</_>
    <_>
      0. 1.88679248e-02 0. 0. 0. 0. 0. 0. 0. 0. 0. 0. 0. 0. 0. 0. 0. 0.
      0. 0. 0. 0. 0. 0. 9.43396240e-03 0. 0. 0. 0. 0. 9.43396240e-03 0.
      0. 0. 0. 0. 0. 0. 0. 0. 0. 0. 0. 1.88679248e-02 0. 9.43396240e-03
      0. 0. 0. 9.43396240e-03 0. 0. 0. 0. 9.43396240e-03 0. 0. 0. 0. 0.
      0. 0. 0. 0. 0. 0. 0. 0. 0. 0. 0. 0. 0. 1.88679248e-02 0. 0. 0. 0.
      0. 0. 0. 0. 0. 0. 0. 0. 0. 0. 0. 0. 0. 9.43396240e-03 0. 0. 0. 0.
      0. 0. 0. 9.43396240e-03 0. 0. 9.43396240e-03 0. 0. 0. 0. 0. 0. 0.
      0. 0. 0. 0. 0. 0. 0. 0. 0. 0. 0. 0. 0. 0. 0. 0. 0. 0. 0. 0. 0. 0.
      0. 0. 0. 0. 0. 0. 0. 0. 9.43396240e-03 0. 0. 9.43396240e-03 0. 0.
      0. 0. 9.43396240e-03 0. 0. 0. 9.43396240e-03 0. 0. 0. 0. 0. 0. 0.
      0. 9.43396240e-03 0. 0. 0. 0. 0. 0. 0. 0. 0. 0. 9.43396240e-03 0.
      0. 0. 0. 0. 0. 0. 0. 0. 0. 0. 0. 0. 0. 0. 0. 9.43396240e-03 0. 0.
      0. 0. 0. 0. 0. 0. 0. 0. 0. 0. 0. 0. 0. 0. 0. 0. 0. 0. 0. 0. 0. 0.
      0. 0. 0. 0. 0. 0. 0. 0. 0. 0. 0. 0. 0. 0. 0. 0. 0. 0. 0. 0. 0. 0.
      0. 0. 0. 0. 0. 0. 0. 0. 0. 0. 0. 9.43396240e-03 0. 0. 0. 0. 0. 0.
      0. 0. 0. 0. 0. 9.43396240e-03 0. 0. 0. 0. 0. 0. 0. 0. 0. 0. 0.
      9.43396240e-03 0. 0. 0. 0. 0. 0. 0. 0. 0. 0. 0. 9.43396240e-03 0.
      0. 0. 0. 0. 0. 0. 0. 9.43396240e-03 0. 0. 9.43396240e-03 0. 0. 0.
      0. 0. 0. 0. 0. 0. 9.43396240e-03 0. 0. 0. 0. 0. 0. 0. 0. 0. 0. 0.
      0. 0. 0. 0. 0. 0. 9.43396240e-03 0. 0. 9.43396240e-03 0.
      2.83018872e-02 0. 0. 0. 0. 0. 0. 0. 9.43396240e-03 0. 0. 0. 0. 0.
      0. 0. 0. 0. 0. 0. 0. 0. 0. 0. 0. 0. 0. 0. 0. 0. 0. 0.
      9.43396240e-03 0. 9.43396240e-03 0. 0. 0. 0. 0. 0. 0. 0. 0. 0. 0.
      0. 0. 0. 0. 9.43396240e-03 0. 0. 0. 0. 0. 2.83018872e-02 0.
      9.43396240e-03 1.88679248e-02 0. 0. 0. 0. 0. 0. 0. 0.
      9.43396240e-03 0. 0. 0. 0. 0. 0. 0. 0. 0. 0. 0. 0. 0. 0. 0. 0. 0.
      0. 0. 0. 0. 0. 0. 0. 0. 0. 0. 0. 0. 0. 0. 0. 0. 0. 9.43396240e-03
      0. 0. 0. 9.43396240e-03 0. 0. 0. 0. 9.43396240e-03 0. 0.
      9.43396240e-03 0. 0. 0. 0. 0. 0. 0. 0. 0. 0. 0. 0. 0. 0. 0. 0. 0.
      0. 0. 9.43396240e-03 0. 0. 0. 0. 0. 0. 0. 0. 0. 0. 0. 0. 0. 0. 0.
      9.43396240e-03 9.43396240e-03 0. 0. 0. 0. 0. 9.43396240e-03 0. 0.
      0. 0. 0. 0. 0. 0. 0. 0. 0. 0. 0. 0. 0. 0. 0. 0. 0. 0. 0.
      1.88679248e-02 0. 0. 0. 0. 9.43396240e-03 0. 0. 0. 0. 0. 0. 0. 0.
      9.43396240e-03 0. 0. 0. 0. 0. 0. 0. 9.43396240e-03 0. 0. 0. 0. 0.
      0. 0. 0. 0. 0. 9.43396240e-03 0. 9.43396240e-03 0. 0. 0. 0. 0. 0.
      0. 0. 9.43396240e-03 0. 0. 0. 0. 0. 0. 0. 0. 0. 0. 0. 0. 0. 0. 0.
      0. 0. 0. 0. 0. 0. 9.43396240e-03 0. 0. 0. 1.88679248e-02 0. 0. 0.
      0. 1.88679248e-02 0. 0. 0. 0. 9.43396240e-03 0. 0. 0. 0. 0. 0. 0.
      0. 0. 0. 0. 0. 0. 0. 0. 0. 0. 0. 0. 0. 0. 0. 0. 0. 0. 0. 0. 0. 0.
      9.43396240e-03 0. 0. 0. 0. 0. 0. 0. 0. 0. 0. 0. 0. 0. 0. 0. 0. 0.
      0. 0. 0. 0. 0. 0. 9.43396240e-03 0. 0. 0. 0. 0. 0. 0. 0. 0. 0. 0.
      0. 0. 0. 9.43396240e-03 9.43396240e-03 0. 1.88679248e-02
      9.43396240e-03 0. 0. 0. 0. 0. 0. 0. 0. 0. 0. 0. 0. 0. 0. 0. 0. 0.
      0. 0. 0. 0. 0. 0. 0. 0. 0. 0. 0. 0. 0. 9.43396240e-03 0. 0.
      9.43396240e-03 0. 0. 0. 0. 0. 0. 0. 0. 0. 9.43396240e-03 0. 0. 0.
      0. 0. 0. 0. 0. 0. 0. 0. 0. 0. 0. 0. 0. 0. 0. 0. 0. 0. 0.
      9.43396240e-03 0. 0. 0. 0. 9.43396240e-03 0. 0. 0. 0. 0. 0. 0. 0.
      0. 0. 0. 0. 0. 0. 0. 9.43396240e-03 0. 0. 0. 0. 0. 0. 0. 0. 0. 0.
      0. 0. 0. 0. 0. 0. 0. 9.43396240e-03 0. 0. 0. 0. 0. 0.
      9.43396240e-03 0. 9.43396240e-03 0. 0. 0. 0. 0. 0. 0. 0. 0. 0. 0.
      0. 0. 0. 0. 0. 1.88679248e-02 0. 0. 0. 0. 0. 0. 0. 0. 0. 0. 0. 0.
      0. 0. 0. 0. 1.88679248e-02 0. 0. 0. 0. 0. 0. 0. 0. 0. 0. 0. 0. 0.
      0. 0. 0. 9.43396240e-03 1.88679248e-02 0. 0. 0. 0. 0. 0. 0. 0. 0.
      0. 0. 0. 0. 0. 0. 0. 0. 0. 0. 0. 0. 0. 0. 0. 0. 0. 0. 0. 0. 0. 0.
      0. 0. 9.43396240e-03 0. 0. 0. 0. 0. 0. 0. 0. 9.43396240e-03 0. 0.
      0. 0. 0. 0. 0. 0. 9.43396240e-03 9.43396240e-03 0. 0. 0. 0. 0. 0.
      9.43396240e-03 0. 0. 0. 0. 0. 0. 0. 0. 9.43396240e-03 0. 0.
      9.43396240e-03 0. 0. 0. 0. 0. 1.88679248e-02 0. 0. 0. 0. 0. 0. 0.
      0. 0. 0. 0. 0. 0. 0. 1.88679248e-02 9.43396240e-03 0. 0. 0. 0. 0.
      0. 0. 9.43396240e-03 0. 0. 0. 0. 0. 0. 0. 0. 0. 0. 0. 0. 0. 0. 0.
      0. 9.43396240e-03 0. 0. 0. 0. 9.43396240e-03 0. 0. 0. 0. 0. 0. 0.
      0. 0. 0. 0. 0. 0. 0. 9.43396240e-03 0. 0. 0. 0. 0. 0. 0. 0. 0. 0.
      0. 0. 0. 0. 0. 0. 0. 0. 0. 0. 0. 0. 0. 0. 0. 0. 0. 0. 0.
      9.43396240e-03 0. 0.</_>
    <_>
      0. 1.86915882e-02 0. 0. 0. 0. 0. 0. 0. 9.34579410e-03 0. 0. 0. 0.
      0. 0. 0. 0. 0. 9.34579410e-03 0. 0. 0. 0. 0. 0. 0. 0. 0. 0.
      9.34579410e-03 0. 0. 0. 0. 0. 0. 0. 0. 0. 0. 0. 0. 9.34579410e-03
      0. 9.34579410e-03 0. 0. 0. 1.86915882e-02 0. 0. 0. 0.
      9.34579410e-03 0. 0. 0. 0. 0. 0. 0. 0. 0. 0. 0. 0. 0. 0. 0. 0. 0.
      0. 9.34579410e-03 0. 0. 0. 0. 0. 0. 0. 0. 0. 0. 0. 0. 0. 0. 0. 0.
      0. 9.34579410e-03 0. 0. 0. 0. 0. 0. 0. 9.34579410e-03 0. 0.
      9.34579410e-03 0. 0. 0. 0. 0. 0. 0. 0. 0. 0. 0. 0. 0. 0. 0. 0. 0.
      0. 0. 0. 0. 0. 0. 0. 0. 0. 0. 0. 0. 0. 0. 0. 0. 0. 9.34579410e-03
      0. 0. 0. 0. 0. 0. 0. 0. 0. 0. 9.34579410e-03 0. 0. 0.
      9.34579410e-03 0. 0. 0. 0. 0. 0. 0. 0. 9.34579410e-03 0. 0. 0. 0.
      0. 0. 0. 0. 0. 0. 9.34579410e-03 0. 0. 0. 0. 0. 9.34579410e-03 0.
      0. 0. 0. 0. 0. 0. 0. 0. 0. 9.34579410e-03 0. 0. 0. 0. 0. 0. 0. 0.
      0. 0. 0. 0. 0. 0. 0. 0. 0. 0. 0. 9.34579410e-03 0. 0. 0.
      9.34579410e-03 0. 0. 0. 0. 0. 0. 0. 0. 0. 0. 9.34579410e-03 0. 0.
      0. 0. 0. 0. 0. 0. 0. 0. 0. 0. 0. 0. 0. 0. 9.34579410e-03 0. 0. 0.
      0. 0. 0. 0. 9.34579410e-03 0. 0. 0. 0. 0. 0. 0. 0. 0. 0. 0. 0. 0.
      0. 0. 0. 0. 0. 0. 0. 0. 9.34579410e-03 0. 0. 0. 0. 0.
      9.34579410e-03 0. 0. 0. 0. 0. 0. 0. 0. 0. 0. 0. 0. 0. 0.
      9.34579410e-03 0. 0. 0. 0. 0. 0. 0. 0. 0. 0. 0. 0. 9.34579410e-03
      9.34579410e-03 0. 0. 0. 0. 0. 0. 0. 0. 0. 0. 0. 0. 0. 0. 0. 0.
      9.34579410e-03 0. 0. 0. 0. 3.73831764e-02 0. 0. 0. 0. 0. 0. 0. 0.
      0. 0. 0. 0. 0. 0. 0. 0. 0. 0. 0. 9.34579410e-03 0. 0. 0. 0. 0. 0.
      0. 0. 0. 0. 0. 9.34579410e-03 0. 9.34579410e-03 0. 0. 0. 0. 0. 0.
      0. 0. 0. 0. 0. 9.34579410e-03 0. 0. 0. 9.34579410e-03 0. 0. 0. 0.
      0. 1.86915882e-02 0. 9.34579410e-03 9.34579410e-03 0. 0. 0. 0. 0.
      0. 0. 0. 9.34579410e-03 0. 0. 9.34579410e-03 0. 0. 0. 0. 0.
      9.34579410e-03 0. 0. 0. 9.34579410e-03 0. 0. 0. 0. 0. 0. 0. 0. 0.
      0. 0. 0. 0. 0. 0. 0. 0. 0. 0. 0. 0. 0. 0. 0. 0. 0. 0. 0. 0. 0. 0.
      0. 0. 9.34579410e-03 0. 0. 0. 0. 0. 0. 0. 0. 0. 0. 0. 0. 0. 0. 0.
      0. 0. 0. 0. 9.34579410e-03 0. 0. 0. 0. 0. 0. 0. 0. 0. 0. 0. 0. 0.
      0. 9.34579410e-03 9.34579410e-03 9.34579410e-03 0. 0. 0. 0. 0. 0.
      0. 0. 0. 0. 0. 0. 0. 0. 0. 0. 0. 0. 0. 0. 0. 0. 0. 0. 0. 0. 0.
      2.80373823e-02 0. 0. 0. 0. 9.34579410e-03 0. 0. 0. 0. 0. 0. 0. 0.
      0. 0. 0. 0. 0. 0. 9.34579410e-03 0. 9.34579410e-03 0. 0. 0. 0. 0.
      0. 0. 0. 0. 0. 9.34579410e-03 0. 1.86915882e-02 0. 0. 0. 0. 0. 0.
      0. 0. 9.34579410e-03 0. 0. 0. 0. 0. 0. 0. 0. 0. 0. 0. 0. 0. 0. 0.
      0. 9.34579410e-03 0. 0. 0. 0. 9.34579410e-03 0. 0. 0. 0. 0. 0. 0.
      0. 9.34579410e-03 0. 0. 0. 0. 9.34579410e-03 0. 0. 0. 0. 0. 0. 0.
      0. 0. 0. 0. 0. 0. 0. 0. 0. 0. 0. 0. 0. 0. 0. 0. 0. 0. 0. 0. 0. 0.
      9.34579410e-03 0. 0. 0. 0. 0. 0. 0. 0. 0. 0. 0. 0. 0. 0. 0. 0. 0.
      0. 0. 0. 0. 0. 0. 0. 0. 0. 0. 0. 0. 0. 0. 0. 0. 0. 0. 0. 0. 0.
      9.34579410e-03 9.34579410e-03 0. 1.86915882e-02 0. 0. 0. 0. 0. 0.
      0. 0. 9.34579410e-03 0. 0. 0. 0. 0. 0. 0. 0. 0. 0. 0. 0. 0. 0. 0.
      0. 0. 0. 9.34579410e-03 0. 0. 0. 9.34579410e-03 0. 0.
      1.86915882e-02 0. 0. 0. 0. 0. 0. 0. 0. 0. 0. 0. 0. 0. 0. 0. 0. 0.
      0. 0. 9.34579410e-03 0. 0. 0. 0. 0. 0. 0. 0. 0. 0. 0. 0.
      9.34579410e-03 0. 0. 0. 0. 9.34579410e-03 0. 0. 0. 0. 0. 0. 0. 0.
      0. 0. 0. 0. 0. 0. 0. 9.34579410e-03 0. 0. 0. 0. 0. 0. 0. 0. 0. 0.
      0. 0. 0. 0. 0. 0. 0. 9.34579410e-03 0. 0. 0. 0. 0. 0.
      9.34579410e-03 0. 0. 0. 9.34579410e-03 0. 0. 0. 0. 0. 0. 0. 0. 0.
      0. 0. 0. 0. 0. 9.34579410e-03 0. 0. 0. 0. 0. 0. 0. 0. 0. 0. 0. 0.
      0. 0. 0. 0. 1.86915882e-02 0. 0. 0. 0. 0. 0. 0. 0. 0. 0. 0. 0. 0.
      0. 0. 0. 9.34579410e-03 9.34579410e-03 0. 0. 0. 0. 0. 0. 0. 0. 0.
      0. 0. 0. 0. 0. 0. 0. 0. 0. 0. 0. 0. 0. 0. 0. 0. 0. 0. 0. 0. 0. 0.
      0. 0. 9.34579410e-03 0. 0. 0. 0. 0. 0. 0. 0. 9.34579410e-03 0. 0.
      0. 0. 0. 0. 0. 0. 0. 9.34579410e-03 0. 0. 0. 0. 0. 0.
      9.34579410e-03 0. 0. 0. 0. 0. 0. 0. 0. 9.34579410e-03 0. 0. 0. 0.
      0. 0. 0. 9.34579410e-03 9.34579410e-03 0. 0. 0. 0. 0. 0. 0.
      9.34579410e-03 0. 0. 0. 0. 0. 0. 1.86915882e-02 1.86915882e-02 0.
      0. 0. 0. 0. 0. 0. 9.34579410e-03 9.34579410e-03 0. 0. 0. 0. 0. 0.
      0. 0. 0. 0. 0. 0. 0. 0. 0. 0. 0. 0. 0. 0. 9.34579410e-03 0. 0. 0.
      0. 0. 0. 0. 0. 0. 0. 0. 0. 0. 0. 9.34579410e-03 0. 0. 0. 0. 0. 0.
      0. 0. 0. 0. 9.34579410e-03 0. 0. 0. 0. 0. 0. 0. 0. 0. 0. 0. 0. 0.
      0. 0. 0. 0. 0. 0. 0. 0.</_>
    <_>
      0. 1.90476198e-02 0. 0. 0. 0. 0. 0. 0. 9.52380989e-03 0. 0. 0. 0.
      0. 0. 0. 0. 0. 0. 0. 0. 0. 0. 0. 0. 0. 0. 0. 0. 9.52380989e-03 0.
      0. 0. 0. 0. 0. 0. 0. 0. 0. 0. 0. 9.52380989e-03 0. 9.52380989e-03
      0. 0. 0. 9.52380989e-03 0. 0. 0. 0. 9.52380989e-03 0. 0. 0. 0. 0.
      0. 0. 0. 0. 0. 0. 0. 0. 0. 0. 0. 0. 0. 9.52380989e-03 0. 0. 0. 0.
      0. 0. 0. 0. 0. 0. 0. 0. 0. 0. 0. 0. 0. 9.52380989e-03 0. 0. 0. 0.
      0. 0. 0. 9.52380989e-03 0. 0. 9.52380989e-03 0. 0. 0. 0. 0. 0. 0.
      0. 0. 0. 9.52380989e-03 0. 0. 0. 0. 0. 0. 0. 0. 0. 0. 0. 0. 0. 0.
      0. 0. 0. 0. 0. 0. 0. 0. 0. 0. 0. 0. 0. 0. 0. 9.52380989e-03 0. 0.
      0. 0. 9.52380989e-03 0. 0. 0. 9.52380989e-03 0. 0. 0. 0. 0. 0. 0.
      0. 9.52380989e-03 0. 0. 0. 0. 0. 0. 0. 0. 0. 0. 9.52380989e-03 0.
      0. 0. 0. 0. 0. 0. 0. 0. 0. 0. 0. 0. 0. 0. 0. 0. 0. 0. 0. 0. 0. 0.
      0. 0. 0. 0. 0. 0. 0. 0. 0. 0. 0. 0. 0. 9.52380989e-03 0. 0. 0. 0.
      0. 0. 0. 0. 0. 0. 0. 0. 0. 0. 0. 0. 0. 0. 0. 0. 0. 0. 0. 0. 0. 0.
      0. 0. 0. 0. 0. 0. 0. 0. 0. 0. 0. 0. 0. 9.52380989e-03 0. 0. 0. 0.
      0. 0. 0. 0. 0. 9.52380989e-03 0. 0. 0. 0. 0. 0. 0. 0. 0. 0. 0.
      9.52380989e-03 0. 0. 0. 0. 0. 0. 0. 0. 0. 0. 0. 9.52380989e-03 0.
      0. 0. 0. 0. 0. 0. 0. 0. 0. 0. 1.90476198e-02 0. 0. 0. 0. 0. 0. 0.
      0. 0. 9.52380989e-03 0. 0. 0. 0. 0. 0. 0. 0. 0. 0. 0. 0. 0. 0. 0.
      0. 0. 9.52380989e-03 0. 0. 0. 0. 2.85714306e-02 0. 0. 0. 0. 0. 0.
      0. 0. 0. 0. 0. 0. 0. 0. 0. 0. 0. 0. 0. 9.52380989e-03 0. 0. 0. 0.
      0. 9.52380989e-03 0. 0. 0. 0. 0. 9.52380989e-03 0. 9.52380989e-03
      0. 0. 0. 0. 0. 0. 0. 0. 0. 0. 0. 9.52380989e-03 0. 0. 0.
      9.52380989e-03 0. 0. 0. 0. 0. 9.52380989e-03 0. 9.52380989e-03
      9.52380989e-03 0. 0. 0. 0. 0. 0. 0. 0. 0. 0. 0. 0. 0. 0. 0. 0. 0.
      9.52380989e-03 0. 0. 0. 0. 9.52380989e-03 0. 0. 0. 0. 0. 0. 0. 0.
      0. 0. 0. 0. 0. 0. 0. 0. 0. 0. 0. 0. 0. 0. 0. 0. 0. 0.
      9.52380989e-03 0. 0. 0. 0. 0. 9.52380989e-03 0. 0. 0. 0. 0.
      9.52380989e-03 0. 0. 0. 0. 0. 0. 0. 0. 0. 0. 0. 0. 0.
      9.52380989e-03 0. 0. 0. 0. 9.52380989e-03 0. 0. 0. 0. 0. 0. 0. 0.
      0. 0. 0. 9.52380989e-03 0. 0. 0. 0. 0. 0. 0. 0. 0. 0. 0. 0. 0. 0.
      0. 0. 0. 0. 0. 0. 0. 0. 0. 0. 0. 0. 0. 2.85714306e-02 0. 0. 0. 0.
      9.52380989e-03 0. 0. 0. 0. 0. 0. 0. 0. 0. 0. 0. 0. 0. 0.
      9.52380989e-03 0. 9.52380989e-03 0. 0. 0. 0. 0. 0. 0. 0. 0. 0.
      9.52380989e-03 0. 9.52380989e-03 0. 0. 0. 0. 0. 0. 0. 0.
      9.52380989e-03 0. 0. 0. 0. 0. 0. 0. 0. 0. 0. 0. 0. 0. 0. 0. 0.
      9.52380989e-03 0. 0. 0. 0. 0. 0. 0. 0. 1.90476198e-02 0. 0. 0. 0.
      9.52380989e-03 0. 0. 0. 0. 9.52380989e-03 0. 0. 0. 0. 0. 0.
      9.52380989e-03 0. 0. 0. 0. 0. 0. 0. 0. 0. 9.52380989e-03 0. 0. 0.
      0. 0. 0. 0. 0. 0. 0. 0. 0. 9.52380989e-03 0. 0. 0. 0. 0. 0. 0. 0.
      0. 0. 0. 0. 0. 0. 0. 0. 0. 0. 0. 0. 0. 0. 0. 0. 0. 0. 0. 0. 0. 0.
      0. 0. 0. 0. 0. 0. 0. 0. 9.52380989e-03 9.52380989e-03 0.
      1.90476198e-02 9.52380989e-03 0. 0. 0. 0. 0. 0. 0. 0. 0. 0. 0. 0.
      9.52380989e-03 0. 0. 0. 0. 0. 0. 0. 0. 0. 0. 0. 0. 0. 0. 0. 0. 0.
      9.52380989e-03 9.52380989e-03 0. 9.52380989e-03 0. 0. 0. 0. 0. 0.
      0. 0. 0. 0. 0. 0. 0. 0. 0. 0. 0. 0. 0. 9.52380989e-03 0. 0. 0. 0.
      0. 0. 0. 0. 0. 0. 0. 0. 9.52380989e-03 0. 0. 0. 0. 0. 0. 0. 0. 0.
      0. 0. 0. 0. 0. 0. 0. 0. 0. 0. 0. 2.85714306e-02 0. 0. 0. 0. 0. 0.
      0. 0. 0. 0. 0. 0. 0. 0. 0. 0. 0. 9.52380989e-03 0. 0. 0. 0. 0. 0.
      1.90476198e-02 0. 9.52380989e-03 0. 9.52380989e-03 0. 0. 0. 0. 0.
      0. 0. 0. 0. 0. 0. 0. 0. 0. 9.52380989e-03 0. 0. 0. 0. 0. 0. 0. 0.
      0. 0. 0. 9.52380989e-03 0. 0. 0. 0. 1.90476198e-02 0. 0. 0. 0. 0.
      0. 0. 0. 0. 0. 0. 0. 0. 0. 0. 0. 9.52380989e-03 1.90476198e-02 0.
      0. 0. 0. 0. 0. 0. 0. 0. 0. 0. 0. 0. 0. 0. 0. 0. 0. 0. 0. 0. 0. 0.
      0. 0. 0. 0. 0. 0. 0. 0. 0. 0. 9.52380989e-03 0. 0. 0. 0. 0. 0.
      9.52380989e-03 0. 0. 0. 0. 9.52380989e-03 0. 0. 0. 0. 0. 0.
      9.52380989e-03 0. 0. 0. 0. 0. 0. 1.90476198e-02 0. 0. 0. 0. 0. 0.
      0. 0. 9.52380989e-03 0. 0. 0. 0. 0. 0. 0. 0. 1.90476198e-02 0. 0.
      0. 0. 0. 0. 0. 0. 0. 0. 0. 0. 0. 0. 1.90476198e-02 0. 0. 0. 0. 0.
      0. 0. 0. 9.52380989e-03 9.52380989e-03 0. 0. 0. 0. 0. 0. 0. 0. 0.
      0. 0. 0. 0. 0. 0. 0. 0. 0. 0. 0. 9.52380989e-03 0. 0. 0. 0. 0. 0.
      0. 0. 9.52380989e-03 0. 0. 0. 0. 0. 0. 0. 0. 0. 0. 0. 0. 0. 0. 0.
      0. 0. 0. 0. 0. 0. 0. 0. 0. 0. 0. 0. 0. 0. 0. 0. 0. 0. 0. 0. 0. 0.
      0.</_>
    <_>
      0. 0. 0. 9.34579410e-03 0. 0. 0. 0. 0. 0. 0. 0. 0. 0. 0. 0.
      9.34579410e-03 0. 0. 0. 9.34579410e-03 0. 9.34579410e-03 0. 0. 0.
      0. 0. 0. 0. 0. 0. 0. 0. 0. 0. 0. 0. 0. 0. 0. 0. 0. 2.80373823e-02
      0. 0. 0. 0. 0. 9.34579410e-03 0. 0. 0. 0. 9.34579410e-03 0. 0. 0.
      9.34579410e-03 0. 0. 0. 0. 0. 0. 0. 0. 0. 0. 0. 0. 0. 0.
      1.86915882e-02 0. 0. 0. 0. 0. 0. 1.86915882e-02 0. 0.
      9.34579410e-03 0. 0. 0. 0. 0. 0. 0. 0. 9.34579410e-03 0. 0. 0. 0.
      0. 0. 0. 0. 0. 0. 9.34579410e-03 0. 0. 0. 0. 0. 0. 0. 0. 0. 0. 0.
      0. 0. 0. 0. 0. 0. 0. 0. 0. 0. 0. 0. 0. 0. 0. 0. 0. 0. 0. 0. 0. 0.
      0. 0. 0. 0. 0. 9.34579410e-03 0. 0. 0. 0. 0. 0. 0. 0.
      9.34579410e-03 9.34579410e-03 0. 0. 0. 0. 0. 0. 0. 0.
      9.34579410e-03 0. 0. 0. 0. 0. 0. 0. 0. 0. 0. 0. 0. 0. 0. 0. 0. 0.
      0. 0. 0. 0. 9.34579410e-03 0. 0. 0. 0. 0. 9.34579410e-03 0. 0. 0.
      9.34579410e-03 9.34579410e-03 0. 0. 0. 0. 0. 0. 0. 0. 0. 0.
      1.86915882e-02 0. 0. 0. 0. 0. 0. 0. 0. 0. 9.34579410e-03 0. 0. 0.
      0. 0. 0. 0. 0. 0. 0. 0. 0. 0. 0. 0. 0. 0. 9.34579410e-03 0. 0. 0.
      0. 0. 0. 0. 0. 0. 0. 0. 0. 0. 0. 0. 9.34579410e-03 0. 0. 0. 0. 0.
      0. 0. 0. 0. 0. 0. 0. 0. 0. 0. 0. 0. 0. 0. 0. 0. 9.34579410e-03 0.
      0. 0. 0. 0. 9.34579410e-03 0. 0. 0. 0. 0. 0. 0. 0. 0. 0. 0. 0. 0.
      0. 0. 0. 0. 9.34579410e-03 0. 0. 0. 0. 0. 0. 0. 0. 0. 0. 0. 0.
      9.34579410e-03 0. 0. 9.34579410e-03 0. 0. 0. 0. 0. 0. 0. 0.
      9.34579410e-03 0. 0. 9.34579410e-03 0. 0. 0. 0. 1.86915882e-02 0.
      0. 0. 0. 0. 0. 0. 0. 0. 0. 0. 0. 0. 0. 0. 0. 0. 0. 0.
      9.34579410e-03 0. 9.34579410e-03 0. 0. 0. 0. 0. 0. 0. 0. 0. 0. 0.
      9.34579410e-03 0. 0. 0. 0. 0. 0. 0. 0. 0. 0. 0. 0. 0. 0. 0. 0. 0.
      1.86915882e-02 0. 1.86915882e-02 0. 9.34579410e-03 0. 0.
      9.34579410e-03 0. 0. 0. 0. 0. 0. 0. 0. 0. 0. 0. 0. 0. 0. 0. 0. 0.
      9.34579410e-03 0. 9.34579410e-03 0. 0. 0. 0. 0. 9.34579410e-03 0.
      0. 0. 9.34579410e-03 9.34579410e-03 0. 0. 0. 0. 0. 0. 0. 0. 0. 0.
      0. 0. 9.34579410e-03 0. 0. 0. 0. 0. 0. 9.34579410e-03 0. 0. 0. 0.
      1.86915882e-02 0. 0. 0. 0. 0. 0. 0. 0. 0. 0. 9.34579410e-03 0. 0.
      0. 0. 0. 0. 0. 0. 1.86915882e-02 0. 0. 0. 0. 0. 0. 0. 0. 0. 0. 0.
      9.34579410e-03 0. 0. 0. 0. 0. 9.34579410e-03 0. 0. 0. 0. 0. 0. 0.
      0. 0. 0. 0. 0. 0. 0. 0. 0. 0. 0. 0. 9.34579410e-03 0. 0. 0. 0. 0.
      0. 0. 0. 0. 0. 9.34579410e-03 0. 0. 9.34579410e-03 0. 0. 0. 0. 0.
      0. 0. 0. 0. 0. 0. 0. 0. 0. 0. 0. 0. 0. 0. 0. 0. 0. 0. 0. 0. 0. 0.
      0. 0. 0. 0. 0. 0. 0. 0. 0. 0. 0. 0. 0. 0. 9.34579410e-03 0. 0. 0.
      0. 0. 0. 0. 0. 0. 0. 0. 0. 0. 0. 0. 0. 0. 0. 0. 0. 0. 0. 0. 0. 0.
      9.34579410e-03 0. 0. 0. 0. 0. 0. 0. 0. 0. 0. 0. 9.34579410e-03 0.
      0. 0. 0. 0. 0. 0. 0. 0. 0. 0. 0. 0. 0. 0. 0. 0. 9.34579410e-03
      1.86915882e-02 0. 0. 0. 9.34579410e-03 0. 0. 0. 0. 0. 0.
      9.34579410e-03 0. 0. 0. 0. 0. 0. 9.34579410e-03 0. 0. 0. 0. 0. 0.
      0. 0. 0. 0. 0. 9.34579410e-03 0. 0. 0. 0. 0. 0. 0. 0. 0. 0. 0. 0.
      0. 0. 0. 0. 0. 0. 0. 0. 9.34579410e-03 0. 0. 0. 0. 0. 0. 0. 0. 0.
      0. 0. 0. 0. 0. 0. 0. 0. 0. 0. 0. 1.86915882e-02 9.34579410e-03
      9.34579410e-03 0. 0. 0. 9.34579410e-03 0. 0. 0. 0. 0. 0. 0. 0. 0.
      9.34579410e-03 0. 0. 0. 0. 0. 0. 0. 0. 0. 0. 0. 0. 0. 0. 0. 0. 0.
      0. 0. 0. 0. 0. 0. 0. 0. 0. 0. 0. 0. 0. 9.34579410e-03 0. 0. 0. 0.
      0. 0. 0. 0. 0. 0. 0. 0. 9.34579410e-03 0. 0. 0. 0. 0. 0. 0. 0.
      9.34579410e-03 0. 0. 0. 0. 0. 0. 0. 0. 0. 0. 0. 0. 0. 0. 0. 0. 0.
      0. 0. 0. 0. 0. 0. 0. 0. 0. 0. 1.86915882e-02 0. 0. 0. 0. 0.
      1.86915882e-02 0. 0. 0. 0. 0. 0. 0. 0. 0. 9.34579410e-03 0. 0. 0.
      0. 0. 0. 0. 1.86915882e-02 0. 0. 0. 1.86915882e-02 9.34579410e-03
      0. 0. 0. 0. 0. 0. 0. 0. 0. 0. 9.34579410e-03 0. 0. 0. 0.
      9.34579410e-03 0. 0. 0. 0. 0. 0. 0. 0. 0. 0. 0. 0. 0. 0. 0. 0. 0.
      0. 0. 0. 0. 0. 0. 0. 0. 0. 0. 9.34579410e-03 0. 0. 0. 0. 0. 0. 0.
      0. 0. 0. 0. 0. 0. 0. 0. 0. 0. 0. 0. 0. 0. 0. 0. 0. 0. 0. 0. 0. 0.
      0. 0. 0. 0. 0. 0. 0. 0. 0. 0. 0. 0. 0. 0. 0. 2.80373823e-02 0. 0.
      0. 0. 0. 0. 0. 0. 9.34579410e-03 0. 0. 0. 0. 0. 0. 0. 0. 0. 0. 0.
      0. 0. 0. 0. 0. 0. 9.34579410e-03 0. 0. 0. 0. 0. 0. 0. 0. 0. 0. 0.
      0. 0. 0. 0. 0. 0. 0. 0. 0. 0. 0. 0. 0. 0. 0. 0. 0. 0. 0. 0. 0. 0.
      0. 9.34579410e-03 0. 0. 0. 0. 0. 0. 0. 0. 0. 0. 0. 0. 0. 0. 0.
      1.86915882e-02 0. 0. 0. 0. 0. 0. 0. 0. 0. 0. 0. 0. 0. 0. 0. 0. 0.
      9.34579410e-03 0. 0.</_>
    <_>
      0. 0. 0. 1.14942528e-02 0. 0. 0. 0. 0. 0. 0. 0. 0. 0. 0. 0. 0. 0.
      0. 0. 0. 0. 0. 0. 0. 0. 0. 0. 0. 0. 0. 0. 0. 0. 0. 0. 0. 0.
      2.29885057e-02 0. 0. 0. 0. 4.59770113e-02 0. 0. 0. 0. 0. 0. 0. 0.
      0. 0. 1.14942528e-02 0. 0. 0. 0. 0. 0. 0. 0. 0. 0. 0. 0. 0. 0. 0.
      0. 0. 0. 1.14942528e-02 0. 0. 0. 0. 0. 0. 0. 0. 0. 1.14942528e-02
      0. 0. 0. 0. 0. 0. 0. 0. 0. 0. 0. 0. 0. 0. 0. 0. 0. 0. 0.
      1.14942528e-02 0. 0. 0. 0. 0. 0. 0. 0. 0. 0. 0. 0. 0. 0. 0. 0.
      1.14942528e-02 0. 0. 0. 0. 0. 0. 0. 0. 0. 1.14942528e-02 0. 0. 0.
      0. 0. 0. 0. 0. 0. 0. 0. 0. 0. 0. 0. 0. 0. 0. 0. 0. 0.
      1.14942528e-02 0. 0. 0. 0. 0. 0. 0. 0. 0. 0. 0. 0. 0. 0. 0. 0. 0.
      0. 0. 0. 0. 0. 0. 0. 0. 0. 1.14942528e-02 0. 0. 0. 0. 0. 0. 0. 0.
      1.14942528e-02 0. 0. 0. 0. 1.14942528e-02 0. 0. 0. 0. 0. 0. 0. 0.
      0. 0. 0. 0. 1.14942528e-02 0. 0. 0. 0. 0. 0. 0. 0. 0. 0. 0. 0. 0.
      0. 0. 0. 0. 0. 0. 0. 0. 0. 0. 0. 0. 1.14942528e-02 1.14942528e-02
      0. 0. 0. 0. 0. 0. 0. 0. 0. 0. 0. 0. 0. 0. 0. 1.14942528e-02 0. 0.
      0. 0. 0. 0. 0. 0. 0. 0. 0. 0. 0. 0. 0. 0. 0. 0. 1.14942528e-02 0.
      0. 1.14942528e-02 0. 0. 0. 0. 0. 0. 0. 0. 0. 0. 0. 0. 0. 0. 0. 0.
      0. 0. 0. 0. 0. 0. 0. 1.14942528e-02 0. 0. 0. 0. 0. 0. 0.
      1.14942528e-02 0. 0. 0. 0. 0. 0. 0. 0. 0. 0. 0. 0. 0. 0. 0. 0. 0.
      0. 0. 0. 0. 0. 0. 0. 0. 0. 1.14942528e-02 0. 0. 0. 0. 0. 0. 0. 0.
      0. 0. 0. 0. 0. 0. 0. 0. 0. 0. 0. 0. 0. 0. 0. 1.14942528e-02 0. 0.
      0. 0. 0. 0. 0. 1.14942528e-02 0. 0. 0. 0. 0. 0. 0. 0. 0. 0. 0. 0.
      0. 0. 0. 0. 0. 1.14942528e-02 0. 1.14942528e-02 0. 0. 0. 0. 0. 0.
      0. 0. 0. 0. 0. 1.14942528e-02 0. 1.14942528e-02 0. 0. 0. 0. 0. 0.
      0. 0. 1.14942528e-02 0. 1.14942528e-02 0. 0. 0. 0. 0. 0. 0. 0. 0.
      1.14942528e-02 1.14942528e-02 0. 0. 0. 0. 0. 0. 0. 0.
      1.14942528e-02 0. 0. 0. 1.14942528e-02 0. 0. 1.14942528e-02 0. 0.
      0. 1.14942528e-02 0. 0. 0. 0. 2.29885057e-02 0. 0. 0. 0. 0. 0. 0.
      0. 0. 0. 1.14942528e-02 0. 0. 0. 0. 0. 0. 0. 0. 0. 0. 0. 0. 0. 0.
      0. 0. 0. 0. 2.29885057e-02 0. 0. 0. 0. 0. 0. 0. 0. 0. 0. 0. 0. 0.
      0. 0. 0. 0. 0. 0. 0. 0. 1.14942528e-02 0. 0. 0. 0. 0. 0. 0. 0. 0.
      0. 0. 0. 1.14942528e-02 0. 0. 0. 2.29885057e-02 0. 0.
      1.14942528e-02 0. 0. 0. 0. 0. 0. 0. 0. 0. 0. 0. 0. 0. 0. 0. 0. 0.
      0. 0. 0. 0. 0. 0. 0. 0. 0. 0. 0. 0. 0. 0. 0. 0. 0. 0. 0.
      1.14942528e-02 0. 0. 0. 0. 0. 0. 0. 0. 0. 0. 0. 0. 0. 0. 0. 0. 0.
      0. 0. 0. 0. 0. 0. 0. 0. 0. 0. 0. 0. 0. 0. 0. 0. 0. 0.
      1.14942528e-02 0. 0. 0. 0. 0. 0. 0. 0. 0. 0. 0. 0. 0. 0. 0. 0. 0.
      0. 0. 0. 0. 0. 0. 0. 0. 1.14942528e-02 0. 0. 0. 0. 0. 0. 0. 0. 0.
      0. 0. 0. 0. 0. 0. 0. 0. 1.14942528e-02 0. 0. 0. 0. 0. 0. 0. 0. 0.
      0. 0. 0. 0. 0. 0. 1.14942528e-02 0. 0. 0. 0. 0. 0. 0. 0. 0. 0. 0.
      0. 1.14942528e-02 0. 0. 0. 1.14942528e-02 0. 0. 0. 0. 0.
      1.14942528e-02 0. 0. 0. 0. 0. 0. 0. 0. 0. 0. 0. 0. 0. 0.
      1.14942528e-02 1.14942528e-02 0. 1.14942528e-02 0. 0. 0. 0.
      1.14942528e-02 2.29885057e-02 0. 0. 0. 0. 0. 0. 0. 0. 0. 0. 0. 0.
      0. 0. 0. 0. 0. 0. 0. 0. 0. 0. 0. 0. 0. 0. 1.14942528e-02
      1.14942528e-02 0. 0. 0. 0. 1.14942528e-02 0. 0. 0. 0. 0. 0. 0. 0.
      0. 0. 0. 0. 0. 0. 0. 0. 0. 1.14942528e-02 0. 0. 0. 0. 0. 0. 0. 0.
      0. 0. 0. 0. 0. 0. 0. 0. 0. 0. 0. 0. 1.14942528e-02 0.
      1.14942528e-02 0. 0. 0. 0. 0. 0. 0. 0. 0. 0. 0. 0. 0. 0. 0. 0. 0.
      1.14942528e-02 0. 0. 0. 0. 0. 0. 0. 0. 0. 0. 0. 1.14942528e-02 0.
      0. 0. 0. 0. 0. 0. 1.14942528e-02 0. 0. 0. 1.14942528e-02
      1.14942528e-02 0. 0. 0. 0. 0. 0. 0. 0. 0. 0. 0. 0. 0. 0.
      1.14942528e-02 1.14942528e-02 0. 0. 0. 0. 0. 0. 0. 0. 0.
      1.14942528e-02 0. 0. 0. 0. 0. 0. 0. 0. 0. 0. 0. 0. 0. 0. 0. 0. 0.
      0. 0. 0. 0. 0. 0. 0. 0. 0. 0. 0. 0. 0. 0. 0. 0. 0. 0. 0. 0. 0. 0.
      0. 0. 0. 1.14942528e-02 0. 0. 0. 0. 0. 0. 0. 0. 0. 0. 0. 0. 0. 0.
      0. 0. 0. 1.14942528e-02 0. 0. 0. 0. 0. 0. 0. 0. 0. 0.
      1.14942528e-02 0. 0. 0. 0. 0. 0. 0. 0. 0. 0. 0. 0. 0. 0. 0. 0.
      1.14942528e-02 0. 0. 1.14942528e-02 0. 0. 0. 0. 0. 0. 0. 0. 0. 0.
      0. 0. 0. 0. 0. 0. 1.14942528e-02 0. 0. 0. 0. 0. 0. 1.14942528e-02
      0. 0. 0. 0. 0. 0. 0. 0. 0. 0. 0. 0. 1.14942528e-02 0. 0. 0. 0. 0.
      0. 0. 0. 0. 0. 0. 1.14942528e-02 0. 0. 0. 0. 0. 0. 0. 0. 0. 0. 0.
      0. 0. 0. 0. 0. 0. 0. 0. 0.</_>
    <_>
      0. 1.03092780e-02 0. 1.03092780e-02 0. 0. 0. 0. 0. 0. 0. 0. 0. 0.
      0. 0. 0. 0. 0. 0. 0. 0. 0. 0. 1.03092780e-02 0. 0. 0. 0. 0. 0.
      1.03092780e-02 0. 0. 0. 0. 1.03092780e-02 0. 3.09278332e-02 0. 0.
      0. 0. 3.09278332e-02 0. 0. 0. 0. 0. 0. 0. 0. 0. 0. 1.03092780e-02
      0. 0. 1.03092780e-02 0. 0. 0. 0. 0. 0. 0. 0. 1.03092780e-02 0. 0.
      0. 0. 0. 0. 1.03092780e-02 0. 0. 0. 0. 0. 0. 0. 0. 0. 0. 0. 0. 0.
      0. 0. 0. 0. 0. 0. 0. 0. 0. 0. 0. 0. 0. 0. 0. 0. 1.03092780e-02 0.
      0. 0. 0. 0. 0. 0. 0. 0. 0. 0. 0. 0. 0. 0. 0. 0. 0. 0. 0. 0.
      1.03092780e-02 0. 0. 0. 0. 1.03092780e-02 0. 0. 0. 0. 0. 0. 0. 0.
      0. 0. 0. 2.06185561e-02 0. 0. 0. 0. 0. 0. 0. 0. 0. 1.03092780e-02
      0. 0. 1.03092780e-02 0. 0. 0. 0. 0. 0. 0. 0. 0. 0. 0. 0. 0.
      1.03092780e-02 0. 0. 0. 0. 0. 0. 0. 0. 0. 1.03092780e-02 0. 0. 0.
      0. 0. 0. 0. 0. 0. 0. 0. 0. 0. 1.03092780e-02 0. 0. 0. 0. 0. 0. 0.
      0. 0. 0. 0. 0. 1.03092780e-02 0. 0. 0. 0. 0. 0. 1.03092780e-02 0.
      0. 1.03092780e-02 0. 0. 0. 0. 0. 0. 0. 0. 0. 0. 0. 0. 0. 0. 0. 0.
      0. 0. 0. 0. 0. 0. 0. 0. 0. 0. 0. 0. 0. 0. 0. 0. 1.03092780e-02 0.
      0. 0. 0. 0. 0. 0. 0. 0. 0. 0. 0. 0. 0. 0. 0. 0. 0. 0. 0. 0.
      1.03092780e-02 0. 0. 0. 0. 0. 0. 0. 0. 0. 0. 0. 0. 0. 0. 0. 0. 0.
      0. 0. 0. 0. 0. 0. 0. 0. 0. 0. 0. 0. 0. 0. 0. 0. 0. 0. 0.
      1.03092780e-02 0. 0. 0. 0. 0. 0. 0. 0. 0. 0. 0. 0. 1.03092780e-02
      0. 1.03092780e-02 0. 0. 0. 0. 1.03092780e-02 0. 0. 0. 0. 0. 0. 0.
      0. 0. 0. 0. 0. 0. 0. 0. 0. 0. 0. 0. 1.03092780e-02 0. 0. 0. 0. 0.
      1.03092780e-02 0. 0. 0. 0. 0. 0. 1.03092780e-02 0. 0. 0. 0. 0. 0.
      0. 0. 0. 0. 0. 0. 0. 0. 0. 0. 1.03092780e-02 0. 1.03092780e-02 0.
      2.06185561e-02 0. 0. 0. 0. 0. 0. 0. 0. 0. 0. 0. 1.03092780e-02 0.
      1.03092780e-02 0. 0. 0. 0. 0. 0. 0. 0. 0. 0. 1.03092780e-02 0. 0.
      0. 0. 0. 1.03092780e-02 0. 0. 0. 0. 1.03092780e-02 0. 0. 0. 0. 0.
      0. 0. 0. 1.03092780e-02 0. 0. 0. 1.03092780e-02 0. 0. 0. 0. 0. 0.
      2.06185561e-02 0. 0. 0. 0. 1.03092780e-02 0. 0. 0. 0. 0. 0.
      1.03092780e-02 0. 0. 0. 2.06185561e-02 0. 0. 0. 0. 0. 0. 0. 0. 0.
      0. 0. 0. 0. 0. 0. 0. 0. 0. 2.06185561e-02 0. 0. 0. 0. 0. 0. 0. 0.
      0. 0. 0. 0. 0. 0. 0. 0. 0. 0. 0. 0. 0. 0. 0. 0. 0. 0. 0. 0. 0. 0.
      0. 0. 0. 0. 0. 0. 0. 0. 2.06185561e-02 0. 0. 1.03092780e-02 0. 0.
      0. 0. 1.03092780e-02 1.03092780e-02 0. 0. 0. 0. 0. 0. 0. 0. 0. 0.
      0. 0. 0. 0. 0. 0. 0. 0. 0. 0. 0. 0. 0. 0. 0. 1.03092780e-02 0. 0.
      0. 0. 1.03092780e-02 0. 0. 0. 0. 0. 0. 0. 0. 0. 0. 0. 0. 0. 0. 0.
      0. 0. 0. 0. 0. 0. 0. 0. 0. 0. 0. 0. 0. 0. 0. 0. 1.03092780e-02 0.
      0. 0. 1.03092780e-02 0. 0. 0. 0. 0. 0. 0. 0. 0. 0. 0. 0. 0. 0. 0.
      0. 0. 1.03092780e-02 0. 0. 0. 0. 0. 0. 0. 1.03092780e-02 0. 0. 0.
      1.03092780e-02 0. 0. 0. 0. 0. 0. 0. 0. 0. 0. 0. 0. 0.
      1.03092780e-02 0. 0. 0. 0. 0. 1.03092780e-02 0. 0. 0. 0. 0. 0. 0.
      0. 0. 0. 0. 0. 0. 0. 0. 1.03092780e-02 0. 0. 0. 0. 0. 0. 0.
      1.03092780e-02 0. 0. 1.03092780e-02 0. 0. 0. 0. 1.03092780e-02
      1.03092780e-02 0. 0. 0. 0. 0. 0. 0. 0. 0. 0. 0. 0. 0. 0.
      1.03092780e-02 0. 0. 0. 0. 0. 0. 0. 0. 1.03092780e-02 0. 0. 0.
      1.03092780e-02 0. 0. 0. 0. 0. 0. 0. 0. 0. 0. 0. 1.03092780e-02 0.
      0. 0. 0. 0. 0. 0. 0. 0. 0. 1.03092780e-02 1.03092780e-02 0. 0. 0.
      0. 0. 0. 0. 0. 0. 0. 0. 0. 0. 0. 0. 0. 0. 0. 0. 0. 0. 0.
      1.03092780e-02 0. 0. 0. 1.03092780e-02 0. 0. 0. 0. 0. 0. 0. 0. 0.
      0. 0. 0. 0. 0. 0. 0. 0. 0. 0. 0. 0. 0. 0. 0. 0. 0. 0. 0. 0. 0. 0.
      0. 0. 0. 0. 0. 1.03092780e-02 0. 3.09278332e-02 0. 0. 0. 0. 0. 0.
      0. 0. 0. 1.03092780e-02 0. 0. 0. 0. 0. 0. 0. 1.03092780e-02
      1.03092780e-02 0. 0. 0. 0. 0. 0. 0. 0. 0. 0. 0. 0. 0. 0. 0. 0. 0.
      0. 1.03092780e-02 1.03092780e-02 0. 0. 1.03092780e-02 0. 0. 0. 0.
      0. 0. 0. 0. 0. 0. 0. 0. 0. 0. 0. 0. 0. 0. 0. 0. 0. 0. 0. 0. 0. 0.
      0. 0. 0. 0. 0. 0. 0. 0. 0. 0. 0. 0. 0. 0. 0. 0. 0. 0.
      1.03092780e-02 0. 0. 0. 0. 0. 0. 0. 0. 0. 0. 0. 0. 0. 0. 0. 0. 0.
      0. 0. 0. 0. 0. 1.03092780e-02 0. 0. 0. 0. 0. 0. 0. 0. 0. 0.
      1.03092780e-02 0. 0. 0. 0. 0. 0. 0. 0. 0. 0. 0. 0. 0. 0. 0. 0. 0.
      0. 0. 0. 0. 0. 0. 0. 0. 0. 0. 0. 0. 0. 0. 0. 0. 0. 0. 0. 0. 0. 0.
      0. 0. 0. 0. 0. 0. 0. 0. 0. 0. 0. 0. 0. 0. 0. 0. 0. 0. 0. 0. 0. 0.
      0. 0. 0. 0. 0. 0. 0. 0. 0. 0. 0. 0. 0. 0. 0. 0. 0. 1.03092780e-02
      0. 0. 0. 0. 0. 0. 0. 0. 0. 0.</_>
    <_>
      0. 9.52380989e-03 0. 1.90476198e-02 0. 0. 0. 0. 0. 0. 0. 0. 0. 0.
      0. 0. 0. 0. 0. 0. 0. 0. 0. 0. 0. 0. 0. 0. 0. 0. 0. 9.52380989e-03
      0. 0. 0. 0. 9.52380989e-03 0. 0. 0. 0. 9.52380989e-03 0.
      1.90476198e-02 0. 9.52380989e-03 0. 0. 0. 1.90476198e-02 0. 0. 0.
      0. 9.52380989e-03 0. 0. 9.52380989e-03 0. 0. 0. 0. 0. 0. 0. 0. 0.
      0. 0. 0. 0. 0. 0. 0. 0. 0. 0. 0. 0. 0. 0. 0. 0. 0. 0. 0. 0. 0. 0.
      0. 0. 0. 0. 0. 0. 0. 0. 0. 9.52380989e-03 0. 0. 0. 0.
      9.52380989e-03 0. 0. 0. 0. 0. 0. 0. 9.52380989e-03 0. 0. 0. 0. 0.
      0. 9.52380989e-03 0. 0. 0. 0. 0. 0. 1.90476198e-02 0. 0. 0. 0.
      9.52380989e-03 0. 0. 0. 0. 0. 0. 0. 0. 0. 0. 0. 9.52380989e-03 0.
      0. 0. 0. 0. 0. 0. 0. 0. 9.52380989e-03 0. 0. 9.52380989e-03 0. 0.
      0. 9.52380989e-03 0. 0. 0. 0. 0. 0. 0. 0. 0. 0. 0. 0. 0. 0. 0. 0.
      0. 0. 0. 9.52380989e-03 0. 0. 0. 0. 0. 0. 0. 0. 0. 0. 0. 0. 0. 0.
      0. 0. 0. 0. 0. 0. 0. 0. 0. 0. 0. 0. 0. 0. 0. 0. 0. 0. 0. 0.
      9.52380989e-03 0. 9.52380989e-03 0. 0. 0. 0. 0. 0. 0. 0. 0. 0. 0.
      0. 0. 0. 0. 0. 0. 0. 0. 0. 0. 0. 0. 0. 0. 0. 0. 0. 0. 0. 0. 0.
      9.52380989e-03 0. 0. 0. 0. 0. 0. 0. 0. 0. 0. 0. 0. 0. 0. 0. 0. 0.
      0. 0. 9.52380989e-03 0. 9.52380989e-03 0. 0. 0. 0. 0. 0. 0. 0. 0.
      0. 0. 0. 0. 0. 0. 0. 0. 0. 0. 0. 0. 0. 0. 0. 0. 0. 0.
      9.52380989e-03 0. 0. 0. 9.52380989e-03 0. 0. 0. 0. 0. 0. 0. 0.
      9.52380989e-03 0. 0. 0. 0. 0. 0. 0. 0. 0. 0. 9.52380989e-03 0. 0.
      0. 0. 9.52380989e-03 0. 0. 0. 0. 0. 0. 0. 0. 0. 0. 0. 0. 0. 0. 0.
      0. 0. 0. 0. 0. 0. 0. 0. 0. 0. 0. 0. 0. 0. 0. 0. 0. 0. 0. 0. 0. 0.
      0. 0. 0. 0. 0. 0. 0. 0. 0. 0. 0. 0. 9.52380989e-03 0.
      9.52380989e-03 0. 9.52380989e-03 0. 0. 0. 0. 9.52380989e-03 0. 0.
      0. 0. 0. 0. 0. 0. 9.52380989e-03 0. 0. 0. 0. 0. 0. 0. 0. 0. 0.
      1.90476198e-02 0. 0. 0. 0. 0. 9.52380989e-03 0. 0. 0. 0.
      9.52380989e-03 0. 0. 0. 0. 9.52380989e-03 0. 0. 0. 0. 0. 0. 0.
      1.90476198e-02 0. 0. 9.52380989e-03 0. 0. 0. 1.90476198e-02 0. 0.
      9.52380989e-03 0. 9.52380989e-03 0. 0. 0. 0. 0. 0. 0. 0. 0. 0.
      1.90476198e-02 0. 0. 0. 0. 0. 0. 0. 0. 0. 0. 0. 0. 0. 0. 0. 0. 0.
      0. 9.52380989e-03 0. 0. 0. 0. 0. 0. 0. 9.52380989e-03 0. 0. 0. 0.
      0. 0. 0. 0. 0. 0. 0. 0. 0. 0. 0. 9.52380989e-03 0. 0. 0. 0. 0. 0.
      0. 0. 0. 0. 9.52380989e-03 0. 0. 0. 1.90476198e-02 0. 0.
      9.52380989e-03 0. 0. 0. 0. 9.52380989e-03 9.52380989e-03 0. 0. 0.
      0. 0. 0. 0. 0. 0. 0. 0. 9.52380989e-03 0. 0. 0. 0. 0. 0. 0. 0. 0.
      9.52380989e-03 0. 0. 0. 9.52380989e-03 0. 0. 0. 0. 9.52380989e-03
      0. 0. 0. 0. 0. 0. 0. 0. 0. 0. 0. 0. 0. 0. 9.52380989e-03 0. 0. 0.
      0. 0. 0. 0. 0. 0. 0. 0. 0. 0. 0. 0. 0. 9.52380989e-03 0. 0. 0.
      9.52380989e-03 0. 0. 0. 0. 0. 0. 0. 0. 0. 0. 0. 0. 0. 0. 0. 0. 0.
      1.90476198e-02 0. 0. 0. 0. 0. 0. 0. 0. 0. 0. 0. 9.52380989e-03 0.
      0. 0. 0. 0. 0. 9.52380989e-03 0. 0. 0. 0. 0. 0. 0. 0. 0. 0. 0. 0.
      9.52380989e-03 0. 0. 0. 0. 0. 0. 0. 0. 0. 0. 0. 0. 0. 0. 0. 0. 0.
      0. 0. 0. 0. 0. 9.52380989e-03 0. 0. 0. 9.52380989e-03 0. 0. 0. 0.
      9.52380989e-03 9.52380989e-03 0. 0. 0. 0. 0. 0. 0. 0. 0. 0. 0. 0.
      0. 0. 9.52380989e-03 0. 0. 0. 0. 0. 0. 0. 0. 0. 0. 0. 0.
      9.52380989e-03 0. 0. 0. 0. 0. 0. 0. 0. 0. 0. 0. 0. 0. 0. 0. 0. 0.
      0. 0. 0. 0. 0. 9.52380989e-03 9.52380989e-03 0. 0. 0. 0. 0. 0. 0.
      0. 0. 0. 0. 0. 0. 0. 0. 0. 0. 0. 0. 0. 0. 0. 9.52380989e-03 0. 0.
      0. 0. 0. 0. 0. 0. 0. 0. 0. 0. 0. 0. 0. 0. 0. 0. 0. 0. 0.
      9.52380989e-03 0. 0. 0. 0. 9.52380989e-03 0. 0. 0. 0. 0. 0. 0. 0.
      0. 0. 0. 0. 0. 9.52380989e-03 0. 1.90476198e-02 0. 0. 0. 0. 0.
      9.52380989e-03 0. 0. 0. 0. 0. 0. 0. 0. 0. 0. 0. 9.52380989e-03
      9.52380989e-03 0. 0. 0. 0. 0. 0. 0. 0. 0. 0. 0. 0. 9.52380989e-03
      0. 0. 0. 0. 0. 9.52380989e-03 9.52380989e-03 0. 0. 0. 0. 0. 0. 0.
      0. 0. 9.52380989e-03 9.52380989e-03 0. 0. 0. 0. 0. 0. 0. 0. 0. 0.
      0. 0. 0. 0. 0. 0. 0. 0. 0. 0. 0. 0. 9.52380989e-03 0. 0. 0. 0. 0.
      0. 0. 0. 0. 0. 0. 0. 0. 9.52380989e-03 0. 0. 0. 0. 9.52380989e-03
      0. 0. 0. 0. 0. 0. 0. 0. 0. 0. 0. 0. 0. 0. 9.52380989e-03 0. 0.
      9.52380989e-03 0. 0. 0. 0. 0. 0. 0. 0. 0. 0. 9.52380989e-03 0. 0.
      0. 0. 0. 0. 0. 0. 0. 0. 0. 0. 0. 0. 0. 0. 0. 0. 0. 0. 0. 0. 0. 0.
      0. 0. 0. 0. 0. 0. 0. 0. 0. 0. 0. 0. 0. 0. 0. 0. 0. 0. 0. 0. 0. 0.
      0. 0. 0. 0. 0. 0. 0. 0. 0. 0. 0. 0. 0. 0. 0. 0. 0. 0. 0. 0. 0. 0.
      9.52380989e-03 0. 0. 0. 0. 0. 0. 0. 0. 0. 9.52380989e-03 0. 0. 0.
      0. 0. 0. 0. 0. 0. 0.</_>
    <_>
      0. 0. 0. 0. 0. 0. 0. 0. 0. 0. 0. 0. 0. 0. 0. 0. 0. 0. 0. 0. 0. 0.
      0. 0. 0. 0. 0. 0. 0. 0. 0. 0. 0. 0. 0. 0. 0. 0. 0. 0. 0. 0. 0.
      1.98019799e-02 0. 0. 9.90098994e-03 0. 0. 2.97029689e-02 0. 0.
      9.90098994e-03 0. 9.90098994e-03 0. 0. 0. 0. 0. 0. 0. 0. 0. 0. 0.
      0. 0. 0. 0. 0. 0. 0. 9.90098994e-03 0. 0. 0. 0. 0. 0. 0. 0. 0.
      9.90098994e-03 0. 0. 0. 0. 0. 0. 0. 0. 0. 0. 0. 0. 0. 0. 0. 0. 0.
      0. 0. 0. 0. 0. 0. 0. 0. 0. 0. 0. 0. 0. 0. 0. 0. 0. 0. 0. 0. 0. 0.
      0. 0. 0. 0. 0. 0. 0. 0. 9.90098994e-03 0. 0. 0. 0. 0. 0. 0. 0. 0.
      0. 0. 0. 0. 0. 0. 0. 0. 0. 0. 0. 9.90098994e-03 0. 0. 0. 0. 0. 0.
      0. 0. 9.90098994e-03 0. 0. 0. 0. 0. 0. 0. 0. 0. 1.98019799e-02 0.
      0. 0. 0. 0. 0. 0. 0. 0. 0. 0. 0. 0. 0. 0. 0. 1.98019799e-02 0. 0.
      9.90098994e-03 0. 0. 0. 0. 9.90098994e-03 0. 0. 0. 0. 0. 0. 0. 0.
      0. 0. 0. 0. 0. 0. 0. 0. 0. 0. 0. 0. 0. 0. 0. 0. 9.90098994e-03 0.
      0. 0. 0. 0. 0. 0. 0. 0. 0. 0. 0. 0. 0. 0. 0. 0. 0. 0.
      9.90098994e-03 0. 0. 0. 0. 0. 0. 0. 1.98019799e-02 0. 0. 0. 0. 0.
      0. 0. 0. 0. 9.90098994e-03 0. 0. 0. 0. 0. 0. 0. 9.90098994e-03
      9.90098994e-03 0. 0. 9.90098994e-03 0. 0. 0. 0. 0. 1.98019799e-02
      0. 0. 0. 0. 0. 0. 0. 0. 0. 0. 0. 0. 0. 0. 0. 0. 9.90098994e-03
      9.90098994e-03 0. 0. 0. 0. 0. 0. 0. 0. 0. 0. 0. 0. 0. 0.
      9.90098994e-03 0. 0. 0. 0. 0. 0. 0. 0. 0. 0. 0. 0. 9.90098994e-03
      0. 0. 0. 0. 1.98019799e-02 0. 0. 0. 0. 0. 0. 0. 0. 0. 0. 0. 0. 0.
      0. 0. 0. 0. 0. 0. 0. 0. 1.98019799e-02 0. 0. 0. 0. 0. 0. 0. 0. 0.
      0. 0. 0. 0. 0. 0. 0. 0. 0. 0. 0. 0. 0. 0. 0. 0. 0. 0.
      9.90098994e-03 0. 0. 1.98019799e-02 0. 0. 9.90098994e-03 0.
      9.90098994e-03 9.90098994e-03 0. 0. 0. 0. 0. 0. 0. 0.
      9.90098994e-03 0. 0. 0. 0. 0. 0. 0. 9.90098994e-03 9.90098994e-03
      0. 9.90098994e-03 0. 0. 0. 0. 0. 0. 0. 0. 0. 0. 9.90098994e-03 0.
      0. 0. 0. 0. 0. 0. 0. 0. 0. 0. 0. 9.90098994e-03 0. 0. 0. 0. 0. 0.
      0. 0. 0. 0. 0. 9.90098994e-03 0. 0. 0. 0. 0. 0. 0. 0. 0. 0. 0. 0.
      9.90098994e-03 0. 0. 0. 0. 0. 0. 1.98019799e-02 9.90098994e-03 0.
      0. 0. 0. 0. 0. 0. 0. 0. 0. 9.90098994e-03 0. 0. 0. 0. 0. 0. 0. 0.
      0. 9.90098994e-03 0. 0. 0. 0. 0. 0. 0. 0. 0. 0. 0. 0. 0. 0. 0. 0.
      0. 0. 0. 0. 9.90098994e-03 0. 0. 0. 0. 0. 0. 0. 0. 0. 0. 0. 0. 0.
      0. 0. 9.90098994e-03 0. 9.90098994e-03 0. 0. 0. 0. 0. 0. 0. 0.
      9.90098994e-03 0. 0. 0. 0. 9.90098994e-03 0. 0. 0. 0.
      1.98019799e-02 0. 0. 0. 0. 0. 0. 0. 0. 0. 0. 0. 0. 0. 0. 0. 0. 0.
      0. 9.90098994e-03 0. 0. 0. 0. 0. 0. 0. 0. 0. 0. 0. 0. 0. 0. 0. 0.
      0. 0. 0. 0. 0. 0. 0. 0. 0. 0. 0. 0. 0. 0. 0. 0. 0. 0. 0. 0. 0. 0.
      0. 0. 0. 0. 0. 0. 0. 0. 0. 0. 0. 0. 0. 0. 0. 0. 0. 9.90098994e-03
      0. 0. 0. 0. 0. 0. 9.90098994e-03 0. 0. 0. 0. 0. 0. 9.90098994e-03
      0. 0. 0. 0. 0. 0. 0. 0. 0. 0. 0. 0. 0. 0. 0. 0. 0. 0. 0. 0. 0. 0.
      0. 0. 9.90098994e-03 0. 0. 0. 0. 0. 0. 0. 9.90098994e-03 0. 0. 0.
      0. 0. 0. 0. 0. 0. 0. 0. 0. 0. 9.90098994e-03 0. 0. 0. 0. 0. 0. 0.
      9.90098994e-03 0. 0. 0. 0. 9.90098994e-03 0. 0. 0. 0. 0. 0. 0.
      9.90098994e-03 0. 0. 0. 0. 0. 0. 0. 0. 0. 0. 0. 9.90098994e-03 0.
      0. 0. 0. 0. 0. 9.90098994e-03 0. 0. 0. 0. 0. 9.90098994e-03 0. 0.
      9.90098994e-03 0. 0. 0. 0. 9.90098994e-03 0. 0. 0. 0. 0. 0. 0. 0.
      0. 0. 0. 0. 9.90098994e-03 0. 0. 0. 0. 0. 0. 0. 0. 0. 0. 0. 0. 0.
      0. 0. 0. 0. 0. 0. 0. 9.90098994e-03 0. 0. 0. 0. 0. 0. 0.
      9.90098994e-03 0. 0. 0. 0. 0. 9.90098994e-03 0. 0. 0. 0. 0. 0. 0.
      0. 0. 0. 0. 1.98019799e-02 0. 9.90098994e-03 0. 0. 0.
      9.90098994e-03 0. 0. 0. 0. 0. 0. 0. 0. 0. 0. 0. 0. 0. 0. 0. 0. 0.
      0. 0. 0. 0. 0. 0. 0. 0. 0. 0. 0. 9.90098994e-03 0. 0. 0. 0. 0. 0.
      0. 9.90098994e-03 0. 0. 9.90098994e-03 9.90098994e-03 0. 0. 0. 0.
      0. 0. 0. 0. 0. 0. 0. 0. 0. 0. 0. 0. 0. 0. 0. 0. 0. 0. 0. 0. 0. 0.
      0. 0. 0. 0. 0. 0. 0. 0. 0. 0. 0. 0. 0. 0. 9.90098994e-03
      9.90098994e-03 0. 0. 0. 0. 0. 0. 0. 0. 0. 0. 0. 9.90098994e-03 0.
      0. 9.90098994e-03 0. 0. 0. 0. 0. 0. 0. 0. 0. 0. 0. 0. 0. 0. 0.
      9.90098994e-03 0. 0. 0. 0. 0. 0. 0. 0. 0. 0. 0. 0. 0. 0. 0. 0.
      9.90098994e-03 0. 0. 0. 0. 0. 0. 0. 0. 0. 0. 0. 0. 0. 0. 0. 0.
      9.90098994e-03 0. 0. 0. 0. 0. 0. 0. 0. 0. 0. 0. 0. 0. 0. 0. 0. 0.
      0. 0. 0. 0. 0. 0. 0. 0. 0. 0. 9.90098994e-03 0. 0. 0. 0.
      1.98019799e-02 0. 0. 9.90098994e-03 0. 0. 0. 0. 0. 0. 0. 0. 0. 0.
      0. 0. 0. 0. 0. 0.</_>
    <_>
      0. 0. 0. 0. 0. 0. 0. 0. 0. 0. 0. 0. 0. 0. 0. 0. 0. 0. 0. 0. 0. 0.
      0. 0. 0. 0. 0. 0. 0. 0. 0. 0. 0. 0. 0. 0. 0. 0. 0. 0. 0. 0. 0.
      1.05263162e-02 0. 0. 0. 0. 0. 3.15789506e-02 0. 0. 1.05263162e-02
      0. 1.05263162e-02 0. 0. 0. 0. 0. 0. 0. 0. 0. 0. 0. 0. 0. 0. 0. 0.
      0. 1.05263162e-02 1.05263162e-02 0. 0. 0. 0. 0. 0. 0. 0. 0. 0. 0.
      0. 0. 0. 0. 0. 0. 0. 0. 0. 0. 0. 0. 0. 0. 0. 0. 0. 0. 0. 0. 0. 0.
      0. 0. 0. 0. 0. 0. 0. 0. 0. 0. 0. 0. 0. 0. 0. 0. 0. 0. 0. 0. 0. 0.
      0. 0. 0. 0. 0. 0. 0. 0. 0. 0. 0. 1.05263162e-02 0. 0. 0. 0. 0. 0.
      0. 0. 0. 0. 0. 1.05263162e-02 1.05263162e-02 0. 0. 0. 0. 0. 0. 0.
      1.05263162e-02 0. 0. 0. 0. 0. 0. 0. 0. 0. 0. 0. 0. 0. 0. 0. 0. 0.
      0. 0. 0. 0. 0. 0. 0. 0. 0. 0. 1.05263162e-02 0. 0. 0. 0. 0. 0. 0.
      0. 0. 0. 0. 0. 0. 0. 0. 1.05263162e-02 0. 0. 0. 0. 1.05263162e-02
      0. 0. 0. 0. 0. 0. 0. 0. 0. 0. 1.05263162e-02 0. 0. 0. 0. 0. 0. 0.
      0. 0. 0. 0. 1.05263162e-02 0. 0. 0. 0. 0. 1.05263162e-02 0.
      2.10526325e-02 0. 0. 0. 0. 0. 0. 0. 2.10526325e-02 1.05263162e-02
      0. 0. 0. 0. 0. 0. 0. 1.05263162e-02 0. 0. 0. 0. 0. 0. 0. 0. 0. 0.
      0. 0. 1.05263162e-02 0. 0. 0. 0. 0. 1.05263162e-02 0. 0. 0. 0. 0.
      0. 0. 0. 1.05263162e-02 0. 0. 0. 0. 0. 0. 0. 0. 1.05263162e-02 0.
      0. 0. 0. 0. 0. 0. 0. 0. 0. 0. 0. 1.05263162e-02 0. 0. 0. 0. 0.
      1.05263162e-02 0. 0. 1.05263162e-02 0. 0. 0. 0. 0. 1.05263162e-02
      0. 0. 0. 0. 1.05263162e-02 1.05263162e-02 0. 0. 0. 0. 0. 0. 0. 0.
      0. 0. 0. 0. 0. 0. 0. 0. 1.05263162e-02 0. 0. 0. 2.10526325e-02 0.
      0. 0. 1.05263162e-02 0. 0. 0. 0. 0. 0. 0. 1.05263162e-02 0. 0. 0.
      0. 0. 0. 0. 0. 0. 0. 0. 0. 0. 0. 0. 1.05263162e-02 0. 0.
      1.05263162e-02 0. 0. 1.05263162e-02 0. 0. 1.05263162e-02 0. 0. 0.
      0. 0. 0. 0. 0. 1.05263162e-02 0. 0. 0. 0. 0. 0. 0. 2.10526325e-02
      1.05263162e-02 0. 1.05263162e-02 0. 0. 0. 0. 0. 0. 0. 0. 0. 0.
      1.05263162e-02 0. 0. 0. 0. 0. 0. 0. 0. 0. 0. 0. 0. 1.05263162e-02
      1.05263162e-02 0. 0. 0. 0. 0. 0. 0. 0. 0. 0. 2.10526325e-02
      1.05263162e-02 0. 0. 0. 0. 0. 0. 0. 0. 0. 0. 0. 0. 0. 0. 0. 0. 0.
      0. 2.10526325e-02 0. 0. 0. 0. 0. 0. 0. 0. 0. 0. 0. 1.05263162e-02
      0. 0. 0. 0. 0. 0. 0. 0. 0. 1.05263162e-02 0. 0. 0. 0. 0. 0. 0. 0.
      0. 0. 0. 0. 0. 0. 0. 0. 0. 0. 0. 0. 0. 0. 0. 0. 0. 0. 0. 0.
      1.05263162e-02 0. 0. 0. 0. 0. 0. 0. 1.05263162e-02 0. 0. 0. 0. 0.
      0. 0. 0. 0. 0. 0. 0. 0. 0. 0. 0. 0. 0. 0. 0. 0. 0. 0. 0. 0. 0. 0.
      0. 0. 0. 0. 0. 0. 0. 0. 0. 0. 0. 0. 0. 0. 0. 0. 0. 0. 0. 0. 0. 0.
      0. 0. 0. 0. 0. 0. 0. 0. 0. 0. 0. 0. 0. 0. 0. 0. 0. 0. 0. 0. 0. 0.
      0. 0. 0. 0. 0. 0. 0. 1.05263162e-02 0. 0. 0. 1.05263162e-02 0. 0.
      0. 0. 0. 0. 0. 0. 0. 0. 0. 0. 0. 0. 0. 0. 0. 0. 0. 0. 0. 0. 0.
      1.05263162e-02 0. 0. 0. 0. 0. 0. 0. 0. 0. 0. 0. 0. 0. 0. 0. 0. 0.
      0. 0. 0. 0. 0. 0. 0. 1.05263162e-02 0. 0. 0. 0. 0. 0. 0. 0. 0. 0.
      0. 0. 0. 0. 0. 0. 0. 0. 0. 0. 0. 0. 0. 0. 1.05263162e-02 0. 0. 0.
      0. 0. 0. 0. 1.05263162e-02 1.05263162e-02 0. 0. 0. 1.05263162e-02
      0. 0. 1.05263162e-02 0. 0. 0. 0. 0. 0. 0. 0. 0. 0. 0. 0. 0. 0. 0.
      0. 0. 0. 0. 0. 0. 0. 0. 1.05263162e-02 0. 0. 0. 0. 0. 0. 0. 0.
      1.05263162e-02 0. 0. 0. 0. 0. 0. 0. 0. 0. 0. 0. 0. 0. 0. 0. 0. 0.
      1.05263162e-02 0. 0. 0. 0. 0. 0. 0. 0. 0. 0. 0. 0. 0. 0. 0. 0. 0.
      0. 0. 0. 1.05263162e-02 0. 0. 0. 0. 0. 0. 0. 1.05263162e-02 0. 0.
      0. 0. 0. 1.05263162e-02 0. 1.05263162e-02 0. 0. 0. 0. 0. 0. 0. 0.
      1.05263162e-02 1.05263162e-02 0. 1.05263162e-02 0. 0. 0. 0. 0. 0.
      0. 0. 0. 0. 0. 0. 0. 0. 0. 0. 0. 0. 0. 0. 0. 0. 0. 0. 0. 0. 0. 0.
      0. 0. 0. 0. 1.05263162e-02 0. 0. 0. 0. 0. 0. 0. 0. 0. 0. 0. 0. 0.
      0. 0. 0. 0. 0. 0. 0. 0. 0. 0. 0. 0. 0. 0. 0. 0. 0. 0. 0. 0. 0. 0.
      0. 1.05263162e-02 0. 0. 0. 0. 0. 0. 0. 0. 0. 0. 0. 0. 0. 0. 0.
      1.05263162e-02 0. 0. 0. 0. 0. 1.05263162e-02 0. 0. 0. 0.
      1.05263162e-02 0. 2.10526325e-02 0. 0. 0. 0. 0. 0. 0. 0. 0. 0. 0.
      0. 0. 0. 0. 0. 1.05263162e-02 0. 0. 1.05263162e-02 0. 0. 0. 0. 0.
      0. 0. 0. 0. 0. 0. 0. 0. 0. 0. 1.05263162e-02 0. 0. 0. 0. 0. 0. 0.
      0. 0. 0. 0. 0. 1.05263162e-02 0. 0. 0. 1.05263162e-02 0. 0. 0. 0.
      0. 1.05263162e-02 0. 0. 0. 0. 0. 0. 0. 0. 0. 0. 0. 0. 0. 0. 0. 0.
      0. 0. 1.05263162e-02 0. 0. 0. 0. 0. 0. 0. 0. 0. 0. 2.10526325e-02
      0. 0. 0. 0. 0. 0. 0. 0. 0. 0. 0. 0. 0. 0. 0. 0.</_>
    <_>
      0. 0. 0. 0. 0. 0. 0. 0. 0. 0. 0. 0. 0. 0. 0. 0. 0. 0. 0. 0. 0. 0.
      0. 0. 9.61538497e-03 0. 9.61538497e-03 0. 0. 0. 0. 0. 0. 0. 0. 0.
      0. 0. 0. 9.61538497e-03 0. 0. 0. 9.61538497e-03 0. 0. 0. 0. 0.
      1.92307699e-02 9.61538497e-03 0. 9.61538497e-03 0. 9.61538497e-03
      9.61538497e-03 0. 0. 0. 0. 0. 0. 0. 0. 0. 0. 0. 0. 0. 0. 0. 0. 0.
      2.88461559e-02 9.61538497e-03 0. 0. 0. 0. 0. 0. 0. 0. 0. 0. 0. 0.
      0. 0. 0. 0. 0. 0. 0. 0. 0. 0. 0. 0. 0. 0. 0. 0. 0. 0. 0. 0. 0. 0.
      0. 0. 0. 0. 0. 0. 0. 0. 0. 0. 0. 0. 0. 0. 0. 0. 0. 0. 0. 0. 0. 0.
      0. 0. 0. 0. 0. 0. 0. 0. 0. 0. 0. 0. 0. 0. 0. 0. 0. 9.61538497e-03
      0. 0. 0. 9.61538497e-03 0. 0. 0. 0. 0. 0. 0. 0. 9.61538497e-03 0.
      0. 0. 0. 0. 0. 0. 0. 0. 0. 0. 0. 0. 0. 0. 0. 0. 0. 0. 0. 0. 0. 0.
      0. 0. 0. 1.92307699e-02 9.61538497e-03 0. 0. 0. 0. 0. 0. 0. 0. 0.
      0. 0. 0. 0. 0. 0. 0. 0. 0. 0. 0. 0. 0. 0. 0. 0. 0. 0. 0. 0. 0. 0.
      0. 0. 0. 0. 0. 0. 0. 0. 0. 0. 0. 0. 0. 0. 0. 0. 0. 0. 0. 0.
      9.61538497e-03 0. 0. 0. 0. 0. 0. 0. 9.61538497e-03 0. 0. 0. 0.
      9.61538497e-03 0. 0. 0. 1.92307699e-02 0. 0. 0. 0. 0. 0. 0. 0. 0.
      0. 0. 0. 9.61538497e-03 0. 0. 0. 0. 0. 9.61538497e-03 0. 0. 0. 0.
      9.61538497e-03 0. 0. 0. 0. 0. 0. 0. 0. 9.61538497e-03 0. 0. 0.
      1.92307699e-02 0. 0. 0. 0. 0. 0. 0. 0. 0. 0. 0. 0. 0. 0. 0. 0. 0.
      0. 9.61538497e-03 0. 0. 9.61538497e-03 0. 0. 0. 0. 0.
      9.61538497e-03 0. 0. 0. 0. 1.92307699e-02 0. 0. 0. 0. 0. 0. 0. 0.
      0. 0. 0. 0. 0. 0. 0. 0. 0. 0. 0. 0. 0. 9.61538497e-03 0. 0. 0.
      9.61538497e-03 0. 0. 0. 0. 0. 0. 0. 0. 0. 0. 0. 0. 0. 0. 0. 0. 0.
      0. 0. 0. 0. 0. 0. 9.61538497e-03 0. 0. 9.61538497e-03 0. 0.
      9.61538497e-03 0. 0. 1.92307699e-02 0. 0. 0. 0. 0. 0. 0. 0. 0. 0.
      0. 0. 0. 0. 9.61538497e-03 0. 9.61538497e-03 0. 0. 9.61538497e-03
      0. 0. 0. 0. 0. 0. 0. 0. 0. 0. 0. 0. 0. 0. 0. 0. 0. 0. 0. 0. 0. 0.
      0. 9.61538497e-03 9.61538497e-03 0. 9.61538497e-03 0. 0. 0. 0. 0.
      0. 0. 0. 9.61538497e-03 0. 0. 0. 0. 0. 0. 0. 0. 0. 0. 0. 0. 0. 0.
      0. 0. 0. 0. 0. 9.61538497e-03 9.61538497e-03 0. 0. 0. 0. 0. 0. 0.
      9.61538497e-03 0. 0. 9.61538497e-03 0. 0. 0. 0. 0. 0. 0. 0. 0.
      1.92307699e-02 0. 0. 0. 0. 0. 0. 0. 0. 0. 0. 0. 0. 0. 0. 0. 0. 0.
      0. 0. 0. 9.61538497e-03 0. 9.61538497e-03 0. 0. 0. 0. 0.
      9.61538497e-03 0. 0. 0. 0. 0. 0. 0. 0. 0. 0. 0. 0. 0. 0. 0. 0. 0.
      0. 0. 0. 9.61538497e-03 0. 0. 9.61538497e-03 0. 0. 9.61538497e-03
      0. 0. 0. 0. 0. 0. 0. 0. 0. 0. 0. 0. 0. 0. 0. 0. 0. 0. 0. 0.
      9.61538497e-03 0. 0. 0. 0. 0. 0. 0. 0. 0. 0. 0. 0. 0. 0. 0. 0. 0.
      0. 0. 0. 0. 0. 0. 0. 0. 0. 0. 0. 0. 0. 0. 0. 0. 0. 0. 0. 0. 0. 0.
      0. 0. 0. 0. 0. 0. 0. 0. 0. 0. 0. 9.61538497e-03 0. 0. 0. 0.
      9.61538497e-03 0. 0. 0. 0. 0. 0. 0. 0. 0. 0. 0. 0. 0.
      9.61538497e-03 0. 0. 0. 0. 0. 0. 0. 0. 0. 0. 0. 0. 0. 0. 0. 0. 0.
      0. 0. 0. 0. 0. 0. 0. 0. 0. 0. 0. 9.61538497e-03 0. 0. 0. 0. 0. 0.
      0. 0. 0. 0. 0. 0. 0. 0. 0. 0. 0. 9.61538497e-03 0. 0. 0. 0. 0. 0.
      0. 9.61538497e-03 0. 0. 0. 0. 9.61538497e-03 0. 0. 0. 0. 0. 0. 0.
      0. 0. 9.61538497e-03 0. 0. 0. 0. 0. 0. 0. 0. 0. 0. 0.
      9.61538497e-03 0. 0. 0. 0. 9.61538497e-03 0. 0. 0. 0. 0. 0. 0.
      9.61538497e-03 9.61538497e-03 0. 0. 0. 0. 0. 0. 0. 0. 0. 0. 0. 0.
      0. 0. 0. 0. 0. 9.61538497e-03 0. 0. 1.92307699e-02 0. 0. 0. 0. 0.
      0. 0. 0. 0. 0. 0. 0. 0. 0. 0. 0. 0. 9.61538497e-03 0. 0. 0. 0. 0.
      0. 0. 1.92307699e-02 0. 0. 0. 0. 0. 9.61538497e-03 0. 0. 0. 0. 0.
      0. 0. 0. 0. 0. 0. 1.92307699e-02 0. 9.61538497e-03 0. 0. 0.
      9.61538497e-03 0. 9.61538497e-03 0. 0. 0. 0. 0. 0. 0. 0. 0.
      9.61538497e-03 0. 0. 0. 0. 0. 0. 0. 0. 0. 0. 0. 1.92307699e-02 0.
      0. 0. 0. 9.61538497e-03 0. 0. 0. 0. 0. 0. 0. 0. 0. 0. 0.
      9.61538497e-03 0. 0. 0. 0. 0. 9.61538497e-03 0. 0. 0. 0. 0. 0. 0.
      0. 0. 0. 0. 0. 0. 9.61538497e-03 0. 0. 0. 0. 0. 0. 0. 0. 0. 0. 0.
      0. 0. 0. 0. 0. 0. 0. 0. 0. 9.61538497e-03 0. 9.61538497e-03 0. 0.
      0. 0. 0. 0. 0. 0. 0. 0. 9.61538497e-03 0. 9.61538497e-03 0. 0. 0.
      0. 0. 0. 0. 0. 0. 0. 1.92307699e-02 0. 0. 0. 0. 0. 0. 0. 0. 0. 0.
      0. 0. 0. 0. 0. 0. 0. 0. 0. 0. 0. 0. 9.61538497e-03 0. 0. 0. 0. 0.
      0. 0. 0. 0. 0. 0. 0. 0. 0. 0. 0. 9.61538497e-03 0. 0. 0. 0. 0. 0.
      0. 0. 0. 0. 0. 0. 0. 0. 0. 0. 0. 0. 0. 0. 0. 0. 0. 0. 0. 0. 0. 0.
      0. 0. 9.61538497e-03 9.61538497e-03 0. 0. 0. 0. 0. 0. 0. 0. 0. 0.
      0. 0. 0. 0. 0. 0. 0. 0. 0. 0.</_>
    <_>
      0. 0. 0. 0. 0. 0. 0. 0. 0. 0. 0. 0. 0. 0. 0. 0. 0. 0. 0. 0. 0. 0.
      1.02040814e-02 0. 1.02040814e-02 0. 0. 0. 0. 0. 0. 0. 0. 0. 0. 0.
      0. 0. 0. 0. 0. 0. 0. 1.02040814e-02 0. 0. 0. 0. 0. 1.02040814e-02
      1.02040814e-02 0. 1.02040814e-02 0. 1.02040814e-02 0. 0. 0. 0. 0.
      0. 0. 0. 0. 0. 0. 0. 0. 0. 0. 0. 0. 0. 2.04081628e-02 0. 0. 0. 0.
      0. 0. 0. 0. 0. 0. 0. 0. 0. 0. 0. 0. 0. 0. 0. 0. 0. 0. 0.
      1.02040814e-02 0. 0. 0. 0. 0. 0. 0. 0. 0. 0. 0. 0. 0. 0. 0. 0. 0.
      0. 0. 0. 0. 0. 0. 0. 0. 0. 0. 0. 0. 0. 0. 0. 0. 0. 0. 0. 0. 0. 0.
      0. 0. 0. 1.02040814e-02 0. 0. 0. 0. 0. 0. 0. 1.02040814e-02 0. 0.
      0. 1.02040814e-02 0. 0. 0. 0. 0. 0. 0. 0. 1.02040814e-02 0. 0. 0.
      0. 0. 0. 0. 0. 0. 0. 0. 0. 0. 0. 0. 0. 0. 0. 0. 0. 1.02040814e-02
      0. 1.02040814e-02 0. 0. 0. 1.02040814e-02 1.02040814e-02 0. 0. 0.
      0. 0. 0. 0. 0. 0. 0. 0. 0. 0. 0. 0. 1.02040814e-02 0. 0. 0. 0. 0.
      0. 0. 0. 0. 0. 0. 0. 0. 0. 0. 0. 0. 0. 0. 0. 0. 0. 0. 0. 0. 0. 0.
      0. 0. 0. 0. 0. 0. 0. 0. 2.04081628e-02 0. 0. 0. 1.02040814e-02 0.
      0. 0. 1.02040814e-02 1.02040814e-02 0. 0. 0. 1.02040814e-02 0. 0.
      0. 0. 0. 0. 0. 0. 0. 0. 0. 0. 0. 0. 0. 0. 1.02040814e-02 0. 0. 0.
      0. 0. 1.02040814e-02 0. 0. 0. 0. 1.02040814e-02 0. 0. 0. 0. 0. 0.
      0. 0. 0. 0. 0. 1.02040814e-02 1.02040814e-02 0. 0. 0. 0. 0. 0. 0.
      0. 0. 0. 0. 0. 0. 0. 0. 0. 0. 0. 0. 0. 0. 0. 0. 0. 0. 0. 0.
      1.02040814e-02 0. 0. 0. 0. 1.02040814e-02 0. 0. 0. 0. 0. 0. 0. 0.
      0. 0. 0. 0. 0. 0. 0. 0. 0. 0. 0. 0. 0. 2.04081628e-02 0. 0. 0.
      1.02040814e-02 0. 0. 0. 0. 0. 0. 0. 0. 0. 0. 0. 0. 0. 0. 0. 0. 0.
      0. 0. 0. 0. 0. 0. 1.02040814e-02 0. 0. 1.02040814e-02 0. 0.
      1.02040814e-02 0. 0. 2.04081628e-02 0. 0. 0. 0. 0. 0. 0. 0.
      1.02040814e-02 0. 0. 0. 0. 0. 0. 0. 0. 0. 0. 1.02040814e-02 0. 0.
      0. 0. 0. 0. 0. 0. 0. 0. 1.02040814e-02 0. 0. 0. 0. 0. 0. 0. 0. 0.
      0. 0. 0. 1.02040814e-02 0. 0. 0. 0. 0. 0. 0. 0. 0. 0. 0.
      1.02040814e-02 0. 0. 0. 0. 0. 0. 0. 0. 0. 0. 0. 0. 0. 0. 0. 0. 0.
      0. 0. 2.04081628e-02 0. 0. 0. 0. 0. 0. 0. 0. 0. 0. 0.
      1.02040814e-02 0. 0. 0. 0. 0. 0. 0. 0. 0. 2.04081628e-02 0. 0. 0.
      0. 0. 0. 0. 0. 0. 0. 0. 0. 0. 0. 0. 0. 0. 0. 0. 0. 1.02040814e-02
      0. 0. 0. 0. 0. 0. 0. 2.04081628e-02 0. 0. 0. 0. 0. 0. 0.
      1.02040814e-02 0. 1.02040814e-02 0. 0. 0. 0. 0. 0. 0. 0. 0. 0.
      2.04081628e-02 0. 0. 1.02040814e-02 0. 0. 1.02040814e-02 0. 0. 0.
      0. 0. 0. 0. 0. 0. 0. 0. 0. 0. 0. 0. 1.02040814e-02 0. 0. 0. 0.
      1.02040814e-02 0. 0. 0. 0. 0. 0. 0. 0. 0. 0. 0. 0. 0. 0. 0. 0. 0.
      0. 0. 0. 0. 0. 0. 0. 0. 0. 0. 0. 0. 0. 0. 0. 0. 0. 0. 0. 0. 0. 0.
      0. 0. 0. 0. 0. 0. 0. 0. 0. 0. 0. 0. 0. 0. 0. 0. 1.02040814e-02 0.
      0. 0. 0. 0. 0. 1.02040814e-02 0. 0. 0. 0. 0. 0. 1.02040814e-02 0.
      0. 0. 0. 0. 0. 0. 0. 0. 0. 0. 0. 0. 0. 0. 0. 1.02040814e-02 0. 0.
      0. 0. 1.02040814e-02 0. 0. 0. 0. 0. 0. 1.02040814e-02 0. 0. 0. 0.
      0. 0. 0. 0. 0. 0. 0. 0. 1.02040814e-02 0. 0. 0. 0. 1.02040814e-02
      0. 0. 0. 0. 0. 0. 0. 0. 1.02040814e-02 0. 0. 0. 1.02040814e-02 0.
      0. 0. 0. 0. 0. 0. 0. 0. 0. 0. 0. 0. 0. 0. 0. 0. 0. 0. 0. 0.
      1.02040814e-02 0. 0. 0. 0. 1.02040814e-02 0. 0. 0. 0. 0. 0. 0.
      1.02040814e-02 1.02040814e-02 0. 0. 0. 0. 0. 0. 0. 0. 0. 0. 0. 0.
      0. 0. 0. 0. 0. 0. 0. 0. 1.02040814e-02 0. 0. 0. 0. 0. 0. 0. 0. 0.
      0. 0. 0. 0. 0. 0. 0. 0. 1.02040814e-02 0. 0. 0. 0. 0. 0. 0.
      2.04081628e-02 0. 0. 0. 0. 0. 2.04081628e-02 0. 0. 0. 0. 0. 0. 0.
      0. 0. 0. 0. 2.04081628e-02 0. 1.02040814e-02 0. 0. 0. 0. 0. 0. 0.
      0. 0. 0. 0. 0. 0. 0. 0. 0. 0. 0. 0. 0. 0. 0. 0. 0. 0. 0. 0. 0. 0.
      0. 0. 0. 1.02040814e-02 0. 0. 0. 0. 0. 0. 0. 1.02040814e-02 0. 0.
      0. 0. 0. 0. 0. 0. 0. 1.02040814e-02 1.02040814e-02 0. 0. 0. 0. 0.
      0. 0. 0. 0. 1.02040814e-02 0. 0. 0. 0. 0. 0. 0. 0. 0. 0. 0. 0. 0.
      0. 0. 0. 0. 0. 0. 0. 0. 0. 0. 1.02040814e-02 0. 0. 0. 0. 0. 0. 0.
      0. 0. 0. 0. 0. 1.02040814e-02 0. 0. 0. 0. 0. 0. 0. 0. 0. 0. 0. 0.
      1.02040814e-02 0. 0. 0. 0. 0. 0. 0. 0. 0. 0. 0. 0. 0. 0. 0. 0. 0.
      0. 0. 0. 0. 0. 1.02040814e-02 0. 0. 0. 0. 0. 0. 0. 0. 0. 0. 0. 0.
      0. 0. 0. 0. 1.02040814e-02 0. 0. 0. 0. 0. 0. 0. 1.02040814e-02 0.
      0. 0. 0. 0. 0. 0. 0. 1.02040814e-02 0. 0. 0. 0. 0. 0. 0. 0. 0. 0.
      0. 0. 0. 1.02040814e-02 0. 1.02040814e-02 0. 0. 0. 0. 0. 0. 0. 0.
      0. 0. 0. 0. 0. 0. 0. 0. 0. 0. 0.</_>
    <_>
      0. 0. 0. 0. 0. 0. 0. 0. 0. 0. 0. 0. 0. 0. 0. 0. 0. 0. 0. 0. 0. 0.
      9.99999978e-03 0. 9.99999978e-03 0. 0. 0. 0. 0. 0. 0. 0. 0. 0. 0.
      0. 0. 0. 0. 0. 0. 0. 1.99999996e-02 0. 0. 0. 0. 0. 2.99999993e-02
      9.99999978e-03 0. 9.99999978e-03 0. 9.99999978e-03 0. 0. 0. 0. 0.
      0. 0. 0. 0. 0. 0. 0. 0. 0. 0. 0. 0. 0. 9.99999978e-03 0. 0. 0. 0.
      0. 0. 0. 0. 0. 9.99999978e-03 0. 0. 0. 0. 0. 0. 0. 0. 0. 0. 0. 0.
      0. 9.99999978e-03 0. 0. 0. 0. 0. 0. 0. 0. 0. 0. 0. 0. 0. 0. 0. 0.
      0. 0. 0. 0. 0. 0. 0. 0. 0. 0. 0. 0. 0. 0. 0. 0. 0. 0. 0. 0. 0. 0.
      0. 0. 0. 0. 9.99999978e-03 0. 0. 0. 0. 0. 0. 0. 9.99999978e-03 0.
      0. 0. 9.99999978e-03 0. 0. 0. 0. 0. 0. 0. 0. 9.99999978e-03 0. 0.
      0. 9.99999978e-03 0. 0. 0. 0. 0. 0. 0. 0. 0. 0. 0. 0. 0. 0. 0. 0.
      0. 0. 0. 0. 0. 0. 9.99999978e-03 0. 0. 0. 0. 0. 0. 0. 0. 0. 0. 0.
