<?xml version="1.0"?>
<opencv_storage>
<my_svm type_id="opencv-ml-svm">
  <svm_type>C_SVC</svm_type>
  <kernel><type>RBF</type>
    <gamma>8.</gamma></kernel>
  <C>10.</C>
  <term_criteria><epsilon>1.1920928955078125e-07</epsilon>
    <iterations>2147483647</iterations></term_criteria>
  <var_all>1000</var_all>
  <var_count>1000</var_count>
  <class_count>2</class_count>
  <class_labels type_id="opencv-matrix">
    <rows>1</rows>
    <cols>2</cols>
    <dt>i</dt>
    <data>
      0 1</data></class_labels>
  <sv_total>128</sv_total>
  <support_vectors>
    <_>
      2.50000004e-02 0. 0. 0. 0. 0. 0. 0. 0. 0. 0. 0. 0. 0. 0. 0. 0. 0.
      0. 0. 0. 0. 0. 0. 0. 0. 0. 0. 0. 0. 0. 0. 0. 0. 0. 0. 0. 0. 0. 0.
      0. 0. 0. 0. 0. 2.50000004e-02 2.50000004e-02 0. 0. 0. 0. 0. 0. 0.
      0. 0. 0. 0. 0. 0. 0. 0. 0. 0. 0. 0. 0. 0. 0. 0. 0. 5.00000007e-02
      0. 0. 0. 2.50000004e-02 0. 0. 0. 0. 0. 0. 0. 0. 0. 0. 0. 0. 0. 0.
      0. 0. 0. 0. 0. 0. 0. 0. 0. 0. 0. 0. 0. 0. 0. 0. 0. 0. 0. 0. 0. 0.
      0. 0. 0. 0. 0. 0. 0. 0. 0. 0. 0. 0. 0. 0. 0. 0. 0. 0. 0. 0. 0. 0.
      0. 0. 0. 0. 0. 0. 0. 0. 0. 0. 0. 0. 0. 0. 0. 0. 0. 0. 0. 0. 0. 0.
      0. 0. 0. 0. 0. 0. 2.50000004e-02 0. 0. 0. 0. 0. 0. 0. 0. 0. 0. 0.
      0. 0. 0. 0. 0. 0. 0. 0. 0. 0. 0. 0. 0. 0. 0. 0. 0. 0. 0. 0. 0. 0.
      0. 0. 0. 0. 0. 0. 0. 0. 0. 0. 0. 0. 0. 0. 0. 0. 0. 0.
      2.50000004e-02 0. 0. 0. 0. 0. 0. 0. 0. 0. 0. 0. 0. 0. 0. 0. 0. 0.
      5.00000007e-02 0. 0. 0. 0. 0. 0. 0. 0. 0. 2.50000004e-02 0. 0. 0.
      0. 0. 0. 0. 0. 0. 0. 0. 0. 0. 0. 0. 0. 0. 2.50000004e-02 0. 0. 0.
      0. 0. 0. 0. 0. 0. 0. 5.00000007e-02 7.50000030e-02 0. 0. 0. 0. 0.
      0. 0. 0. 0. 0. 0. 0. 0. 0. 0. 0. 0. 0. 0. 0. 0. 0. 0. 0. 0. 0. 0.
      0. 0. 0. 0. 0. 0. 0. 0. 0. 0. 0. 0. 0. 0. 0. 0. 0. 0. 0. 0. 0. 0.
      2.50000004e-02 2.50000004e-02 0. 0. 0. 0. 0. 0. 0. 0. 0. 0. 0. 0.
      0. 0. 0. 0. 0. 0. 0. 0. 0. 0. 0. 0. 0. 0. 0. 0. 0. 0. 0. 0. 0. 0.
      0. 0. 0. 0. 0. 0. 0. 0. 0. 0. 0. 0. 0. 0. 0. 0. 0. 0. 0. 0. 0. 0.
      2.50000004e-02 0. 0. 0. 0. 0. 0. 0. 0. 0. 0. 0. 0. 0. 0. 0. 0. 0.
      0. 0. 0. 0. 0. 0. 0. 0. 0. 0. 0. 0. 0. 0. 0. 0. 0. 0. 0. 0. 0. 0.
      0. 0. 0. 0. 2.50000004e-02 0. 0. 0. 0. 0. 0. 0. 0. 0. 0. 0. 0. 0.
      0. 0. 0. 0. 0. 0. 0. 0. 0. 0. 0. 0. 0. 0. 0. 0. 0. 0. 0. 0.
      2.50000004e-02 0. 0. 0. 0. 0. 0. 0. 0. 0. 0. 0. 0. 0. 0. 0. 0. 0.
      0. 0. 0. 0. 0. 0. 0. 0. 0. 0. 0. 0. 0. 0. 0. 0. 0. 0. 0. 0. 0. 0.
      0. 0. 0. 0. 0. 0. 0. 0. 0. 0. 0. 0. 0. 5.00000007e-02 0. 0. 0. 0.
      0. 0. 0. 0. 0. 0. 0. 0. 0. 0. 0. 0. 0. 0. 0. 0. 0. 0. 0. 0. 0. 0.
      0. 2.50000004e-02 0. 2.50000004e-02 0. 0. 0. 0. 0. 0. 0. 0. 0. 0.
      0. 2.50000004e-02 0. 0. 0. 0. 0. 0. 0. 0. 0. 0. 0. 0. 0. 0. 0. 0.
      0. 2.50000004e-02 0. 0. 0. 0. 0. 0. 0. 0. 0. 0. 0. 0. 0. 0. 0. 0.
      0. 2.50000004e-02 0. 0. 0. 0. 0. 0. 0. 0. 0. 0. 0. 0. 0.
      5.00000007e-02 0. 0. 0. 0. 0. 0. 0. 0. 0. 0. 0. 2.50000004e-02 0.
      0. 0. 0. 0. 0. 0. 0. 0. 0. 0. 0. 0. 0. 0. 0. 0. 0. 0. 0. 0. 0. 0.
      5.00000007e-02 0. 0. 0. 0. 0. 0. 0. 0. 0. 0. 0. 0. 0. 0. 0. 0. 0.
      0. 0. 0. 0. 0. 0. 0. 0. 0. 0. 2.50000004e-02 0. 0. 0. 0. 0. 0. 0.
      0. 0. 0. 0. 0. 0. 0. 0. 0. 0. 0. 0. 0. 0. 0. 0. 0. 0. 0. 0. 0. 0.
      0. 0. 0. 0. 0. 2.50000004e-02 0. 0. 0. 0. 0. 0. 0. 0. 0. 0. 0. 0.
      0. 0. 0. 0. 0. 0. 0. 0. 0. 0. 0. 0. 0. 0. 0. 0. 0. 0. 0. 0. 0. 0.
      0. 0. 0. 0. 0. 0. 0. 0. 0. 0. 0. 0. 0. 0. 0. 0. 0. 0. 0. 0. 0. 0.
      0. 0. 0. 0. 0. 0. 0. 0. 0. 0. 0. 0. 2.50000004e-02 0. 0. 0. 0. 0.
      0. 0. 0. 0. 0. 0. 0. 0. 0. 0. 0. 0. 0. 0. 0. 0. 0. 0. 0. 0. 0. 0.
      0. 0. 0. 0. 0. 0. 0. 0. 0. 0. 0. 0. 0. 0. 0. 0. 0. 0. 0. 0. 0. 0.
      0. 0. 0. 0. 0. 0. 0. 0. 0. 0. 0. 0. 0. 0. 0. 0. 0. 0. 0. 0. 0. 0.
      0. 0. 0. 0. 0. 0. 0. 0. 0. 0. 0. 0. 0. 0. 0. 0. 0. 0. 0. 0. 0. 0.
      0. 0. 0. 0. 0. 0. 0. 0. 0. 0. 0. 0. 0. 0. 0. 0. 0. 0.
      2.50000004e-02 0. 0. 0. 0. 0. 0. 0. 0. 0. 0. 0. 0. 0. 0. 0. 0. 0.
      0. 0. 0. 0. 0. 0. 0. 0. 0. 0. 0. 0. 0. 0. 0. 0. 0. 0. 0. 0. 0. 0.
      0. 2.50000004e-02 0. 0. 0. 0. 0. 0. 0. 0. 0. 0. 0. 0. 0. 0. 0. 0.
      0. 0. 0. 0. 0. 0. 0. 0. 0. 0. 0. 0. 0. 0. 0. 0. 0. 0.
      2.50000004e-02 0. 0. 0. 0. 0. 0. 0. 0. 0. 0. 0. 0. 0. 0. 0. 0. 0.
      0. 0. 0. 0. 0. 0. 0. 0. 0. 0. 0. 0. 0. 0. 0. 0. 0. 0. 0. 0. 0. 0.
      0.</_>
    <_>
      2.38095243e-02 0. 0. 0. 0. 0. 0. 0. 0. 0. 0. 0. 0. 0. 0. 0. 0. 0.
      0. 0. 0. 0. 0. 0. 0. 0. 0. 0. 0. 0. 0. 0. 0. 0. 0. 0. 0. 0. 0. 0.
      0. 0. 0. 0. 0. 0. 0. 0. 0. 0. 0. 0. 0. 0. 1.19047621e-02 0. 0. 0.
      0. 1.19047621e-02 1.19047621e-02 0. 0. 2.38095243e-02 0. 0. 0.
      1.19047621e-02 0. 0. 0. 3.57142873e-02 0. 0. 0. 1.19047621e-02 0.
      0. 0. 1.19047621e-02 0. 0. 0. 0. 0. 0. 0. 0. 0. 0. 0. 0. 0. 0. 0.
      0. 0. 0. 0. 0. 0. 0. 0. 0. 0. 1.19047621e-02 0. 0. 0. 0. 0. 0.
      1.19047621e-02 0. 0. 0. 0. 0. 0. 0. 0. 0. 0. 0. 0. 0. 0. 0. 0. 0.
      0. 0. 0. 0. 0. 0. 0. 0. 0. 0. 0. 1.19047621e-02 0. 0. 0. 0. 0. 0.
      1.19047621e-02 0. 0. 0. 0. 0. 0. 0. 0. 0. 0. 0. 0. 0.
      1.19047621e-02 0. 0. 0. 0. 0. 0. 0. 0. 0. 0. 0. 0. 0. 0. 0. 0. 0.
      1.19047621e-02 0. 0. 0. 0. 0. 0. 0. 0. 0. 0. 0. 0. 0. 0. 0. 0. 0.
      0. 0. 0. 0. 1.19047621e-02 0. 0. 0. 0. 0. 0. 0. 0. 0. 0. 0.
      1.19047621e-02 0. 0. 0. 0. 0. 0. 0. 0. 0. 0. 0. 0. 0. 0. 0. 0. 0.
      1.19047621e-02 0. 0. 0. 0. 0. 0. 0. 0. 0. 0. 0. 0. 0. 0. 0. 0. 0.
      0. 0. 0. 0. 0. 0. 0. 0. 0. 0. 1.19047621e-02 0. 0. 0. 0. 0.
      1.19047621e-02 0. 0. 0. 0. 1.19047621e-02 0. 0. 0. 0. 0. 0. 0. 0.
      0. 0. 0. 0. 0. 0. 0. 0. 0. 0. 1.19047621e-02 0. 0. 0. 0.
      1.19047621e-02 0. 0. 0. 0. 0. 0. 0. 0. 0. 0. 0. 0. 0. 0. 0. 0. 0.
      0. 0. 0. 0. 0. 0. 0. 0. 0. 0. 1.19047621e-02 0. 0. 0. 0. 0. 0. 0.
      0. 0. 0. 0. 0. 0. 0. 0. 0. 0. 0. 0. 0. 0. 0. 0. 0. 0. 0. 0. 0. 0.
      0. 0. 0. 0. 0. 0. 0. 0. 0. 0. 0. 0. 0. 0. 0. 0. 1.19047621e-02 0.
      1.19047621e-02 0. 0. 0. 0. 0. 0. 0. 0. 1.19047621e-02 0. 0. 0. 0.
      0. 0. 0. 0. 0. 0. 0. 0. 0. 0. 1.19047621e-02 0. 0. 0. 0. 0. 0. 0.
      0. 0. 0. 0. 0. 1.19047621e-02 0. 0. 0. 0. 0. 0. 0. 0. 0. 0. 0. 0.
      0. 0. 0. 0. 0. 0. 0. 0. 0. 0. 0. 0. 0. 0. 0. 0. 0. 0. 0. 0. 0.
      1.19047621e-02 0. 0. 0. 0. 0. 0. 0. 0. 0. 0. 1.19047621e-02 0. 0.
      0. 0. 1.19047621e-02 0. 0. 0. 1.19047621e-02 0. 0. 0. 0. 0. 0. 0.
      0. 0. 0. 0. 0. 0. 0. 0. 0. 0. 0. 1.19047621e-02 0. 0. 0. 0. 0. 0.
      0. 0. 0. 0. 0. 0. 0. 0. 0. 0. 0. 0. 0. 0. 0. 0. 0. 0. 0. 0. 0. 0.
      0. 0. 0. 0. 0. 0. 0. 0. 0. 0. 0. 0. 0. 0. 0. 0. 0. 0. 0. 0. 0. 0.
      0. 0. 0. 1.19047621e-02 0. 0. 0. 1.19047621e-02 0. 0. 0. 0. 0. 0.
      0. 0. 0. 0. 0. 0. 0. 0. 0. 0. 0. 0. 0. 0. 1.19047621e-02 0. 0. 0.
      0. 0. 0. 0. 0. 0. 0. 1.19047621e-02 1.19047621e-02 0. 0. 0. 0. 0.
      0. 0. 0. 0. 0. 0. 0. 0. 0. 0. 0. 0. 0. 0. 0. 0. 0. 0. 0. 0. 0. 0.
      0. 0. 0. 1.19047621e-02 2.38095243e-02 0. 0. 0. 0. 2.38095243e-02
      0. 0. 0. 0. 0. 1.19047621e-02 0. 0. 0. 0. 0. 0. 0. 0. 0. 0. 0. 0.
      0. 0. 0. 0. 0. 0. 0. 0. 0. 0. 0. 0. 0. 0. 0. 0. 0. 0. 0. 0. 0.
      1.19047621e-02 0. 0. 0. 0. 0. 0. 1.19047621e-02 0. 0. 0. 0. 0. 0.
      1.19047621e-02 0. 0. 0. 0. 0. 0. 0. 0. 0. 0. 1.19047621e-02
      1.19047621e-02 0. 0. 0. 0. 0. 0. 0. 0. 0. 0. 0. 0. 0. 0. 0. 0. 0.
      0. 0. 1.19047621e-02 0. 0. 0. 0. 0. 0. 1.19047621e-02 0. 0. 0. 0.
      0. 0. 0. 0. 0. 0. 0. 0. 0. 0. 0. 0. 0. 0. 0. 0. 0. 0. 0. 0. 0.
      1.19047621e-02 0. 0. 0. 0. 0. 0. 0. 0. 3.57142873e-02 0. 0. 0. 0.
      0. 0. 0. 0. 0. 0. 0. 0. 0. 0. 0. 0. 0. 0. 1.19047621e-02 0.
      1.19047621e-02 0. 0. 0. 0. 0. 0. 0. 0. 0. 2.38095243e-02 0. 0. 0.
      0. 0. 0. 0. 0. 0. 0. 0. 0. 0. 0. 0. 0. 0. 0. 0. 0. 0. 0. 0. 0. 0.
      0. 0. 0. 0. 0. 0. 0. 0. 0. 0. 1.19047621e-02 0. 0. 0. 0.
      2.38095243e-02 0. 0. 0. 0. 0. 1.19047621e-02 0. 0. 0. 0. 0. 0. 0.
      0. 0. 0. 0. 0. 0. 1.19047621e-02 0. 0. 0. 0. 0. 0. 0. 0. 0. 0. 0.
      0. 0. 0. 0. 1.19047621e-02 0. 0. 0. 0. 0. 0. 0. 0. 1.19047621e-02
      0. 0. 0. 0. 0. 0. 0. 0. 0. 0. 0. 0. 1.19047621e-02 0. 0. 0. 0. 0.
      0. 0. 0. 0. 0. 0. 0. 0. 0. 1.19047621e-02 0. 0. 0. 1.19047621e-02
      0. 0. 0. 0. 0. 0. 0. 0. 0. 0. 0. 0. 0. 0. 0. 0. 0. 0. 0. 0. 0. 0.
      0. 1.19047621e-02 0. 1.19047621e-02 0. 0. 0. 0. 0. 0. 0. 0. 0. 0.
      0. 0. 0. 0. 0. 0. 0. 0. 0. 0. 0. 0. 0. 0. 0. 0. 0. 0.
      2.38095243e-02 0. 0. 0. 0. 0. 0. 0. 0. 0. 0. 0. 1.19047621e-02 0.
      1.19047621e-02 0. 0. 3.57142873e-02 0. 0. 0. 0. 0. 0. 0. 0. 0. 0.
      0. 0. 0. 0. 0. 0. 0. 0. 0. 0. 0. 0. 1.19047621e-02 0. 0. 0. 0. 0.
      0. 0. 0. 0. 0. 0. 0. 0. 0. 0. 0. 0. 0.</_>
    <_>
      0. 1.09890113e-02 0. 0. 1.09890113e-02 0. 0. 0. 0. 0. 0. 0. 0. 0.
      1.09890113e-02 0. 0. 0. 0. 0. 0. 0. 0. 0. 0. 0. 0. 0. 0. 0. 0. 0.
      0. 0. 0. 0. 0. 0. 0. 0. 0. 0. 0. 0. 0. 0. 0. 0. 0. 0. 0. 0. 0. 0.
      0. 0. 0. 0. 0. 0. 0. 0. 0. 0. 0. 0. 0. 0. 0. 0. 0. 1.09890113e-02
      0. 0. 0. 0. 0. 0. 0. 0. 0. 0. 0. 0. 0. 0. 0. 0. 1.09890113e-02 0.
      0. 0. 0. 0. 0. 0. 0. 0. 0. 0. 0. 0. 0. 0. 0. 0. 0. 0. 0. 0. 0. 0.
      0. 0. 0. 0. 0. 0. 0. 0. 0. 0. 0. 0. 0. 0. 0. 0. 0. 0. 0. 0. 0. 0.
      0. 0. 0. 0. 0. 0. 0. 0. 0. 0. 0. 0. 0. 0. 0. 0. 0. 0. 0. 0.
      1.09890113e-02 0. 0. 0. 0. 0. 0. 0. 2.19780225e-02 0. 0. 0. 0. 0.
      0. 0. 0. 0. 0. 0. 0. 0. 0. 0. 0. 0. 2.19780225e-02 0. 0. 0. 0.
      1.09890113e-02 0. 0. 0. 0. 0. 1.09890113e-02 0. 0. 1.09890113e-02
      0. 0. 0. 0. 0. 0. 0. 0. 0. 0. 0. 0. 0. 0. 0. 2.19780225e-02 0. 0.
      0. 1.09890113e-02 0. 0. 1.09890113e-02 0. 0. 0. 0. 0. 0. 0. 0. 0.
      0. 0. 0. 0. 0. 1.09890113e-02 0. 0. 0. 0. 0. 0. 0. 0. 0.
      1.09890113e-02 0. 1.09890113e-02 0. 0. 0. 1.09890113e-02 0. 0. 0.
      0. 0. 0. 0. 0. 0. 0. 0. 0. 0. 0. 0. 0. 0. 0. 0. 0. 0. 0.
      1.09890113e-02 0. 0. 1.09890113e-02 0. 0. 2.19780225e-02 0. 0.
      1.09890113e-02 0. 0. 0. 0. 0. 0. 0. 0. 0. 0. 0. 0. 0. 0. 0. 0. 0.
      0. 0. 0. 0. 0. 0. 0. 0. 0. 0. 0. 0. 0. 0. 0. 0. 0. 0. 0. 0. 0. 0.
      0. 0. 0. 1.09890113e-02 0. 0. 0. 0. 0. 0. 0. 0. 0. 0. 0. 0. 0. 0.
      0. 0. 0. 1.09890113e-02 0. 0. 0. 0. 0. 1.09890113e-02 0. 0. 0. 0.
      0. 0. 0. 0. 0. 0. 1.09890113e-02 1.09890113e-02 0. 0. 0. 0. 0. 0.
      0. 1.09890113e-02 0. 0. 0. 0. 0. 0. 0. 0. 0. 0. 0. 0.
      1.09890113e-02 0. 0. 0. 0. 0. 0. 0. 2.19780225e-02 0. 0. 0. 0. 0.
      0. 0. 0. 0. 0. 0. 0. 0. 0. 0. 0. 0. 0. 0. 0. 0. 0. 0. 0. 0. 0. 0.
      0. 0. 0. 0. 0. 2.19780225e-02 0. 0. 0. 0. 0. 2.19780225e-02 0. 0.
      0. 0. 0. 0. 0. 0. 0. 0. 0. 0. 0. 2.19780225e-02 0. 0. 0. 0. 0. 0.
      0. 0. 0. 0. 0. 1.09890113e-02 0. 0. 0. 0. 0. 0. 0. 1.09890113e-02
      0. 0. 0. 0. 2.19780225e-02 0. 0. 0. 0. 0. 0. 0. 0. 1.09890113e-02
      0. 0. 0. 0. 0. 0. 0. 0. 0. 0. 0. 0. 0. 0. 0. 0. 0. 0. 0. 0. 0.
      2.19780225e-02 0. 0. 0. 0. 0. 0. 0. 0. 0. 0. 0. 0. 0. 0. 0. 0. 0.
      0. 0. 0. 0. 0. 0. 0. 0. 0. 0. 0. 0. 0. 0. 0. 0. 0. 1.09890113e-02
      0. 0. 0. 0. 0. 0. 0. 0. 0. 1.09890113e-02 0. 0. 0. 0. 0. 0. 0. 0.
      0. 0. 0. 0. 0. 0. 0. 0. 0. 0. 0. 0. 0. 1.09890113e-02 0. 0. 0. 0.
      0. 0. 0. 0. 0. 0. 0. 0. 0. 0. 0. 0. 0. 0. 0. 0. 0. 0. 0. 0. 0. 0.
      0. 0. 0. 0. 0. 0. 1.09890113e-02 0. 0. 0. 0. 0. 1.09890113e-02
      2.19780225e-02 0. 0. 0. 0. 0. 0. 0. 0. 0. 0. 0. 0. 0. 0. 0. 0. 0.
      0. 0. 0. 0. 0. 1.09890113e-02 0. 0. 0. 0. 0. 0. 1.09890113e-02 0.
      0. 0. 0. 1.09890113e-02 0. 0. 0. 1.09890113e-02 0. 0. 0. 0. 0. 0.
      0. 0. 0. 0. 0. 0. 0. 0. 0. 0. 0. 0. 0. 0. 0. 0. 0. 0. 0. 0.
      1.09890113e-02 0. 0. 0. 0. 1.09890113e-02 0. 0. 0. 0. 0. 0. 0. 0.
      0. 0. 0. 0. 0. 0. 0. 2.19780225e-02 0. 0. 0. 0. 0. 0. 0. 0. 0. 0.
      0. 0. 0. 0. 0. 0. 0. 0. 0. 0. 0. 0. 0. 0. 0. 0. 0. 0. 0. 0. 0. 0.
      0. 0. 0. 0. 0. 0. 0. 1.09890113e-02 0. 0. 0. 0. 0. 0.
      1.09890113e-02 0. 0. 0. 0. 0. 0. 0. 0. 0. 0. 0. 0. 0. 0. 0. 0. 0.
      0. 0. 0. 0. 0. 1.09890113e-02 0. 0. 0. 0. 1.09890113e-02 0. 0. 0.
      0. 0. 0. 0. 0. 0. 0. 0. 0. 0. 0. 0. 0. 0. 0. 0. 0. 1.09890113e-02
      0. 0. 0. 0. 0. 0. 2.19780225e-02 0. 0. 0. 0. 0. 0. 0. 0. 0. 0. 0.
      0. 0. 0. 1.09890113e-02 0. 0. 0. 0. 0. 0. 0. 0. 0. 0.
      1.09890113e-02 0. 0. 0. 0. 1.09890113e-02 0. 0. 0. 0. 0. 0. 0. 0.
      0. 0. 2.19780225e-02 0. 0. 0. 0. 0. 0. 1.09890113e-02 0. 0.
      1.09890113e-02 0. 0. 0. 0. 1.09890113e-02 0. 0. 0. 0. 0. 0. 0. 0.
      0. 0. 0. 0. 0. 1.09890113e-02 0. 0. 0. 1.09890113e-02 0. 0. 0. 0.
      0. 0. 0. 0. 0. 0. 2.19780225e-02 0. 1.09890113e-02 0. 0. 0. 0. 0.
      0. 0. 0. 0. 0. 0. 0. 0. 0. 0. 0. 0. 0. 0. 0. 0. 0. 0. 0. 0. 0. 0.
      0. 1.09890113e-02 0. 0. 0. 0. 0. 0. 0. 0. 0. 0. 0. 0. 0. 0. 0. 0.
      0. 0. 1.09890113e-02 0. 0. 0. 0. 0. 0. 0. 0. 0. 0. 0. 0. 0. 0. 0.
      0. 0. 0. 0. 0. 0. 0. 1.09890113e-02 0. 0. 0. 0. 0. 1.09890113e-02
      0. 0. 0. 0. 0. 0. 1.09890113e-02 0. 0. 0. 0. 0. 0. 0. 0. 0. 0. 0.
      0. 0. 0. 0. 0. 0. 0. 0. 1.09890113e-02 0. 0. 0. 0. 0.
      1.09890113e-02 0. 0. 1.09890113e-02 0. 0. 0. 0.</_>
    <_>
      3.37078646e-02 0. 0. 0. 0. 0. 0. 0. 1.12359552e-02 0. 0. 0. 0. 0.
      0. 0. 0. 0. 0. 0. 0. 0. 0. 0. 0. 0. 0. 0. 2.24719103e-02 0. 0. 0.
      1.12359552e-02 0. 0. 0. 0. 0. 0. 0. 0. 0. 0. 0. 0. 1.12359552e-02
      0. 0. 0. 0. 0. 0. 0. 1.12359552e-02 0. 0. 0. 0. 0. 0.
      1.12359552e-02 0. 0. 2.24719103e-02 0. 0. 0. 1.12359552e-02 0. 0.
      0. 2.24719103e-02 0. 0. 0. 1.12359552e-02 0. 0. 0. 1.12359552e-02
      0. 0. 0. 0. 0. 0. 0. 0. 0. 0. 0. 0. 0. 0. 0. 0. 0. 0. 0. 0. 0. 0.
      0. 0. 0. 2.24719103e-02 0. 0. 0. 0. 0. 0. 1.12359552e-02 0. 0. 0.
      0. 0. 0. 0. 0. 0. 0. 0. 0. 0. 0. 0. 0. 0. 0. 0. 0. 0. 0. 0. 0. 0.
      0. 0. 0. 0. 0. 0. 0. 0. 0. 0. 0. 0. 0. 0. 0. 0. 0. 0. 0. 0. 0. 0.
      0. 0. 1.12359552e-02 0. 0. 0. 1.12359552e-02 0. 0. 0. 0. 0. 0. 0.
      0. 0. 0. 0. 0. 0. 0. 0. 0. 0. 0. 0. 0. 0. 0. 0. 0. 0. 0. 0. 0. 0.
      0. 0. 0. 0. 0. 0. 1.12359552e-02 0. 0. 0. 0. 0. 0. 0. 0. 0. 0. 0.
      1.12359552e-02 0. 0. 0. 0. 0. 0. 1.12359552e-02 0. 0. 0. 0. 0. 0.
      0. 0. 0. 0. 3.37078646e-02 1.12359552e-02 2.24719103e-02 0. 0. 0.
      0. 0. 0. 0. 0. 0. 0. 0. 0. 0. 0. 0. 0. 0. 0. 0. 0. 0. 0. 0. 0. 0.
      0. 0. 0. 0. 0. 0. 0. 0. 0. 0. 0. 1.12359552e-02 1.12359552e-02 0.
      0. 0. 0. 0. 0. 0. 0. 0. 0. 0. 0. 0. 0. 0. 0. 0. 0. 0. 0. 0. 0. 0.
      0. 0. 0. 0. 0. 0. 0. 0. 0. 0. 0. 0. 0. 0. 0. 0. 0. 0. 0. 0. 0. 0.
      0. 0. 0. 0. 0. 0. 0. 0. 0. 0. 0. 0. 0. 0. 1.12359552e-02 0. 0. 0.
      0. 0. 0. 0. 0. 1.12359552e-02 0. 0. 0. 0. 0. 0. 0. 0. 0. 0. 0. 0.
      0. 0. 0. 0. 0. 0. 0. 0. 0. 0. 0. 0. 0. 0. 0. 0. 0. 0. 0. 0. 0. 0.
      0. 0. 0. 0. 1.12359552e-02 0. 0. 0. 0. 0. 0. 0. 1.12359552e-02 0.
      0. 0. 0. 0. 0. 0. 0. 0. 0. 0. 0. 0. 0. 0. 0. 0. 0. 0. 0. 0. 0. 0.
      0. 0. 0. 0. 0. 0. 0. 0. 0. 0. 0. 0. 0. 0. 0. 1.12359552e-02 0. 0.
      0. 0. 0. 0. 0. 0. 0. 0. 0. 0. 0. 0. 1.12359552e-02 0. 0. 0. 0. 0.
      0. 0. 0. 0. 0. 0. 0. 0. 0. 1.12359552e-02 0. 0. 0. 0. 0. 0. 0. 0.
      0. 0. 0. 0. 0. 0. 0. 0. 0. 0. 0. 0. 0. 1.12359552e-02 0. 0. 0. 0.
      0. 0. 0. 0. 0. 0. 0. 0. 0. 0. 0. 0. 0. 0. 0. 0. 0. 0. 0. 0. 0. 0.
      0. 0. 0. 0. 0. 0. 0. 0. 0. 0. 0. 0. 0. 0. 0. 0. 0. 0. 0. 0. 0. 0.
      0. 0. 0. 1.12359552e-02 0. 0. 0. 0. 0. 0. 0. 2.24719103e-02 0. 0.
      0. 0. 0. 0. 0. 0. 0. 0. 0. 0. 0. 0. 0. 0. 0. 0. 0. 0.
      1.12359552e-02 0. 0. 0. 0. 0. 0. 0. 0. 0. 0. 0. 1.12359552e-02 0.
      0. 0. 0. 0. 0. 0. 0. 0. 0. 0. 0. 0. 0. 0. 0. 2.24719103e-02 0. 0.
      0. 0. 0. 0. 0. 0. 0. 0. 0. 0. 0. 1.12359552e-02 1.12359552e-02 0.
      0. 0. 0. 0. 0. 0. 0. 0. 0. 0. 0. 0. 0. 0. 0. 0. 0. 0. 0.
      1.12359552e-02 0. 0. 0. 1.12359552e-02 0. 0. 0. 0. 0. 0. 0. 0. 0.
      1.12359552e-02 0. 0. 0. 0. 0. 0. 0. 0. 0. 0. 0. 0. 0. 0. 0. 0.
      3.37078646e-02 0. 1.12359552e-02 0. 0. 0. 0. 1.12359552e-02 0. 0.
      0. 0. 0. 0. 0. 0. 0. 0. 0. 1.12359552e-02 1.12359552e-02 0. 0. 0.
      0. 0. 0. 0. 0. 0. 0. 0. 0. 0. 0. 0. 1.12359552e-02 0. 0. 0. 0. 0.
      1.12359552e-02 0. 2.24719103e-02 0. 0. 1.12359552e-02 0. 0. 0. 0.
      0. 0. 0. 0. 0. 0. 0. 0. 0. 0. 0. 0. 0. 0. 0. 0. 0. 0. 0. 0. 0. 0.
      0. 0. 0. 2.24719103e-02 0. 0. 1.12359552e-02 1.12359552e-02 0. 0.
      1.12359552e-02 0. 0. 0. 0. 0. 0. 0. 0. 0. 0. 0. 0. 0. 0. 0.
      1.12359552e-02 0. 0. 0. 0. 0. 0. 0. 0. 0. 0. 0. 0. 0. 0. 0. 0. 0.
      0. 0. 0. 0. 0. 0. 0. 0. 0. 0. 0. 0. 0. 0. 0. 0. 0. 0. 0. 0. 0.
      2.24719103e-02 0. 0. 0. 0. 0. 0. 0. 0. 0. 0. 0. 0. 0.
      2.24719103e-02 0. 0. 0. 0. 0. 1.12359552e-02 0. 0. 0. 0. 0. 0.
      1.12359552e-02 0. 0. 0. 0. 0. 0. 0. 0. 0. 0. 0. 0. 0. 0. 0. 0. 0.
      0. 0. 0. 1.12359552e-02 0. 0. 0. 0. 0. 0. 0. 0. 0. 0.
      1.12359552e-02 0. 0. 0. 0. 0. 0. 0. 0. 0. 0. 0. 0. 0. 0. 0. 0. 0.
      0. 0. 0. 0. 0. 0. 0. 0. 0. 0. 0. 0. 0. 0. 2.24719103e-02 0. 0. 0.
      0. 0. 0. 0. 0. 0. 0. 0. 0. 0. 0. 0. 0. 0. 0. 0. 0. 0. 0. 0. 0. 0.
      0. 0. 0. 0. 0. 0. 1.12359552e-02 0. 0. 0. 0. 0. 0. 0. 0. 0. 0. 0.
      0. 0. 0. 0. 0. 0. 0. 1.12359552e-02 0. 0. 0. 2.24719103e-02 0. 0.
      0. 0. 0. 0. 0. 0. 1.12359552e-02 0. 0. 0. 0. 0. 0. 1.12359552e-02
      2.24719103e-02 0. 0. 0. 0. 0. 0. 0. 0. 0. 0. 0. 0. 0. 0. 0. 0. 0.
      0. 0. 0. 0. 0. 0. 0. 0. 0. 0. 0. 0. 0. 0. 0. 0. 0. 0. 0. 0. 0. 0.
      0. 0.</_>
    <_>
      3.63636352e-02 0. 0. 0. 0. 0. 0. 0. 0. 0. 0. 0. 0. 0. 0. 0. 0. 0.
      0. 0. 0. 0. 0. 0. 0. 0. 0. 0. 0. 0. 0. 0. 0. 0. 0. 0. 0. 0. 0. 0.
      0. 0. 0. 0. 0. 1.81818176e-02 0. 0. 0. 0. 0. 0. 0. 0. 0. 0. 0. 0.
      0. 0. 1.81818176e-02 0. 0. 0. 0. 0. 0. 0. 0. 0. 0. 3.63636352e-02
      0. 1.81818176e-02 0. 1.81818176e-02 0. 0. 0. 0. 0. 0. 0. 0.
      1.81818176e-02 0. 0. 0. 0. 0. 0. 0. 0. 0. 0. 0. 0. 0. 0. 0. 0. 0.
      0. 0. 0. 3.63636352e-02 0. 0. 0. 0. 0. 0. 0. 0. 0. 0. 0. 0. 0. 0.
      0. 0. 0. 0. 0. 0. 0. 0. 0. 0. 0. 0. 0. 0. 0. 0. 0. 0. 0. 0. 0. 0.
      0. 0. 0. 0. 0. 0. 0. 0. 0. 0. 0. 0. 0. 0. 0. 0. 0. 0. 0.
      1.81818176e-02 1.81818176e-02 0. 0. 0. 0. 0. 0. 0. 0. 0. 0. 0. 0.
      0. 0. 1.81818176e-02 0. 0. 0. 0. 0. 0. 0. 0. 0. 0. 0. 0. 0. 0. 0.
      0. 0. 0. 0. 0. 0. 0. 0. 0. 0. 0. 0. 0. 0. 0. 0. 0. 0. 0. 0. 0.
      1.81818176e-02 0. 0. 0. 0. 0. 0. 0. 0. 0. 0. 0. 0. 0. 0. 0. 0. 0.
      1.81818176e-02 0. 0. 0. 0. 0. 0. 0. 0. 0. 1.81818176e-02 0. 0. 0.
      0. 0. 1.81818176e-02 0. 0. 0. 0. 0. 0. 0. 0. 0. 0. 0. 0. 0. 0. 0.
      0. 0. 0. 0. 0. 0. 0. 1.81818176e-02 3.63636352e-02 0. 0. 0. 0.
      1.81818176e-02 0. 0. 0. 0. 0. 0. 0. 0. 0. 0. 0. 0. 0. 0. 0. 0. 0.
      0. 0. 0. 0. 0. 0. 0. 0. 0. 0. 0. 0. 0. 0. 0. 0. 0. 0. 0. 0. 0. 0.
      0. 0. 0. 0. 0. 0. 1.81818176e-02 0. 0. 0. 0. 0. 0. 0. 0. 0. 0. 0.
      0. 0. 0. 0. 0. 0. 1.81818176e-02 0. 0. 0. 1.81818176e-02 0. 0. 0.
      0. 0. 0. 0. 0. 0. 0. 0. 0. 0. 0. 0. 0. 0. 0. 0. 0. 0. 0. 0. 0. 0.
      0. 0. 0. 0. 0. 0. 0. 0. 0. 1.81818176e-02 0. 0. 0. 0. 0. 0. 0. 0.
      0. 0. 0. 0. 0. 0. 0. 0. 0. 0. 0. 0. 0. 0. 0. 0. 0. 0. 0. 0. 0. 0.
      0. 0. 0. 0. 0. 0. 0. 0. 0. 0. 0. 0. 0. 0. 0. 0. 1.81818176e-02 0.
      0. 0. 0. 0. 0. 0. 0. 0. 0. 0. 0. 0. 0. 0. 0. 0. 0. 0. 0. 0. 0. 0.
      0. 0. 1.81818176e-02 0. 0. 0. 3.63636352e-02 0. 0. 0. 0. 0. 0. 0.
      0. 0. 0. 0. 0. 0. 0. 0. 0. 0. 0. 0. 0. 0. 0. 0. 1.81818176e-02 0.
      1.81818176e-02 0. 0. 0. 0. 0. 0. 0. 0. 0. 0. 0. 0. 0. 0. 0. 0. 0.
      0. 0. 0. 0. 0. 0. 0. 0. 0. 0. 1.81818176e-02 0. 0. 0. 0. 0. 0. 0.
      0. 0. 0. 0. 0. 0. 0. 0. 0. 0. 0. 0. 0. 0. 0. 0. 0. 0. 0. 0.
      5.45454547e-02 0. 0. 0. 0. 0. 0. 0. 0. 0. 0. 0. 0. 0. 0. 0. 0. 0.
      0. 0. 0. 0. 0. 0. 0. 0. 0. 0. 0. 0. 0. 0. 0. 0. 0. 0. 0. 0. 0. 0.
      0. 0. 0. 0. 0. 0. 0. 0. 0. 0. 0. 0. 0. 0. 0. 0. 0. 0. 0. 0. 0. 0.
      0. 0. 1.81818176e-02 1.81818176e-02 0. 0. 0. 0. 1.81818176e-02 0.
      0. 0. 0. 0. 0. 0. 0. 0. 0. 0. 0. 0. 0. 0. 0. 0. 0. 0. 0. 0. 0. 0.
      0. 0. 0. 0. 0. 0. 0. 0. 0. 0. 0. 0. 0. 0. 0. 0. 0. 0. 0. 0. 0. 0.
      0. 1.81818176e-02 0. 0. 0. 0. 0. 0. 1.81818176e-02 0. 0. 0. 0. 0.
      0. 0. 0. 0. 0. 0. 0. 0. 0. 0. 0. 0. 0. 0. 0. 0. 0. 0. 0. 0. 0. 0.
      0. 0. 0. 0. 0. 0. 0. 1.81818176e-02 0. 1.81818176e-02 0. 0. 0. 0.
      0. 0. 0. 0. 0. 0. 0. 0. 0. 0. 0. 0. 0. 0. 0. 0. 0. 0. 0. 0. 0. 0.
      0. 0. 0. 0. 0. 0. 1.81818176e-02 0. 0. 0. 3.63636352e-02 0. 0. 0.
      0. 0. 0. 0. 0. 0. 0. 0. 0. 0. 0. 0. 0. 0. 0. 1.81818176e-02 0. 0.
      0. 0. 0. 0. 0. 0. 0. 0. 0. 1.81818176e-02 0. 0. 1.81818176e-02 0.
      0. 0. 0. 0. 0. 0. 0. 0. 0. 0. 0. 0. 0. 0. 0. 0. 0. 0. 0. 0. 0. 0.
      0. 0. 0. 0. 0. 0. 0. 0. 0. 0. 0. 0. 0. 1.81818176e-02
      1.81818176e-02 0. 0. 0. 0. 0. 0. 0. 0. 0. 0. 0. 0. 0. 0. 0. 0. 0.
      0. 0. 0. 0. 0. 0. 0. 0. 0. 0. 0. 0. 0. 0. 0. 0. 0. 0.
      1.81818176e-02 0. 0. 0. 0. 0. 0. 0. 0. 0. 0. 0. 0. 0. 0. 0. 0. 0.
      0. 0. 0. 0. 0. 0. 0. 0. 0. 0. 0. 0. 0. 0. 0. 0. 0. 0. 0. 0.
      1.81818176e-02 0. 0. 0. 0. 0. 0. 0. 0. 0. 0. 0. 0. 0. 0. 0. 0. 0.
      0. 0. 0. 0. 0. 0. 0. 0. 0. 0. 0. 0. 0. 0. 0. 0. 0. 0. 0. 0. 0. 0.
      0. 0. 0. 0. 0. 0. 0. 0. 0. 0. 0. 0. 0. 0. 0. 0. 0. 1.81818176e-02
      0. 0. 0. 0. 0. 0. 0. 0. 0. 0. 0. 0. 0. 0. 0. 0. 0. 0. 0. 0. 0. 0.
      0. 0. 0. 0. 0. 0. 0. 0. 0. 0. 0. 0. 0. 0. 0. 0. 1.81818176e-02 0.
      0. 0. 0. 0. 0. 0. 0. 0. 0. 0. 0. 0. 0. 0. 0. 0. 0. 0. 0.</_>
    <_>
      2.22222228e-02 0. 0. 0. 0. 0. 2.22222228e-02 0. 0. 0. 0.
      1.11111114e-02 0. 0. 1.11111114e-02 0. 0. 0. 1.11111114e-02 0. 0.
      0. 0. 0. 0. 0. 0. 0. 0. 0. 0. 0. 0. 0. 0. 0. 0. 0. 0. 0. 0.
      1.11111114e-02 0. 0. 0. 0. 0. 1.11111114e-02 0. 0. 0. 0. 0. 0. 0.
      0. 0. 0. 0. 0. 0. 0. 0. 0. 1.11111114e-02 0. 0. 1.11111114e-02 0.
      0. 0. 0. 0. 0. 1.11111114e-02 0. 0. 0. 0. 0. 0. 0. 0. 0. 0. 0. 0.
      0. 0. 0. 0. 0. 0. 0. 0. 0. 0. 0. 0. 0. 0. 0. 0. 0. 1.11111114e-02
      0. 0. 0. 0. 0. 0. 0. 0. 0. 0. 0. 0. 0. 0. 0. 0. 0. 0.
      1.11111114e-02 0. 0. 0. 0. 1.11111114e-02 0. 0. 0. 0. 0. 0. 0. 0.
      0. 0. 0. 0. 0. 0. 0. 0. 0. 0. 0. 0. 0. 0. 0. 0. 0. 0. 0. 0. 0. 0.
      0. 0. 0. 0. 0. 0. 0. 0. 0. 0. 0. 0. 0. 0. 0. 0. 0. 1.11111114e-02
      0. 0. 1.11111114e-02 0. 0. 0. 0. 0. 0. 0. 0. 0. 0. 0. 0. 0. 0. 0.
      0. 0. 0. 0. 0. 0. 0. 0. 1.11111114e-02 0. 0. 0. 0. 0. 0. 0. 0. 0.
      0. 0. 0. 0. 0. 0. 1.11111114e-02 0. 0. 0. 0. 1.11111114e-02 0. 0.
      0. 2.22222228e-02 0. 0. 0. 0. 0. 0. 0. 0. 0. 0. 0. 0. 0. 0. 0. 0.
      0. 2.22222228e-02 0. 0. 1.11111114e-02 0. 0. 0. 0. 0. 0. 0. 0. 0.
      1.11111114e-02 0. 0. 0. 0. 0. 0. 0. 0. 0. 0. 0. 0. 1.11111114e-02
      0. 0. 0. 0. 2.22222228e-02 0. 0. 0. 0. 0. 0. 0. 0. 0. 0. 0. 0. 0.
      0. 0. 0. 0. 0. 0. 0. 0. 0. 0. 0. 1.11111114e-02 0. 0. 0. 0. 0. 0.
      0. 0. 0. 1.11111114e-02 0. 0. 0. 0. 0. 0. 0. 0. 0. 1.11111114e-02
      0. 0. 0. 0. 1.11111114e-02 0. 0. 0. 0. 0. 0. 0. 0. 0. 0. 0.
      1.11111114e-02 0. 1.11111114e-02 0. 0. 0. 0. 0. 0. 0. 0. 0. 0. 0.
      0. 0. 0. 0. 0. 0. 0. 0. 0. 0. 0. 0. 0. 0. 0. 0. 0. 0. 0. 0. 0. 0.
      0. 0. 0. 0. 0. 0. 0. 0. 0. 0. 0. 0. 0. 0. 0. 0. 0. 0. 0. 0. 0. 0.
      0. 0. 0. 0. 0. 0. 0. 0. 0. 1.11111114e-02 0. 3.33333351e-02 0. 0.
      0. 0. 0. 0. 0. 0. 0. 0. 0. 0. 2.22222228e-02 1.11111114e-02 0. 0.
      0. 0. 0. 0. 0. 0. 0. 0. 2.22222228e-02 0. 0. 0. 0. 0. 0. 0. 0. 0.
      0. 0. 0. 0. 0. 1.11111114e-02 0. 0. 0. 0. 0. 0. 0. 0. 0. 0. 0. 0.
      0. 0. 0. 0. 0. 0. 0. 0. 0. 0. 0. 0. 0. 0. 0. 0. 0. 0. 0. 0. 0. 0.
      0. 0. 0. 0. 0. 0. 0. 0. 0. 1.11111114e-02 0. 0. 1.11111114e-02 0.
      0. 0. 0. 0. 0. 0. 0. 0. 1.11111114e-02 0. 0. 0. 0. 0.
      1.11111114e-02 0. 1.11111114e-02 0. 0. 0. 0. 0. 0. 0. 0. 0.
      1.11111114e-02 0. 0. 0. 0. 0. 0. 0. 0. 0. 0. 0. 0. 0. 0. 0.
      2.22222228e-02 0. 1.11111114e-02 0. 0. 0. 0. 0. 0. 0. 0. 0. 0. 0.
      0. 0. 0. 0. 0. 0. 1.11111114e-02 0. 0. 0. 0. 0. 0. 0. 0. 0. 0. 0.
      0. 0. 0. 0. 0. 0. 0. 0. 1.11111114e-02 0. 0. 0. 0. 1.11111114e-02
      0. 0. 0. 0. 0. 0. 0. 0. 1.11111114e-02 0. 0. 0. 0. 0. 0. 0. 0. 0.
      1.11111114e-02 0. 0. 1.11111114e-02 0. 0. 0. 0. 0. 0. 0.
      1.11111114e-02 0. 0. 0. 0. 0. 0. 0. 0. 0. 0. 0. 0. 0.
      1.11111114e-02 0. 0. 0. 0. 0. 0. 0. 0. 0. 0. 0. 0. 0. 0. 0.
      1.11111114e-02 0. 0. 0. 0. 0. 0. 0. 0. 0. 0. 0. 0. 1.11111114e-02
      0. 0. 0. 0. 0. 0. 1.11111114e-02 3.33333351e-02 0. 0. 0. 0. 0. 0.
      0. 0. 0. 0. 0. 0. 0. 0. 0. 1.11111114e-02 0. 0. 0. 0. 0. 0. 0. 0.
      0. 0. 1.11111114e-02 0. 0. 0. 0. 0. 0. 0. 0. 0. 2.22222228e-02 0.
      0. 0. 0. 0. 0. 0. 0. 0. 0. 0. 0. 1.11111114e-02 0. 0. 0. 0. 0. 0.
      0. 0. 0. 1.11111114e-02 1.11111114e-02 0. 0. 0. 0. 0. 0. 0. 0. 0.
      0. 0. 0. 0. 0. 0. 0. 0. 0. 0. 0. 0. 0. 0. 0. 0. 0. 0. 0. 0. 0. 0.
      0. 0. 0. 0. 1.11111114e-02 0. 0. 0. 0. 0. 0. 0. 0. 0. 0. 0. 0. 0.
      0. 0. 0. 0. 0. 0. 0. 0. 0. 0. 0. 0. 0. 0. 0. 0. 0. 0. 0. 0. 0. 0.
      0. 0. 0. 0. 0. 0. 0. 0. 0. 0. 0. 0. 0. 0. 0. 0. 0. 0. 0. 0. 0. 0.
      1.11111114e-02 0. 0. 0. 0. 0. 0. 0. 0. 0. 0. 0. 0. 0. 0. 0. 0. 0.
      0. 0. 0. 0. 1.11111114e-02 0. 0. 0. 0. 0. 0. 0. 0. 0. 0. 0. 0.
      1.11111114e-02 0. 0. 0. 0. 0. 0. 0. 0. 0. 0. 0. 0. 0. 0. 0. 0. 0.
      1.11111114e-02 0. 0. 0. 0. 0. 0. 0. 0. 0. 1.11111114e-02 0. 0. 0.
      1.11111114e-02 0. 0. 0. 0. 0. 0. 0. 0. 0. 1.11111114e-02 0. 0. 0.
      0. 0. 0. 0. 0. 0. 0. 0. 1.11111114e-02 0. 0. 0. 0. 0. 0. 0. 0. 0.
      0. 1.11111114e-02 0. 0. 0. 0. 0. 0. 0. 0. 0. 0. 0. 0. 0. 0. 0. 0.
      0. 0. 0. 0. 0. 0. 0. 0. 0. 0. 0. 0. 1.11111114e-02 0. 0. 0. 0. 0.
      0. 0. 0. 0. 0. 0. 0. 0. 0. 0. 0. 0. 0. 0. 1.11111114e-02 0. 0.
      1.11111114e-02 0. 0. 1.11111114e-02 0. 0. 0. 1.11111114e-02 0. 0.
      0. 0. 0. 0. 0. 0. 0. 0. 0. 0. 0. 0. 0. 0. 0. 0. 0. 0.</_>
    <_>
      2.15053763e-02 0. 0. 0. 0. 0. 2.15053763e-02 0. 0. 0. 0.
      1.07526882e-02 0. 0. 1.07526882e-02 1.07526882e-02 0. 0.
      1.07526882e-02 0. 0. 0. 0. 0. 0. 0. 0. 0. 0. 0. 0. 0. 0. 0. 0. 0.
      1.07526882e-02 0. 0. 0. 0. 1.07526882e-02 0. 0. 0. 0. 0.
      1.07526882e-02 0. 0. 0. 0. 0. 0. 0. 0. 0. 0. 0. 0. 0. 0. 0. 0.
      1.07526882e-02 0. 0. 1.07526882e-02 0. 0. 0. 0. 0. 0. 0. 0. 0. 0.
      0. 0. 0. 0. 0. 0. 0. 0. 0. 0. 0. 0. 0. 0. 0. 0. 0. 0. 0. 0. 0. 0.
      0. 0. 0. 0. 1.07526882e-02 0. 0. 0. 0. 0. 0. 0. 0. 0. 0.
      1.07526882e-02 0. 0. 0. 0. 0. 0. 0. 0. 0. 0. 0. 0. 1.07526882e-02
      0. 0. 0. 0. 0. 0. 0. 0. 0. 0. 0. 0. 0. 0. 0. 0. 1.07526882e-02 0.
      0. 0. 0. 0. 0. 0. 0. 0. 0. 0. 0. 0. 0. 0. 0. 0. 0. 0. 0. 0. 0. 0.
      0. 0. 0. 0. 0. 0. 0. 1.07526882e-02 0. 0. 2.15053763e-02 0. 0. 0.
      0. 0. 0. 0. 0. 0. 0. 0. 0. 0. 0. 0. 0. 0. 0. 0. 0. 0. 0. 0.
      1.07526882e-02 0. 0. 0. 0. 0. 0. 0. 0. 0. 0. 0. 0. 0. 0. 0.
      1.07526882e-02 0. 0. 1.07526882e-02 0. 1.07526882e-02 0. 0. 0. 0.
      0. 1.07526882e-02 1.07526882e-02 0. 0. 0. 0. 0. 0. 0. 0. 0. 0. 0.
      0. 0. 0. 2.15053763e-02 0. 0. 0. 1.07526882e-02 0. 0. 0. 0. 0. 0.
      0. 0. 1.07526882e-02 0. 0. 0. 0. 0. 0. 0. 0. 0. 0. 0. 0.
      1.07526882e-02 0. 0. 0. 0. 0. 0. 0. 0. 0. 0. 0. 0. 0. 0. 0. 0. 0.
      0. 0. 0. 0. 0. 0. 0. 0. 0. 0. 0. 0. 0. 1.07526882e-02 0. 0. 0. 0.
      0. 0. 0. 0. 1.07526882e-02 0. 0. 0. 0. 0. 0. 0. 0. 0.
      1.07526882e-02 0. 0. 0. 0. 1.07526882e-02 0. 0. 0. 0. 0. 0. 0. 0.
      0. 0. 0. 1.07526882e-02 0. 1.07526882e-02 0. 0. 0. 0. 0. 0. 0. 0.
      0. 0. 0. 0. 0. 0. 0. 0. 0. 0. 0. 0. 0. 0. 0. 0. 0. 0. 0. 0. 0. 0.
      0. 0. 0. 0. 0. 0. 0. 0. 0. 0. 0. 0. 0. 0. 0. 0. 0. 0. 0. 0. 0. 0.
      0. 0. 0. 0. 0. 0. 0. 0. 0. 0. 0. 0. 1.07526882e-02 0.
      2.15053763e-02 0. 0. 0. 0. 0. 0. 0. 0. 0. 0. 0. 0. 1.07526882e-02
      0. 0. 0. 0. 0. 0. 0. 0. 0. 0. 0. 3.22580636e-02 0. 0. 0. 0. 0. 0.
      0. 0. 0. 0. 0. 0. 0. 0. 0. 0. 0. 0. 0. 0. 0. 0. 0. 0. 0. 0. 0. 0.
      0. 0. 0. 0. 0. 0. 0. 0. 0. 0. 0. 0. 0. 0. 0. 0. 0. 0. 0. 0. 0.
      1.07526882e-02 0. 0. 0. 0. 0. 0. 0. 0. 1.07526882e-02
      1.07526882e-02 0. 1.07526882e-02 0. 0. 0. 0. 0. 0. 0. 0. 0.
      1.07526882e-02 0. 0. 0. 0. 0. 1.07526882e-02 0. 0. 0. 0. 0. 0. 0.
      0. 0. 1.07526882e-02 0. 1.07526882e-02 0. 0. 0. 0. 0. 0. 0. 0. 0.
      0. 0. 0. 0. 0. 0. 2.15053763e-02 0. 1.07526882e-02 0. 0. 0. 0. 0.
      0. 0. 0. 0. 0. 0. 0. 0. 0. 0. 0. 0. 1.07526882e-02 0. 0. 0. 0. 0.
      0. 0. 0. 0. 0. 0. 0. 0. 0. 0. 0. 0. 0. 1.07526882e-02
      1.07526882e-02 0. 0. 0. 0. 1.07526882e-02 0. 0. 0. 0. 0. 0. 0. 0.
      1.07526882e-02 0. 0. 0. 0. 0. 0. 0. 0. 1.07526882e-02
      1.07526882e-02 0. 0. 1.07526882e-02 0. 0. 0. 0. 0. 0. 0.
      1.07526882e-02 0. 0. 0. 0. 0. 0. 0. 0. 0. 0. 0. 0. 0.
      1.07526882e-02 0. 0. 0. 0. 0. 0. 0. 0. 0. 0. 0. 0. 0. 0. 0. 0. 0.
      0. 0. 0. 0. 0. 0. 0. 0. 0. 0. 0. 1.07526882e-02 0. 0. 0. 0. 0. 0.
      1.07526882e-02 3.22580636e-02 0. 0. 0. 0. 0. 0. 0. 0. 0. 0. 0. 0.
      0. 0. 0. 1.07526882e-02 0. 0. 0. 0. 0. 0. 0. 0. 0. 0.
      1.07526882e-02 0. 0. 0. 0. 0. 0. 0. 0. 0. 2.15053763e-02 0. 0. 0.
      1.07526882e-02 0. 0. 0. 0. 0. 0. 0. 0. 0. 0. 0. 0. 0. 0. 0. 0. 0.
      0. 1.07526882e-02 1.07526882e-02 0. 0. 0. 0. 0. 0. 0. 0. 0. 0. 0.
      0. 0. 0. 0. 0. 0. 0. 0. 0. 0. 0. 0. 0. 0. 0. 0. 0. 0. 0. 0. 0. 0.
      0. 0. 2.15053763e-02 0. 0. 0. 0. 0. 0. 0. 0. 0. 0. 0. 0. 0. 0. 0.
      0. 0. 0. 0. 0. 0. 0. 0. 0. 0. 0. 0. 0. 0. 0. 0. 0. 0. 0. 0. 0. 0.
      0. 0. 0. 0. 0. 0. 0. 0. 0. 0. 0. 0. 0. 0. 0. 0. 0. 0. 0. 0.
      1.07526882e-02 1.07526882e-02 0. 0. 0. 0. 1.07526882e-02 0. 0. 0.
      0. 0. 0. 0. 1.07526882e-02 0. 0. 0. 0. 0. 0. 0. 0. 0. 0. 0. 0. 0.
      0. 0. 0. 0. 0. 0. 0. 1.07526882e-02 0. 0. 0. 0. 0. 0. 0. 0. 0. 0.
      0. 0. 0. 0. 0. 0. 0. 0. 0. 0. 0. 0. 0. 0. 0. 0. 0. 0. 0. 0. 0.
      1.07526882e-02 0. 0. 0. 0. 0. 0. 0. 0. 0. 1.07526882e-02 0. 0. 0.
      1.07526882e-02 0. 0. 0. 0. 0. 0. 0. 1.07526882e-02 0. 0. 0. 0. 0.
      0. 0. 0. 0. 0. 1.07526882e-02 0. 0. 0. 0. 0. 0. 0. 0. 0. 0. 0. 0.
      0. 0. 0. 1.07526882e-02 0. 0. 0. 0. 0. 0. 0. 0. 0. 0. 0. 0. 0. 0.
      0. 0. 0. 0. 0. 0. 0. 0. 0. 0. 0. 0. 0. 0. 0. 0. 0. 0. 0. 0. 0.
      1.07526882e-02 0. 0. 0. 0. 0. 0. 1.07526882e-02 0. 0. 0.
      1.07526882e-02 0. 0. 0. 0. 0. 0. 0. 0. 0. 0. 0. 0. 0. 0. 0. 0.</_>
    <_>
      2.10526325e-02 0. 0. 0. 0. 1.05263162e-02 1.05263162e-02 0. 0. 0.
      0. 1.05263162e-02 0. 0. 1.05263162e-02 0. 0. 0. 1.05263162e-02 0.
      0. 0. 0. 0. 0. 0. 0. 0. 0. 0. 0. 0. 0. 0. 0. 0. 0. 0. 0. 0. 0.
      1.05263162e-02 0. 0. 0. 0. 0. 2.10526325e-02 0. 0. 0. 0. 0. 0. 0.
      0. 0. 1.05263162e-02 0. 0. 0. 0. 0. 0. 1.05263162e-02 0. 0.
      2.10526325e-02 0. 0. 0. 0. 0. 0. 1.05263162e-02 0. 0. 0. 0. 0. 0.
      0. 0. 0. 0. 0. 0. 0. 1.05263162e-02 0. 0. 2.10526325e-02 0. 0. 0.
      0. 0. 0. 0. 0. 0. 0. 0. 0. 0. 0. 0. 0. 0. 0. 0. 0. 0. 0. 0. 0. 0.
      0. 0. 0. 0. 0. 0. 0. 0. 0. 0. 0. 1.05263162e-02 0. 0. 0. 0. 0. 0.
      0. 0. 0. 0. 0. 0. 0. 0. 0. 0. 0. 0. 0. 0. 0. 0. 0. 0.
      1.05263162e-02 1.05263162e-02 0. 0. 0. 0. 0. 0. 0. 0. 0. 0. 0. 0.
      0. 0. 0. 0. 0. 0. 0. 0. 0. 1.05263162e-02 0. 0. 1.05263162e-02 0.
      1.05263162e-02 0. 0. 0. 0. 0. 0. 0. 0. 0. 0. 0. 0. 0. 0. 0. 0. 0.
      0. 0. 0. 0. 0. 0. 0. 0. 0. 0. 0. 0. 0. 0. 0. 0. 0. 0. 0. 0.
      1.05263162e-02 0. 0. 1.05263162e-02 0. 1.05263162e-02 0. 0. 0. 0.
      0. 0. 0. 0. 1.05263162e-02 0. 0. 1.05263162e-02 0. 0. 0. 0. 0. 0.
      0. 0. 0. 2.10526325e-02 0. 0. 1.05263162e-02 1.05263162e-02 0. 0.
      0. 0. 0. 0. 0. 0. 0. 0. 0. 0. 0. 0. 0. 0. 0. 0. 0. 0. 0.
      1.05263162e-02 0. 0. 1.05263162e-02 0. 0. 0. 0. 0. 0. 0. 0. 0. 0.
      0. 0. 0. 0. 0. 0. 0. 0. 0. 0. 0. 0. 0. 0. 0. 0. 0. 0. 0. 0. 0. 0.
      0. 0. 0. 0. 2.10526325e-02 0. 0. 0. 0. 0. 0. 0. 0. 0.
      1.05263162e-02 0. 0. 0. 0. 1.05263162e-02 0. 0. 0. 0. 0. 0. 0. 0.
      0. 0. 0. 1.05263162e-02 0. 1.05263162e-02 0. 0. 0. 0. 0. 0. 0. 0.
      0. 0. 0. 0. 0. 0. 0. 0. 0. 0. 0. 0. 0. 0. 0. 0. 0. 0. 0. 0. 0. 0.
      0. 0. 0. 0. 0. 0. 0. 0. 0. 0. 0. 0. 0. 0. 0. 0. 0. 0. 0. 0. 0. 0.
      0. 0. 0. 0. 0. 0. 0. 0. 0. 0. 0. 0. 1.05263162e-02 0.
      2.10526325e-02 0. 0. 0. 0. 0. 0. 0. 0. 0. 0. 0. 0. 0.
      1.05263162e-02 0. 1.05263162e-02 1.05263162e-02 0. 0. 0. 0. 0. 0.
      0. 2.10526325e-02 0. 0. 0. 0. 0. 0. 0. 0. 0. 0. 0. 0. 0. 0. 0. 0.
      0. 0. 0. 0. 0. 0. 0. 0. 0. 0. 0. 1.05263162e-02 0. 0. 0. 0. 0.
      1.05263162e-02 0. 0. 0. 0. 0. 0. 0. 0. 0. 0. 0. 0. 0. 0. 0. 0. 0.
      0. 0. 0. 0. 0. 0. 0. 1.05263162e-02 0. 0. 1.05263162e-02 0. 0. 0.
      0. 0. 0. 0. 0. 0. 1.05263162e-02 0. 0. 0. 0. 0. 0. 0. 0. 0. 0. 0.
      0. 0. 0. 0. 0. 0. 2.10526325e-02 0. 0. 0. 0. 0. 0. 0. 0. 0. 0. 0.
      0. 0. 0. 0. 2.10526325e-02 1.05263162e-02 1.05263162e-02 0. 0. 0.
      0. 1.05263162e-02 0. 0. 0. 0. 0. 0. 0. 0. 0. 0. 0. 0.
      1.05263162e-02 0. 0. 0. 0. 0. 0. 0. 0. 0. 0. 0. 0. 0. 0. 0. 0. 0.
      0. 0. 1.05263162e-02 0. 0. 0. 0. 0. 0. 0. 0. 0. 0. 0. 0. 0.
      1.05263162e-02 0. 0. 0. 0. 0. 0. 0. 0. 0. 1.05263162e-02 0. 0.
      1.05263162e-02 0. 0. 0. 0. 0. 0. 0. 1.05263162e-02 0. 0. 0. 0. 0.
      0. 0. 0. 0. 0. 0. 0. 0. 1.05263162e-02 0. 0. 0. 0. 0. 0. 0. 0. 0.
      0. 0. 0. 0. 0. 0. 0. 0. 0. 0. 0. 1.05263162e-02 0. 0. 0. 0. 0. 0.
      0. 2.10526325e-02 0. 0. 0. 0. 0. 0. 1.05263162e-02 3.15789506e-02
      0. 0. 0. 0. 0. 0. 0. 0. 0. 0. 0. 0. 0. 0. 0. 0. 0. 0. 0. 0. 0. 0.
      0. 0. 0. 0. 1.05263162e-02 0. 0. 0. 0. 0. 0. 0. 0. 0.
      2.10526325e-02 0. 0. 0. 0. 0. 0. 0. 0. 0. 0. 0. 0. 0. 0. 0. 0. 0.
      0. 0. 0. 0. 0. 1.05263162e-02 1.05263162e-02 0. 0. 0. 0. 0. 0. 0.
      0. 0. 0. 0. 1.05263162e-02 0. 0. 0. 0. 0. 0. 0. 0. 0. 0. 0. 0. 0.
      0. 0. 0. 0. 0. 0. 0. 0. 0. 0. 2.10526325e-02 0. 1.05263162e-02 0.
      0. 0. 0. 0. 0. 0. 0. 0. 0. 0. 0. 0. 0. 0. 0. 0. 0. 0. 0. 0. 0. 0.
      0. 0. 0. 0. 0. 0. 0. 0. 0. 0. 0. 0. 0. 0. 0. 0. 0. 0. 0. 0. 0. 0.
      0. 0. 0. 0. 0. 0. 0. 0. 0. 0. 0. 1.05263162e-02 0. 0. 0. 0. 0. 0.
      0. 0. 0. 0. 0. 0. 0. 0. 0. 0. 0. 0. 0. 1.05263162e-02 0. 0. 0. 0.
      0. 0. 1.05263162e-02 0. 0. 0. 0. 0. 0. 1.05263162e-02 0. 0. 0. 0.
      0. 0. 0. 0. 0. 0. 0. 0. 0. 0. 0. 0. 0. 1.05263162e-02 0. 0. 0. 0.
      0. 0. 0. 0. 0. 0. 0. 0. 0. 1.05263162e-02 0. 0. 0. 0. 0. 0. 0. 0.
      0. 1.05263162e-02 0. 0. 0. 0. 0. 0. 0. 0. 0. 0. 0. 0. 0. 0. 0. 0.
      0. 0. 0. 0. 0. 0. 1.05263162e-02 0. 0. 0. 0. 0. 0. 0. 0. 0. 0. 0.
      0. 0. 0. 0. 0. 0. 0. 0. 0. 0. 0. 0. 0. 0. 0. 0. 0. 0. 0. 0. 0. 0.
      0. 0. 0. 0. 0. 0. 0. 0. 0. 0. 0. 0. 0. 0. 0. 0. 0. 0.
      1.05263162e-02 0. 0. 1.05263162e-02 0. 0. 0. 1.05263162e-02 0. 0.
      0. 0. 0. 0. 0. 0. 0. 0. 0. 0. 0. 0. 0. 0. 0. 0. 0. 0.</_>
    <_>
      2.15053763e-02 0. 0. 0. 0. 0. 1.07526882e-02 0. 0. 0. 0.
      1.07526882e-02 0. 0. 1.07526882e-02 0. 0. 0. 1.07526882e-02 0. 0.
      0. 0. 0. 0. 0. 0. 0. 0. 0. 0. 0. 0. 0. 0. 0. 0. 0. 0. 0. 0.
      1.07526882e-02 0. 0. 0. 0. 0. 1.07526882e-02 0. 0. 0. 0. 0. 0. 0.
      0. 0. 1.07526882e-02 0. 1.07526882e-02 0. 0. 0. 0. 1.07526882e-02
      0. 0. 2.15053763e-02 0. 0. 0. 0. 0. 0. 0. 0. 0. 0. 0. 0. 0. 0. 0.
      0. 0. 0. 0. 0. 1.07526882e-02 0. 0. 1.07526882e-02 0. 0. 0. 0. 0.
      0. 0. 0. 0. 0. 0. 0. 0. 0. 0. 0. 0. 0. 0. 0. 0. 0. 0. 0. 0. 0. 0.
      0. 0. 0. 0. 1.07526882e-02 0. 0. 0. 0. 1.07526882e-02 0. 0. 0. 0.
      0. 0. 0. 0. 0. 0. 0. 0. 0. 0. 0. 0. 0. 0. 0. 0. 0. 0. 0. 0.
      1.07526882e-02 1.07526882e-02 0. 0. 0. 0. 0. 0. 0. 0. 0. 0. 0. 0.
      0. 0. 0. 0. 0. 0. 0. 1.07526882e-02 0. 1.07526882e-02 0. 0.
      1.07526882e-02 0. 2.15053763e-02 0. 0. 0. 0. 0. 0. 0. 0. 0. 0. 0.
      0. 0. 0. 0. 0. 0. 0. 0. 0. 0. 0. 0. 0. 0. 0. 0. 0. 0. 0. 0. 0. 0.
      0. 0. 0. 0. 1.07526882e-02 0. 0. 1.07526882e-02 0. 1.07526882e-02
      0. 0. 0. 0. 0. 0. 0. 0. 0. 0. 0. 0. 0. 0. 0. 0. 0. 0. 0. 0. 0.
      2.15053763e-02 0. 0. 0. 0. 0. 0. 0. 0. 0. 0. 0. 0. 1.07526882e-02
      0. 0. 0. 0. 0. 0. 0. 0. 0. 0. 0. 0. 1.07526882e-02 0. 0.
      1.07526882e-02 0. 1.07526882e-02 0. 0. 0. 0. 0. 0. 0. 0. 0. 0. 0.
      0. 0. 0. 0. 0. 0. 0. 0. 0. 0. 0. 0. 0. 0. 0. 0. 0. 0. 0. 0. 0. 0.
      0. 1.07526882e-02 0. 0. 0. 0. 0. 0. 0. 0. 0. 1.07526882e-02 0. 0.
      0. 0. 1.07526882e-02 0. 0. 0. 0. 0. 0. 0. 0. 0. 0. 0.
      1.07526882e-02 0. 1.07526882e-02 0. 0. 0. 0. 0. 0. 0. 0. 0. 0. 0.
      0. 0. 0. 0. 0. 0. 0. 0. 0. 0. 0. 0. 0. 0. 0. 0. 0. 0. 0. 0. 0. 0.
      0. 0. 0. 0. 0. 0. 0. 0. 0. 0. 0. 0. 0. 0. 0. 1.07526882e-02 0. 0.
      0. 0. 0. 0. 0. 0. 0. 0. 0. 0. 0. 0. 0. 1.07526882e-02 0.
      1.07526882e-02 0. 0. 0. 0. 0. 0. 0. 0. 0. 0. 0. 0. 1.07526882e-02
      1.07526882e-02 0. 0. 1.07526882e-02 0. 0. 0. 0. 0. 0. 0.
      2.15053763e-02 0. 0. 1.07526882e-02 0. 0. 0. 0. 0. 0. 0. 0. 0. 0.
      0. 1.07526882e-02 0. 0. 0. 0. 0. 0. 0. 0. 0. 0. 0. 0.
      1.07526882e-02 0. 0. 0. 0. 0. 1.07526882e-02 0. 0. 0. 0. 0. 0. 0.
      0. 0. 0. 0. 0. 0. 0. 0. 0. 0. 0. 0. 0. 0. 0. 0. 0. 1.07526882e-02
      0. 0. 1.07526882e-02 0. 0. 0. 0. 0. 0. 0. 0. 0. 1.07526882e-02 0.
      0. 0. 0. 0. 1.07526882e-02 0. 0. 0. 0. 0. 0. 0. 0. 0. 0. 0.
      1.07526882e-02 0. 0. 0. 0. 0. 0. 0. 0. 0. 0. 0. 0. 0. 0. 0.
      2.15053763e-02 0. 1.07526882e-02 0. 0. 0. 0. 0. 0. 0. 0. 0. 0. 0.
      0. 0. 0. 0. 0. 0. 1.07526882e-02 0. 0. 0. 0. 0. 0. 0. 0. 0. 0. 0.
      0. 0. 0. 0. 0. 0. 0. 1.07526882e-02 1.07526882e-02 0. 0. 0. 0.
      1.07526882e-02 0. 0. 0. 0. 0. 0. 0. 0. 0. 0. 0. 0. 0. 0. 0. 0. 0.
      0. 0. 0. 0. 0. 0. 0. 0. 0. 0. 0. 0. 1.07526882e-02 0. 0. 0. 0. 0.
      0. 0. 0. 0. 0. 0. 0. 0. 1.07526882e-02 0. 0. 0. 0. 0. 0. 0. 0. 0.
      0. 0. 0. 0. 0. 0. 0. 0. 0. 0. 0. 1.07526882e-02 0. 0. 0. 0. 0. 0.
      0. 1.07526882e-02 0. 0. 0. 0. 0. 0. 1.07526882e-02 3.22580636e-02
      0. 0. 0. 0. 1.07526882e-02 0. 0. 0. 0. 0. 0. 0. 0. 0. 0. 0.
      1.07526882e-02 1.07526882e-02 0. 0. 0. 0. 0. 0. 0. 0.
      1.07526882e-02 0. 0. 0. 0. 0. 0. 0. 0. 0. 2.15053763e-02 0. 0. 0.
      0. 0. 0. 0. 0. 0. 0. 0. 0. 0. 0. 0. 0. 0. 0. 0. 0. 0. 0.
      1.07526882e-02 1.07526882e-02 0. 0. 0. 0. 0. 0. 0. 0. 0. 0. 0. 0.
      0. 0. 0. 0. 0. 0. 0. 0. 0. 0. 0. 0. 0. 0. 0. 0. 0. 1.07526882e-02
      0. 1.07526882e-02 0. 0. 0. 1.07526882e-02 0. 0. 0. 0. 0. 0. 0. 0.
      0. 0. 0. 0. 0. 0. 0. 0. 0. 0. 0. 0. 0. 0. 0. 0. 0. 0. 0. 0. 0. 0.
      0. 0. 0. 0. 0. 0. 0. 0. 0. 0. 0. 0. 0. 0. 0. 0. 0. 0. 0. 0. 0. 0.
      0. 0. 0. 0. 0. 0. 1.07526882e-02 0. 0. 0. 0. 0. 0. 0. 0. 0. 0. 0.
      0. 0. 0. 0. 0. 0. 0. 0. 0. 0. 0. 0. 0. 0. 0. 0. 0. 0. 0. 0. 0. 0.
      1.07526882e-02 0. 0. 0. 0. 0. 0. 0. 0. 0. 0. 0. 0. 0. 0. 0. 0. 0.
      0. 0. 0. 0. 0. 0. 0. 0. 0. 0. 1.07526882e-02 0. 0. 0.
      1.07526882e-02 0. 0. 0. 0. 0. 0. 0. 0. 0. 2.15053763e-02 0. 0. 0.
      0. 0. 0. 0. 0. 0. 0. 0. 0. 0. 0. 0. 1.07526882e-02 0. 0. 0. 0. 0.
      0. 2.15053763e-02 0. 0. 0. 0. 0. 0. 0. 0. 0. 0. 0. 0. 0. 0. 0. 0.
      0. 0. 0. 0. 0. 0. 0. 0. 0. 0. 0. 0. 0. 0. 0. 0. 0. 0. 0. 0. 0. 0.
      0. 0. 0. 0. 0. 0. 0. 0. 0. 0. 0. 1.07526882e-02 0. 1.07526882e-02
      0. 0. 0. 0. 0. 0. 1.07526882e-02 0. 0. 0. 0. 0. 0. 0. 0. 0. 0. 0.
      0. 0. 0. 0. 0. 0. 0. 0. 0.</_>
    <_>
      2.50000004e-02 0. 0. 0. 0. 0. 1.25000002e-02 0. 0. 0. 0.
      1.25000002e-02 0. 0. 1.25000002e-02 0. 0. 0. 1.25000002e-02 0. 0.
      0. 0. 0. 0. 0. 0. 0. 0. 0. 0. 0. 0. 0. 0. 0. 0. 0. 0. 0. 0.
      1.25000002e-02 0. 0. 0. 0. 0. 2.50000004e-02 0. 0. 0. 0. 0. 0. 0.
      0. 0. 0. 0. 0. 0. 0. 0. 0. 1.25000002e-02 0. 0. 1.25000002e-02 0.
      0. 0. 0. 0. 0. 0. 0. 0. 0. 0. 0. 0. 0. 0. 0. 0. 0. 0. 0.
      1.25000002e-02 0. 0. 0. 0. 0. 0. 0. 0. 0. 0. 0. 0. 0. 0. 0. 0. 0.
      0. 0. 0. 0. 0. 0. 0. 0. 0. 0. 0. 0. 0. 0. 0. 0. 0. 0. 0. 0. 0. 0.
      1.25000002e-02 0. 0. 0. 0. 0. 0. 0. 0. 0. 0. 0. 0. 0. 0. 0. 0. 0.
      0. 0. 0. 0. 0. 0. 0. 0. 1.25000002e-02 0. 0. 0. 0. 0. 0. 0. 0. 0.
      0. 0. 0. 0. 0. 0. 0. 0. 0. 0. 0. 0. 1.25000002e-02 0. 0.
      1.25000002e-02 0. 0. 0. 0. 0. 0. 0. 0. 0. 0. 0. 0. 0. 0. 0. 0. 0.
      0. 0. 0. 0. 0. 0. 0. 0. 0. 0. 0. 0. 0. 0. 0. 0. 0. 0. 0. 0. 0. 0.
      1.25000002e-02 0. 0. 0. 0. 1.25000002e-02 0. 0. 0. 0. 0. 0. 0. 0.
      0. 0. 0. 0. 0. 0. 0. 0. 0. 0. 0. 0. 0. 2.50000004e-02 0. 0. 0.
      1.25000002e-02 0. 0. 0. 0. 0. 0. 0. 0. 0. 0. 0. 0. 0. 0. 0. 0. 0.
      0. 0. 0. 0. 1.25000002e-02 0. 0. 0. 0. 1.25000002e-02 0. 0. 0. 0.
      0. 0. 0. 0. 0. 0. 0. 0. 0. 0. 0. 0. 0. 0. 0. 0. 0. 0. 0. 0. 0.
      1.25000002e-02 0. 0. 0. 0. 0. 0. 0. 0. 2.50000004e-02 0. 0. 0. 0.
      0. 0. 0. 0. 0. 1.25000002e-02 0. 0. 0. 0. 0. 0. 0. 0. 0. 0. 0. 0.
      0. 0. 0. 0. 1.25000002e-02 0. 1.25000002e-02 0. 0. 0. 0. 0. 0. 0.
      0. 0. 0. 0. 0. 0. 0. 0. 0. 0. 0. 0. 0. 0. 0. 0. 0. 0. 0. 0. 0. 0.
      0. 0. 0. 0. 0. 0. 0. 0. 0. 0. 0. 0. 0. 0. 0. 0. 0. 0. 0.
      1.25000002e-02 0. 0. 0. 0. 0. 0. 0. 0. 0. 0. 0. 0. 0. 0. 0.
      1.25000002e-02 0. 3.75000015e-02 0. 0. 0. 0. 0. 0. 0. 0. 0. 0. 0.
      0. 1.25000002e-02 0. 0. 0. 0. 0. 0. 0. 0. 0. 0. 0. 3.75000015e-02
      0. 0. 0. 0. 0. 0. 0. 0. 0. 0. 0. 0. 0. 0. 0. 0. 0. 0. 0. 0. 0. 0.
      0. 0. 0. 0. 0. 0. 0. 0. 0. 0. 0. 1.25000002e-02 0. 0. 0. 0. 0. 0.
      0. 0. 0. 0. 0. 0. 0. 0. 0. 0. 0. 0. 0. 0. 0. 0. 0. 0.
      1.25000002e-02 0. 0. 1.25000002e-02 0. 0. 0. 0. 0. 0. 0. 0. 0.
      1.25000002e-02 0. 0. 0. 0. 0. 1.25000002e-02 0. 0. 0. 0. 0. 0. 0.
      0. 0. 1.25000002e-02 0. 1.25000002e-02 0. 0. 0. 0. 0. 0. 0. 0. 0.
      0. 0. 0. 0. 0. 0. 2.50000004e-02 0. 1.25000002e-02 0. 0. 0. 0. 0.
      0. 0. 0. 0. 0. 0. 0. 0. 0. 0. 0. 0. 1.25000002e-02 0. 0. 0. 0. 0.
      0. 0. 0. 0. 0. 0. 0. 0. 0. 0. 0. 0. 1.25000002e-02 1.25000002e-02
      1.25000002e-02 0. 0. 0. 0. 0. 0. 0. 0. 0. 0. 0. 0. 0. 0. 0. 0. 0.
      0. 0. 0. 0. 0. 1.25000002e-02 1.25000002e-02 0. 0. 0. 0. 0. 0. 0.
      0. 0. 0. 0. 0. 0. 0. 0. 0. 0. 0. 0. 0. 0. 0. 0. 0. 1.25000002e-02
      0. 0. 0. 0. 0. 0. 0. 0. 0. 0. 0. 0. 0. 0. 0. 0. 0. 0. 0. 0.
      1.25000002e-02 0. 0. 0. 0. 0. 0. 0. 0. 0. 0. 0. 0. 0. 0.
      1.25000002e-02 3.75000015e-02 0. 0. 0. 0. 0. 0. 0. 0. 0. 0. 0. 0.
      0. 0. 0. 0. 0. 1.25000002e-02 0. 0. 0. 0. 0. 0. 0. 0.
      1.25000002e-02 0. 0. 0. 0. 0. 0. 0. 0. 0. 2.50000004e-02 0. 0. 0.
      0. 0. 0. 0. 0. 0. 0. 0. 0. 1.25000002e-02 0. 0. 0. 0. 0. 0. 0. 0.
      0. 1.25000002e-02 1.25000002e-02 0. 0. 0. 0. 0. 0. 0. 0. 0. 0. 0.
      0. 0. 0. 0. 0. 0. 0. 0. 0. 0. 0. 0. 0. 0. 0. 0. 0. 0. 0. 0. 0. 0.
      0. 0. 2.50000004e-02 0. 0. 0. 0. 0. 0. 0. 0. 0. 0. 0. 0. 0. 0. 0.
      0. 0. 0. 0. 0. 0. 0. 0. 0. 0. 0. 0. 0. 0. 0. 0. 0. 0. 0. 0. 0. 0.
      0. 0. 0. 0. 0. 0. 0. 0. 0. 0. 0. 0. 0. 0. 0. 0. 0. 0. 0. 0. 0.
      1.25000002e-02 0. 0. 0. 0. 0. 0. 0. 0. 0. 0. 0. 0. 0. 0. 0. 0. 0.
      0. 0. 0. 0. 0. 0. 0. 0. 0. 0. 0. 0. 0. 0. 0. 0. 1.25000002e-02 0.
      0. 0. 0. 0. 0. 0. 0. 0. 0. 0. 0. 0. 0. 0. 0. 0. 0. 0. 0. 0. 0. 0.
      0. 0. 0. 0. 1.25000002e-02 0. 0. 0. 1.25000002e-02 0. 0. 0. 0. 0.
      0. 0. 0. 0. 2.50000004e-02 0. 0. 0. 0. 0. 0. 0. 0. 0. 0. 0.
      1.25000002e-02 0. 0. 0. 0. 0. 0. 0. 0. 0. 0. 1.25000002e-02 0. 0.
      0. 0. 0. 0. 0. 0. 0. 0. 0. 0. 0. 0. 0. 0. 0. 0. 0. 0. 0. 0. 0. 0.
      0. 0. 0. 0. 0. 0. 0. 0. 0. 0. 0. 0. 0. 0. 0. 0. 0. 0. 0. 0. 0. 0.
      0. 0. 0. 0. 0. 1.25000002e-02 0. 0. 1.25000002e-02 0. 0. 0.
      1.25000002e-02 0. 0. 0. 0. 0. 0. 0. 0. 0. 0. 0. 0. 0. 0. 0. 0. 0.
      0. 0. 0.</_>
    <_>
      2.27272734e-02 0. 0. 0. 0. 0. 1.13636367e-02 0. 0. 0. 0.
      1.13636367e-02 0. 0. 1.13636367e-02 0. 0. 0. 1.13636367e-02 0. 0.
      0. 0. 0. 0. 0. 0. 0. 0. 1.13636367e-02 0. 0. 0. 0. 0. 0. 0. 0. 0.
      0. 0. 1.13636367e-02 0. 0. 0. 0. 0. 0. 0. 0. 0. 0. 0. 0. 0. 0. 0.
      0. 0. 0. 0. 0. 0. 0. 1.13636367e-02 0. 0. 1.13636367e-02 0. 0. 0.
      0. 0. 0. 0. 0. 0. 0. 0. 0. 0. 0. 0. 0. 0. 0. 0. 0. 1.13636367e-02
      0. 0. 0. 0. 0. 0. 0. 0. 0. 0. 0. 0. 0. 0. 0. 1.13636367e-02 0. 0.
      0. 0. 0. 0. 0. 0. 0. 0. 0. 0. 0. 0. 0. 0. 0. 0. 1.13636367e-02 0.
      0. 0. 0. 1.13636367e-02 0. 0. 0. 0. 0. 0. 0. 0. 0. 0. 0. 0. 0. 0.
      0. 0. 0. 0. 0. 0. 0. 0. 0. 0. 0. 0. 0. 0. 0. 0. 0. 0. 0. 0. 0. 0.
      0. 0. 0. 0. 0. 0. 0. 0. 0. 0. 0. 1.13636367e-02 0. 0.
      1.13636367e-02 0. 0. 0. 0. 0. 0. 0. 0. 0. 0. 0. 0. 0. 0. 0. 0. 0.
      0. 0. 0. 0. 0. 0. 1.13636367e-02 0. 0. 0. 0. 0. 0. 0. 0. 0. 0. 0.
      0. 0. 0. 0. 1.13636367e-02 0. 0. 1.13636367e-02 0. 1.13636367e-02
      0. 0. 0. 0. 0. 0. 0. 0. 1.13636367e-02 0. 0. 0. 0. 0. 0. 0. 0. 0.
      0. 0. 0. 2.27272734e-02 0. 0. 0. 0. 0. 0. 0. 0. 0. 0. 0. 0. 0. 0.
      0. 0. 0. 0. 0. 0. 0. 0. 0. 0. 0. 1.13636367e-02 0. 0. 0. 0.
      1.13636367e-02 0. 0. 0. 0. 0. 0. 0. 0. 0. 0. 0. 0. 0. 0. 0. 0. 0.
      0. 0. 0. 0. 0. 0. 0. 0. 0. 0. 0. 0. 0. 0. 0. 0. 0. 1.13636367e-02
      0. 0. 0. 0. 0. 0. 0. 0. 0. 1.13636367e-02 0. 0. 0. 0.
      1.13636367e-02 0. 0. 0. 0. 0. 0. 0. 0. 0. 0. 0. 1.13636367e-02 0.
      1.13636367e-02 0. 0. 0. 0. 0. 0. 0. 0. 0. 0. 1.13636367e-02 0. 0.
      0. 0. 0. 0. 0. 0. 0. 0. 0. 0. 0. 0. 0. 0. 0. 0. 0. 0. 0. 0. 0. 0.
      0. 0. 0. 0. 0. 0. 0. 0. 0. 0. 0. 0. 0. 0. 0. 0. 0. 0. 0. 0. 0. 0.
      0. 0. 0. 0. 0. 0. 0. 1.13636367e-02 0. 2.27272734e-02 0. 0. 0. 0.
      0. 0. 0. 0. 0. 0. 0. 0. 1.13636367e-02 1.13636367e-02 0.
      1.13636367e-02 0. 0. 0. 0. 0. 0. 0. 0. 2.27272734e-02 0. 0. 0. 0.
      0. 0. 0. 0. 0. 0. 0. 0. 0. 0. 1.13636367e-02 0. 0. 0. 0. 0. 0. 0.
      0. 0. 0. 0. 0. 0. 0. 0. 0. 0. 0. 0. 0. 0. 0. 0. 0. 0. 0. 0. 0. 0.
      0. 0. 0. 0. 0. 0. 0. 0. 0. 0. 0. 0. 0. 0. 1.13636367e-02 0. 0.
      1.13636367e-02 0. 0. 0. 0. 0. 0. 0. 0. 0. 1.13636367e-02 0. 0. 0.
      0. 0. 1.13636367e-02 0. 0. 0. 0. 0. 0. 0. 0. 0. 0. 0.
      1.13636367e-02 0. 0. 0. 0. 0. 0. 0. 0. 0. 0. 1.13636367e-02 0. 0.
      0. 0. 2.27272734e-02 0. 1.13636367e-02 0. 0. 0. 0. 0. 0. 0. 0. 0.
      0. 0. 0. 0. 0. 0. 0. 0. 1.13636367e-02 0. 0. 0. 0. 0. 0. 0. 0. 0.
      0. 1.13636367e-02 0. 0. 0. 0. 0. 0. 1.13636367e-02 1.13636367e-02
      2.27272734e-02 0. 0. 0. 0. 1.13636367e-02 0. 0. 0. 0. 0. 0. 0. 0.
      0. 0. 0. 0. 0. 1.13636367e-02 0. 0. 0. 0. 1.13636367e-02 0. 0. 0.
      0. 0. 0. 0. 0. 0. 0. 0. 0. 0. 0. 0. 0. 0. 0. 0. 0. 0. 0. 0. 0.
      1.13636367e-02 1.13636367e-02 0. 0. 0. 0. 0. 0. 0. 0. 0. 0. 0. 0.
      0. 0. 0. 0. 0. 0. 0. 1.13636367e-02 0. 0. 0. 0. 0. 0. 0. 0. 0. 0.
      0. 0. 0. 0. 0. 3.40909101e-02 0. 0. 0. 0. 0. 0. 0. 0. 0. 0. 0. 0.
      0. 0. 0. 1.13636367e-02 1.13636367e-02 0. 0. 0. 0. 0. 0. 0. 0. 0.
      1.13636367e-02 0. 0. 0. 0. 0. 0. 0. 0. 0. 2.27272734e-02 0. 0. 0.
      0. 0. 0. 0. 0. 0. 0. 0. 0. 0. 0. 0. 0. 0. 0. 0. 0. 0. 0.
      1.13636367e-02 1.13636367e-02 0. 0. 0. 0. 0. 0. 0. 0. 0. 0. 0. 0.
      0. 0. 0. 0. 0. 0. 0. 0. 0. 0. 0. 0. 0. 0. 0. 0. 0. 0. 0. 0. 0. 0.
      0. 1.13636367e-02 0. 0. 0. 0. 0. 0. 0. 0. 0. 0. 0. 0. 0. 0. 0. 0.
      0. 0. 0. 0. 0. 0. 0. 0. 0. 0. 1.13636367e-02 0. 0. 0. 0. 0. 0. 0.
      0. 0. 0. 0. 0. 0. 0. 0. 0. 0. 0. 0. 0. 0. 0. 0. 0. 0. 0. 0. 0. 0.
      0. 0. 0. 0. 0. 0. 0. 0. 0. 0. 0. 0. 0. 0. 0. 0. 0. 0. 0. 0.
      1.13636367e-02 0. 0. 0. 0. 0. 1.13636367e-02 0. 0. 0. 0. 0. 0. 0.
      0. 0. 1.13636367e-02 0. 0. 0. 0. 0. 0. 0. 0. 0. 0. 0. 0. 0. 0. 0.
      0. 0. 1.13636367e-02 0. 0. 0. 0. 0. 0. 0. 0. 0. 1.13636367e-02 0.
      0. 0. 1.13636367e-02 0. 0. 0. 0. 0. 0. 0. 0. 0. 2.27272734e-02 0.
      0. 0. 1.13636367e-02 0. 0. 0. 0. 0. 0. 0. 1.13636367e-02 0. 0. 0.
      1.13636367e-02 0. 0. 0. 0. 0. 0. 1.13636367e-02 0. 0. 0. 0.
      1.13636367e-02 0. 0. 0. 0. 0. 0. 0. 0. 0. 0. 0. 0. 0. 0. 0. 0. 0.
      0. 0. 0. 0. 0. 0. 0. 0. 0. 0. 0. 0. 0. 0. 0. 0. 0. 0. 0. 0. 0. 0.
      0. 0. 0. 0. 0. 0. 0. 1.13636367e-02 0. 0. 0. 0. 0. 0.
      1.13636367e-02 0. 0. 0. 0. 0. 0. 0. 0. 0. 0. 0. 0. 0. 0. 0. 0. 0.
      0. 0. 0.</_>
    <_>
      2.56410260e-02 0. 0. 0. 0. 0. 1.28205130e-02 0. 0. 0. 0.
      1.28205130e-02 0. 0. 1.28205130e-02 0. 0. 0. 1.28205130e-02 0. 0.
      0. 0. 0. 0. 0. 0. 0. 0. 0. 0. 0. 0. 0. 0. 0. 0. 0. 0. 0. 0.
      1.28205130e-02 0. 0. 0. 0. 0. 0. 0. 0. 0. 0. 0. 0. 0. 0. 0. 0. 0.
      0. 0. 0. 0. 0. 1.28205130e-02 0. 0. 1.28205130e-02 0. 0. 0. 0. 0.
      0. 0. 0. 0. 0. 0. 0. 0. 0. 0. 0. 0. 0. 0. 0. 1.28205130e-02 0. 0.
      0. 0. 0. 0. 0. 0. 0. 0. 0. 0. 0. 0. 0. 1.28205130e-02 0. 0. 0. 0.
      0. 0. 0. 0. 0. 0. 0. 0. 0. 0. 0. 0. 0. 0. 0. 0. 0. 0. 0.
      1.28205130e-02 0. 0. 0. 0. 0. 0. 0. 0. 0. 0. 0. 0. 0. 0. 0. 0. 0.
      0. 0. 0. 0. 0. 0. 0. 0. 0. 0. 0. 0. 0. 0. 0. 0. 0. 0. 0. 0. 0. 0.
      0. 0. 0. 0. 0. 0. 0. 0. 1.28205130e-02 0. 0. 2.56410260e-02 0. 0.
      0. 0. 0. 0. 0. 0. 0. 0. 0. 0. 0. 0. 0. 0. 0. 0. 0. 0. 0. 0. 0. 0.
      0. 0. 0. 0. 0. 0. 0. 0. 0. 0. 0. 0. 0. 0. 0. 1.28205130e-02 0. 0.
      1.28205130e-02 0. 1.28205130e-02 0. 0. 0. 0. 0. 0. 0. 0. 0. 0. 0.
      0. 0. 0. 0. 0. 0. 0. 0. 0. 0. 2.56410260e-02 0. 0. 0.
      1.28205130e-02 0. 0. 0. 0. 0. 0. 0. 1.28205130e-02 1.28205130e-02
      0. 0. 0. 0. 0. 0. 0. 0. 0. 0. 0. 0. 1.28205130e-02 0. 0. 0. 0. 0.
      0. 0. 0. 0. 0. 0. 0. 0. 0. 0. 0. 0. 0. 0. 0. 0. 0. 0. 0. 0. 0. 0.
      0. 0. 0. 0. 0. 0. 0. 0. 0. 0. 0. 0. 1.28205130e-02 0. 0. 0. 0. 0.
      0. 0. 0. 0. 1.28205130e-02 0. 0. 0. 0. 0. 0. 0. 0. 0. 0. 0. 0. 0.
      0. 0. 0. 1.28205130e-02 0. 1.28205130e-02 0. 0. 0. 0. 0. 0. 0. 0.
      0. 0. 0. 0. 0. 0. 0. 0. 0. 0. 0. 0. 0. 0. 0. 0. 0. 0. 0. 0. 0. 0.
      0. 0. 0. 0. 0. 0. 0. 0. 0. 0. 0. 0. 0. 0. 0. 0. 0. 0. 0. 0. 0. 0.
      0. 0. 0. 0. 0. 0. 0. 0. 0. 0. 0. 0. 1.28205130e-02 0.
      2.56410260e-02 0. 0. 0. 0. 0. 0. 0. 0. 0. 0. 0. 0. 0.
      1.28205130e-02 0. 0. 0. 0. 0. 0. 0. 0. 0. 0. 2.56410260e-02 0. 0.
      0. 0. 0. 0. 0. 0. 0. 0. 0. 0. 0. 0. 0. 0. 0. 0. 0. 0. 0. 0. 0. 0.
      0. 0. 0. 0. 0. 0. 0. 0. 0. 0. 0. 0. 0. 0. 0. 0. 0. 0. 0. 0. 0. 0.
      0. 1.28205130e-02 0. 0. 0. 0. 0. 0. 0. 0. 0. 0. 1.28205130e-02 0.
      0. 1.28205130e-02 0. 0. 0. 0. 0. 0. 0. 0. 0. 1.28205130e-02 0. 0.
      0. 0. 0. 1.28205130e-02 0. 0. 0. 0. 0. 0. 0. 0. 0. 0. 0.
      1.28205130e-02 0. 0. 0. 0. 0. 0. 0. 0. 0. 0. 0. 0. 0. 0. 0.
      2.56410260e-02 0. 1.28205130e-02 0. 0. 0. 0. 0. 0. 0. 0. 0. 0. 0.
      0. 0. 0. 0. 0. 0. 1.28205130e-02 0. 0. 0. 0. 0. 0. 0. 0. 0. 0. 0.
      0. 0. 0. 0. 0. 0. 0. 1.28205130e-02 1.28205130e-02 0. 0. 0. 0.
      1.28205130e-02 0. 0. 0. 0. 0. 0. 0. 0. 1.28205130e-02 0. 0. 0. 0.
      0. 0. 0. 0. 0. 0. 0. 0. 0. 0. 0. 0. 0. 0. 0. 0. 1.28205130e-02 0.
      0. 0. 0. 0. 0. 0. 0. 0. 0. 0. 0. 0. 1.28205130e-02 0. 0. 0. 0. 0.
      0. 0. 0. 0. 0. 0. 0. 0. 0. 0. 1.28205130e-02 0. 0. 0. 0.
      1.28205130e-02 0. 0. 0. 0. 0. 0. 0. 0. 0. 0. 0. 0. 0. 0.
      1.28205130e-02 2.56410260e-02 0. 0. 0. 0. 0. 0. 0. 0. 0. 0. 0. 0.
      0. 0. 0. 0. 0. 1.28205130e-02 0. 0. 0. 0. 0. 0. 0. 0.
      1.28205130e-02 0. 0. 0. 0. 0. 0. 0. 0. 0. 2.56410260e-02 0. 0. 0.
      0. 0. 0. 0. 0. 0. 0. 0. 0. 0. 0. 0. 0. 0. 0. 0. 0. 0. 0. 0.
      1.28205130e-02 0. 0. 0. 0. 0. 0. 0. 0. 0. 0. 1.28205130e-02 0. 0.
      0. 0. 0. 0. 0. 0. 0. 0. 0. 0. 0. 0. 0. 0. 0. 0. 0. 0. 0. 0. 0. 0.
      1.28205130e-02 0. 0. 0. 0. 0. 0. 0. 0. 0. 0. 0. 0. 0. 0. 0. 0. 0.
      0. 0. 0. 0. 0. 0. 0. 0. 0. 0. 0. 0. 0. 0. 0. 0. 1.28205130e-02 0.
      0. 0. 0. 0. 0. 0. 0. 0. 0. 0. 0. 0. 0. 0. 0. 0. 0. 0. 0. 0. 0. 0.
      0. 1.28205130e-02 0. 0. 0. 0. 0. 0. 0. 0. 0. 0. 0. 0. 0. 0. 0. 0.
      0. 0. 0. 0. 0. 0. 0. 1.28205130e-02 0. 0. 0. 0. 0. 0. 0. 0. 0.
      1.28205130e-02 0. 0. 0. 0. 0. 0. 0. 0. 0. 0. 0. 0. 0. 0. 0. 0. 0.
      2.56410260e-02 0. 0. 0. 0. 0. 0. 0. 0. 0. 2.56410260e-02 0. 0. 0.
      1.28205130e-02 0. 0. 0. 0. 0. 0. 0. 0. 0. 1.28205130e-02 0. 0. 0.
      0. 0. 0. 0. 0. 0. 0. 0. 1.28205130e-02 0. 0. 0. 0. 0. 0. 0. 0. 0.
      0. 2.56410260e-02 0. 0. 0. 0. 0. 0. 0. 0. 0. 0. 0. 0. 0. 0. 0. 0.
      0. 0. 0. 0. 0. 0. 0. 0. 0. 0. 0. 0. 0. 0. 0. 0. 0. 0. 0. 0. 0. 0.
      0. 0. 0. 0. 0. 0. 0. 0. 0. 0. 0. 0. 0. 1.28205130e-02 0. 0.
      1.28205130e-02 0. 0. 0. 1.28205130e-02 0. 0. 0. 0. 0. 0. 0. 0. 0.
      0. 0. 0. 0. 0. 0. 0. 0. 0. 0. 0.</_>
    <_>
      0. 0. 0. 0. 0. 0. 0. 0. 0. 0. 0. 0. 0. 0. 0. 0. 0. 0. 0. 0. 0.
      1.16279069e-02 0. 0. 0. 0. 0. 0. 0. 0. 0. 0. 0. 0. 0. 0. 0.
      1.16279069e-02 0. 0. 0. 0. 0. 0. 0. 0. 1.16279069e-02 0. 0. 0. 0.
      0. 0. 0. 0. 0. 0. 0. 0. 0. 0. 0. 0. 2.32558139e-02 0. 0. 0. 0. 0.
      0. 0. 0. 0. 3.48837227e-02 0. 1.16279069e-02 0. 0. 0. 0. 0. 0. 0.
      0. 0. 0. 0. 0. 0. 0. 0. 0. 0. 0. 0. 0. 0. 0. 0. 0. 0. 0. 0. 0. 0.
      0. 0. 0. 0. 0. 0. 0. 0. 0. 0. 0. 0. 0. 0. 0. 0. 0. 0. 0. 0. 0. 0.
      0. 0. 0. 0. 0. 0. 0. 0. 0. 0. 1.16279069e-02 0. 0. 0. 0. 0. 0. 0.
      0. 0. 0. 0. 0. 0. 0. 0. 0. 0. 0. 0. 0. 0. 0. 0. 0. 0. 0. 0. 0. 0.
      0. 0. 0. 0. 0. 0. 0. 1.16279069e-02 0. 0. 0. 0. 0. 0. 0. 0. 0. 0.
      0. 0. 0. 0. 0. 0. 0. 0. 0. 0. 0. 0. 0. 0. 0. 0. 0. 0. 0. 0. 0. 0.
      0. 0. 0. 0. 0. 0. 0. 0. 0. 0. 0. 0. 1.16279069e-02 0. 0. 0. 0. 0.
      0. 0. 0. 0. 0. 0. 0. 0. 0. 0. 0. 0. 0. 0. 0. 0. 0. 0. 0. 0. 0.
      1.16279069e-02 0. 0. 0. 0. 0. 0. 0. 1.16279069e-02 0. 0. 0. 0. 0.
      0. 0. 0. 0. 0. 0. 0. 0. 0. 0. 0. 0. 3.48837227e-02 0. 0. 0. 0. 0.
      0. 0. 0. 0. 0. 0. 0. 0. 0. 0. 0. 0. 0. 0. 0. 0. 0. 0. 0. 0. 0. 0.
      0. 0. 0. 0. 0. 0. 0. 0. 0. 0. 0. 0. 0. 0. 0. 2.32558139e-02 0. 0.
      0. 0. 0. 0. 1.16279069e-02 0. 0. 0. 0. 3.48837227e-02 0. 0. 0. 0.
      0. 0. 0. 0. 0. 0. 0. 0. 0. 0. 1.16279069e-02 0. 0. 0. 0. 0. 0. 0.
      0. 0. 0. 0. 0. 0. 0. 0. 0. 0. 1.16279069e-02 0. 0. 0. 0. 0. 0. 0.
      0. 0. 0. 0. 0. 0. 1.16279069e-02 0. 0. 0. 0. 0. 1.16279069e-02 0.
      0. 0. 0. 0. 0. 0. 0. 0. 1.16279069e-02 0. 0. 0. 0. 0. 0. 0. 0. 0.
      0. 1.16279069e-02 0. 0. 0. 0. 0. 0. 1.16279069e-02 0. 0. 0. 0. 0.
      0. 0. 0. 0. 0. 0. 0. 0. 0. 0. 0. 0. 0. 0. 0. 0. 0. 0. 0. 0. 0. 0.
      0. 0. 0. 0. 0. 1.16279069e-02 0. 0. 0. 0. 0. 0. 0. 0. 0. 0. 0. 0.
      0. 0. 0. 0. 0. 0. 0. 1.16279069e-02 0. 0. 0. 0. 0. 0. 0. 0. 0. 0.
      0. 0. 0. 0. 0. 0. 0. 0. 0. 0. 0. 0. 0. 0. 0. 0. 0. 0. 0. 0. 0. 0.
      0. 1.16279069e-02 0. 0. 0. 0. 0. 0. 0. 0. 0. 0. 0. 0. 0. 0. 0.
      1.16279069e-02 0. 0. 0. 0. 0. 0. 0. 0. 0. 0. 0. 2.32558139e-02 0.
      0. 0. 0. 0. 0. 0. 0. 0. 0. 0. 0. 0. 1.16279069e-02 0. 0. 0.
      1.16279069e-02 0. 0. 0. 0. 0. 0. 0. 0. 0. 0. 0. 0. 0. 0. 0. 0. 0.
      0. 0. 0. 0. 0. 0. 0. 0. 0. 0. 0. 0. 1.16279069e-02 0. 0. 0. 0. 0.
      0. 0. 0. 0. 0. 0. 0. 0. 0. 0. 0. 0. 1.16279069e-02 0. 0. 0. 0. 0.
      0. 0. 0. 0. 0. 0. 0. 1.16279069e-02 0. 0. 0. 0. 0. 0. 0. 0. 0. 0.
      0. 0. 0. 0. 0. 0. 0. 0. 0. 0. 0. 0. 0. 0. 1.16279069e-02 0. 0. 0.
      0. 0. 1.16279069e-02 1.16279069e-02 0. 0. 1.16279069e-02 0.
      1.16279069e-02 0. 0. 0. 0. 0. 0. 0. 0. 0. 1.16279069e-02 0. 0. 0.
      1.16279069e-02 0. 0. 0. 0. 0. 0. 0. 1.16279069e-02 0.
      1.16279069e-02 0. 0. 0. 0. 0. 0. 0. 0. 0. 0. 0. 0. 0. 0.
      1.16279069e-02 0. 0. 0. 0. 0. 0. 0. 0. 1.16279069e-02 0. 0. 0. 0.
      0. 0. 1.16279069e-02 0. 0. 0. 0. 0. 0. 0. 0. 0. 0. 0. 0. 0. 0.
      2.32558139e-02 0. 0. 0. 0. 0. 0. 1.16279069e-02 0. 0. 0. 0. 0. 0.
      0. 0. 0. 1.16279069e-02 0. 0. 0. 0. 0. 0. 1.16279069e-02 0. 0. 0.
      0. 0. 0. 0. 1.16279069e-02 0. 0. 0. 0. 0. 0. 1.16279069e-02 0. 0.
      0. 0. 0. 0. 0. 0. 0. 0. 0. 0. 0. 0. 0. 0. 1.16279069e-02 0. 0. 0.
      0. 0. 0. 0. 0. 0. 0. 0. 0. 0. 0. 0. 0. 0. 0. 0. 0. 0. 0. 0. 0. 0.
      0. 0. 0. 0. 0. 0. 0. 0. 0. 0. 0. 0. 0. 0. 0. 0. 0. 2.32558139e-02
      0. 0. 0. 0. 0. 0. 0. 0. 0. 0. 0. 0. 0. 3.48837227e-02 0. 0. 0. 0.
      1.16279069e-02 0. 0. 0. 0. 0. 0. 0. 1.16279069e-02 1.16279069e-02
      0. 1.16279069e-02 2.32558139e-02 1.16279069e-02 0. 0. 0. 0.
      1.16279069e-02 0. 0. 0. 0. 0. 0. 0. 0. 0. 1.16279069e-02 0. 0. 0.
      0. 0. 0. 0. 0. 0. 0. 0. 0. 0. 0. 0. 0. 0. 0. 0. 0. 0. 0. 0. 0. 0.
      0. 0. 2.32558139e-02 0. 0. 0. 0. 0. 0. 0. 0. 0. 0. 0. 0. 0. 0. 0.
      0. 0. 0. 0. 0. 0. 0. 1.16279069e-02 0. 0. 0. 0. 1.16279069e-02 0.
      0. 0. 0. 0. 0. 0. 0. 0. 0. 0. 0. 0. 0. 0. 0. 0. 0. 0. 0. 0. 0. 0.
      0. 0. 1.16279069e-02 0. 0. 1.16279069e-02 0. 0. 0. 0. 0.
      1.16279069e-02 0. 1.16279069e-02 0. 0. 0. 0. 0. 0. 0. 0. 0. 0. 0.
      0. 0. 0. 0. 0. 0. 0. 0. 0. 0. 0. 0. 1.16279069e-02 0. 0. 0. 0. 0.
      0. 0. 0. 0. 2.32558139e-02 0. 0. 0. 0. 0. 0. 0. 0. 0. 0. 0. 0. 0.
      0. 0. 0. 0.</_>
    <_>
      0. 0. 0. 0. 0. 0. 0. 0. 0. 0. 1.12359552e-02 0. 0. 0. 0. 0. 0. 0.
      0. 0. 0. 1.12359552e-02 0. 0. 0. 0. 0. 0. 0. 0. 0. 0.
      2.24719103e-02 1.12359552e-02 0. 0. 0. 0. 0. 0. 0. 0.
      1.12359552e-02 0. 0. 0. 0. 0. 0. 0. 0. 0. 0. 0. 0. 0. 0. 0. 0. 0.
      0. 0. 0. 0. 0. 1.12359552e-02 0. 1.12359552e-02 0. 0. 0. 0. 0. 0.
      0. 1.12359552e-02 0. 0. 0. 0. 0. 0. 0. 0. 0. 0. 0. 0. 0. 0. 0. 0.
      0. 0. 0. 0. 0. 0. 0. 0. 0. 1.12359552e-02 0. 0. 0. 1.12359552e-02
      0. 0. 0. 0. 0. 0. 0. 0. 1.12359552e-02 0. 0. 0. 0. 1.12359552e-02
      0. 0. 0. 0. 0. 0. 0. 0. 2.24719103e-02 0. 0. 0. 0. 0. 0. 0. 0. 0.
      1.12359552e-02 0. 0. 0. 0. 0. 0. 0. 0. 0. 2.24719103e-02 0. 0. 0.
      0. 0. 0. 0. 0. 0. 0. 0. 0. 0. 0. 0. 0. 0. 0. 0. 0. 0. 0. 0. 0.
      1.12359552e-02 0. 0. 0. 0. 0. 0. 0. 0. 0. 0. 0. 0. 0. 0. 0. 0. 0.
      1.12359552e-02 0. 0. 1.12359552e-02 0. 0. 0. 0. 1.12359552e-02 0.
      0. 0. 0. 0. 0. 0. 0. 0. 0. 0. 0. 0. 0. 0. 0. 0. 0. 0. 0. 0. 0. 0.
      0. 0. 0. 0. 0. 0. 0. 0. 0. 0. 0. 0. 0. 0. 0. 0. 0. 0. 0. 0. 0. 0.
      0. 0. 0. 0. 0. 0. 0. 0. 0. 0. 0. 1.12359552e-02 0. 0. 0.
      1.12359552e-02 0. 0. 0. 0. 0. 0. 0. 0. 0. 0. 0. 2.24719103e-02 0.
      0. 0. 0. 0. 0. 0. 0. 0. 1.12359552e-02 0. 0. 0. 0. 0. 0.
      1.12359552e-02 1.12359552e-02 0. 0. 0. 2.24719103e-02 0. 0. 0. 0.
      0. 0. 0. 0. 0. 0. 0. 0. 0. 0. 0. 0. 0. 0. 1.12359552e-02 0. 0. 0.
      0. 0. 0. 0. 0. 0. 0. 0. 0. 0. 1.12359552e-02 0. 0. 0. 0. 0. 0. 0.
      0. 0. 0. 0. 0. 0. 0. 0. 0. 0. 0. 1.12359552e-02 0. 0. 0. 0. 0. 0.
      0. 0. 0. 0. 0. 0. 0. 0. 0. 0. 0. 0. 0. 0. 0. 0. 0. 1.12359552e-02
      0. 0. 0. 0. 0. 0. 0. 0. 0. 1.12359552e-02 1.12359552e-02 0. 0. 0.
      0. 0. 0. 0. 0. 0. 0. 0. 1.12359552e-02 0. 0. 0. 0. 0. 0. 0. 0. 0.
      0. 1.12359552e-02 0. 0. 0. 0. 0. 0. 0. 0. 0. 1.12359552e-02 0. 0.
      0. 0. 0. 0. 0. 0. 0. 0. 0. 0. 0. 0. 0. 0. 0. 0. 1.12359552e-02 0.
      0. 0. 0. 0. 0. 0. 0. 1.12359552e-02 0. 0. 0. 0. 0. 0. 0.
      1.12359552e-02 0. 0. 0. 0. 0. 0. 0. 0. 0. 0. 1.12359552e-02 0. 0.
      0. 0. 1.12359552e-02 0. 0. 0. 0. 0. 0. 0. 0. 0. 0. 0. 0. 0. 0. 0.
      0. 0. 0. 0. 0. 0. 0. 0. 0. 0. 0. 0. 0. 0. 0. 0. 0. 0. 0. 0. 0. 0.
      0. 0. 0. 0. 0. 0. 0. 3.37078646e-02 0. 0. 0. 0. 0. 0. 0. 0. 0. 0.
      0. 0. 0. 0. 0. 0. 0. 0. 0. 1.12359552e-02 1.12359552e-02 0. 0. 0.
      0. 0. 0. 0. 0. 0. 0. 0. 0. 0. 0. 0. 0. 0. 0. 0. 0. 0. 0. 0. 0. 0.
      0. 0. 0. 0. 0. 0. 0. 0. 0. 0. 0. 0. 1.12359552e-02 2.24719103e-02
      1.12359552e-02 0. 0. 0. 0. 0. 0. 0. 0. 0. 0. 0. 0. 0. 0. 0. 0.
      1.12359552e-02 0. 0. 0. 0. 0. 1.12359552e-02 0. 0. 0. 0. 0. 0. 0.
      0. 0. 0. 0. 0. 0. 0. 0. 0. 0. 0. 0. 0. 0. 0. 0. 0. 0. 0. 0. 0. 0.
      0. 0. 0. 0. 0. 0. 0. 0. 0. 0. 0. 0. 2.24719103e-02 0. 0. 0. 0.
      1.12359552e-02 0. 1.12359552e-02 0. 0. 0. 0. 0. 0. 0. 0. 0. 0. 0.
      0. 0. 1.12359552e-02 0. 0. 0. 0. 0. 0. 0. 1.12359552e-02 0. 0. 0.
      0. 0. 1.12359552e-02 0. 0. 1.12359552e-02 0. 0. 0. 0. 0. 0. 0. 0.
      0. 0. 0. 0. 0. 0. 0. 0. 0. 0. 0. 0. 0. 0. 0. 0. 0. 0. 0.
      2.24719103e-02 0. 0. 0. 0. 1.12359552e-02 0. 0. 0. 0. 0. 0. 0.
      1.12359552e-02 0. 0. 0. 0. 0. 0. 0. 0. 0. 1.12359552e-02 0. 0. 0.
      0. 0. 0. 0. 0. 0. 0. 1.12359552e-02 0. 0. 0. 0. 0. 0. 0. 0. 0. 0.
      0. 0. 0. 0. 0. 0. 0. 0. 0. 0. 1.12359552e-02 0. 0. 0. 0. 0. 0. 0.
      0. 0. 0. 0. 0. 1.12359552e-02 0. 0. 0. 0. 0. 0. 0. 0. 0. 0. 0. 0.
      0. 0. 0. 0. 0. 0. 0. 0. 0. 0. 0. 0. 0. 0. 0. 0. 0. 0. 0. 0. 0. 0.
      0. 0. 1.12359552e-02 0. 0. 0. 0. 0. 1.12359552e-02 0. 0. 0. 0. 0.
      0. 0. 1.12359552e-02 0. 0. 0. 0. 0. 0. 0. 0. 0. 0. 0. 0. 0. 0. 0.
      2.24719103e-02 0. 0. 1.12359552e-02 0. 0. 0. 0. 0. 0.
      1.12359552e-02 0. 0. 0. 0. 0. 0. 0. 0. 0. 0. 0. 0. 0. 0. 0. 0. 0.
      0. 0. 0. 0. 0. 0. 0. 0. 0. 0. 0. 0. 0. 0. 2.24719103e-02 0. 0. 0.
      0. 0. 0. 0. 0. 0. 0. 0. 0. 0. 0. 1.12359552e-02 0. 0. 0. 0. 0. 0.
      0. 0. 0. 0. 0. 0. 0. 0. 0. 0. 0. 0. 0. 0. 0. 0. 0. 0. 0.
      1.12359552e-02 0. 0. 0. 1.12359552e-02 0. 0. 0. 0. 0. 0. 0. 0. 0.
      0. 0. 2.24719103e-02 0. 0. 0. 0. 0. 0. 0. 0. 0. 0. 0. 0. 0. 0. 0.
      0. 0. 0. 0. 1.12359552e-02 0. 0. 0. 0. 0. 0. 0. 0. 0. 0.
      1.12359552e-02 0. 0. 0. 0. 0. 0. 0. 0. 0. 0. 0. 0. 0. 0. 0. 0. 0.
      0. 0. 0. 0. 0. 0. 0. 0. 0. 0. 0. 0. 0. 1.12359552e-02</_>
    <_>
      6.99300691e-03 0. 0. 0. 0. 0. 0. 0. 0. 0. 0. 0. 0. 6.99300691e-03
      0. 0. 0. 6.99300691e-03 0. 0. 6.99300691e-03 0. 0. 0.
      6.99300691e-03 0. 0. 0. 6.99300691e-03 0. 0. 6.99300691e-03
      6.99300691e-03 0. 0. 0. 0. 0. 0. 0. 0. 6.99300691e-03 0. 0. 0. 0.
      0. 0. 0. 0. 0. 0. 0. 0. 0. 0. 0. 0. 0. 6.99300691e-03 0. 0. 0.
      2.09790207e-02 0. 0. 0. 0. 0. 0. 0. 6.99300691e-03 0. 0. 0.
      6.99300691e-03 0. 0. 0. 6.99300691e-03 0. 0. 0. 0. 0. 0. 0. 0. 0.
      0. 0. 0. 0. 0. 0. 0. 0. 0. 0. 0. 0. 0. 0. 0. 0. 0. 0. 0. 0. 0. 0.
      0. 0. 0. 6.99300691e-03 0. 0. 0. 0. 6.99300691e-03 0. 0. 0. 0. 0.
      0. 0. 0. 6.99300691e-03 0. 0. 0. 0. 0. 0. 0. 0. 1.39860138e-02 0.
      0. 0. 0. 0. 0. 0. 0. 0. 0. 0. 0. 0. 0. 0. 0. 0. 0. 0. 0. 0. 0. 0.
      0. 0. 0. 0. 0. 0. 0. 0. 0. 0. 0. 0. 0. 0. 0. 0. 0. 0. 0. 0. 0. 0.
      0. 0. 0. 0. 0. 0. 0. 0. 0. 0. 0. 6.99300691e-03 0. 0. 0. 0. 0. 0.
      3.49650346e-02 0. 0. 0. 0. 0. 0. 0. 0. 0. 6.99300691e-03 0. 0. 0.
      0. 0. 0. 6.99300691e-03 0. 6.99300691e-03 6.99300691e-03 0. 0. 0.
      0. 0. 0. 0. 0. 0. 1.39860138e-02 0. 0. 0. 0. 0. 6.99300691e-03 0.
      0. 0. 0. 0. 0. 0. 0. 0. 0. 0. 6.99300691e-03 0. 0. 0. 0. 0.
      1.39860138e-02 0. 0. 0. 6.99300691e-03 0. 6.99300691e-03 0. 0. 0.
      0. 0. 0. 0. 0. 0. 0. 1.39860138e-02 0. 0. 0. 0. 0. 0. 0. 0. 0. 0.
      0. 0. 0. 0. 6.99300691e-03 0. 0. 0. 0. 0. 0. 1.39860138e-02
      6.99300691e-03 0. 0. 0. 0. 0. 0. 0. 0. 0. 0. 0. 0. 0. 0. 0. 0. 0.
      0. 0. 0. 0. 0. 0. 0. 6.99300691e-03 0. 0. 0. 0. 0. 0. 0. 0. 0. 0.
      0. 0. 0. 0. 0. 0. 0. 0. 0. 0. 0. 0. 0. 0. 6.99300691e-03
      6.99300691e-03 0. 0. 6.99300691e-03 0. 0. 0. 0. 0. 0. 0. 0. 0. 0.
      0. 0. 0. 0. 0. 6.99300691e-03 0. 0. 0. 0. 0. 0. 0. 0. 0. 0. 0. 0.
      0. 0. 6.99300691e-03 0. 0. 0. 0. 0. 0. 0. 0. 0. 0. 0. 0. 0. 0. 0.
      0. 0. 0. 0. 0. 0. 0. 0. 6.99300691e-03 0. 0. 0. 0. 6.99300691e-03
      0. 0. 0. 6.99300691e-03 0. 0. 0. 0. 0. 0. 0. 0. 6.99300691e-03 0.
      1.39860138e-02 0. 0. 0. 0. 0. 0. 0. 0. 6.99300691e-03 0. 0. 0. 0.
      0. 0. 0. 6.99300691e-03 0. 0. 0. 0. 6.99300691e-03 0.
      6.99300691e-03 0. 0. 0. 0. 6.99300691e-03 0. 0. 0. 0. 0. 0.
      6.99300691e-03 0. 0. 0. 0. 0. 0. 0. 0. 0. 0. 0. 0. 0. 0. 0. 0. 0.
      0. 0. 0. 0. 0. 0. 0. 0. 0. 0. 0. 0. 0. 0. 0. 0. 0. 0. 0. 0.
      6.99300691e-03 0. 0. 0. 0. 0. 0. 0. 0. 0. 0. 0. 0. 0. 0. 0. 0. 0.
      0. 0. 0. 0. 0. 0. 0. 6.99300691e-03 0. 6.99300691e-03 0.
      6.99300691e-03 0. 0. 0. 6.99300691e-03 1.39860138e-02
      6.99300691e-03 0. 1.39860138e-02 0. 0. 6.99300691e-03 0. 0. 0. 0.
      0. 6.99300691e-03 0. 0. 0. 0. 6.99300691e-03 0. 0. 0.
      1.39860138e-02 0. 0. 0. 0. 0. 6.99300691e-03 0. 0. 6.99300691e-03
      0. 0. 0. 0. 0. 0. 0. 0. 0. 6.99300691e-03 0. 0. 0. 0. 0. 0. 0. 0.
      0. 0. 0. 0. 0. 6.99300691e-03 0. 0. 0. 0. 0. 0. 0. 6.99300691e-03
      0. 0. 0. 0. 0. 0. 0. 0. 0. 0. 0. 0. 0. 0. 0. 0. 0. 0. 0. 0. 0. 0.
      0. 0. 0. 0. 0. 0. 0. 0. 0. 0. 0. 0. 0. 0. 0. 0. 0. 0. 0. 0.
      6.99300691e-03 0. 0. 0. 0. 0. 0. 0. 0. 0. 0. 0. 0. 0. 0. 0. 0. 0.
      0. 6.99300691e-03 0. 0. 0. 0. 4.19580415e-02 0. 6.99300691e-03 0.
      0. 0. 0. 0. 0. 0. 0. 6.99300691e-03 6.99300691e-03 0.
      6.99300691e-03 0. 0. 0. 0. 0. 0. 0. 0. 0. 0. 0. 0. 0. 0.
      6.99300691e-03 0. 0. 0. 0. 6.99300691e-03 0. 6.99300691e-03 0.
      6.99300691e-03 0. 6.99300691e-03 0. 0. 0. 0. 0. 0. 0. 0. 0. 0. 0.
      1.39860138e-02 0. 0. 6.99300691e-03 0. 0. 0. 0. 0. 0. 0. 0.
      6.99300691e-03 0. 0. 6.99300691e-03 0. 0. 0. 0. 1.39860138e-02 0.
      0. 0. 6.99300691e-03 0. 0. 6.99300691e-03 0. 0. 0. 0. 0. 0. 0. 0.
      0. 0. 0. 0. 0. 6.99300691e-03 0. 6.99300691e-03 0. 6.99300691e-03
      0. 0. 0. 0. 0. 0. 0. 0. 0. 0. 0. 0. 0. 0. 0. 0. 0. 0. 0. 0. 0. 0.
      0. 6.99300691e-03 6.99300691e-03 0. 0. 0. 0. 0. 0. 0. 0. 0. 0. 0.
      0. 0. 0. 0. 0. 0. 0. 0. 0. 0. 0. 0. 0. 0. 0. 6.99300691e-03 0. 0.
      0. 0. 0. 6.99300691e-03 0. 0. 0. 0. 0. 2.09790207e-02 0. 0. 0. 0.
      0. 0. 0. 0. 0. 0. 0. 0. 0. 0. 0. 6.99300691e-03 6.99300691e-03 0.
      0. 0. 0. 6.99300691e-03 0. 0. 0. 0. 0. 0. 0. 0. 0. 0. 0. 0. 0. 0.
      6.99300691e-03 0. 6.99300691e-03 6.99300691e-03 0. 0. 0. 0. 0. 0.
      0. 0. 0. 0. 0. 0. 0. 0. 0. 0. 0. 0. 0. 0. 0. 0. 0. 0. 0. 0. 0. 0.
      0. 0. 0. 0. 0. 0. 0. 0. 0. 6.99300691e-03 0. 0. 0. 0.
      6.99300691e-03 0. 0. 0. 0. 6.99300691e-03 6.99300691e-03 0. 0. 0.
      0. 0. 0. 0. 0. 6.99300691e-03 0. 0. 0. 0. 0. 0. 0. 0. 0. 0. 0. 0.
      0. 6.99300691e-03 0. 0. 1.39860138e-02 0. 0. 0. 0. 0.
      1.39860138e-02 0. 0. 0. 0. 0. 0. 0. 0. 0. 0. 0. 0. 0. 0.
      6.99300691e-03 0. 0. 0. 0. 0. 0. 0. 0. 0. 0. 0. 0. 6.99300691e-03
      0. 0. 0. 6.99300691e-03 0. 0. 0. 0. 0. 0. 0. 0. 0. 6.99300691e-03
      6.99300691e-03 6.99300691e-03 0. 0. 0. 0. 0. 0. 0. 0. 0. 0. 0.
      1.39860138e-02</_>
    <_>
      3.25203240e-02 0. 0. 0. 0. 2.43902430e-02 0. 0. 0. 0. 0. 0. 0. 0.
      0. 0. 0. 0. 0. 0. 8.13008100e-03 8.13008100e-03 0. 0. 0. 0. 0. 0.
      0. 0. 0. 0. 8.13008100e-03 0. 0. 0. 0. 0. 0. 0. 0. 8.13008100e-03
      0. 0. 0. 8.13008100e-03 8.13008100e-03 0. 0. 0. 0. 0. 0. 0. 0. 0.
      0. 8.13008100e-03 0. 8.13008100e-03 0. 0. 0. 0. 0. 0. 0. 0. 0. 0.
      0. 1.62601620e-02 0. 1.62601620e-02 0. 8.13008100e-03 0. 0. 0.
      8.13008100e-03 0. 0. 0. 0. 0. 0. 0. 0. 0. 0. 0. 0. 0. 0. 0. 0. 0.
      0. 0. 0. 0. 2.43902430e-02 0. 0. 0. 0. 0. 0. 0. 0. 0. 0. 0. 0.
      8.13008100e-03 0. 0. 8.13008100e-03 0. 0. 0. 0. 0. 0. 0. 0. 0.
      8.13008100e-03 0. 0. 0. 0. 0. 0. 0. 0. 0. 0. 0. 0. 0. 0.
      8.13008100e-03 0. 0. 0. 0. 0. 0. 0. 0. 0. 0. 0. 0. 0. 0. 0. 0.
      8.13008100e-03 0. 0. 0. 0. 0. 0. 8.13008100e-03 0. 0. 0. 0. 0. 0.
      0. 0. 0. 0. 0. 0. 0. 8.13008100e-03 0. 8.13008100e-03 0. 0. 0. 0.
      0. 0. 0. 0. 8.13008100e-03 0. 0. 8.13008100e-03 0. 0. 0. 0. 0. 0.
      0. 0. 0. 0. 0. 0. 0. 0. 0. 0. 0. 0. 0. 0. 0. 0. 0. 0.
      8.13008100e-03 0. 8.13008100e-03 0. 0. 0. 0. 0. 0. 8.13008100e-03
      0. 0. 1.62601620e-02 0. 0. 0. 0. 0. 8.13008100e-03 0. 0. 0. 0. 0.
      8.13008100e-03 0. 0. 0. 0. 0. 8.13008100e-03 0. 0. 0. 0. 0. 0. 0.
      0. 0. 0. 0. 0. 0. 0. 0. 0. 0. 0. 0. 0. 0. 0. 1.62601620e-02 0. 0.
      8.13008100e-03 0. 0. 0. 0. 0. 0. 0. 0. 0. 0. 0. 8.13008100e-03 0.
      0. 0. 0. 0. 8.13008100e-03 0. 1.62601620e-02 0. 0. 0. 0. 0. 0. 0.
      0. 0. 0. 0. 8.13008100e-03 0. 0. 0. 0. 0. 8.13008100e-03 0. 0. 0.
      0. 0. 0. 8.13008100e-03 0. 0. 0. 0. 0. 0. 8.13008100e-03 0. 0. 0.
      0. 0. 0. 0. 0. 0. 0. 0. 0. 0. 0. 0. 0. 0. 0. 0. 0. 0. 0. 0.
      8.13008100e-03 0. 0. 0. 0. 0. 0. 0. 0. 0. 0. 0. 0. 0. 0. 0. 0. 0.
      0. 0. 0. 0. 0. 0. 0. 0. 0. 0. 0. 0. 0. 0. 0. 0. 0. 0. 0. 0. 0.
      8.13008100e-03 0. 0. 8.13008100e-03 0. 0. 0. 0. 0. 0. 0. 0. 0. 0.
      0. 0. 0. 0. 0. 0. 0. 0. 0. 0. 0. 0. 0. 0. 0. 0. 0. 0. 0. 0.
      1.62601620e-02 0. 0. 0. 0. 0. 0. 0. 0. 2.43902430e-02 0. 0. 0. 0.
      0. 0. 0. 8.13008100e-03 0. 8.13008100e-03 0. 0. 0. 0. 0. 0. 0. 0.
      0. 0. 0. 0. 0. 0. 0. 0. 0. 0. 0. 0. 0. 8.13008100e-03 0. 0. 0. 0.
      0. 0. 0. 0. 0. 0. 0. 0. 0. 0. 0. 0. 0. 0. 0. 8.13008100e-03 0. 0.
      0. 0. 0. 0. 0. 0. 0. 0. 8.13008100e-03 0. 0. 0. 0. 0. 0. 0. 0. 0.
      0. 0. 0. 0. 0. 0. 0. 0. 0. 0. 0. 0. 0. 0. 0. 8.13008100e-03 0.
      8.13008100e-03 0. 0. 0. 8.13008100e-03 0. 0. 0. 8.13008100e-03 0.
      0. 0. 0. 0. 0. 0. 0. 0. 0. 0. 0. 0. 0. 0. 0. 0. 0. 0. 0. 0.
      8.13008100e-03 0. 0. 0. 0. 0. 8.13008100e-03 0. 0. 0. 0. 0. 0. 0.
      0. 0. 0. 0. 0. 8.13008100e-03 0. 0. 0. 0. 0. 0. 0. 0. 0. 0. 0. 0.
      0. 0. 0. 0. 8.13008100e-03 0. 0. 0. 0. 8.13008100e-03 0. 0. 0. 0.
      0. 0. 0. 0. 0. 8.13008100e-03 0. 8.13008100e-03 0. 0.
      8.13008100e-03 0. 0. 0. 0. 0. 0. 0. 0. 0. 8.13008100e-03 0. 0. 0.
      0. 0. 0. 8.13008100e-03 0. 0. 0. 0. 0. 0. 0. 0. 0. 0.
      1.62601620e-02 0. 0. 0. 0. 0. 0. 0. 0. 0. 8.13008100e-03 0. 0. 0.
      0. 0. 0. 0. 0. 0. 8.13008100e-03 0. 0. 0. 8.13008100e-03 0.
      8.13008100e-03 0. 0. 8.13008100e-03 0. 0. 0. 0. 0. 8.13008100e-03
      0. 0. 0. 0. 0. 0. 0. 0. 0. 0. 8.13008100e-03 0. 0. 0. 0. 0. 0. 0.
      0. 0. 0. 0. 8.13008100e-03 0. 0. 0. 0. 0. 8.13008100e-03 0. 0. 0.
      0. 0. 0. 0. 0. 0. 0. 0. 8.13008100e-03 0. 0. 0. 0. 0. 0. 0. 0. 0.
      0. 0. 0. 8.13008100e-03 0. 0. 0. 0. 0. 0. 0. 0. 0. 0. 0. 0. 0.
      8.13008100e-03 0. 0. 0. 0. 0. 0. 0. 0. 0. 0. 0. 0. 0. 0. 0. 0. 0.
      0. 0. 0. 0. 0. 0. 0. 0. 0. 0. 0. 0. 0. 0. 0. 0. 0. 0. 0. 0. 0. 0.
      1.62601620e-02 0. 0. 0. 0. 0. 0. 8.13008100e-03 0. 0. 0. 0. 0. 0.
      0. 0. 0. 0. 0. 0. 0. 0. 0. 0. 0. 0. 0. 0. 0. 0. 8.13008100e-03 0.
      0. 0. 0. 0. 0. 0. 0. 0. 0. 0. 8.13008100e-03 0. 0. 0. 0. 0. 0. 0.
      0. 8.13008100e-03 8.13008100e-03 0. 0. 0. 0. 0. 8.13008100e-03 0.
      0. 0. 0. 0. 0. 0. 0. 0. 0. 0. 0. 0. 0. 0. 0. 8.13008100e-03 0. 0.
      0. 0. 0. 0. 0. 0. 0. 0. 0. 0. 0. 0. 0. 0. 0. 0. 0. 0. 0. 0. 0.
      8.13008100e-03 0. 0. 0. 0. 0. 0. 0. 0. 0. 0. 0. 8.13008100e-03 0.
      0. 0. 1.62601620e-02 0. 0. 0. 0. 8.13008100e-03 0. 0. 0. 0.
      8.13008100e-03 0. 0. 0. 8.13008100e-03 0. 8.13008100e-03 0. 0. 0.
      0. 0. 0. 0. 0. 1.62601620e-02 8.13008100e-03 0. 0. 0. 0. 0. 0. 0.
      0. 0. 0. 0. 0. 0. 0. 0. 8.13008100e-03 0. 0. 8.13008100e-03 0. 0.
      0. 0. 0. 0. 0. 0. 0. 0. 0. 0. 8.13008100e-03 0. 0. 0. 0.
      8.13008100e-03 8.13008100e-03 0. 0. 8.13008100e-03 0. 0. 0. 0. 0.
      0. 0. 0. 0. 0. 0. 0. 0. 0. 0. 0. 0. 0. 0. 0. 0. 0. 8.13008100e-03
      8.13008100e-03 0. 0. 0. 0. 0. 0. 0. 0. 0. 0. 0. 0. 8.13008100e-03</_>
    <_>
      2.47933865e-02 0. 0. 0. 0. 0. 0. 0. 0. 0. 8.26446246e-03 0. 0. 0.
      0. 0. 0. 0. 0. 0. 8.26446246e-03 0. 0. 0. 0. 0. 0. 0. 0. 0. 0. 0.
      8.26446246e-03 0. 0. 0. 0. 0. 0. 0. 0. 8.26446246e-03 0. 0. 0. 0.
      0. 0. 0. 0. 0. 0. 0. 0. 0. 0. 0. 1.65289249e-02 0. 0. 0. 0. 0.
      8.26446246e-03 0. 0. 0. 0. 0. 0. 0. 1.65289249e-02 0.
      8.26446246e-03 8.26446246e-03 8.26446246e-03 0. 0. 0.
      8.26446246e-03 0. 0. 0. 0. 0. 0. 0. 0. 0. 0. 0. 0. 0. 0. 0. 0. 0.
      0. 0. 0. 0. 1.65289249e-02 0. 0. 0. 0. 0. 0. 0. 0. 0. 0. 0. 0.
      8.26446246e-03 0. 0. 0. 0. 0. 0. 0. 0. 0. 0. 8.26446246e-03 0.
      8.26446246e-03 0. 0. 0. 0. 0. 1.65289249e-02 0. 0. 0. 0. 0. 0. 0.
      0. 0. 0. 2.47933865e-02 0. 0. 0. 0. 0. 0. 0. 0. 0. 0. 0. 0. 0. 0.
      0. 0. 0. 0. 0. 0. 0. 0. 0. 0. 0. 0. 0. 0. 0. 0. 0. 0. 0. 0. 0. 0.
      8.26446246e-03 0. 0. 0. 0. 0. 0. 0. 8.26446246e-03 0.
      8.26446246e-03 0. 0. 8.26446246e-03 0. 0. 0. 0. 0. 0. 0. 0. 0. 0.
      0. 0. 0. 0. 0. 0. 8.26446246e-03 8.26446246e-03 0. 0. 0. 0. 0. 0.
      8.26446246e-03 8.26446246e-03 0. 0. 0. 0. 0. 0. 0. 0. 0. 0.
      8.26446246e-03 0. 0. 0. 0. 0. 0. 0. 0. 8.26446246e-03 0. 0.
      8.26446246e-03 0. 0. 0. 0. 0. 8.26446246e-03 0. 0. 0. 0. 0. 0. 0.
      0. 0. 0. 0. 0. 0. 0. 0. 0. 0. 0. 0. 0. 0. 0. 1.65289249e-02 0. 0.
      8.26446246e-03 0. 0. 0. 0. 0. 0. 0. 0. 0. 0. 0. 0. 0. 0. 0. 0. 0.
      0. 0. 8.26446246e-03 0. 0. 0. 0. 0. 0. 0. 0. 0. 0. 0.
      8.26446246e-03 0. 0. 0. 0. 8.26446246e-03 0. 0. 2.47933865e-02
      8.26446246e-03 0. 0. 0. 8.26446246e-03 0. 0. 0. 0. 0. 0. 0. 0. 0.
      0. 0. 0. 0. 0. 0. 0. 0. 0. 0. 0. 0. 8.26446246e-03 0. 0. 0. 0. 0.
      0. 8.26446246e-03 0. 0. 0. 0. 0. 0. 0. 0. 0. 0. 0. 0. 0. 0. 0. 0.
      0. 0. 0. 0. 0. 0. 0. 0. 0. 0. 0. 0. 0. 0. 0. 0. 0. 0. 0. 0. 0. 0.
      0. 0. 8.26446246e-03 0. 0. 8.26446246e-03 0. 0. 0. 0. 0. 0. 0. 0.
      0. 0. 0. 0. 0. 0. 8.26446246e-03 8.26446246e-03 8.26446246e-03 0.
      0. 0. 0. 0. 0. 0. 0. 0. 0. 0. 0. 0. 8.26446246e-03 0.
      8.26446246e-03 8.26446246e-03 0. 0. 0. 0. 0. 8.26446246e-03 0. 0.
      8.26446246e-03 0. 0. 0. 0. 0. 0. 0. 0. 0. 0. 0. 0. 0. 0. 0. 0. 0.
      0. 0. 0. 0. 0. 0. 0. 8.26446246e-03 0. 0. 0. 8.26446246e-03 0. 0.
      0. 0. 0. 0. 0. 0. 0. 0. 0. 0. 0. 0. 0. 0. 0. 0. 0. 0. 0. 0. 0. 0.
      0. 0. 0. 0. 0. 0. 0. 0. 0. 8.26446246e-03 0. 0. 0. 0. 0. 0. 0. 0.
      0. 0. 0. 0. 0. 0. 0. 0. 0. 0. 0. 0. 0. 0. 0. 0. 0. 0. 0. 0. 0. 0.
      0. 0. 0. 0. 0. 0. 0. 0. 0. 0. 0. 0. 0. 0. 0. 0. 0. 0. 0. 0. 0.
      8.26446246e-03 0. 8.26446246e-03 0. 0. 0. 0. 0. 2.47933865e-02 0.
      0. 0. 0. 8.26446246e-03 0. 0. 0. 0. 0. 0. 0. 8.26446246e-03 0. 0.
      0. 0. 0. 0. 0. 0. 0. 0. 0. 0. 0. 0. 0. 0. 8.26446246e-03 0. 0. 0.
      0. 0. 0. 0. 0. 0. 0. 0. 0. 0. 0. 0. 0. 8.26446246e-03 0. 0. 0. 0.
      0. 0. 0. 0. 0. 0. 0. 0. 0. 0. 0. 0. 0. 0. 0. 0. 0. 0. 0. 0. 0. 0.
      0. 0. 0. 0. 8.26446246e-03 0. 0. 0. 0. 0. 0. 0. 8.26446246e-03 0.
      0. 0. 8.26446246e-03 0. 0. 0. 0. 0. 0. 0. 0. 0. 0. 0. 0. 0.
      1.65289249e-02 0. 0. 8.26446246e-03 0. 0. 0. 0. 8.26446246e-03
      8.26446246e-03 8.26446246e-03 8.26446246e-03 8.26446246e-03 0. 0.
      0. 0. 0. 0. 0. 0. 0. 0. 0. 8.26446246e-03 0. 0. 0. 0. 0. 0. 0.
      8.26446246e-03 0. 0. 1.65289249e-02 0. 0. 0. 0. 0. 0. 0. 0.
      8.26446246e-03 8.26446246e-03 0. 0. 0. 0. 0. 0. 0. 0. 0. 0. 0. 0.
      0. 8.26446246e-03 0. 0. 8.26446246e-03 8.26446246e-03 0. 0. 0. 0.
      0. 0. 0. 0. 0. 0. 0. 0. 0. 0. 0. 0. 0. 0. 0. 8.26446246e-03 0. 0.
      0. 0. 0. 0. 0. 0. 0. 0. 0. 0. 0. 0. 0. 0. 0. 1.65289249e-02 0. 0.
      0. 0. 0. 0. 0. 0. 0. 0. 0. 0. 0. 0. 0. 1.65289249e-02 0. 0. 0. 0.
      0. 8.26446246e-03 8.26446246e-03 0. 0. 0. 0. 0. 0. 0. 0. 0. 0. 0.
      0. 0. 0. 0. 0. 0. 0. 0. 0. 8.26446246e-03 0. 8.26446246e-03 0. 0.
      0. 0. 0. 0. 0. 0. 0. 0. 0. 1.65289249e-02 0. 0. 0. 0. 0. 0. 0. 0.
      8.26446246e-03 0. 0. 0. 0. 0. 0. 8.26446246e-03 0. 0. 0. 0. 0. 0.
      0. 0. 0. 0. 0. 0. 0. 0. 0. 0. 8.26446246e-03 0. 0. 0. 0. 0. 0. 0.
      0. 0. 0. 0. 0. 0. 0. 0. 0. 0. 0. 0. 0. 0. 0. 0. 0. 0. 0. 0. 0. 0.
      0. 0. 0. 0. 0. 0. 0. 0. 0. 0. 0. 0. 0. 0. 0. 0. 0. 0. 0. 0.
      8.26446246e-03 0. 0. 0. 8.26446246e-03 1.65289249e-02
      8.26446246e-03 0. 0. 0. 0. 0. 0. 0. 0. 0. 8.26446246e-03 0. 0. 0.
      0. 0. 0. 0. 0. 0. 0. 0. 0. 0. 0. 0. 8.26446246e-03 0. 0.
      8.26446246e-03 0. 0. 0. 0. 0. 0. 0. 8.26446246e-03 0. 0. 0. 0. 0.
      0. 0. 0. 0. 8.26446246e-03 8.26446246e-03 0. 0. 8.26446246e-03 0.
      0. 0. 0. 0. 0. 0. 0. 0. 0. 0. 0. 0. 0. 0. 0. 0. 0. 0. 0. 0. 0.
      8.26446246e-03 8.26446246e-03 0. 0. 0. 0. 0. 0. 0. 0. 0. 0. 0. 0.
      0.</_>
    <_>
      2.52100863e-02 0. 0. 0. 0. 0. 0. 0. 0. 0. 8.40336177e-03 0. 0. 0.
      0. 0. 8.40336177e-03 0. 0. 0. 0. 8.40336177e-03 0. 0. 0. 0. 0. 0.
      8.40336177e-03 0. 0. 0. 1.68067235e-02 0. 0. 0. 0. 0. 0. 0. 0.
      8.40336177e-03 0. 0. 0. 8.40336177e-03 0. 0. 0. 0. 0. 0. 0. 0. 0.
      0. 0. 8.40336177e-03 0. 8.40336177e-03 0. 0. 0. 1.68067235e-02 0.
      0. 0. 0. 0. 0. 0. 0. 0. 8.40336177e-03 0. 8.40336177e-03 0. 0. 0.
      8.40336177e-03 0. 8.40336177e-03 0. 0. 0. 8.40336177e-03 0. 0. 0.
      0. 0. 0. 0. 0. 0. 0. 0. 0. 0. 0. 0. 8.40336177e-03 0. 0. 0. 0. 0.
      0. 0. 0. 0. 0. 0. 0. 0. 0. 0. 0. 0. 0. 0. 0. 0. 0. 0. 0. 0.
      8.40336177e-03 0. 0. 0. 8.40336177e-03 0. 0. 0. 0. 0. 0. 0. 0. 0.
      0. 0. 0. 0. 0. 0. 0. 0. 0. 0. 0. 0. 0. 0. 0. 0. 0. 0. 0. 0. 0. 0.
      0. 0. 0. 0. 0. 0. 0. 0. 0. 0. 0. 0. 0. 0. 0. 0. 0. 0. 0. 0. 0. 0.
      0. 0. 8.40336177e-03 0. 0. 0. 0. 0. 0. 8.40336177e-03 0. 0. 0. 0.
      0. 0. 8.40336177e-03 0. 0. 0. 0. 0. 0. 0. 0. 0. 0. 0. 0. 0. 0. 0.
      0. 8.40336177e-03 0. 0. 0. 0. 0. 8.40336177e-03 0. 0. 0. 0. 0. 0.
      1.68067235e-02 0. 0. 0. 0. 0. 0. 0. 0. 0. 0. 0. 0. 0. 0. 0. 0. 0.
      0. 0. 0. 0. 0. 0. 0. 0. 8.40336177e-03 0. 8.40336177e-03 0. 0. 0.
      0. 0. 0. 0. 0. 0. 0. 0. 0. 8.40336177e-03 0. 0. 0. 0. 0. 0. 0. 0.
      8.40336177e-03 0. 0. 0. 0. 0. 0. 0. 0. 0. 0. 0. 0. 0.
      8.40336177e-03 0. 0. 0. 0. 0. 0. 0. 0. 0. 0. 0. 0. 0. 0. 0. 0.
      8.40336177e-03 0. 0. 0. 0. 0. 0. 0. 8.40336177e-03 0. 0. 0. 0. 0.
      0. 0. 0. 0. 0. 0. 0. 0. 0. 0. 0. 0. 0. 0. 0. 0. 8.40336177e-03 0.
      0. 0. 8.40336177e-03 0. 0. 8.40336177e-03 0. 8.40336177e-03 0. 0.
      0. 0. 0. 0. 0. 0. 0. 0. 0. 0. 0. 0. 0. 0. 0. 0. 8.40336177e-03 0.
      0. 0. 0. 0. 0. 0. 0. 8.40336177e-03 8.40336177e-03 0. 0. 0. 0. 0.
      0. 0. 0. 0. 0. 0. 0. 8.40336177e-03 0. 0. 0. 0. 0. 0. 0. 0. 0. 0.
      8.40336177e-03 0. 0. 0. 8.40336177e-03 0. 0. 0. 0. 8.40336177e-03
      0. 0. 0. 0. 0. 0. 0. 0. 8.40336177e-03 0. 8.40336177e-03 0. 0. 0.
      0. 0. 8.40336177e-03 0. 0. 8.40336177e-03 0. 0. 0. 0. 0. 0. 0.
      8.40336177e-03 0. 0. 0. 0. 0. 8.40336177e-03 0. 0. 0. 0. 0. 0. 0.
      0. 0. 0. 0. 0. 8.40336177e-03 0. 0. 0. 0. 8.40336177e-03 0. 0. 0.
      0. 0. 0. 8.40336177e-03 0. 0. 0. 0. 0. 0. 0. 0. 0. 0. 0. 0. 0. 0.
      0. 0. 0. 8.40336177e-03 0. 0. 0. 0. 0. 0. 0. 0. 0. 0. 0.
      8.40336177e-03 0. 0. 0. 0. 0. 0. 0. 0. 0. 0. 0. 0. 0. 0. 0. 0. 0.
      0. 0. 0. 0. 0. 0. 0. 0. 0. 0. 0. 1.68067235e-02 0. 0. 0. 0. 0. 0.
      0. 8.40336177e-03 0. 0. 0. 0. 8.40336177e-03 0. 0. 0. 0. 0. 0. 0.
      0. 8.40336177e-03 0. 0. 0. 0. 0. 1.68067235e-02 0. 0.
      8.40336177e-03 0. 0. 0. 0. 0. 0. 0. 0. 0. 8.40336177e-03 0. 0. 0.
      0. 0. 0. 0. 0. 0. 0. 0. 0. 0. 0. 0. 0. 8.40336177e-03 0. 0. 0.
      8.40336177e-03 0. 0. 0. 0. 0. 0. 0. 0. 0. 0. 8.40336177e-03 0.
      8.40336177e-03 0. 0. 0. 0. 0. 0. 0. 0. 0. 0. 0. 0. 0. 0. 0. 0. 0.
      0. 0. 0. 0. 0. 0. 0. 0. 0. 0. 0. 0. 0. 0. 0. 0. 0. 0. 0. 0. 0. 0.
      0. 0. 0. 0. 0. 0. 0. 0. 0. 0. 0. 0. 0. 0. 0. 1.68067235e-02 0.
      1.68067235e-02 0. 0. 0. 0. 0. 0. 0. 0. 1.68067235e-02
      8.40336177e-03 0. 0. 0. 0. 0. 0. 0. 0. 0. 0. 0. 0. 0. 0. 0. 0.
      8.40336177e-03 0. 0. 0. 0. 8.40336177e-03 0. 0. 0. 0. 0. 0. 0. 0.
      0. 0. 0. 8.40336177e-03 1.68067235e-02 0. 0. 0. 0. 8.40336177e-03
      0. 0. 0. 0. 0. 0. 0. 0. 0. 0. 0. 0. 0. 0. 0. 0. 0. 0.
      8.40336177e-03 0. 0. 0. 0. 0. 0. 0. 1.68067235e-02 8.40336177e-03
      0. 0. 0. 0. 0. 0. 0. 0. 0. 0. 0. 0. 0. 0. 8.40336177e-03 0. 0. 0.
      0. 0. 0. 0. 0. 0. 0. 0. 0. 8.40336177e-03 0. 0. 0. 0. 0. 0. 0. 0.
      0. 0. 0. 0. 0. 0. 0. 0. 0. 8.40336177e-03 0. 8.40336177e-03 0. 0.
      0. 0. 0. 0. 0. 0. 0. 0. 0. 0. 0. 0. 0. 0. 0. 0. 0. 8.40336177e-03
      1.68067235e-02 8.40336177e-03 0. 0. 0. 0. 0. 0. 0. 0. 0. 0.
      8.40336177e-03 0. 0. 0. 0. 0. 0. 0. 0. 8.40336177e-03 0. 0. 0. 0.
      0. 0. 8.40336177e-03 0. 0. 0. 0. 0. 0. 0. 0. 0. 0. 0. 0. 0. 0. 0.
      0. 0. 0. 0. 0. 0. 0. 8.40336177e-03 0. 0. 0. 0. 0. 0. 0. 0. 0. 0.
      0. 0. 0. 0. 0. 0. 0. 8.40336177e-03 0. 0. 0. 0. 0. 0.
      8.40336177e-03 0. 0. 0. 0. 0. 0. 0. 0. 8.40336177e-03 0. 0. 0. 0.
      8.40336177e-03 0. 0. 8.40336177e-03 0. 0. 0. 0. 0. 0. 0.
      8.40336177e-03 0. 0. 0. 0. 0. 0. 0. 0. 8.40336177e-03 0. 0. 0. 0.
      0. 0. 8.40336177e-03 0. 0. 1.68067235e-02 0. 0. 0. 0. 0. 0.
      8.40336177e-03 0. 0. 8.40336177e-03 0. 0. 0. 0. 0. 0. 0.
      8.40336177e-03 0. 0. 0. 0. 8.40336177e-03 0. 0. 0. 0.
      8.40336177e-03 0. 0. 0. 0. 0. 0. 0. 0. 0. 0. 0. 0. 0. 0. 0. 0.
      8.40336177e-03 0. 0. 0. 0. 0. 0. 0. 0. 0. 8.40336177e-03
      8.40336177e-03 0. 0. 0. 0. 0. 0. 0. 0. 0. 0. 0. 0. 0.</_>
    <_>
      0. 0. 0. 0. 0. 0. 0. 0. 0. 0. 0. 0. 0. 0. 0. 0. 0. 0. 0. 0. 0.
      1.20481923e-02 0. 0. 0. 0. 0. 0. 0. 0. 0. 0. 1.20481923e-02
      1.20481923e-02 1.20481923e-02 0. 0. 0. 0. 0. 0. 1.20481923e-02 0.
      0. 0. 0. 1.20481923e-02 0. 0. 0. 0. 0. 0. 0. 0. 0. 0. 0. 0. 0. 0.
      0. 0. 0. 0. 0. 0. 2.40963846e-02 0. 1.20481923e-02 0. 0. 0. 0. 0.
      0. 0. 0. 0. 1.20481923e-02 0. 0. 0. 0. 0. 0. 0. 0. 0. 0. 0. 0. 0.
      0. 0. 0. 0. 0. 0. 0. 0. 0. 0. 0. 0. 1.20481923e-02 0. 0. 0. 0. 0.
      0. 0. 0. 1.20481923e-02 0. 0. 0. 0. 0. 0. 0. 0. 0. 0. 0. 0. 0. 0.
      0. 0. 0. 0. 0. 0. 0. 0. 0. 0. 0. 0. 0. 0. 0. 0. 0. 0. 0. 0. 0. 0.
      0. 0. 0. 0. 0. 0. 0. 0. 0. 0. 1.20481923e-02 0. 0. 0. 0. 0. 0. 0.
      0. 0. 0. 1.20481923e-02 0. 0. 1.20481923e-02 0. 0. 0. 0. 0. 0. 0.
      0. 0. 0. 0. 0. 0. 0. 0. 1.20481923e-02 0. 0. 0. 0. 0. 0. 0. 0. 0.
      1.20481923e-02 0. 0. 0. 0. 0. 0. 0. 0. 0. 0. 0. 0. 0. 0. 0. 0. 0.
      1.20481923e-02 0. 1.20481923e-02 0. 0. 0. 0. 0. 0. 0. 0. 0.
      1.20481923e-02 0. 0. 0. 0. 0. 0. 0. 0. 0. 0. 0. 0. 0. 0. 0. 0. 0.
      0. 0. 0. 0. 0. 0. 0. 0. 0. 0. 0. 0. 0. 0. 0. 0. 0. 0. 0. 0. 0. 0.
      0. 2.40963846e-02 0. 0. 0. 0. 0. 0. 0. 0. 0. 0. 0. 0. 0. 0. 0. 0.
      0. 0. 0. 0. 0. 0. 0. 0. 0. 0. 0. 0. 0. 0. 0. 0. 0. 0. 0. 0. 0. 0.
      0. 1.20481923e-02 0. 0. 0. 0. 0. 0. 0. 1.20481923e-02 0. 0. 0. 0.
      0. 0. 0. 0. 0. 0. 0. 0. 0. 0. 0. 0. 0. 1.20481923e-02 0. 0. 0. 0.
      0. 0. 0. 0. 1.20481923e-02 0. 0. 0. 0. 0. 0. 0. 0. 0. 0. 0. 0. 0.
      0. 0. 0. 0. 0. 0. 0. 0. 0. 0. 1.20481923e-02 0. 0. 0. 0. 0. 0. 0.
      0. 1.20481923e-02 0. 0. 0. 0. 0. 0. 0. 0. 0. 0. 0. 0.
      1.20481923e-02 0. 0. 0. 0. 0. 0. 0. 0. 0. 0. 0. 0. 0. 0. 0. 0. 0.
      0. 0. 0. 0. 0. 0. 0. 0. 0. 0. 0. 0. 0. 0. 0. 0. 1.20481923e-02 0.
      0. 0. 0. 0. 0. 0. 0. 0. 0. 0. 0. 0. 0. 0. 0. 0. 0. 0. 0. 0. 0. 0.
      0. 0. 0. 1.20481923e-02 0. 0. 0. 0. 0. 0. 1.20481923e-02 0. 0. 0.
      0. 0. 0. 0. 0. 0. 0. 0. 0. 0. 1.20481923e-02 0. 0. 0. 0. 0.
      2.40963846e-02 0. 0. 0. 0. 0. 0. 0. 0. 0. 0. 0. 0. 0. 0. 0.
      1.20481923e-02 0. 0. 0. 0. 1.20481923e-02 0. 0. 0. 0. 0. 0. 0. 0.
      0. 0. 0. 0. 0. 0. 0. 0. 0. 0. 0. 0. 0. 0. 0. 0. 0. 0. 0. 0. 0. 0.
      0. 0. 0. 0. 0. 0. 0. 0. 1.20481923e-02 0. 0. 0. 0. 0. 0. 0. 0. 0.
      0. 0. 2.40963846e-02 0. 0. 0. 0. 0. 0. 0. 0. 0. 0. 0. 0. 0. 0. 0.
      0. 0. 0. 1.20481923e-02 0. 0. 0. 0. 0. 0. 0. 0. 0. 0. 0. 0. 0. 0.
      0. 0. 0. 0. 0. 0. 0. 0. 0. 0. 0. 0. 0. 0. 0. 0. 0. 0. 0. 0.
      1.20481923e-02 0. 1.20481923e-02 0. 0. 0. 0. 0. 0. 0.
      1.20481923e-02 0. 1.20481923e-02 0. 0. 0. 0. 0. 0. 0. 0. 0. 0. 0.
      0. 0. 0. 0. 0. 1.20481923e-02 1.20481923e-02 0. 0. 0. 0. 0. 0. 0.
      0. 0. 0. 1.20481923e-02 0. 0. 0. 0. 0. 0. 0. 0. 0. 0. 0. 0.
      1.20481923e-02 0. 0. 0. 0. 2.40963846e-02 0. 0. 0. 0. 0. 0.
      1.20481923e-02 0. 0. 0. 0. 0. 0. 0. 0. 0. 0. 0. 0. 0. 0. 0. 0. 0.
      0. 0. 0. 0. 0. 0. 0. 0. 0. 0. 0. 0. 0. 0. 0. 0. 2.40963846e-02 0.
      0. 0. 0. 0. 0. 0. 0. 0. 0. 0. 0. 0. 0. 0. 0. 0. 0. 0. 0. 0. 0. 0.
      0. 0. 0. 0. 0. 0. 0. 0. 0. 0. 0. 0. 0. 0. 0. 0. 0. 0. 0. 0. 0. 0.
      0. 2.40963846e-02 0. 1.20481923e-02 0. 0. 0. 0. 0. 0. 0. 0. 0. 0.
      0. 0. 0. 0. 1.20481923e-02 0. 0. 0. 0. 0. 0. 0. 0. 1.20481923e-02
      0. 0. 0. 0. 0. 0. 0. 0. 0. 0. 0. 0. 0. 0. 0. 0. 0. 0. 0. 0. 0. 0.
      0. 0. 0. 0. 0. 0. 0. 0. 0. 0. 0. 0. 0. 0. 0. 0. 1.20481923e-02 0.
      0. 1.20481923e-02 0. 0. 0. 0. 0. 0. 0. 0. 1.20481923e-02 0. 0. 0.
      0. 0. 0. 0. 0. 0. 0. 1.20481923e-02 0. 0. 1.20481923e-02
      2.40963846e-02 0. 1.20481923e-02 0. 0. 0. 0. 0. 0. 1.20481923e-02
      0. 0. 0. 0. 0. 0. 0. 0. 0. 0. 0. 0. 0. 0. 0. 0. 0. 0. 0. 0. 0. 0.
      0. 0. 0. 0. 0. 0. 0. 0. 0. 0. 0. 0. 0. 0. 0. 0. 0. 1.20481923e-02
      0. 0. 0. 0. 0. 0. 0. 0. 0. 1.20481923e-02 0. 1.20481923e-02 0. 0.
      1.20481923e-02 0. 0. 0. 0. 0. 1.20481923e-02 0. 0. 0.
      1.20481923e-02 0. 0. 0. 0. 0. 0. 0. 0. 0. 0. 0. 0. 0.
      1.20481923e-02 0. 0. 2.40963846e-02 0. 0. 0. 1.20481923e-02 0. 0.
      0. 0. 0. 0. 0. 0. 0. 0. 0. 0. 0. 0. 0. 0. 0. 0. 0. 0. 0. 0. 0. 0.
      0. 0. 0. 0. 0. 0. 0. 0. 0. 0. 0. 0. 0. 1.20481923e-02 0. 0. 0. 0.
      0. 1.20481923e-02 1.20481923e-02 0. 0. 0. 0. 0. 1.20481923e-02 0.
      0. 0. 0. 0. 1.20481923e-02 0.</_>
    <_>
      1.65745858e-02 0. 0. 0. 0. 0. 0. 0. 0. 5.52486209e-03 0. 0. 0. 0.
      0. 0. 0. 0. 0. 0. 1.10497242e-02 0. 0. 5.52486209e-03 0. 0. 0. 0.
      0. 0. 0. 0. 1.10497242e-02 0. 0. 0. 0. 0. 0. 0. 5.52486209e-03
      5.52486209e-03 5.52486209e-03 0. 5.52486209e-03 0. 5.52486209e-03
      0. 0. 0. 0. 5.52486209e-03 5.52486209e-03 0. 0. 0. 0. 0. 0.
      1.10497242e-02 0. 0. 0. 0. 0. 0. 0. 0. 0. 0. 0. 0. 0.
      5.52486209e-03 0. 5.52486209e-03 0. 0. 0. 0. 0. 5.52486209e-03 0.
      0. 0. 0. 0. 0. 0. 0. 5.52486209e-03 0. 0. 0. 0. 0. 0. 0. 0. 0. 0.
      1.10497242e-02 0. 0. 0. 5.52486209e-03 0. 0. 0. 0. 0. 0. 0. 0.
      5.52486209e-03 5.52486209e-03 0. 0. 0. 0. 0. 0. 0. 0. 0. 0. 0.
      5.52486209e-03 5.52486209e-03 0. 0. 0. 0. 0. 0. 0. 0.
      5.52486209e-03 0. 0. 5.52486209e-03 0. 0. 0. 1.65745858e-02 0. 0.
      0. 0. 0. 0. 0. 0. 5.52486209e-03 0. 0. 0. 0. 0. 0. 0. 0. 0. 0. 0.
      0. 5.52486209e-03 0. 0. 0. 0. 0. 0. 0. 0. 0. 0. 5.52486209e-03 0.
      0. 5.52486209e-03 0. 0. 0. 0. 0. 0. 0. 0. 0. 0. 5.52486209e-03 0.
      0. 0. 0. 0. 0. 0. 5.52486209e-03 0. 5.52486209e-03 0. 0. 0. 0. 0.
      0. 0. 0. 0. 0. 0. 0. 0. 0. 5.52486209e-03 0. 0. 0. 0.
      5.52486209e-03 0. 0. 0. 0. 0. 0. 0. 0. 0. 1.10497242e-02 0. 0. 0.
      0. 0. 5.52486209e-03 5.52486209e-03 0. 0. 0. 0. 5.52486209e-03 0.
      0. 0. 0. 0. 0. 0. 0. 0. 0. 0. 5.52486209e-03 5.52486209e-03 0. 0.
      0. 0. 1.65745858e-02 0. 0. 0. 0. 0. 0. 0. 0. 0. 0. 1.10497242e-02
      0. 0. 0. 0. 0. 5.52486209e-03 0. 0. 0. 5.52486209e-03 0. 0. 0. 0.
      0. 0. 0. 0. 0. 0. 5.52486209e-03 5.52486209e-03 5.52486209e-03 0.
      0. 0. 0. 0. 0. 0. 0. 0. 0. 0. 0. 0. 0. 0. 0. 5.52486209e-03 0. 0.
      5.52486209e-03 5.52486209e-03 0. 0. 0. 0. 0. 0. 0. 0. 0. 0.
      5.52486209e-03 0. 0. 0. 0. 0. 0. 0. 0. 0. 0. 0. 0. 0. 0. 0. 0. 0.
      0. 5.52486209e-03 0. 0. 5.52486209e-03 0. 0. 0. 0. 0. 0. 0. 0. 0.
      0. 0. 0. 0. 0. 0. 0. 0. 0. 0. 0. 0. 0. 0. 0. 0. 0. 0. 0.
      5.52486209e-03 5.52486209e-03 0. 0. 0. 0. 0. 0. 0. 0. 0. 0.
      5.52486209e-03 0. 0. 0. 0. 0. 0. 0. 0. 0. 0. 0. 0. 0.
      5.52486209e-03 0. 0. 0. 5.52486209e-03 0. 5.52486209e-03 0. 0.
      5.52486209e-03 0. 0. 0. 0. 0. 5.52486209e-03 0. 0. 0. 0.
      1.10497242e-02 0. 0. 0. 0. 0. 0. 5.52486209e-03 0. 5.52486209e-03
      0. 0. 5.52486209e-03 0. 0. 0. 0. 0. 0. 0. 0. 0. 0. 0. 0. 0. 0. 0.
      0. 0. 0. 0. 0. 0. 5.52486209e-03 0. 0. 0. 5.52486209e-03 0. 0. 0.
      0. 0. 0. 0. 0. 5.52486209e-03 0. 0. 0. 5.52486209e-03 0. 0. 0. 0.
      0. 0. 0. 0. 0. 0. 0. 0. 0. 0. 5.52486209e-03 0. 0. 5.52486209e-03
      0. 0. 0. 0. 5.52486209e-03 5.52486209e-03 0. 1.10497242e-02 0. 0.
      0. 0. 0. 0. 0. 0. 0. 5.52486209e-03 0. 0. 0. 0. 0. 0.
      5.52486209e-03 0. 5.52486209e-03 0. 5.52486209e-03 1.10497242e-02
      0. 0. 0. 1.10497242e-02 0. 0. 0. 0. 0. 0. 0. 5.52486209e-03 0. 0.
      0. 0. 0. 0. 0. 0. 0. 0. 0. 0. 0. 0. 0. 0. 0. 5.52486209e-03 0. 0.
      0. 0. 0. 5.52486209e-03 5.52486209e-03 0. 0. 0. 0. 0. 0. 0. 0. 0.
      0. 1.65745858e-02 5.52486209e-03 0. 0. 0. 0. 0. 0. 0. 0. 0. 0. 0.
      0. 0. 5.52486209e-03 0. 0. 0. 0. 0. 0. 0. 0. 0. 0. 0. 0. 0. 0. 0.
      0. 0. 0. 0. 5.52486209e-03 0. 0. 0. 0. 0. 0. 0. 0. 0. 0. 0. 0. 0.
      0. 0. 0. 0. 0. 0. 0. 0. 0. 0. 0. 0. 0. 0. 0. 5.52486209e-03 0.
      5.52486209e-03 0. 0. 0. 0. 0. 0. 0. 5.52486209e-03 0. 0.
      5.52486209e-03 5.52486209e-03 0. 0. 0. 0. 0. 0. 0. 0. 0. 0. 0.
      2.20994484e-02 0. 1.10497242e-02 0. 0. 5.52486209e-03 0. 0. 0. 0.
      0. 1.10497242e-02 1.65745858e-02 0. 5.52486209e-03 0. 0. 0. 0. 0.
      0. 0. 0. 0. 5.52486209e-03 0. 0. 0. 0. 0. 0. 0. 0. 0. 0. 0. 0. 0.
      0. 0. 5.52486209e-03 0. 0. 0. 5.52486209e-03 0. 5.52486209e-03
      5.52486209e-03 0. 0. 0. 0. 5.52486209e-03 0. 0. 5.52486209e-03 0.
      5.52486209e-03 0. 0. 0. 0. 0. 0. 5.52486209e-03 0. 5.52486209e-03
      0. 0. 0. 0. 0. 2.20994484e-02 0. 0. 0. 5.52486209e-03 0. 0.
      5.52486209e-03 0. 0. 0. 0. 0. 5.52486209e-03 0. 0. 0. 0. 0. 0. 0.
      5.52486209e-03 0. 0. 0. 1.10497242e-02 0. 0. 0. 0. 0. 0. 0. 0. 0.
      0. 5.52486209e-03 0. 0. 0. 0. 5.52486209e-03 0. 0. 0. 0. 0. 0. 0.
      0. 0. 5.52486209e-03 0. 0. 0. 0. 0. 0. 0. 0. 0. 0. 0. 0. 0. 0. 0.
      0. 0. 0. 0. 0. 0. 0. 0. 1.10497242e-02 0. 1.10497242e-02 0. 0. 0.
      0. 0. 0. 0. 0. 0. 0. 0. 1.10497242e-02 0. 0. 0. 0. 0. 0. 0. 0.
      5.52486209e-03 0. 0. 0. 0. 5.52486209e-03 0. 0. 0. 0. 0. 0. 0.
      5.52486209e-03 0. 0. 0. 0. 0. 0. 0. 0. 0. 5.52486209e-03
      5.52486209e-03 0. 0. 0. 0. 0. 0. 5.52486209e-03 0. 0. 0. 0. 0. 0.
      0. 0. 0. 0. 0. 5.52486209e-03 0. 0. 0. 0. 0. 0. 0. 0. 0. 0. 0. 0.
      0. 0. 5.52486209e-03 0. 0. 0. 0. 0. 5.52486209e-03 0. 0. 0. 0. 0.
      0. 0. 0. 0. 0. 0. 5.52486209e-03 0. 1.65745858e-02 5.52486209e-03
      5.52486209e-03 0. 0. 0. 0. 0. 0. 0. 0. 0. 0. 0. 0. 0. 0. 0. 0. 0.
      0. 0. 0. 0. 0. 5.52486209e-03 0. 0. 1.10497242e-02 0. 0. 0. 0. 0.
      0. 0. 0. 0. 0. 0. 0. 0. 1.10497242e-02 0. 0. 0. 0. 0. 0.
      1.10497242e-02 0. 5.52486209e-03 0. 5.52486209e-03 0. 0. 0. 0. 0.
      0. 0. 0. 0. 0. 0. 0. 0. 0. 0. 0. 5.52486209e-03 0. 0. 0. 0. 0.
      5.52486209e-03 5.52486209e-03 0. 0. 0. 0. 0. 0. 0. 0. 0. 0. 0. 0.
      0.</_>
    <_>
      9.38967150e-03 0. 0. 0. 0. 4.69483575e-03 0. 0. 0. 0.
      9.38967150e-03 0. 0. 4.69483575e-03 4.69483575e-03 0. 0. 0. 0. 0.
      1.40845068e-02 0. 0. 0. 0. 0. 0. 0. 0. 0. 0. 0. 1.40845068e-02 0.
      0. 0. 0. 0. 0. 0. 4.69483575e-03 4.69483575e-03 0. 0. 0. 0.
      1.40845068e-02 0. 0. 0. 0. 0. 4.69483575e-03 0. 0. 0. 0.
      4.69483575e-03 0. 4.69483575e-03 0. 0. 0. 4.69483575e-03 0. 0. 0.
      4.69483575e-03 0. 0. 0. 9.38967150e-03 0. 9.38967150e-03 0. 0. 0.
      0. 0. 0. 0. 4.69483575e-03 0. 0. 0. 0. 0. 0. 0. 0. 0. 0. 0. 0. 0.
      0. 0. 0. 0. 0. 0. 4.69483575e-03 0. 0. 0. 0. 0. 0. 0. 0. 0. 0. 0.
      0. 4.69483575e-03 0. 0. 0. 4.69483575e-03 0. 0. 0. 0. 0. 0. 0. 0.
      4.69483575e-03 9.38967150e-03 0. 0. 0. 0. 4.69483575e-03 0. 0. 0.
      4.69483575e-03 0. 0. 0. 0. 4.69483575e-03 0. 1.87793430e-02 0.
      4.69483575e-03 0. 0. 4.69483575e-03 0. 0. 0. 4.69483575e-03 0.
      4.69483575e-03 0. 0. 4.69483575e-03 0. 0. 0. 0. 0. 0. 0.
      4.69483575e-03 0. 0. 0. 0. 0. 4.69483575e-03 0. 0. 4.69483575e-03
      0. 0. 0. 0. 4.69483575e-03 0. 0. 0. 0. 0. 0. 0. 0. 0. 0. 0. 0. 0.
      9.38967150e-03 0. 0. 0. 0. 0. 0. 1.40845068e-02 0. 0. 0. 0. 0. 0.
      0. 0. 0. 4.69483575e-03 0. 0. 0. 0. 0. 0. 0. 4.69483575e-03
      4.69483575e-03 0. 0. 0. 0. 0. 0. 0. 4.69483575e-03 0.
      4.69483575e-03 4.69483575e-03 0. 0. 0. 0. 0. 4.69483575e-03
      4.69483575e-03 0. 4.69483575e-03 0. 0. 0. 0. 0. 0. 0. 0. 0. 0. 0.
      0. 0. 0. 0. 0. 0. 0. 0. 0. 4.69483575e-03 0. 0. 4.69483575e-03 0.
      0. 0. 0. 0. 0. 0. 9.38967150e-03 0. 0. 4.69483575e-03 0. 0.
      4.69483575e-03 0. 0. 0. 0. 0. 0. 0. 0. 0. 0. 0. 0. 0. 0. 0.
      4.69483575e-03 4.69483575e-03 4.69483575e-03 0. 9.38967150e-03 0.
      0. 0. 0. 0. 0. 0. 0. 0. 0. 0. 0. 0. 0. 0. 0. 4.69483575e-03 0. 0.
      0. 0. 4.69483575e-03 0. 0. 0. 0. 0. 0. 1.87793430e-02 0. 0. 0. 0.
      0. 0. 0. 0. 0. 0. 0. 0. 0. 0. 4.69483575e-03 0. 0. 4.69483575e-03
      1.40845068e-02 4.69483575e-03 0. 0. 0. 0. 4.69483575e-03 0. 0. 0.
      0. 0. 0. 0. 0. 0. 0. 0. 0. 0. 0. 0. 0. 0. 0. 0. 0. 0. 0. 0. 0. 0.
      4.69483575e-03 0. 0. 0. 0. 0. 0. 0. 0. 0. 0. 0. 4.69483575e-03 0.
      0. 0. 4.69483575e-03 0. 0. 0. 0. 0. 0. 0. 0. 0. 0. 0. 0. 0.
      4.69483575e-03 0. 4.69483575e-03 0. 0. 4.69483575e-03 0. 0. 0. 0.
      0. 0. 0. 0. 0. 0. 0. 4.69483575e-03 4.69483575e-03 4.69483575e-03
      0. 0. 0. 0. 0. 9.38967150e-03 0. 0. 0. 0. 0. 0. 0. 0. 0. 0. 0. 0.
      0. 0. 0. 0. 0. 0. 0. 0. 0. 0. 0. 0. 4.69483575e-03 0. 0. 0. 0. 0.
      0. 0. 0. 0. 0. 0. 0. 0. 0. 0. 0. 4.69483575e-03 0. 0. 0. 0. 0.
      4.69483575e-03 0. 0. 0. 0. 0. 0. 4.69483575e-03 0. 4.69483575e-03
      0. 0. 4.69483575e-03 0. 0. 0. 0. 0. 4.69483575e-03 0.
      4.69483575e-03 0. 4.69483575e-03 0. 0. 0. 0. 0. 0. 0. 0. 0. 0. 0.
      0. 0. 0. 4.69483575e-03 0. 0. 0. 0. 9.38967150e-03 0. 0. 0. 0. 0.
      0. 4.69483575e-03 9.38967150e-03 0. 0. 0. 0. 0. 0. 0. 0. 0. 0. 0.
      0. 0. 0. 0. 0. 0. 0. 0. 0. 0. 0. 0. 0. 0. 0. 0. 0. 4.69483575e-03
      0. 0. 0. 0. 0. 0. 0. 4.69483575e-03 0. 0. 1.87793430e-02
      4.69483575e-03 0. 0. 0. 0. 0. 0. 0. 0. 0. 0. 0. 0. 0.
      4.69483575e-03 0. 0. 4.69483575e-03 0. 0. 0. 0. 0. 0. 0. 0. 0. 0.
      0. 0. 0. 0. 4.69483575e-03 0. 9.38967150e-03 0. 0. 0. 0. 0. 0. 0.
      0. 0. 0. 0. 0. 0. 0. 0. 0. 0. 0. 0. 0. 4.69483575e-03 0. 0. 0. 0.
      0. 4.69483575e-03 0. 4.69483575e-03 0. 9.38967150e-03 0. 0. 0. 0.
      0. 0. 0. 4.69483575e-03 0. 4.69483575e-03 0. 0. 0. 0. 0. 0. 0. 0.
      0. 4.69483575e-03 0. 0. 0. 9.38967150e-03 0. 4.69483575e-03 0. 0.
      4.69483575e-03 0. 0. 0. 0. 0. 4.69483575e-03 9.38967150e-03 0. 0.
      0. 0. 0. 0. 0. 0. 0. 9.38967150e-03 0. 4.69483575e-03 0. 0. 0. 0.
      0. 0. 0. 0. 0. 4.69483575e-03 0. 0. 0. 0. 0. 0. 0. 4.69483575e-03
      0. 0. 0. 0. 4.69483575e-03 0. 0. 0. 0. 4.69483575e-03 0. 0.
      4.69483575e-03 0. 0. 0. 0. 0. 0. 0. 0. 0. 4.69483575e-03 0. 0. 0.
      0. 0. 4.69483575e-03 1.87793430e-02 0. 4.69483575e-03 0.
      4.69483575e-03 0. 0. 4.69483575e-03 0. 0. 0. 0. 0. 4.69483575e-03
      0. 4.69483575e-03 0. 0. 0. 0. 0. 9.38967150e-03 0. 0. 0.
      9.38967150e-03 0. 0. 0. 0. 0. 0. 4.69483575e-03 0. 0. 0. 0. 0. 0.
      0. 0. 0. 0. 0. 0. 0. 0. 9.38967150e-03 0. 0. 4.69483575e-03 0. 0.
      4.69483575e-03 0. 0. 0. 0. 0. 0. 0. 0. 0. 0. 0. 0. 0. 0.
      4.69483575e-03 0. 9.38967150e-03 0. 0. 0. 0. 9.38967150e-03 0.
      4.69483575e-03 0. 4.69483575e-03 0. 0. 0. 0. 0. 0. 0. 0. 0.
      9.38967150e-03 0. 0. 0. 0. 0. 0. 0. 0. 4.69483575e-03 0. 0. 0. 0.
      0. 0. 4.69483575e-03 0. 0. 0. 0. 0. 4.69483575e-03 0.
      4.69483575e-03 0. 0. 0. 0. 0. 0. 0. 4.69483575e-03 9.38967150e-03
      0. 4.69483575e-03 0. 4.69483575e-03 0. 0. 4.69483575e-03 0. 0. 0.
      0. 0. 0. 0. 0. 0. 0. 0. 9.38967150e-03 0. 0. 0. 0. 9.38967150e-03
      4.69483575e-03 0. 0. 0. 0. 0. 0. 0. 0. 0. 0. 4.69483575e-03 0. 0.
      0. 4.69483575e-03 0. 0. 0. 0. 0. 0. 0. 0. 0. 4.69483575e-03 0.
      9.38967150e-03 0. 9.38967150e-03 4.69483575e-03 0. 0. 0. 0. 0. 0.
      0. 0. 0. 0. 0. 0. 0. 0. 0. 0. 0. 0. 0. 0. 0. 0. 4.69483575e-03 0.
      0. 0. 4.69483575e-03 0. 0. 4.69483575e-03 0. 0. 0. 0. 0.
      4.69483575e-03 0. 4.69483575e-03 0. 4.69483575e-03 4.69483575e-03
      0. 0. 0. 0. 0. 0. 4.69483575e-03 0. 0. 0. 4.69483575e-03 0. 0. 0.
      4.69483575e-03 0. 0. 0. 0. 4.69483575e-03 0. 0. 0. 0. 0. 0. 0. 0.
      0. 0. 0. 0. 0. 0. 4.69483575e-03 0. 0. 0. 0. 0. 0. 0. 0. 0. 0. 0.
      0. 0.</_>
    <_>
      1.21951215e-02 0. 0. 0. 0. 0. 0. 0. 0. 0. 0. 0. 0. 0. 0. 0. 0. 0.
      0. 0. 1.21951215e-02 0. 0. 0. 0. 0. 0. 0. 0. 0. 0. 0.
      2.43902430e-02 0. 0. 0. 0. 0. 0. 0. 0. 1.21951215e-02 0. 0. 0. 0.
      0. 0. 0. 0. 0. 0. 0. 0. 0. 0. 0. 0. 0. 1.21951215e-02 0. 0. 0. 0.
      0. 0. 0. 0. 0. 0. 0. 0. 0. 1.21951215e-02 1.21951215e-02
      1.21951215e-02 0. 0. 0. 2.43902430e-02 0. 0. 0. 0. 0. 0. 0. 0. 0.
      0. 0. 0. 0. 0. 0. 0. 0. 0. 0. 0. 0. 0. 0. 0. 0. 0. 0. 0. 0. 0. 0.
      0. 0. 0. 0. 0. 0. 0. 0. 0. 0. 0. 0. 0. 0. 0. 0. 0. 0. 0. 0. 0. 0.
      1.21951215e-02 0. 0. 0. 0. 0. 0. 0. 0. 0. 0. 2.43902430e-02 0. 0.
      0. 0. 0. 0. 0. 0. 0. 0. 0. 0. 0. 0. 0. 0. 0. 0. 0. 0. 0.
      1.21951215e-02 0. 0. 0. 0. 0. 0. 0. 0. 0. 0. 0. 1.21951215e-02 0.
      0. 0. 0. 0. 0. 0. 0. 1.21951215e-02 0. 1.21951215e-02 0. 0. 0. 0.
      1.21951215e-02 0. 0. 0. 0. 0. 0. 1.21951215e-02 0. 0. 0. 0. 0. 0.
      0. 0. 0. 0. 0. 0. 0. 0. 0. 0. 0. 0. 1.21951215e-02 0. 0. 0. 0. 0.
      0. 0. 0. 0. 0. 2.43902430e-02 0. 0. 0. 0. 0. 0. 0. 0. 0. 0. 0. 0.
      0. 0. 0. 0. 0. 0. 0. 0. 0. 0. 0. 0. 0. 0. 0. 0. 0. 0.
      1.21951215e-02 0. 0. 0. 0. 0. 0. 0. 0. 0. 2.43902430e-02 0. 0. 0.
      0. 0. 0. 0. 0. 0. 0. 0. 0. 0. 0. 0. 0. 0. 0. 0. 0. 0. 0.
      1.21951215e-02 0. 0. 0. 0. 0. 0. 0. 0. 0. 0. 0. 1.21951215e-02 0.
      0. 0. 0. 0. 0. 0. 1.21951215e-02 1.21951215e-02 0. 0. 0. 0. 0. 0.
      0. 0. 0. 0. 0. 0. 0. 0. 0. 0. 0. 0. 0. 0. 0. 0. 0. 0. 0. 0. 0. 0.
      1.21951215e-02 1.21951215e-02 0. 0. 0. 0. 0. 0. 0. 0. 0. 0. 0. 0.
      0. 0. 0. 0. 0. 0. 0. 0. 0. 0. 0. 0. 0. 0. 0. 0. 0. 0. 0. 0. 0. 0.
      0. 0. 0. 0. 0. 0. 0. 0. 0. 0. 0. 0. 0. 0. 0. 0. 0. 0. 0. 0. 0. 0.
      0. 0. 0. 0. 0. 1.21951215e-02 0. 1.21951215e-02 0. 0. 0. 0. 0. 0.
      0. 0. 0. 0. 0. 0. 0. 1.21951215e-02 1.21951215e-02 0.
      1.21951215e-02 0. 0. 0. 0. 0. 0. 0. 0. 0. 0. 0. 0. 0.
      1.21951215e-02 0. 0. 0. 0. 0. 0. 0. 0. 0. 0. 0. 0. 0. 0. 0. 0. 0.
      0. 0. 0. 0. 0. 0. 1.21951215e-02 0. 0. 0. 0. 0. 0. 0. 0. 0. 0. 0.
      0. 0. 0. 0. 0. 0. 0. 0. 0. 0. 0. 0. 0. 0. 0. 0. 0. 0. 0. 0.
      1.21951215e-02 0. 1.21951215e-02 0. 0. 0. 0. 0. 0. 0. 0. 0. 0. 0.
      1.21951215e-02 0. 0. 0. 0. 0. 0. 0. 0. 0. 0. 0. 0. 0. 0. 0. 0. 0.
      0. 0. 0. 0. 0. 0. 0. 0. 0. 0. 0. 0. 0. 0. 0. 0. 0. 0. 0. 0. 0. 0.
      1.21951215e-02 0. 1.21951215e-02 0. 0. 0. 0. 0. 1.21951215e-02 0.
      0. 1.21951215e-02 0. 0. 0. 0. 0. 0. 0. 0. 0. 0. 0. 0. 0. 0. 0. 0.
      0. 0. 0. 0. 0. 0. 0. 0. 0. 0. 1.21951215e-02 0. 0. 0.
      1.21951215e-02 0. 0. 0. 0. 0. 0. 0. 0. 0. 0. 0. 0. 0. 0. 0. 0. 0.
      0. 0. 0. 0. 0. 0. 0. 0. 0. 0. 0. 0. 0. 0. 0. 0. 0. 0. 0. 0. 0. 0.
      0. 0. 0. 0. 0. 0. 0. 0. 0. 0. 0. 0. 0. 0. 0. 0. 0. 0. 0. 0. 0. 0.
      0. 0. 0. 0. 0. 0. 1.21951215e-02 0. 1.21951215e-02 0. 0.
      1.21951215e-02 0. 0. 0. 0. 0. 1.21951215e-02 1.21951215e-02
      1.21951215e-02 1.21951215e-02 0. 0. 0. 0. 0. 0. 0. 0. 0. 0. 0.
      1.21951215e-02 0. 0. 0. 0. 0. 0. 0. 1.21951215e-02 0. 0. 0. 0. 0.
      0. 0. 0. 0. 0. 0. 1.21951215e-02 0. 0. 0. 0. 0. 0. 0. 0. 0. 0. 0.
      0. 0. 0. 1.21951215e-02 0. 0. 0. 1.21951215e-02 0. 0. 0. 0. 0. 0.
      0. 0. 0. 0. 1.21951215e-02 0. 0. 1.21951215e-02 0. 0. 0. 0. 0. 0.
      0. 0. 0. 0. 0. 0. 0. 0. 0. 0. 0. 0. 0. 0. 0. 0. 0. 0. 0. 0. 0. 0.
      0. 0. 0. 0. 0. 0. 0. 0. 0. 0. 0. 0. 0. 0. 0. 1.21951215e-02 0.
      1.21951215e-02 1.21951215e-02 0. 0. 0. 1.21951215e-02 0. 0. 0. 0.
      0. 0. 0. 0. 0. 0. 0. 0. 0. 0. 0. 0. 1.21951215e-02 0. 0. 0. 0. 0.
      0. 0. 0. 0. 0. 0. 0. 0. 1.21951215e-02 0. 0. 0. 0. 0. 0. 0. 0. 0.
      0. 0. 0. 0. 0. 0. 0. 0. 0. 0. 0. 0. 0. 0. 0. 0. 0. 0. 0. 0. 0. 0.
      0. 1.21951215e-02 0. 0. 0. 0. 0. 0. 0. 0. 0. 0. 0. 0. 0. 0. 0. 0.
      0. 0. 0. 0. 0. 0. 0. 0. 1.21951215e-02 0. 0. 0. 0. 0. 0. 0. 0. 0.
      0. 1.21951215e-02 0. 0. 0. 0. 0. 0. 0. 0. 0. 0. 0. 0. 0. 0. 0. 0.
      0. 1.21951215e-02 1.21951215e-02 1.21951215e-02 0. 0. 0. 0. 0. 0.
      0. 0. 1.21951215e-02 0. 0. 0. 0. 0. 0. 0. 0. 0. 0. 0. 0. 0. 0. 0.
      0. 0. 0. 0. 0. 0. 0. 0. 0. 0. 0. 0. 0. 0. 0. 1.21951215e-02
      1.21951215e-02 1.21951215e-02 0. 0. 0. 0. 2.43902430e-02 0. 0. 0.
      0. 0. 0. 0. 0. 0. 0. 0. 0. 0. 0. 0. 0. 0. 0. 0. 0. 0. 0. 0. 0. 0.
      0. 1.21951215e-02 0. 0. 0. 0. 0. 0. 1.21951215e-02 0. 0. 0. 0. 0.
      0. 0.</_>
    <_>
      3.09278332e-02 0. 0. 0. 0. 0. 0. 0. 0. 0. 0. 0. 0. 0. 0. 0. 0. 0.
      0. 0. 0. 1.03092780e-02 0. 0. 0. 0. 0. 0. 1.03092780e-02 0. 0. 0.
      0. 0. 0. 0. 0. 0. 0. 0. 0. 0. 0. 0. 0. 0. 0. 0. 0. 0. 0. 0. 0. 0.
      0. 0. 0. 0. 0. 1.03092780e-02 0. 0. 0. 1.03092780e-02 0. 0. 0. 0.
      0. 0. 0. 1.03092780e-02 0. 1.03092780e-02 0. 1.03092780e-02 0. 0.
      0. 0. 0. 0. 0. 0. 0. 0. 0. 0. 0. 0. 0. 0. 0. 0. 0. 0. 0. 0. 0. 0.
      0. 1.03092780e-02 0. 0. 1.03092780e-02 0. 0. 0. 0. 0. 0. 0. 0. 0.
      1.03092780e-02 0. 0. 0. 0. 0. 0. 0. 0. 0. 0. 0. 0. 0. 0. 0. 0.
      1.03092780e-02 0. 0. 0. 0. 0. 0. 0. 0. 0. 0. 0. 0. 0. 0. 0. 0. 0.
      0. 0. 0. 0. 0. 0. 0. 0. 0. 0. 0. 0. 0. 0. 0. 0. 0. 1.03092780e-02
      0. 0. 0. 0. 0. 0. 0. 0. 0. 0. 0. 0. 0. 0. 0. 0. 0. 1.03092780e-02
      0. 0. 0. 0. 0. 0. 0. 0. 0. 2.06185561e-02 0. 0. 0. 0. 0. 0. 0. 0.
      0. 0. 0. 0. 0. 0. 0. 0. 0. 0. 0. 0. 0. 0. 0. 1.03092780e-02 0.
      1.03092780e-02 0. 0. 0. 2.06185561e-02 0. 0. 0. 0. 0. 0. 0. 0. 0.
      0. 0. 0. 1.03092780e-02 1.03092780e-02 0. 0. 0. 0. 0. 0. 0. 0. 0.
      0. 0. 0. 0. 0. 0. 0. 1.03092780e-02 0. 1.03092780e-02 0. 0. 0. 0.
      0. 0. 0. 0. 0. 0. 0. 0. 0. 0. 3.09278332e-02 0. 0. 0. 0. 0. 0. 0.
      0. 0. 0. 0. 0. 0. 0. 0. 0. 0. 0. 0. 0. 0. 0. 0. 0. 0. 0. 0. 0. 0.
      0. 0. 0. 0. 0. 0. 0. 0. 0. 0. 0. 0. 0. 0. 0. 0. 0. 0. 0. 0. 0. 0.
      0. 0. 0. 1.03092780e-02 0. 0. 0. 1.03092780e-02 0. 0. 0. 0. 0. 0.
      0. 0. 0. 0. 1.03092780e-02 0. 0. 0. 0. 0. 0. 1.03092780e-02 0. 0.
      0. 0. 0. 0. 0. 0. 0. 0. 0. 0. 0. 0. 0. 0. 0. 0. 0. 0.
      1.03092780e-02 0. 0. 0. 0. 0. 0. 0. 0. 0. 1.03092780e-02 0. 0. 0.
      0. 0. 0. 0. 0. 0. 1.03092780e-02 0. 0. 0. 0. 0. 1.03092780e-02 0.
      0. 0. 0. 0. 0. 0. 0. 0. 0. 0. 0. 0. 0. 0. 0. 1.03092780e-02 0. 0.
      0. 0. 0. 0. 0. 0. 0. 0. 0. 0. 0. 0. 0. 1.03092780e-02
      1.03092780e-02 0. 0. 1.03092780e-02 0. 1.03092780e-02 0. 0. 0. 0.
      0. 0. 0. 0. 0. 0. 0. 0. 0. 0. 0. 0. 0. 0. 0. 0. 0. 0. 0. 0. 0. 0.
      0. 0. 0. 0. 0. 0. 0. 0. 0. 0. 0. 0. 0. 0. 0. 0. 0. 0. 0. 0. 0. 0.
      0. 0. 0. 0. 0. 0. 0. 0. 0. 0. 0. 0. 0. 0. 0. 0. 0. 0.
      1.03092780e-02 0. 1.03092780e-02 0. 0. 0. 0. 0. 0. 0. 0. 0. 0. 0.
      0. 0. 0. 0. 0. 0. 0. 0. 0. 0. 0. 0. 0. 0. 0. 1.03092780e-02 0. 0.
      0. 0. 0. 0. 0. 0. 0. 0. 0. 0. 1.03092780e-02 0. 0. 0. 0. 0. 0. 0.
      0. 0. 0. 0. 0. 0. 0. 0. 0. 0. 1.03092780e-02 0. 0. 0. 0. 0. 0. 0.
      0. 0. 0. 0. 0. 0. 0. 0. 0. 0. 0. 0. 0. 0. 0. 0. 0. 0. 0.
      1.03092780e-02 0. 0. 0. 0. 0. 0. 0. 0. 0. 0. 0. 0. 0. 0. 0. 0.
